18.67432139274193 119.3955226317654 105.87153220940648 -190.31349459206385 56.7266075298981 128.5727041959606 -104.78946286838423 -93.46652432108509 8.692239621143868 8.230693469255032 22.218705006225974 33.27097548631965 -24.575369398228712 25.27539396403406 266.261126953446 -33.3857783342454 -199.332600459694 -54.454254997187874 -20.163268015657888 42.65428255919716 -58.23363654232026 -7.156166212741886 -71.631112693731 7.845596815421534 -62.101445066533046 -106.78526594085727 53.35132025969474 -46.66882958267337 -49.422480176678725 77.80421925364158 -50.43056083842723 -62.54724915597388 142.34238719641124 -43.51154627938781 82.65555416762037 20.495339347571505 -103.948930035171 49.4132592812672 55.02472743046305 -216.5163473967792 127.55322146980511 81.58400365572986 -22.74346307204473 65.97381169294889 -46.037656643912044 69.6664564313546 38.401988072448816 169.1253397470503 -28.09960096528394 164.13644940139423 2.7066011810842925 -83.72359153484564 32.05499270731168 52.2356235757679 59.02070022819424 118.15157998227023 -21.298735585081364 41.20585819162808 54.43358003241181 50.73536532941765 -130.26290297580775 -12.330633035005249 126.08936195306937 13.882863648865492 126.01622240961284 -242.4728880305076 -144.07263593912774 49.442052753849794 -36.261472841898176 42.23104404706944 -6.55432708976059 -47.71629590453114 117.05333903333172 -58.86103591910046 -25.806126166843033 -25.772586358903595 -134.22832666364226 67.77163131218606 -51.570640134622224 116.27117031534745 45.83118304194886 13.224979923397424 -57.12852068531481 -38.91169340700071 -1.6382323339714098 -21.866185313419937 67.80313551535757 156.04532117288056 -15.000270212385477 20.227270936510845 -1.3930319681438785 -14.883685793974301 -68.64122195951674 -34.70825181092527 90.71142961202835 106.770886882768 -143.5160401457755 99.27019705022101 -123.71229373284773 18.221924541726306 37.03229993680933 43.363724647822934 91.83324109825517 -35.8999713178114 0.18815600323957954 18.442683127560827 50.3009545503417 115.72563653818455 -24.898899385983327 -179.56150091572658 -47.9861684485697 39.844998181841405 87.15996250572509 -77.47169543709734 109.2063832853172 -91.73294595475984 -95.25360320207976 -51.592045676726904 -90.1691994421514 99.3632029206382 17.834850318331803 195.3444232443543 34.83325252234598 11.143977172839012 -8.12862631136329 -48.52236734111356 154.94292877604258 -25.062072762116802 -48.740183020938595 32.70809550647711 -54.57592292105681 -46.109750145633576 -73.51822241675082 -44.470437081134236 121.11976841425852 -106.2399840473968 -31.67361381308035 49.562845315275325 -35.833959042377884 16.948833007255118 14.13301181723674 -80.03540412493975 -40.235312490718684 8.64829187807339 -21.6247783396129 -50.71978208623788 -61.342198814937255 60.03268553197433 -13.629878710273678 3.1231771574818437 -39.59278983923903 -9.666170341638356 26.25276666014778 9.553190430238024 -183.19187096318566 -107.32170827337283 127.3156880799646 29.714984514093445 -139.82046089600732 40.94854134988544 75.14762937382191 -37.65636528659996 28.21136988585373 62.92768731863381 60.491106064435805 -132.86184094689668 58.31015884796902 -187.69392197004794 27.82450861720862 37.915719455737836 45.87945715139152 -33.51121564586192 -97.26673333978131 -57.331620533906666 62.83875223784688 62.51917124676335 26.03106787073327 9.058446131229314 -12.834346344241228 101.06076323868834 -50.21776487517734 214.5546420381082 -111.31135530867708 -99.10775032872185 126.69035150091054 -9.308766669996851 1.848063043954044 -87.30199214072712 -47.284557066625354 59.551298832889984 -13.983293205579598 -31.5004767877106 26.878754249616016 34.75040615058147 -54.387716184548964 -74.9441716549533 65.55220504493167 -57.51941868755749 -28.144850722277504 14.77821034757893 16.75188827903484 105.68809989363406 -12.071472560748466 14.666230259175059 17.37009816520059 1.7807130216388918 -101.28328502719896 -31.314313698807144 4.911278615892944 -50.94649863892707 70.83642913354541 37.5677569127453 65.40136726467505 33.385529967998416 -63.573533754992035 -119.98268589077027 41.51572828480491 178.3722024003393 -186.3807059505784 36.28620295529071 -76.88936051873269 -2.6880587583738205 -32.63513083819038 -19.655343112463793 -102.11263969974036
-1.6555069251249703 24.86080251572667 -4.129685590885858 11.388248631341103 47.84942527892844 8.290044152353435 13.156395284371612 -21.451064986500757 15.836485301874427 -23.43573861636371 -14.117056672997366 -3.6366337904710946 45.758262378558136 35.79806362717801 -0.8312576809908271 -27.29005069302801 -17.936689707969396 15.410980107869639 -29.524726559786846 16.1731104598349 1.0183229504181215 -7.43268460796971 -19.091630684217893 -3.224480702127192 34.23005456438137 -38.65051002107413 11.32609360833514 -31.083646309969478 8.188821692787341 -42.331155030969775 -15.53053582585229 -5.4130746654824335 37.25620943047784 30.85639708653773 -24.918792221600857 -13.747488775726548 21.2912729411436 65.83727137899876 -8.8744720062959 -23.253768442874527 -4.689563316417755 -3.255193401343363 8.177433404310527 26.460055162640874 -9.658374544107073 -29.379474134896235 5.218255240417578 6.107303039060915 -7.649838545281923 8.597551097297146 -15.413930149223475 -20.745562289288543 18.29709953145581 46.134827903791376 -65.29879815741572 19.021834265124745 4.967165948440408 -13.746470666311524 -10.060481078070653 -20.44950208120713 16.26130315059926 21.209063075261295 -6.211554213211295 2.694124443847315 38.73145299428557 -16.21850689261599 13.01820005601197 -2.115863885157288 -19.918314701457373 -40.653136213422044 27.949953262311315 -18.034803547750574 -15.10141269408452 -33.35112668001547 -19.9627300878659 -9.219772373212058 -11.883338113024758 -16.58737807581253 36.929885370430746 -3.9324114936848704 7.238561938098409 -25.739278730348918 11.053081934746718 -30.786091536425435 -49.99157863324828 -0.9509713360249933 -63.54232425642984 4.563040244638548 -18.35444513384096 5.848393468455484 39.45767514209505 20.755183097230514 -6.481352607284511 13.106751004922423 25.39072836337837 5.869044239511788 -19.147989695939277 -12.844531463971585 -32.9241795938122 1.0250838993674232 1.9216728808464587 30.44257564373699 12.498768852833683 0.7762717092159552 -42.67199161316018 -39.2502583107542 -15.440826276993521 24.73779653640232 21.546177432258865 21.069861805753618 -4.684694964170357 9.128416487004383 -7.011040156443234 -19.94195929646657 27.649814336214035 -1.4771008662514824 11.374548860930473 15.083708181080873 27.25740571617492 19.954450258806673 36.42685785519605 4.47284962307363 11.825142051853685 46.892297439777735 -1.8964456653810724 -20.931063331250517 22.092472919017368 8.926211667117654 1.6797215148922122 -11.764378125763244 24.93700929833504 -11.647081343013122 -0.9774529079989444 3.8926084869612305 -1.5197573312544808 0.027642680851201137 33.350803597083164 -30.459114403120548 6.516221924323882 1.4299818809303895 -41.97561797054464 -47.238177146332006 -49.122576249422735 6.254319210079888 10.221090908441576 27.255496225452543 8.167162231054784 0.14475008627345773 0.8912889399920155 -24.64054932476113 -15.88596015441783 5.4158471248237365 -3.7528041563206305 -15.94613804531862 -11.876371779340198 88.81001144263797 3.3609854787289852 -24.46083934917252 -13.649708810288049 -43.225771378593805 -15.953544778146998 3.9012168826638525 -28.295023801190716 -53.8646223252653 -10.772885295196524 11.097557521695373 4.064827574968407 28.843710764539026 -3.797352990755427 -13.960952339715247 -12.40097877217871 18.57446693587091 -3.1578758183534785 -26.932404351308445 4.299124599229807 34.69300321661578 16.532342226269403 30.281627260231897 -29.732708551053832 16.397578363680292 -0.2831404045494386 -14.354957352679913 0.16856514872667944 -28.984016969794155 2.3215666192808717 28.068129611138332 -14.889483662654 -35.90944108066643 4.819249151312209 32.52050722034404 -14.463431194452788 11.073159788678774 20.737577392576128 -4.083615145526366 13.339453294643613 3.448709992613257 -21.268006416845687 -36.0551075684688 43.336120394266885 -56.33528007760812 -31.914425945412695 -6.726140861498061 55.44550539192518 25.29757128423846 11.597730422352184 -9.683458754423102 5.431606883154543 6.899078792404039 -10.84861695050999 -30.31874178528364 38.620835367059456 -30.016836427076523 -3.6659650229117626 -30.540021874449824 6.2871270622392545 7.383564013967994 49.35552489299608 52.94261509820875 38.50813781684193 -5.178153246579804 -16.828346521618332 -1.86043118349439 -9.655866741357237 -1.5071941189937907 3.81710122340898
-13.064198673381691 4.414349230507004 5.255045516247348 11.943916096782157 5.134275828484232 -6.6288499982837426 0.1774584009151933 19.74759980032985 -3.852929839724518 -1.0420388016820947 13.585005505372052 -6.57539823248404 -5.31737543440626 0.5389791056475034 -13.703875688051678 -2.3028735250727927 33.32430908046196 -0.044203247951144484 18.408963158699546 19.80505173580655 10.687302456179813 -6.795832853527502 -4.260329214804972 15.130240125050367 -13.498832105099709 -7.575102084698529 -15.171572835090872 8.19435105791235 -17.4532780817281 0.3481613000328085 14.80943088465878 4.080953974321841 -0.9585500233744769 24.00594714274251 -14.61217892168485 -0.8597409982606712 -3.433395047719251 -1.3794686133308272 -4.473474402467416 -17.691129805819184 15.284043717146696 -20.569685801392232 6.241764535554046 -0.9364579368345223 5.7849180386285814 7.257334210945048 2.8274346628417093 2.6553105038007296 6.747293165585736 3.5139969299842435 -0.2984823328163063 9.976319072830472 -7.304145845820059 -14.18111881480847 1.057356261585248 -1.9606022544153219 -2.705469219500304 -4.282807418473908 -9.376012515151432 25.63143765112687 -12.629374902344107 -0.4723079600739668 16.11499256667308 12.893698453166362 -6.751095648525807 3.816069661550158 -5.4665467400533645 -4.743297044842814 1.0881391530300364 -5.649457899360631 3.604988709710432 3.880815555530283 -1.2683324269079177 2.0656243466885 10.99082230946182 -2.989036476744806 -3.5210550509635987 7.5616627303327615 -6.4719918834769405 -12.209909188192695 -2.7920462387376985 -3.612513085830241 -5.138247115069889 6.495173162135517 -11.879742985988894 -7.891405927555828 -4.57511175122647 0.9879734109828783 6.30973558213693 2.8640240584693686 13.319824218686996 -8.7303264835719 3.2712076049639194 11.488569936491622 7.885399472972207 -1.5086952580258892 -12.5415725271961 -0.5258073655437572 9.68769542974148 -4.812235793219197 10.4357672136484 -17.556613122966493 -3.702105933972977 -3.2574852306210444 4.833285199932463 0.944140775524301 -0.32177345558305603 4.052793490586055 2.600202137093291 3.9610257122568715 -2.147512647778169 2.812851613917889 18.617893704126534 1.9118219747004652 -4.829576858375232 -0.16340781162618753 0.1556263534414765 3.8667924265095284 2.1082821417866695 -0.2514695894680642 0.4451389432583631 1.0103917488444916 -3.70607486378556 -10.531139277165739 -0.962732408841149 5.233479472111818 4.298186587370682 -2.1063245456898887 -7.010515030292104 4.120303455564018 7.8442675054839555 -4.099185059320071 14.840299327594355 12.023918254729766 -15.248602350375766 20.136357750385017 -14.820037868564267 -3.0899052821502218 -2.820119115389608 2.049661184830247 0.09620957163044251 -10.263412242702934 -0.4350459701626127 22.181788102730096 10.742012900922454 -17.632643654699958 3.350232378137146 4.147851227470782 -3.9262426562539168 7.366340684206914 -1.894407556418178 -9.547702569954243 -1.5523272338142986 -7.920613452134248 -5.003082236443492 -8.909339113219946 1.4996008489888255 3.105389651353372 1.8274243815218671 4.97785096818412 7.43637915919043 -2.6059625258750425 7.142416669567387 -2.660462915732667 -9.572324650394231 1.8290356375832462 2.703041040975882 -9.99142689957775 9.466959563098209 -11.254312700488203 4.902832544093875 0.8917607862256184 -6.019328764977287 4.761743824487725 5.94380422212276 -3.491522700148679 -5.318898959643607 -9.15472899690188 -3.3494659240933102 13.991391863329932 8.787752148855475 -2.809053840086282 -11.2747274847139 -0.39725148469208876 0.3942112493330161 13.049154942129533 -10.363548683662167 3.149054609774778 -5.786487027759806 -12.954863982831036 6.4595941704029745 -3.844704654926178 4.367413166457561 7.364975634833383 8.236252597004537 8.272767917408542 -13.54417027095112 -3.349223447048801 -12.06573219302255 -3.408438402426751 4.143318254227499 -4.480481743037899 -0.8510829275704863 -0.6826827693245778 0.6865607270778957 8.37856725206921 7.061703823850148 -9.944156301430295 -3.3712049930802843 -1.247672146229092 0.9601331917855592 5.757639151309213 13.074567570740967 -8.364276019631705 -5.210490200433888 -7.461607129558827 -6.70070474933501 -7.13201652914901 -5.919421845069858 -3.3943710420290247 -7.955276163657453 1.0296256947603442 -13.416770833047968 -10.763258000227607 -1.9611126772235463
-65.21929096608295 -37.949571671317514 -3.1177137853229464 3.9769692061163795 62.622937438103584 27.741538693048902 5.139084943123394 -66.28371089282093 -105.82172137964365 -65.91477038354877 -79.20541762981681 -38.43914386524846 -4.987196199297737 48.150466652313355 -52.732157791130106 -17.705410193005907 37.30290960288807 6.55984956385467 -71.99291953169956 24.569092515042694 -18.26155570985631 3.359216145349239 -38.16581743761236 13.014833164638228 17.634568269257205 29.878466982021344 -13.846482676340285 18.840226642604488 -3.474633192120216 -58.35345854150882 -65.07783706749304 3.391265090044044 5.287012703491321 40.541411597429445 54.14919813665029 39.19158467938085 72.4769164509295 -30.246668372270594 30.694388930098594 -42.20479353268309 50.94085640891826 -71.59662864141198 -40.42871014014533 130.78220166781594 77.53306285515863 22.05730887217674 -13.887673569974039 -7.808377048890446 13.700814486757267 19.913296126177357 -56.748527969377854 -85.03116273210593 24.727495074654772 -94.68707848506511 2.712598181313422 92.7751304485116 23.46360196561978 -6.458520646491895 19.013574509594545 -59.012337010429796 2.733656785342641 64.35627463381103 80.32451612499887 -27.84230432956395 55.99426338303886 -0.011172540308784848 31.160723059041132 -80.02197429030136 -78.71534712602343 6.686454223636995 2.1431151988294537 102.67828941815118 12.678127145719879 -91.69298272825945 78.37739650045772 -27.009815518902858 52.380048110629794 63.2377420446061 -5.473258509442023 27.194586529566237 -110.75410540162515 19.661996776166806 46.613184680632 -14.614963706956985 12.852430218250502 22.749484240574116 84.67976723942131 18.93691407778144 59.82474852415416 92.00050963557806 -125.26549158839994 -19.631573325722666 -29.656177412183737 51.146144218955094 55.25866915924721 49.02010587234938 17.252456851444457 -8.297216521266746 90.60103177351137 -68.99479890974929 -9.454955384146041 -23.328052045586517 84.02745165726604 -12.812771985512033 -50.40017113888927 76.61461714311257 31.13580278076302 -5.644345647603271 18.59730994417464 38.32421432668017 27.852344087916983 42.02884667000151 -26.799253976887186 40.767052138087074 21.083046508548385 71.3894187390401 14.965823597295664 19.11159338387564 -118.88020234901043 -3.6154607856072394 -87.69954667379861 -54.17097569170105 -89.04019175130115 -18.218128168048782 25.674487372386228 -4.226333600542829 -10.118241483867845 -53.82922335482868 16.067628619667794 -42.50831077417389 7.065049162193152 -29.65445815929728 53.38028442819142 4.054055160969272 -5.921194530124913 -60.11987221168761 12.615265241948803 -90.01272313697218 17.821530333401977 -54.70852367896493 -46.643244111539175 54.29397417806138 -74.61902047421206 -28.414857254245792 -34.68012943534429 -3.0415176312878103 -26.295949685416016 -17.54582042059964 -40.19165733130536 146.06113650418055 -24.61993058296244 27.17664833974368 73.09887015951446 78.8076873668246 -7.119692801221867 -48.13737023357354 -24.761386769616056 -27.331778596681772 13.02200144891621 -2.9276611365510568 -16.516700592687542 -56.337509407038816 -10.886342820227243 -39.46416873450675 29.435712016261746 10.669392575646622 -54.350103229613936 78.27961779536348 -11.668892920056905 -1.2907440287559988 85.71554339951395 147.05818359037556 -19.08581487272734 -82.76335978950014 11.822903363959593 31.567498868762318 -40.469961065379714 57.245257336306594 -17.202200031129966 1.961312789195207 -50.18512232588477 17.81435563827798 -47.29541480643001 -29.10872935534036 -51.9451455193399 9.420323935698729 -44.5469342231525 -93.34954329632131 55.76032784103984 57.83602976924655 -85.19707556470208 -46.067046335660415 85.23055802774023 15.400061222297639 -89.08948570001523 -25.24669109387132 -12.936525283547832 -52.00511538869699 8.168955657214239 -51.22291654680657 108.87697780444014 8.283172051587481 30.47944953035408 56.49349939906125 14.29340457734316 -30.50911798104884 -29.919310849357075 -12.335099100604284 26.0800587353156 -2.2850626111715537 -6.977025380780944 -46.731696518673374 41.41533218344586 -22.063867533636447 -0.7648805498047714 -0.2368132518688293 -64.43312825221764 -35.22459316629094 -15.755435738440104 20.924457333998475 -19.82081592448483 96.92965892399478 30.074223458130373 14.271568793472317 60.895554373807336
81.44601913022653 220.2859077742799 -215.45154934237527 -107.90778576285406 -194.95949909649886 447.0083433509562 -356.7576120842563 -390.82320700666264 -112.26747472420921 -432.6137479057023 -647.4742254701956 -383.12614477886734 -615.4381329826497 -392.04762112686564 -38.99909216373541 106.15497531373873 106.98088817819607 -41.79576051369616 404.8373496362067 -168.58873976181872 -21.18714678468516 18.875349663780938 -224.79742114945168 323.35350738982333 -30.809987625354253 50.210045752336804 -325.4799071170692 -170.9657157299914 -82.12573972035061 358.3155998628788 -430.46694844254574 -43.26952935515335 520.0781539105684 71.67352087239017 537.3775551275437 -94.66656741619926 -568.5626684963382 -212.9573771549881 -71.88480308863971 721.9396665688421 -275.3600252950133 199.20528623356844 -210.75369810368687 165.40441441264022 58.443294732134866 109.94646590326948 93.36879779338592 300.82135055669744 -153.97726295952376 391.5327505574025 -32.26946766083859 199.38012935196144 165.9246354073022 166.39809611144327 -75.69455834792522 -90.63521818000761 186.5671595183376 -191.5965470171954 183.2110865490379 -71.5401741778499 -288.7255552255871 193.0631924837389 -217.9563665425541 -272.2870090726808 35.81173964803027 405.41194283760353 -44.491132903484115 16.75613723111838 -249.22310127633443 200.8250802722844 -434.3209836837839 -339.31742917949606 -189.087332755463 73.53973005707971 -346.60633952164835 34.15695839452699 216.48984985271164 -69.12320262020985 158.7419214648827 253.0983004170349 -397.90233271813037 45.71902208187503 -235.47014329024788 218.29917045521614 403.3976248603738 -197.64329280365487 33.425455049240995 -64.07015221411402 487.92407161444635 -321.5191843392793 39.06943528093925 -576.4733698708663 -372.9682727897288 -122.18512560238989 698.6966282284486 235.72690072207317 307.49728743111035 381.24400253330913 320.8191720412037 290.2549530832706 -160.73161644633936 -135.07116906016125 400.7729375364856 -165.99385074209474 243.68800413440036 -317.5743749924154 -155.83412708463004 327.80549170561824 418.80711442353123 -227.0231720738835 -339.36092408421655 -468.5563862388487 275.60232116870344 110.41446945489832 -133.46562387285255 -32.038594077085015 259.95122565416654 -234.45379318026173 -364.4740869564317 226.9327498852581 234.2202998666987 68.15559689057828 -260.0197929701783 233.7462525475571 331.6515358219804 530.1351474872342 -627.0567001268317 -15.202103729125978 -232.96158704444235 172.5160815611357 -10.348359561263885 218.60576958155502 -301.1748763690173 87.66540634861533 582.9816465816258 -319.4787078560188 415.52124338265423 515.0284217805789 -376.2471002366608 336.8512580863216 -250.51755446572184 -62.06151448857018 -263.7725129136595 -276.0715199321026 -228.05783876463553 -60.87950137894359 -407.3098678656842 436.72814054812227 130.417902539576 292.47276938119796 -96.14744812036511 52.36560406326351 59.369353734033425 366.1904416101927 476.57848931948337 -214.4579222540017 -72.23223618905593 -77.42003862628694 -404.2940845328302 -315.17133838494345 392.49458714347827 334.8438937274053 379.754422237456 -128.89348431832585 192.59747871350316 384.62842027089533 191.06675410788736 -72.82137990120705 75.37077665011277 159.61144038538868 -255.1089659517708 469.37626767697935 -363.84441207981826 -114.39815750995199 561.5230248877034 -375.62478725806994 184.56356971985053 524.5701745810882 95.64698124900673 0.057293774304064016 -163.2966630468502 163.54789733127325 -372.0976476278388 -704.4956819410314 251.92265099701672 -58.79904550333569 -99.97861073569157 -189.48552350557046 216.24817417315012 -436.2448914960519 312.8608438442178 502.62707286187833 -358.47175337780044 278.8464202611385 -5.061571826538574 -255.03687856831087 -36.14304776862354 -395.61543306978484 -329.6833633252819 524.4145833402764 -339.3304012680439 20.07126277081889 270.465969219612 -124.4138274402998 -112.04458038017385 297.03890980777317 113.2606420632702 -158.6010814840352 397.8322555043605 -18.02621981947318 -16.585626747923754 -47.06486460003895 -675.8082980901547 -60.79061058364891 -439.49233972540435 269.3221845427965 194.9291257125971 297.6032774862644 -28.646010467672525 -46.99470294833658 53.00535491108953 -195.97534194686475 -100.23491371047312 -26.223649415320047 -165.3188259472903
-12.90440151865398 -36.90577706416879 -10.9173135711839 -52.98192429469088 21.25444918860799 55.64194824020573 14.815977796872717 -50.55286747379609 -69.6555565038804 24.213493890954968 -4.268600854601486 -35.31313471409367 83.95300166479865 -35.916164648428484 -45.89001602537682 -37.88367850977021 -25.18993862445381 14.724139658619954 -56.999930078165974 21.902209733780435 -6.80720295545604 89.8642793675813 63.37133368419557 -2.743488471978692 -47.797375656314436 -5.186081037310061 -17.2433141762317 -33.75886855958409 42.340881334206486 -27.309492125454945 -31.259930566928222 1.2405615250187652 -45.00713325404443 3.288608606942413 112.56582788432007 12.141827946451283 12.644360988188273 12.818432933678437 -2.5469324976646908 14.99371079314021 59.941384349676234 -17.707251683057947 -5.648637301003506 7.446457627280738 3.3534718788232185 3.1909208460410112 45.07464566412437 61.25493872915928 63.97307034519066 -10.058797382967983 -0.11497194663817607 -30.74124313971787 38.01620253095379 -3.129333789090219 24.232004086887656 -10.6602348843865 -3.345011553590642 65.12888298686693 7.145157304374861 25.684236808205032 -30.92403057716719 0.7630343247655826 -51.335977294444916 32.87993154744385 -29.055347894868365 -1.7276298551119522 -8.695444797085312 -71.22690624607155 44.52808350350767 14.200491144792393 -25.628766137293916 -46.690237634579226 47.9900028906898 -35.01506811418638 -46.01414390139764 10.49485891527531 8.23577723409534 -45.70947550055259 54.65123518741704 -38.44097791814023 -30.42715489870828 -9.864913198211045 6.4132568038203575 24.582128909800616 59.05393356993546 -2.27154953234717 53.039029043893564 -27.541689054695613 8.939568818686697 -26.02863214012674 67.3117280697334 -50.18557958942341 -19.924403078168435 37.188038816747245 -51.91417569451163 1.215473115392846 -47.028190012867675 13.580640089449005 2.326585430038265 -97.66913779704154 -37.015775567349074 -47.548069417964975 10.975348911108705 54.954561992636634 -53.19395648490342 -54.09614408952984 -31.654022996975385 15.293714258502398 14.830726242337677 26.866298721295706 9.053181278673287 -23.530886168129225 17.672016409748622 36.87921104187991 21.096235042667345 -37.60309168895583 -71.44337100743401 -52.23253395498843 -15.760027029962032 -16.438609015349414 -42.65619897949903 94.05859288893683 8.647599435254461 18.634761764000608 15.747229789834384 17.345491505710598 -27.945546062054692 -4.9247211174245 20.695553142883835 23.43956312797101 -0.46338375075490695 -23.474102836173298 -53.945813051895044 -13.727166259419523 -1.392061904273454 10.927491677715063 -5.096836782049587 9.55185858740881 -44.80564750235592 -12.006476453535097 29.35079903651895 51.397519359381825 -20.341143584637496 53.21167027376169 21.548493958377797 -40.188414960953665 -29.618910516417603 76.17712552247947 -7.488002949802748 -20.86665158027258 -23.23840516064379 24.21157529240111 60.60954779195306 -11.413524578835506 -59.53382939709982 -25.044906051483608 21.91821513707664 94.39938581012805 56.76910150071352 -17.54467222397495 101.49681244174661 51.83433166918921 -3.79687922073978 -12.57272757096077 -3.36312616952846 -9.106863325931394 -8.860646635958147 0.3511408548895982 13.418154697239522 16.025623454725682 38.58478471017436 -62.778520457414906 3.059388224254973 6.013921937579113 -48.95459055667021 -0.42857947877613506 -24.00160431195112 66.63539040229226 -47.61208808149397 -11.693525410199054 -34.90919965181191 70.42217925384102 15.772112774046697 -67.08970383427904 -39.19876495746174 51.695231607777565 7.039650254593097 -15.83015136449244 24.066131742878337 -35.92521699901336 34.83310071529102 9.649091225463085 38.72107944375859 39.01290967193421 63.704343062967375 51.97597304783832 -18.367069513085983 11.782894509470621 4.175772675598069 -60.49393011617422 42.26847106240747 20.359013344286176 23.62524490861112 28.020566576159943 -4.080433918638103 -1.6339043709450716 -48.94203902548232 47.55354690515258 24.80678618749444 -24.513115962530886 18.86254840293176 1.2878070058487285 -38.590552933173626 3.4934390112398304 -29.352335511776143 -23.631176597095973 -18.741294012310885 -14.70209323059928 -0.49514104535032355 7.153279966290416 -24.842745515689415 19.786312845985183 6.057930618344367 -6.045971903146944 40.29550245904535
-13.787750854899176 -73.25615399883534 131.0145029710832 -55.5667448165265 98.87024899061336 5.763639249384161 -31.952007096963882 -4.325927928957269 -142.36327092658445 38.92310511433065 -16.991003547806375 -136.43021292732814 100.80807003855759 21.85147152036612 -73.78222821373886 54.05340486138959 -2.1204703506499327 -34.33493961290965 76.12244385672604 -41.59075049604328 -57.653759387777654 -18.22112702292889 -128.7735457451058 138.17348887429367 31.858566108469276 18.45191710400137 -85.58471455060463 -12.513267331445366 -88.75075650647412 83.43328649022995 -57.543888865112436 -57.67562620301476 20.581401930465073 -151.48472860045783 -6.91526456010764 -57.202728927817176 -50.28635196402928 2.135866560863145 -82.4359095090973 -20.24422951161305 -25.514077642451678 110.93010576663134 -0.48716469619206315 46.043471081425665 129.57572389525936 -85.59237032272951 22.601172257793998 106.45886193510182 1.9649551673339587 90.70802466423943 -23.595740620769543 -6.808501255036839 76.77725443595959 -30.76301709568508 -159.2134095995373 -50.56822526252198 -90.60383001831354 -56.73987020705235 -86.0218123035276 43.77867597885127 42.043596615307045 -48.57643324260336 31.82855230971726 -64.00719029666969 -68.89944977834584 -95.51875704146457 -55.08492127110514 19.85207700377341 -78.7921316247773 166.31507092837245 -119.97066357565701 -43.839332215061475 52.25291105164094 -182.01179425237243 -9.1781882414618 -132.4421334700464 50.427323614753 -184.4798058836123 7.995638684252738 42.46221817331993 74.79182069824749 -37.03355553496731 -130.05213896373849 -9.5201797238125 42.994880204813164 -40.10377343227987 -37.87673779281086 -39.642406372255046 -34.882182695822586 -10.769197497906509 15.109278008126752 140.463927856437 -56.3560796837994 12.086967026673392 18.20738559556778 -142.48231384163304 91.1077241317336 100.20843138375176 1.977371290428796 125.90752365831068 -16.085679737433026 44.0617497414112 -64.7980230651265 -80.8759618776701 -38.251270017877985 -175.63503375707134 48.192304682915974 93.88565296305656 110.41766262603892 55.18835250804622 -22.712590854857808 -96.56903583191986 -35.26436259706283 37.75356303198908 43.48768700743403 -64.2762196798497 2.3123751151652097 -83.81925734847259 -134.66223959482136 13.314236144499848 43.19384220954931 -42.55795925993362 16.653167349118366 17.631554974493657 -17.409843424277984 22.585092525366548 -77.81243391228365 19.315300708566827 134.07358129093305 21.176728545072734 17.924122785680886 -16.45992363181572 -58.80053122608697 61.31699760510403 29.05649743784173 48.28047717023319 0.319613004693331 -48.17004209770194 85.72593624614456 147.31939262089827 88.51151608740068 -6.333084239265722 -1.5888377677856336 -9.602747624032473 -59.90662794679982 11.018519852760745 100.86360732749138 140.50407378005954 -24.23511181611122 -51.34774897589086 21.620251191241714 63.43399238138957 48.72055545495065 -6.326004091133456 -23.257355124244036 -31.30738913734306 9.850237384081693 61.11706584612855 -29.633191043283965 -18.812618732368858 87.05957500700198 -39.05381480486582 14.035966613065884 119.07457976397502 -53.74822498848851 -3.528914459993859 -5.918234470470975 -0.5060241795990522 -72.24238904086845 135.84168769438114 -139.1918640084245 77.5964969610187 11.450347386336638 87.58566202603656 34.33754664479825 -24.746204297105972 87.92732318055066 91.63199927765456 115.22216524261943 44.84613504809413 81.24276397477949 -74.92120089437915 34.532800838015824 -112.97387374544336 -65.20235057591347 -69.94900703921226 25.513163011223753 74.73361290425787 -19.573491764610665 -5.888017932362196 33.16564010496031 39.3886252780635 139.7956725457103 39.622095028421256 -2.141477126151843 -25.415308480366157 104.00491539411122 -59.35116243006658 200.4132352441813 -43.83604390820856 -9.860596642468321 -126.27213623068648 57.25846439204798 190.53184474469302 45.839543670076914 7.27373586336106 -79.93969537708779 123.49815467477545 -82.8094041171393 -26.910623523331413 -20.737825996486833 140.96066724816208 -91.65048301840507 88.09458406932771 9.850363958246014 -11.724420026425575 -85.38787340449693 -34.41250485045154 0.23408497727677768 93.3337155227547 -14.034687387985214 -176.58124823743657 64.76459120659372 -59.765961596831524 20.71934150595668
-2.253595894006437 -2.0813537217143736 -3.2693286880803454 7.56063072202366 4.120556629058255 -4.506438855502749 -1.9459151484557422 -3.0610772581423737 -3.10534691090283 1.9305329073768696 6.647640029220498 2.775927746746591 3.0639685745854477 -1.4468950740393203 -0.12114070139944569 1.8100191589470602 1.7903228488842506 -0.8747194090264576 -10.673929745293837 3.082508300984627 2.31952785281426 0.2628262858212108 0.985738887884808 -6.331186885196121 0.04496581332216691 -0.020937059534536485 0.5763453618865484 1.1308065702788306 3.270375438766365 -4.58037519912067 -0.4206774060510586 3.5582658839318584 -1.6432564533523464 2.997870438160704 -4.762464044177478 7.08886159438592 1.0445447778430046 1.6927328014691998 -2.782944032825513 -6.542428234792294 -3.321370619594779 0.08951732770794647 -3.069875184441089 -2.559385270544505 -4.44000725273345 -0.15657826614220186 2.9088197770585835 -0.5151255691832283 5.8226292081228275 -5.596246369501334 0.26712776229089563 12.023666481211492 -6.536263857714319 -4.177641077836535 -9.03100956422601 -5.214948122531345 -2.9055820133182477 7.165543243147581 -1.275982400188423 2.7411112520519794 1.1977314273686932 -2.5750870917104143 0.16165083488362347 5.157762283835783 -0.9147612637644236 5.036249349360556 -0.2581288890392735 -1.752274875317596 1.3558893179667166 -2.3564095870805315 0.33003398343581253 10.23046252224978 -5.620979739135598 1.545173974819804 4.257380503682855 0.30451251906035204 6.27430884560735 0.9638676724277105 5.429261333432219 -0.10523764201621344 3.8530679234339167 -1.0869567765524586 6.2973299888328285 2.9831279112828692 1.1719294064473165 4.593084764553378 0.07161614433392098 3.567981845780297 -5.439981757590268 0.2764431530905012 -9.990417821955594 2.5114309637364345 3.0648265613949137 3.583033106985556 -0.3741255899808798 -5.033291499831816 1.7688890279907337 2.3265462903591474 -4.762235496945174 2.22063473547951 5.401270512611919 -3.3907222054959014 -6.022851899153202 3.609198768463506 5.673892277451743 1.4883919264454186 0.8314511217562074 5.747084083363488 -5.553715280395813 1.6550688177618695 0.26422460994142805 -0.10218744313350492 -2.504344358304062 6.51774275057496 -4.0271505382430615 2.6480228012487235 -3.4425972698095935 5.153371019358162 9.103397371102947 -2.1259235346882512 -7.514397303048508 -5.337190882186094 -0.9938282339970342 3.3705151744375206 -3.006150930356081 2.347674132444576 1.6870514938950818 -6.362776134919208 4.588994786837135 -3.789500151694649 0.6375668482384897 2.0027474230038083 2.6929118334068223 -1.6021346294678667 5.103760240923694 -12.676228389212477 -3.058772863486923 -2.0418768770527316 -2.5264893664870636 0.3347376292428574 -4.839004271939044 -4.114279876360801 1.517436787900889 3.553450362163015 -1.595530475616888 -0.32867265544989377 -3.201400998629956 -2.8149299399741805 1.9475584284743659 4.6466536733336525 -2.316445644522184 -0.8859126711500755 -7.31185741925913 -0.9122928185334246 -0.6081427294282158 -3.0110796540602376 -5.8036856606278775 -0.5697277313371494 -1.7813480871444223 -13.182761236520623 -9.436692024636915 2.4360873428014242 -1.4875839321920719 2.8775441510410733 1.1251699389545484 1.0415091492991915 -2.0955871989140973 -7.389574889627213 -2.184403875106729 1.3784318188765752 0.9728275983892491 -6.198571069593252 -0.9268119772290557 -1.7819165558676637 2.229906206788943 1.061499863983022 -0.346402989128281 -0.485610828432938 -12.205306124979101 1.15607243798153 0.0871321337313783 3.4942044339578207 0.5903367029366366 3.223758581859296 2.601701627788143 8.57573576323755 2.756391051312393 -1.0619925728632007 -1.870545126818534 1.3363375799866588 3.906494178281025 5.449315668822769 -4.841259322775041 1.2791906623584113 -1.5791406362575167 -7.691193261148977 -4.638364749279872 0.3446496237083949 1.1202420229756402 -4.922787275722844 -1.3019634546191734 -4.880943695862091 5.352003498570663 -3.8076790390059445 3.83611406603143 8.273180906073117 6.081677430726089 -2.195633268047828 3.943582831082794 11.175611425324364 -3.0418088607158738 4.07782048161276 2.0313615221970887 -2.182775325577907 2.240228382475796 4.35854111797069 4.182437298159283 4.56018059534391 -5.047333188453299 -1.1898975965532042 1.4863295095294828 -2.443289730341001 4.095551272145564 -0.05792702275354713 -0.8754572261439791
-3.681606089588768 -1.5402796009329056 9.321257354996725 -0.000107070292199642 0.036428720864564924 12.85969326004334 3.8334963289507553 -18.826401897124057 -12.184693973291948 10.711346235990469 17.004211895816002 -4.313225866416954 -1.7185729200560813 -1.6396852228555334 -8.46736979263936 3.245781461257624 -5.230206182387768 -15.764891225212772 2.9652733830623634 -0.9813801323893548 11.16752340332889 -8.07624839853785 -0.7499575682232342 26.50787186773672 2.074578141399144 -11.660410553346871 5.550740484518246 -20.640493649819504 -10.824818186179474 3.1478563785092653 -12.722496676837013 9.280594930682877 7.214615917079817 13.160486031815624 -12.99706706475018 35.74077712011079 8.33356018972437 -15.246096733134193 -13.669350692970585 -2.64503219718135 0.9551480898694534 1.0711234218785837 11.684196200142258 -10.549109981506309 13.462100499334676 -3.9999494506115454 -0.8303373012003171 9.697457139295437 -4.0349392384285645 15.591671590160008 -36.77532738640492 -5.893591034273957 4.122128455895627 -30.30069838390408 -11.751743488921669 5.000671735285151 30.16867713596474 4.120796755860242 -13.618353808921675 2.6465182196398778 -2.9672695720160207 15.222608888400332 -14.8959627745714 11.254621198627376 27.644595868718156 1.1851230138978932 -14.892628781552062 1.512966061755198 -1.0926617098180162 5.783634152097262 34.189736733824745 -1.5154247966913563 6.873734804301975 -23.724154372947325 5.44857729317565 11.130058144253583 14.561303639677858 -3.149092213903914 13.054843342129228 -1.9562877680662318 -1.563294135065645 3.1225870813479273 -10.955436092862808 16.093138738456588 -6.109350032975177 10.172263026676323 -5.700597326687336 11.676367582474446 -10.518598077722686 22.045058471773633 4.3237803881303645 -15.736096052591902 7.682898519302124 8.166713659796418 26.207238072979077 -16.939821416076693 4.171915679637056 -2.8022167359817 4.680003804053905 -29.81395839596581 -15.936426912436955 3.382650690367155 17.910490342331773 13.167136502544043 -16.267256028895204 4.671519643942484 13.7497674007545 6.971647138754546 -8.716914305771597 -12.467614025119452 -16.28349647952777 1.1384375722598583 -31.614231432164157 -1.171100305089452 -18.18727565474517 31.86523125758926 -2.9727724263765416 -17.178327434901462 17.293394131660627 14.60845307312537 -8.848067306394466 14.941846022379309 3.3557142105352646 20.520696265475497 2.465043901314709 -25.240862571118328 3.5760726733944543 5.052278203464762 -6.107687266912584 -16.02332170243333 -4.571494781193611 -5.138937621625321 3.0379743126236183 -1.971688090546255 -15.872720092259943 -0.473492881244333 10.057079888058148 16.22401116256184 -3.5887272083057624 2.21705421885774 1.9052328154111855 3.4545573654897312 -18.465277691440964 0.17538493289930318 5.18541642153585 -3.358713288837156 -2.636442763455587 6.7585794873592535 16.43761938002976 12.888573517609144 5.641736236853564 5.824662465569709 15.611209740274207 2.1024795659921915 16.9799399286535 -31.354591392548507 1.0476718076490306 -6.4753761208277005 -29.146484634045336 4.321121822845152 13.41474864617242 -23.01157069732417 10.753544756427047 7.399390305990467 -8.18305691295574 -18.109211269904197 -16.788237513470307 2.270165881798863 -3.1201585431497554 -8.487037463914463 20.25439070365117 -18.74439030122177 8.823710546558393 -19.94604094595823 18.027396910362476 -3.972503712868891 -9.30499217761059 5.114975637263828 -20.78325050275405 15.612161433979932 18.461613337766792 12.602689887007863 7.709367197395528 -14.279102739456288 -19.819914491232502 19.131020410286244 4.984859915900641 2.368838791517834 -21.2664331825104 -0.8620408400182409 16.075146999557713 -25.142332883918826 -12.181269305548518 -7.210074031772166 0.5617909464690335 8.699705308641462 -6.688470137790795 20.348774985084233 1.2279268656697615 -6.189860269846335 -4.253106023675049 5.562003733720353 -2.7251855916624526 1.0316689665881227 8.20522720741701 -7.685306989483279 -10.827940247600495 -12.38509811306659 -4.168864654893769 -4.224207063353556 21.918562033729927 2.9181388030554882 -22.069955555165805 -22.00416462099523 17.913129834461266 -1.8200690066994607 -7.2651752414688255 -13.774713246072132 1.0606998941555148 14.463576687604663 13.479989002301508 -16.13240717329402 -5.993019416920772 -11.451743356156443 14.041153423110732
0.11916213487411402 13.78522442052574 -2.304850385355098 2.076513483159005 -2.9413695588958424 -9.913023636595634 5.141578772601063 6.346400565226535 -0.9032988912716916 1.914293153735043 2.376844301618351 13.646361265756969 -2.1954032091432634 3.4471474202348036 -0.47959850649999036 1.7163672677036268 4.276375831323292 1.2257670207818832 -4.24417065180003 0.6688796252807263 6.201797799804968 -1.6170363771473213 -3.3547821655146803 -1.087899174710596 -2.2099372394170977 3.433415011325698 0.6094996122744835 0.9432223094027712 1.5847692925434085 -5.063108337537707 1.3854712901502189 1.7146776330619982 0.41851261467626744 -1.0822955762539959 -3.5942656724596502 3.9182203805968663 -2.897675561523965 2.3564525218715136 -0.8994136960871688 -1.7358757027427463 4.092113150115498 -3.2909665892655173 1.1539428345098492 -1.368725615336813 -3.9963081461361494 -2.2326507330623273 -5.389889593439788 1.0562904023118898 0.1749224454674224 2.1978529221891967 0.38124042963965415 3.45128385907525 2.610474097434158 -1.6667429628498172 -3.3386418230690773 0.7664998530213812 0.7886289954281324 -4.710856671731569 -6.642629688763967 -2.7329363088047716 2.888602805770656 2.0362897411522374 -0.14997014236957404 1.427533502959396 -4.332506995136264 8.31854518703729 4.764867810186934 4.377164168617568 2.3851279394742497 -6.867034430119376 6.619615892834669 7.057033411350459 -3.106522347563571 0.7586768631881915 5.035507813203882 2.870115683631523 3.669797706513039 -4.0663900630382 -1.0440648281223686 -7.056018314229176 7.395428318241591 -3.16749752350108 -0.15417932831214798 -1.0893009782927847 -0.029918264856627352 -6.56669648562436 -0.242307617056281 1.1170106573741079 -0.14292122035267302 -2.3520140949467785 0.192344887046571 6.938022213294979 1.5630944299544995 -0.7964785496775859 -1.5037254902840247 -7.298587030006642 -7.359293654060454 -3.3758103591420388 -4.0516304395665514 6.028600047566446 4.14091459824653 -3.3734623801628505 -8.773844289575125 7.159535598578337 1.0584063700566464 -3.2559215693236956 -10.091043250730339 -4.024250143726677 -4.750942095734173 -4.466882835642535 5.615846987960143 8.121507089682204 2.422906223735497 1.573665443019401 -7.878016478244388 -2.850856551615623 -1.5376273293114975 1.2316308083655858 5.508503681564682 3.1974390663797645 0.5853136134589252 -3.327621664170439 -2.517518094043205 -1.3062548307581667 5.28672211812808 3.796966419721402 -0.8189849032708624 -4.550980651938176 1.2158014228031953 1.11196134601833 0.33628599558525796 -3.635621993687337 3.597880570159973 -1.2454169115445934 -4.561968524796994 -0.5386390486499893 -9.953539846652923 -2.5136499937691066 -3.0452871253428744 -11.42763571464387 4.588305576510908 -4.509766053124618 -1.8544226835755535 0.6448083749965297 3.3177159643452714 2.1710302251369926 1.325650128839678 -8.377307960872276 1.194457101105527 -0.728656839884932 1.073707005138248 2.1888322481625306 -3.6736874224705343 -3.738831790653608 -4.005642081255505 1.4007777597271192 -2.8754138734851202 3.4983680586361654 -6.623686742300153 -1.115771742183396 1.2635407140592942 2.604711876543855 4.185607474010828 6.160208537597165 -0.16752397851932097 4.026167796578855 4.366969468882743 -2.270028354584985 -0.9688861434504091 1.9554793946092721 0.3386314617423075 -4.789178804669818 -0.4609990180475278 2.967702363969614 -0.09084430802199132 0.14966838969171847 -9.644222157458493 0.0519774858238129 2.375997033003915 -4.266078630276321 2.641460445173676 1.9633045477280318 2.2442096968641647 -5.360439552184168 2.511587747006813 3.400540220311299 2.906267782529477 0.8653732026842278 4.142295554293899 1.2553095683767244 -2.2630445084738997 -0.8211244666467221 -3.963287567073138 3.821743192344604 2.0632106113273094 0.6488008000690686 -1.0349832480458345 1.4606704850870702 -3.313435484455628 -3.109263741461397 2.4796109768582473 4.335185660587915 0.5607570572833589 -3.6456445081840347 1.543638415359198 3.4260135042908795 10.939245721088596 -0.26638296734482053 2.2164323063136306 -2.212795130543588 -5.461059408600028 2.2224844249813605 5.147570494648059 -5.974820642345699 0.6516489497877767 -2.21538933092434 -3.1797237190159784 5.0527422138371225 -2.4808593274087527 5.3304629120577465 3.3674606397615605 4.759356964658217 -3.1201759256126285 -2.7633514843944886 -4.146887908695078
266.01825884036714 203.68501773237844 -108.47017701744848 -216.38575807377737 34.96056590983231 93.79137563919164 -323.6224232084233 -265.31491339727586 -43.9654204446977 37.59185758271761 -359.9947176251663 -205.06074120811851 -180.74734215341562 184.50210042469018 44.78480924083077 -12.633727662636074 -124.45813761191476 -18.94975712581059 315.0518096956366 28.767357326931947 -164.68156397298822 95.41534588596033 93.31196450096779 -90.06334845195674 -23.7163504488187 195.78996454652878 32.47765218765264 30.97926575432322 152.444215831556 64.37473557600228 104.68667729602895 -81.02437445826845 82.15816350065306 16.49525758615477 109.91339043631103 -88.63125123874286 -49.3275069673347 -105.56671040300549 -22.371620909724314 -86.35412753119586 -64.44764262944739 -239.818069893907 195.6161704074871 -230.78081481211072 -104.14672740727747 41.28052696809163 -129.65687685630164 124.91682117874008 -25.353319809084155 123.22189941443425 -383.86008301006717 -415.2879063444287 -182.5579136807182 -95.33455983870249 64.67712394330115 -18.820478615458786 176.38716817493795 257.0046329661732 44.757198762045036 144.1313371454542 215.5917158877298 -238.9413841649643 -347.6677280799899 -564.3979115756517 150.94511407621494 37.597821677893116 202.72361600140604 207.43938182877673 -190.08821976992107 -247.21535564158424 -261.5831686034463 -225.33783995077061 382.2853584310678 -311.75519047203903 134.82448086372537 -235.91880075577194 2.9338318917940924 -152.8628183913971 -30.016000442155196 131.37200456239475 -422.2241490537696 52.29334427406723 81.38760649485937 461.8720154142064 227.69151613319895 -10.3119148799442 -168.44040441800345 -23.955473930188347 185.1751423420532 414.2607341667763 142.5300050512842 -11.585284402049467 109.04204618571286 -124.38746596034441 -171.0004934264111 73.25541321621674 225.14933597894924 172.82688104909806 -26.289040557017305 225.0142859734777 80.21003987290969 -176.59493617758014 5.311206501896629 443.54309400522607 -13.675910602214072 -99.1432185280084 330.0932355122271 -12.859120003701616 -139.6454583924584 149.88318148451148 12.53857163954657 -121.18820028072805 -94.22585247333645 -306.378312184179 650.7798110913834 15.353187406224992 64.15809851111347 -106.07966974374327 149.91550978105187 50.43191008697049 262.1634520952861 10.63757115390789 -124.93964026251058 37.88067087825038 114.0811103385567 200.67853350775528 -193.22144050300255 -86.04387058560556 142.31177376187728 239.02703459594048 -44.02218371792106 -335.75418879224713 163.97810582076806 267.7949984151871 178.12386969143347 -84.37125729389295 18.44121431298875 239.04586833715706 273.6449978936996 -203.39884625923762 -109.8133574767446 251.66095883665784 -380.30953081434177 -352.91391954665767 -1.1330976303929705 -82.63807182621265 195.64027489203153 395.84989820152634 -37.0668386411253 38.10815746197448 -278.7862447886087 206.14500220602142 -481.44251437441596 137.97062968889307 71.5082809118897 258.26831898124635 601.5655994678945 -278.21021405973926 105.598502620012 -166.18123767843835 235.39851150418335 -105.88057749443215 -175.30842346461677 233.37579613073015 -98.68512399701932 25.396852041889034 78.81921177530563 395.0080173395986 12.644850753904679 -7.569169009020088 25.66354131829932 -210.19596311951997 -109.52475920594212 -272.7711639754741 200.51882059944973 98.33890264753641 -113.38254345927835 22.916446558612396 -118.57485854726865 -93.38622087893765 15.155230667919556 -83.34782612090424 -162.2687461411635 212.77026041744742 143.73162220069878 69.31382419198812 -277.750722004568 441.80048842554106 166.83560722069558 -58.1684679869155 68.66491223229015 -128.44811588935852 270.53926654487265 185.72307501008888 -315.4197662767602 -332.52333622474833 -452.9835521115429 -596.3410526288529 362.20029763236926 -85.33589689605412 -63.364562854483864 109.41775210161244 -7.26570580154428 205.08584674582355 -67.1017405552293 -86.85245827602083 -157.05896843918418 269.8992959183697 -127.35246659699196 8.252534937721878 84.17193805548618 -302.2699300437946 -350.0347206843818 -72.73446750031556 434.85227596350825 173.0124817692293 -68.02530346064049 232.60532041232446 86.12744930358997 21.60978560765195 -200.71664664131646 -161.12296880204966 66.23115261332083 120.64386307828954 -6.422482553588882
-3.5567362123652964 -0.3837042550907861 1.8806093274218998 3.2083542125723 -2.2597046570331134 -5.001349660648515 -0.5124485593427097 -3.311785279205241 0.8360318818246687 1.8399935235888427 2.6470860530267926 2.5473191962529316 2.974514361603665 -2.857912368365806 -3.1282395293409864 2.983250038701122 9.547339300322381 4.122730064573866 -6.133433644728482 3.45234441167758 1.8584473683320026 0.5076434129104134 -0.45552553824504255 1.384394848015123 -5.8470521072099135 7.79700190614006 4.637282350436817 3.727949093512057 6.5115530005762 -3.0615109470291 3.6885875152336967 3.1312936678243632 -2.1830228855109564 4.382117241828714 -18.312528809582876 9.704854679680144 2.5496759859173594 3.4117213995739517 -3.789403325278986 -4.034587309386176 -3.9809570780884984 -1.1061188189008067 2.360851128611495 2.502021447654602 2.4284369084595703 -0.6235958146067062 -1.4531097586126431 -0.6137543320106633 1.2226057716347802 -7.195158389329758 7.190542177873198 3.615192712447426 8.628467126248179 2.656745698930134 1.2104314005409094 -0.7256752767553415 -4.952830072972686 -10.48186362430995 -2.9833224800460294 -8.957665276413461 -3.9644705031017393 -2.078070370613488 -5.466281019945901 -1.0240040506212829 1.4346515892358032 4.868027182809947 4.320615478898532 -0.9655174562614729 1.4060559066508802 0.771354871059981 2.463814540947553 -2.0564109151181533 -6.820880114905903 -8.597391121273041 1.0279232247881467 1.4603680922986755 -3.5545587439871107 1.9460687938631303 -4.791210728885299 -6.294470727073249 1.1908969959987177 -6.826746893661646 -0.5967124102674147 1.0579545761442908 -9.459071880056975 8.216794580069022 -0.3324637017783038 2.355499343478908 2.034432837155876 0.8903867777590683 -5.024126543019572 8.039992479746688 -6.0228282066874055 0.9309755279528422 -2.661026493712142 -5.769631611831967 -5.058035086788832 -6.21916120118243 0.11202516101380787 1.0156138166462882 5.235303356010113 1.8641887538719097 -2.7066100238783117 -1.2971369615849493 4.437418595740039 2.9727228493926927 -3.404951430391874 -0.7648559732896631 -2.1056411091875216 -1.7375599708793223 1.8843818230271314 0.18443096169962497 0.3401339773329493 3.011055908722545 -5.078056012247105 -6.788661808826208 -2.895428736340579 1.8483978837501343 5.011222527790208 5.945825768458311 -6.052805949532096 -3.3309059513564385 -3.867951606690758 4.371489560390768 -0.7832325996743338 -5.9048685604983495 7.1799811489269505 -0.30222409952068124 0.860487045463812 3.2806390662727996 5.911385470241199 2.647349905342202 10.019212119857826 -1.778617992142342 -3.173357379060324 -1.657307473033873 -7.8484277786129635 -0.6393033383893144 8.078257102123882 0.38970115801433214 -0.8186568275182624 6.912057001160903 -3.229511801935573 -0.4685060373230543 4.662805587922731 8.144331923569418 0.25257735609834003 -4.662753696670081 -1.1619033359657864 -9.38479577960062 2.1580293459395143 10.572695873517572 0.4682533110555295 -1.1035260572198986 -0.018259778905088692 -3.7778605239824397 -6.047548116925494 7.034582286268551 0.24569445977620102 -0.4381472724767076 -7.3502145974766755 -4.836430933296918 5.0634353859181935 2.0971681914448057 4.792443076164454 7.109979123237279 8.715578547614976 -1.507166720931599 -8.574501647224668 3.0589710558842547 -0.46370592827431056 -6.294901819865442 -3.8914705729523327 -3.626788127638341 2.7390066071610586 -3.7456078229425214 3.930120229328222 -9.25713744844863 2.500184352999073 -3.263698117736817 -1.4338160008842233 0.02744607383780013 5.468885775599253 6.723453313351218 4.157348168082904 -0.5172146774049395 3.4942263111371723 -3.0009890306090794 -0.8498126872604359 -3.255116206229364 4.085655011474611 3.74098753177375 -5.047178807317999 2.9502806947148694 12.001664775482936 -1.4973808059548286 -1.0054020995429496 5.433004145349038 -7.591779098589604 1.523464227598107 -4.110008663149978 5.873554540755589 -1.9451045821561979 -1.250640397876157 1.5864471957307984 2.673219999939674 4.123857429153035 3.40558090899789 0.5990958198614346 -1.5359640499202674 4.169923249399297 0.8599801683735777 -1.44482745035464 -6.576683476018157 9.830550838984088 0.07325622218479742 3.7354186668574147 -6.549891786455746 -6.216527073920827 1.0961580338917316 -9.224903171833633 1.5097777781423445 -2.5573733975346777 -1.513411590779042 1.9123496989574014
-2.607464493997106 -5.14785739465836 -2.1919160162166897 7.483773628199408 -8.30113257123938 -5.713236156925501 -0.7085150528332216 3.208543980766125 3.616778208495025 1.6576119719256837 0.498585182542022 -0.08343858193121648 4.140299495161773 2.462701702556883 2.830952596919235 0.6135673071318539 0.18502313129458997 1.173053915277284 1.5541617161956343 -1.3169936364138752 -0.9280010014037067 -0.7184475335842391 -0.4321340086249174 -7.277226366521499 -2.422449578938099 8.68351462844495 -2.604263992070873 1.6874560126406761 0.2859383184134688 3.8083952363770637 1.9660258352965962 -8.031698977846112 5.490212673234885 0.252613331392442 -1.4858990771925649 -4.5633092188798114 -0.044278844465704445 -0.3610424005479594 2.43116196938354 -0.30758645778317073 2.4244796186430793 3.637929384244236 -0.8082528426540136 -6.287707174701411 -2.648275458500402 -6.563967539653253 -3.3774422892097684 0.8155069898874856 7.402983838561129 4.075071745694327 4.023640561425128 -2.033464009709472 -3.205744546621711 -3.791171948973508 -4.170514580209788 -5.420082869771516 0.4403777844518591 -2.525656480578429 -5.89472126966476 -5.951238292894528 1.0645483418574078 2.9237619170441937 2.5903847440899166 -0.09253736866534869 -1.1738982251863472 6.312705620027412 0.9921340768682744 -3.5512449432174695 0.927598964518855 1.5881286359502536 7.340767798578872 4.414500322732656 -2.810573948459649 0.19229416340072 0.5499924923170758 2.717592820060024 -0.7439800303316966 1.9059308829909294 -3.434795591915564 -1.281940186930937 5.209239964373885 0.8587046577650743 0.11566788958819887 2.5437627975573913 4.216059714518456 8.637270086618155 -5.857383000831299 -1.2472863455256415 5.651420475311653 5.396877109778244 -1.8185894750986242 3.180011115543839 5.788794932032071 2.6106882930918327 4.973040125850882 -5.830086471110263 -0.5013832303161049 0.8273517436348892 -2.3206623195359963 6.805164643873958 1.3831470552225829 -0.8649499284350816 -2.1212899164367705 -1.0682231304253542 2.3157309411757416 1.3974450925030377 -2.06705444724269 0.7936814763377913 -4.03104129585699 4.628292856936653 0.13824220361627498 -2.0094553266215227 -6.316481140444232 0.2889868232311493 -1.3548484135081456 5.578845839091431 -2.1682641949769357 0.7434766433109564 5.162596923673809 3.325495608300664 -7.191807041145347 -1.5015265684707029 -2.9447056161506167 -5.076184726541111 -1.9468689283188636 -3.134855838757791 -0.5097486081427003 -4.011627081292535 2.600986317571549 4.810842384702782 4.153142868008151 -3.022608720337004 8.42893156518515 -5.285462560434444 0.5629513013361241 5.9020842900607855 -7.810189490702268 -11.989974471506454 -4.590160536096061 -3.344103005157921 5.0666609210059095 -2.5399226396576378 3.67654341261088 -1.773041824614221 -0.731576683878574 2.763946881347389 1.938623049209362 0.37758382987636824 1.2596032606550576 -4.02899742857789 2.7328354367692818 -1.9442549556456135 -2.0819573165402105 -3.4059995745684777 -8.66222298443452 -3.1634723926769817 -5.093214562294835 0.13131690233440677 -3.7946424354627672 2.175667083949215 -3.354485630492785 -1.414076988772596 -1.9978136451607404 7.572609836735209 3.3042455177181727 2.0534167561433065 7.7654243188097025 -2.6086862106330697 -2.30463790815086 1.5416486654252113 2.4520906736134607 -7.114224815108804 0.5053995314638331 3.2415597193492487 0.8056303763849086 -1.3946984391724009 -2.0209625186849216 -2.081122542866517 7.6075767732441895 1.0107787103104684 3.3934888831326577 -3.7706788785899428 1.0144925854530151 0.6974469058693218 3.3876099323842475 0.2428076495142485 10.307392112071025 -0.5227184933235579 -1.9811664884091131 1.1393195164823708 -0.9980188230630499 -6.900484251133655 -6.83298794438799 -4.245820240308723 0.5919701702365409 -1.8394143869412158 3.088803900890875 4.268317910525094 0.19162519945264475 3.344772421742924 5.435084182521179 0.8218412235430695 1.9704529925241578 -4.2848721451880465 0.1243524326265946 1.248740482895867 2.6927434427252734 3.4040897144508 -1.0822708187138264 -6.98984674370538 -1.383398593533021 0.6869322008095804 2.3346426582850928 -2.653722245394051 1.961424942412257 -4.980610306780196 -2.885127405274874 1.6158424491001555 -1.5735113844688111 -2.0136087902829187 3.8586832822148205 5.349851480093003 -6.990140759812132 -5.287897530646565 -0.6049487923814161
-1.8913799892387946 -20.75977490716356 -48.34127639984863 23.600916264201143 1.9182042928873162 46.38213353922662 0.4541583584264907 -28.404615534352008 41.25534778296901 27.24663060294235 -46.95192766554221 -0.04859267358453646 22.877832178297666 -61.077696492025204 -88.42781376517135 0.3299747840983998 -32.88054868305852 -21.581885594653183 -65.18127910388236 37.217708156719866 26.045161025008483 -34.19361745047515 -27.799185413105274 51.01138460969686 3.641200746478209 -58.31477435800068 -34.726776998207015 40.79572979686446 -13.620796772898785 13.97998595982176 -19.167522080521735 -41.68336970232571 -7.468689046977486 47.36078162218821 -16.96878385688721 14.656846674230907 -58.76276896362944 -23.268064019616276 -18.707236712309932 39.92498110992643 32.501352292489265 31.871865035022328 73.43644401624135 -2.162172509864309 25.686142346807465 23.855652925279557 55.64719767045472 37.196064836023815 30.32845869052482 5.634596012254394 -35.937576353434075 -44.24051341239973 -17.46081987798202 2.2292273653841637 31.235133265062032 17.479331753914387 30.498917447402444 39.1995292162532 -0.81892102389719 11.781537110489765 -51.03930931584257 -15.219341582794668 -10.422167370443814 -31.887966215013098 0.2924503678316841 19.813869912829748 -27.93162600568339 -33.44303933926158 -45.31853860219854 -3.645897045698669 -7.683422215596997 9.406391056484324 -0.009199458710036778 13.717638868466471 -23.096370724305256 -9.66704008969658 21.993639575237236 -12.9499973817825 11.223296501211793 15.762377333484434 -22.550640058046415 16.25412519646962 -4.045795651534961 -40.735451442100185 -50.343794782448654 71.38892353637048 15.061491099736587 -29.11409218196413 45.72383649839045 12.431977473752992 -44.4625008956413 -4.827279313613991 -52.65213732469691 -7.854989139762907 21.991123402891773 7.647884255653637 30.408120455445175 -31.427195080018276 58.31107540313558 -56.068311059643975 65.05086536759872 6.245019415653217 -69.20765936053472 62.281081325793835 5.519884638462789 -27.8167709072566 -18.477963691796294 50.2688106894076 21.329443426219825 -74.36867821705764 23.374416373939308 18.962604792759848 -19.576543233740452 24.119599627623852 17.98137635652354 -73.1985902896653 2.227846005965426 12.848272708848045 -2.6562351926541723 -38.87689684013477 -28.963406597004735 33.88049709596762 2.3824840272475605 -2.365544567787128 38.97363067355897 -4.83228452393426 42.20811390076629 -78.04703387155624 -6.056127084643434 4.870039993457248 3.1859597922450926 -38.33775803367049 29.851336639914923 -19.630214323838477 -81.69885708285179 38.658536199555215 21.83000988046078 -31.073275180750095 -5.000621253767657 37.616747479727536 13.740699195540852 3.666707994384288 31.987658643284405 -30.356293962267426 -13.616594872739418 -15.582940117564865 -17.92898836163979 46.105498287570036 20.30842228991502 48.534220179478574 -86.4444604771102 -114.34273496100954 -3.5575683468600396 26.369533267263414 -59.26685063065126 30.794805602334463 7.521638981339839 13.422678278662815 -38.45760562055637 -6.715804493597281 51.149400029135734 -42.73121474564491 -12.374321102096966 -15.102796574849453 -48.38031276737599 45.81531944558053 -71.08141488696275 -17.856984402013254 29.872532192208816 19.070113305996966 -31.25283866757681 6.326584845645398 -10.94364282762713 77.48746554085014 -8.245266205922315 9.57382150125548 -23.50430548825333 -20.020055675385056 39.504907956762416 -40.4285236764804 -12.907142244665426 -16.143121609670267 13.48559066764554 -19.517269721145684 -18.56987350205678 54.015443120112984 3.9370690520727174 -1.6994559302299073 -8.042890808217388 -40.66573097170074 42.65401107572692 15.131285441644874 17.151487003710805 -20.28453232172584 -14.393449250267683 -4.462971220438536 22.187673844934256 -24.797155357001667 -17.52837061255577 -27.52299635029261 -62.534671760269156 82.96485483510308 25.606777016871945 44.11200380133992 6.664946952924266 10.923169590408952 33.24569954346454 24.833663397099 18.726006005633266 -24.279705545255794 62.1698102049527 42.11707389319853 -63.47014071605921 13.653168116399321 35.406332423265 -14.374415250855298 79.91596312638904 -2.041564988216769 8.515338285540555 2.2236046965372642 69.95295989678073 46.059034094197735 8.99561289781178 -22.469888680783193 32.13860528508814
-2.2857602206217664 1.6197878382820698 4.372762670247288 -1.5426229204397657 -14.244321103691474 -5.82603849322639 -1.1743970479652457 0.85989208926657 1.8263325647061694 -3.3355081579549934 4.399954331418503 -6.168140796444201 7.3184590798388385 -1.3007912579935292 4.571892962335346 -1.01495767501724 -0.6369760591363672 0.8714504871732591 -0.7065872095796133 11.166399033635505 0.4478134564716952 -8.43159733059479 -2.8539618981954717 -11.061858671452406 -6.076257907595424 0.9857549143880479 -2.199741301471719 -2.3843333578616424 1.4402359004552832 0.9821521193664432 0.3295540698932517 1.719261418459114 -3.2828048944430503 5.393558530433655 -7.05034106018011 -2.051243647960246 0.5731955131730406 14.921787288202859 -0.40047523921897726 -10.1835565693997 11.417598057706385 11.955435407126291 -12.516301017076781 -8.293367845567836 0.2818793135171001 -8.882567147129853 -7.375130003953703 -5.793806168550626 -1.014928609946979 -9.22663097751699 4.3876606928873105 5.467116629936543 -7.539259159498139 5.993834347260618 -7.1143703718106535 11.038243596956137 13.075822946065223 -6.576212675420445 -2.217151590779123 6.534477364700657 -5.784813472206436 -1.8902883503430687 4.285737115792096 5.750915008557206 -1.2934984296623195 17.144697191206696 1.233693455945446 -11.996290546314398 -1.6705219466768189 1.3690472566474232 8.183293020445655 8.809400856308965 1.4220359247455232 12.71202848186538 4.058464815148934 2.810943335574941 -2.5805882515698366 -1.3154272371947842 -4.569743709789733 -13.188671324961527 10.199786830922578 2.141696696468016 -3.588822637962925 -4.847314106268173 0.3983629013884995 4.074904948968321 -1.9682878964223949 -3.9730679621389284 -2.3265948223818005 -6.403980577991381 -3.882626476398035 -0.49785085925051903 8.770565579459277 0.887451738946278 -4.876616373185022 -1.0058554485930324 -4.263700402127228 -4.858861137294922 -11.440344434376401 3.72643619957635 5.960862532829601 -5.992430102408903 4.350904040256633 8.501225752040686 2.7106456024823617 4.038496500298677 14.724472640365153 2.7614212998826955 4.172999157733308 -7.145278772912792 -5.331264407779648 -0.6961238626704064 -2.298077314948308 6.314135466646716 -2.160341716090764 -0.9680323468236743 0.7400916044226851 -2.1708400886243124 17.72206712470619 4.170007560818761 4.063411297265093 9.328024075201954 -9.034543684250098 -3.026322601729789 2.0347795549077525 -2.864372705113687 -7.913343732639502 -0.20454318025348825 -0.31266556139587043 6.383699566553377 8.133968371951656 -7.496492547230105 3.6503598025350388 -2.340011206780051 -3.546552788023063 7.1561436210022835 -5.891633672875458 -3.5373005426258963 3.730860913956889 4.758528529335651 -1.3627111701546912 1.380448668685171 8.097714742217205 19.731867997096785 5.313139463545444 -0.04168234725973765 8.158405944393127 -10.320641297359112 -4.865243859570458 -6.746889927925359 -3.407452237852314 0.1857155133119739 0.3729122387725168 8.978656026950588 0.5466045616008541 -0.9299742373229424 -2.8034092177149335 10.058964517885801 -2.5244052867840177 0.6229448581099328 -16.023051613311228 -1.1297571928959107 -11.880630249885584 0.04235409620814985 11.28098393976885 3.3520775149720023 0.8621457257335156 -9.479684596616195 -1.1200548617403472 -2.7580118558734714 0.9999651214011503 -4.892000720140633 -7.777474299715894 -0.03441827480522993 -4.981092854121911 -0.35984867472447213 -1.4248059879164998 -2.326527610487071 -1.8116322926784074 3.234784869477957 3.126101657426533 -0.7956416137435451 2.1734215188530315 4.779923981125519 3.3183621747991214 -1.8176932386897802 2.144538381048046 -1.9630659921080036 5.608622522153104 -2.055211952455974 -3.854619461129189 -0.05298443685735108 0.48040333985954453 6.640345209383433 5.022049966687851 1.5700181024472921 2.3011642396873486 6.074918617448705 4.171850370285064 -14.834089890617692 5.278433165339974 2.2889572942554643 8.725682155465893 -3.581060693535224 -13.48901681218003 3.2033583208385408 -3.2883427816258295 5.670705803781678 -3.7493077637243504 3.824316071775638 -8.60177063651029 -3.6173324874370514 10.453072592530543 0.04696102985043995 4.165425145013381 -4.107741866930531 1.3348276725048691 -4.214435587453542 -9.723489398717613 -2.875359497477941 -10.931743243189675 12.418879884600509 2.8880759981832966 -16.672398114243077 1.3038777614288828
3.216121894028875 4.328745884462255 -1.840113156003057 3.2161037064966913 4.424837692362746 2.63948252448914 5.788997905309892 -3.0633904075510308 -3.5370929937605546 2.976156404471979 6.49440261801969 4.7619871041374235 1.0998838074985633 0.9293122243988394 6.977145204303905 2.070002291669101 -6.8568363536163615 -4.9634996764855845 -1.0917556077960824 5.361201618861405 2.3840503555247996 -1.7413755376790385 -2.9768459356026846 3.996238273485959 2.0600057652077277 1.4405910120254553 -0.6142171264744597 10.125836799701629 -1.887761892717969 -2.226179025448214 4.347784662765204 2.542796733412921 -3.2191838579981433 3.0340988784679395 1.2923596593721731 6.036096699911878 -3.6816977179584063 -0.17698176733366858 -0.1066136966494826 -6.920721064887341 -1.0525490721323372 -0.470153473157046 -3.859245371630675 3.134561963557556 -1.810574701369308 -2.023556599878649 -1.8743210507183292 -3.8887523662640047 6.218559392559655 -10.335893785219886 4.890793458828457 3.1015975301735574 0.23503241765611266 -2.3971156490107632 -1.738926783291705 -1.7376684483340434 -0.37710473002616707 1.9471138336615508 -6.645972958626152 -12.736218451484373 -3.315001968064387 -6.636698177148439 2.5885421618096913 -2.3857849688663673 2.5518606198748484 4.574714804500216 1.4460715821460346 6.456896511422598 -5.378904409256421 1.701958344731917 -0.6173627244990312 2.597804236546555 -5.488211647213497 15.5987208182166 0.6105298378701752 2.309418823429594 1.5044938205517477 11.968005465215402 4.839821483498085 -6.87238795873614 0.9378558215610988 -6.464353008893499 2.027770629921035 -0.6379255081343632 3.43885635308994 0.8406222472641321 0.31340599576655426 -2.0748131987810274 1.0550946198308495 -0.07235650092217771 3.8842652826316755 -4.417917456230782 -1.7672408272337303 -2.8883198897484443 0.5829958374824816 -5.395147550900018 -10.326711438598021 -3.9966412255521124 0.2137159148446141 -1.0640605892977182 2.217498881059884 3.0343232062399492 -5.235642016656507 4.883233766017827 0.16385602658198242 3.380765540462272 -3.613152718784923 -4.493460281933728 -0.8929688156945558 1.2314809778947045 2.979721504439662 -0.2998980341702671 3.3772655748486895 1.4467885527734352 0.96562113559018 1.7932152378716926 -3.0939526909381243 6.08622192204585 5.433206324656397 -1.9120543515703654 -0.5724064631341507 -13.959020673258111 -4.627934686518357 -4.181754337826817 -0.14363069354377378 -6.599903257569845 3.0001824898885103 -11.922622534437135 6.908647466282274 -5.540345398967785 -0.7098036693928494 3.3157054616487454 6.391950290178846 -1.3197424702471883 -0.3004192043255584 1.605929920520002 -2.31828161448661 -8.029751695904638 1.1236879342719792 -1.0643390242106092 1.7935752612533493 2.1863738331322757 -2.6669591368995493 -0.62345154345974 4.237919545313781 5.261690858701857 -0.18096035314109574 -9.113994813450484 -0.4417783519186346 1.1854714118741618 2.094945174013605 1.3707218383511877 -10.532600745441322 -2.671984777214321 4.215288563013472 1.656720732905766 -7.120456956869148 4.8773300689614585 -1.3450732285661782 0.6752757599795096 -2.2228637448958946 -1.5643210392261295 1.6408300565254699 -3.115114154997834 -3.8423270109491114 3.839077739194151 4.641678862886579 -2.106007209668878 0.12386227522622488 -1.2799886635571158 2.90391820091719 1.3866897966824645 -1.897754519138072 -0.17015739414952327 11.903783322023141 4.328239969944635 -5.32117093215175 -7.704797747399552 -7.529234053756971 -7.241270220430858 1.1936383908659614 4.726905628833961 -2.7813739546966905 -4.762998759918645 4.988759271935517 1.2354418541227203 6.462626365255023 -2.9064205685048736 -1.9739438724933553 -2.013007358997408 1.7929589852031311 -0.9901217213329612 -9.817677538498963 3.388686073683835 5.642461530316076 7.785790639132075 3.4639887216860323 -4.811247733528042 -3.0094230253494634 -2.530463332200137 8.13522413312445 -1.846912637452782 7.358330175895911 3.71686728199743 -1.6917229648042589 -1.039489366904635 0.048114536520574375 -0.4751437567085073 5.360573382678867 -1.729276209029822 -1.7946911271473378 -0.42050128397092906 1.6328507085783917 -1.9304474667527252 -2.1981743126992668 6.052616309803902 0.7087040764271078 -7.5744720544016895 3.723969163504937 -3.1052828115228404 3.1722533400367765 -2.715628171206625 3.106595516502079 -3.2300022847317362 -4.147873564943115
1.9274209134662836 -1.1134524278089073 0.13852912147972068 -2.4658125672333027 -7.5948421578128915 -2.972336140419396 4.458545160185972 -1.3005209868687893 2.1089390451338286 1.472482478924041 3.01674963757989 -2.378875322785263 4.146470012129717 -6.131261576809465 3.8395030525935017 9.721062122716598 -2.4744327721125594 -0.42249939178360524 -3.2217549548077775 -0.3030813410697454 -0.3673966043472234 -3.4952459783956153 4.22424585618197 1.8129938886850003 2.0849006425281607 2.661350329896815 -0.069131345525484 0.41549150735730306 -2.076562750162331 3.2539717781753414 -2.467330465060071 -0.34084919741437003 -2.3237638597767223 3.0198103179650655 -3.8273407161930186 15.152342384699745 0.6203383506786068 -2.443184198955908 1.669495547758015 2.462688399755055 8.874324603359197 5.22655017171962 -4.9158730377951345 -3.770492286823002 3.3951745676878953 9.549253141198612 -7.082204850560069 -2.5020480771295093 -7.313714552166989 6.797541885584891 -2.2877671199198124 -5.935716346701943 1.9213504484995942 -1.8996422380168456 -1.620083286508303 8.131130452136617 -1.6468882639811384 4.165557435442778 -15.796789512080469 4.929559406752034 -8.866061011143435 6.8534718571530275 4.664442445548372 7.472488709307082 2.6649748612552426 6.852947743516738 0.15721459858130774 -5.423016820829792 -7.890778275489933 -4.059343866519946 -0.5830176137495593 16.283246414953336 -0.695831520213557 -3.9363670688175643 -0.8864984363179125 -1.7976417830440374 -6.729952425899639 -0.3600463571338898 5.422760539236608 -7.42897035404591 0.9825096668910425 -2.398332609170554 1.8212928650706068 -9.028844549112053 -2.6627438277323003 0.7233577073777412 0.8690739293321014 7.258040216235042 3.869404545645142 1.1252913834480884 2.067690195264693 -2.996922788561369 -2.6973607759182863 -5.84708554269403 -6.061253931195406 1.4544474935436404 11.573093957446348 1.7299715655309764 0.0067339573135214 9.129684151448547 2.7407199520293397 3.2974600330378703 -3.523471865473839 5.015973961642749 -5.605764159891088 -4.311974834286152 -2.342024653892327 5.882500181951709 -6.184973432935215 4.365345216996401 10.090514491616462 -1.627540711728762 -5.172800967907645 -6.887779086596689 -0.010364971973642114 -6.050816235465776 3.7007769211886887 0.8006281945216458 14.732508657874078 -8.558733835112488 1.291039108023753 9.422393983001541 -23.272590625573223 0.1433077440075909 5.652701910774956 -7.795203565180796 1.8521529025779884 2.7573508063237138 7.225306760447287 -2.5069778760630115 3.733972957742907 4.913786881933932 0.27525761494565193 -10.356446611954041 0.3727627544561741 -6.628833057711165 -2.321629494220254 -1.6505690191035938 10.33271302632697 10.023494274112153 -12.587574429395236 -2.222264527195355 -0.09613505606512907 9.026386764533084 4.609415924749167 -8.861682514983041 -3.1622897429094956 0.9375817341334802 3.3330218342427127 -5.269111493773707 -0.529343667681679 -8.944465250588836 -8.372297991884846 -5.212251083258626 -8.539044462374925 -6.047054722801579 -1.4825683728921046 6.911069421114242 3.1545090736983115 4.774259740374358 2.0476158905637374 -0.8598880873269041 -6.045175330199874 -7.7876976639572 0.03956538879043579 16.475199838997696 2.573921738120369 -9.853800252308345 -1.665560607450342 1.395942286047717 -6.7364441184455055 -0.4892187132863171 -10.055585596523317 -6.9448334449928995 1.5451766015418877 3.068960644431191 -1.4868904920336443 0.6656712132779835 -5.118317631950733 3.259841661639234 14.115854334388452 -10.157273169062714 -2.680483168257934 5.099986697111765 -5.160305499484156 2.2480254681339025 0.16567470519497796 6.021253041213417 -2.7603943299356195 1.8791171465027199 1.19219496664188 -4.479825144448002 -2.0228019437370706 -2.6356342380185507 5.625994313580773 -5.069441750712152 0.21373066488359105 0.2555307806768065 2.2483053872605545 -3.5540228911591853 15.15174596712286 -3.5133992299592958 11.851486526087692 -1.8587576461648092 2.4265694418180366 -1.7602532480248987 -1.168536650407794 5.734857324655564 -2.4089554253395744 -3.7792139977411994 14.966494066156482 -7.313564996328471 6.50868906604746 -0.518701089069754 0.7965527724809348 -0.49426422288895944 -2.422421381424118 4.740535442508267 -5.30038839260912 -11.077777755913651 -6.212267163203021 -0.6236289102620707 -2.7041980571000415 2.853762431031068 -0.5034330213946439
0.3308175998704906 -1.3652444375367758 -0.060517429380174105 3.8206609632122572 4.105160983910122 -4.988903680288945 1.421030391298101 7.627045645360231 4.1658768233500965 -4.2271283033515425 -1.947803966845329 0.08467000422224819 4.208923628269038 -2.735750574662503 3.300500362760317 0.37722378165521697 -2.507229525460091 4.968686729725161 -2.029383471343557 3.9298298771878284 0.8357327069923293 -0.4943392305690252 0.38821549681511 -5.396039512205085 0.9498557898872549 1.0237503837236959 -0.5240523079665207 -2.0472308195517224 0.5032509427505171 -0.8999939627931418 3.440455996575491 2.4626084653466362 -6.250246586410307 0.6207179498315955 -2.6211612574694283 5.918784477118329 1.1352633621213917 1.4552818259917264 -3.376103908242862 -0.4094223145520922 5.632840706125507 -4.022878341926166 -1.2986108798103384 1.3592806670005761 -2.019411592276068 -0.488631716678952 -1.486914034819055 -1.0484503903968396 -2.1632037307895393 -4.126373383508772 2.9739965779366067 3.4368843302852787 1.2939697879609728 -0.708313479604356 -0.2668932457576224 1.1438588831835803 -1.9977185495074488 -4.570358240687848 -4.906682241405431 -4.118299715118704 -4.0027350263259365 -2.0680193958956115 0.7839778701516318 5.345242234443905 -1.1024549426394692 4.256717312087528 -1.5530245745212905 2.3535648067305788 0.03934174433998413 -5.775446805398014 -0.09278190682431707 4.384882140942147 1.9303696762065121 1.4381470001098855 2.153314529247159 0.6986979848781643 2.5752398451197607 4.5059152116459895 1.0005216866410787 -4.646793476703344 1.9368640000159953 4.993440806056275 0.5065459583605756 -1.3041036223295297 -5.025032518262978 -1.186594989699401 6.664064741454177 1.3063508025387596 2.8071335039662175 -1.4710132776755513 -5.800771258426545 1.2979357425236673 0.8700226334080388 0.02074856342230314 -4.5150621792247545 -2.3687712026792496 -3.428333025627438 -0.14405697905618295 -0.6295905295371959 5.345526757970585 -2.9990406902343074 -3.07962663659219 -1.9839243203681591 0.9785806039923546 -2.317481055190804 1.4421306835893737 -2.976871333401782 -0.31529704652924956 -2.7714767027954976 3.387571947353698 2.4788837873666756 -2.6028364608183927 2.1925576335515857 0.7128820496398328 -1.279412863704759 -1.4261581155439393 -2.8463990606939977 3.493392619442783 4.764267640118635 -3.4481913402435973 -3.5599501521038137 -4.07693978751646 -0.7153938010034195 2.5586165968575063 1.790057748512257 -0.5533854193193545 1.5680095966646652 -0.4309682132581934 2.5173812221593503 0.6440834476879416 5.73132148278388 0.591430968674304 5.324702663601618 -2.6416245552657096 -2.573611297297039 0.220885415608267 -2.7189257465191377 -6.451683368121454 1.1822341680177504 -2.0673189995933616 3.00329550673899 -2.611430561859319 3.1706332477304446 -2.6495061527535055 4.175852701309271 2.4937849289457508 -1.251757377893361 -6.1528713522651595 1.5442292056839615 -1.157459620693252 5.791380479628461 3.295567412987903 -0.695860346544464 -2.8428192622012087 0.4491795711685799 1.7817402165927254 -2.5099540201780592 3.061500094033458 -6.85061505766875 -1.4198733361779965 -7.965172508326909 6.326155523020755 -2.645210851722873 3.168218681147178 -6.035667579160871 2.46142813642483 -1.8897244688906536 -1.8440479917005204 1.024198691308599 2.319275832299518 0.038083154990647086 -2.6710717829351966 0.9510548057365585 -0.4007447737076271 -0.03307048236770148 -1.8928651771763036 -7.907626578727165 -1.3862076365665146 -4.712288189752504 2.104041709516984 0.27435790291970263 -2.079473793187761 3.918835203599738 1.3607311515666003 2.8325060170749836 3.677654356571134 0.7017498217920308 0.8105705232046231 3.582644296966299 3.5339683546471683 -0.1768523430607862 -2.858856673529399 -3.712525076221817 3.063754130044938 -0.5715708448053786 4.230087864841394 2.8747400051141625 3.1216953941031886 -4.609459969052 -1.1062276489238974 -1.9091778689664116 2.913328387672532 3.7796026367120183 -4.954099376524789 -3.0987050196603305 1.0025020519202548 -2.7400456295829105 2.932413014704948 -2.01274861066647 2.877547797512182 -1.0356425163211118 4.456445906486841 5.798126727044182 1.3044634523053817 2.5842912162823586 1.329313099838452 0.6900836067393594 -0.5612920242374746 -0.3240310572387563 -0.7699107687500301 -0.5217637688038945 0.5737759615193464 -5.853012049210006 -3.254546103824643 0.6184119685849744
-0.20434347784271067 -81.04600343884057 -69.07628809997196 50.892653708153 -47.152111741047094 88.44808347417118 -54.12113327505866 -34.77834581341671 -103.34902918457335 18.08215465414758 -87.65766921149728 22.08640309664863 79.66605885202154 61.08316547311974 -22.385090509377026 -52.17283552947343 4.972532171507039 56.86818737825325 -60.28549887262102 -65.45082685242066 79.80167196215568 25.936961994929316 -18.00666660386163 26.713414155823006 -9.145767002012251 -28.5504677087705 23.07045719056645 22.10915756067069 30.058319480616465 19.13011754048738 -37.24735366408282 -116.40926690795494 50.01410971572779 4.433376158575547 85.24837797286246 -29.439229278909227 44.78149550440152 -142.03595865342206 -9.605627572528846 -39.2920330788202 -27.786194565539198 -0.7867278954123655 2.8283405574984277 -50.688199044075475 -45.67101047596737 14.610810396944014 21.85813384338163 -18.47536778275538 71.36669949673944 61.171142908883354 47.36774648915924 25.29006937642166 16.77119670537761 41.606766849232855 66.42072974641108 -9.969314190631353 43.29730783565592 4.872534447341782 -38.72049562407494 15.876012135437824 -5.024067957330428 76.92690559831722 -36.105475216859034 61.3005348861234 34.79148648372502 -20.185677684863556 17.170604812413497 -40.104832140858186 -28.075791343329094 -24.18901736511503 32.20591293356112 -48.088933929228894 98.04817713172866 -26.165178593196746 45.15945001531125 50.95988147191174 45.23669310754774 -32.39449350555464 43.33293196315265 -16.938925211792014 -56.475436896585244 21.909581358435027 24.77856896852222 -87.6190964579823 53.31546190304552 23.27783435754474 -17.07459764612603 -60.87567655835463 -8.981598645561794 4.8146614185660255 91.41268068042952 6.698291656503507 -3.6783277350693777 42.20592233185907 56.50431378371006 63.382574440782804 35.304319187665065 74.08613751160142 2.038831316186914 26.210739253979867 -108.42414912698094 4.505541187842452 90.53783733771994 -12.606071008000404 77.67531879627808 -16.107296968915303 -54.2220660091908 -5.507876693468368 81.11673768937474 11.248461336584677 -13.810850698075969 30.646747324970665 -43.4128273980547 -57.271545430868855 -37.122711130869504 66.06559762818678 -64.81754552082455 70.93023698041549 -61.285186946300286 49.552772967332444 13.740485708898856 59.55813963431232 -56.55268008484882 28.6238471105943 11.29173770522226 8.28513549164603 -82.61747409116994 54.205238764684786 -10.981275535420512 -27.092734429681173 -15.468348284711256 -19.104058957012416 48.14536183871666 -12.958477840431593 30.521956161479046 -37.34188421896693 50.118323313783016 17.60359761463437 84.84376334082059 -19.535061944702036 -11.491372695694192 6.219496796933332 -55.135406598291546 41.41111387615788 -49.70402900367922 -54.74388282949988 20.050579755633294 24.602053360423422 -43.65895487639935 24.75221489757379 -70.83275721979189 -55.9161690165297 106.61734979441553 -44.877137243162814 16.93527873667965 -95.69327422564233 59.13242886851842 -96.43839624572212 22.21517027178899 33.099851495801964 69.81651419083005 55.41061967664759 24.654263431238956 -38.059672718127345 18.159406017596307 -90.51763454139625 14.122555880516572 5.996132248101354 -31.433196688375272 -8.525674170732044 10.710675233904698 94.55488741833538 -138.20276768253206 42.52364019725283 22.259907054134896 -8.7157789083876 41.38111581106297 0.05803934570930964 -9.097387167405866 68.05121402645598 -122.22007937632702 -24.689504170787586 4.387517205244954 1.6125986285473668 -8.182403041105767 1.279201667006705 6.242805742863919 21.30795649891658 43.61114560349706 -18.462266852350798 58.39308577862135 -42.926313491300995 -26.735191188800233 66.60130156410271 -40.449874596959496 139.6501792269204 -100.09542140272409 -32.93232311586929 125.04928280707409 -71.9227634621998 -98.15562994409417 -16.43389122775625 46.527327048255685 -25.751963437639965 68.06974636041676 37.6966355422084 -11.50148568867382 11.5705167190628 87.20688225518224 -15.70446961084374 -2.730757523798141 -48.14797791927109 44.838242377608665 -40.614516926568946 -42.73623841651606 -16.05653928956519 -107.14581509491121 -36.79865758627682 9.899581228550453 -9.597168547975267 -39.99024228946865 40.48280736758582 -53.942950546129566 -72.21361238739924 -85.01904700390878
-99.66073147579976 -48.197946929222766 -210.1349986035693 -223.31109963805343 365.4364279345635 -185.84022684509216 84.59829579743194 -190.39704762345886 -27.591020069565957 213.94532077019085 -115.67463468899497 -32.566336805648625 -191.17528851230614 -50.77595436918661 -11.112483157964528 241.721004013073 51.39656383085498 -235.27782686153162 162.62510142502165 -41.066150633461724 -161.65868046397517 -216.42819669402482 96.4284098187904 -12.197751902274506 78.69147464343514 -258.70426200551094 8.733080225601103 -159.69008738407308 -146.28535442165736 109.13763666758689 -275.18634448225356 -67.05921714615278 264.30699844600065 -346.2877934576175 152.72773325011843 -109.88205608316294 -85.39335703073287 -70.99026283537162 -167.61093029263742 -13.64307991257856 -211.7099980012981 9.956660071430617 -28.088250695088153 -29.05467112214037 -24.950717780206265 4.820593882860516 125.37664501949394 -10.842846850495132 160.11959006654206 38.29771227339014 -284.0061442424642 -133.02561046661344 23.675802205521563 257.01639273277567 -115.99284860406098 142.15475742016355 120.54090316654965 213.75775278333558 -122.3417146259285 113.94377807758833 39.779829082135905 93.32992870882347 -144.39843812818444 29.408728580147734 90.72695546115322 -105.75117626075779 -62.6168501479068 -162.39276130325052 74.94926071858282 66.41006232910067 -267.2565533971548 -418.3331625563132 -190.74270035724405 -17.04665118953579 -50.37266588824568 -31.263153507198492 -116.75566021853477 59.84696974581966 -14.098057242319578 241.25876841913183 -129.52528149202644 -32.40301469790857 53.01359674562419 343.10743306279414 105.84733793373516 49.646676882173864 -95.25607213576541 4.874250476176368 107.23360911343188 233.8907421675239 296.54319380474556 -33.03691546146907 -367.45121895722923 7.198999897792913 123.49261867783082 -58.11294330704106 232.65456575650612 13.635648910618517 38.3043122965861 -306.84926844437894 188.9896683241623 42.73313023720312 104.83566969854415 -125.02377795975343 -11.381410396933518 139.48410562797602 69.77799263942352 -48.250555560526024 3.5978363247580276 -331.9903410348594 -93.43169845833036 73.22238733113954 118.09868238528942 -15.33796791560527 -91.16987328357054 220.16184382311212 -63.711261886443395 -65.3433336844367 55.12978184509978 21.925374919035633 -51.073875621833146 136.637950302146 -152.35378903989246 -161.8094412300751 -45.12581162210499 102.83568167558288 -95.79397470940674 124.39247027740703 56.98579816333789 -208.0795575609289 37.35149043684012 273.94991718425547 -20.784249602495514 223.96679274487587 133.43842394378905 176.71404022511624 218.38521075323567 279.48316721068284 51.53948524384668 6.387336175937246 -56.05017653070258 70.90231924596435 -93.28929634050857 275.6924163074507 -113.66321755176004 -204.8198521085545 34.54851056363006 272.2475305923721 -117.99400355325318 -151.31009461946238 83.43068057986146 147.79765847643284 23.879908644097032 37.312349191065756 133.24000812980557 149.666675348323 -37.11879065966685 192.34157937671873 -7.710125939861177 182.6527217097911 160.2323533111734 48.276856131896714 117.61831702509687 -104.29666808172855 -110.00493225773504 -294.1621837401632 -46.37892832706668 84.7756472716442 244.67459869159327 -5.917577507375887 331.5893858535821 19.295170236506962 122.64556310572166 -122.35867755549286 -223.63065120561865 344.39595140826634 -162.10331034729717 170.61942520082292 -10.832145036697215 126.46312845589277 -182.8717947514423 58.72563452094761 -13.28646442840285 -2.695425021126679 34.90351901692621 -319.6707223890009 220.68579582796028 132.43472630713396 -207.77508128047361 -100.9757148865393 145.79158927379427 -106.52995653221458 -125.99517379332985 205.5617055327945 30.507747015380804 264.88564098096225 6.4489045493527435 -134.00586042250313 -126.09645747671027 -179.812170758847 -191.31647456213116 -26.676945578756634 -152.95836877740948 57.380371271515465 -274.17199157154926 81.86106026583097 105.55041372232036 11.429870031115183 43.97031154326604 84.45883772434846 -154.13534909408543 327.82758988697884 -110.70477279432839 61.679090995778445 184.64533090603723 -533.8404827552007 -32.109562130207316 339.7813187359254 -154.88417657065068 210.74518452932165 -16.00927114754646 48.94540038920705 106.11872105057816 292.460530212001 -161.1816162829452
-307.60269679018455 -154.52989772978177 -211.39745820748547 268.90093214431886 181.54691885761548 151.95470033194778 463.66223692670275 -224.6881721689836 -322.26501290873256 -90.2242360512133 100.48709572219802 46.54044893295109 -172.52589463856103 63.21202372121036 -240.92321912628992 28.35370483403893 -87.45308143558377 69.84163448988086 -297.16588627568063 -314.14823094940346 62.25602583597588 530.4654455441457 174.7888938669404 850.559165977899 140.50621447460423 -287.5399475446315 748.1676080790513 -314.17601294909434 6.490508249507448 94.67469872709256 -144.80284565732686 -125.93716589473937 -123.79816923465924 -434.93941107480384 500.2895981975515 -694.6251117941183 85.1435362582326 -48.23111964622113 57.769407157478106 697.0266581637611 -56.09200685362541 711.1963975807708 -135.64144150319453 -228.13407100701085 24.07472328813274 -181.08828413438508 653.112082075079 494.41512650626026 166.90823674972876 -152.54959015070904 -237.71355953944055 -525.698718951481 -332.27674068526187 248.0031389467453 352.42348876412626 107.35417464697561 150.35088317769103 39.12330260022843 195.61935945563746 28.71976317879811 -100.92086930698491 470.12957731425377 68.11138406145409 103.51129175040944 -67.6233233542494 -374.73717555024007 -86.6422992412699 -102.9994860282369 200.48984655188934 304.31252842830406 18.878658090530603 -217.3976964018605 -72.96374808639662 142.82693695665415 20.258436621059595 -501.111244211089 99.32840746420634 -166.206008457597 232.59992274644395 522.8527977902062 -590.2724024393991 199.337447539637 651.9507951097934 -96.26757384192231 336.27944582683904 -86.78390129758311 -327.88034731246927 -152.26059995350167 248.1922130227658 -553.4170832246489 241.66745925590882 -306.9402128750012 -173.46624582842057 -36.41936477083916 248.30833821732173 579.3789663976748 245.05549776947396 -245.6029009585639 7.513192457757235 -29.18576373519564 -181.06531244326618 -32.51348984030616 17.316418554837597 -368.4593159762132 7.681027967226692 297.81576420763287 348.8247518521456 -113.9830516452023 -102.37652067014005 -128.5712064489774 119.87415494249586 -70.44752217788589 224.01178312003245 -270.3289027927311 -61.0290117418304 363.3920841706325 340.13110814672746 66.66560423444628 -152.5833367869198 11.294089624924409 -469.7518470722616 364.7026259648724 -118.07983431965879 76.75834481550888 34.406080642571204 47.78328677448835 363.9866188362994 372.8041455003514 -192.3457237413621 133.86611840205296 -324.0607312262241 -349.430206112794 -18.251800481203777 28.82185712180714 -82.48725921754689 -60.99112819896215 -23.820259966634026 207.99247144922143 -151.22285884164629 205.10926135491624 -247.54447142385644 120.37386382876208 356.8617764602326 -118.58537274436378 38.838234072690355 -376.64594636580665 269.64591084444015 520.2919325899321 11.686379331285467 81.6337169515747 143.66480371465804 -307.7335743266639 170.6462837507209 318.9427445652517 221.08957842839934 -253.5119445765981 79.88540275139889 20.509179697256585 -42.22085046876112 -417.96851870512 -375.8698919889342 -371.8981100372671 20.920685221952304 -191.43066679306804 -49.96530972924093 -522.0155759670024 -19.16696250718254 -62.770728859812785 -576.8583666462766 -189.33664250541642 -162.6736729198427 -168.16446504669648 449.16985669336856 -62.790501621241745 -542.6643720786348 142.1404851798766 184.70307411988497 -29.787850706014133 -4.419201075111117 -405.28173968266907 -402.1991004547575 524.6642788206544 391.56604659534025 86.21100869670677 55.53576531731332 418.5525209075058 -178.48710961897203 419.5379648882714 92.03100401284682 -309.042130734125 -214.59446730555658 459.3265661740858 -119.0440011685577 -301.55514454808525 -511.7712881770642 127.68047534267482 -182.6308172473703 -122.57875108086036 -68.78455599493493 -87.55598978363538 -12.334167219226872 -250.25738484777986 -200.56365202886826 -13.032014203420395 -58.730041509087634 -173.60841979622833 99.78168063259477 149.30809697284766 -31.267140713712116 -91.35723787508547 490.4070061690385 -152.24916642423938 -101.73603780955095 501.9912272795384 -429.0873860257938 -60.467721738727114 146.33651579103682 297.2590171407514 560.7024955740001 203.26814692446226 -190.9687297449451 -81.80877068107839 -106.70043918928833 411.2682988356709 101.85832154384626
-28.924087287208636 1.1731597116576598 -25.29530481695016 -9.757716682224043 -1.5422799105439966 -12.704461619778222 -18.495129528610548 75.19412659434616 -55.73403264432851 36.051101734224524 32.185494867060044 -20.064790887871563 -20.02781309145908 0.6816264019307561 5.881866552102268 -16.8398905665091 -9.189554671962672 1.6936331076428368 -32.90051368768457 -20.60787817744231 34.17563479350415 17.786582307728096 -27.857526401655853 28.4663961881096 -30.47111112113896 -26.35164417009977 37.256585831649616 0.32723462303044165 -5.469967069036962 4.340567572951562 -31.395631098573446 -31.300177033892545 1.0408142079053324 29.098794347175687 15.860389845476325 -13.059444165403189 -18.149257685124002 31.63823518695745 1.2149348460441656 -13.075270746781635 11.198383139843472 20.053743607144426 -9.665328004492698 10.047806837185554 9.577134365578448 -21.37929795753441 -0.7186025686398159 0.06142476459287444 -1.1876250387549805 38.414737627122 -64.65503574268341 -36.21253262470786 -7.336335330932866 -27.67018971164367 -0.46525896534825006 -16.537434264056166 43.814449162967215 27.114430763321792 46.106666788931065 -12.254360544721447 33.01654060336288 11.391647552237343 -35.49428961516038 64.25185056278907 13.229763357850644 -19.535279652203982 -33.87672003860536 3.0812241491419017 -54.95122717287693 -1.1610968826266 4.608690495274276 -22.3402562279673 23.363092987918176 -25.98119602276623 -24.360917085134393 -15.390637222415801 57.22927122820518 36.14399036555182 -75.53998292357436 30.04304185772427 -12.020621177786206 59.3532922056396 1.1700008632001901 -53.05223802562245 1.3415435418277566 14.975995964464408 0.25788958467699574 -15.83189080228085 -29.045211098812974 32.91558956095229 4.367649141196241 -13.900427297014593 -64.11248128008683 -2.4449652959090815 5.256879429277472 13.652911358670472 28.897967340135942 59.58478518884024 -6.389147400817946 3.2819184187226385 -23.481002778071105 -33.224230243305605 40.8676378817737 -0.23254383147270846 31.968794512684447 5.7285500229324775 -5.044824629098005 -16.1967837489325 40.32280893633437 -24.209929121739265 59.219172820225815 -10.430439818215842 -13.075177163153832 31.054773163219778 -18.891073068795475 -4.945843058851731 60.28190145604565 21.781896381760376 -3.6229089050764234 -13.572481010652346 22.827213473765788 -14.771201990306256 24.59701632808972 -28.752965929536295 -19.477161251741823 0.6575631884484988 1.1145522404696764 -38.852465724333804 27.94673144957248 -47.00391938077943 -14.977977500192328 -11.218721651321607 -21.896742057439823 -35.882297468249035 -24.54914619501546 1.8372957726769692 17.540957260339475 1.602562223565079 14.946106220144314 -0.7077931048243842 -25.007784688516377 -22.60241832434144 -2.676349480624108 3.723805145201493 -0.7190151617449447 21.003799918851275 -28.271795157055962 35.50040906168261 1.4058118110821998 -0.856222087784006 -26.445574140041554 16.60970409505208 32.65907574570882 31.09496197084984 14.955111926812908 15.199096459459032 0.04775889840219025 -10.767734188589667 8.73761923458902 16.438334904004257 3.035180003230165 -23.2306739483186 13.285106158940275 24.16701323462556 23.770738559457783 4.0849214038422685 3.7040247195468763 25.10508055127561 4.048046901246839 -53.718327386516805 23.59133483728904 -27.807572941965855 -32.834511862743824 -24.194002474698184 -19.838884113581823 1.286864931956067 30.696441675651332 49.857872664591895 -38.43261697651298 -0.49429509616754 -11.18692068777576 0.058107113769583184 51.345405209936175 -4.3089913842588805 3.400531260115172 11.103890994920901 -1.1048827493856213 13.481228527700104 27.136731039597752 -16.43100540633651 -32.41697954118237 -55.623592167544466 8.976963176477629 -4.16605062768548 -23.496229962785147 44.48279106829109 -35.577183117209444 -27.345637529148664 25.621179590870646 -50.08760460169651 12.228471355176964 -26.621755714313664 -16.150878344826232 -4.7879851748013325 -0.6945287593069659 34.81075520755202 27.627573484901124 -43.52507758115734 9.294154397737968 11.040792998854103 7.008421892168256 -6.9612917345858065 46.403674522610665 -18.974285278969905 -21.565257369392867 -52.81151268481723 10.244386407243352 -20.98235546782209 -11.70672213650228 18.554883428533763 -0.8251630587887092 12.046739395290208 -18.75065763750738 55.29677658397799 8.99914529407874
-48.8758680596449 -112.84044803616698 -76.9334174913146 -121.4439836257822 136.49513653371335 147.3796664574106 -102.14957785602452 -197.32721668516606 -53.91691378436647 50.307374980108 -225.20403335096913 -278.74390826921893 -248.4225274664347 -28.18758996921159 -279.2301073495517 133.5265621802355 122.48611754972683 -228.96302291033527 -23.59989540171961 276.8668089266833 -25.49587909346316 66.31715309375993 7.220948935406609 339.67522000932524 98.29005487990617 -59.24474398881295 -49.443549418558 -58.74521302718912 -214.52350513874916 54.701939015229456 -38.83528476761552 6.031231824493068 168.33389966445222 54.08435109198566 66.47299555423349 -231.59690760505825 -197.15100668959562 -19.73080651451472 360.152127854703 -86.29156569293899 37.012265750105755 -32.684171888009104 -140.32716865993157 -202.04806727988168 242.8875679778925 -1.2893361299875605 -72.76227166312736 3.6273950567801645 -199.54158640144385 182.3978538120632 -78.45530232001792 -13.359675476231404 65.37539321692168 12.63709608244512 15.285039963189998 -185.6907108633324 -57.435817261218844 -0.6017136800863553 186.1674681997686 -74.19597788344237 238.75612648782916 62.799406608228836 93.72835079473596 -99.04040677992232 -28.5812966577876 -113.08859620626441 -214.3355021136761 43.75399890071411 12.987135110329206 109.8672274653106 -49.886918920805755 -154.61682723368762 103.95726430526476 -208.48859665392754 135.29095425164232 134.14682479194968 -213.21410928746684 235.91044320408477 -25.249300612046817 231.73703841157464 -40.15216830233075 157.0917316675171 -24.77104143701749 89.05648132781775 114.30546140544187 -53.59756037207834 -74.04327780918062 -23.35675690490653 -95.0525080151411 -95.42456790740043 143.33998652159056 49.65805829517498 -85.2731850450201 -148.25151916003313 -73.82672732539751 237.75028723023055 -36.301399515300375 -113.39973289041151 184.50314059219406 -405.36386966599395 -34.61263635597609 54.62926788534664 227.49004991483764 -11.05238814470324 -80.79657693761776 107.87145707552482 -3.002252073538311 34.27664666111546 239.8829226848294 236.36805652743902 -19.984792368547886 165.42341826110274 -55.95028503389162 170.30425724663473 47.56858505472144 339.8361982430465 -93.25695466443628 -56.592884333828465 -162.04166004477094 133.01017570508697 -88.42797811020097 343.77418384714883 7.5703766486276445 -68.53554885046536 -160.47927502851482 -136.08144426122857 -96.98019955963451 -17.674553662690393 90.37037911898672 30.462573113279333 68.9214573502787 -136.03527700346345 -131.82158879338937 -48.14407513264686 147.9259034088435 -218.15692209784447 112.94840026522533 34.26255910425305 -21.88147688270989 173.8076227335399 52.21823327852294 13.04359493399735 -36.20289372387978 -51.85195984869104 -131.51554262686594 -9.672253951380956 -77.35277459108994 31.553707558661543 -103.53534864298918 -71.4883383592871 -105.11380376524374 -169.43524286531485 115.16405223538236 89.8561652131835 -143.53523349207012 115.23891550057348 -227.08732039035203 -78.01928467170374 -33.33699377609868 128.38658033293973 199.10589771134394 105.712962344546 201.37304181294337 -17.04196238959744 -257.8053574071044 41.23043391890249 8.439274317179189 -168.24021182700375 -110.52226090670456 140.77214374284648 -36.116796377848246 85.44709954495175 10.21209976932351 -33.62012736652078 153.67981674530904 -93.66199717145534 227.4125835002447 257.4937624421516 -14.207664793995086 -83.75833304948267 41.82625034918821 82.96568549243175 -64.57798910611587 -25.584210930005142 -117.16845487223713 85.1387567393413 -146.54597547483428 218.18375764142564 81.25788214432085 -72.17734099309557 145.14011725726633 -37.40990274476633 51.85338544546266 72.3558654875462 -14.441187177464379 -211.4302074423981 -84.73666845022291 -67.26133684687575 95.3755614955037 -203.42172600075403 -15.140162610331526 233.8675677814955 56.85520235628107 3.157002736312099 -146.47825097340152 6.277155167386675 -33.12749120339335 -81.3500707435615 21.967467270273158 -90.76382439308532 -15.643065382956648 45.0198387445148 -2.106859279162372 -19.44227397253566 257.03522017117416 -169.05293801745586 -50.56229475041003 171.65039408415808 137.23054814435213 -19.70537887814524 -101.97644331663297 -120.8058701102155 -114.57989034429838 85.42397530417709 174.30876633059722
