-0.7363730275910387 -0.18576596087970998 -0.2319131772511558 0.04218826170936607 0.5231706303977184 0.8602083856690577 0.6378292024074106 -0.9528001101460843 -0.36182733594222505 -0.20153064280392918 -0.16978695890668916 -0.7096830919710309 0.37910046870949765 0.19129790880538455 -0.3353990446913684 -0.5162475361180838 -0.4830883919091016 -0.8099299524067192 -0.3651257008275066 0.30232226606831447 0.5246039161493912 -0.08132264101452269 -0.38096743077504547 0.429452041873881 -0.3820329459062235 0.15286211259049742 0.20512178103981182 -0.04214758347214742 -0.33788530067296163 0.08709306862007371 -0.7119662233907917 0.8386642484660429 0.13586624036330242 -0.17480183876284472 0.3387818695174878 0.7688037201571374 -0.602021400269257 0.3679531642186369 0.5550962348516348 -0.7381389919496677 -0.4511827033433038 0.16447576877707637 -0.968910900827042 -0.524712719679925 -0.2262908170959783 -0.43813779172895595 0.7614112221676956 -0.0924872978762521 -0.9362851639706222 -0.07140484065312425 -0.8168849975402912 -0.7939629247795505 -0.733000823944908 -0.1677139556932603 -0.8495613091579939 0.7991284900389797 -0.9285044230592963 0.140061500046599 0.15483175605334898 0.49762512267827885 0.12910363377213674 0.08008797925154898 0.12946079301722002 0.7036460633756885 -0.441592022671635 -0.05750529025817297 0.6783529468389415 0.7283400001126481 0.20413806923547817 -0.7937445170360451 -0.5793012005052822 -0.6630773845312437 -0.8065732863629533 0.5335460557343117 -0.06287769732373971 0.9934573733213432 0.4811966107701984 0.5343545637819607 -0.6467854336907521 0.618839762060786 -0.8674917832586497 -0.6274527053479457 -0.6346644499247669 0.38518628005601663 0.006045376713766926 0.21256699011796543 -0.9291691180530111 -0.9448786487492702 -0.22271595961215018 -0.3268332536023886 -0.7374417480001862 0.30727199211060907 -0.7741347938418122 0.5092392460002819 0.8019446727470958 -0.9517398835349513 -0.1567115246759263 0.46419547690421314 -0.9857281203160351 0.34055271958991495 0.7144741419189253 -0.4661255362810359 0.9400170518704298 -0.8572481710549145 -0.7289161828483042 -0.22059401816915947 0.6546624409696751 0.42622532417111514 0.9659177125148994 -0.2594307413492365 0.5700031522016922 -0.18229616060413845 0.5996333688858717 0.32010009484623714 -0.0747791025682325 0.1019446355722815 -0.24636560300464683 0.057510557184294875 0.4174749793119372 0.8738437747943764 0.4327748033117025 -0.008338240794658613 0.37065724714714854 0.8072119628672911 0.29645806832166466 -0.01157592044473632 -0.5712350248642528 -0.6431211342402514 0.9773874947958519 -0.8751783784790212 -0.25577958303184833 -0.11630247036788632 0.8850877191176261 -0.288919847306752 0.07324981196396196 -0.669031338261191 0.16366874183878166 0.7095439045825929 -0.4220752207661824 -0.00018439349941501426 -0.028262490552974695 -0.9952515848145014 0.10390772421748329 -0.7123497639251255 0.8699132138105632 -0.4924126775353579 -0.17221311200862544 0.06823131970226348 -0.3331263582463717 0.90175248955135 0.9900222000507772 0.8243437405687761 0.6238449097388534 -0.7295510090803206 0.3137309303781892 0.4304423422243935 -0.4493023300639305 -0.2903266727684677 -0.8604075198990349 0.6013821903499792 -0.7314849914942128 0.39748815182033903 0.1013987536718235 -0.274068655597858 -0.4707565094763826 -0.40010725009114534 -0.6324258778950442 0.9333174809302724 0.15470675176655657 -0.1866691731445116 0.9864077470536303 -0.6122845243185047 0.8742942509366327 0.8986646956284479 0.27172584112809584 0.6954127771928393 0.6451995977511784 0.7531754376791824 0.3459926599943317 -0.09839352889814434 -0.6237550192651862 -0.7423090844727673 -0.903869844029132 -0.6214866462324851 -0.9839817539426541 -0.02578576956777856 -0.5161180926696356 0.6717878115020348 0.8474673776586017 -0.8390602644773233 0.8000470343843142 0.6700219565680368 0.10247110792483571 0.7863716640355549 -0.8535010323449161 0.5685949803893928 -0.5456368613735134 0.8154850490814167 0.052894953238726616 -0.12716291201869345 0.5840821138243832 -0.8065656451535463 0.19543065787885938 -0.7831590899362078 0.8600778182488302 -0.30672611975521047 0.22102346585881838 -0.3028381689718884 0.467650054772508 -0.34024096624647804 0.6217366037337397 -0.9201691908320668 0.8455804657650856 0.6357015511591475 -0.6415418306935807 0.4287813174528614 -0.18577768968774255 -0.4161939258330871 -0.9997743384855409 0.5095413090118996 0.07736086215357729 0.41222505686164124 -0.5770632130302993 -0.6712696699858853 -0.7723897783962876
0.11892947775284801 0.9345856496833951 -0.4348241292385375 0.6314423719711055 -0.7043480893211276 0.40043349501730185 -0.9962816338155185 -0.7410543043669371 0.5576566385549167 0.34295711058939005 -0.2404540276684053 -0.6555467192593285 0.77802516669498 0.0673002405998866 0.26007955773851776 -0.04007146443868792 0.7481617500567095 0.2655998933123993 -0.06990186378515562 -0.5083683622977613 0.6779633309325996 0.22005998345892985 -0.3465458848318874 0.2806193258594547 -0.00937027418217462 0.97895365605755 0.32962683074140964 -0.36978802504827013 0.12186325556536848 -0.7663234923704896 -0.8498769812499118 -0.9953525283818871 -0.22097174585188317 0.5124115376828273 0.6705193397562987 -0.16750629076187495 0.1689855485791527 -0.97293628910579 -0.858867508430823 -0.9138663999326369 -0.030364665615561615 -0.5573722500237845 0.44332918263988197 -0.3211542936529215 -0.04840444215673667 0.7197993087585672 -0.31747695090193884 -0.6576999705763056 -0.10715448038621167 0.5485272475014131 -0.5434455810404013 0.2929552571644014 0.7880274125643909 0.21220342282213323 -0.3950267273951322 -0.7455456349790721 0.43346708476894613 0.6970416688875205 0.5897703781647434 -0.8429619589963524 0.9681097183464606 -0.7183118027975766 0.9408022325113756 -0.5641748376390641 -0.8600518553823968 0.7759210069979174 -0.9985523133532228 0.8890854729526665 -0.3639769689061858 -0.8836407812275053 0.5738851498000903 -0.8356978822305305 0.5831900727117958 -0.9964717243304022 -0.9928534462938889 0.3603261876561792 0.5782654007906032 0.7685523946230965 -0.8803001612376706 -0.6569799587750762 0.42988279362277226 0.503376589242867 0.9991875788680147 -0.6719939091715188 0.8019866204413149 0.6564844687830356 -0.6408924042237787 -0.605025816211707 -0.08259438122584162 -0.4584459897880482 -0.14127704445281153 -0.5100087652173388 -0.046245585713305504 0.4812288661742665 -0.8749237057664936 -0.6061859518230994 0.437504564790163 0.764174349898425 -0.887072154477607 0.9631174892136756 -0.4496598653671826 -0.12221646988488044 0.9006284444558095 0.9108419087051929 -0.923116142636899 -0.1372500077415033 0.6124845953468798 0.8977561272039112 0.7876558078064395 0.13877071905852723 -0.9288611630945398 -0.09201873641982572 -0.8841435687502139 0.4974999832132738 -0.18804778224538388 0.8565852791893527 0.9121252248426834 0.8844960935941422 -0.4493002404184272 -0.8884276041604993 0.570979163771729 0.41333916654613434 -0.026849893472829844 -0.5167708375154607 0.45393577141039554 0.16498749906774246 -0.5525295130500396 0.9797057971361021 -0.503661740081391 0.4905771142660851 0.49935816292395185 -0.8250903750476661 0.06417590829144437 0.05391808805112497 0.6174379426651826 -0.9006733616406442 -0.8028225477604378 0.26351021390831564 0.13986002162832767 -0.9922840379282496 0.48538610057349985 0.08105449070198478 0.014531639333496438 0.11728810242046017 -0.5701633592529105 0.42250500251504497 0.5193545094457435 0.2658635325025056 0.4521891605671824 0.7859123461037665 0.22330482867190993 -0.9801981011113963 -0.8121427857759349 -0.5277749839471255 -0.08378014114948362 -0.4042210239795796 0.922631651022358 0.4514336261851424 -0.9154584456562962 0.6759195315146358 0.5389485589613798 -0.9281261383518338 -0.9552729553747608 0.76644115969592 0.4545037967373391 -0.5559842322148261 0.6112772290676312 -0.8162706540511162 -0.9610751355255625 -0.10439896191386033 0.5150345148502731 -0.46189325402626813 0.2462446306800412 0.6434396149152195 -0.7089984122994613 -0.18336523604167732 0.9296409769428409 0.031186556561074275 0.6483925990668153 -0.6161040253485299 -0.5961806300946815 -0.7087433581312936 0.08041775071219748 0.08416536050190526 -0.8527328014458184 0.6221019725667531 -0.10523025310815837 -0.4792874868799528 0.7546035013121732 -0.4851128187890821 -0.9984593102569452 0.4966093845400841 -0.7838355569728948 -0.7509684344095082 0.29826192210029445 0.15448566065352098 0.059286368556610514 0.6263940417211646 -0.19370590219619355 0.5038242921934275 -0.5772485352373604 -0.6463524983173221 0.4573330868751637 -0.17224808388116042 -0.09162996691179526 -0.3462774968404281 0.6847889490795374 -0.3136348855766733 0.6184482610035549 -0.9450542634519854 -0.6067787114257273 0.3630493327217179 -0.47284772231649064 0.5005262596136606 0.9982159509379451 0.372608793924863 0.5394594988026629 0.9825374077054261 0.5993355888534613 0.522229673229792 -0.6446421211442233 0.36578728695454266 -0.1708670895857325 0.6424017295781428 0.02751263018856842
0.42273254855387044 -0.29520068025565216 0.6255631439984877 -0.34851268935036384 0.4775505808539646 0.6822858834671555 0.4850112544605414 -0.3576487259128702 0.4946569453182508 0.08823544632021352 0.9928346942121018 -0.9162029881160245 -0.8389439883716527 -0.03125616062467751 -0.18788896773995423 -0.07233325848518435 -0.5447544364569235 0.4060573197025099 -0.1247860487421597 0.6359321713915429 -0.2599933257251772 0.12600486690801072 -0.636832804133129 -0.1372291414767206 -0.8437368642609349 -0.9438252702928585 -0.2352044661753403 -0.2289670704513762 -0.05733073045578596 0.04874123906518868 0.24860461334884043 -0.571263226135271 -0.0051737994956324584 -0.5242026154287471 0.31214275282193205 0.6438857476344901 -0.07690544194163285 0.9918756502989057 -0.9592850248812341 -0.7370539443063631 -0.34659614308129383 -0.3179710173303609 0.038879711876977474 0.9783006593413333 0.1618900529815006 -0.6043658020678215 0.5283237802968841 -0.20029363512581688 0.06591612101772593 0.7902036661125922 0.9951464819928433 0.42240051148522695 -0.4995546195479377 -0.3338721869800556 -0.359882411102324 0.5732794954304896 -0.5001733860287232 -0.005935110740789007 0.9455780317313562 -0.9019137676864326 0.1871446126702203 -0.2653555204656026 0.37433829507577765 -0.6612923229451899 0.13719456990481138 0.15373047420243524 -0.4761860249545926 -0.3552482871975 -0.3859615768552609 -0.3154092911354902 0.7043772419817129 -0.9222191725983133 0.2888924023332551 0.03445699908528854 0.6583808488951635 0.4376184991200083 -0.9832188478306676 -0.15333609517083469 0.6957326313337386 0.15105350660051475 0.114126577570276 0.7817514812387647 0.46880667106032203 -0.6377645289671705 0.9415517101561326 -0.5863106553420603 -0.10406530941498815 0.059206625525951795 0.2856154378224238 0.6010193832216273 -0.19580283305981983 -0.717108035080225 0.3003764668669884 0.16482923920580062 0.8359114847151152 -0.8048785537294203 -0.3830022469161751 -0.4533929715878058 0.9610189159718123 0.005839439224356369 -0.6354101414694941 -0.5255997496475928 -0.28509637822305844 -0.4956464686214781 -0.18649516938558253 0.919893704890437 -0.1783587653686276 0.9845148490598408 0.7057445155291342 0.6191234536368166 -0.8233544844949796 -0.7030332204379506 -0.5708477727373569 -0.8074050632053216 0.2663001272927308 -0.5643427103054062 0.9983453466288459 0.5130027060090807 0.11195434429702456 -0.11361233368619716 -0.14585285352760402 0.09286231161266412 -0.3512283972277461 0.728826202599655 0.4083934127550026 0.5552910408996512 0.6836117138331892 0.796050184717082 0.36995396677786996 0.35869836058762306 0.7970348178459057 -0.13063569266329322 0.8677773845469949 0.9850986969309785 0.25250751707671304 -0.01665458474527437 -0.004182542505178244 -0.9896084229033253 0.5504432256626517 0.45782752281907313 -0.1794773434048873 -0.6288468247273049 -0.8903169896352257 0.8462734919147725 0.6171919179605501 0.36308071633019523 0.07366989397876655 0.7408998048202489 0.3010237420138988 -0.19014426636702653 0.25729239031622075 -0.510343137319776 0.4467223396749562 0.6220529572074434 -0.6521421681385136 -0.8831458618840933 0.5999640972854356 -0.09076389128619011 -0.6955653809511515 0.4447273690596829 -0.5997246162406511 0.4116963155423399 -0.4516812548482545 0.7251497917828027 -0.8809026541642055 -0.9437410390111447 0.294912307010202 -0.9100067314123408 -0.23883840172172643 0.28254984842863773 0.1361675490393397 0.37731604911486305 -0.8666126160519203 0.7568027847458711 -0.9346636331896632 0.10247364731553721 0.12982810805513 -0.21332659146329802 -0.7513114850570235 0.5665935587166153 0.16573857691748484 0.7076979540393731 -0.6272399206362991 0.4397373684103778 -0.9540315508230657 0.9422829913952262 0.11156610486435237 -0.6352756239623345 0.5164964675529757 -0.8504050484473258 -0.3036201045984246 -0.1357974761073133 0.6280911805018907 0.918201509089944 -0.9570147886012208 0.6285774753856077 -0.20344212447628096 0.21643931845556197 0.17357136224730185 0.3550927426407924 0.07102850853662979 0.6286726266627649 -0.9067984423002555 -0.4074602020589244 0.5441487208965541 -0.10927545861789922 -0.8110678467790169 0.04283361324921664 -0.4923623563479682 -0.023720659909565622 0.9008572905670487 0.5590154356050987 0.5917167494669737 0.7127716872124319 0.169691178658264 -0.0253693235516943 -0.14863809769716663 -0.9632035916313819 0.35325628976728485 0.4998908693314723 -0.04058144622606408 -0.4485412044743411 0.9560970517165832 0.4960638724067552 0.339018699068369
-0.18919217262345023 0.6648499708918072 -0.09962179892050371 -0.7956337456483786 -0.6927035281816127 0.08182257267632709 -0.1854872777077472 -0.42912049943731323 -0.5758915455529074 -0.30651589255284595 -0.08265643502708664 0.4555152695816176 0.6228734816410257 -0.732538444437338 0.6597319210702448 0.8447111279925708 -0.32717535894288274 0.9613114535890592 0.10136675641893778 0.9045936540740582 -0.9410923381662544 -0.41126776909235274 -0.4304218454785478 0.7753019838177675 -0.4099580035720696 0.03201501011080343 -0.2889869169311998 -0.11733455465739429 -0.8348739790558457 -0.9862633149821891 0.006935676221803577 -0.5119579026797549 -0.23032614997967604 0.09170200267140283 -0.016044072179973057 0.1255970947314664 0.5748392689414294 0.6968344730304468 -0.4828932839940545 0.11568892466604086 0.3026463543442417 -0.4647891534428401 0.8274790403055434 -0.7447613503878507 -0.734023833880576 -0.7474308731488828 0.09216305233434396 -0.35482866932551826 -0.7934536869474327 0.25583052982432286 -0.3395368680872779 -0.7456546910970454 -0.7362463351053332 -0.49411265026748064 0.7303645733152013 0.13271956465841694 0.547553493380118 -0.740250592722203 -0.07097961414249854 0.8264550802276771 0.5603868207066178 -0.7009504767127219 0.2620677466128134 -0.7365042966729201 0.7057954165691498 -0.5846347092816138 0.4225746408985658 -0.5582238380502664 -0.03769646221720091 0.7525549661059416 -0.7016248584814648 0.29349386316957515 -0.8820057480179162 -0.8854269553681124 -0.8163300418979673 -0.1974446626216364 -0.5833311855761933 0.0390517841237874 0.763935232952925 0.6077988513159778 -0.21072018351933197 -0.8617649794274289 -0.8028160740172854 0.6005769246964294 0.011621380971614803 -0.4017430153313233 0.12767883059693586 0.1546509842228938 0.634512216707475 0.4010061528221869 0.486050732874566 0.5897017482150859 -0.5565284433980426 0.8744926402638264 -0.9083661452165215 -0.8989408838790545 -0.9713199304945086 0.1608545286956884 -0.03392587682564807 0.8880863252969065 -0.5795275695873403 0.9938691047197243 -0.557010311861384 -0.45426048114134265 -0.3624912084192198 -0.48915638769500047 -0.49330975162704394 0.48190538528628757 0.015826847695458612 0.8465861356380604 0.6977962209452571 0.5079162263919978 0.22958815565177648 -0.07580313961570062 -0.9572885957503106 -0.7660125027002671 -0.18064274193553542 -0.24427644738136922 -0.969295566601426 0.0203366886401688 0.020086360136861714 -0.029717729969400697 -0.18770324825358187 0.3963449568161186 -0.5460802038606649 -0.08942978382495803 -0.13963263878721932 -0.7124220519919151 -0.1461327825613845 0.6421943749889687 -0.20889555958994133 0.9153292597958862 -0.06707826417463814 0.5471185014168554 -0.23461589775011338 0.32608489148559183 -0.6868612308764195 -0.6388248588985659 -0.9187664667914881 0.25160788527916345 0.2907486835147288 -0.13850079909264568 0.5612749186354538 -0.8420785864718621 0.19580342389461292 0.8422490604962596 -0.23743434874122804 0.4611024167842033 0.0772874417378826 -0.6507818516958479 0.499825179610639 -0.7431625561443673 0.19550183945081834 -0.6777018274849838 0.8206175708116188 -0.7961842818082008 -0.39472391055365197 0.8445294475223128 0.970825258056071 -0.444038983746569 -0.9162876075892457 -0.6894979115829296 -0.3770734518113492 0.7787379622026693 -0.9444198547311156 -0.8339592995594785 -0.2804775936499069 0.4912990323234778 -0.35644561581922707 -0.7495391620102592 0.39320158987974363 -0.18631529764066235 0.41834194626032484 0.03927300994791483 0.5168000772499062 -0.5358534723534081 -0.8317057369323579 -0.049749341278645165 -0.5333781733631131 0.22479064981631813 0.15901109279161707 0.46803829088420623 0.481414560343145 0.503751079567512 0.13632143474876357 0.987198118640431 -0.7640579549206017 0.31936536260197546 -0.6446523339297674 -0.8409689047730617 0.9937617861911736 -0.5398638962545286 -0.14394248211592298 -0.021795522736168804 -0.2875743785074405 -0.47230194983854057 0.7367911504999816 0.48816970512558977 -0.7292315164553342 0.2966400024711435 0.6734296636663699 -0.8426275833895034 0.36993822471662297 0.15696839170439936 0.7455126379825021 0.2848723563697253 0.41845262209475 -0.5013145786653257 0.9200076580791985 -0.06103703753412115 -0.25537327671680843 -0.5663070397072723 0.6517424698993588 -0.2208894537659074 0.3083813622215381 0.386478383958081 -0.09601570775797463 0.3300667727762412 -0.6236455790616906 0.32539828381695424 -0.19176063582067782 0.43963014657485133 0.9080694641565801 -0.3425940182262166 0.33397793539355036
0.19864226410308317 -0.6695309536270744 0.45865943681560584 -0.945224775745525 0.32196124657855063 -0.6156751196337007 -0.5869412034590629 -0.5382235658562318 -0.4161095482746946 -0.32551344805785676 0.5873189300238395 0.6360150349195377 0.05859446535675783 0.12924384776384645 -0.07991127171801349 -0.13020860842886695 0.37555900915598284 -0.022678341479282382 0.6027373685108504 0.2577416209675898 -0.546109777902033 0.7206134775477313 -0.9508436334774082 -0.15684201641069295 0.7849468602826408 -0.49566558425086416 0.6224232814624622 -0.3200692226599513 0.9212824169017111 0.8673441703598976 0.7002165351058149 0.5556229006267124 0.5017327209943698 0.946790061075165 0.08802837012285503 0.6007615687432692 -0.34606966648146886 -0.40684275703126116 -0.6315736321589134 0.7231376476993057 -0.03133482359125961 -0.42996467794787185 0.3962852525392151 0.9072228638566415 -0.20078487823733782 -0.8555309039366787 0.8039304229024742 -0.12006727529959171 -0.515480775374815 -0.6991202260869973 0.04654048286664536 -0.9517688916096876 0.7875814432145418 -0.14025667850812673 -0.9819399580848918 -0.20061260928510571 0.6994912837059108 -0.02493177109067224 0.5349334204086686 0.90141885932702 -0.8260049500438598 0.11408443470131013 0.4055969990748278 -0.6532608174073586 -0.40511674318571345 0.11298645245868566 -0.4516685103384608 -0.18278755676465264 -0.09609534321799296 0.472587171670233 -0.08655240146758891 -0.7611905708575821 -0.30408293362781924 -0.2228311016932929 0.63156764451364 -0.2631608471996667 0.45646707296378874 -0.27774291669476425 -0.3481507566343853 -0.634517738513751 0.547899777284286 0.5398780971824733 -0.5254100417371355 -0.04662811777627884 -0.4409686409304894 0.7563645677110309 0.5386798516608948 0.5226508974275164 0.7106576777070013 -0.5216805257717767 0.3283516768423167 -0.12322990952481683 -0.41174421317594323 0.23929241697414527 0.0439011724221261 -0.575041241308103 0.2604557387951669 -0.07879011128047142 -0.3384923590401385 -0.22591730939174126 0.20621626360498557 0.4494912219672571 0.5837043673989755 0.36491696633701043 -0.7403777359394947 -0.4859026807596929 0.9418595911155094 0.5925534516829507 0.0026783677671611272 -0.4619679177589422 -0.18673674837286547 -0.38836965822347924 -0.98551638770327 -0.007507468863318545 -0.4864871916807847 0.6321782794234008 0.9613087644888094 0.309461103437112 -0.7308796218433293 0.5145972966039067 0.9946674742886679 0.4817335730294907 0.6533519691447651 -0.29179708052377706 0.21272165978737823 0.15522809947322225 0.05762554635918371 -0.5095771940538378 0.6952711818936448 0.769112502169575 -0.43762786720332847 -0.6098054398259967 -0.8862274556666365 0.18212303426756438 -0.1394638034157465 -0.12108110408769068 0.5682686504999659 -0.5472275061066232 -0.9105488846342606 0.3344017423428731 0.01937807809940728 0.9776607794012935 -0.9102045776335086 -0.3033415656903691 0.47962891961848664 0.08600091929334375 -0.24338302128309475 0.5869317569947488 -0.7715410634063702 0.3484778442589138 0.676771222895233 0.9768590404231237 0.04164466634972919 0.6389691237098771 -0.21693254096685521 -0.10750766875336049 0.30148936954425576 -0.26773139066097573 0.5683907161146358 0.45051721188211213 -0.555630874366523 0.019817187561552485 -0.03880462881452251 -0.9422719671150244 -0.12720388976580943 -0.16094497121458828 0.062376962490180654 -0.826030811738139 0.12781284558564776 -0.39187242877494155 -0.6041042526323874 -0.20773253016446613 0.6744952495359613 -0.19201304289741294 -0.17322829572743847 0.09149056763041208 0.7647439471402973 -0.565125340798567 0.5012080730466193 -0.14943881751513244 0.7370698420633688 0.034587432732029466 0.2841304233736144 -0.8859401722327924 0.3346208562821156 -0.7917174950479289 -0.42820063294472077 0.08600951243239519 -0.6124830321465318 0.36906246582594937 -0.2384806677120308 0.007210025548496368 -0.7126401687544108 0.6366707842182877 0.8945561458546274 -0.38661592514950227 -0.26641563670691104 0.35246130865221814 -0.32563879387792016 -0.06778674945251884 -0.41796701599788944 0.5586417739897234 -0.8123549886925172 0.7019335374115161 -0.005519787640364537 -0.07003810417674283 -0.9143538343117135 0.2156951259090354 -7.538713212995596e-05 -0.13540327630488802 -0.05077222900568934 0.34401746639693553 -0.6837482446158261 -0.2766878196463176 0.4646527895554866 0.7818170938222813 -0.43365300285452935 -0.1993380554851778 -0.8060066160941683 0.42497797431965756 -0.7887186777960196 -0.9610682901333156 -0.4411193433082785 0.9575401283500053 0.7708697568102318
-0.16041247428451078 0.45271094841786086 0.3275406591871912 0.05834779416180491 -0.8363064919942185 -0.764483497939981 -0.40093014917154557 -0.9914464930921745 -0.24066598345250534 0.1439879695953752 -0.0785935384636065 0.6439591122915977 -0.7406502361121845 -0.7368896059155197 0.0011932799103677727 -0.5747917411355046 -0.033650833634738975 0.10901097138737392 0.5234225143120266 -0.8001385689432532 -0.23992681543614425 -0.6953936376094771 -0.8748485974074478 -0.26619503253828336 -0.9346781997502305 -0.4287531289586104 0.19273527530963563 0.2812523971395293 0.4719157660130848 0.3696246869577995 -0.8774932234620336 0.42713455949866175 -0.78066508650253 0.10732613254632128 -0.027517197213530187 -0.6913583152355396 -0.7075366998673844 -0.8480846484855651 0.8240015503323987 0.049876863300834184 -0.2079022679556517 0.8215886124883722 0.13067769947189234 0.17004219720565272 0.6815814705666101 0.6617724708596566 -0.09704297929786443 -0.5743038689345283 0.7051032662580847 -0.2045225447716419 0.25974998213356115 -0.847564358852686 -0.2499892477868868 -0.7043623513543324 0.3283720758329429 -0.9024055766486774 -0.7019201938501332 -0.9032810293076978 -0.8755476904345953 -0.0826404720674867 -0.6359023758821942 -0.21479951544156983 0.9914126298606891 0.06447545557335954 -0.744361646964234 -0.7151679649644762 0.4396948843993047 0.8804663325513891 -0.6705004662584473 0.6811499870254851 0.5978542606977766 0.05393882698365027 0.48776645028506427 -0.8201554582680977 -0.27935049109435406 -0.9104712871743437 -0.5895016239461308 -0.4089878516665759 0.6487808935970347 -0.6085213339902305 -0.6541209867845335 0.8180315563064129 -0.40219322963781323 -0.9869045506011227 0.004662788167910437 0.6510479794642194 -0.3349486507429933 -0.686792188908351 0.22023907471944515 -0.3774746927001371 0.48436086087510044 -0.7896741468564386 -0.3798029704062622 0.9085678014373715 0.19273480560102252 -0.21105431762865057 0.38187301767852744 0.9747686732049079 0.08167827207401235 0.7720659424637939 -0.43519534888412625 -0.7121678287216664 -0.14555988954336274 0.4941938386323885 -0.9843668208317895 -0.15780340585015584 0.15562699646014178 -0.213148892637967 0.8423015738160722 -0.11922612766270357 0.23056159120912678 0.05749430243946274 0.07490621618251248 0.8766419437220456 0.020553809788502964 -0.6113867254425491 0.2144272610755058 0.25678631457157897 0.799347377878505 -0.0703061710059163 -0.33238576630976935 0.6098907550869728 -0.14387996675501014 -0.5990914279981847 -0.36486939629058135 0.024748519194420338 0.5430668640263352 0.2607052742409004 -0.5529680010292921 0.6173374009954298 -0.4373856984882929 0.4996568183649983 -0.2536971855146277 -0.23502995032823648 -0.8946233135315553 -0.8252740940998144 -0.5318488728676616 -0.9430279899794971 -0.07388847097033913 -0.9001715640945975 -0.993929813131619 0.5826351132547085 0.07040675579134215 0.2722218613267058 0.9150140843413328 -0.5967922429753083 0.8227097681329218 -0.6760696641775357 0.9954517488019976 -0.6182199307130103 0.7856165071951042 0.9008530349901842 -0.8563417625827277 0.6971342126842732 -0.10957929092501328 -0.7419974739410442 -0.7954169442966592 -0.7468229058729414 -0.8142357946156944 -0.5462085973509483 0.7240096943590355 0.26124588436681884 0.6412471885347988 0.9226607892250631 -0.29410853424275296 -0.7196033485767348 -0.8845249382566198 -0.8707918922101823 0.9220186324672268 -0.1331367817343827 -0.4595938605800287 0.0005264155547206606 0.46412528629865957 -0.4766420779769076 -0.9758879130624663 0.4769002700559335 0.17791578823184784 -0.31451962603816686 -0.8708031802329645 0.6066510482191387 0.753166151723351 0.8952734455017908 -0.37699902143758446 -0.653966436694394 -0.4858843060533258 0.7001003013204985 -0.9028965409074683 -0.6666631001482501 0.40124045357302296 -0.4903117760627884 0.16056136662576637 -0.41828480853984273 -0.9615606176201887 -0.2322617987184632 0.2245295440427848 0.5742570859098219 0.7555042930808782 -0.12240477987782894 -0.2861021958307024 0.8965526866881737 -0.6313044152468825 -0.26725276703928746 -0.8873824275919733 -0.31725417117360855 -0.2274521604958868 0.10299842884326083 0.3549634100778789 -0.11735839753518795 -0.3801995228568762 -0.38094878904439344 -0.8801430454469046 0.5486633969652641 -0.5368669730200073 -0.8583073664363412 0.6160947153306391 -0.25382907811831035 0.26223327301851374 -0.40082494901251664 -0.03883244145366471 -0.47658100687979 0.8210705671597787 0.18082051058002602 0.9624242973256263 0.1568315982453885 0.36435292364839644
-0.7357716296576746 -0.6487163637896343 0.14283138743584578 0.6811172818629057 -0.7605833644733293 0.6180172718186934 0.37363012596903644 -0.756333457620302 -0.1473870549434333 -0.6013231139352881 0.21577850663164888 0.570683825207325 0.9648637033733167 0.07749814031166635 -0.8153953362396902 -0.11156106672954436 0.32449945696026683 -0.7325647128027799 -0.5959213543979971 0.3635060691104486 -0.5573367245988925 0.10834225046594792 0.5541135010569886 0.13188065658212844 0.6873126567321157 -0.3006548200927861 0.6777014253578522 0.15545370727164087 -0.2225725466038755 0.930166481810053 -0.08045936857440905 -0.31011805084624955 0.7879655713117177 -0.7657687905080175 -0.248939401780103 0.9229044801516075 0.464404413623942 -0.06152271466836079 -0.3703962862036303 0.13277478683307775 -0.5386202829394169 -0.24219513001921378 0.18502603214290425 0.7661413474171943 0.704510539241209 0.7046302138219169 -0.46738481524691666 0.17308268265726334 0.6171487997958911 -0.9014666531711348 -0.7873150877759676 -0.9748457430121684 -0.3124569643158164 0.5237730157467231 0.1857594606120736 0.4890553619717213 -0.29941972526754457 -0.9256794745616694 0.35614325966201843 -0.2664620032044902 -0.24732685377373698 0.4256571435930012 -0.08095708054507567 0.483035062497867 0.5312650633739131 -0.20466775632896161 0.214240853382327 0.18317500367799489 -0.12411993160872892 -0.5030314799938538 -0.5141282518062043 0.0034916920685013064 0.9459356054010286 -0.23373616512315887 -0.28552393135732057 0.755602963036637 -0.7142848068821075 0.7027232671181296 -0.12647874823202776 0.896944203326431 0.18788133866712675 0.5601176410562625 0.5002876369582852 -0.6113293901379149 0.6260576571409708 -0.3498618090472856 -0.09505131525499944 0.8603109425953082 -0.6965568848013322 0.5476437695081677 -0.8678507021806847 0.00263719670409146 -0.3108903029693477 0.08578475456643675 0.11308455207045287 0.06017762294991069 -0.8168074459018151 -0.686890905195761 -0.9573792061016864 0.21856581566201938 0.5710793182904697 -0.37108935852949765 -0.595271057819136 -0.7713992429976104 -0.355082598008964 -0.8057805848139248 -0.8468776060588212 0.27920563949733923 0.08065192411172095 -0.8979264783775218 0.253015725785128 -0.3612332044345581 -0.06034187192947793 -0.15690744147093816 0.5207240910946371 -0.799001584015737 0.8349281674815816 0.2950340489634542 0.9157352447734901 -0.33677326496079574 -0.9814180375062074 0.5868426602523489 -0.5970149453450473 -0.9068886195360419 -0.1701905945724076 0.6740689772881008 -0.2763368591970379 0.3808610080577923 0.30212796556998 -0.6544485709723376 0.4535294998320869 0.7613923151927189 -0.27431184388540886 -0.773947459423493 -0.42953440387879893 0.37581227209752055 -0.02434540569059407 -0.09186642821067448 -0.9173547475168287 -0.2974280629855528 0.7663413502830816 -0.4008775823736983 -0.1894061027241256 0.6723076719471937 -0.13471489050474772 0.2612194017397105 0.7193029386668841 -0.8000299676269607 0.4731137174473825 -0.6301438804678872 -0.3638665862531929 -0.3913323378399609 0.44230318383594236 0.02917615197386536 0.9551612054647491 0.8237235932582458 -0.10818497968305718 0.9157906715593125 0.16862040619961904 0.9991286309236402 -0.2303429457451931 -0.0038854795243075113 -0.2969468380683633 0.506946006268941 0.018915817543099456 0.34074613173243185 0.6646368409899748 -0.0074566859917355455 -0.3896641799740912 -0.41557839505430394 0.2929173953268127 -0.5936542310555182 0.5243085980857116 0.6383116572482228 -0.6139452169143775 -0.5747637328399875 0.8256636042690659 0.9468329688965955 -0.28598147864474854 0.16799603251179285 -0.49517670985603557 0.08107329894812954 0.5617311027700922 0.9364247020593568 -0.8736172349315632 -0.7849650842030869 -0.40472393924211403 -0.6640067674354744 -0.6642466835111405 0.13818012752041442 -0.8749997272580425 -0.9574619686406252 -0.30445542158787786 0.716187199357001 -0.9420673030001319 0.5691435362928066 0.7473088953147506 0.8998807288941193 0.047570909648843696 0.1489871240844065 0.3864772884060512 -0.05365363911117216 -0.4225092589433641 0.9135957174964577 0.7328359615028197 -0.26391517804506304 -0.674498383275185 -0.33991649000887825 -0.34698757727425233 0.21792554859587687 -0.4595369032760077 -0.14931820726689993 0.6505429567301995 -0.9180715595067799 -0.8373401102999407 -0.02494941919341742 -0.29839661977373066 0.7773627619121501 0.20748002240445818 -0.04450935098028186 -0.3762995757075611 0.1893002967704862 0.10779107423551215 -0.003920765668379733 -0.7502412034443704
0.4733376995449854 -0.6643551351185417 -0.27899049820540145 0.6774353577984036 0.9870352938451152 -0.5813906010707139 0.18031734394765242 0.9304691439077291 0.7560583815219539 -0.9085629716092496 0.7457855323535425 -0.5358674181991554 -0.4763779085584601 -0.8459531082506797 -0.737389884032307 0.4239789479316898 -0.17674539183535187 -0.22743492209714344 0.8752466393434033 0.0593923162943748 0.47168296959048495 0.996744211564754 0.48158622001188744 0.8726211942073916 -0.3914648927286939 -0.8647631996034777 -0.8343716434354407 -0.023826875052517016 0.5791788071313579 -0.05504026108155213 -0.5388489302436079 -0.5695392459410622 0.7377451160695285 -0.5768239458025379 -0.214854150033867 -0.35343661015108685 0.5275582062816644 -0.09787012740876389 0.2830523934042821 0.6312913383034136 -0.22483961582018153 0.24526510636981613 -0.0890620305137535 -0.7284734725868913 -0.8354375284927158 -0.011100171775189516 -0.9137234387140114 0.31968223743706314 -0.6495143121193105 -0.2876654765265614 -0.45168672485376016 -0.6834531944797186 0.26527364579281887 0.4295682270282837 -0.8717014410252508 -0.254061863303942 -0.6181033060603096 0.2124198740529606 -0.39882588795374097 0.9207870220215026 0.5649626611280458 0.30380502046117996 -0.3797471972842046 -0.7684695249568898 0.7799466286041308 0.9758379790681062 0.6223791664898326 -0.7203709415895816 0.889746274709319 0.9781286069047124 -0.010511623770138145 0.8119075127341568 0.0021663464072971816 0.24065755698849767 -0.34631157602239826 0.48498610346635185 -0.6024839641200719 0.5845123915402233 -0.6793460386521333 -0.11572135435665265 -0.6723924580882787 -0.04125746921494189 -0.932744905724201 -0.09337502821065824 0.18594782593547543 -0.07124469574889436 0.5906582843099752 0.5640839976510486 -0.8653347872882318 0.0055240846317337056 -0.1606469271444193 -0.048824403802091965 0.4148156495327209 -0.9049739304700528 -0.7831945542546337 -0.4908857639276345 -0.2381768698477993 0.009844845806101565 -0.6136754684584487 -0.11468356583098416 -0.9719938199877589 0.4595450098026732 -0.6095527544737913 0.03008293087478542 -0.40998846138225375 -0.9485966022425305 0.6217684023528882 -0.3520254367611011 0.9664442750182352 0.6008016585694385 -0.9363108225873942 0.9200118816296261 -0.2141239216135531 0.3459210310947072 0.8587850300671309 -0.04292119466142208 0.631273400066487 0.44520516876869975 -0.09226414500576485 0.8804014554678046 -0.7663414284600354 0.735455604878007 0.08041877312506807 -0.3608952779196055 0.3086768668950217 -0.41925354219166144 -0.08192337290269114 -0.8081412842033129 0.49940650856074753 0.17393637740779488 0.3023906070686342 -0.48824622854282773 -0.44196023129408024 0.24651458957390116 0.41864994819658574 0.8450543859642043 -0.16450923120293015 -0.24099258522256783 -0.7822983006018518 -0.8235113781783747 -0.8026733042896732 0.25939994377931286 -0.46270297164476126 0.28754295580326206 -0.7598266301585976 0.6499856655872722 0.5871443884984866 0.4737023810252934 -0.7881943818411923 -0.5608369585672626 0.6698333932866434 -0.2719244959416953 -0.8157400567449984 -0.9587283646727272 -0.9347900988564897 0.8158243796832712 -0.110873181133194 -0.15567183344720714 0.29059172013728873 -0.9742664681999604 0.28829806158020843 -0.37686084656547014 -0.4903443061178512 0.16433676957655585 -0.681969141602548 -0.7508871406760984 0.6142339006818891 0.2093321225247391 0.9590093316270834 0.850833983544687 -0.01413999084157136 0.1543383341889435 -0.8689538752240653 0.13451876686757602 -0.9565536572207085 0.43007931149025924 -0.23901259551617038 -0.45585308344008846 -0.37652840836297896 -0.33267979395565006 0.7211109741517161 -0.1096076283766807 0.17853281098238383 -0.09351926133940558 0.7542283123179825 0.03336528241127823 0.7451352345321012 -0.5311408851830932 -0.7148804190767168 -0.6157976140691166 0.05473437434207584 -0.5264535421281606 -0.633796325717952 0.8501922455564899 0.7776987447319264 0.8654155366101006 -0.1913823280678013 -0.8200817603556914 -0.005714090409063122 0.9497521416186192 0.5402534341438545 -0.16992691373964997 0.6003181263874966 0.30733580323145393 -0.6011205903796644 -0.8451219269598109 0.20535025812494312 0.9137622639720682 0.5157777250847861 0.021908591656027543 -0.7928913508056543 -0.980051214028568 0.5453493571630623 0.5205873334230291 0.8344277742136632 -0.7353320655989777 0.5310143684316218 -0.8743068209968716 -0.2702400892749184 0.9993376973982551 0.5227656071623912 0.6618366079052398 0.6202182442015707 -0.20729540198286034 0.06131926474971028
-0.2673851716282336 -0.937612723137363 0.07161260333154251 -0.5964727151738114 -0.0033785738449636504 -0.3300981360569841 -0.29024398186351896 0.21737752838329527 -0.200127841942092 -0.2116110141817551 -0.6825321788446332 0.2875360221623955 0.574319058656388 -0.3494723405548228 0.5880455084941174 0.08655319731576716 -0.945808463253635 0.8388387069964987 -0.611354446754967 -0.7125965162108405 -0.6047291615020891 0.8676113049693186 0.6973963642707754 0.7176651618720098 -0.431833572574736 -0.08657097565599625 -0.9748848291401686 0.821418677341329 -0.27446813454240737 0.9107618691910588 0.2954477896656269 0.21444991544631375 0.02981276774663333 0.11153718896973519 0.3294121153445406 0.5513162696180656 0.40772699032396265 -0.8699986463356717 0.196326187357031 0.5399605810544874 -0.3777209593949522 -0.6277618923662414 0.40225975974583217 -0.06691814926784367 0.15667673639010382 -0.11341982860067201 0.7545804853806906 -0.5221477010786535 0.09975467538141847 -0.862844163128313 -0.06138077299884359 0.16043202477317586 -0.773767134798498 0.3163890332491164 -0.22410724698972606 -0.3939337176418043 0.41870213243963006 0.7296998158790731 0.9635931541983729 -0.31719677575620353 0.4976386705418876 -0.2262342560268633 0.04803048029802315 0.7977474243453051 0.3846059198242333 -0.06986738489253708 0.6332039096864783 0.819902235451359 -0.4942024649086483 -0.5390681586163539 -0.9699377304524923 -0.12581527950956906 0.12842852898604362 0.6939687870514284 0.4956969599519032 0.8483574163488414 0.29382830351941003 -0.8877702170750845 0.05802236782943959 -0.44571413793944537 0.7936248104863199 0.6952905609675744 -0.23269813482382395 -0.06158322850187492 -0.17448376408935284 0.18466312665008755 0.46713549139040755 0.457985301694638 0.6980441676454303 -0.8958307245543262 -0.5466784921848098 0.5362813801864936 -0.039192423695314726 -0.06627495226066205 -0.37100315622158053 0.6112924820784653 0.09955042427111205 -0.6976102763902245 -0.6372558724141759 0.4185956619149864 0.48161980538047877 -0.4059944034745553 -0.2863651421215292 0.0989935955349972 -0.7080206822561781 -0.07196384347984774 -0.5075714358015819 0.4250785100745409 0.2628280332055264 0.6099258318870611 -0.4067297724245613 -0.30969971444802913 0.7142248356692533 -0.8694285278891138 0.7218265347349808 -0.8242195898683935 -0.1614227949865359 0.5128018390744844 -0.04598505603897496 0.7333348509029431 0.3618413328944665 -0.9040583198371523 -0.7642666838566095 0.8286204596649831 0.4418418844135201 0.5109001841528467 -0.8997578428614958 0.6672098700528297 0.4370293669997283 0.6987828088204762 0.6136344088307137 0.14211137129176343 -0.33496368221113726 -0.8018381328130357 -0.9615572262841208 0.908309446647819 -0.9753262085768817 0.15393462790718648 -0.8368887532141909 -0.6525416837584499 -0.8898888903624647 0.9772511733333757 -0.7710862445568432 0.29195569630431195 0.5331520865084709 0.9031904383437483 0.7446560569718452 -0.8630895981627174 -0.5778670516491691 0.5234122714495069 0.7099036368635332 0.8463242049776274 -0.5334817201312307 -0.2861371243956361 -0.6012386362742486 0.021442412101413177 -0.06904914956378128 -0.9805724066341863 -0.837609367604776 0.32781955716295674 -0.4072873919856457 -0.48033036872508506 -0.4558692856963762 -0.5803070542757351 -0.8318680965533973 0.26857960154417104 0.648297120020435 -0.8421874217633973 0.9061280928173492 0.443396999285566 -0.7497460630566561 0.6490780151256714 -0.543887748570864 -0.03498441343575598 -0.15324609871772665 -0.43975605670449736 0.037200472961136155 0.2726987795480209 -0.2541102093380083 -0.006695752313028214 0.19140890575728053 0.22288101352337786 0.895529705028641 -0.43155410111774617 -0.5988443115587236 0.677493156686914 -0.19108935320736564 0.8997442221498098 -0.1448235919776668 0.16251111716484923 -0.4635669682121073 0.48269853791790274 0.5553917773816186 0.5795060799161631 -0.9116199401881957 -0.3671589265155808 -0.659244677758569 0.40027890549259126 -0.1458475261566885 0.04513637136585391 -0.013444556566652777 -0.35399074713050127 0.6473985634830068 0.5201900200966398 0.027579268557958336 -0.8812885360554976 0.5547437179811214 0.8132120262789968 0.9259123468272952 0.9676915172429303 -0.8123109851025703 -0.5283620038648358 0.5735510105805415 0.1897217307829453 0.9196606069977271 0.39272857126821137 0.48000772828391236 0.9260255435494091 -0.9371878126522575 -0.3044798129120212 0.4737339569217889 -0.6097541852813677 0.16518557807641687 0.5517061992181029 0.8823790351852796
0.43948353329164336 0.9824666017526782 -0.5594559575878932 -0.009840293859151306 0.8902954469807822 -0.7764792176558741 0.3497589404400179 -0.8471389887790908 -0.23556064087123096 -0.05935393346632467 0.35058620509822447 -0.9797001018894789 -0.10550656572187456 0.9078663634403066 -0.4415525181482909 0.41912928788032056 -0.35539807541928514 0.21701093997103005 0.41163976478389497 -0.7631558647319485 -0.7498273143440493 -0.37586608540120037 0.10970810886519278 0.26080619512712233 0.4576653405184501 0.018733847327985664 -0.5707523981366736 0.6823668395704672 0.06882755386070882 -0.31482252428134827 0.986962485759622 0.917059064278809 -0.7424271011985353 -0.3348359278978956 0.6254188243127692 -0.14000621108293143 -0.08267689996054983 0.49050152723031015 -0.01426567834538206 0.5110115841703 0.3585368257355557 -0.148272468843601 0.3528836130870676 -0.6345563816681437 0.5545759628108746 -0.7148889796084523 -0.378412925250839 -0.4483790650224997 -0.9756044096925551 -0.08219094589850662 0.13602620453990188 0.5022765604315995 0.8693441549051153 0.9946393021276032 0.36218258415674187 -0.43741396440289737 -0.19957569947318077 -0.49399166633038316 -0.7331384554292151 0.5911292251423197 0.7830708910022404 -0.38744212993568605 0.8938912551283988 0.25705571823859685 -0.5841347363099585 -0.011884318543876837 -0.877165514046224 -0.6270862971314832 -0.3573649192035149 -0.8346989187483316 0.6122390596657421 0.7825282922917358 0.8858622683997035 0.21508350986593516 0.5744085315836178 -0.6233422052085125 0.835043185960187 -0.9531554324295135 -0.4027018009577077 -0.7031470540260394 0.06888750513043695 0.15401426322232337 0.18429561404498118 0.9680624799022433 0.42327883419923884 0.08018847424770459 0.029897324643461287 0.7098593605643682 0.4489843475564226 -0.759003654342959 -0.6315216118727727 0.516053630929203 0.4262287223574275 -0.21116393223775942 -0.2824406421604966 -0.4008345820766068 0.6551964779003558 0.39145834138431335 -0.2009639811417836 0.3460079250007866 0.40063577473916023 -0.2964408486515988 -0.28541757789723654 -0.5799007433649315 -0.9372453650875654 -0.5059431530665339 -0.2675519839296514 0.6822077314729567 0.13499750611647476 -0.9194425077962387 -0.85334597044713 -0.5598422888005421 0.6199344382262406 -0.788743634962944 -0.618274329597631 -0.13287714188774014 0.43708068344157014 0.8982016920150713 -0.18146126028353726 0.34519834694802287 -0.7469386950593593 0.748968404208721 0.6307771889166256 -0.13914242827515766 -0.33762925628664564 0.3623454591183173 0.8758355471409787 0.525491953183866 0.31062436790264947 0.978372912148606 0.5722956609125134 0.9128369838839789 -0.7602560909500937 0.33208160934677333 0.5766001116002419 0.17921643402699083 0.5379531988422703 0.5568867815474383 0.19414272051267933 0.1343948928487131 -0.9986726278137206 -0.960653830818917 -0.3442959238019361 -0.9538774787530255 -0.7681582001020955 -0.7323914474242754 0.8993375157636541 -0.6123573168771212 -0.3103849194796924 0.323379925597459 0.14381503320974343 -0.004892595192570237 -0.14590906964011774 0.6112399093060512 -0.4218276896006381 0.19908277017596276 -0.024698779615534905 -0.26535677266376867 -0.17697798367808537 0.1330930497218128 -0.892010509174084 0.7825962976227814 0.4937879815248494 0.7363886762860887 -0.350262330147352 -0.12455404346868959 -0.6865543404537182 0.5407549696695213 0.9476669521791907 0.4378717158955765 -0.6499414368062519 0.04438142159400127 0.6761853729461684 -0.9597671116724353 0.905480680135595 -0.9129279410936579 0.6657731269538285 -0.5936957276976249 0.7849376579147991 -0.13294805536569676 -0.7634766568707401 0.01408524435978098 -0.6205233833640529 -0.1823255117209961 0.5658443009247689 0.8293523502001718 -0.6221121971300589 0.4840115246257308 -0.49149957540843636 -0.20337944686998388 -0.6886995782989085 0.2555147335445882 -0.2216457970792287 -0.6456624864789406 0.39779918290128813 0.5898047699624089 -0.6276837501809811 0.11404455195200391 0.9133341885007307 -0.6242097963972735 0.4553975403810353 -0.9004403301674344 0.5683004270291996 -0.9431208318065967 0.6847972728505691 -0.1815662108297278 0.6896599765759965 -0.8731455449983008 -0.2589937933429771 -0.3958984457152117 -0.7856866237229061 -0.4750327832596679 0.43544197733334666 -0.2723331877262296 0.5576059646116225 -0.9203469240908067 -0.9191890173150716 0.7864877545189646 -0.27002514932385013 0.5238347150124449 -0.8559883606025342 0.04915182617041469 -0.9816186122072954 -0.8129548815514065 0.6294086777523076
-0.5296433474481632 -0.36815979654172826 0.3872827098900449 -0.9570322767270776 -0.7531474117377144 -0.18296239275775528 -0.08530070048347671 0.5145864226883581 -0.5379126143454791 0.16913832459891398 0.7182553973932893 -0.5871818274931537 -0.6167690225962912 -0.15648181196366995 -0.9981510415234016 0.1633773355092134 0.8325584716470642 -0.6863742708703526 -0.8885750587218393 0.8841519664358037 -0.04277544795365085 -0.8368359289616116 0.881882144033068 0.5129081949792993 0.0607941800532501 0.6229649873801408 -0.13532533920873369 -0.16655111122612842 -0.6652671193835691 -0.20210289686658522 0.7041773747184266 -0.387773644068766 -0.33680177288483404 0.07227984805786214 0.8906145102378185 0.6506426218145678 0.713525297285952 -0.09763242017732421 -0.5263309780368599 0.655291275051044 0.6800171236655961 -0.047023952124644275 0.9766236830198203 -0.6374050151742556 -0.9705533481934929 -0.4972310368959405 0.9096245379375203 -0.03236990109585047 -0.1732082631691798 -0.8131703436399866 -0.222336590168974 -0.5920063291486497 0.3099138275675557 -0.5218293464101735 0.7247505251691613 -0.7922952249003175 -0.10938105053921232 0.877857364640473 0.17849272999349175 0.6175686581073989 -0.14332053723078952 -0.7598069178581048 0.5868564562153944 0.41230114784590355 0.74761957548434 0.8529651931416258 0.8299054839466893 -0.4266140967342078 0.6329507018745597 0.6847262964501346 0.15365230645099093 -0.12830917768224315 -0.663853062207256 0.23617698307453638 -0.6334627281459329 -0.7947510213018167 -0.5273521475039165 0.11545097435517326 0.4462615855542482 -0.6953417429148425 -0.09334147600465204 0.25770000774539414 0.7731877467444321 0.9074559459286513 0.1467032766993106 0.7147520070537545 0.1781380070990548 0.4779055829090808 0.42674140125749704 -0.09204630116904311 0.5365755797356215 0.6567932254005684 0.7266539475290879 0.7921899814877116 0.02564297953642547 -0.39944232821107417 0.14402110578539484 -0.3526489934863757 -0.5308823909487865 0.03398675218535674 -0.9452458159664494 0.6017985610763388 -0.6218313383860092 0.6634740466113571 0.13175097578163264 0.3972809127579786 0.39482511674147514 0.8218754700402215 -0.6950762420785586 0.503885807516204 -0.7175751471737171 0.5201391848961054 -0.8284286288090574 -0.871072734174889 0.9799959576957717 -0.04973666989291625 -0.7057396086996965 0.12773919838487613 -0.608190724297929 0.961283957379998 -0.6944356562347065 -0.3624201968407068 -0.8726816403502604 -0.6423570237926219 0.3869496196232829 0.7499316495076012 0.4567899006866265 0.16554714287797845 0.8323411793777902 -0.0753116812443253 -0.9519666249312742 -0.19250409328581353 0.8472523862068637 -0.5716422785691027 -0.5282040678369826 0.9210918633865004 -0.37180970778657807 0.5097936220268093 -0.2743175369373314 0.6835639700556688 -0.1679474154117253 0.1602414969109749 0.3931161747643006 -0.10879106794587878 0.4972858602391146 0.8896659197642396 -0.9111693954859914 -0.8817445360717537 -0.07451525405543724 0.34646034884125565 -0.880743316279665 -0.9900555123987345 0.26735864764685746 0.7292287847746233 -0.32006376650480606 0.6531234845382499 -0.4736631199301886 -0.3762203662486261 0.26579282640931945 0.2383062345126976 0.10834202663761028 -0.273904423423178 -0.08330575161408738 0.20033778299707272 -0.6072538008128063 0.031921617638859257 -0.133989598147775 0.8827571514001142 -0.2611887187816877 -0.33933791898002497 0.4376112581935676 -0.4919104252850548 -0.7043241806651162 -0.3463157823340901 0.5914352058894143 0.5670864768395585 -0.9032045588939968 0.25788186213333564 0.9736738545490029 0.9607228526443874 0.30723573590962694 -0.9913764476134828 -0.9567544396721634 -0.035056377327601806 0.845602075270568 -0.7103323787640594 0.7042851775870353 -0.18341746031705264 0.8428528886669633 0.13132225043216783 0.4301730080642263 -0.6128192891111419 0.18995297250116083 0.9043406530399514 -0.750885492483153 -0.5109340071488442 -0.12598686817777094 -0.9151413899441332 0.04421650253349885 0.4850231218806562 -0.7517132767489731 0.14993414207593458 0.38611757306227323 -0.8204842604607647 -0.39759094262720684 0.561020444449609 -0.3946621634220888 0.7438542850502592 0.15133324772828982 0.15461520069462908 -0.5110498534380457 -0.7649724794006922 0.5037964315483219 0.5027515208948254 -0.9300265570670347 -0.5245441593681546 -0.5673418160528547 -0.3211774670839802 0.9643376118846854 0.06460538102404256 -0.03848818956656763 -0.8671861969256842 0.8326668183298904 -0.46423264261872177 0.07341649757986746
0.5649328112065695 -0.6479382912240947 -0.9513414993502893 0.3896755700102552 -0.2127510873429337 0.023259295909941358 -0.9244429632369473 0.4899236737750281 -0.22922892793068272 0.2204156939413473 -0.4662931230359628 0.797672761067401 0.7579925867829924 -0.5275342459952121 0.7843924632148651 -0.29548300080582557 0.2723090592988513 -0.3292062913136675 0.08276544186146251 -0.2541901283784598 -0.43049688974973876 -0.43487139399941444 0.05514130479804469 0.7868376074598828 0.7509548654914773 -0.024552633685174463 -0.010857079562746508 0.7824528364104879 0.2059644407283645 -0.7181188336961237 0.03469255079736899 0.5455128416972528 0.24214959122620572 0.11284899830086426 0.05735199969419824 -0.10116217181452014 0.5871056386586804 0.7478365728145362 -0.026909795200507958 0.9044301556429968 0.29425463215640746 -0.5668597987541251 0.7533788128744985 0.11126879364288733 -0.9234416138778818 -0.8861718259386229 -0.448549393344843 -0.17904514902823965 0.8457865792762578 -0.5511471087270385 -0.6849716824231351 -0.5151009815001908 0.9631251951227249 -0.001456966904587187 -0.466872799270897 0.6907700034148894 -0.33676057424265426 0.010778030842279795 0.9535356931990244 0.4521643001033897 -0.9176614852261933 0.9864306033242671 -0.921849833633166 -0.08681448063633446 0.2025000278956992 0.5964619198411676 0.04287536477712384 -0.14730141345631242 -0.40623303805608835 -0.8173879687738599 -0.7156202712070743 0.7802362605645865 -0.9003792867408129 0.9800567484826364 -0.8932738209381959 -0.8562497065800083 -0.11282918687387267 0.48157861620362086 0.04326390934444602 -0.5523964154157628 -0.27832651409243314 -0.3597089090818071 -0.0619716845361884 -0.4819357301981766 0.6010340012875117 0.7185836524257221 0.8385628838806474 -0.6875923192204405 0.2990848382007989 0.4163342585018206 -0.41780784555868244 -0.6245436641179041 0.5082425260502783 0.5856306563585414 -0.671512276064046 -0.39466834074227 0.8692020581988991 0.33570727025421654 -0.9704135074188873 0.16135447363694033 0.9085108491722309 -0.7250297629912952 0.01153259156775066 -0.4531864579529541 -0.14722381753956193 0.9714458729486737 -0.18626033567784273 -0.5878524615201173 -0.6228540937355043 0.7224281555430059 0.7271972167206218 0.15056953735993583 0.6419785039659183 0.6810468479635516 0.3273203424507509 0.7607980951791684 -0.19433773854971204 0.32085020253538077 -0.6548456241254808 -0.5892538006579964 -0.5389289317713131 0.19238168602190986 -0.35617266755164434 0.9776405573032607 -0.6758776844263632 0.5797855705620936 0.28459221031455284 -0.11665142020212382 0.8551737608480567 -0.8025335975160381 -0.22031733333052106 -0.15871145946149556 -0.4165433544688282 -0.6143155709115851 -0.2711050130982742 0.4142981909964347 0.012081707180727097 -0.3022006273396567 0.12894546959565734 -0.1667844166229122 0.8695237454955276 -0.970818087526981 0.8517949907259654 0.8201802928660222 0.9596565143731923 0.8099086546927028 0.3659101778774636 0.3473526764801296 0.18532549430252976 0.5045034861786692 -0.6452582651672392 0.8988701424895471 -0.24559828731569278 -0.08758117070826121 -0.5582037488873328 0.8934785866175081 -0.7402742157366098 -0.3191776858304636 -0.6994396342678737 0.9135917492381178 0.584777310905489 -0.6223115623623032 -0.102887661264776 -0.45610438825752575 0.1941201438446556 -0.19121398253349553 -0.3009473257438131 -0.30437196890978013 0.011567211704440528 0.9773135591982445 -0.3288598919499657 0.28955811216631533 -0.3162544346120677 -0.2974792368100745 -0.6932939099688948 0.8873807891978236 0.89323677466502 -0.5763636427354903 0.8587540087306751 0.2838253524994234 0.05540856505262348 -0.018253900059948425 -0.9977519932295766 0.19097734728939297 -0.6961114119654319 0.9488462386756065 -0.05031071782098584 0.09518077641353906 0.8010180909055991 0.17461847675020992 0.21816296800177493 0.2769263400546409 -0.964837775807964 -0.037794489435331036 0.572818110991663 0.5548820491551474 -0.6495680178017817 -0.90716230294334 -0.8543612577413626 -0.3233409209095619 0.8385778392278882 -0.11792528303369698 -0.9858356226114491 0.7173765851938121 -0.012354804607764391 0.953864425927665 0.7816483487077464 0.5994161012946433 0.74917716248319 -0.15485905658918986 0.018563488827930463 -0.17247121475061955 0.38089727706186527 0.20904531805673177 -0.11089767166862408 0.28455826141334195 -0.22603451145078868 0.5826521425514353 0.5184895566095162 -0.6348348546495295 -0.6862493278991808 0.10691577223877857 0.14334299241520165 -0.6110152590460078 -0.06913403109631289
0.6251012138178818 0.919332625045211 -0.45176052264286914 0.06512614203088907 -0.3761830510974342 0.37628514684718173 -0.27002286773829764 0.2267225169130791 -0.9957521714992157 0.5384247600412346 0.6154896516800707 0.08827990581371004 -0.9054257361774198 0.8403707026495306 -0.5642052947888463 0.9893902984108496 0.020798596846915096 0.059267922638062354 0.7199466890573993 0.700046431720809 0.7829948752678209 -0.5451934212305134 -0.589303524624436 0.16959525157968436 0.036793617236115406 0.7208787389588607 0.595964051661336 -0.31981033664136316 -0.8090760604502605 -0.2532432966627376 0.9468428495119694 0.47451264964481443 -0.873924901498548 0.1335510997460121 0.6673948862842531 0.9791377921944746 -0.7186060087998509 -0.03341266555990896 -0.9134080906067803 0.005984030198959989 0.08847537429774688 0.05837810030390567 0.3407686499565723 -0.9974981455849752 -0.6999105801388545 -0.2847683437569781 -0.8967584290452426 0.4895474322844722 0.8337502623653879 -0.9192345671054798 0.7868949962785285 -0.6402671323071376 -0.33279044412238123 -0.20312561920446082 -0.509280996312429 0.8020478466789969 -0.56479931233883 -0.24141932083566564 0.2380250069813925 0.49934882693016047 0.3198237023320505 0.7818680988418703 0.1790810552512423 -0.38901281414662847 0.09522861725904375 -0.27830464584750714 0.05697305874465908 -0.41762709683383625 -0.29030230482302355 0.017557841247017647 -0.2012095845960662 0.13299087890097772 -0.7900640596654991 0.5244694684304427 -0.8046950229679222 -0.15351103623904683 -0.8648300046189781 -0.5676914187073776 -0.20304902869533814 -0.9821296259095134 -0.19320154775987786 -0.5322741719404125 0.3978347530865154 -0.3104958079988036 0.5130864398141437 0.9112278955249502 0.6107942775897632 0.8552368065670082 0.30613851010086024 0.3674557271165457 -0.021856917885050953 0.002316475121564965 0.9550964622508522 0.1895517373145834 -0.6659698487027137 0.27491621250549536 -0.8025165006941672 -0.4217633631160096 0.804578289078905 0.08326087404022231 0.9061263878242847 0.5323875765828336 -0.17404128333641222 -0.11260092406931155 0.017650576163198872 0.734502540238112 -0.974563812474702 -0.06792743658017586 -0.682305882670108 -0.765157126838302 -0.30453136224783073 0.4028070505659871 0.5177687749253932 0.07445325225272637 -0.3024584289066534 0.9999426219837189 0.6419258282300881 -0.3399601036272315 0.3601753787076256 -0.571100348965601 -0.916915893376282 -0.4408862014016861 -0.5186441051900343 0.7805396791700001 -0.3463683103881656 0.5128541230296499 -0.26539790577997624 -0.08611527313194944 -0.08472468820026324 0.46298279686086286 -0.9078975934179088 0.3610314419952487 0.564213336325939 -0.5101986625396588 0.6371044036445599 -0.5569668323870707 0.174765606975259 0.8833792787763246 -0.6296115980447754 -0.7547822192245617 0.13263906984600338 0.9794701601638969 0.7254944960357279 -0.5685255834437755 -0.46285334793540356 -0.082648560582121 -0.3371662750663085 0.3874046226575425 -0.1705524643008951 -0.5531951363868219 0.37672144495979265 0.17168253881709528 -0.8246650104151498 -0.11752841442605733 -0.012435092922953528 0.7280415302868657 -0.7945604413046667 -0.6345171553377453 0.25841466150895775 0.07106933147178407 -0.5925927215297859 -0.6231237335105719 -0.7146073741926293 0.7288632958203876 -0.67174957663073 0.7311207250764258 0.6672596681778538 0.24509885062287817 0.307716671849138 -0.932580246939247 0.4445729606192925 0.7184391899019751 -0.7370019726585899 0.625130965909348 0.9490913535045564 0.08744176475431464 0.9772708219784161 0.3300891324385782 -0.38715165581988065 -0.5859338894972737 -0.6600753253210756 0.12198682904920388 -0.5970140914581132 -0.5477866614044329 -0.24936928699978367 0.28402945367889765 -0.7886169207031233 -0.36800151927025526 0.7374036224509939 0.531279547492715 0.0648951291156803 0.03577906061102332 -0.3261101457615716 0.9451394773780184 -0.34844777401832183 -0.9338092474769943 0.2601531640779595 -0.5917061976397155 -0.2563021802418439 0.7521072855534032 -0.3836962634448666 -0.9249733025026923 -0.40905201589947215 0.5634377148788032 0.9314591985709235 -0.9122774481124327 -0.5339161277295263 -0.6521325989266646 -0.14071076805284832 0.6497733144827875 0.6079472792353926 -0.7503659835849963 0.863773739878746 0.28190255355090077 -0.40882723397077503 -0.2057925945617456 -0.8613748857319967 -0.7048721611309459 -0.8873163651240092 0.6994213360587704 0.3132361480067387 -0.17647068203840544 0.2846861120841646 0.11905362606622316 -0.9891234893940735
-0.9022725942837742 -0.7653073535116632 0.7608782279575448 0.6262740657753625 0.23643114684142796 0.4661251072532524 -0.7853155532650191 -0.8729274624840804 -0.4250073761184867 -0.5516361272042927 -0.6370929728956305 -0.5775392788468106 0.9955972417543859 0.3067836315703707 -0.7483726721678516 -0.26574706720094765 0.8070944353489926 0.46875331415707766 0.19204396937868218 -0.1273636024209448 0.6959014846881291 -0.786180135215905 0.3394022605639935 0.700115074373487 0.43088288851653345 -0.20923787764916102 -0.3309902278303285 0.03245551814694059 -0.15243900597686322 0.2641543195072802 0.37445544896424576 0.3005430186281781 -0.40566062299996 -0.3041300520243768 -0.14887610441976729 0.05125875189481888 0.6512573274664939 -0.043634238545858794 0.46540564309915755 0.7541546046155005 -0.35340111981319544 0.9067415236983076 -0.809010224562293 0.926702964126848 -0.44875478610126573 0.5348313905373103 0.9660482031784026 -0.15029108873313257 0.9879120777204327 -0.4305074334340606 0.6725287676094291 -0.009819623617586482 0.3644931319081004 0.31998622471719473 -0.45917119696333963 -0.14789923253657267 0.5217716151470095 0.37262011108961923 -0.04024684909600307 0.23074145842338623 -0.19102730121207312 -0.2462389473784916 0.7519870714444801 -0.9745965049648493 -0.9186845284560545 0.12629748578418143 0.9515921694960081 0.17123122323726947 0.40979339940800696 0.2711199081754927 0.24598032799184177 0.1457846187440086 0.7706619091681095 0.942143263966551 0.6956900827056491 0.7952493084438412 0.19450221779264298 -0.9563443042307502 -0.9327198591396124 0.3690287625363349 -0.17466495807052196 0.6917770818007025 0.640387233075659 0.19283473953972297 -0.7543201200825171 -0.5476884466350949 -0.7236207455931278 0.07023921109124909 0.8803708042660638 0.8997523657215334 -0.43120472191035386 0.2727528295160293 0.015539843687145671 0.22986683403187236 -0.7382951246173375 -0.985590021186266 -0.3492820911849708 -0.053048662132338276 -0.05141074799072065 0.8449061756299912 -0.8001795599912691 0.2684631850082333 -0.35841087271113437 0.06905248725153124 -0.6892913871987074 -0.6008214380654855 0.7150762563946786 -0.9376694792899902 0.551179787670393 0.8707326043191768 -0.5520426951957935 -0.5648742555350061 -0.1977540367075581 -0.19622436839698643 0.6914122225367425 -0.9017833647693521 -0.7566720930335322 -0.814008308044694 0.19634462776828898 0.511255314856405 0.5861540246077654 0.27931769214922264 0.8082854378129134 -0.5484306510859114 -0.5226539037828919 0.677725379369331 0.8204041056050009 -0.07755611858994049 -0.41415953853560006 0.9562896572380113 0.9122496104355033 0.54500838210248 0.176051920666646 0.04264766835398803 0.8956039714209056 0.39817990170097683 -0.16761790110491015 -0.9307983086672855 -0.7489573380412207 -0.3060406280800243 -0.5688422649619793 -0.8107661679925313 0.7130733549511952 0.7034125462102736 -0.5980193360587103 -0.8409840954934951 -0.02645057799893058 -0.3194113595904622 -0.7345320538647457 0.14839099462480365 -0.765883840167171 -0.3658327079249202 0.6132826514533516 0.7730042586076269 0.6560860196861487 0.09788540508869503 -0.806169671187329 0.06700741404531119 0.45979366158689094 0.6365306936087114 -0.9363313722573323 -0.9831034750869454 -0.7486926871191115 0.3133301420683625 0.493548744199676 -0.4750523701079117 0.3629452291679247 0.5946235751357691 0.8537062637324044 0.07494991229180625 -0.08244023144102886 0.28384656301553934 0.9778822180645079 0.9309062554780161 0.29465058791105214 0.9558066140491557 0.24841186177422814 -0.7328183395889702 -0.5373803620187643 0.5774202722327826 0.2798935904170796 -0.04085014942347409 -0.022208106580317688 -0.31731806223242054 -0.41506582776107703 -0.22421024300596093 -0.5373150334945149 0.3031594631566761 0.30268123896885224 0.8469536810197014 0.4603666605333381 -0.585491842355107 -0.5859375525097312 0.8710987999325814 0.8650206426423948 0.7969582692994803 -0.18641478592464766 0.9185368951495643 0.5666564732748689 -0.7957471116638355 -0.6423497744413393 0.595475688985819 0.9298506497114798 0.22731517830613068 -0.4574521405000227 -0.9566067370928892 -0.9061354106843555 0.6835943394698292 0.1593329938876844 0.7713704813723645 -0.17987871584512516 -0.42536351707850306 -0.21419914147789942 -0.7462737962860333 0.9652825595846899 -0.47922739500848976 0.40037943279673716 0.11678667328496406 -0.6108208555293977 0.4704191801589377 0.8986609023598826 -0.15963866940663562 -0.28998799593931146 0.6733164944684735 -0.5710303677877959
0.22673392537701353 0.941805623039208 0.836000593550505 0.6472495798256443 -0.9851595579177712 0.6218237895228087 -0.2212216701289036 -0.5731617082664417 0.4442959163100857 -0.2287847834243084 0.27684274971456224 0.6911186077579747 -0.17000476611640636 -0.49318693827591664 -0.7336905588576073 -0.6871409150475261 -0.06938532333897429 -0.10417954436482124 0.2984370554192659 0.980121721058264 -0.7738716879538714 0.17436912485220346 -0.7529627775270715 0.4270201501612676 -0.5658305155860499 -0.8137069671828012 0.291397342466889 0.9261789347735692 -0.13033457819282246 -0.43924186890416395 0.9226340827574533 0.7185205520810767 -0.8588519967642758 -0.4541261604479181 0.4864100536339586 0.755836754897681 -0.29281763789904547 0.7491727579933523 -0.25356709031832914 0.9478416581392239 -0.4605079359865498 -0.36230016541717647 0.31969513353460766 0.875515612527765 -0.43891592162424575 0.024703388297492967 -0.5531498289420034 0.9091287482167707 0.3385528748887545 0.5966619285650787 -0.2440738486330407 -0.811195372164913 -0.7803436689280727 0.31373911290126877 -0.589425817701305 -0.8915885923716553 0.8764573458239626 0.30003853730079166 0.9035982053964229 0.09645518328092817 0.4751147636468467 0.6366816758373248 -0.9854105411303775 0.923185216980561 0.7643798110042208 -0.8148495208132231 -0.5186990985520863 0.10559848108452341 0.4646939507449026 0.021525601409071005 -0.48955194106040456 0.9751281756392365 -0.9964571568416811 0.6848849586210959 -0.45122362887452105 -0.21222124690375388 -0.6546973723028189 0.2067903575681127 0.21444925085887778 -0.7914632273804669 -0.6980943418849983 0.4777771292316857 0.948642828350879 -0.4616347729873951 -0.049493978579140174 0.8845840369912059 -0.23201184907734462 -0.5226983851228693 0.24343691449980343 0.11784529591224402 0.8656168649354783 -0.6353752999287949 0.5323149808341583 -0.5938902019710504 0.05115159251295687 -0.4422703185287049 -0.6845099470587008 0.11167893318662014 0.8724767470980426 -0.2780871019455855 0.32015759481944905 -0.7619440288920842 -0.3655972950331121 0.5865595633537117 -0.8779716323082609 0.5590562585450787 0.05437023055603274 -0.25708872080073997 0.9372909321415708 0.7409914387953107 -0.037909018824831886 -0.8476007332610902 0.655408719091118 0.9105255916567456 -0.9715495485634003 0.7264595308974038 -0.2849880371420528 0.12047596974836705 0.05456621429991282 -0.9805336470030621 -0.8931474884836665 -0.2876587469527996 0.27270709554405914 -0.5438236032952743 0.7251542549150221 -0.6109117946227278 -0.8537215059267795 -0.19433221314904858 -0.16589345160678182 -0.3574206453905773 -0.8848444545985237 0.059390336971794966 0.8175481189327043 0.8712222625716013 -0.8497631696260339 -0.9386242084247336 -0.28275452572931736 -0.17640494656140127 -0.6127448635756538 -0.13375782039671757 0.9871252332537723 0.10763435328525794 0.022035665982057084 0.06799863386266591 0.9468541152503391 0.19252433359256194 0.37680527873514547 -0.701474176209711 -0.9423938552281275 -0.8977833271509621 0.4079399456496038 -0.3755905163008393 0.1074337690314433 -0.9284836289042029 -0.03746287217511868 0.610572128829916 -0.719730680811923 -0.3997335457315423 -0.7888722869993259 0.1888647722681398 -0.3234745994955668 0.6957310892554169 0.2411721259420927 0.4206114575800246 0.3012766466203407 -0.9862717781475954 -0.4846155596604089 -0.9419624842179017 -0.7574774003271745 0.7669215087144285 -0.37596575352923334 0.6616348265434773 -0.31076199456032594 0.03384456427037463 0.20487331520410734 -0.384142863514888 0.16308138474348577 -0.4015370617542222 -0.7164840553191931 0.7779848731154548 0.3463483631430495 -0.8225521649313452 -0.23933488164455885 0.23057824832085005 -0.3148303725524626 -0.7764509815671541 -0.8764702537576285 0.48343383426100184 -0.19462290674306826 0.7460890117898629 -0.6982888480509133 0.05852901596771698 0.5931022787055242 0.3785679917038378 -0.8890769888316103 -0.32772840658838764 0.43109126078785076 0.5030833854562162 0.6995024536807664 -0.8062280545752598 -0.46890156827616347 -0.06488416285598331 -0.636275572532804 0.6772690917253461 0.3114301366742396 0.3434141451124362 0.45903164072685154 0.31990366104978496 0.2979034411493091 -0.7724047396905864 0.37220973298340665 0.1738135088137518 0.6749663927318501 -0.01931012915589303 0.8758552232847141 -0.020734201560889787 0.3834319601897709 -0.3915122786441292 -0.09107568409492783 0.33451355990779885 -0.08585969956243789 0.2790338805554009 -0.23692285604713126 0.026113687959089305 -0.049924835485884334
-0.8668409292210879 -0.27700490904859487 -0.8977023572797256 -0.6289565606627165 -0.9918866560226447 -0.6591806692929767 -0.7944051579299942 0.6056013071930044 0.02326221685044194 0.8863244405414792 -0.38492557816548123 0.9455172217864412 0.3602633289110584 0.42716772348497223 0.9735424710474485 0.5959365860500139 -0.7606066581837623 0.5133796374204234 0.7321212786595481 -0.9713509075171627 -0.8225391772724739 0.9838944726710281 0.4694524520564587 0.05394959572195113 0.8920368219813781 -0.9029285558159346 -0.5248542898458417 0.037647759489489285 -0.13933072649771128 0.687906468242371 0.36136698434151215 -0.10437468167370945 0.5765456312066763 -0.036956587669982444 0.6678970891858194 -0.286516217621795 0.23418753211417465 -0.44682872751595304 0.6239284917453518 -0.9475866470779439 0.8199646632133024 -0.4723500134733025 0.7714354932238117 -0.43045379839752695 -0.21016100448853403 -0.2577215506834363 -0.23823957354457437 -0.16248039252378765 -0.1443767206022324 0.05828383315885066 -0.4857326669865345 0.6342982783132192 -0.22252252909148562 0.15683498575181698 0.5244614927575006 0.38131059028966674 0.46117774484056473 0.9904894870324354 0.7620402586278321 0.9353942098669514 0.894839722036473 0.46048872547241704 -0.6245604483350662 -0.9566671292683946 0.814889457719034 -0.9986991925547033 0.3799633501578852 -0.1339772647375106 0.9239441315511703 -0.5639587766726442 0.12784857958075535 0.8721990743029155 -0.09715013516991133 -0.8079690844540339 -0.7345032766151283 -0.06460602841807894 -0.9530725773178563 -0.4644326364973359 0.3179565618232023 -0.994432332740157 -0.767810371281749 -0.9844295129972556 -0.5179541780468031 0.5175958610187024 0.28974244270766336 -0.3713039030581793 0.2027887299614577 0.9863926703162416 0.8573775095882645 -0.595849662470769 0.9088120157720201 -0.3692240919056682 0.9563833445857477 -0.6939495678533534 -0.3434985128226298 0.5838273394210911 -0.125729018874136 0.10082056080385504 0.8316607392728093 -0.891337898234229 0.5556504358241585 -0.6209535411976377 -0.5085843149072773 0.3698801613808116 -0.7416458759466318 0.7817424746383701 0.2554460749475649 0.9568798284005688 -0.931676969993237 0.7819984457324296 -0.3012105392051989 -0.6226383464460614 0.2805991150274245 -0.6428972383932123 0.6052555514939288 0.9634968764824074 -0.9244369672343886 0.18193770006738563 -0.8057504531330282 0.8994064102885944 0.7940875384659196 -0.04653835921449789 0.48309628498308643 -0.005625043825126186 -0.9060765872006722 -0.9202051065075079 0.21082939850308424 0.1803674226347709 -0.7300659895838915 -0.17691681341655152 0.5855834261960744 0.2178999042230867 -0.35289422662258696 -0.4346618699117504 0.3825330478786988 0.513365766215528 0.8457119142856615 -0.6640452356501092 -0.4051165885524821 -0.047719826053034264 -0.3175096111356783 0.4413954864828207 0.6699604039600093 -0.9187271920790696 0.499843902977964 -0.23569741750569917 -0.5385521179156483 -0.4726153554452168 -0.6924508374549678 0.11077653793129905 -0.9541867967345392 -0.5766738749189271 0.9231232190114587 0.44460532541775133 0.9840166261776502 -0.5481851433429361 -0.48386594740737476 0.23875565605646631 -0.6298821342756304 0.37193132897336345 -0.9908775734711419 -0.3050063787367816 -0.2443064990486825 0.5229300241494483 0.63418383847396 -0.23203129236009823 -0.27336802129228865 0.4705538795856896 0.7303901580933936 0.19161959331611622 -0.8070116609379674 0.4998528702834937 0.6230996595741021 -0.7493947341259317 -0.8861695306480606 -0.23814532948050782 0.227322257317204 0.028603330531412174 0.2163911178606801 0.5146864503203028 -0.7844119191075956 -0.7506581169252302 0.3274629390833155 0.10039064286222588 -0.1950706156590709 0.33974856252298946 -0.2666837256899246 -0.22079230758919133 -0.14730819848236743 -0.8501370910541204 -0.748630792684863 -0.5500529140144084 0.130042821601156 0.9581904401271704 -0.7645886717134867 -0.45864145488903274 -0.9841163933575394 -0.006516924947628899 -0.02893359213431168 0.3106420454559271 -0.6296061764434064 -0.4598946129713901 -0.9035809323706037 -0.21244347418342957 -0.3209587122621087 0.3915962893041356 -0.1853712257578004 -0.2733466021614579 -0.7132028983734839 -0.00139214893309636 0.575286007040595 -0.12499152028141158 -0.34631628382039525 0.3653306561246321 -0.5951938495767799 -0.11628964398263708 -0.5080275325157875 -0.214690922052166 -0.6057453501879477 -0.6022496792686134 0.13987298995696618 -0.05240339819472428 0.8029249297211847 -0.1493294954163671 -0.7089995244989946
0.8661194957670344 -0.21907478301706051 -0.6122319946312313 0.5807456247648264 0.5838517129035239 0.15974158903671754 -0.28608581470801075 0.9647567968058097 -0.801605462964551 0.8028133334008007 0.9979415125123403 -0.40129921779715305 0.9863054570093153 -0.18716490113213102 -0.9983579504423847 -0.9219974952362984 0.08331605873039027 0.3475688280283633 0.049684407074062964 0.19469313006236133 -0.5883080670557919 -0.702307429299597 0.8645440040473424 -0.1618944645677418 -0.13121811436196817 -0.9478754252630381 0.2449858684339794 0.0049029364503729855 0.30266834893268757 0.41963891021420663 -0.876892121550501 -0.33235847572808375 0.5415666511674293 -0.5155768731654651 0.6680445468256351 0.04882267105010629 -0.1390085440063049 0.6493919742122094 0.012986108964127885 0.7188429871935011 0.8454185824565847 -0.8410219168333515 0.023410837617028113 0.5128777564214211 -0.5706058252328936 0.5618511689170567 -0.8028808431430348 0.35928857322642815 0.15949436302727338 -0.4883403855436852 -0.48632919121470186 0.08722398706418266 -0.4871881672185048 0.6014537397337358 0.015881258404975895 0.6079089562175235 -0.6291968300737389 0.30828438535807456 -0.3760516303266188 -0.8504719104781007 -0.18526322451712862 0.443030377567168 0.11979047846687907 0.6407428378709474 -0.6341489556511681 -0.7570034380869468 0.5058572630027458 0.618845706797853 -0.8870049325430127 -0.11347518666947165 0.12322732886546994 -0.5451053324524764 0.17515287173505723 -0.643357963272803 -0.901752567050911 -0.8731763225434965 -0.178576332370743 0.8996633839104393 -0.5230021181462645 0.12499703126358686 0.2660292651528746 -0.31685032297194016 0.36930135250081375 -0.7097441090220156 0.6278563757941393 -0.6015217796965537 -0.678942165497338 -0.026248792426679657 -0.9866024906342428 0.42070547752312026 -0.44524146103526485 -0.15293403782453519 0.9947957816758641 0.04079672894367703 0.4694468747589846 0.8463361565951693 0.7451221659989851 0.7930256039058496 -0.21120605050883579 -0.8777357735644662 0.3163337225344256 0.8699615009016493 0.8902555859865138 0.2312343997554478 0.4257613412136252 0.6942087551461495 0.20487742279434884 0.5860151730747594 -0.42758039706304274 -0.7983153159763474 0.47986111721259084 0.8819005454254139 -0.35852809490471804 -0.5769308409630027 0.7876666873983897 -0.8059040898034757 0.7646187557934934 -0.8687176483906911 0.915383096688366 -0.27131339708018865 -0.46107630755581086 0.5117960555700853 0.6687543519391446 -0.8089166162787647 -0.06909125105350578 0.8027428360383457 0.5420412983097842 0.634136630303114 -0.35849830837592345 0.2971954626188935 0.0017257907810970252 0.43935062631359667 -0.4568078478261006 0.5227026228387344 0.7058015383523064 -0.09898885487585396 -0.6827500269507123 -0.34717001740005315 0.45201231570656253 -0.27561214835349324 -0.22846050473090007 -0.36285951490638046 -0.30399651840437136 -0.7432363920523504 -0.3324343231161804 0.1968747041008725 -0.8172266807355164 0.384520348239743 0.012642973755981668 -0.8910449581818558 -0.3289547886673445 -0.09984016074130952 -0.2573726669360845 0.9026602996776543 0.21180263852708636 0.680428729891599 -0.5352573813501931 0.6765346076572365 -0.1643355610089403 0.9038381284622454 -0.5090164160497732 0.08796546434633523 -0.09507001935916648 -0.6228979222589288 0.8170095026524151 0.6290114673351872 0.9787003950095241 0.33919063562838825 0.9359352979922257 -0.41679978138451723 -0.1661169717361186 -0.8866256336085423 0.9186069957149194 0.7990142454274127 -0.24864937615815386 0.947857784200131 -0.7728374006873713 0.6228744251114264 0.584901196990552 0.0525744856207937 -0.5417194965383743 0.9994386761540606 -0.23376771788225637 0.433064725281304 -0.6288735185281291 -0.626490185340538 -0.6459908865443904 -0.5783149363730409 -0.3003404228264819 0.4383511413964907 0.9686701179031134 -0.9087985723266248 0.9738492491908151 0.9794348652724154 -0.5982378220063445 0.19948825982176954 0.9762562388230138 -0.17046328780635678 -0.1378877809875947 0.4540080473753618 -0.4291611032866458 -0.4111036152325105 -0.8876144187841843 0.84316223717926 -0.4409596685863184 0.4684374607586639 0.36514894310684753 -0.5952902017143504 0.1990103809324384 -0.2538524390286181 -0.3409381933689357 -0.3763971065642209 -0.3554184293634164 0.20874638203083085 0.5845825365411963 0.21929264366655343 0.9338983286528812 -0.8576182415082163 0.7697921996680652 0.5123503700755159 0.05199698566382471 -0.4591113930398576 0.3496049910388843 0.02966693682953858 -0.6119802080603767
0.0038013495205446723 0.24601012336386363 0.11849777597969058 0.21141635677360937 -0.9042421520020609 0.45353621414803436 0.9895090059481217 -0.8401961735063477 0.10797893208142662 -0.6902852091474367 -0.8164222327977664 -0.2129643776243233 -0.13856836784691984 -0.6626897103159302 0.7393038001054066 -0.8313396047950221 0.5540815832279467 -0.7499873205174272 -0.4415990191446928 0.7733669660693239 0.6355291496225759 0.6619228291587005 -0.5602329190730901 0.8860278080160233 0.7252884624290898 -0.788772427894165 0.44133100532010605 0.0864316497349924 0.8674117485854911 0.03594292687262057 -0.22998178691581672 -0.4682146527129214 0.21383215327312644 -0.46951869793867473 0.45490299556886016 0.019910287503934088 -0.6089269839072444 -0.14211759102054655 0.3973354720980138 0.6740199055741716 -0.4231152946254044 0.7504603005113308 -0.8919281433146851 -0.553558223071704 0.6691229820922773 -0.24871622551146122 0.831553534616013 0.017648248707715197 -0.8885782446546984 0.898866329401494 0.9674631054086638 -0.6945630352274592 -0.18795764248108093 0.1285002033858198 -0.7156473028513555 -0.014900530112590404 0.22187518245808513 0.25658630680271743 0.8235139445917115 -0.40212187232991137 0.5234878221247392 0.8350537053169897 0.06935814889697012 0.3897895338636972 -0.9959003636337442 0.1720880672969558 -0.5442602166886561 -0.3799528608120264 0.7605971961393438 -0.779301205178889 -0.7052054118871576 0.02344179409447089 -0.37240101239657064 -0.9678395941250741 -0.29104247799850813 -0.02249951769346925 0.8755391868761289 -0.7645469583833231 -0.06861182567573487 0.3017926996979925 0.2863989838724761 0.4523366543186953 0.5336306364844212 -0.7828936013932681 0.5705935620040974 -0.9386766149743471 0.30018274625640284 0.18726129970421668 -0.35585979784662514 -0.5525195989260676 0.7623485456549806 -0.4483103497660641 -0.9148496482688397 -0.23460803329280666 0.4295551496303478 -0.35511369842300833 0.33852773796406854 0.7128368603745077 -0.9868223590130076 -0.2763735537793839 0.07052006670649758 0.03957046086389027 0.11241511726030695 0.7592617559878612 -0.834948904461497 0.17303442550172532 -0.2954521035096116 -0.2656521276065489 0.00031828864006366864 -0.021369183520952406 0.6956343610294344 0.8026054710861306 -0.7007000947283304 0.5799160100841807 0.19937658117287893 -0.11094405583097888 -0.2646091859600075 0.8882993510464274 0.5377513491055199 0.32482701314987494 0.46160071333619856 -0.8795589936293842 0.8410440535846966 0.6190903807539203 -0.1803622512491292 0.986209300540003 -0.20216911803498427 -0.5397582226351676 0.7005724963864819 -0.3729122699401515 -0.5807378898867959 -0.23199237648716453 -0.2545214070195361 -0.09624265293861956 0.031558457701084563 0.6735345384409277 -0.46196265703316497 0.23091928684283447 0.44759485545664335 -0.7331295875639039 0.6997799425890374 0.13570235900336924 -0.8455203038314383 -0.2580340224915898 0.23452538664970368 -0.8925201494148962 0.613424340496258 -0.25916347123549177 -0.019660921542891563 -0.8965482099144053 0.37474487062045125 -0.3648499492273509 0.7433014241229654 -0.3940011442182141 0.37504505844519787 -0.09396894312248993 -0.5873077473811432 -0.7888105564687837 0.586958356537677 -0.8204153957112568 0.669324127421042 -0.4606302727394975 0.7355259478951153 -0.8269283445459583 -0.2656492326582487 0.8172072467575549 -0.689518851222289 0.5555009341251991 -0.10910701856287042 -0.28626604016663904 0.5359504515423226 0.5950789199928457 0.2692723941637589 -0.4583245163399463 0.301625197008055 0.5355103165751325 0.514256093766686 0.11492192345295438 -0.21204147214590852 -0.8544817946481649 0.003947564450025309 -0.8999289395721359 -0.14063508657201762 0.43427750795271813 -0.554723368393601 0.763297571352576 -0.22330243129141714 0.9014074900339715 0.820028682345536 -0.64900869812175 -0.9041827709976225 0.9260753796966337 0.14280796976988208 0.8759185092686288 -0.7981432308779894 0.8214353436175927 0.18807054797474554 -0.5156513255932509 -0.9269051907735162 0.3832280683716469 0.4105372902129627 -0.5695489594840899 -0.9773046631643987 -0.6440061491729727 0.9390228734922945 -0.6659925120103047 -0.9533713293247157 0.42585468832133655 0.303206427530029 -0.23884166587532674 0.5004867270162519 -0.19555759326120858 -0.619249912975016 -0.4591055056994098 0.6475144878670194 0.2967424676718877 -0.0634072988520642 0.140480525253883 -0.5032962455329708 -0.26678404623707386 -0.7631987033223577 0.7532174245175065 0.0022566901824678798 -0.08236085003970373 0.6417611417498563
-0.985441694906263 -0.3919092324884885 0.909855303418811 -0.3721762587149853 -0.6868171428836658 0.04102093591649525 -0.533381913897198 -0.1430133695586464 -0.30193084026479555 0.3000348623781395 0.36944177355696617 -0.5661308702567429 0.23916730007358789 0.6765225416720178 -0.542066146261488 -0.09444851251913278 -0.4271378079906152 0.15363662297280745 -0.5884469430238961 -0.07167850076689342 -0.6557068144570821 -0.9256053703731029 0.8879596500861293 0.5606878986966672 -0.17271610935091886 -0.07599019254030348 0.9814666858852277 0.48959773656616123 -0.7621469700272312 -0.3099570788980124 -0.4421004772034516 -0.6038113614631011 0.039980857819649884 0.3391237899114474 -0.3002003877271997 0.9739124478619352 -0.8330133688542019 0.4740814471256303 0.8122250470513339 0.9305949829798705 0.8658179442149252 -0.30054957113651026 0.3736188712434041 0.8783467371808575 -0.7133012678541881 -0.4399070046732463 -0.24909630546056927 -0.30801006786931673 0.14184273475352382 0.12022118673335136 -0.07411405182595754 0.0664677330359773 0.380849886831474 -0.7677426180744658 0.16042053003976786 0.8803143559316 -0.6132116871235023 -0.756771238290457 -0.30360562741995034 0.07277235738217658 0.4775250671083875 0.7417161735746305 0.4261607820256159 0.9873025569696487 0.17841320740806754 -0.11572886412955041 0.3258120109217253 -0.3574554827926584 -0.44467771924748556 -0.7482544054809028 0.3772811294437257 -0.03312122861468758 -0.08520055543379246 -0.28737206275598726 -0.661813198853779 0.7276524651754515 -0.05923308288945228 -0.29976349100688826 -0.3539319229929023 0.7965229488201035 -0.3034979035208052 0.8444471484300937 0.7516863858466429 -0.11759986159126967 -0.014498254659518484 -0.5424616504333604 -0.43154653663267006 -0.11799192040906004 -0.8406753905963347 0.7582738843745895 -0.49121912986636196 -0.02636352204624437 0.3435149613091919 0.7321257925259117 0.8728402447426029 0.30642518510169525 0.3484763334948138 0.6623672264977944 0.5904047716505916 -0.5678485079190516 0.47768546496977815 -0.7255886593963032 -0.7108723566261765 -0.595305925078822 0.00655121235214029 0.975497840585948 -0.900339534401472 -0.8497521742413592 -0.6215489027356964 0.9114240611378159 -0.9002570521524134 -0.620138567727891 -0.7471742001623443 0.362196970788939 -0.8249135537531587 0.9040512653307358 -0.19771392324938697 0.6340875132041173 0.4434301755512611 -0.2552738715917138 -0.8283297882647813 0.9407200714817767 0.653580384060445 -0.9383814747035077 -0.7654874577793418 -0.18075877545026242 0.2955998249834433 0.7548840356618154 -0.22501178220700746 -0.17377518489555288 0.8707066026724999 -0.3761419035045852 -0.07939727168236899 0.5507059362726632 0.41483845520147145 -0.3981743669571405 -0.46788374325214543 -0.004562629065137491 -0.9938633634379526 -0.10135643715161247 0.8274998140361647 0.07651793655212535 0.5238650298427621 0.11723083109899379 -0.16898652906194966 0.062404346246551334 -0.44595492013232696 0.9568941644748215 -0.5302953440142393 -0.28428115825455835 -0.19775868096635585 -0.2103416230396049 -0.7363158786964326 -0.21008306969284885 -0.42700066456187 0.8581698111398444 -0.3312149738705774 0.6827237826870576 0.0919989614453176 -0.5700295796608663 -0.6530263156243292 -0.74504311395524 0.7111059527669803 0.7671431198771608 -0.19889093856233853 -0.9186500908991335 0.5124280596873407 -0.3177410667964522 0.049336920164086306 -0.7510541259942471 0.4148600812629786 -0.3264614431381876 0.2321929450303497 0.02270044499329149 0.8650525626888683 -0.7126122380522566 0.595193376801711 -0.6488565830221613 -0.7772115751706579 0.9251163406328011 0.8290170555672467 0.17215019484022043 -0.4244656808417191 -0.324765557102106 0.543045586090432 0.8700167576970155 -0.20222497490628077 0.032051277954265656 0.11584631690337344 0.1645466916177678 -0.6373568063393242 0.6669216234456012 -0.22087566310757833 0.8120419341489564 -0.8713804145389352 0.916023511042305 -0.4119272142919448 0.21368522658978528 -0.23234241239583397 0.060925278600348465 0.009779256728827956 0.23086992204805612 -0.6222934979903865 0.7749940758917675 0.30176119826557435 -0.7273491868812978 -0.18978884352256453 -0.2739303664115873 -0.38470894146973755 0.45337892304966765 -0.8602364635805513 -0.6329700548884851 0.198819133896329 0.590467339998624 0.26651921284856006 0.5763980689654442 0.2767997838866294 0.4618365850158792 0.8090211283290041 0.2968602554452431 0.4295844019524322 -0.23326529707607113 -0.6935617259394322 -0.4821475763041829 0.10421739990085022
-0.39056827303478925 0.35338591904563565 -0.3793986735634216 -0.4674963563951948 -0.9268034262245719 0.5700554369397017 -0.435795134803868 -0.32959945831292714 -0.4740253791784479 0.8616894622924085 0.6978059119428006 0.12511160607207206 0.8828908437385716 -0.651544921504188 -0.8198687749995972 -0.7365041089890247 0.07963603261255248 0.7878661309730308 0.8039871450905154 -0.8915610996296854 0.10922924893959385 0.7697010137809555 -0.1930888720756576 -0.7573566988878471 -0.20314440156414393 -0.1917053342532986 0.9007424240711293 -0.5719576977765564 0.8162062164658843 0.09082442837270954 -0.9619310520392839 0.32653548925345555 -0.30298082008987914 -0.8364632606880804 -0.10039541779111705 -0.9072664258402283 -0.6622376111395223 -0.7450741905165559 -0.7616244156198013 -0.16056983047440276 0.32307939299085264 -0.8178350616363981 -0.49544952314770097 -0.3541144653803734 -0.33085280129496186 -0.6386123981247993 -0.44034277719345205 -0.21098337998305605 -0.681831940969674 -0.7375543655083503 -0.11368724514649475 0.22292966376410495 -0.20613205467279627 0.5152792292071005 0.4407416829996027 -0.33665673750857317 0.8522309664230414 0.4558955404465985 0.36736925664685494 -0.44194020793714794 -0.648953854784948 -0.8195198794002727 -0.2465602020225226 0.3637803920996978 -0.24128540446000746 0.5767291317974119 -0.22643209024083855 -0.4124331232151752 -0.5886651751422158 0.6879805186009849 -0.5426409288004483 -0.37875400111421054 -0.5562438935751712 0.9124154627561483 0.6212901202453884 -0.15259048986289336 0.014464085521350478 0.979403284015016 -0.4495191258698923 -0.0151142708747245 0.5231767732361039 -0.4532641375394366 -0.6876285571678391 0.43791434556244635 -0.3887158016040353 0.9913087757204904 0.9956322494119201 0.18914896816334648 0.36302433688149716 -0.059659185960519334 -0.4123741721806493 -0.8173884926372126 0.8510573791443601 0.38476402930851106 0.688194627726983 -0.025928835868727518 -0.34373314043265624 0.960973067223059 -0.11217133755006747 -0.22383025146737223 0.797858646214872 0.4734593697996561 0.2587077554404782 -0.610505977123214 -0.25671364884352466 -0.7960163756783964 0.5502676490477063 -0.9062339751528956 -0.47232687730604783 0.5998291488603156 0.31099255910464074 -0.516140699520613 0.5917779870634758 -0.30075008329404995 -0.5121144711364287 0.24903281915957365 -0.5339258897027426 0.23055244286619914 0.1216204332053259 0.3639757658993692 -0.13403956394539884 -0.4768608718928926 0.8890806980371118 0.02368222986043933 -0.6249766732005839 0.38774539311361766 -0.10186518185705573 -0.49591816057064486 0.3501541938323802 -0.7446207841445243 0.7572961749791254 0.21573446891806625 -0.2534508379825229 -0.8594340812584458 -0.47916328221574944 -0.479031876790736 0.3759274334131615 -0.5777162623369865 -0.12190325131150614 -0.6287007677066541 0.7701994743465808 0.7226779548203262 0.9869899038784165 0.7268891094036256 -0.6268976031547491 -0.768643153126652 -0.8091345948536008 -0.40923692366868436 0.41935193583812413 -0.6128060125280594 0.819316372647386 0.6403416914414175 -0.41117362947576575 0.4258994152967732 -0.08718241777594349 0.11716283520677462 0.2842389371408731 0.3446105862801232 -0.832376901572373 0.9384140578216362 0.39308927793025905 0.3173734732275513 -0.2583511089127837 -0.748891160720567 0.357292075589525 0.6402374229137493 -0.7197491021200995 0.9397030367608219 0.7201619958634382 0.04292633729688622 -0.13407407427542606 0.6670631893441563 -0.2933962698378534 0.09386463142958945 -0.9317394894229163 0.02750095921186424 0.9771625678499798 0.9672855538767615 0.5964682961526595 0.8654621810901084 -0.7831486809074042 -0.647565140195729 0.026217112445968693 0.2291948248566027 -0.320930572110925 -0.055320328759151716 -0.638493312557076 0.2203707840857967 0.8253464973169544 0.28666097804666113 0.20143202507342362 0.33450288551898666 0.38810925814183106 0.311476748034043 0.1308081045361491 0.8086844410892988 0.01968891736059719 -0.28368437399058943 -0.990399894429987 0.9707553920588181 0.20579440832408857 -0.085285937950633 -0.2320419549674393 0.4614796078087857 0.37129019199562685 -0.8460842719636907 0.417082912236717 0.8333302700869498 0.22097353332095504 0.06502126838152322 0.15336260167157212 -0.10031833725507999 -0.27353461568745074 -0.0039889040062977 -0.6600479379249276 0.7714900077411522 0.7725470621271899 0.3265632866133219 0.3894881587737171 -0.3370662895846519 0.022792053109937038 0.2789415995326858 0.6868383880636764 0.6844121132881504 0.35935284834614345
-0.34966442970632605 -0.17095260603158668 -0.46542648419643307 -0.4364100748472701 0.4332395982076376 -0.7395280538385576 -0.8924870832225067 -0.9096547316566896 0.5030062481325241 -0.7919260869155125 -0.0979961502173492 0.9258953158992429 -0.31622899657723225 -0.6516205439728571 0.9362703769168326 -0.7235857821615772 0.9819156727653762 -0.6944014544122228 0.08414881387653117 -0.06587997811133794 -0.25818705565264044 0.9844316844470253 -0.6732088681936976 -0.2432222610721959 0.9776086390869352 0.617225654274024 -0.17608242539615726 0.39000824794263256 -0.2693901415787767 -0.09869268510977935 0.5375200744203608 -0.02806710495567022 0.8837464550440222 0.6756954400866311 0.9174907375572596 0.6150717526930785 0.268747795246272 0.15803687019665302 0.7517502857369438 0.3872047617635115 0.7386367895980692 0.8005474552300753 -0.6676507392187636 0.16781422694339798 -0.5609157937033344 0.7215209152384723 -0.8890400381674795 -0.6904793810657839 0.7138386402442984 -0.15613333976496713 0.6377410267995705 0.8590900911995338 -0.5979932398113055 0.14234426653950294 -0.1568069200773512 -0.30559275390283536 -0.9933388864398813 -0.18775701234555298 -0.4033757273459604 -0.8702079757656753 -0.37174210819745324 -0.8890551300637359 0.19933091489527888 -0.7430312892977875 0.484629179181032 0.7471977193726029 0.3808128414807441 -0.03766397055462112 -0.9515796618577244 0.14066707845776616 -0.7434906150459091 0.1985156338875671 0.3890221868385708 0.54309105473397 -0.8163270779237937 -0.10858338550129898 -0.42459625844885096 0.2611577456599157 -0.6932438006987849 -0.9010101526841812 -0.06747419231760032 0.21515051198098 -0.9078958111364588 -0.015176418452475637 -0.5302638768130927 0.0074219268890372 0.039986450435128384 0.24800967837349108 0.721220342995258 0.2589469218235816 -0.9231008130959037 -0.5013160004174382 0.30017257803318564 -0.8243487866731602 0.45263129164762295 -0.7928315512909565 -0.8235910139855571 -0.6637193370478927 -0.3408913058618295 -0.9925926687760487 0.8770074149029143 0.46042297622052897 -0.844977190857398 -0.8234012983705439 -0.7854035443129082 -0.585443752586186 0.47686598999344554 -0.2361501158703012 -0.3838847217112433 -0.728957727968679 -0.12269898248681343 0.6630699950192298 0.8466353646559153 0.7646922760302275 -0.5860764030616739 0.7538913569707797 -0.5590835073355966 -0.037780354339822075 -0.40387416336848503 -0.6036458138291199 0.8026318717396843 0.28725347238574206 -0.7821892717102144 -0.9776837852796936 -0.06834400234897164 0.09863124184747152 0.5595261814759869 -0.4422043350160263 0.8691549266489047 -0.5541654942129308 0.44174020128177016 -0.7458722855308373 0.8665681273422128 -0.9936168024986025 0.30879119041139225 0.6836222682363526 0.05269102046451857 0.7879312291320713 0.37237674491955364 -0.2978490071468112 -0.7489968890576246 0.9871988380200167 0.6366418493334691 -0.2793961524573263 -0.3647699480038127 0.9359556681642147 -0.7122555948495144 0.5447010281561706 -0.1228920706700325 -0.3574428777315868 -0.1112497602389515 0.8634308824520585 -0.8224480008912567 -0.7737386526321104 0.1781521631590941 -0.683212430982773 -0.48789417642633137 -0.7714791058273185 0.8967057926052904 0.8056108318992743 0.28718081506355464 -0.021946553035938843 0.07345904525899849 -0.24911719791959808 -0.6024000596007144 -0.25530890340492984 -0.6538169275266315 0.5191650472231268 0.6285438237355996 -0.8791857632159241 -0.4964352997730741 0.6043267140998805 -0.03616473415649568 -0.8463983240480588 -0.4733498143807906 0.2457078773390462 -0.8278616793584057 -0.6137585308376723 0.10710023168535332 -0.8636122846565626 -0.904814555036255 0.4560827861400094 0.005364670621709644 -0.7198208414370617 -0.27488927786176065 -0.017862275764429114 0.6817719032244645 -0.7571664292887466 -0.20304741044038832 -0.6168037836413092 -0.48460372959737597 0.3183362130678158 0.14689799755321764 0.8283423721116243 0.3057095122882374 -0.8329699960978625 0.18751952599759347 0.7099756356121985 0.7907644191838741 0.26025824547589904 -0.9300681825286872 -0.49937444091632366 0.2370425414459414 0.8756997089751164 0.7887301128900568 -0.6379319413744644 -0.4044613501928005 0.25540155843003487 0.6038948368365009 0.6334355042255386 0.5721047383431701 0.9563659801200775 0.6845509317526444 -0.541782425376867 -0.26305571852488696 0.9805146353630452 0.8831504713608673 -0.32728809406995607 -0.6710669668343086 0.4076121282084386 -0.09028323140209071 -0.21875184537818315 0.3290117928761547 0.35019134629972015 0.7270970115876956
0.19108569589702018 -0.1913187724169092 -0.8731739781011147 0.8101615669319573 0.26162887400632995 -0.49127488471500347 -0.3666348220010034 -0.3692839461986641 -0.826710639743623 0.08295823517645973 -0.7693741524592315 -0.7756108230640377 0.37240541959353624 0.27137063226085334 0.5415183242883796 0.268621953228825 0.29153600205696106 0.020443274412800694 -0.8437361517505695 0.3745498832790144 -0.5196580321560853 -0.5882141946313479 0.9283954091588174 -0.05908678551148561 -0.15505884527918834 -0.25677385522410234 0.8702566454677831 -0.421107429320595 0.24384292234092952 -0.6864227990165743 -0.053005525600084535 0.5257244612023892 0.3723080430567949 -0.4637175864772416 0.12114287435658966 -0.9519755582304474 -0.20327382968308716 -0.8497829467539058 0.16413677668766424 0.953049080351738 -0.7322113445388598 -0.5061455761795568 0.19798211120924902 -0.5639876620072619 -0.5557749626580926 0.05156514067335616 -0.8729030769510566 -0.4474910199136619 0.746268089700689 -0.7069503116639899 0.7769420697611438 0.5649605439553891 0.2716630398898152 -0.3692297347451645 0.25581012948761184 0.06239428636751154 -0.3761593165106354 0.46545588670012195 -0.8833840099120542 0.3829700319621434 -0.1753514817931836 0.8163050094191575 -0.23113099035318618 0.007674286835217092 0.2501033918310771 -0.9725071944760071 0.6367286547491311 -0.3074856327205937 0.04287476471283003 -0.00043766821936475075 -0.04851924777859873 0.1396763951089175 -0.6539010675371097 -0.7261074688035121 -0.029888744990846927 -0.14630131814961733 -0.8733691941121859 0.541319726684425 -0.00029510647311492555 -0.8708019028601708 -0.7031518691231193 -0.9874779542722045 0.44133409072715657 0.7336239995841278 -0.24755680139295566 0.9291391308078074 -0.016429903450953853 -0.5955764315402303 -0.584737696654704 0.6524815900500647 -0.7861680223360379 0.36507847290959283 0.7424807296648994 0.38307665605418895 -0.9115212702172271 0.7905235814314757 0.29615863414661003 0.832144323793919 -0.3697665433942161 0.5283563035754086 0.0692548812193372 -0.1292949176181315 -0.03438701010774192 -0.9860707713030994 0.9844766625763153 -0.15316645112299843 -0.3553133991630726 -0.08742638435191186 0.5363475647455547 -0.684546847116595 -0.8414564195911669 0.3551362614901199 0.3145260245960346 0.7768666997977467 -0.3676857788035046 -0.8709770046110861 0.5949135013856766 -0.126497048793756 -0.631928720955633 0.4246827007349958 0.41881292005317294 0.28022419323946957 -0.4869054703774911 -0.6305757936101006 -0.2178048942593367 -0.4754683306679959 -0.5283881566751849 -0.00283508119517184 0.728249396572598 -0.09639378292481204 0.41693053131155366 0.8170908364598939 0.1255289348370534 0.03997173348233263 0.08645253948636444 0.07838672571708782 0.07598674822381324 -0.5807190187816216 0.28627790438214196 -0.9936027509651375 0.7650472913487409 -0.27345543793965943 -0.8347630832269843 0.04647402694071556 -0.9253041742985819 0.21072493398544578 0.8390108727318937 0.14862631636175938 -0.6763608365748934 0.819430940532685 0.7424862889067823 0.9511310286359529 0.5912470895043413 0.48879717076345397 -0.39861442674489433 -0.13329163884651485 -0.2861893666254478 0.3747208791559109 -0.38686229309976916 0.9568155024841629 0.6543467745586031 0.5337993580718623 0.09876352801420496 0.9498815848829405 -0.6818713633332036 0.21863793329947878 0.35279587531058376 0.06969714805173854 0.7688567815814129 -0.73726657541422 0.634029323949503 0.4480072696679973 0.2652923079416507 -0.5896737278725928 -0.3333562394635623 0.9164257162769993 -0.4745674790769756 -0.4329346022955809 0.06825189329001113 -0.49826217684616547 -0.8828754583131704 -0.618485747345229 -0.2193393261652874 -0.6441276472732171 0.15655291539618754 0.490760664402206 0.7171259266102985 -0.8792113642933512 -0.3833874397924548 -0.32011974092299145 -0.7050781835083131 0.5376123337390248 0.49248314203865684 0.8657499779295572 0.05743038423179203 0.1882979361958137 0.8690798560172015 -0.6019319423553733 -0.2312072369711098 0.729045379061136 -0.47529922249582546 0.4016036647796979 0.9849161164695803 0.24129662556386422 -0.020264164877292767 -0.27331118082197836 -0.4962434216266618 -0.7347569533361304 -0.5868627285486889 -0.6318745991714898 -0.5568977951462895 0.830372083990192 0.2759540667078271 0.3687825360083157 0.7967836728820534 -0.27204819860601415 -0.7147981472267952 -0.961307938738484 -0.06566442459882516 0.6202765806911645 0.6834498497183392 -0.3449134058679626 0.05686401059033175 0.03252815830890299 0.7049465418313892
