0.9747545156190012 0.9861246161307267 0.8190867736244003 -0.9299827568632866 -0.862950310776849 -0.37080419683041455 0.3323951506607139 -0.8949744227337353 -0.9019481081948373 0.2577503974451263 0.8793193255393048 -0.9116778960619982 -0.7316360425825716 -0.43091262139803677 0.8015131660247135 0.29487727228603555 0.4171971727156092 0.1931243440633421 0.30509921913569715 -0.5530949544282455 0.7768396366479438 0.21700343517186305 -0.6154909541244857 0.7684792628214068 -0.2841248062812356 0.18890599606025882 0.6287043193780426 0.2570383088474184 -0.7686627773055379 -0.492193155915031 -0.9229190820243902 -0.38421400165148345 -0.9224544473517504 -0.7246478072855402 0.9835018213458468 -0.6590743634267766 -0.41521631477204424 -0.9385036058378484 0.07509318715386248 -0.3427677381937797 -0.6454586785564236 0.09323658752525543 0.7909410884818151 0.3532337048162426 0.8064592252152061 0.816937815759252 0.17883371233591228 0.499180283641663 -0.7620482703725726 0.8421624859422705 -0.47397922465580633 -0.44862530512526977 -0.46178903424668527 0.7623233302834953 -0.9241835859756651 -0.282703528530744 -0.6601002767805146 0.8994754530839022 0.33759277932334775 0.3064719251330863 0.23425944558911604 0.22725066255481274 0.5870748814255766 0.48819476516463434 -0.8487791945667287 0.6453366153909528 0.47003464659884875 0.8916462941561392 0.8821465902948529 -0.4827233035391034 0.18418670254259273 -0.7320516025510353 -0.784414974129999 -0.29257742475087256 0.6057425293151688 -0.7787501021940395 0.5206446399793776 0.21439100677698764 0.7736592572524166 0.6862734690720238 -0.8849197829801658 -0.6111193622272133 -0.08610351094057678 0.31477553268137837 -0.9381207695415903 -0.12430288468451667 -0.21038223711337478 0.001917952006359469 -0.7025656313981552 -0.7633576210853024 0.468534912932727 -0.13497916266663856 -0.042193762496885334 -0.18977311663847773 0.4914633330132743 -0.9814632427125292 -0.4987183698797166 0.42609951371050925 0.3940599652938197 0.5046495900858121 0.10220438149757816 -0.02682803067428008 -0.8845444985244997 0.19787018800822098 0.6593848582831328 -0.5865279090780136 -0.4770935195346473 -0.20721782341817763 -0.3361906579560787 0.6676035068092054 0.9196946020124539 0.27830253356771517 -0.4551770902703647 0.6179142956473767 -0.861928201487707 -0.5389047444407782 0.5689310182718226 -0.518487458476858 -0.16931806423122153 0.5116108489585709 -0.483703173064836 0.2203858809010255 -0.006972327229731512 0.34710597438187674 0.976524018186784 -0.47356628044622373 0.08750176069502391 0.29126126569459165 -0.8310658951971486 -0.20576920746441352 -0.31659936305633996 -0.009964646660198806 0.9743338199829472 -0.13162890982530917 0.9991809014789594 -0.9866771117786783 -0.4737067204385508 0.6793052706054059 -0.23700824607009663 -0.5797611108245484 -0.7371275647325917 -0.4948746988284778 -0.27046570938129033 -0.10263178417609997 0.63460469806639 -0.5538127894821925 -0.11164408533379522 -0.42855867092761946 -0.2693533420627472 -0.07686395778412614 -0.055466085558141476 0.6621181631487909 0.31843579414446155 -0.1761638910542358 -0.9091012646180012 0.0740833433424819 -0.4503290488525673 -0.8446081177354918 -0.9997508333654037 0.15651116753994443 0.07205120857465408 -0.6905463217591672 -0.7768314441602375 0.639046524915128 -0.06209371872745861 -0.492676354434048 -0.42414049348422034 0.2836780333493898 0.8196832697994625 -0.7585669696503994 0.21444307086690362 -0.11321305868171816 -0.41623109577452366 -0.09525972929768511 -0.21276441170166716 0.5227332258176696 -0.021964459037912665 -0.38247264861896424 0.5090587807947649 -0.26654074828132956 -0.44268051915310425 0.5932337216875827 -0.3241813219907601 -0.6437931468687645 -0.9401187927408652 0.5640843621077032 0.09932902972747515 -0.1715508301122768 -0.9608359287550783 0.5682980092591294 -0.7239887480438016 0.7568409363936051 0.7308962010716384 -0.7046850917243945 -0.7307900482919403 0.4809876347264481 -0.128279471501497 -0.9960123011511988 -0.07981951327214931 -0.36428973396894637 -0.09606525186666204 0.5531426368744301 -0.1486936468926785 0.18975647563574283 0.3317735533343118 0.0633372811351871 -0.3988565606655212 0.1591565885770434 -0.3657072833675661 0.8929431880903955 -0.939844929090814 0.16425023297078978 0.6248758676330672 0.3902887143712961 0.29990193029124135 0.6031091688313996 -0.6288749862998999 -0.48354494331530784 -0.6465739550736882 -0.17853460986127723 0.061253947469571024 -0.29296388052755806 0.7582067944979101 -0.6383001320241912 -0.8141148935667173 -0.3046575095447952
0.6772597934770628 0.09541867088432388 -0.07698831319571586 0.9536657639191812 0.06197852120392566 0.5398274504598846 -0.06534478736909266 0.14110537388736222 -0.10231358882784924 0.2744503696936307 -0.6762742484828925 -0.6193903537460053 -0.22861702541101314 -0.9322782573634842 -0.9329512312524051 -0.5560920997596868 -0.6939113160004604 0.7408989373904866 0.1709791647686132 -0.9558535028725341 -0.9113070921538191 -0.7911808523357782 -0.04840343407303971 -0.1600334054694812 0.32117208049930523 -0.8818082664576188 -0.9605827273575773 -0.5674677447134844 0.24522190043864778 0.9874826766964089 0.9796957933085519 -0.5543493762688732 -0.6693034909227065 -0.08571047816597566 -0.5674908729515362 -0.7350652634099768 -0.3693110919312177 0.48421301462322086 0.8752572657246942 -0.8114759411629366 -0.3388244630131161 0.08304330817968952 -0.5107829827651167 -0.4110843259268464 0.1630866207740107 0.910470199787943 0.7407683380352814 0.858143927226156 0.6589688741413899 0.9020064979370543 -0.8852807416622541 0.6674547484123594 0.09741303238080268 0.8726931739066996 -0.789888301261872 -0.5320757477317692 -0.9441894278867853 0.4049565556220034 -0.7772651188954203 -0.018261157888956436 -0.16785480548950193 0.16097773544724747 0.7427726297505144 0.32255805714688734 -0.7808809575894959 0.9036409641605789 0.7467956829145839 0.9270536413414405 0.37462432616378805 -0.7066885306852904 0.45486616141234215 0.9910506117186846 0.5741543342754736 -0.5198391774254332 -0.5497228050346152 0.7529661793645903 -0.2535350387452022 -0.03449700030845926 -0.0976323915655346 -0.56570581643134 0.8249263960227016 0.6304096066680149 -0.21832106749351698 -0.732436421031895 -0.19875650953295665 0.6112766426934 0.5244792908651528 0.6836024216183143 -0.10157568920405069 -0.1744660365764541 -0.8960943066821005 0.6145998510213659 -0.33572515241743717 -0.025920110380248218 -0.42151044515310465 0.8609589746258317 -0.48844317338158816 0.9474883038235642 0.04329355682328062 -0.04810098392614104 0.7375762496193419 -0.9477644049842946 -0.8423989054318892 0.6077065417981733 0.10190422497150475 0.7831119429131383 0.3955386008680182 0.4126985761898623 -0.24589104141942397 -0.8858751571462484 -0.9487062753112274 -0.14730622616814082 -0.9913392612665979 -0.7622989083234786 -0.6198933275590051 0.7368727209003247 0.5569371294999979 0.44018615747609324 0.9540620602576482 0.108310584417604 -0.6414530419497892 -0.43174482469091746 0.24030950793131733 0.8335441528493328 0.7074335409483603 0.2946159885143662 -0.16247933895106592 -0.46186640931290013 -0.9356218313690869 0.4074040626625208 0.9144003333952235 0.8672800516662049 0.25930311861744904 0.6840826259574846 -0.5732508015966178 0.3397531489287482 -0.18400297903392104 -0.8364822960111842 -0.8401462302593885 0.41513333625757776 0.5929262770882417 -0.9088356763939278 -0.3366173811580062 0.6310659363566218 0.42053378603433544 -0.4694983333254672 0.3823878176243076 0.6485056178172397 0.9332278999084902 0.57852528822698 0.9388019130671796 0.7978497340700474 -0.43713729437980464 0.5241730140060517 0.40967395268792983 -0.16137577436404893 -0.10143962265865025 0.877639113098871 0.7288720315985038 -0.429130976170762 -0.42722205607064256 -0.7964718149720673 0.2462462551127953 0.16466552049710947 0.9849993485597943 0.9284695387102508 -0.006109723519437393 0.8545950317582751 -0.38287940843716184 -0.12284390718685034 0.556638723651472 -0.5196670437302702 -0.37902278814291845 0.41715664919338247 -0.6828874063781771 -0.09756427537223145 0.727686885788378 0.020429465201509567 0.9086650865796422 -0.8337736893699446 0.7438346131727238 -0.2161023796054895 -0.7208911199782504 0.5136972073804911 0.21578909037383198 -0.950227683255207 -0.732744459173132 0.7519336908761405 -0.06006121280636245 0.14364089971665406 0.7599448196274599 0.33946907866306697 -0.5626558253722169 0.8138062254070644 0.3540778687465984 -0.12946401439187172 -0.6092909142960039 0.9483127856075106 -0.6381335582532566 -0.48216497285926163 -0.5074750846887384 -0.5057509492772989 0.6541505221685275 -0.15681031787640087 0.1362134139192468 0.1603049721180696 0.8836712840655061 0.5781009203635594 -0.5018106572931826 0.27400616061477434 0.39705060958304106 -0.5635815782566911 0.03986906175856819 -0.24012856095623492 -0.3560070334056844 -0.40462019871488164 -0.3981643081857238 -0.8125191674664674 -0.9367639100485079 0.41270532836028995 -0.013960226792082642 -0.8932525134183777 -0.05866687956043193 -0.8442755252697274 -0.5064527911704564 -0.500341898930921
-0.3286892564060302 0.624884003489566 0.9430750759573652 0.3556893744317222 -0.603542355276468 -0.6342656829881468 0.0015608866918326303 0.1866931251492232 0.11103778494077621 -0.5374190164966997 -0.22161695911829793 0.3238786204912889 0.2069841909744119 -0.9600262935257458 0.9483292823206977 0.4583220027918311 0.7245280429332828 0.2453133981944211 0.02789454645699463 -0.5077809976182857 0.4620042743843511 -0.9112335485056351 0.03382130552036666 -0.45558756552167634 -0.06636724413663098 0.3019140975631349 -0.9087429962614568 0.6455555997602149 -0.4723238076426244 0.3029821017055512 -0.502651932240898 0.5056232506320997 0.5758876559149355 -0.5108381749625106 0.8207877031908435 -0.4947527099424498 -0.18717084824902952 0.05382232929152808 0.19941329081949877 0.7715749607540909 0.5426343678036609 -0.7306275459174427 0.7308418316806398 0.2915620249570572 0.9582628993986602 -0.5957257351316048 -0.5965855121261883 -0.32424464169861467 0.17179578098681159 0.29849223926928947 0.3845296571290535 -0.7946843987302921 -0.44075095087342286 0.5101336512315384 -0.5527604897435126 0.7099864442342803 0.9501039890134015 -0.646250839455845 -0.9686151470402835 -0.9206702979527099 0.9494025477487467 -0.7489843518355632 -0.10570389281813308 0.011698253948948079 -0.6338401269755471 -0.2749924898600278 -0.3259359015548591 0.27717738811784987 0.6851685311203477 -0.055925063492915594 -0.2431523389867889 -0.9720249612670617 -0.9616761910704055 0.4225321239978368 -0.8417946937067073 -0.6390089038486744 0.43087096809378456 -0.9648669740338476 0.9824570850346939 0.9976486980569081 -0.9957682564874564 0.5438755646063353 0.34410455287163244 -0.9328595698265587 0.9135565491106712 0.3607915413498983 -0.8247256374713472 0.9640524740226635 -0.49202055281772705 -0.6790750154638054 0.35819209659718276 0.5633291672503451 -0.3346968066781424 0.10726289098197661 -0.6642289596234778 0.32001372555480545 0.5769662827768189 0.15504642280650405 0.42778506264296445 0.9479781164206216 0.8820022583403908 -0.9078559821496928 0.8407621753840677 -0.28383769237476586 -0.44399789043295956 -0.8123420987217167 -0.72813143319663 0.7245475639407741 0.03787384302224983 -0.8876353682070752 -0.8795082613094292 0.5877112501921322 -0.29528270588440764 0.8048090873129852 0.7837244244508819 -0.6632010933915427 -0.31610553255553375 0.8614888916307213 0.06286512569061986 0.884052043344862 0.6042333312448911 0.15368770044948787 -0.3904526750763191 0.9002972087168841 0.18765975809197366 0.6469099146628048 -0.08847817653057932 0.13954105752382184 -0.10073457639746186 0.741920376179555 -0.33098591591568827 -0.5565787400686324 0.58876393639826 -0.9101921042614898 -0.9306401690944857 -0.10477620090532969 -0.5606062649711958 0.3258351835717266 -0.1647570447306892 -0.9436388566418776 0.4585313462765259 0.6343025113377314 0.9758359677417661 -0.3487661946343392 -0.13787552880098652 0.978765508544936 -0.21942872737701968 -0.175704927040796 -0.03248885073653818 0.07360281433879812 -0.22922370474917342 -0.5875668343416465 -0.11862076268125721 0.07749214264242776 -0.44214832847732377 -0.6060359494390521 -0.17394678834932775 -0.8391213548700278 -0.9127474849951418 -0.9252493522822682 -0.46610615707701797 0.7063375741955633 0.6931824682671519 0.6587753367139133 0.822265350677899 -0.6255736127491138 -0.5510663103470901 -0.21538552912632558 -0.5911365093622247 0.8529465982020648 -0.964875572949317 0.5257445291757052 -0.6123639370825911 0.48284104723909005 -0.2270558732939616 0.14570341836307588 0.21829156998321309 0.5983927750867779 0.7898936491628417 -0.360176611876468 -0.28123314851047776 0.9351128722090949 -0.2113154228804215 0.024414220835454747 0.37522052617829016 0.49929202546470686 0.5069707437595095 -0.5414869362495909 -0.09006564937833184 0.12821270454446276 0.83933626900769 -0.10387745793981606 0.2407410794546705 -0.08557768481932393 -0.17978395642759248 0.6506505338282653 -0.6029837379059477 -0.8975676394236793 0.04102953963181788 -0.2512364887619194 0.3619294703745104 -0.6265143953658852 -0.9533360868989127 0.47492766130842656 -0.5000124593664939 0.3156278072035197 0.45537037665124935 -0.5046591815501069 -0.7440099881656379 0.09305555181355807 0.9845575917708651 0.5807992766196073 0.5909774990533512 0.6869523849623191 0.30433475658836295 -0.16097789344293156 0.9186438257174445 0.8685307917044884 0.2951863391380687 0.037412048302844836 -0.7726656043344284 0.024804186368348358 -0.3438049110454571 -0.1516104655640691 -0.5881070781262809 0.6211973462331031
-0.8582905220677828 0.41264656373271014 -0.8469139794329446 -0.6871530019570331 0.35024669333826286 -0.43144098706747647 0.48220010346717057 -0.4118861624734944 0.030199269427175546 0.18698045491862092 0.8994798691601997 0.47666065322615814 0.3549432957296783 -0.2680940649245658 0.8766539294984308 -0.6538495466070835 -0.3219715568196133 0.2843019254675001 0.1058836330087467 -0.6055032662024438 0.23934980623389612 0.3882580807345066 -0.13308208659711984 0.3830272001994335 0.14667856877776542 -0.4829273450129261 0.34782108666765765 -0.80084349173141 0.1076109764320905 0.7845825263157813 -0.11935884022549059 -0.07187509312317175 -0.5387772065283623 -0.7433214619840816 -0.17199362857506362 -0.7017869561719503 -0.6976508376866728 0.4442589499967031 -0.5525752450179844 0.04998046412528878 -0.9478883466295271 -0.9140530822438819 0.5148981215188915 0.8687749405195722 0.4629129080105254 -0.8673479607012233 0.29239831496420665 -0.7284535957250553 -0.954428804247883 -0.7238570012443089 -0.015871214274389756 -0.371525106996617 -0.9978577656854322 -0.5756528927986486 -0.9104937439544292 -0.5483742281433941 0.7627726446682048 -0.025878798873275155 0.6974222496405931 0.16416933214012142 -0.9820024821910134 0.6265324632885159 -0.42968667163315954 -0.8375649824193954 -0.06453787454748006 0.4327286865325499 0.37149955969699877 0.4629286267997659 -0.6943180705317424 -0.6913294052398165 -0.42310496931244557 -0.6342347161179982 -0.46456974001237317 0.12270363292200215 0.23297487771600678 -0.8096799468235236 0.7031731050478376 -0.7042660372335976 -0.9645119243525777 0.37162552853989284 -0.3108400127640929 0.5207589591777457 0.4195927858433244 0.2728036218760639 -0.44254943477875885 -0.25653851754400203 0.21582367956574955 -0.643846315235213 -0.7153618631462686 0.22040212963044903 0.06848270167996495 -0.5811776040062187 -0.7931092987074138 0.8494555378852235 -0.35553048966982326 -0.28388203737458784 0.176801048590137 -0.49434650349658704 0.7988303982909821 -0.251445664045296 -0.043059955764498614 -0.28062578653953363 0.31292702106591386 -0.8417212578827378 -0.6814471781667144 0.9419972886080226 0.5558418459883199 -0.11770156770343032 0.05191026344824601 0.5089141559639128 0.6924120394184206 0.051393600109055804 0.18746889207853235 -0.045776551670271504 -0.40954320054043447 0.4464463470972373 -0.017153364414492334 -0.2786274630013954 0.4491034833625869 0.6196820327762542 0.4646290560570203 0.571741275744373 0.37069284147934 -0.6878475372910287 -0.8124560286896865 0.09701224635912364 -0.4646066404970768 0.5888545586669405 -0.013030370640883637 0.7994793674022609 -0.3220163582247264 0.7126017654902124 -0.3290507298607155 0.7834652797672381 -0.6683746273216897 -0.4773773579766043 0.8667005459693002 0.8170818268215472 0.39510717724966393 -0.6760203008218175 0.23045222969833112 0.7997539185446736 0.5318497996852194 -0.9751707116233264 0.44757505866226843 0.14614068677229297 0.015242753792962693 0.6843362588491388 0.7937654277239574 -0.18752182699920517 0.08414604702968687 -0.42394932233291427 0.16842352373454172 0.9630980513993019 -0.5130374405066576 0.9462835260499458 0.3650842726201937 -0.7921712070371061 -0.771497368989684 0.4169988158574094 -0.027798775409964005 -0.5501876240811785 -0.6578447524298074 0.6057941366492272 0.41228413603799874 -0.7048030350434564 -0.15481750129756033 0.9022716772796056 -0.9945258026859911 0.2113143462756828 0.8537203682488854 0.14808695281417084 0.008292870295066423 0.9570046368207441 0.5235538363084367 0.8415181484420893 0.27838809051658764 0.002708942421437266 -0.5946210292398892 0.44998706551279133 -0.9482651720280755 0.8403414312629451 0.39272953388132303 -0.8000524887649265 0.9634720678043762 -0.9714124597591971 0.6311108339415166 -0.9388973372136291 0.8279583980197769 0.027181021190046284 0.9745219266556513 -0.11172507991256397 0.47483819499953794 -0.5065229759526038 0.17268173959692268 0.40495867735031377 -0.979396987356352 0.4224977185768113 -0.0891459507039194 0.1536017127437148 -0.1716001081230465 0.20330930434409744 -0.9918072709378649 -0.5205372347222741 -0.37627053211788386 -0.6937454887509245 -0.2553391225813868 -0.48252410097527343 0.4627703073034066 0.025068907488079883 0.9766693198450729 0.5881180631957661 -0.06613881137079458 -0.05677232096581175 0.5216519231045951 0.18241758860806656 0.11604200339361559 -0.41272200930472147 -0.9569067058806813 0.5779551893748287 -0.9798974859244842 0.20692975291300364 -0.9209456030976186 0.34790898955570637 -0.16777739150291504 -0.5153933439305072
-0.6102145181175744 -0.1671982397015428 0.3009541550483681 0.3024538295634671 -0.7667008098388801 -0.02928307093314486 -0.8816402099982947 0.6301316161991708 -0.35734752816153725 0.9060066058581513 -0.045419723631438425 -0.08865241436779492 -0.4859417279898983 0.025594977841261413 0.8021612758241929 0.686833066221695 -0.41352497812259337 -0.055036464025545184 -0.15388282708168877 0.1623985274919364 0.022664070819360838 -0.1982911449157998 -0.9666319599991002 0.0038883382803107658 -0.7604411483905036 0.2925830846062414 0.8667018043120673 0.49310057522084794 0.6538434321966509 -0.49210211324425335 0.3169854540109047 -0.8045037059689504 -0.30182494617882405 0.139940351850528 0.55498288541428 -0.7192717382867151 -0.3139714921597252 -0.7663342888683129 -0.8440123495962282 -0.09771377653177415 0.5308452853678605 -0.12636609401876298 0.28258924220784687 0.30105156391051 0.5595088143392444 -0.18149141445126715 0.3627068483018725 0.35734939436156354 0.5333150403103537 -0.28777887436559935 0.4422941056408487 -0.39991144080439756 0.9890267651484377 -0.30230510621725215 -0.7231316519014479 0.975521829233327 -0.33971263208980296 -0.08081685868087307 0.11608412525829137 0.7707574445757592 -0.5136988598288996 0.7766846394475608 0.7548877088538879 -0.48993213816240466 -0.6459603595994254 -0.9743796833977407 0.4538076053857796 -0.06951996808959482 -0.5451745995581245 -0.7961022830591487 -0.2198735688340394 -0.7120574167166758 0.789105143861125 -0.04321720711991883 0.8400570199837474 -0.1832445511765819 -0.9603282729151852 -0.2920347508522527 0.6540516994081966 -0.8711247916348714 0.0368771489049442 -0.3137184256875072 -0.9220869873073261 0.689490990090406 -0.8962684667690339 -0.9975561280392415 0.687928911311813 -0.5465586075542832 -0.19298319185590374 0.06580847078782659 0.3640814628432416 -0.31193856840875966 -0.5185174804075645 0.9884526484548324 -0.40919334421097986 -0.06303880521958782 -0.5136948172933145 0.27775737200122896 -0.44243509252849633 0.3744683148995662 -0.7445320432058096 0.19576859636092903 -0.9187038342833376 -0.37218748950181757 -0.5092031811883762 -0.4406828621514798 -0.5729633036095283 0.10924292680068959 0.7961863822118622 -0.09795176201150224 0.6259311217933077 -0.38328800448529865 0.8947147086862133 0.009362038448473387 -0.31692199076421956 0.3709583714909408 0.8717075239905598 -0.7760318319254416 -0.9187623022156923 0.08244052908768085 0.6086100016053557 -0.1504552553613998 0.7594334532241913 0.24740762766416058 0.5084251410561009 0.568403852101447 0.5216020145837583 0.912629603873226 0.5072243823677531 0.6485600325135938 -0.5415637468958099 0.324235744502561 0.6067748859107833 0.3184964983475487 0.29402071774358896 0.538055122509808 -0.33702450814031737 -0.5535501719353368 0.3139605028177004 -0.23317790205072142 -0.023945456751801153 0.6995495826367013 0.42098279663499594 0.09272993920899886 0.4492082516325271 -0.6177887778206219 -0.014863832258702026 0.6346961266343498 -0.08456963835929399 0.26324071324628395 -0.3293480202951433 0.8832502304899945 -0.9911855120441706 0.24147940178636396 -0.5769553791526878 -0.8915112823330984 0.14718461401827465 0.20493669120058855 0.1074688457258901 -0.7833531975403678 0.6456375064477144 0.925287056285234 -0.12262308251247145 0.7220166286629859 -0.3858676241021126 -0.9070055756625266 0.45865977130897573 0.7883352637113525 -0.9087927754031893 -0.19788313552852577 0.7559809044499306 -0.14933955430861423 -0.6242937749602473 -0.5949745118317393 0.23062854892882667 0.07436375220281954 0.5331727461231552 -0.5248253516393981 -0.7556194894357715 -0.8811656988145184 -0.4553329914215325 -0.026537817050775292 -0.4040970398653443 0.20006269794948994 0.4490404865378561 0.10985556282612197 -0.10654317772838673 0.5470646742878462 0.0627449976430241 -0.9240582284512897 0.11789401577892122 0.20065627243847373 -0.8262370153308873 0.28977828862902766 0.7975121602849993 -0.9349201854011491 0.04921524576076308 0.3202026468281216 0.018303234543763258 -0.21794921450533988 0.20629014059010098 0.3434974611167092 0.6492484566100976 0.06500847710240909 0.24732533982466576 -0.7817853112930562 -0.8074683898194694 0.9955373584415397 0.1549134121961484 0.1562729819871691 0.7311664661521764 0.24418881955519867 0.06816314854215744 -0.7708205295799757 -0.9506377624142497 0.5191623616226735 0.7068018717803664 -0.28208543991555257 0.5419036696443633 -0.20756306863900198 0.9146427107181891 0.29416087115047285 -0.1504979824883823 -0.5131239608300131 0.5465125608871721 -0.6303324472686607
-0.12671117770272433 0.9603289626274902 0.5173389861276592 0.01662101067552646 0.3283117730032932 -0.843219199376325 0.14791382730593838 -0.512904271603718 0.2815611733545127 0.4389367697544182 -0.6365895810323532 -0.786739648432959 0.9198712721222342 0.41422844428644745 -0.5814340399030533 -0.27919422180768483 -0.24876769351638073 -0.7242670613937685 0.005762189282566554 0.6616279614515717 0.4818970164429981 0.7393654166880237 0.3490708842759056 -0.5581673273256942 0.22419052369814496 0.7653360059902827 -0.379795510681439 -0.5465312859857896 -0.5587501791779539 0.2832375683365893 -0.4572589042378328 0.7056865875296696 -0.48297848663919307 0.4027138667271506 0.7052254211488347 -0.9225438511207733 -0.6273457796947517 -0.20661944594186465 0.10775848066471139 -0.7676370163177657 0.7479840062553411 0.6842857226190882 -0.9084545228050853 0.6814054068998048 -0.2431871687664 -0.6718826164342795 -0.4679445706625591 0.6108824944761795 -0.6340735572620115 0.13400246003942762 -0.3623343864275219 -0.30522045346210214 0.9730050612036345 -0.1881384104857866 0.43040717064166745 -0.3155003667690768 -0.4131451560588375 -0.44911038290177685 0.7334837081227252 0.26552598660287496 0.8124428112868924 -0.997925926219438 -0.540687232700664 0.002229867789884654 0.17258981438934917 -0.04817008822191471 0.19987479557395527 0.7301229668608926 0.6186725521534975 -0.47948790606616853 -0.3208331636286639 -0.7369918154737123 0.87223669624454 -0.26633340981783427 0.7460615155222627 -0.3253929371320876 0.3842635010379032 -0.05062536490921721 -0.715724289511281 -0.9729617281015093 -0.7135456131493323 0.12900998640699823 -0.3049802615537298 0.5322000335077333 0.35940821963011516 -0.007977009762362375 0.6067363326183215 0.04135377998341738 -0.4253943449371944 -0.8711056895211207 0.4181805346900338 -0.8991496409470576 -0.44846005491926944 -0.39401301144573786 0.8684897155165061 0.007770299731710839 -0.9834067892375675 0.6288300940131943 -0.4220066864099603 0.9876575728441688 0.04614511797740262 0.9989791569109576 0.32050370091781044 0.38866425611029 -0.5544601196020642 -0.24603859380941717 -0.01455197580517309 0.9182087736091069 -0.6865561891211578 0.16753430535813085 0.057714143186108346 -0.6416445923801246 0.24524974498772312 -0.8275262326807746 0.057910640579945216 -0.09915518266611989 -0.9722727015314172 -0.27987815547656103 0.6625134396582575 0.5278086708058216 0.03990817566069116 0.8168587581579401 -0.3022327183293718 0.37385055235673814 0.5360458937795411 0.6896180548973414 0.28544710715376387 0.7025648220517289 -0.4323676018564555 0.13534372566977892 0.6898538294446492 0.536649536071431 -0.9349330454342069 0.9259237716490589 -0.24515375598864764 -0.10748868852592075 -0.6352224176694139 0.39336027980004973 0.2459047542886994 -0.34242077606971133 0.30786604657323635 0.21458061575409504 0.6618486231247973 0.7125020023400148 -0.9831252397762047 0.6116124891382861 -0.24027741000989167 -0.5069370203520298 -0.86974842889043 0.2664658122472803 0.5403861374543937 0.6083203017333147 -0.4038730636292882 -0.4048891306089262 -0.9670508261838044 0.7021942450813916 -0.7743960736929507 -0.38149834993311926 0.33936668909982526 0.5932873583968958 -0.689932218928393 0.21519195001908886 0.37113233210848784 -0.296772105307747 0.5901319435536734 0.6138929321997488 -0.7180934401710626 -0.40269740497745143 -0.8158258440031187 0.8809876304241413 0.3455017620352818 -0.9300619587544445 0.7167636043333903 0.9739788601298349 -0.33747207104655796 0.3191456056255251 -0.20931145953554586 0.46570379931897743 0.8791020961203369 -0.2907430165036844 -0.2221879378976095 0.0865360778511306 -0.8458951382620543 -0.16308919515180031 0.8161382014188285 -0.7296267731664714 0.9310414349819551 0.7909496322091856 0.022336859267135356 0.5444698282599683 -0.1873828704229672 -0.7192598557436429 0.8717823621808181 -0.19791912784468413 -0.4528098466828254 0.43869467981833177 -0.09834972740668824 0.7462662431392242 0.3505785889611208 0.6512611876733545 -0.9174295920676554 -0.3346109897675269 -0.9746582735517311 0.5345411332895251 0.06475271492706147 -0.07312828463949494 0.281376275977012 -0.8198249649973579 0.8349549987158227 0.9479369600068885 0.19322595632447004 0.2077760684854706 -0.9670521057436887 0.5719410017955548 -0.5242529850172997 -0.6131693516236962 -0.8371607443851312 0.053373314707562125 -0.9468446076680268 0.7985840253251386 -0.11663325905433775 0.26895127969800736 0.8198975848220795 -0.7349349781208316 0.4522884827182929 0.8123320065897932
0.6687946288244697 0.7619380422268467 -0.8899861398396871 0.29095360680069615 -0.3066506835845866 0.5341003335523684 0.5654686912688065 0.14466471920157598 0.03832881974162605 -0.052716091587388325 -0.7835670109366621 -0.35502770490807145 0.021917427608577844 -0.9046765757262658 -0.6784154575603158 -0.40006569656467295 0.9297934786306956 0.14990081146301648 0.6750463091168963 0.0076175848270192414 0.779972106433183 -0.860541828746261 0.3570937056681871 0.5457066541728703 0.6200972356119483 -0.9862701396000433 0.0007666800386973982 0.9091859123016006 -0.909514236595359 0.3791214743960667 0.6407265755905474 -0.5377650683815989 0.6143465932662506 -0.3295648737035364 -0.9348647126510539 0.5967669524817161 -0.7154102332456727 0.520633112237858 0.4215922073235656 0.11918321714401325 0.3850863971224845 0.49803563039867504 -0.06039234346094591 0.32235511679811757 -0.9671317774346138 0.5835655832101103 0.5963021073742028 -0.4937633432858044 -0.9329952030864213 0.9156207554932574 -0.46295815760613146 0.562371803927423 0.7389204862322185 -0.14348155890382008 0.9501320276600704 -0.080488482664967 -0.11637390539450432 0.42621735251793025 0.7055625471821889 -0.2011896080736515 0.46759370208818374 -0.6301839643176643 -0.43587201197605707 0.8879208137376076 -0.6457670450325523 -0.004230098396624582 -0.3886825744096791 0.47583900551789204 0.8684236683485256 -0.24682568144853967 0.34332994663545957 0.5236350201554598 0.004969974074830352 -0.4356134779325642 0.2333132787720591 -0.20800422885933445 0.6512541489294263 -0.8051196906504432 0.5471661730593143 0.4267115356803719 -0.058472270676596105 -0.8952610365359654 -0.3264582805672067 -0.3304060761007601 0.6430044801887527 0.5532535258000841 0.6278888616262039 0.6645581308612549 0.6089393736296502 0.31519606205795525 -0.6046918202414819 -0.5000681501423481 0.7837152314389315 -0.5747948266158447 0.24750049703416765 0.7749450213220987 -0.39055924358565597 -0.712239282611044 -0.9604789879893856 0.7084339229726226 0.07866466643618475 -0.0717559862410142 -0.19684684019385368 0.5359111860376191 -0.47358925236221183 -0.881326299966227 0.24133993091788075 0.3761890638969727 0.12262431177588073 0.05231336036962908 0.9025066091613243 0.9165355200676244 -0.3491078140879311 -0.7830845904875243 -0.32239468612306754 0.3519267343669865 -0.015056622789660912 0.13589837583267372 0.8180161401432327 0.24392307118264567 -0.08613126582808772 -0.021787991862106004 -0.3233407428866688 0.8292415048730677 -0.9426298616480486 0.21318799518560727 -0.388838496713948 -0.6885138821564349 -0.8195424357040637 0.4587183613600829 -0.7839834610842782 -0.7473720196297682 0.2257426007236285 0.9838732996944113 -0.4250977264347422 0.5472161049293469 -0.8142631973440471 -0.4514215658537819 -0.36671313333641753 0.6341262727102948 0.7684786498125684 -0.3965358859196553 0.886662911746944 0.44919816495138476 0.38610208806667257 0.6471420394779248 0.7918114098692706 0.6954161729688189 0.015137821644656047 0.7910807987962942 0.5127336738753245 0.45463027503848275 0.056947675380526475 -0.005938353253924333 0.9282748553762754 0.9898452707553085 0.6045076055736347 0.816018062507422 0.5469670163435978 0.9872774008988481 -0.29047557768396004 -0.4167172672878636 0.6977040984552312 -0.0594482870934383 0.658154300944787 0.7422665484047521 0.820883513412846 -0.3979636080798632 0.303507076982666 -0.04536345156967969 -0.19279742358574636 0.9601967663429785 -0.4109061991685783 -0.8312324348640305 0.059858418311105055 -0.7212123274396938 -0.8236629990866535 0.6943866886200243 0.4077118818726988 -0.5483135399238224 0.15673186799478955 -0.270114623643406 -0.3794494896500482 -0.45539536623109966 0.20875260118785155 0.7277186757867338 -0.45144556799463365 0.8661847061997345 -0.2252471547919499 -0.46179220165832513 -0.13064232333935943 -0.09700799886554878 -0.5008356991785687 0.44911327048389027 -0.4104127351418021 -0.34717700766329984 -0.047031653742356516 -0.42867122103330146 0.07874624288040555 -0.9842016735314014 -0.10071253779998068 0.11667630439922871 0.1127961124634278 -0.5242974482924272 -0.5039790083671096 -0.5713856042869765 -0.5782996210834741 0.511736475660177 0.17205772605794545 0.43067454802217964 -0.9254743606655538 0.7542592358563629 0.7976277947314301 0.5639916744682576 0.5076823213368256 0.06836105800161674 -0.4532541706121982 0.8927776150266999 -0.9751897522007442 -0.15177516042220462 0.7394721025211113 -0.13817793994920602 -0.16121183000505823 0.24348110868752948 -0.0758314104181168 0.9241342341078296
-0.02260667253206039 -0.024240246385472508 -0.9726586081635309 -0.21776244424281344 0.9615612754674752 0.4166284137158325 0.07977090331610248 0.383293973887036 0.11682851875603939 -0.09480037304401945 0.5380645213519315 -0.7491513589148266 0.7615508642674826 0.6627767147841839 0.2500898640630316 -0.6299216381036965 0.7381528524261187 -0.7800292126062816 0.2771929880349906 0.17060282116315273 0.04504598452512143 0.818744576977934 0.01325295034149332 -0.2291900111249341 -0.2296377457220795 0.8287140104271911 0.025851809102678702 0.5054871447103904 0.8269881142752593 -0.00034250237404798156 0.3947459200895409 0.01791422490321759 0.767065842179909 -0.7523403777426858 -0.12311964752323368 0.7545364578525091 -0.9845684199090621 0.6115601924603986 0.9759825589967874 0.4446189075659508 0.5955095857159225 -0.06231256243727823 -0.4387826977845426 0.33415805947819255 0.41803074713561084 0.3209127733453423 -0.9478429934889279 0.9449266036031609 -0.3345563780454921 -0.03565716987863343 -0.2947068200919092 -0.9125970133662573 -0.4561050444315988 0.7120817096182495 -0.9393561203385743 -0.8231619992612056 -0.38721265359362733 0.30613035816622514 0.20690779843287865 0.5232268094008856 0.5924824845702856 -0.43857842279868264 -0.8918365212498656 -0.3648549205187481 -0.012769620109172486 0.8840731072395487 0.16008608642551536 0.1424803915816104 0.5823448992609292 0.8439039827196355 -0.7503260604769595 0.8977760700171904 -0.3922245531388131 0.33665133108054945 -0.4346430808473003 -0.3741445195122086 0.0477311382559209 -0.7250433290834877 -0.38049825198195264 -0.23243950585900808 -0.038643935816913944 -0.7642826298644587 -0.8706716891350801 0.8832344088471786 -0.5517947247080535 0.1548296324578884 0.244460530036253 0.519961383415728 -0.7405104580281583 0.7585687657962004 0.27795463511023866 -0.6050093291404899 0.8445063833418216 -0.797940775858327 -0.8923054106376991 -0.7325051879234452 0.5598427121119711 -0.6581018621393528 0.320620802887825 -0.46389752479384017 -0.12661137641355436 -0.39891301392026524 0.8123344580414376 0.01867641880870985 -0.1548440166258669 0.8946409455761966 0.4267492864878555 0.9154367929857867 0.7359581429777864 0.00032295911944446587 -0.17930573358049817 -0.43747191408376707 -0.388063579683259 -0.7366254415073379 0.5247870799017491 -0.8909934776740145 -0.6206247682404626 0.3321280973688394 -0.5388689728500649 0.4077033919770827 -0.555769268857838 0.31246275912590904 -0.3743547448407112 -0.8623233641567911 0.2189554800926483 0.7100115337143584 0.6635203543962427 -0.16424820223492498 0.03515160678852314 -0.2117109284873182 -0.7459628332924175 0.7458924446699904 0.0484156075859381 0.3351286927545487 0.6667557133768609 0.6978534126693541 0.026542248154710624 0.7543919145130127 -0.0276552995170527 0.10946109564649875 -0.7017865009459778 0.9052092850679121 -0.8120637312505159 -0.9187556325142481 0.7305390831099103 -0.06930161328929518 -0.23398996763845692 0.024947555096561214 -0.5486191928129536 -0.9955783522636168 -0.2680170623639164 -0.024658044671355572 -0.0714166971765613 -0.6093539745300482 0.9016085737366168 0.9563015563539368 0.5569935977429601 0.12592992630315702 -0.5748186624869269 -0.5383747215820085 0.7460226461748654 -0.8161267054313401 -0.2073619868704979 0.27405755848810287 0.9625072600135878 0.08558328840806162 0.5699245725282045 -0.4974024824745584 -0.5041528216069118 -0.748467350176901 -0.01841715443454639 -0.12100009149712565 0.9675055598356466 -0.8500003686262194 0.695561262150094 0.9008919530598063 -0.018943242703697072 -0.722911874158179 -0.8375907280117285 -0.5977614445884782 0.5961649316763189 0.8632969053462007 -0.9077623915583359 -0.6779658718039008 -0.6923214955933576 0.6982518954085319 0.7247206030867694 0.372725338319583 -0.9629561707681193 0.8163028932510563 0.36290328487678125 0.7816275748674162 0.33399717908056314 -0.7729392547943155 0.7994884455877835 -0.8709532892025085 0.6965372092491844 -0.6271780198407226 0.9597446173849096 -0.049506590133299166 0.2547321689908526 0.6522905217899322 0.8332767149332432 -0.8751423977782269 -0.7833759342280588 0.2628205676688371 0.27297154565483384 0.5819472310295821 -0.5193736957954795 0.7579088397694842 0.8698509259412768 -0.07722688394736554 -0.2255460797866955 0.21818635004897313 0.8859324709012804 -0.7323739258423794 -0.0660222672412103 0.9691965645067748 0.5595800327583411 0.3380808603774257 0.23010083237668688 0.08246154463267308 -0.5385117951809026 0.08534434606457375 0.3706119167289761 0.5074436208358477
0.6730251164734213 -0.3296759154683795 0.261616032591931 0.058196746721466575 -0.15501591802990844 0.24462802270307282 0.29394401932092684 0.4275550212587256 0.6867332121447782 -0.0874239667641521 0.5472594662658776 0.5348771841780529 -0.6821764695630772 -0.5357598297603645 -0.2860337847433263 -0.958911788069928 0.2946814907444828 0.8827306626340117 0.027009145481335706 0.16497014624687223 -0.26642508989105806 0.5092832069743232 0.5324097145309918 0.7549151578817139 -0.9558635557177031 -0.4753928631813751 0.790391941840169 -0.6177682137719629 0.17369162149849915 0.4049346353798975 0.8354447187326126 0.4578917207363169 -0.566158011260212 0.17984146514380495 0.22514577659009394 0.03547061929086803 -0.015360784299999874 -0.12448741012364728 0.9609665948645618 0.18668375538058735 -0.3379204687745003 0.833002852875697 0.3102460045858446 -0.5850438402813165 0.09336471047281392 -0.4365956127426933 0.682290955052125 0.6194662965080489 0.6039469262187596 -0.5883691444293748 -0.8631908528280501 0.32616394378057967 0.6450371539829691 0.3231434512723663 0.34962022661574665 0.688372236489192 0.07527707889265156 -0.010434316600166804 -0.49676969762630807 -0.7019063651890458 0.1227482884599731 0.4261569119040223 0.5677235789517165 -0.43283482975259524 -0.7028304780081447 -0.2755538150125263 0.40012029152404405 -0.9353232236356483 -0.29701461907363846 -0.6285412167720625 0.12781769338717663 0.9609938264334081 0.9565544468362868 0.1412714584284933 -0.9539113262379537 -0.7980543000936813 0.4553078703781328 0.29351192351500033 -0.4537062635892857 0.5423235103128337 0.779364491538528 0.04410911498792913 0.41703677938802053 -0.7030423684777829 -0.23991920763671448 0.7694992562809377 0.2527589616055379 0.2433926528735333 0.6982066361062815 0.755581314843367 0.18247508371605936 0.2892426812212987 0.14832414031257612 0.09556729105174422 0.29658809854189494 0.552469554892197 0.6870479917051615 -0.3544547655170003 0.9983085573771326 0.9282758476134465 0.54292330737269 -0.2986115027953753 0.9683486428689818 -0.9192449012599089 0.8069543639246719 0.9869123373278945 -0.25413710496652175 -0.5690746746501301 0.7579826762219217 -0.6837589934383765 0.8909007398166877 0.9917378683659734 0.12649069437713245 0.5640501991260076 0.7696148613049607 0.8999448340462328 0.821270359529527 -0.7914897931103133 -0.4696016248363568 -0.02222040178851903 -0.4883342694725781 0.06287030032885355 0.24170912566684 0.8889622614715762 0.41779710527042124 0.9741566567852484 -0.5627670478152664 -0.8870545619176815 0.9806641480418996 0.4624562098878662 0.14349202802058447 -0.47597139928800947 0.7515053078702241 0.08801606996040556 0.2625164470741006 -0.8237656031909146 -0.1334788898056083 0.30931909104529454 0.03594445193383278 0.653439252770357 -0.5238908966964795 -0.5990051159515597 0.34128579797317293 -0.3251204194907462 0.2554761322468273 -0.31228582023856855 0.6237919720594471 -0.6358153734966709 -0.0418855552577988 0.31739992728760535 -0.8830022880608075 -0.6668979215608526 0.8454618815721542 -0.8709143787542555 0.8605173711245084 0.7921553546625608 -0.7133744640628266 0.14489650991244218 -0.9292947189275869 -0.25578089329228937 0.036850140873030846 -0.17510236144292923 0.054929828416827586 0.07646131300906545 0.49270136020573996 -0.11373065566026974 0.9574153218649499 0.5260490085541873 -0.18100009605613532 -0.1335869554818141 -0.8270903015115463 0.40612775873861184 0.7859774397572508 0.9429416126233074 0.9919643710138746 0.8756208604811069 -0.9455936623951853 -0.14169195754447061 0.23162778873905365 0.6941174954433165 0.46764696378967563 -0.18340903238887996 -0.03663660294321125 0.924356665701513 0.28447464016282686 0.3332451275845709 0.09311517661059598 0.8169216814620934 -0.2658106362087085 -0.9795490641672109 0.8760950192847958 0.48572777423543134 0.8278725828106677 0.8572905267077071 0.23437077785189664 -0.38836467648073336 -0.9715298836643613 -0.334416242354757 -0.359376528445551 0.9947644660253119 -0.09158174111190465 -0.018425459693998114 0.3109487830571642 0.1725895391114214 -0.0925862243832074 0.5690454362421866 0.2600162123974541 -0.9211945775705699 0.6526461125862542 -0.8936672777846031 -0.26881871318252504 -0.07744483469488794 0.012985019198497483 0.4097866758819113 0.7531789627992385 -0.37293717663103365 0.27060497101221603 0.19220333492931707 -0.7326561451331548 -0.11794880231262095 0.22134057136579277 0.15835670747704955 0.04167139454868796 -0.8976783529825239 0.48923738773041126 0.277954211135633
-0.4346703340312372 0.8410294993752465 -0.6405565014731303 0.7850759096733493 -0.6280024817137411 -0.9190158453122415 -0.044127190493749247 0.9466230568138552 -0.45088318316382114 -0.47765059558432754 0.0969211694861194 -0.29231056090664986 -0.8308139637439713 0.19287550399309117 -0.8437047473971238 0.6959475076209365 -0.8610544246273892 -0.11749766690218877 -0.036749143823623376 -0.8932502890435181 0.12379314259209506 -0.18063875542026953 0.49432648094997367 -0.33747656414507987 -0.03677413787751216 0.09205932047120213 0.26576172834957124 -0.08667728867288993 -0.8901174694692497 0.21533067092987057 0.3215386439313723 -0.017285007180866785 0.2550560647775135 -0.48119290979564355 0.15399346307599804 -0.763467227470614 0.7994052063838841 -0.9115640025956693 0.3706948505205736 0.475607376933715 -0.2626291967536112 0.4729304479640446 -0.5842687135358036 0.5645430955724715 -0.10960720360264742 -0.9696312439871089 -0.6065886768284439 0.623008072859387 -0.28858234131109617 -0.8275569964939193 0.10267871860365596 0.15531292693610177 0.527927012008734 -0.12783092191047984 -0.8048659558904023 0.8581412920992422 0.33346632658028486 -0.8596084514124591 0.4699972870521445 0.9548340134934514 -0.7665241311088362 0.9767079903141653 0.9569497093491106 -0.8116339364299139 -0.8763994040253253 -0.6551350451184008 0.29570818535461973 0.8138845270704032 0.8153852808930644 0.3032202376268116 0.11473644744548062 -0.4333611589372812 0.9308670519321218 -0.47919293770728544 0.5857840250669166 0.21844085344839947 0.8844358085702639 0.33619875426964496 -0.07784775825962509 -0.5218211526772933 -0.7715319840681358 -0.10039161754014936 -0.639701259226144 -0.7086891977832561 -0.21366131326961857 -0.6095355594823337 0.46018809619130674 0.08589668128535632 0.8890674046800788 -0.22575868038296631 -0.0006282707729685644 -0.17199801627334432 -0.8859145198408576 -0.7268835226992987 0.49820946534546673 -0.6992288293489677 0.14081585946106734 -0.005537723059611643 -0.19757989114683805 0.646673101923593 -0.9655441039216013 0.3788728022679986 0.88402421087978 -0.9102494379331183 0.902877845162718 -0.3503538121592953 0.8877554651672965 -0.03139768686098732 0.39799522278599 -0.7264122899749457 0.9516759077859174 -0.281765638720082 -0.443854836343583 0.7746766940490728 0.33717036118856547 0.16953710534764177 -0.40548130594555065 -0.10406965313294636 -0.1330576727034909 0.8117064868210677 0.792261230170167 -0.6421887495643503 -0.6223938454173787 -0.5526164734079511 -0.7749834354677492 -0.4146135460259035 -0.5307254430668153 0.44962586491145395 0.23493000381202522 0.48063353423687505 -0.0032413930898327337 0.9453792466580331 -0.47927842659274367 -0.09945757549503909 0.8094146844148173 0.019018572970832537 -0.35179647643303946 0.4008615569573002 -0.5567974509326044 -0.20543548510329712 -0.6664065190196331 0.4128322150979167 -0.5913056431859944 0.09391798049968392 0.6020954985653952 -0.745103214759256 -0.6937173998823174 0.5112211684950807 -0.2690763115438224 -0.838834779387897 -0.06332211444480351 0.947362127195996 -0.3226402884734303 0.4015327329778666 0.5506596757075561 -0.976818749437226 0.4244595003961247 0.4608760784463537 -0.5159395556694273 0.5889678783149446 -0.2140486927645613 -0.6264764340643876 -0.3696176077393998 -0.3661290548646461 -0.19422988214478365 -0.8010814987165675 0.8957366444367927 0.641696312908391 0.49828464760638913 0.7899192807080035 0.003158107152265721 0.13451414281612095 0.9173239084849953 -0.6861280491692432 -0.365442697849901 -0.7024979550717274 0.9692414980364914 0.32063388817900984 0.020440016910271197 -0.9185318043263515 -0.3892581470493848 0.2049209380851924 -0.2448527467634518 0.5829714529859191 0.4445948401821542 -0.9993222509491224 -0.29830130080491135 0.8128157404871701 -0.6418801799843747 0.1976890108649021 0.18539707193289412 0.6742613684202394 0.7793010947520238 0.015705576290257373 0.8731615029311077 -0.8565697472112235 -0.17325460688008865 0.8348959658892814 -0.2160343682903314 -0.3619515529621069 0.9943090048918257 -0.8944442530601109 0.14724751813407289 -0.2857255959844778 -0.37591308937791834 0.030239712658212126 0.46110851411883935 0.2107107314704264 -0.5926755898626332 -0.7490925320216604 -0.2006581472764064 0.425019459686361 0.5701275361887947 -0.7510000708205082 -0.5681534697347741 0.4010080231267772 0.517549683033512 -0.5158384921811143 0.8391520030637134 -0.7377907766597824 0.22971371551091035 -0.6682270457191619 -0.07112437528039095 -0.32921357416315966 0.5750368530301522 -0.020729660072006384
0.6841878483925359 -0.6448862757699727 -0.5305594432934502 0.2888942780710264 0.6326538853614654 -0.5040719805014136 0.09271093064438429 -0.7192823090298659 -0.12131226091375669 0.9313014633548162 0.6090833456140612 -0.6844355321311775 0.29015532445576175 0.8679763553881845 0.6164520604267372 -0.2747145213004383 -0.10002290527004587 0.44602717798911895 -0.15929173727927726 0.1372911821449081 0.5439226386891103 0.34924114374248627 0.21952332135556896 -0.4425937833515352 -0.29756636584761487 0.9291680626229135 0.1850794494026864 0.6595877364000038 0.8556371175216646 -0.4572967158463115 0.9690288138714882 0.5486031083452225 0.919622895049496 -0.044716351650479824 -0.34788759263790614 0.5441752263831421 -0.14968421407873866 -0.3349317135310994 -0.5934415110603057 0.4249149675808743 -0.8829406234415791 0.805425996590478 0.8560466983911375 -0.9927605454531481 -0.7781586467026378 -0.29795989552229796 0.11615405853891092 0.3965464153147298 -0.13511198265713498 -0.6612651132961387 -0.23014343732423415 -0.25700362570608704 0.23741965726786907 0.49548124063861 0.13175872018276324 0.31273287660981475 -0.42979961519382504 0.5958384528626117 -0.1847730606429867 0.36646512784980345 0.9202477067416901 -0.2449035307703189 -0.38903952823237065 0.9011250159001738 -0.5959222044211843 -0.25832992501341323 -0.6563440182128406 -0.015346022212006316 -0.8806690857975632 -0.5946194541677572 0.8338493986532056 -0.5636793650222038 -0.8870316598208652 0.6819618476572358 0.3003950168815066 -0.649985569986903 0.3424765592717214 0.09902725552911651 -0.5052276358760592 0.4487680218176713 -0.9367021809195122 -0.705075072235972 0.8733088321693938 0.6018024801929247 0.0858759290729576 0.9594081196402522 0.40531767928178963 0.5027538948656527 0.05298455683530401 0.7485803390063894 0.009944969954049254 -0.7690042000333297 -0.9220004403755557 -0.5407734611553121 0.11940458208284088 -0.775076174901236 -0.9453081294300811 0.32271550314748243 -0.6147952356217903 0.9706704175822227 0.7616407981309545 0.06198331748207275 -0.45927103181912443 0.13049250298182402 -0.4503779692019798 -0.9846176454520581 -0.6054677719310486 -0.16777581762891636 -0.3226715756362746 -0.05678030315899485 -0.7154336889160477 -0.8281040746631232 -0.8043573333225174 0.3450179879041475 0.9669682604316507 -0.4440165955365538 0.7568628416504832 0.17854535850538178 0.43820664430136547 0.33980815949889664 -0.8439146902272741 -0.622270194290234 -0.8691177695207037 0.6568499447271621 -0.46176287492067436 -0.4189140977051702 0.025702640598139093 -0.7865249601325441 0.12636942650609329 0.6985142164397518 0.8236388939634924 0.006021782163389444 -0.8657987620845251 0.12819214558904557 -0.7423082896397766 -0.215675420431781 -0.957317427581357 0.2262410789526752 0.5342763906660697 0.0664980096254999 -0.7575714074468858 -0.7372460191172374 -0.4074794717889847 0.5490575958191821 -0.7649436947648476 -0.9060479223534579 -0.22529179583184833 -0.07285358845127288 0.6260644316476032 -0.7110708815642899 -0.23654867717601413 -0.6854506321618818 0.727630021612619 0.7449071998058014 -0.6255846798264764 -0.3325449232883968 -0.6980741098319183 0.6962643338953369 -0.9989962830294834 0.10361547262374593 0.9043698458126443 -0.16160187589765607 0.15632051408184222 -0.34008452829794544 0.5269955160780706 -0.6495118581498334 -0.5004827967909606 0.9140229072120791 0.41335941386136477 -0.22254561585523458 0.22886549140400092 0.7864332632858406 -0.58806179646041 -0.4689540189609991 -0.18722946962888143 -0.03223429557656088 -0.3545855653354113 -0.07069901529362066 -0.28258752006624843 -0.9632326294067133 -0.3238204630231374 0.018410934641326815 -0.41737827426556917 0.8315228286132186 0.40315369933338574 -0.9836617133671439 -0.6708848493565898 -0.3391876149716073 -0.7136261830487984 0.7854444416915152 0.052696151739551444 0.4513293609540159 -0.8877475729679658 0.7253395858896161 0.29060193099540355 -0.4933253082117146 0.8981328976920933 -0.41080769158198427 -0.30141920234815034 -0.2711391995412662 -0.3081382739401315 -0.5010270814514002 -0.6960521479294828 -0.43104796655074695 0.20632801798970934 -0.11955608758832437 0.18349362117195156 0.5699209848671698 -0.85852586579795 0.6757659898433936 -0.9276209327378724 0.5978461311802592 -0.06109376519767373 -0.6324516338541992 0.5687444533339128 -0.45952107335877024 0.2083318811113124 0.8674948168422851 -0.32571742335453835 0.21289385635504643 0.5642369241262963 -0.5184919577804641 0.10481390433916027 -0.8387807324293366 -0.22632037302176244 -0.5419027388242519
-0.36709302603487237 -0.6776300789599348 0.3273287819773558 0.10635351572848362 0.5747230796555041 0.6415823186269907 -0.8624319238225058 0.5344768348207822 -0.5661782601692253 0.8037432350918314 0.9486926715211557 -0.8350656992620773 0.22376615697332047 0.261872307356819 0.27102293182883574 0.6755726206763695 -0.9286235413460295 0.8650820205060066 0.7089676208361175 -0.9853336413139675 0.22188077425885244 0.15836831508244553 -0.8233191048556916 -0.6652349698419904 -0.3796170477432874 0.2470672943834662 0.8956527248532713 -0.4763155155354386 0.04251534249985056 0.7449062685447843 0.07405857482092282 0.028356305304601204 0.4941785132296126 0.7485301271604341 0.1701567311205121 -0.6894944586237217 0.1975916803454354 0.8288535106510924 -0.1997825720563553 -0.9060298821529267 0.9537889464861591 -0.9422679303775692 0.42846563276777627 -0.14123006125990534 0.5890334993791215 -0.3827986633686977 0.809818207618135 0.05616027622552089 0.7934343754271143 0.033723373036745 -0.13253033436756012 -0.858178967116145 0.02008327450176095 -0.9134044541051225 -0.6495597904116543 -0.08690394733956586 -0.12172576648265854 0.18582161449142975 0.18746292160971056 -0.3942888881941111 -0.04728157785143128 -0.5162943694188358 0.3051142574487089 0.38513487071744823 0.37279311504146984 0.5165688914549045 -0.05845310076456034 0.7921231123718819 0.8260871533983083 0.9704384524019951 0.5918573355167602 0.016434987993169337 -0.5194568602893233 0.996154785248555 -0.5056754443639997 0.8692522900012247 -0.2967431486932153 0.5112339373554853 -0.6287515996895747 -0.45026473799028954 0.8305832988235711 -0.5840470612765709 -0.751534621450229 -0.9943833362049819 -0.6501604407676929 -0.9768513914328931 0.5984658989249145 -0.9276849075624893 0.5142894413161176 0.07070135051049653 0.4549924958728502 -0.637159183090094 0.3516948967438105 0.6713898100497249 -0.9024482666704658 0.061182883491271545 -0.47432338627306425 0.6315027583417789 0.28663222796398746 -0.5330440700796015 0.6221519068390551 -0.7066841992507129 0.36498829172175795 -0.7170216533104976 0.028148516536437684 0.7170669997548218 0.4687240773293415 0.8551490440665197 0.6443175516023445 -0.2630752344230627 -0.3733143316219938 -0.3420476196547735 -0.7971946275988553 0.0547289320666835 -0.4281205725490045 -0.3597916412495419 -0.9992817128499769 0.2740819207661933 0.27857516552470507 -0.4097694564803238 -0.1599520606751148 0.8324512724502788 0.02757434338978393 0.9200663677629066 -0.5784851942043256 0.30055953106790745 0.273817750703363 -0.032071805308070855 -0.843973989413707 0.0834100897047465 -0.354058964055763 -0.4282523750118947 -0.9965480767433683 0.41049465522707984 -0.5607614815820774 0.3752595388038611 -0.1295276182731775 0.9755282246378767 -0.6317761312497672 0.3668215059496758 0.27899295978555494 0.20940100273143147 -0.5168973993786135 -0.736074829018941 0.2905963830940852 0.8186795349659726 -0.10330828830538996 -0.5377971209010295 -0.6357601128346089 0.055547646557722485 0.05726113404255884 -0.5089995718396254 -0.8103597244066449 -0.21690732363653753 0.44707519780032356 0.1257066158135287 -0.16459845646617555 -0.8131532522622096 0.19146346064221054 0.04660374221430508 0.7412611441179235 0.5989147860204524 0.038208452273230886 -0.7473104673178084 0.40265547928107703 0.456351487372082 0.6566006889055906 0.07420633982010383 0.3857149406856888 0.4710284236716944 -0.2673648100266792 -0.19256702512570256 0.7434145781093138 -0.09347734882253889 0.2929967797937558 -0.8583172843780342 0.33859234865501975 -0.8338410684225461 -0.21281018213261071 0.47828231280150124 -0.449636402628915 0.20860610245686773 0.12335818188505132 0.42134315403237244 0.1019010544612795 0.5447194762464749 -0.17182215094052178 -0.25445338179194854 0.05870107548101289 0.09768578631006974 -0.9458565235161598 -0.45141308241662603 -0.3762742576522473 -0.9590647807246309 0.20402654434940093 0.09175142014439897 -0.9943154972537835 0.7182723425861421 -0.5885157611253755 -0.5406525654086165 -0.7829310062214081 0.15823586668994016 -0.16188395858739502 -0.24321270950599883 0.5769048262337797 0.186124240570696 0.2858481863523177 -0.7842720621926473 -0.6351955253327115 -0.7243976666869958 0.028717170612941212 0.4474289715840787 -0.6033723874071859 -0.218530910890814 0.5960495215782815 0.39006141836783215 0.9320325682533446 0.7078574443589398 -0.6403957901384156 -0.04007527869544614 0.9729000693599184 0.6788562310917843 0.5475231778555072 -0.41567471416473323 0.6707603809525171 -0.3671417572825051
-0.39280458211254365 0.6936997792803798 0.8807303158053235 0.6738457597765035 0.6927792744481047 0.14011827719124725 0.844290281761424 0.3300531609653896 0.3688564542439887 -0.7137382952313114 0.7034748022796173 0.3335863987321033 0.6220291054167755 0.8278108143212786 -0.035705361751307674 -0.07235332261950544 0.3854085580833937 0.8648242582662107 0.3171285745121355 -0.7206501197695483 -0.894953323940221 0.07577604798165005 -0.25264167544175264 0.13289123901217637 0.32917902611313643 0.31351053588954514 0.6235317162815028 -0.5893160418784664 0.6966580901711452 -0.20388145406730485 0.17460618321802723 -0.3301719275384132 -0.7630706283414199 0.1417654790241205 0.24574610802638275 0.5755145758394042 -0.32089951653515936 0.12248843286116218 -0.2537115575172382 -0.34189333615715145 0.9219124913463987 0.02658910002124726 -0.9795088857608536 0.39377810334059005 -0.7792838699211739 -0.7749690372662941 0.43111188251768917 0.9698931128626258 0.6822569817887751 -0.3459592441268653 -0.55346365977972 -0.9540756003141588 0.8663666305052462 0.41607425782181506 -0.9658968918441453 0.6994077690119462 -0.4615690007234279 0.8289736604047633 0.7729709436845518 -0.3219380310680766 -0.08013998824747492 0.799165577914841 -0.8200942544811762 -0.7850973765590157 -0.032865984993516006 -0.43357175229530887 -0.8828313346527279 -0.9599216678534375 0.48162815675257664 -0.48589981469771204 0.740864219730565 -0.4337968004970494 -0.6064399945042931 -0.2015484177511102 -0.8700969582501319 -0.3717531876304738 0.1798552750594531 -0.4718918847641125 0.03068462511524417 -0.6738360030925334 0.8242417393864356 0.2028459203948767 0.48205869537768065 0.34523696929087877 -0.9677036699613315 0.8698772118998734 -0.3277373805889605 -0.43734203475671807 -0.4601770775767653 0.6599628870048717 0.998921686220184 -0.7827798248437834 -0.25100043541634465 0.3884011214562131 -0.8164371564944619 -0.6490671886948545 -0.07305514236903177 -0.9713693243060042 0.9076628783841147 0.9511816580540184 -0.7812009700888436 -0.785371600710381 0.7938646004272814 -0.6230792021731741 -0.4623048758465851 0.6731524433054297 -0.18567461306286015 0.6111192520209452 0.9928629074652235 0.9183419842853655 0.44724758685256183 -0.3927555040769808 -0.7848426636619978 0.83899222159841 -0.2750197943405579 0.5381764139832304 0.7209498092876003 -0.9784469987592874 -0.17010882543930972 0.5867949182891532 0.14657488316863154 -0.4174528064496743 0.81690040569777 -0.5509537233456328 -0.8319727038761293 0.9304484957070096 0.877571488257781 -0.012545096537331046 -0.8312258985055709 -0.4517900509220294 -0.7721828246849165 -0.07987299196692965 -0.46384309841642946 0.5518054212078676 -0.6052387385211113 -0.4380296620723898 -0.3286292978033538 -0.1478451138024477 -0.020683207395461478 -0.9743329707078783 -0.6958440123660263 -0.2709410440824387 0.8385240607652094 0.9089290877226925 0.37840508522687144 0.296225977600155 -0.04962979531025269 -0.4703062792078936 -0.920738500827557 -0.01785607745254647 -0.11745546485906888 0.7697657139379559 0.028648663810265873 0.6002838292809094 -0.7174813892286032 -0.15596672660325428 -0.6251805912551931 -0.1472980908549275 0.4930037718731244 -0.7175207458776645 -0.464790529761973 -0.11344854909520108 -0.47714864082763864 0.6105054397545189 0.2457745148360735 0.32669580897976536 -0.10448701119465498 0.27498466112749 0.17716996934483076 0.6745054869863483 -0.26680081753608853 0.28271843216179704 0.8676914038759418 -0.9878541880754859 0.507563819284546 -0.8426447499338785 -0.5534495299218543 -0.07391658846392946 -0.07826857016613853 -0.37875072914444985 -0.054411479619846714 0.8827557474401688 0.08837223186785548 0.1484707652185362 0.3875017288796574 -0.9689086954790562 0.49140183026105455 0.3211377550336467 -0.5293639208536121 -0.803531158249031 0.8489641060907491 0.4358923029271482 0.38787092751064023 -0.6149916757621747 0.731490618839076 -0.6235911386034736 0.638319322804775 -0.8989577708265719 -0.03529633215962158 -0.4943849387886434 -0.007616109227044143 -0.022629806196085678 -0.8415956023531446 -0.14754545203573843 -0.9094058801279796 -0.884814089313853 0.5320850961428245 0.5698360396431974 0.26023017507065105 0.6404962157606715 0.011390221016375657 0.015813248707165384 0.3221983806192663 -0.990417118216679 -0.3376866630425168 0.6558861908653273 0.9270733179754591 -0.7098105320033916 -0.02513900448248685 -0.02553670705470057 -0.4739859513479576 0.5335396134761974 -0.01274602037343131 -0.5465490889611531 0.050155413252946035 0.911908295753274
-0.14928093913816243 -0.6929070858501105 -0.554561891088238 0.0925221950523698 -0.27324868380366896 -0.14563876117702867 -0.526076051493074 0.4271026677509586 -0.5552977084075876 -0.4283935093510469 -0.3394874779545052 -0.9694781828969499 -0.8999547711132361 -0.7787851517326312 -0.493548456359574 -0.857110678927328 -0.8745748944003553 0.7053499267716361 -0.18693296348974164 0.5716289031733657 0.026132619803116208 -0.6045931803224294 -0.43505757105280485 0.03034723264780448 0.7651850025922047 0.280245887303457 -0.3335829349737873 -0.5817893891450161 0.820626604015362 -0.793605844839113 0.39904559972760634 0.5401509434053171 -0.5467311632609742 0.8562583731465956 -0.8171639037526193 -0.18828427117715307 -0.7187945358493493 -0.027778877185519635 0.8790158990243548 0.21883886861622903 -0.939803078641084 -0.9499496427016769 -0.6074595796118181 0.7923744389632033 0.14514020472152733 0.8326142880734773 -0.7518986177076179 0.13416357690612846 0.9583437669598989 -0.43320260023954105 0.23764485073492536 -0.8521616272571684 0.7984057493527785 0.6532726316838204 0.8013521305558289 0.16064286417604778 0.3558432115293506 0.6378728873150261 -0.68610983990071 -0.9980041475765202 0.4053151142345979 -0.30868444610512946 -0.710554672945964 0.7761184726754502 -0.9356764990103805 0.529824401460155 0.23610808844452036 -0.46864856492063 0.5022605366941693 -0.6589899661075618 -0.5789913531080688 -0.1312928508643041 -0.8188846315560065 -0.7430464879594525 -0.6667631687846927 -0.1675025978394198 -0.18301601349015462 0.7501856882213942 0.3015220448118785 0.5542801793110166 0.8952158802927077 0.43327834242384244 -0.43097265645197 -0.49592964079626367 -0.549895823072813 0.8436673846448957 0.5507443429464645 0.5219039401997936 0.1676540301430467 0.42364688851203436 0.27604803772580677 0.8399201165252745 -0.23338590769483925 0.12492263041090146 0.4300939712953722 0.6670297789670436 -0.49498441008855965 -0.8657671425464182 0.22849466872045876 0.04086826638411978 0.7661684086396636 -0.1660943842333127 -0.19979232304889627 -0.9353480791000417 -0.15112485960823396 -0.5991757050813269 0.6323920567828663 0.5091210126815084 0.20975207316460276 -0.11873126344960405 -0.6878919560863856 -0.34106406193873195 -0.35393362938991824 -0.11213239226484295 0.746624236210192 0.6266974262689446 0.15008065183800356 -0.828010593187831 -0.17599694134683963 -0.6173667781990602 -0.44363940071107266 -0.20463071631405527 -0.6422077624618845 -0.6791128517960083 0.9546054081227378 0.26687781392257937 0.9086970310977682 0.9012031077753249 -0.870652532973589 -0.895001386645162 -0.22428341035795674 0.01670063800080701 -0.3161221911592853 0.5095769494223308 0.049418390390873146 -0.22836442406358914 0.2896915202736905 -0.5561474932791266 0.9174692719080069 -0.7849106533205219 0.07473051327712898 -0.9951453358786075 -0.8305846603215266 0.6577014888256827 0.1937115678332677 0.8751117014984773 -0.8471053330340355 0.41804889286370783 -0.3997627520564102 -0.6175070193471996 -0.2821221722763325 0.6776252062036865 0.06518539327103512 0.8988082463880529 -0.09437872285185067 -0.18833357534289363 0.34592973316602893 -0.9078803967285738 -0.5024128824859224 -0.014704263751546431 0.6920085470086235 -0.8415973289799312 0.6690503661564382 -0.09427214909103276 -0.27433860637029195 0.28733018619725015 -0.4453800540079278 0.36090761864271714 -0.43764050058408 0.9465009054312483 0.12797100603496991 0.7514447875464254 0.16818583450015923 0.5005333986295333 -0.8446851895999201 -0.02232345193744667 0.29697426171558305 0.15286525045087362 0.6949732185574182 -0.47417293947503825 0.459798921705161 -0.32782773452911473 -0.6876846357096695 -0.705187915844566 0.5922022151237776 -0.19111074384609417 -0.6925863432552903 0.2318465293131906 -0.9854531019305275 0.7903347422119595 -0.37307641885355625 -0.5869875855340756 0.3237555374612173 0.8481479730836978 -0.8724404385827389 -0.7964556684193016 -0.7882683614537012 0.024835907869572793 0.18115557337855726 0.8219317267602186 0.6521385103825976 0.2299464704284877 -0.7196664916788369 -0.39434728176611467 0.5634612695933503 -0.6487065687239288 0.5998899727839726 0.6569965607254182 0.44077376119668177 0.5611515997892256 0.7778432039822798 0.19485564463248006 0.7550150637725692 0.09388365757379757 0.5993777325636505 -0.184573417599738 -0.4512056016414163 -0.4013215078088599 0.8582860305055442 0.8069786087418604 0.19009524363555474 -0.6447861513956061 0.23104471507346092 0.14459771803638488 0.7221190587291255 -0.29264458191683906
0.6778026157613672 -0.047047666606812255 0.4140989068886096 -0.020142386433789294 -0.299849224223818 -0.6913136309447792 0.269106898444873 -0.45668388628149703 0.47468846510936014 -0.4780750021072304 -0.21104939520836608 -0.8941557437067207 -0.2335693753754935 0.886998701495924 0.350087340807123 0.7246549940970359 -0.7842087708768986 -0.7614992458232235 -0.09756162254393397 -0.29555971035918827 -0.7843655005262082 -0.5171681767247576 0.4796938204126271 0.5096322229146795 -0.6091850784209321 0.6132045497697616 0.14192675471335492 0.839466976718056 -0.9976286595031658 0.0659607134433986 -0.13465251664634015 0.3393330683077058 0.8998520164406281 -0.7315599842578306 0.4530479257784279 -0.665542711003539 -0.9855149566943018 -0.8423538025820316 -0.9548418727832748 -0.8573117207517862 -0.7908956168049399 -0.18975035327719536 -0.05983410617011775 -0.3582676355339036 -0.006349682121029598 0.7209093615506759 0.3507634993565094 0.6071017084958936 0.014167330251099619 0.6000081411509819 0.7985563935690811 -0.9162900144089907 0.553363770085622 0.6347061480123879 -0.13142750696375072 -0.12154073852463276 -0.4143246169649668 0.1561783643308552 0.33068913503513775 -0.021155306794508055 0.5275687334993353 -0.13700486903475428 -0.5165322675652411 0.14729077842957783 -0.08820892598673691 -0.1018775118156019 0.7873044386490149 0.6014520512990249 0.7602648542203883 0.45248603078737326 -0.28163903300812554 -0.312595374270799 0.5367241209528164 -0.243846333573287 -0.6515857065007271 0.6944571321103041 -0.08908497606626176 0.4115994203835458 -0.2484901839639937 -0.7193113477955402 0.6246897934053746 -0.6603504201383767 -0.5013501443794861 0.06275598468236643 -0.38552869244420895 0.5311036620188561 0.961681779286397 0.20186632450055542 0.7544912953605498 0.04147324085756998 0.39683006733756265 -0.40745483425349716 0.9939517748826208 -0.9650193135618592 0.7923562412143943 0.41017298909496147 -0.7712307952170749 0.15041063023912216 0.8363935588904485 0.3574569470532756 0.04679851406979019 0.900775698631314 0.7487632755302522 -0.8050826140444112 -0.8721078334285568 0.5379849603549769 -0.6651337815161253 -0.9896768551657367 -0.8214077750170021 0.729618897431555 -0.6815014688196308 -0.0006570861449231025 0.1391864205570359 0.20489967371073514 0.5024640036152479 0.7164706923253421 0.2688516732250088 0.34609225479104766 0.5132592156644957 0.45516189188760303 0.036102165473383296 0.7486524817875384 0.42385062244586313 -0.9966926960398739 0.9785356428135423 -0.8019052457901625 -0.5198646828972371 0.9770476627584959 -0.4125130692144934 -0.6999382208596157 -0.7075264131993393 0.08140407687437912 0.7427821725747501 0.5858843104034621 0.37227311458002643 -0.7760784738988997 0.46534883824562256 0.3052902358973226 -0.8995288586005477 -0.46258839661748397 0.5152749928110625 0.3415762146495178 -0.8676427827765514 0.32958982585776586 0.5516035046021455 -0.09770851142102677 0.2855437734379418 -0.23489201208050714 -0.41600771627921795 -0.45367060638875256 -0.6549610455417132 0.48686969455487383 0.6258659306736887 -0.2614777352219424 -0.43621368260432636 0.03363109441098522 -0.7453039211508248 0.30019541306586284 -0.035446036661370695 0.6428408541777797 0.01036585413954505 -0.2227967326228819 -0.4155193530769712 0.4544459373776846 0.921615300211825 -0.8116350452255128 0.6034777293166991 0.06027111176177624 -0.6582765410128044 -0.48649717052892516 0.8711741892209524 0.9102316648475146 -0.06899479290550548 -0.009322822576579126 -0.8565006109477848 0.3107768774756814 0.12045671193820207 -0.4876842560872441 -0.953700131311426 0.9718730325293632 0.21421684015083176 -0.7881842840061406 0.6658063067549147 0.5869349593673037 0.08363259594609485 0.8532493441386455 -0.36736520061653133 0.1693858638539536 0.283554881976239 -0.9783016202974057 0.4866415475848609 -0.8024890866934467 0.9818628065779187 0.09655280031534796 -0.5897666490931399 0.7610508099674453 0.5608150851891438 -0.6024867919494239 0.9584447791036439 0.20021154011996511 0.05630693433107181 -0.6431067895049654 0.1284353997901022 0.24781597517587906 -0.8796914922778292 -0.13521688186598357 -0.6149769108505194 0.8863614890669134 0.9982023691500406 -0.34495148176778656 -0.18967839994008906 0.5857485418494137 -0.4911448230789268 0.7323160723542612 0.7844817236690789 0.04927756856411292 -0.008924557430176394 -0.3649189763916607 -0.5691476294896838 0.130867386670926 -0.7649917581479362 -0.35399185916342923 -0.09718855037110985 0.4826909835889659 0.6094229047081614 0.4951929613035988
-0.7897030093832087 -0.3107796515572889 -0.5775691591553882 -0.6392985322230527 0.8043329162270592 0.26716104886240966 0.47874330743652993 -0.10678120049620832 -0.9297600932094261 0.42511852419816987 0.051979049491562845 0.2151612798467213 0.09589856516272821 0.7410482158374803 0.36996284467076124 0.8359623121341426 0.9032030656723016 0.7099817610521011 -0.27290863164591217 0.8299958850651639 -0.2742212147952332 0.10804235316277744 -0.3796171353366493 0.051394177619838555 0.6247942490520095 0.2548518097432497 -0.15732074851385636 -0.8634253483824008 0.5399637138345699 0.2531306590657083 -0.3565901445338002 -0.3768973283991841 -0.9246632748707255 0.14391170558688127 0.9973291404034228 -0.1666338910144325 0.2830642915449779 -0.8204684107986739 -0.029134200638095464 -0.6099593913491379 -0.3509581460112141 -0.04512076024323752 0.27925781500061153 -0.3643087251083861 0.37023579316186894 -0.5989821590911295 0.8643921722243422 0.20366752382533426 0.0007439819205767861 0.7317634247069644 -0.9051865927967013 0.9072536426235418 0.04239383137341468 0.7046743504855268 0.0059815033908618975 0.36987348341446014 -0.7119487199898966 -0.451851890412273 -0.21660499831577118 0.2322574633279939 0.4765638787040942 0.44390215223131846 -0.8107117704026408 0.9685612684118365 0.8006785814992659 -0.2032353481798308 0.3721769257140646 0.026998735908389637 -0.3006491909561 -0.2587886962634629 0.10223314658731097 0.45043159587198023 0.6829543930599151 -0.29157190625726503 -0.9526747773158719 -0.643989071830424 -0.5816360304093615 -0.8325143710418812 -0.6870086840184106 -0.9212770625280986 0.4154669731729237 0.6272132057087889 -0.5772713528885172 -0.9254045488572131 0.23862182523256048 -0.774731375386152 -0.6923836713595455 -0.4091508851187493 0.8467469719011131 0.099274478899823 -0.4253020797479292 -0.20240747735679365 0.7999097707683136 -0.34621437646132813 -0.9336928568249323 -0.9816733786031451 -0.317572674527449 0.42086080302043594 -0.8212417172065725 0.01115743144826098 -0.29816130967046206 0.5246248015513375 -0.27400225587912996 0.8837204555958575 0.19471695235695652 -0.8361534451027495 -0.3869499559193017 -0.6218232418840619 -0.7327391266345811 -0.18747728183274792 0.5599952525610834 -0.4389936874241913 -0.28941925340928476 -0.5300588720433435 0.73436532854476 -0.591809111759297 0.7181183794971182 0.4446570404245249 0.4374303337477907 -0.048447333176071083 -0.32556782147136065 -0.6837083205240866 -0.8487379319263 -0.47403716234590987 -0.5682504745822257 0.18408119734447137 0.9700730135248354 -0.40661859205644935 0.5006758329968095 -0.9593974307865849 0.42220866490508957 0.2967970847137902 -0.3762044171563095 0.8323089220214805 0.7668762137864396 0.9064878065957431 0.3553550890880457 -0.22179123445126514 0.6693401249866904 0.5032362455774471 -0.1532673560566078 -0.8401282335201867 0.8250630278228361 0.009192321622750743 0.3675854974431396 -0.33763003328829333 -0.3365460559932678 0.6848789510275894 0.5514749788468243 -0.6363784560825341 0.7690012203305225 -0.4974008890157742 -0.7698044538483519 0.22239027378062004 -0.2216842220099613 0.9446947281137472 0.1919128933872687 -0.9657659313592966 -0.37454403634509714 0.21148826054685554 0.40760938276029424 0.5284708526394262 0.39198027507099753 -0.8704643278381239 -0.09268204586792472 0.4896290500301381 0.6920520191796931 -0.3244025615603583 -0.07081071939015504 -0.5009975178290924 -0.8739659955065777 -0.6239437983795022 -0.5272857396361437 -0.23549105978373785 -0.48661869482493936 -0.8509318658906331 -0.3722053101499181 0.10996501531018321 -0.6807225713535809 0.440753531282696 0.6964979055987033 -0.4365193637221254 0.4318129926944445 -0.5458053348416438 -0.6665116483601019 -0.12603617383592391 -0.035507778123166966 -0.24340487487174878 0.34762575147284913 0.4584939862288153 0.8051358179223169 0.9446660830808304 -0.6032572218326973 0.5941693842133953 0.596224350436134 0.15612105070814497 -0.10186883826773485 -0.14684382678448227 -0.04739935168567344 0.8209099449421069 0.02984811908325935 0.5463009078536372 0.5880275923939695 0.11518808801258973 -0.6578864110051419 0.7376627839643664 0.9757625639384646 0.28387889038506864 -0.9793372308429649 -0.5391767186395868 0.039928938393131386 -0.44249778721308153 -0.4298282039436263 0.09101701556774455 -0.2655084132653689 -0.1322505799810083 0.5902217963092775 0.5166659739197064 0.14291987449115817 0.9089525342115021 -0.4279085287704236 0.8021365248464414 -0.05519229022248706 0.5214517247545767 -0.34785511876934505 0.042159165230428064
0.8665851088356527 -0.2412072923045705 -0.4102881751534939 0.6290340263126744 -0.29772210600711846 0.9403741455861219 -0.41783287818334514 0.2891866538450454 -0.45697667686698784 -0.16602389916511595 0.24499653855532788 -0.41240142667470625 0.5684270774038709 -0.2711685208664072 0.9375281562396034 0.35076148102924876 -0.4782457857843285 -0.7314930950112177 0.9677288008220584 0.8713765062771186 0.34885507841778196 0.5068457656105505 -0.9275085403775156 0.5663699594012543 -0.860731456374412 -0.06011570628992269 -0.5825363398589101 0.527500902968453 0.5302623526713086 0.3462377900365148 0.2353538553334742 0.9905351972758076 0.5164584443213345 -0.5123341093444795 0.2693597330405775 0.8559749213367585 0.6246095822032944 0.00885733564814939 0.7403641131310812 -0.5906721715634762 -0.32487307124362963 -0.6136614254471959 -0.7020398280496924 -0.8155723366112946 0.21798418745923276 0.10641764048783187 -0.9379925674631646 -0.8718865255191319 -0.05218452400299323 0.5607780486574772 -0.9223233318118693 0.10381938369329458 0.9469707473477136 0.4221938625282633 0.27204212426793895 0.12872629759520327 0.6170600598947527 -0.14638339250892485 0.8362789901036671 0.029553496647864108 0.6197350368845078 -0.014385550008429338 0.8258498745354896 0.08693211091343755 -0.32746410482666777 0.8856914982385087 -0.6281191502725687 0.00694272575401178 0.789156250197028 0.3307903141577664 0.8600768610726701 -0.9574641123896022 0.6302721677036813 -0.5984370723107781 0.855670317700697 0.6630265621518507 0.5877752065358892 0.24788956689497987 -0.9388485569617029 0.448775032714712 -0.8148296246406812 -0.5774602768820238 -0.3934583146093582 -0.8009918417467914 0.4325984937750418 0.6008779641376853 -0.932104151301675 0.8884051917285163 0.5290802697472019 0.3102663266702783 -0.86262899652953 -0.8102355287227923 0.46548724483313175 0.5488283789421637 -0.09801182756872295 -0.8258636637077699 -0.5164558286412009 -0.97019223043765 0.26317967570916934 0.9495086663109373 0.027091134187701593 -0.022222519698301024 -0.41121897747504965 -0.6930755537135918 -0.17392152165042507 0.577241047028149 -0.5064220176242977 0.9133077247092232 0.3412122699311402 0.4176145430368441 -0.8192309812634515 -0.1684067775957825 -0.5154555533025369 0.7206556636768695 0.01803917335107319 -0.19604300803857244 0.864811106928369 -0.9117148806630093 0.13526273399929156 -0.42347591002874463 0.06801369768632304 -0.36003528463531675 0.2884527537543331 -0.326494062901054 -0.9513696373611764 -0.09697735892275383 -0.8977591937694711 -0.15068544786087368 0.15997607140981263 -0.308592599784018 0.8170969099254846 -0.7406000264503312 0.531796217466264 0.9537048846737615 0.3181805764095762 -0.15747667381411934 -0.06267303423203718 0.22488191423375103 0.9223391863004862 -0.7469268908683719 -0.7991326674013564 0.9709579886450421 -0.7035209240903628 0.47900849917987465 0.3921624452923782 0.9447939389776119 -0.18572580736365363 -0.7140448285678938 -0.6189763822699963 -0.9087905216633909 0.04912174696817306 0.7862973036913701 0.6242171375861718 0.4543042354687372 -0.5758484398111932 0.7253699876247381 0.26742023952270344 0.7451741805616325 -0.9792067943200251 -0.31824641954925204 -0.016142968522060874 0.01219066971554228 0.000996118933329404 -0.8547409281463849 0.4252064958949311 0.7715918205114134 -0.050036878298141296 0.657702337245625 -0.8950355095563538 0.28840811069704153 0.8671732594973014 -0.7638712796725924 0.3962702403622973 -0.4132097995652353 -0.7245905283438345 -0.3653715510463076 -0.2883564618113583 -0.7173292427937568 -0.9743830955729995 0.1285555698199059 -0.473749490018714 -0.20374616035127668 -0.6425249931618542 0.2574124836616838 -0.8511399511256665 0.8280085920622566 -0.5539294722683865 -0.27160963246349135 0.7093043321055659 0.588999532037578 0.10962451119072436 -0.2550356396108171 0.3238165249034579 -0.4552804718833383 0.309207224773151 0.0488089123720048 -0.7564939683654304 0.9373375645562232 -0.3282144360691486 0.9544928225096327 -0.8160264806345823 0.4537115180635467 0.6589195159474468 0.6921289997879403 -0.0153341693112925 0.6711844203330379 0.8811241676325772 -0.029211469761998954 0.9532265822421524 -0.9790040442077905 -0.579012561640478 0.16868761338491356 0.5224687522350653 0.14451803359810733 -0.7239208992902544 0.5500220385538424 0.40935922540041925 0.06442521793086331 -0.02076584010411442 -0.17594038379308308 -0.2425482845160678 0.19540331050993442 0.9859446283675573 0.059536072992889544 0.21129241804827203 -0.1398727415334613
-0.32455371493123075 -0.010387320980080883 -0.43664128270113167 0.4678806567819196 -0.5307789343923524 0.012552386640309221 0.2704868025262559 -0.9481387069597751 0.04501424112536356 0.9331699061283036 -0.7868389069949095 0.6096354692423593 0.5606950005237425 0.22534841737832334 0.43179163107519414 0.36336426530040433 -0.5745525994853746 0.6226488161362758 -0.26368630300455465 0.38436542225250325 -0.731656518449084 0.6030555302538514 -0.14441287739853959 -0.4526996672071537 0.37211573214005766 -0.3205592853582304 -0.16439776180431975 0.6065717138113551 0.9174493231304679 -0.9641675138572621 0.8630996250657637 0.21337962163439905 -0.7995504336052432 -0.1368650302578922 -0.9671817865572068 -0.19323579932137558 -0.18664353625707308 0.4417877779153023 0.16817385640757565 -0.9026080860406724 0.07153673718616549 0.3050895781638383 -0.9700333133862413 0.5300086482678805 0.8810558429301933 -0.12111448554924431 -0.014585969002571364 -0.33953573810144233 0.5809218571963342 -0.4358694542277979 -0.001211750665379041 -0.6716475820662038 0.37872003250028485 0.746704379729795 0.6129072864761449 -0.1248604792907615 -0.8514287898238104 -0.007229830299942508 -0.1323772354417425 0.6878744258078988 -0.9027095572844035 0.7325914243676097 -0.29980666578003756 -0.8631503391443185 0.802998511904568 -0.07626062452839566 0.1646860628678144 0.6174179548852947 -0.3337976360483137 0.3876712345991564 -0.09466723103262464 0.8518271937248512 0.9819363334140474 -0.9921873179390646 -0.20117222484872666 0.8475858737926574 -0.9974783172343331 -0.6939509831753357 -0.5170096722649382 -0.7640000648738219 0.7787700786125604 0.24074940922382182 -0.6322057896816011 0.3430502286089947 -0.787255995676434 -0.08790910259365625 -0.24979386735573805 -0.033490495436774737 0.5374513204237021 0.33421635007999506 -0.5365781180075226 0.7477881400039066 0.8319405869104939 -0.44120195614127544 0.8860502394793548 -0.2046105516973129 0.3673643895936527 -0.06966211641150322 -0.3807062715617826 -0.32106232891446385 -0.0036973806501920947 0.8783118148054427 0.06637699405140829 0.8146491837524197 0.25137538670799375 -0.2972628956812631 0.3700742679514042 0.8617604698855816 0.21796762153918658 0.5779987988330386 0.4262818541237656 -0.7794108989177646 0.4741411193531224 0.46649400718284517 -0.9753764489342427 -0.09423683808539307 0.32526859778190964 0.8206244597320786 0.2580379867921456 0.642289776722716 -0.7621771296345328 0.7157402942500013 -0.28721991285575044 -0.7657505273952379 0.9006670732766657 0.8614014898473001 -0.5357326789540306 0.1653470777880084 -0.14194790450092754 0.9775876008439077 -0.3659805681315038 0.5974934530163649 -0.5544793514590045 -0.31329660063986076 -0.20390496530986968 -0.6927637345276725 0.9703875509158975 0.721644851757151 0.8536862888721162 -0.5180767322431508 -0.7015934004089406 -0.7127011894932556 -0.8610441573558545 -0.45593070739904307 -0.5403149028184555 0.23745549035022795 -0.6486717505218536 0.1476956611898259 0.7211105844660277 -0.37721456578860724 -0.8966362681492819 0.24733764713027728 -0.809278778020726 0.16704897340763303 -0.9815316445123503 -0.9120517984768759 -0.48612318256732734 0.9603512319815275 0.49558782186313954 -0.6114296586520116 -0.6772455834984605 -0.2436984360233736 0.25881766665604866 -0.8934537295902523 -0.7044798100088385 -0.9673698726778786 0.969463189905001 0.6831903720288335 0.3275598852620718 0.8804058572038875 0.9737275814083626 -0.3937871164192548 0.034303443984954995 -0.31985183036463183 -0.8460636478321844 -0.24425208723686564 0.44989589598054613 0.8655040068245086 0.1695266591658955 -0.004361810945250122 -0.7360545016386921 -0.9323055748893554 -0.7193558740784776 0.19143170747171623 -0.8166052656480216 -0.3796496663196871 -0.38148540964148414 -0.20926456322419718 -0.7727348676513706 -0.9981132626987392 0.03223686961925165 -0.5708000867682059 0.5345396143160932 0.5972268423984861 -0.8266564983437903 -0.14221259158643385 -0.38719792809579356 -0.28809337892975995 0.68716070672113 0.749039301728968 0.4248723636803591 0.09154693661003921 -0.8021094938625299 -0.09571893091637107 0.24178501887158155 -0.5492163473030318 -0.9543811754305709 -0.7075162266942288 -0.6580617571230649 -0.8377458748530362 0.5332011428885262 -0.527716533728319 0.6959157167350143 0.5426559023834197 0.2642010738709182 0.4950119601358183 0.07723129375664017 -0.35684779709283077 -0.787517760690019 -0.10908957174539125 -0.5672900196937967 -0.5783229307344062 -0.8719723277213494 0.5633305493861454 0.5493180943237228 -0.5523437907449751
0.8712554038758891 -0.8858811515392662 -0.9672517327439318 0.1277317116821579 0.7013238192505562 0.7441338969220297 0.8355527510497007 0.21706059266008082 -0.6088014354765507 -0.09509190780985222 0.04318287797156839 0.5508560499966693 -0.7472286391687168 -0.2774515246802427 0.54614086566859 0.9202759452409026 -0.7815171911347583 0.4551306874834491 0.8916398142986388 -0.49271409386093246 0.393036568512668 -0.9162479805749917 -0.809597112029629 0.6180419945486753 0.9731808034993239 0.8383937854995376 0.8034030960592289 0.04572652259859278 0.7675468831834942 0.35832133356896945 0.5232057862463935 -0.6483659655959928 -0.7272301635921599 0.4948956525647219 0.6941994823484436 0.5791894414030474 0.9915952871530385 -0.9807110666515066 -0.7868521289127757 -0.5101493128378956 0.8190769667237234 -0.8693157496377626 -0.1578155991591108 -0.047576812174947136 0.6287296338856561 -0.40764968305852656 -0.4954705242781583 -0.7031907450911465 -0.9554315942022116 -0.16346491066719593 -0.2504405094821185 0.14867259625989981 0.2231615045372779 -0.6178459207176665 -0.7024609502894064 -0.5906150824920076 -0.708630542628867 -0.5307107630431607 0.1908545791959757 -0.8755037582625231 -0.05516450691296959 -0.14580313740965045 -0.22555303684760064 -0.7817836183134967 0.8246803917431846 -0.5127742789241301 0.7950268825343612 0.9457705033235899 -0.5644671079299217 0.45636272372915165 -0.5613486099916112 0.2247785306547292 -0.7246497994344656 -0.26512237238818304 -0.9421302861948149 -0.8728400452181788 -0.36063797825700616 -0.34473335072867006 -0.3863418353059982 0.21624536298221053 -0.3617699652258972 -0.0007673029760819627 0.8112984469740252 0.3198360791697896 -0.5908833125279129 -0.40326521695787254 0.5553735233129178 0.221095350377845 0.9057592265192704 -0.7538056442345058 -0.05953168090976502 -0.32290786866115595 0.8957324241540308 -0.8338590723264874 0.1512375387877518 0.7613261509759002 -0.07810176041795502 0.09890143973095378 0.44186242614068627 -0.2348938349602876 0.7338384660830175 -0.9867786275514974 0.9783692983595549 0.7075552538344918 0.03708326383236171 -0.5200615715030237 -0.14890549124005958 -0.19937342880423503 0.3757509772612371 -0.8812299044626621 -0.6327363942946214 0.9399184585429337 -0.6642542962599085 -0.3074063944401144 -0.5716735417568173 -0.41131022451975374 -0.4134522729868033 -0.7048594977748399 -0.8268174771482855 0.3631430855893698 0.6551639313095265 0.8209301481068054 0.4035077402612697 0.7927966943454416 0.806219327689295 -0.8163524987486757 0.2670962712418965 0.6171829991460178 -0.4522331818345797 -0.2169304135572805 -0.702638563109806 -0.5165758168834691 0.31871020843669884 -0.3511252349088805 -0.9100477440713746 -0.19061987817602688 0.9559438546777828 0.22571351930389505 0.3424573387424439 0.28785862404235196 0.45741019830933305 0.4516803338732809 0.7577990119340887 0.35293179426653043 -0.5822096688522551 -0.8160018958276387 0.6995990101920058 -0.896885004407334 -0.7755572587411328 0.33571209901920307 -0.7816440465856929 0.8461396363809237 -0.00814961921797086 0.7338528588142852 -0.8382742441800071 -0.8882915852723727 -0.6610432872982674 -0.3287756081500455 0.2653219729223617 0.5348593557494725 -0.09542288133430366 -0.3150836892929041 -0.052927518479180424 -0.4365364217893264 -0.3502064386088126 -0.03477961078711611 -0.028261177151003514 0.23261482675157397 -0.07553093364723029 0.02017792696753018 -0.9991813694697289 -0.16316311990927912 -0.9700044991664938 -0.3647825178044566 0.360877397822859 -0.4573533794602078 -0.8414123980850241 0.8761508317730149 0.4822467247838813 -0.0950073459451497 0.029198323650277525 -0.43382263547034317 -0.624115320624322 -0.8610780684280894 -0.8657025242755598 0.02150415176142184 -0.6260883317362684 -0.8071348474493867 -0.2418179244682439 0.8064987549706908 0.6690268598876399 -0.7005038004536401 -0.7053196219582458 -0.6572520087000298 -0.3087789594758894 0.8577271782672455 0.5711300041579539 0.3468700950382704 -0.15431126092005742 0.329317784301417 0.8859915373193643 0.7980720943216875 0.11253778595221275 -0.8947544657995778 -0.2638384027425318 -0.040635859175474076 0.4167201345020404 -0.9687651046928856 0.6872088289389293 0.23188153382849142 0.8085367701423443 -0.490542229474064 0.5222883045983564 -0.09707634206060844 0.21793360246097349 0.26462389280365106 0.7719218920851927 0.31132848178743133 -0.7229135530518467 0.41401339900661793 0.806917990891574 0.031269519940697155 0.7494905897775206 0.9049102834044969 -0.3866406779436147 0.12358192761313425
0.8138342189804773 -0.8066400021266269 -0.5239436702671452 -0.5003032749564842 -0.3451254215206927 0.7338394002252784 0.22308136940793655 0.16112188524390203 -0.12011987405890978 -0.16455368923987224 0.35239165498128133 -0.97979435762538 -0.03074567076458168 0.4259175969693496 0.6186221428359044 -0.6473855240179169 0.642887909025774 -0.08270787107441069 0.4202477906276856 -0.09020862596332613 0.4792817422378717 -0.40454313948914167 -0.1749866749364355 -0.46839369782369733 0.43744852194088635 -0.4578027019062205 0.8962181132373177 -0.41292268497719986 -0.44068160338919693 0.3493693012865817 -0.4918673114321954 0.24850748390797994 0.41229134873397855 0.8649240948162156 0.5321840838783056 -0.238871507249645 -0.43885512451171405 -0.168450923545425 -0.949246353915802 0.8841027168473543 -0.013848266456694569 -0.8214325562117277 -0.6202953877317874 -0.8261019366739493 -0.8868151035170495 0.4067950485646621 0.5646570477187731 0.5126199024116351 0.5917479788506088 0.12300102342558206 0.107283957793185 -0.2665876331645154 0.0212611104581093 0.9836778390551044 0.8730632510869636 -0.9913707163460708 -0.20732104272366447 -0.6765922357713572 -0.4850085599643643 0.7525906743783466 -0.4222494733054263 0.8055242991646834 0.8710261462168571 -0.07812467481952234 -0.32640437982912185 -0.1420903334386352 0.9782262581329333 -0.8741800277364447 -0.5222247495124643 -0.06659841450683035 -0.3848362163279164 -0.15221753601173593 0.31409626196426466 -0.8283552168938131 0.002068546431823748 -0.02244824390617861 0.14532156040661826 -0.5505174620844164 -0.45213892960388113 -0.8260855062988033 0.24274745593311486 0.6632427990250238 0.03505978090197903 0.7521418259176542 -0.6450970165070256 -0.09183806175052656 -0.1417823517628649 0.9027856161485719 -0.26387802700817464 0.28962490664704954 0.2559109001059665 -0.37497705876195275 -0.012207768800452046 0.29460492712900943 0.9033606293505474 -0.9377202063368386 0.9861192173016817 -0.32001433068507334 -0.03945691892776937 0.28267806427412956 0.8258487511951522 -0.59757431623723 0.06466403760716788 0.7056090189767446 0.31714058211470597 0.5121202024670886 -0.48660791078979226 0.018902519975927623 -0.97202035911755 0.011049124775918573 0.30857161058335003 0.772829137541819 0.5312362523567222 -0.32571769310457666 0.5059962833419531 -0.391735984964658 -0.9430777975980105 0.3692826539696712 -0.24011688125232733 0.8340104893625946 0.048861758164921554 0.4523443789052768 -0.9933855165447159 0.39980783246200247 -0.4582042045377275 0.24135391188333322 0.22789022407291792 -0.42977500524086 -0.3578564386420493 0.5762293693795106 -0.6176893036395532 -0.14506959962206167 -0.4417119847847839 0.3167487394458466 -0.2588624809140678 0.21622932705701214 0.9166275236233019 -0.924788093019169 -0.548370269116194 -0.35002598447344213 0.14424188979367836 0.3520169156286088 -0.9433936062061998 -0.6996692014196595 0.6130140507759831 0.7364528007351236 0.815653303299603 -0.12210081271251982 -0.3612224335557357 -0.4048624363847537 0.4920989572036698 -0.7120453864521941 -0.7951499405171711 0.5705949412087303 0.9779153319329845 -0.1731850462949538 -0.7976121756257839 -0.35202229662998796 -0.31721454134124705 -0.4182869379837666 -0.9217784228342856 -0.09571757306055328 0.36893135459485826 -0.9078591993321969 -0.05255312571128412 0.42471561302524075 0.8873247887166782 -0.09367411037842222 0.339285451466077 0.27225497209688965 0.10231229399073882 0.3101091284703408 -0.21208032605998484 0.2288287997653351 -0.15906005320106975 0.857542389253352 -0.7984485628239737 -0.9897371251518028 -0.029515575217350154 -0.7244267846618886 0.13612346117214535 -0.8075458967774285 0.010161167377864988 -0.7711317862581932 -0.7038504471716376 0.831647574004722 -0.4088745222498211 0.7363861951407924 0.9503181866738604 -0.38974297156297033 -0.3689845233445783 0.5036508968408433 -0.4323311810321808 -0.9491081164818642 0.11997696772502264 -0.8431274484435864 -0.4324536588615078 0.04844038436410014 0.9531620448578892 0.8431734826401149 -0.48735838874539006 0.5534973009982884 -0.061878815508678686 0.08221860966760075 0.3569047946484478 -0.7029996086366044 0.21755460635084845 -0.25201019298099525 0.18110695857776027 -0.6222716093339413 0.8921681070318013 0.9837936905229763 0.7680373935007567 -0.5666778636800813 0.23162787933649254 0.46580941005338583 -0.5759851088401102 0.5086903293236043 -0.07931053107637354 0.5125581342509098 0.20931684276955753 -0.38858973868874425 0.25083560450535547 -0.8405440517023068 -0.6364704692105949 0.1795045623240623
0.7789126928471157 -0.45228199361494403 -0.7428347971004841 -0.12989200277951762 -0.25197229416064704 -0.9994221133821839 0.9275606012521722 -0.01918174971779063 -0.25948227585251904 0.7591145740795557 -0.9075269416705203 0.6409911554211838 0.6480586248263052 -0.16408268111354696 0.3557421721337999 -0.16223809579189208 0.8268426902398227 -0.8092248617721789 -0.6011026360596226 0.5744864324250583 -0.7803056633926946 0.9026786965277667 0.7250581697478 -0.1657726569586595 0.41608045515251235 -0.1661876787662604 0.13782481604603025 -0.5551299057777404 0.400870916712734 0.6375993224680279 0.48945274603821454 -0.5483535054603124 0.009269602094120533 -0.3573531148531408 0.44049712563135457 0.7407237580787087 0.16438720677388563 0.9193943923486447 2.1803139607312616e-05 -0.6849032296185333 -0.0024575054243896055 -0.5005534048785809 0.18293535678996165 -0.6805224051390044 -0.9578899268597614 -0.3973703691170225 0.8178983170097487 -0.3911277272100291 -0.49510990276779365 -0.7455254891181415 -0.5597291978938537 0.9496636133131964 0.7417078903760428 0.5242528519948135 -0.4204712533734589 -0.7300829652873997 -0.46522972245461647 0.2921687285261927 -0.434734211713552 0.9278698778571186 0.8811847771499106 0.5378680842575168 -0.1210768347260669 -0.7888795420574404 -0.32703571637532725 0.00930494557513084 0.6006885691250974 0.4259496267171792 0.958428732423648 0.9062530083381859 0.18459479666921697 0.8145907909792338 -0.9669286437624327 -0.46811652229439193 -0.964544425693858 0.7088677871940388 0.7131714758178371 0.926934022373781 0.21434019475867871 0.9817952670426895 -0.910988325803376 0.3732514041322308 -0.6281381196654192 -0.16820936303322997 0.8333166851286955 0.3050775347924055 0.4978437413864283 -0.8677514313286963 -0.6880163853517944 0.31688419686765035 0.8529211219574324 0.571568107830059 0.7109322401744389 0.11730424433414433 -0.9198763477928467 0.5442907364002123 -0.120187215672803 -0.9529811370808552 0.28544840613409095 0.4682920708648426 0.4558627347040354 -0.25888409248072675 0.8488357824168833 0.08560881294817424 -0.8644136908426712 0.3565608343492368 -0.1656415075890385 0.7469052010434696 -0.3571065755477494 0.4898319550161718 -0.456857352322678 -0.5199986855908647 0.6624337944958847 -0.4949755903919695 -0.762660939997478 0.14244491735241804 0.7330744528962543 -0.7438673144624244 -0.5621542225683034 0.9421199974709089 -0.9037272377939083 0.2081331893225693 -0.8659833036688829 -0.16111948892468142 0.7563854546218929 -0.4085273238742828 0.36361348794178294 -0.5482184420374225 -0.43006785175890827 0.8969873053894051 -0.8042462093380407 -0.5031873670439624 -0.8802286946491729 -0.5762663716108167 -0.8844332388714093 0.17002804538488925 0.8133079858719774 0.19180128007544983 -0.31460133674156343 0.8605560985352845 -0.3368157881237266 0.39745632722677593 0.05555843413563033 -0.05850099564992717 0.8794982761210377 0.12559141067899948 0.2800495738520472 0.45228608177979557 0.047156892804758765 -0.6958689600850376 -0.7512313814214169 0.23509721545400164 -0.34146147206943267 -0.5667362152267676 0.11070869718137955 0.23648012876228885 -0.7474231618794211 0.7201174650328914 -0.1629238720524302 -0.3835500907221485 -0.3498538578035377 0.9205460140427426 -0.5746175070637085 -0.6468668583686208 -0.0316074426781805 0.7428683400688754 0.4725549273195664 -0.20732375635295086 0.38022091049777673 0.6511595514642492 0.37798082686683543 0.7481616823778043 0.3369716764613213 0.10686456482193285 0.4285701575213672 -0.2675222115765945 -0.8546908248423173 -0.16606399884306056 -0.5230207356045953 0.7160823948547894 0.6996311928557233 0.3677271378787088 -0.088947461141488 0.16985601957869356 -0.15618016706689342 -0.16724909812972744 0.884630183184727 -0.8253863727372936 0.6063038924153574 0.03244366881586269 0.7581912550815324 0.00854126331367766 -0.37443960936425413 -0.3388967848877755 -0.8359177428897697 -0.8526273261900199 -0.7447315381850808 -0.9927012160342403 -0.13361731098492124 0.0033446673479560207 -0.7469738909619865 0.27297404824020477 -0.5529835521655884 -0.4177694567006738 0.7815030777274499 0.5006783499529401 -0.057122151316602254 -0.3807565212598969 -0.1429378083718027 0.5777463837541774 0.2388003017954654 -0.5120215333111562 -0.6875441896410963 0.580455787114857 0.969435573065941 0.22601100865347434 0.5663797956029217 -0.1534320403475533 -0.642089595849489 0.5337606501930012 0.8493398096742562 0.3973796140259924 -0.42839771000720384 0.6146200656691589 0.4295331795028272 0.3228437561645505
-0.6199546409395835 -0.9430486276962291 -0.23987735081828432 -0.25618008980327023 -0.5741817559346591 -0.9061111624142291 0.4008212884218194 0.45971767903260496 -0.20230599032646368 -0.9462483192975917 -0.21236200709853703 0.42457745779542555 -0.6077312278425056 -0.07025036320131517 -0.9709076728278403 0.45987018124936085 0.700090022500754 -0.09910719736868745 0.41079366539328044 0.4402749714431402 -0.039739713968911516 0.3494857878559061 0.9172836457588813 -0.2584908066920417 0.5273429037124682 -0.9615706618414064 -0.6222771147979929 -0.9061447441793349 0.01926915347660141 0.3487933550852276 -0.3692931695593875 0.2740596476528585 0.14739240889213523 0.8477196113223804 0.9979845358655157 0.8423524840824383 0.06526786537861873 -0.1114545800562976 -0.5499772476859675 -0.6467986351411035 0.9051511189027168 0.5238077825277265 -0.05839635651905217 -0.6221866471242177 0.21383665382447647 0.8435109324545591 -0.8458120554537873 -0.09983573885551911 -0.5505030511320153 -0.8728562388500516 0.14960657597729665 -0.5544387015160586 0.5266841110922063 -0.2753288853073399 0.1874874434524827 0.02976275576561238 0.6037708125030854 -0.23133273006734956 -0.3977097244987895 0.15991540212976707 0.7380969284974839 -0.9210470021274209 -0.2343699525063898 -0.2983274448178346 0.37060904178058207 -0.7499347302407455 0.39305076652627946 0.3051093099693625 -0.2209477325273621 -0.7047147937735343 -0.7037319496249845 -0.8437910601819543 0.5713941890126211 0.21514170881945116 -0.27183694026107164 -0.6077438910763704 -0.3796174406485957 -0.48219116466497436 0.4083265072100235 0.6617523517266442 -0.3920293378527071 -0.4327398224194017 -0.24141677101480385 0.5309576818251402 0.4352206358402988 0.16256148084417932 -0.3177916799703111 0.5447431546903179 -0.49153220380130347 0.9620970319409685 -0.5183684281508587 -0.17762843911529846 0.6983745068281055 0.8789355305934548 -0.17624525565272786 0.4895950841564831 0.7919019038008335 -0.978064823467157 0.08448580725681021 0.7590052035659207 0.43302718263436635 0.0658675001539406 -0.9319050285145929 -0.9872173142700278 0.1236242347313905 0.9189615449598945 0.3389005657301247 -0.03361694613680122 0.8812765090056938 0.03148496689266089 0.3224673321174505 -0.40614722624172006 0.2855941396362358 -0.8167554136324935 0.32698285761887846 0.2286746839648195 -0.5916968875869233 -0.012858374167869835 0.6042855145007116 -0.9790715644575532 -0.8357757791488902 0.8706732091429101 0.6161791193017165 -0.3805934305082532 0.9451795653421176 -0.26439068764971796 0.4083656798070603 -0.49210375791474736 0.5480430574997575 -0.8571419540689766 -0.11817380663228194 -0.1207665301256966 0.9489771277855139 -0.6511175776758227 -0.6070202568526977 0.8351174511124833 -0.9893204400163811 -0.2810357401277943 -0.8512633672213052 0.041793257915582416 -0.6052058639696078 -0.428120237186169 -0.8773577030187785 -0.1200172385638878 0.020512070951306915 -0.9403981894636286 -0.932674768411782 -0.8389817257000678 -0.5687755013071036 -0.3388404014902857 -0.6234328247103564 0.41869654002169887 -0.31619358098127215 -0.6806644143528591 -0.4570335827856802 0.466490495504607 -0.4642426037029148 -0.2527182348361512 -0.9290557133405042 -0.2635245548463212 -0.054767650307897764 -0.21345844274267667 -0.7978692915736818 -0.13309349483341504 -0.9204353163823673 0.5408243719771006 -0.026494695760609366 0.198912326185962 -0.15433619572172907 -0.6495024227488544 0.801583805238844 -0.9935849898173876 0.5930494612827351 0.1161497921375052 0.696851997868299 0.5458940890241697 -0.673680466866704 -0.013600060327994212 -0.7222427788883559 0.9251219680437861 -0.5578133982841114 -0.3388251627079879 -0.46568957676100675 0.01121574663345748 -0.14297796048660638 0.660934201392992 -0.7267670135590953 -0.5706275902806299 0.7725039706733305 -0.7153312033974881 -0.6747542957953876 0.7759688586432292 0.08837258346277754 -0.9033719089063834 0.6045406430353462 0.2585984023956356 -0.2996912791663189 0.020128000840721416 -0.3897263813064733 0.9321891143387042 -0.9049536727825811 -0.8968463953223629 0.8092119349236309 -0.004402508768702518 -0.755053392200945 -0.8316791790772182 0.0995671313434503 0.24589477472772248 -0.7695439659811845 0.04217874486788431 0.7626498949629266 -0.5409936886803715 0.6999511302210513 -0.4348290996021704 -0.06657820588966312 0.7067877303061352 -0.0661255617232046 -0.8749620205723994 0.3600180534693038 0.6928844765953279 -0.9387685573518072 0.279621464605766 0.26328470359277634 0.32348789830952995 0.9887956823174635 0.9338789989264105
