-1.2946614112199686 0.26076152480923337 4.027740889910949 -0.0068957342770368975 -0.2591559695902998 -2.052961002661018 0.2765606760459112 -9.647035719978819 1.2445178188275599 0.7161678596693328 -11.39068634716256 -0.7030662697313673 -0.6030095061525037 1.2392329273687988 0.45146370202376784 1.1646301425930587 3.127341307092593 0.10140964270126547 -0.49760598661712674 -0.8594232461486156 0.5373619308243864 -0.5944157108308391 -1.6697984906638903 -2.6667206366129097 0.47641901372329853 1.5812820902749718 0.9999929685585158 -1.5063486558954626 -5.479919311960218 7.978183985219303 -0.6690390120771281 0.6277358005869317 -2.4019526943671434 -4.775559175719108 -0.37218830486661997 0.9248161821411726 -0.1557459131720574 -1.412987529465403 -3.1490309694053535 -0.4923972725696088 2.284822981323698 -3.7236845937206913 1.3433196097091504 -2.6467986772008456 2.698261296869367 2.5109652558388054 -1.760403187707203 0.022182590431329995 1.445579098993756 0.7632422241735912 -1.8205315018589983 -0.539279597522318 1.0415047299803721 -0.2714262891273211 -6.9737016638536735 -0.3619780514924864 2.1962733088285606 0.6038212392187416 1.1102148463320565 1.8493523668417768 -2.6503885039906114 -1.2176510915823324 0.5045628031775665 -0.01761409876686215 1.0787827014324571 -2.1617539118387166 0.21026180283198942 -4.982816002527909 0.011856966707125324 -1.0021822725096403 -1.0488167025438406 0.10716806700342903 -2.519187781816656 -0.7171049975181099 -1.6039204500484083 -1.252915807538948 0.9730690002372194 1.1634146402895698 -0.31823404240229675 -1.16228520122465 -1.0254288000116472 -8.665688592322242 -0.10906431251827743 2.451723584985585 0.3744000461668047 -0.33326470505617717 -0.5135456979774031 2.2895677377633423 -2.9277084932575983 1.3411532217093198 0.8349482802041807 -0.36079779872392104 -0.05913227704821923 -0.039427341597580434 3.0107573194839707 5.989377181688228 -1.4488010514060459 1.623759286118078 5.959739457271853 0.39511392362011105 -0.6161559350676225 -0.319095638584847 0.933527271841835 -0.10240884518289528 -0.05016250143599882 -0.24045147070566547 -3.1179887827787076 -0.09840898158070037 -0.5233482553762052 -5.199828995333509 -1.0973323178221988 -4.213687265125377 -1.7198517691068642 1.4294079485576558 0.6468666090947872 0.9686937821356659 11.521049872284657 1.667662881726229 1.8254352035690837 -0.867573324157448 7.328988006694659 -3.281920492678127 1.5921489805309268 3.7625575905622397 1.1065515004725106 -0.34638336928198565 -12.413677017956186 -0.8937679440157091 8.473560422566033 -3.9786305180807786 -3.7723919150728475 0.27702700058329294 3.6924257389375534 1.8870646559721995 -3.4191794541917666 0.1222603469869837 -0.08929578801895506 -1.3945112467176395 -4.7701780403629135 -0.083565866210577 -1.5176714837747085 8.547551976577726 1.8804988831297784 5.608308738767284 0.5025897496244258 0.3595550430961689 0.34303294499217823 -0.28113085135041943 12.923270928392673 1.6478516601946613 2.5452517270626935 0.4007351946186377 -0.22479710519400195 -6.438764531600478 5.746247845407501 -5.2012405306174205 1.2004734558508159 -9.44482225662432 1.9588589046577665 -3.281859907724587 1.7592908156388487 -9.828117330166663 3.6788357152858095 2.688421830930936 -1.1257263372457527 -2.147215980112841 0.3052841953190853 -2.5209500156372844 -2.039850238771298 0.4212742190826381 -1.2811268341510182 -6.204706760335561 1.5032437502830807 -1.7656831981894827 -0.052531410612650695 7.892170091305269 0.9394444096603036 2.723930669024847 -1.3565889024484634 3.6458794676249218 -2.3532445644294904 3.746299991992031 -1.5054554413526977 -3.6529390312426733 -3.5782423596771658 -1.1788825420057432 0.21231093329997058 3.9595060857983166 7.336127838276358 0.2708037518436893 -0.16058034962562712 -1.7530328139373752 -3.186024994130855 1.3943749006721378 3.9227932020880325 1.9931118553543927 2.057175825370344 0.15946533508242575 1.8518204619326648 4.337280582761802 1.1417557719087161 -2.636648641056382 -0.780242988450881 -2.5492132214819745 -0.19318830918733318 -2.3200085401087307 0.9046763761569284 1.1599204155171807 -0.33491403833115174 -0.8575408144277162 -0.6339925864133159 1.6854005635276479 -2.2936625384117444 1.6393003361628247 -1.7568042425965833 0.9519285209890095 4.333325681663129 -0.37685833321190343 0.027140143809462468 -5.137444058070778 1.717804063321702 1.132813114594045 5.936004890299948 -0.4451939675694735 7.246889398217928
0.8767888310621723 -1.1156263327441622 0.7736641809463383 -0.4737249159571898 -0.07833584331236615 0.7729536562446916 0.9707284155521455 0.09030130707610208 1.1091004787163925 -0.8470943813326562 -0.13741353388650365 0.3614280691120595 -1.16548979302815 -0.586633232406758 -0.6770332255271939 0.8104296373500296 -1.2576781271150836 -0.5453716046529988 1.8955000860304954 -3.8482990544159574 0.2619074167165258 0.4808772923426762 0.14413434482211498 -1.4206063225474965 1.6369790959934771 -0.8611455168252246 -0.9624727261108317 -2.7313949765099195 0.6663535200973965 0.4445957266650853 -0.26465730951844474 0.40347525869448136 1.2987771805343014 0.2035539840807847 1.6069925327888357 0.6714022397401279 -0.5982849076519605 -1.1238799565505153 1.7820117331570555 -0.9859249987563019 0.1606694174052199 2.075109556820262 -0.4087331557923046 1.1761711967884576 1.344010023852764 -0.24386060332629936 0.5203603977586684 -0.21074879771708796 0.086649902501834 0.8674311371908294 1.8723024588952077 0.3659275947803241 0.3537856755566406 -0.2766691388664161 -1.8475491921456237 -0.36263931570390984 -1.6666527814390226 -0.7659602049949771 -3.256241786161105 2.0298115058986177 0.37853504620131717 -0.8013207617650586 -0.4210887037577385 1.0205477789648831 2.897882741915747 -1.7117384678822485 -1.3366305262144795 0.4095769622213095 0.3006645194614293 -1.506155385865077 0.931338231048512 0.8702177387170323 1.4506937718161006 -0.6094972441811086 1.3311696785147453 -0.732507936454879 -0.8935279468067128 -0.46019598053194055 1.0240914944177704 0.5795446467536366 -0.3047709496173065 0.3341831128501574 0.1972789111556118 -1.0150228293371142 0.030003103656910092 -3.396112991867681 0.29652259948414367 2.0064484106187748 0.49897855081800446 1.564721254614674 0.9783981997762167 0.1667731635697083 -0.1070769318191916 0.9752811592573254 -0.32717332549796535 0.010218126638914901 1.167446580935765 -0.6300422596388027 0.7823814149666292 -0.18392917638662745 -0.24394776615227873 -0.7234345087925915 -0.41145490200488755 0.5254847671931766 -0.4832459307284369 -0.24444900369075714 0.35115067321491433 -0.9934657484554404 0.5632992762989347 1.8485344892670588 -0.9179231924290885 -0.20721819502103092 -0.8507732691883428 -0.9135071382549744 0.8679108951930599 -0.7833356958076532 -0.8700109017158015 -1.67274988341269 -2.115459272572875 -1.389642814866175 0.8215227671113091 0.27533289250428106 -0.6633723829392759 -0.6776429116963469 0.7857749166238287 0.058101983266625114 -0.45392649557061293 -1.473537873971382 -0.41832047587087806 0.8063135867479274 -1.6535064638069978 -0.9501775097495531 0.7329392599403245 1.6398142359915424 0.3776751481066833 -2.2027547456109935 0.3533392940342633 0.6061109272120632 0.042936364266123836 0.45215700494816036 0.35219884507231364 -0.46804252427629084 -0.7904699561012578 0.8805674048954807 -0.567847577982246 -1.3803376403451182 2.9763393973179535 1.0052535288969338 -1.0557804883342203 0.12743022009559551 -1.0026346690184527 -0.9869316798332249 -0.020206715402785257 0.25238211889282597 1.653741555842633 -0.1098714269176347 -0.13033835481761025 -1.4507538144956929 0.6982399214930369 -1.2767893356754496 -1.377695712755602 0.7636730257775237 0.5064226654057382 0.9833816640059075 -0.8114242415059253 0.24213520043135306 -0.2125212811769726 -0.14891207045554256 -1.9927408833575044 1.5208761123809207 -0.008105599960972971 1.7334407331799386 1.5819655294145099 2.138120936984386 -0.21959605971363774 -0.09738809122930615 0.06270108429872784 -0.7690593344137427 -1.9590048904960249 1.3467676357631897 -1.1748190120161988 1.1634334420901218 0.58426838102623 -0.8229360715699641 -1.6753357739425834 0.3607325952895119 -0.5491586941763063 0.5058608044308319 0.8079151469017761 0.2149432933303735 -0.9533473079634913 0.407280536501165 -0.7630233881394645 0.2246124219106676 -1.2711340897827341 1.595707887512388 0.6113316557053324 -0.3440910555441333 -1.8868793615209534 -0.10317096355597206 0.6540394385415296 -1.0658569544456555 -0.6056134601304617 -0.21755579435700215 -0.3522146478283225 -0.010863446035490784 0.4882425647189331 3.003683912297901 1.9999335065944193 -1.6099259399866128 0.09820607712570353 1.6846288740022974 -2.8276409910094014 -0.9882220476970093 0.23044883172405212 -0.109374807627155 -0.5873459436008593 -1.4121158533638531 0.424289814101298 1.0083087604970815 -0.27629262711479396 0.5822106443651369 1.394151602863256 0.9242902477372666 0.4059077551087213
-62.20594624630606 84.73782045847982 -3.4903706811191855 35.28651677750524 -100.02948142831586 -31.537894861585983 2.473996327542442 -16.743132736865665 26.039553023708073 -27.195733544327886 -36.2080987544166 -10.29114300084053 -14.571800964066641 57.45731264588122 59.12356242892186 -89.15728730769582 17.66202527917962 -56.689908050025316 -78.81713326679962 82.15510015069405 0.2828462267679311 36.713692716417775 -55.119558873426136 46.688452906649445 91.73689079811753 -97.8253354851106 17.38685115718586 -10.54194202184779 -12.997836008502034 78.39357099812796 7.581328172511506 54.44030797088642 -65.36097915479867 -18.48383254732009 -59.61202065176544 110.44002732221044 7.7001884750209415 64.03573734429604 -36.23769542308743 69.56360390911324 3.231896586316709 -60.910692392872015 22.742222820408635 66.8849000604559 -9.276641587984168 37.95861473752621 -5.231367888535043 7.148846711422778 -32.94531599225929 -85.91989971721996 -30.66068332749693 -37.83480970635187 -113.97193004697677 -8.655765663029724 -107.86449042371503 51.52222008567341 -28.364918636899272 -40.85649536896323 101.6908144319471 -89.14588314931376 -17.835251414200762 71.86675195621275 -28.999144591720654 -32.79188035833179 -50.80210715911739 -7.947023773757916 -36.87603624964346 -68.00812576396281 -104.80486115128112 -0.5921473666256278 30.931767932127254 52.52280553166267 -46.662491544802045 -20.25345224971871 54.329842722051026 176.6364778290288 1.384518869152799 20.586362695955053 -27.109308331355287 -66.42512510875324 94.46557174975386 -86.44584143868566 -36.97394718120423 -46.81555485518989 49.58997681280792 8.099641059894028 -89.448892897838 44.79253235752751 44.56584490876488 -32.88771472540425 10.106078858618353 149.28770144196756 14.016622232234099 35.08979638976694 7.950601396544048 67.22543600820558 0.5071752845806025 96.80364608227264 -40.49430885232064 -22.074867821838495 40.765012299463514 14.724187959822514 35.804825267551394 16.820668703038038 -1.2127228980509743 -46.61014706056692 -59.85500745541596 -8.808913585305376 -3.303321376899659 -2.474554432603428 11.435209069198093 50.29541439887973 104.0520769210442 -12.860456292004544 12.538571241231816 -12.478923888837608 -8.55433490611706 -64.37320169821399 40.37307060552913 17.375167915375453 -114.70363053222906 -15.680463054750446 12.965862620913002 -25.192185824533993 2.322200450447652 -29.639859185973986 43.81472265032172 64.16335418929643 -64.76380045845107 66.32343322352422 28.76344838500784 0.7056112721893086 2.975005634892063 -8.597781728341907 -13.41642448587694 141.62308921105105 32.08029874017953 -8.540787411140055 -0.13370608990324998 -33.25606105129249 -3.283987662947487 9.960387693172581 25.14105625362209 22.145767355440572 46.63830078384157 -23.79191522176737 19.565286069168085 -35.91647239386067 80.30897730213728 16.62739611492282 -22.059227076207243 4.40881384677174 -50.86379593959516 -28.082384758749914 -28.17577965209486 -46.3414656176522 -10.031607591603938 19.51878087272406 4.94337718735598 1.13703531613093 -125.72397189511702 7.012977202609848 56.38447305827773 -42.06795177107256 52.42768851242563 -9.900493520955377 24.836333666164133 97.30616815400819 -50.19499890227205 -28.177595838456558 31.683052269780262 46.56969746911956 -1.9264147413940078 29.7359929000852 42.089042180111804 -69.55482799156732 -53.8909038596055 72.44149115693601 45.089073486144564 -9.197781833862269 57.62737702779007 28.772710779092534 -43.574790281764145 -89.80403410788006 15.534289242782611 -127.84871312351902 30.11544576311856 47.72898491685306 -9.613519625819935 0.9581846710915523 -31.079229567656277 31.93809602406732 83.2620631922187 70.82677704417338 -37.90190250676345 8.359795850314839 32.08392268069763 45.67394761112352 68.6367825658191 -13.695687225339437 9.19536887549887 -81.95972388838595 -27.51356995564249 -72.08690199374072 35.60475899049596 -3.0049365124840843 38.72504429340012 38.74930890257882 36.49098385739351 19.493506454663923 -25.447924395481454 -0.7941583167255836 51.02169037806797 95.87021783460189 38.71774187240271 26.562972694431384 -72.952312463153 -167.08986527173641 43.34975801562193 -53.655198373350636 -79.69069678861226 -81.16086355483908 -50.8807905625783 -172.80756516041313 -78.97445707281673
-42.67761614281141 9.451992411517097 59.20139811405133 -18.842624375085922 -32.209830781776844 2.520742879577141 37.67527162578052 -4.160198005129709 -17.20407268191484 -4.357656718940069 24.29297748885813 23.66677254148272 18.667141685940358 26.40114134110531 -0.015453852606246477 -19.599722222583082 -5.417336545648655 -10.319802798324226 20.00925017578577 9.353161006889328 -40.25768110531499 16.741656654317627 -9.814731045503482 -9.034414813621018 -12.823620293249753 11.07102358824222 26.750045518005454 -6.032553307230035 -9.285882330648956 -64.80122167552153 26.836444769701334 8.008388877652074 24.994928065774324 -11.083442059175402 23.365290336477123 38.750833728370075 0.032816438160712655 -38.572747445592775 3.91066232219661 -33.67910472203879 8.583800709568175 35.0553824896757 26.64124596114014 -13.150615099417266 4.061879268179354 -1.6662919216060628 -2.298835799703295 2.2255063609618477 -36.498848874803656 9.400140561714409 -4.154555291670435 -10.819311989248785 -39.68041402776425 -2.7334979006707827 0.8952733472760286 29.397414254340347 -1.0259687687902868 -1.3713294550157682 -20.357622769408305 15.757322514309507 -2.620546359153285 -14.70318927027999 -37.18314015528998 5.794813667863277 -16.782273199445296 6.237431577909986 -5.60923885527261 46.726705772778715 9.993092843879971 28.89263348855992 29.463899111892978 20.62957085389791 -9.856183917860951 8.58424145604181 -16.987829510598292 8.814523907875667 17.59007294145608 -7.51268946998172 -32.93509757247972 -0.8293392404410804 -25.663070141482834 -14.837432417842718 -28.628413210597298 -20.828709661449352 4.3008400311417 2.896948334372565 -17.459302102468225 8.815445664770712 5.009559198865225 -12.240840638874811 1.883688676970046 4.1256106818745275 -55.329905751512676 10.652065835380396 -4.60238230595625 11.657152536564654 -8.76441203202159 -42.92000409909298 14.071846787810356 -8.419112345448365 -7.395087576073477 34.37501906412147 -17.4781442167658 31.222727502672253 40.71046931518556 7.041861485996595 -14.12052214052753 -1.915644438749073 0.2224110223286304 21.933826260804913 14.30016134523398 4.544912364085409 22.547886801312575 -34.38410523895246 -36.92100993554993 -7.472608588877079 -39.083389412286124 15.26083222182368 25.11321059055094 -34.81178503940156 13.70821401457974 60.909774518147124 41.65798982532366 46.73959711378262 -28.725727243520623 -26.34590657755716 44.91244157232191 -13.629785346091342 -5.178914680446933 14.02234005944987 -22.207039433861635 3.8863104834156665 -9.100887087107578 -3.7814821520701116 27.92571482030067 44.1552541590077 27.161392637059848 -7.122178653289402 18.26622820540852 57.17884633057819 -20.227026496623374 5.91527585120816 -22.81784725676881 33.03845228067576 12.025469807278293 15.818314656449171 23.39690260481117 -25.468268070093494 20.819869864164257 1.5748896565776969 -11.46918844031223 -53.18231581304 -18.895481426691077 -13.753113086743573 -8.808248655867729 -25.43639130793458 -43.524955233941405 10.072817898501697 -37.729150905224614 23.726687650640706 4.124584471743 -14.384486721303976 16.782715247271387 -13.18307161724619 6.006143597026948 21.443823662029196 -6.827914175610391 -39.88703005751741 0.43824984957068486 5.589847745951553 -15.163813465763585 -53.56549140600345 -5.816021300220599 6.709761419148353 -24.600387474012088 -1.315283271855157 -2.295886982963169 7.361780274935702 28.46100489545227 -7.809635689986609 -30.72213404894831 -43.43340408329162 -4.555183012555436 -16.57466266448656 -30.520043813867304 -47.836261374919005 -10.382570318978775 47.95746480552945 -6.744340424737422 9.020794977806007 -31.597042824620132 24.836288337693787 -3.2165431132363405 -3.718247510702195 -8.020960464246249 14.009470059889079 -3.9148240412772997 8.180612294803908 32.53283078146346 38.081781056548266 37.043808783570505 -40.27193737607817 21.109872114376735 25.11287274582508 31.100316657659548 2.3807501500972683 35.328258423470864 -28.25129884257668 -16.449391740652718 43.489249215732535 5.833718394276374 -52.756820243150216 24.103056183593413 4.681325941871991 11.748067251508989 -23.880348578590155 -50.69031348985508 -50.41637104085863 47.1525403331527 -16.46437219707564 39.757912921496 0.4437687875642311 10.746976775802997 -6.429910244630338 6.666845389005736
0.3948932097471364 -0.5877636853312781 0.3521841929817792 0.38024809187782255 1.4005289974816886 -3.6997198149561195 1.0360348663589223 1.2957156117786397 1.0953998883348415 -0.5801042351212311 -1.2974745401151428 -0.19647259284883473 2.2945264486723227 -1.1466938377201448 -0.41058396477318504 -1.7071180412987832 0.5382054059156574 1.7808048307033133 0.16210697719962883 0.10924404190294588 -2.8981098513800916 -0.9865161340349845 -1.1818533421882795 -0.8928261346496409 1.3044792524914661 -1.1839157505309512 1.5172024628228493 -0.98892469255606 0.6876415001685838 0.3535785124749898 -1.6505137619197041 -0.8709750479297399 -4.791411031719541 -0.36300577034437587 2.924720505995876 0.37967429523798946 2.8373218312239197 -0.10750706236247777 0.5808824679658867 -0.25119227587891524 0.23948445971101873 -0.5621935247086736 0.678508923990028 0.18543964972697147 3.801620492856809 -1.1725505169813086 -0.027835731172382118 2.9409809991390206 0.9905793371092587 -0.3875371101123967 1.0723308578458335 -0.08301578456509474 -2.941279059576085 0.20127427492763056 0.6684044937268262 -3.672761786591186 0.2644624523418876 -0.9104156369283478 -0.578922664204617 -1.404553720576666 -0.17001319285080327 -0.940102176113461 -0.022787497409504236 0.8956467622564454 0.006303864350524666 -5.529726782362399 -0.27419856561964234 -1.0100724231575837 0.06335606182368048 0.337890084880961 -0.9489344821529623 -0.6356573286896943 -0.13779893727684134 0.37207768179692025 -1.0158560836111155 -1.8675620765201062 -0.42020210189064194 0.26991639763433783 0.9695432997333042 -0.7067166306162626 0.2847167292649797 -2.994742665329989 0.1535861942370338 -0.21666312562110293 -0.11028082175195066 -0.004270203291332788 0.5585696618033625 2.3264724467951408 0.14466522886411057 -1.5741931301448966 0.5747996471495891 -1.4667026586601974 0.489059879842042 -1.0131914732628495 -1.613492383160341 -0.6650246160660442 0.40961734217297036 0.1857047697854342 0.9793153483958339 -0.03362139494192807 1.0814156355022702 0.09404366949944518 -0.26208939438543183 -0.6790582507940035 -0.9661662157830894 -0.2711180314655518 -0.763384289922957 -4.025357643251112 2.911679516822463 0.6086681877201606 0.2368615642990902 -0.42183902058674116 -1.0266677184911217 0.9228159950948502 0.5336648665101473 0.4610059627684266 0.07939773121203077 -0.49284722937090863 1.1401333696764344 -0.11329318480021203 4.847738932497565 -1.0138591075517451 0.015348449116309873 -1.6131561307099556 -0.4639972592583099 0.10095371777296289 -0.8404164637831137 0.39908846108855667 -0.38134401087012815 -5.280341545528564 -0.4674121221417381 1.1431326854521142 1.4085107995429111 -0.6381725243083144 0.9669358954169074 2.9754824167302103 -0.2795404028020283 -0.5420415553439953 -1.3372060055649806 0.030847789060318827 -1.5494828243138754 1.2733485557547082 1.1832147740564187 -0.8575444735072538 -0.2561297332372889 -2.8851415647549765 -0.1780080297407182 2.6206010514028697 -1.1736094793956955 1.9780207799140284 1.5224788362749349 -0.7467934365528481 0.6260531744616887 -0.23671320691518588 0.14286967772517037 0.31474260203308696 2.917126273233261 0.4023360614625407 0.22915566210350669 -1.9372726799185322 1.6929123944540556 -1.7339006659880505 -1.0758829354088373 0.14830079568547633 0.09809494189750133 0.8931782248160097 -0.21656754425432106 -1.10208379566898 -1.0316500744204948 3.301112829406478 -1.824400590282641 -0.487948728516291 3.2671325727970792 3.5745953913093915 -0.6560811822357069 0.8011251106324788 1.7675551003310188 -2.0460165467685743 -2.5992591688054496 1.5618105690835775 0.9139513371510996 2.1741890738967946 0.4413128652690799 -0.5089174475186978 -0.770768080833968 0.3959400155271774 -0.4118187237246035 -1.4419063864382264 -0.51954595800756 1.3280987013641077 0.24223028596963353 -1.3012232130897863 0.6266009791346544 0.6602096556608734 1.2414410842544075 -1.0730726649563267 -1.5970471148809675 -0.21894424504561252 -1.2998040633011838 0.9647170418391716 -0.9545362194830495 0.3999873579458638 -0.779932077978907 -0.6314870005806471 1.5098584541256375 -0.34062522771500675 -0.42239474939420596 -0.08727405252051053 1.34844962010425 -0.03907928402183157 1.3337421821524835 0.8005070357576721 -1.6609085147906406 -0.4811391697957005 -0.11346103576302898 -0.49706685519002913 0.12954838176746797 1.0341449180077162 -0.5403347987793526 -0.5716090715037447 -0.2438662574543394 1.3814753187385824 0.5246141086129679 1.8765459046268136 0.6806227079817748
2.2392227714609523 0.22959678573092895 -0.39271442429100517 0.007310731197226436 -0.22623348865546306 -0.5176398427847156 -1.2651398264554359 -0.4487134821358754 1.0283879950881152 -0.6304596184107579 0.08594873752799435 1.15577512203169 -1.218726255381971 -0.5217258700489777 -1.618926430927573 0.7470881784494143 -3.630029724038402 0.7168357233272253 3.246250456836668 -0.47046807447159134 -0.4989474046422859 0.6613673525183891 1.0800237717218382 0.26393228002707875 0.9976131608649921 -1.3759891827104518 0.35723290852880685 -1.134317273545834 -0.3777074577885102 -1.008844270277226 -0.7442151350059045 -0.5318127364000061 -0.4809360705795833 -0.18812459384644312 2.268679041389967 -0.08278098729850993 0.3647888561137759 -1.1659923269426549 -0.13987107517888242 0.35023517357197387 0.9384502562874824 1.1594593432674145 0.4786610023791321 0.5443633107009747 -0.17552865319942448 0.5661299157782591 0.5224623753157183 0.9245141627065074 0.8888872962318054 0.20366598186389392 -0.07121062483797672 1.030087503940881 0.40580286188646864 0.5709480807448428 -0.08623448091971253 -0.9929212617891088 0.6219181235178226 -1.947825084597672 -1.177208255797485 -0.00705946189761768 0.25536768701437335 -1.808716623346469 -0.6265430182385481 1.3218396782459598 0.1242586985329595 -2.593480873092472 0.7439084071068938 0.5320379780403546 1.5614936150794747 -0.5432039440781775 -1.5067083648988973 -0.3588847102032877 0.602811742832313 1.2234439154462418 0.013568957876101864 0.051601892722112325 -0.803326529587447 -0.2257470466489799 0.11333769566223935 0.4053312679366208 -1.0987473833848416 -0.94094162588133 -2.4122304889088944 0.8879199807192201 2.212800403486858 0.5925941639814785 1.2425121655394715 0.9420162655288274 -1.7610973809468904 -0.3577665795730424 0.08983490406872578 -1.7063517810457134 0.36621593259313356 -0.4122266911558211 0.4117729258731612 0.1151460093548697 2.382469143803782 -0.4392394565522553 0.7222762883659308 0.6128344834479352 -0.6149656224939029 -1.386243994634429 0.33866236858998217 0.6132469946708539 0.23438654693565406 -1.0460657852246396 -0.24237461405980604 -0.8335139258312123 1.1328005847017641 -0.7548499918231655 0.9528868923253964 -1.3784337925860928 -2.5954056322956256 0.4176336345901274 0.3482156855839369 0.47232157514825523 -0.22895930360738181 2.6771513970418046 -1.584724687674327 -0.06808168264714788 0.41442059185296354 0.21027292287226673 -2.1183246241230393 0.4135677593914652 0.0761118292588877 0.6646419552786441 -0.8158836178484563 0.5886659531498704 1.3293079167874864 -2.483590266078569 0.5950340283112556 -0.17106403903881587 -0.7152026596650124 -0.91248301782896 0.058152415564786966 -1.1619068264198669 0.09295648238783362 1.9564768635724303 -0.43922698658736203 -0.05245981163491625 -1.6496581354675943 -0.5380733203977315 0.39802403357059485 0.663204508469733 0.40529156816171 -0.12088108219442692 0.4019453110114302 -0.7099355698518102 0.12017950635633635 -0.7713036956810371 1.8355513763230065 0.5341313206293586 1.4367139650832876 2.1938501811021713 2.0224151814281353 -0.5717236448045653 0.6278599329048433 -1.9098808658054267 0.90377621814616 -0.3362279484054727 -1.2214766216228667 -0.4317423662907525 -0.41627256647448035 2.1812481234644867 -1.0228361500411238 -0.34365581573826315 -1.0395989182029521 -0.7624852407513112 0.18968286650700217 -0.013309954321641365 -1.3399981054163412 1.2990925899694448 0.4482738532029734 1.3106984243734752 0.17909107154763457 -0.12139938690997365 -1.433367849310434 -0.3588633399515761 -2.471208365919037 -1.3791593260972375 -1.3007392627874406 -0.16838454922204474 0.3892688338744162 -0.3393424769126527 2.321285475214777 0.6684436609965831 -0.8855482740560517 0.4946237969758802 1.0469459185449106 -1.2722876069976703 0.07346441004990152 0.05012759684708072 -0.8633061034621503 -0.27515306492525 -0.9745480646288328 0.9387207016993993 1.1447531605408883 0.8516134967023938 0.2879240746928311 1.1222731495006106 -0.020376606106031273 -0.43900739347787937 -1.4843695986631824 -0.5071830815875159 -1.132485230934164 -0.7897193329094429 0.42405849076189406 -0.05288415856845206 1.2118675716370515 -1.0128168446613925 0.25799557077875596 1.0496277334971065 -2.6105810331167625 -0.6338641032942303 -0.06823996652753393 0.1363599279469182 1.2340101332875215 -0.3079109566878316 1.3327000293260676 -0.5873045139869899 -0.005062320687731823 2.056094232190267 1.4630552606497762 2.3377013557764474 0.18250201314092762
-0.7336167680035067 1.804112432953492 7.08734878629415 4.960215064332198 -8.928794943756406 -6.521985271595711 5.511872687702906 3.308829076894491 8.825452310183243 -6.294192507828733 8.45769234952719 10.236427903369478 15.99888987086409 7.683918398107416 2.292319826891026 -3.872657198418481 -1.6966328193285305 -7.623363169916644 3.5964319813675942 0.14577714616022808 -7.466518351333639 0.5285878734801381 -9.508407861456362 10.572962041973206 9.12612112861985 -10.887036079709521 -10.137243374387632 0.9130350710495828 -8.119144752787133 -4.373214545140978 5.169903513544532 -4.05906739949221 -4.254747469941897 18.804062970320164 4.546123275294521 8.168785601884698 0.17887038782357387 0.7827796017686245 1.201696628323501 1.4073388782390093 -1.5584250503571384 -0.9444238418209739 -15.621888545780703 -5.081611593013286 -3.319696472501261 -0.7824994796959515 12.01251592402951 1.0642574251532995 -14.751220618540419 6.266761338229269 2.8309141857912086 -0.8395271886172981 -3.6153697945160714 0.8437960245200755 2.4155811688280395 -1.9412886075784268 6.781054885134826 -17.158100016112215 -1.9344548215289186 6.355480136807846 -7.037112081358613 -1.7621283936607668 13.901536649032762 -4.653856544057417 -13.217640080308426 -8.322993970438239 -18.438755490470577 6.842933263354279 -0.3343998939534022 0.9726060597670552 13.881056886542664 -5.448102470001071 6.260030395799294 -8.227065950901597 -9.748074054413316 1.5842633365844565 3.4484393228047483 -7.333294539904338 -14.327924086621344 -10.135306466481488 4.65434820794359 -8.698467029551791 -2.082003807958293 -5.535077480066807 1.931519264023311 -4.112730161131905 -0.7427465545771278 -2.1132406504080046 2.3557183171361475 -12.896365079565044 0.7627611145804559 0.9012598691199577 8.681996350002784 -10.124779855957277 -4.417800208758419 -9.391480066819401 -5.820616548726992 -1.5143757402363338 8.636161922370896 4.546681560754568 8.553497223430515 -7.080321073876718 4.07866657233121 4.097308357788093 31.684163381600413 -2.7957727249273523 -3.6423280011344157 2.6200279158319244 -10.15919457264656 -15.561701057165841 3.5167657577730043 2.610947125487469 -0.31892268198608714 -4.460448986753882 -10.188758987330278 -1.5643170538950304 3.625253866356452 -4.456430259808399 4.9009484009522435 4.213279475573859 -12.330034037884527 18.311424210848735 -3.2046729741714937 8.366916759787328 -4.370158273545645 6.886545820047645 17.70316085905698 -5.061222467398681 -0.5293737339674763 3.4878707472556085 -11.646535734885433 0.23285187458821704 7.763485177334443 10.030749837944349 -6.700514840545439 12.006824419218454 1.927467647602461 -5.71125879437649 9.15919398653213 9.9859272453481 -3.2046755385778734 10.151398408002372 3.6981477710860413 2.1390205566308387 3.2671114840167403 -0.04170112596132983 0.1371843814326246 4.756847926640382 9.769203775415658 -6.062639330505707 10.179941107725758 10.863034894811172 -13.620854927692971 5.03898559328085 3.095027032499722 -4.541789223184004 -7.487729440457653 6.266933453910055 4.26575117334938 -1.0537205479270864 1.1946677897103317 19.594124012341272 -2.864881781587161 -3.2068080632614917 -26.218171084291367 1.5200530220438009 -22.99340280433387 6.154778612980709 6.835695841944914 20.438020729746224 9.441720660408704 -1.5720517704218535 10.19150413229097 20.853087450299707 -3.678926486135922 7.9398048600971975 7.195330953959001 2.418349917535754 5.674212098982465 7.727606448218462 -3.6025065399563725 7.801703402765524 -3.430074667198428 -9.943544061897974 6.4862866675519735 -0.08490949473706864 -2.959624470347085 9.75423073662289 5.512622825355373 8.27928894409817 -15.19686688513044 -9.10206097091932 -14.606800094410088 -15.32922989105506 -11.001586013519471 20.090792429997 -19.558806318553447 -10.342529924380027 1.918621475427551 0.42333740100696166 -10.383996972891682 0.21200368871747602 22.876411458578097 -2.380671155132843 -1.8716902153932797 -2.7068196924479317 9.17924396494574 -4.8936743270694185 -3.4498443480938796 4.955171659342266 -6.907976172989676 -12.682707111582781 15.514739188720553 10.078090193514223 -3.764761777683622 -1.6657206535117501 -2.968695424118402 6.163818342426445 8.924828230175354 -2.172715486038562 0.030659881445117186 12.062187866537739 -18.01394604103255 -0.17566719050746507 -0.8555186435218796
7.834204910542114 5.195564567221329 -10.959172617377934 -10.432749176235724 16.78460726824039 -0.44323039642257483 0.40420566660413054 16.110967725095595 -3.4358535944527704 4.632283519640543 2.4138533764654526 13.975285728043769 25.4155771476188 12.639460092515948 -13.192223281953439 -19.0563355867499 -4.831725359826226 12.289494529584246 -27.60533888981571 19.880857956001226 -15.76120814903192 1.8415233637014246 -17.74727944656907 -11.148182080791678 6.694009429110249 5.342671215837338 -33.772491221780776 3.8500593571347284 2.7956795171513216 2.02010187933454 8.42114423103124 1.7108536580172766 -8.524279493352745 -9.496495818061705 4.801229792182849 9.800893816754966 25.90156830513309 22.312640742491617 -2.571779548621585 -18.9167721200659 0.25334665176563964 -24.299708646122024 -3.8163778347017456 -9.313525946034815 -0.1877249886477318 -2.7376511719979475 2.7907130328432266 -19.13279273517302 -6.191193943883611 1.7697611941912288 -5.726895143070668 1.15478205189641 3.8271248170818284 -22.519819897644673 4.1267390842493645 -1.3810581085454867 11.958856175868725 0.04472295170007989 10.564649478746135 -2.057434484614601 -23.87993642377058 -21.58426701690799 -1.4444388552655592 17.493718466170186 4.380320133333544 26.077005472411006 4.347545342343172 4.305301876789981 4.433166029310004 19.74776958293562 14.030733742839063 7.7188107584658034 -19.494042389228138 -14.76763406389744 -8.18121602116705 2.913965295973896 -31.189443106806507 -4.178321383450395 -19.086342497926196 -2.193315325312657 4.370580687962485 -1.4164513842314985 21.162392684920736 5.148447022346443 6.0911817099377314 12.432991550758246 -4.595613059759763 -5.511495794893682 7.243819571307866 -9.572940303599271 6.9723117679712425 21.322237848821697 7.086686808213496 30.105903062958614 -4.7099695522972915 -2.8710368738923457 -2.394320594942244 -6.9596094869703595 -10.166529204209555 10.877473026207696 -4.428116676928835 17.98123634517541 21.217938929280045 -3.4743188802746356 -7.578327565104795 -0.8844789822252683 -1.5613016122077086 -11.527601942670556 15.288250642973088 -8.827944428048701 -17.153466769790295 15.987578449498269 -7.8736672711090785 15.744007012063129 5.489236553046937 13.964397377716853 -26.91440688660816 10.184994537529509 7.643895977707697 -20.35461019842161 12.806177047235826 7.813115902880782 4.2684097392262945 6.21213258825647 10.530855803074076 5.57454113378865 -0.33184534019457773 -9.85697262165984 -22.11281334472357 -6.164077287029928 -5.84184770048227 -5.34147459126848 17.87947126849256 -5.01404264236859 -13.446349500885876 5.686557802655015 -6.81413679127302 19.549804397830883 -5.685588429707394 6.62347397691813 -5.017280317392436 -20.896549218212108 -12.091705693057508 21.098205407086972 -5.417055132489689 9.421137833400985 -6.31156010916203 -11.012501535087445 -8.948368728344569 10.156082592017752 -4.672999586769933 7.765218533874066 10.182841654891712 -4.718755239172177 -5.577090808368341 9.713867658229924 -1.712729830530771 3.200108996586918 14.8956682745132 -20.751331970319065 7.773545205587789 24.727051408927665 2.2142313683284964 6.651048663619142 -14.263734550469822 5.479911830050791 -24.96049831663224 9.170897225168197 -16.780710161328596 8.66016023463005 -9.967972417236341 35.735023959019436 -8.167389154793845 18.43382018594433 1.651286204580012 4.285576810395109 10.464134167502253 -8.189378249796892 -0.9280119069310024 7.176448727740932 -12.447685852979014 -4.298583364113054 -20.639692987530893 2.974226712326364 0.5838781054317491 -11.297993933598482 -0.5933016102117311 13.720576953916263 -34.865589761707504 -14.316750943594903 -16.841462520255046 -18.78608263638931 4.270642584663277 -9.233987967057807 -19.932762788200307 -11.150462378127104 -1.583771223802253 -10.14026494989837 -8.076133406744967 8.028425997272514 26.318404853115148 5.1754943785579846 -10.452220046846783 -0.07113684427637502 10.892309311682089 -6.659347840892166 5.900568499584866 -9.769592283169933 8.64382926897541 25.293261233559306 -8.757454338134556 -14.941358076778386 27.815694934827153 38.01474477221668 5.3098289786506845 0.9196376121740073 -13.648843855403138 -9.929479747607266 -8.557694187998866 0.08834070239232229 -0.512329068514299 24.07167284998415 -1.1476289410924296 9.594587291868136 0.3705126054280067
-4.471512849510557 -5.881571277965822 2.2695649817626786 -2.530002156101082 6.170045234040387 4.282662646845583 0.17049532322536182 -1.2085666624069074 6.312971636366852 -1.077298136498877 -0.07064892580590111 -3.804322189649045 -4.191651869446043 5.066857470697179 -6.451436107915892 -2.5969216996388362 8.240894561367261 -3.465064406397906 0.197094828828175 3.685041416613544 -1.4935482917326988 0.09108275748206192 2.770163469736345 -0.10950955367007008 -0.1588429138368298 0.6978162006435024 4.274969417847457 -2.386803889692761 0.9921477206010725 -6.911194528979134 5.8088780073956565 -1.8795042561931006 -4.068785837896633 -0.7953817100579534 0.4742250191928629 -3.1014230293859817 1.3465855577892547 -2.826570830140785 0.006209536720337156 1.3034991104735165 3.81066712043866 -0.8646806100946024 -0.43649906883056494 2.030090274171405 -0.5937476296926072 -6.024456700898713 -0.01899009617986318 0.9994227209661919 3.3105019108715084 1.7108422351305423 2.234847464314068 1.6857299713325187 -0.760410755766757 -1.2995100112644118 -1.0188914896919459 -4.08618401141744 3.432169475222819 3.860032651069916 2.701408489176931 -1.2825957295193304 0.6246083684839601 -1.7635100933127992 3.1010460145965366 2.8146963024617597 1.3524203513329836 -4.502793006548385 0.9286760871829836 -2.4801993616281157 3.4964980169079145 -5.795500268481192 -1.3085720807566823 6.083795980983761 2.7406567314516197 -0.3090348567525462 -15.876804950692353 1.1084956579698233 3.68233895055308 -1.7582992480908155 -7.9574070402315 3.4222802273802797 5.452874298362281 13.215666120657371 -8.415169917185457 -6.328957064788049 6.907220085433357 1.3075904971490355 -1.5056149854706087 9.474239647587916 -4.999204103876672 -0.47063550247796326 0.10592340231412395 4.28479747407098 0.5516620187238938 -0.13709857986617044 -2.7706534766896413 -1.3824610249450893 5.267367349208547 -1.6952793433301931 1.0254572304238825 0.36100739047247266 7.071515823784277 0.4861406787848859 -3.0990550206814835 -0.10592920062749357 2.0725897520460475 0.4749768166022064 -2.1416975940602367 -0.5146556940290745 -4.649732002996839 3.1450296979610557 2.523040746702136 1.8336566330972621 0.9535083888869019 -0.08039250655066225 0.22177370895742257 3.5326338531391968 3.986156888602309 -0.6016920894301018 4.880991267967201 -5.917426202990813 -5.733651513656808 3.0057276847663585 -0.4756247243446728 -3.468579401920988 -2.457985570831314 -5.918785833024144 -2.5034281018286575 1.7725883060372631 0.9763640610978598 0.3057442279764242 -1.9179610389966328 2.2565433041257523 7.749109079308795 -3.9731586460717185 -6.794464982190576 3.007269590856812 0.04841087752418076 -1.9843439960678662 5.220567066350646 -1.7667905642268664 -3.39957545022163 -3.7781889003757345 3.1449470991923207 -3.1501565981533437 -2.401833787983634 -0.6350220087552388 0.5230850300958985 -2.2154958620912004 -1.6054733536447017 -11.637294040384424 2.5503166616679707 3.2266618500563364 -0.03538941053149173 0.9324431911283041 10.960322144718956 2.3440238131907294 2.49938217153289 -0.7912311608662785 4.408507763287116 8.875477745997815 -4.104566902616164 -1.7376295189681277 -0.049324853038269785 -3.2594590672226977 4.770403062234484 -4.544647054077893 -0.41886098090944046 10.271028290287843 0.36588085923984753 -2.90934406467859 0.023150655882785913 2.22413334416541 10.945252340113939 6.05627913495 -2.482341202809187 9.849691610908403 -6.072681150439249 -5.656371396662951 1.1638952887428171 -7.074349859625487 -8.885156938135301 -6.585827952318293 -10.60605522449091 -3.350504967354893 5.853229645661793 0.426756460227874 -1.6671931438366825 -0.5951022468130741 3.3241515481838593 -5.409598122975529 -5.169694854137872 0.3447903698086452 5.682395347835178 -9.369052174959368 2.2717037126441975 -1.3124981984999282 0.15935672842098242 0.08878445849969331 4.912324607293329 2.120599426974874 6.762277379489265 -7.326751033915299 -6.640016084811121 0.2731572796447402 -1.761855738815887 -2.4958947226516495 1.023238898921515 -1.0411311328376636 -5.789268526968113 7.594347794450253 -1.9543952970542884 2.631226783244448 5.203621231126002 -0.19224933427676866 -2.6253670458489817 -5.594187486068874 -1.9744429911836898 0.4951106284182418 -5.463229134040804 0.08713487670540677 0.503104672148441 -3.78419459829752 2.679815195530421 4.655083772529045 8.341789766116758
0.7405205017289868 -1.7520135319504575 0.09818295733154773 -0.1419158043880573 1.9979462268279888 -0.11700148915558252 1.6986553478115567 -0.16661960382623264 0.035756534756904344 0.059208167356963576 -0.6803562582538462 0.297603233199618 -0.5668202663736955 -1.7845761596578738 -1.0477599456018356 0.10444256368797757 -0.4131755727125843 0.2739121994753287 0.014245164482416039 -0.04349807360142908 0.07469515042548235 -0.5733119466154769 0.9529259048419999 -0.7712227082824391 0.9794217981051244 0.24449665151555544 1.1133917111312668 1.103051918993111 0.48557371847834757 -0.4184197898769428 -0.364273282535922 -0.6063949159619169 -0.7984661430843278 1.6255112258018918 1.9874645529802824 -0.785441989402909 1.1960766703193724 -0.9157664582301949 0.4579111000968569 -0.6862852189405914 0.40829532318912043 1.2040442656164438 -0.5606212288498862 -0.4257658603481799 -0.8309264243612253 0.9417667292291052 -0.48144926763900114 0.1715880478721222 -0.5529646186106785 1.588766554734647 -0.18891711800858635 0.5609834268344487 0.9261770597111723 -0.20175157040062527 0.12284794009618094 -0.6651714969490061 -0.5127538567660752 0.0011213251034689516 -1.451322393920501 0.9491888455244967 0.11338556802666545 -0.4892535140365539 1.0463716501492368 -0.34319177706086795 1.3646516844843812 0.04984273423646292 0.8977220633904375 0.6781931606603159 0.8196570128412082 0.3897268339163948 -1.2763695968987565 -0.27417770798847485 1.0569171464051639 1.135915076788958 0.3674403804778054 0.3329576076042007 -1.448160658524 0.2723776592439555 0.6352703519762234 -0.7735830211176101 0.605127508398277 -0.808705324749786 -0.14625458624734086 0.714736993178203 0.2708862918714413 1.3748218364351479 1.2568139961853364 0.364384538378382 -0.35719491080093924 -0.3523792158965728 0.12401078863303429 0.02405822451328292 0.8556656741312327 0.8704154234779246 -0.3489764225185132 -1.6723239984016027 -1.1674610864857642 -1.3236045663179823 1.6437409326492318 0.0936923179884888 0.24315868082447017 -1.8719133359642501 -0.977108773293289 -0.810555236408627 0.8671457755028118 0.2649425980313359 0.830615758018285 0.3811446188445415 1.163896822519339 -0.4985949680897057 -0.3088940718899445 -0.6264485891636072 -0.9019688147424568 0.8524497334769509 0.9557082426895581 -0.03817774134893438 0.06192326182501163 -0.7084675445788924 -0.09286467629762418 -1.5189087806703887 -1.0229014036414326 0.22433260389120746 -1.4753225862666242 -0.5215140729904924 1.1933862725687228 0.8265287299410965 -0.24811419976384194 -0.4074828846624267 0.05814306401059514 -0.6033391725879935 -1.0307504888922283 0.040144530702862995 -0.6819157589340004 -0.26190307487258707 -1.000279544003994 -0.4540304050247797 0.20350808183129984 1.0100289740026809 -1.4766778282397988 0.1853565037479945 0.44057638024288837 0.05865006772295282 0.16165230975822661 -0.25981640460996436 1.364266648192194 -0.7006626670199425 0.3426696539282856 0.3619944847701353 -0.5367402274272789 0.15332779245592604 -0.6119346727583459 -0.30857078083021494 0.03972251676412242 1.372548021292813 0.3145903173618916 0.14588392542451148 0.043724963546608916 0.4308118148835474 1.9149923145209211 -0.9469309837095903 -0.347778524545341 0.4165266610280475 -0.6188337491656968 0.9748345647675201 0.5071940807310074 0.6266201503919899 1.134196246604315 -0.14704025599062462 0.8056882575828271 -0.6421629723248514 -0.7711886960765632 -0.7047357047715513 0.7661888733432741 -1.8131802031424729 -1.1993090284707988 -0.8111219745803282 0.5333126999064656 0.1397042869541806 -1.1549198912946412 -1.1446638997761966 -0.32199834662989524 -0.9534867415805989 1.2670336339409958 0.21569882153972397 -0.47839685177387414 2.0124805173967126 -0.5372482324202211 -1.2072395355872207 0.6897941074579879 1.2405272731104346 -0.2786914651998034 1.564000347139724 -1.3630877974457374 0.1978129478554843 -0.2687157809722203 0.8189670697410655 0.9574756961230018 0.3981301275538582 -1.0299242387019287 1.396393908649927 -1.1427192397293768 -0.05229148341002072 0.41452778778844585 -1.2150276334224674 0.17422883412773052 -0.3761821619416819 -0.4548296752266889 1.154706140391202 1.0278029134168252 0.5595452847211532 0.24409073074897017 0.5366971960477036 -1.193426326034114 -2.167527499399534 -0.2909518348402207 -1.0705926191900388 0.5862323471371433 0.11504208953164505 -0.16401209072602285 0.1662934580540192 -0.27649561258594835 0.2695275915709938 0.2542933812216656 1.6237863129947268 -0.004725604211340955
27.603892898500078 21.8298851924328 25.7807403666188 -19.180680703624486 -34.69632424967433 -22.408271219443037 6.928698690675409 16.905737298278545 -17.036880126619774 12.986716102724 -22.021157275127898 3.0401796902537512 2.3631637933846927 5.354795724393956 -25.881200924771633 -6.994732582982584 -6.077076890568445 9.409654396577666 -23.397938670762223 0.5410564337045235 -3.9003413645138996 21.40475718863753 -27.933829486463924 12.428458288299925 -19.300200431976613 42.41749325920471 14.13666415694036 -3.9643153287369315 -8.579102713731139 3.418391484654345 5.146432923649145 20.13033795230139 -55.48453713178568 29.15675402753868 0.7368269775393049 -18.866955674404323 47.1837870203667 -14.749320862082289 3.1081394599743444 -16.72532399586041 40.94445654639639 -17.824792146384016 -17.078623250758525 -21.378984486293863 -25.243123293158067 -2.428476645684603 4.780979499723213 9.301134141983166 -8.305960950386822 -4.60663723876574 -25.248769430757513 31.66584067625294 30.005989334683523 30.229927922486485 -16.01103812034143 22.670651335127946 50.107629723867284 -12.352643632631473 -29.63941478484953 30.41027495966909 -16.35168834802927 21.70855137574285 -17.321669622966244 -13.334880849020651 -19.111322306068047 16.838351079901884 -24.776023510235714 9.360919120076211 -2.1094191702270013 14.876237099559651 1.7978157869099116 -19.141681522867184 15.994364467942235 1.2363389655360348 -7.121585360796099 4.391306532466568 -2.973301824747536 23.16435487168866 -7.955168075946432 -14.080731763527368 -14.692097672564145 29.928287252781846 -20.19687867527013 28.352543202631225 -29.61631053441833 -5.145068335783901 -11.118998351898496 -5.502050498154365 -11.365067407571479 18.393488857393795 24.505192006496763 -10.70673767857962 -19.83708299249737 25.786535157605826 21.08873154056193 -23.540914479129746 -10.410959302294055 21.93680400217436 9.431305365641805 -37.184501595561905 6.821405842151844 24.69849127971157 12.432614492606511 -15.31085844737813 -14.287124590967645 0.601985413880153 -28.209581344934264 -22.12704685834009 -32.68010529244268 35.499042175840664 2.64107642879311 -11.46927834303721 23.772763075526832 33.65694109337867 -7.6511364036842435 27.54442929108384 8.424494379755473 4.217620885715001 13.079361246496564 24.46721947692466 -7.800436142353564 18.012586847266757 10.424722530894638 5.282046693495057 -8.680690542048877 21.45193491299841 1.5056109590617697 -3.931296593456189 -37.315598877930256 30.160840749939695 -11.369947581472951 -30.690689128534284 11.298424739894617 41.574688318104236 41.5765645154145 16.107403525780978 -28.1656490193748 -37.04345276937933 16.635118474923456 -2.7811775029057015 -44.89541493495301 -15.808253974781554 9.037716723611037 24.02263138897662 -6.758342205827972 -41.612830792534936 -9.772699032824185 1.3070947978283596 24.53275605574587 -19.115061964186147 26.032421701846623 15.30210425222538 -36.91462397724475 -27.854286341773026 -0.23327297560293847 -18.069774106782873 25.804766779804222 -10.087078523670135 -19.749583509884577 -9.76827888243711 -30.218547690935146 22.63415622746227 -17.414071474013763 -1.348370954432965 -5.519842339804507 -23.79288611356506 24.19794213943051 23.614192428448533 -2.5573943901824663 -18.34116287921667 57.54307479992309 15.830287138218258 14.485927818828879 -25.727850722651766 19.66757343040899 11.603865856684017 -15.031714067073757 -6.009677343440445 19.31979182742466 2.4605971583736523 -2.6970702273723424 17.94318873621424 21.76922887220203 -14.358849316432682 -13.798757351185152 -8.037671413023542 19.009524667432736 12.724892548705625 -24.57596378779866 -25.977371087446823 7.257681240600531 25.220224772015648 42.60483217342671 5.72374866204899 -10.44900221200862 -29.937810974210674 8.212916047812964 29.484072218356165 10.624056155213603 -3.8370020864741363 -25.682653836594785 -8.365692502031408 -5.360133931670819 29.727254604571158 12.825762152426567 -41.797340256886656 26.161009700074395 13.022025531582532 -61.287577024579136 -1.7796180018927774 -25.754019746366712 -11.623485882481456 -18.35349989876059 8.815247468573803 25.969935325489985 -22.774607490315926 -12.992130226423592 -29.341317872937147 -4.693873862001088 32.528675891963736 -5.206707752736246 8.652080640227151 -14.353640047911759 -33.32138271398551 -24.28133315615062
-1.2800490646245577 7.944867637761748 -0.5632197354433106 -4.207419879047423 -4.622685967239825 19.62421784914906 29.85601816064671 8.980671663627461 6.503768932186058 -13.669754108982639 -5.359654053107021 15.465118076445167 0.29778325631904135 13.6501193184046 -19.883477243223393 -26.99074656143598 12.070339480518605 17.47802128789102 -8.701669248409043 0.42218184320425656 1.600876153008942 12.364382460913925 14.943534893075876 -10.769842449608626 7.441704502336794 -13.02728704378625 -3.3606154814000173 -12.233485952439548 0.8686267400695162 -9.204520913346993 16.324164305772715 -1.1603425681451454 -10.264445144649752 -2.959431453360352 16.055792978244035 5.990737303434163 5.7471679123168515 4.712363945071151 9.9495100190271 -12.42535071342753 12.628212894701395 -13.320927909786636 14.455182007803618 7.124403431615878 -11.079585759547927 0.9131031917273853 -19.173031954275395 -17.378055065652735 6.272793520866675 8.733644126057323 9.167397032427564 -8.861546680958407 -3.9052980671088933 3.0256847570404655 8.517904401405579 9.661569940223698 -6.049902583617061 25.772174205314553 8.010281149893483 6.085006767141717 -36.09147539687707 -4.865027596584011 -13.977110853057596 -9.75037873786352 4.607425355244699 -17.336977835330174 -8.167224646252428 18.518542191636378 -11.607111902706583 -8.04448528838389 -1.8268768530421577 -5.862124677694668 -2.2699662146832664 21.443876233233834 8.96281910376578 2.357692452882615 -14.985094324483116 9.005164454636136 -3.303319419061028 -3.5159389717037453 -6.450345869114004 23.117763551845716 -6.521559947958898 25.336793760252693 15.265965230472164 -9.938109333051267 -13.683533914401208 1.2899146673272086 22.156931151172405 7.558521875861424 -0.1925201909474074 6.043218656645833 20.817794819503668 2.2712884390956143 14.290598442198556 14.810520830987112 13.886732108046468 5.090430266571665 10.870520770917624 31.063841085192134 22.703534577024264 15.504730396892692 -12.099905234156711 6.107300218728577 18.000687319105243 -14.083521095609129 -1.181174132134125 -3.9206722893537393 -19.63175060926626 23.89217104920689 2.0510250404452313 -6.76950487033115 -8.886670757440776 9.938681313048104 -28.860755582588435 2.1774799220060133 -13.01925315867849 29.885800529841593 -0.22768705213426044 -18.527919914959583 -3.1571285562835403 15.2706464448008 -21.732576074766314 19.55670542962506 -0.894985220209164 4.935016622570143 -1.7583692871699024 7.270506796332259 4.658521771107386 4.9263132917219625 0.8209368064812029 -18.541622327824978 2.311472512832581 10.165481201088644 13.05627780411807 -5.704466032726392 13.437558751117399 -13.88564662936165 14.92396968871276 6.214789681185082 -3.103197800646729 4.8341359370685755 -20.228519775961328 12.20745007375187 -9.474318486657463 10.4947314797126 5.313578778495851 -7.968173770379314 -6.176696125622953 29.78668204113553 19.930029112879993 -10.837482805485662 4.861317440072553 -11.901784504802679 -9.462686445370244 4.184038346395098 -4.3917479109104 -16.34425652928419 -21.091234283873842 3.216383256448066 -4.668528573021882 0.47314982806072226 3.537717326406113 33.032896769191844 -8.030595982398733 -5.301610865373806 -4.774031008777546 13.881201656939256 -9.368302313272974 -17.69400855470477 26.65210372226236 0.12741266992392208 0.4425750209355631 8.184393759980804 11.59260299506162 -22.97982097151598 0.559949799290593 -9.598044316559793 -0.10715718502355775 -9.745824559123403 -14.05505144500774 -13.164038405632654 -12.66001916190693 -14.090156202487844 1.5417774502186774 4.187813779036349 26.106457140453816 -13.55898851237227 16.57527563738251 -15.882448867409686 0.9245720272647883 -10.028859492559258 6.637140231272557 -11.815499439854992 -6.6469514206879055 0.962885058863969 3.2914276299441125 16.637473145848514 1.4356702428315793 -9.277339989802513 16.382813786744954 -29.35554979611625 -3.4456411883645472 -0.863791034234057 -16.773593380327256 6.235958273188583 -28.134185690195427 -12.790366116215777 -6.815952637301792 5.523118221421497 -3.113663434786201 0.6009535561183732 -12.03829336143649 11.094339678104316 -9.517307547381382 -2.003090882186172 -6.637730692090425 6.6067312330056716 -4.105004724975459 -6.355789864143109 -29.557964836818147 -4.836527331571913 -20.241774697211714 -24.95244371946822 -14.427307461304851
-0.3457853644462862 -1.2047739981806738 4.737947863752094 0.4614746821672067 0.03458820618015112 0.05454199021547179 1.7065565241222995 -0.6228342991610676 0.1097227127495085 0.8119859331515694 -2.5134263398299876 0.9241603381989363 0.7708094294979042 0.7756078743827344 -0.347649973399429 0.8351577709170046 1.2626517889286444 0.17203796679909233 1.506320102911439 0.3889101552108772 2.21619135458155 -0.14316550686020119 -0.35936018106128104 2.1424539761608337 0.6510467024390396 -1.259045729998084 1.5512140624554005 -1.2922855309077328 -2.4598300234976134 1.0981469675016067 2.8083503827340097 1.078922402295328 0.22839684875728236 -1.9900896511719848 -1.8617812481579044 -0.5580614152244366 -0.8466998621858115 -2.5217717748739537 1.0103051907020648 0.22398175095363884 0.0695223607192446 0.6433858717661557 0.3656681683254216 -0.09590910037888122 -1.5208017903800426 2.881946095324301 -0.585719251907709 0.7891849027757134 -3.865391876908566 0.6750414245417371 -1.6385317782002629 -0.12666779201275158 -0.34503647456941844 -0.7791865078610126 -0.08751052549033783 2.1113815984393263 0.6259655362380967 -2.2853657661795386 0.520308051079581 2.846295068214951 1.7334525955429092 -1.9761141450468198 -2.0480864205442737 0.4876091466274241 2.129407489438291 -0.06949414567102837 0.8452684470911814 0.214646966744037 1.2668752537126475 1.4889426410555295 0.6482904101174346 -1.8820712409525222 0.48798300497432245 0.7487126811969598 -2.9051829602391366 2.37113791295729 -3.370487433762146 0.37080497415221064 1.8951873380542645 -1.0693459083722814 2.0225469832203857 -2.0848969013270575 -0.9557538720170303 2.391624302410711 1.353667333917843 -1.188169478337491 -0.041086867629352625 1.2663889236591448 1.382507043897667 -0.5572741141193404 0.20751128871033633 1.074851359268759 2.5365328971654377 4.055939607000454 -0.9519482691969674 -0.42995074735037964 -0.18831226069212514 -1.582148727715256 2.2429512972772474 -1.7353909976531359 -0.00439789857279595 -0.6652744130416076 -0.22639247950344893 -0.3958955944335445 1.8812566185391704 -1.3064135578630105 -0.5416610502674958 0.6860606596780264 -1.8933380235329855 -0.8883078305306124 -1.7461045447896637 0.0451729858506812 -2.87963551116716 -1.2381815330668193 -0.8304219512432883 1.6745548666697576 -1.0795820794384 -0.8564309196592415 0.21193006408972367 0.693849518137255 2.323843592266641 2.118303989743038 -0.7714742411102847 -0.18740327492718806 -0.6104922569702549 -3.350596761980031 -0.8004064316033611 0.3896457639843863 -1.5528510465017664 1.0730286082628941 1.2935751259007122 -0.42927769877119587 -0.30643430054913634 1.1749497849559964 0.6598715532123561 0.2803062475711644 0.736930201363657 -1.7183738506838024 -2.380999286082045 -0.8341656110127107 0.012968174060595314 -3.560580846195557 0.3884373243716024 -1.9253476616581402 0.29080174128874536 -3.400581685878839 -0.2268703904716474 0.11018788985521351 -2.585245804973897 -0.527444889505173 0.41922071991156895 0.3305631484484122 -0.8789959930067532 1.0370131867389842 1.7391251853832648 0.5027496296205397 0.7051010490348592 -1.247779951092354 -0.10611306338901619 0.47946615627995837 -0.8825140052940986 1.5085768045638372 -2.2668245920698684 -0.20629690422253416 -1.3335692346158134 1.4659045445591496 -4.1533637679210615 -1.4131642161582412 0.05422179595607543 -0.017509850670423734 -1.50607903698265 -0.10838544956061029 2.0580140612126336 1.3099732119483674 1.817604401372836 0.4068713940443171 -0.4750495158391876 -4.9469124283812755 -0.4720412950177379 1.6767218123943541 -2.950012804077931 0.8019974355252079 4.169313442574374 -0.46798072036295546 0.48836933348391043 -0.6768664625133747 0.014703817831335899 -0.24873319442058917 1.5935805813306818 -0.466885310550558 0.5853823861583496 0.46870818677891446 -0.24197695066096997 -3.746403631757043 -0.14939243299930924 1.4956613868497777 0.1568447676977704 -5.973379260736142 0.0913046215575944 1.1868872403367567 0.2315120349081698 -0.374234662483206 0.7403314794110437 0.24788213559700337 0.21815076305915646 1.2195554334024983 2.890778528346027 1.2640107324929377 -0.9304544350047116 0.939259987755979 -0.24660614770183842 1.2871232040399196 -0.36927494927936616 -0.512282567548545 0.35340749368097635 -1.7582018619441853 1.891954275918039 0.022103380769570635 -0.845120639494446 -1.012883686502741 -1.074859894477979 0.8140162196201384 0.7422028978806441 0.0053281001341275915 -0.02704532934921595
0.40112646719096673 -1.8809801542357611 -0.7869863118235091 -0.3458245266627185 -0.14614793103401524 -0.7289062994165 -1.2607403938997317 -1.353694785234708 -0.5426305437375863 0.5622587310784967 0.2871004756502288 -0.003095801163047327 0.6652902913001028 -1.204432817646857 0.778163266233434 1.1728891296511366 0.15055677915199833 0.26133457694739115 1.2006231492727009 -1.518181197034817 -0.17486628776836916 -0.23493766987436357 -1.197607289076267 1.510948175453322 0.1955273457581587 -2.307155220923834 0.9829215086962257 -1.1479995078508725 0.5565661855778531 -0.017844800777534725 -1.4360559849335668 -0.7951347530298495 1.220504162640204 -0.9779554481047328 -0.1478996274574591 0.23756596205264147 -1.0551966329998506 -0.3944129745000308 -1.050183784761895 -0.647611979771683 1.0346337697889265 1.1772349431276468 -0.02666221309083139 0.33219640271870077 0.8976831923046819 -0.8429453464360188 0.298623764121136 2.5016524333926577 -0.4501942400492822 0.512327643281434 -0.7711184277407078 0.1677428052993622 0.5989817355841197 0.5124795977158165 -0.03900783806705558 -2.6817395171875202 0.2868893378783936 -0.6087542620193869 -1.8082756524498398 -1.0132185869211456 -0.15926449545598342 0.01628165632783974 0.00506299063957942 0.6920324609418097 1.6906287778992855 -0.8358085976297168 -1.0561388606726385 -0.8108851879220442 0.6333677806156627 -0.9942655848253519 0.1488732227626816 0.05411427675379075 1.6070152889009155 -1.036838802540116 0.05540086737136439 -1.7007602822544412 1.0500210048039402 0.20701725729237136 1.23605099634295 0.007330023884177089 -1.269850606759542 -0.8243132147559307 -0.80862592682021 -0.9599240181845222 0.12471058541337461 0.9565142390921831 -0.24076166565380985 -0.40355618087349776 -0.7379496952139492 -0.4225777286922586 -0.21727152258761478 -2.0440738342919724 1.8730826782688101 0.4092216652401116 -1.9273352697047803 -1.303259978789309 -0.17378512736887355 0.11416732311155717 0.16221589471164982 0.509956726363736 0.3718261981390914 -0.1714815996708911 1.8072552785600784 0.022987730013639088 0.37146608727768077 -0.7961762676915728 -0.18362459211597584 -0.35323590732778637 0.49906710067347493 0.18401445780088885 0.6780312778748683 0.25817518630260883 -1.5019925130909488 -0.683074158627256 0.03951760694907155 0.10604511589184894 -1.0359690917316873 1.1301328058353912 1.6155236293308652 -1.290960143759234 1.4717405864819708 1.3981585158803074 0.39054982483785483 -0.6537543754403573 -0.6380225596870752 0.7317647892288373 -1.3523845707266557 -0.1810318204581673 0.6639574668056676 -2.02562927750924 -1.3117371611638178 0.9319614087323616 -0.4317078525521539 1.2159412637257005 0.9320139961204917 0.4569552537469974 0.49331240126415143 -0.7083936561408186 -1.8424447530372268 0.5097794606461283 -0.5315583230843259 0.29078192473895187 0.0871988522510682 0.45521904346495606 -0.05643545858712986 0.985388232244097 0.7833845848988227 0.5145077520834378 -0.9731598149773326 1.542175601489123 -0.7026569028574864 0.31692911371224525 -1.3554005516122505 -0.7454429839216837 3.200700794570349 0.08212707241983688 0.5892196653340136 -1.096156120786041 -0.27484428020925356 1.6067595860631825 -0.10549562858949856 0.618722235929345 0.31721079760932436 -1.9184082202722523 -2.3474855078185453 0.7311461521247528 -2.5388395599959463 -0.0018441482950262867 -0.19163284662585747 1.4649226166255773 -0.6735105419620588 0.4573256902421828 0.6830338686585693 0.5914926262250271 -0.11149647913423137 2.0291600005911916 -0.2829050609887841 -0.5786343570186913 -0.45860483356930853 1.4790733320498972 0.6413425995273602 0.2717791628975612 -0.4424292663363835 -0.3212528626667111 -0.7613453521332951 0.9576202165979036 0.4165074445799854 0.7976185862634466 0.3157583599187389 -0.142896405698952 0.6384366429032592 -0.6035145261402499 -1.471455561946375 0.4408147633428463 0.8109465688400671 0.508060863716152 0.828936096793373 -0.3759433220506127 -0.5339742743418148 -0.9469876778200952 -0.03664778162642479 0.0676361519862259 -0.06743722620646679 0.4187835586698717 0.7107044889884789 0.35365940723327205 2.384518120979911 1.2067114008400026 -0.38254351049846286 -0.7645638039463125 0.5284634858399111 -0.0954545339069685 -1.4196441708602605 -1.0952853950320804 -1.3753277459910767 -1.0218536666050335 -0.559434227307093 1.1119724278561602 0.43573122353984334 0.9260516068869875 0.8759917257407307 -0.2562627457160657 1.4634033749508435 2.6429596911833046 1.1683788831956299
21.085323754693405 47.91608976449744 -78.64317254712489 61.749988986542164 -104.19326841144795 1.9982056746190278 -118.01359094548562 -22.04102222139057 -44.08108973502179 -15.586486142351943 -52.32044767110804 25.51089826213983 -2.46721021645364 57.895485250354135 42.18054086446145 -38.024541319901644 85.47463693452522 -85.50084697847711 -147.91379823147773 77.21299514877435 -19.178298276486522 -55.863466718923924 -28.48045434022044 -40.920440717882435 -35.11638733647921 115.13988361207606 -56.9948158696332 120.22618382552962 -91.07401321688711 16.612507241099603 72.43828611306071 -25.853701423007994 -43.00777259496337 13.500432122705673 18.10589722492492 -96.70808095552258 -19.944665896477964 29.9915852417719 112.42327286040641 2.240411578375748 -110.62452989031473 -12.209495165538442 45.573224612652325 120.85129608296886 22.05663004121917 109.74665894369917 0.3402455398682965 -100.92975031624852 -18.698849186943452 -40.878885270132805 -31.354769654869344 15.786617238492552 -43.999343620102856 21.024440490561265 28.204461663248164 -35.73801098102876 62.44926203985455 1.2385898530493045 11.734003902492615 -50.058124454102824 -91.3249209184909 -31.704930321073665 -50.74856162709186 -92.66930529270141 41.39748350674459 47.92151921845259 -44.04737642787277 31.139795381704023 -55.02442325689791 14.43024523975371 55.38297258090207 41.36681260108796 -20.18733322374295 75.87303883621033 -120.48732867602737 -42.81593058793316 -42.91143823621558 -22.523274365139056 -6.666104269097608 39.27185237416516 -36.320192890963696 -21.946753521249732 -17.335452108385752 77.70900987689612 -36.00764914620821 5.494323710099081 -13.439466241300229 24.632683802814416 -52.7124071981471 24.468551807822116 -13.261350299217238 -38.83446739473195 -40.7871893149725 25.431489340058235 23.17160743243151 124.55387415129955 27.102463000353268 59.143127425810974 43.20401090931156 -0.9561096961038503 -18.999382711645584 80.83299842896035 69.5258199676019 19.184695120865133 -46.14785776838366 13.235543056855608 50.844757925804075 -8.912293500727149 67.03613720429259 95.02702067668798 75.57897298350592 -19.30858845718688 72.92390085443958 -87.58845022392299 -98.35379936768467 -11.163352677764884 -20.543573224168533 33.85388863863364 -24.081984243692094 -48.88084047908836 17.856624612268924 98.22460592169367 6.331094262464899 -7.6559017401011715 21.61218176194459 -64.36687811852512 -17.448950834749542 94.40690417615679 -85.98247477938557 42.2715214239651 26.209982020372834 4.8781193935175775 34.24531559550159 107.0611723815306 60.88321670553469 51.273977017233456 58.783897534628665 -54.4684193182671 31.392494488315076 10.449917483599439 9.266562541819054 -142.6938673095389 -4.955619579634517 -61.385997649706795 9.852319465927982 -55.37426065744637 1.54450280556827 -6.029793415144999 48.39868586833193 -45.882158081852396 32.25136426004277 83.95302936267223 -47.3210665227296 -27.469827377028704 -23.287871607056136 -146.33989338660783 -41.74031632161712 33.72403840518647 33.36429737013622 48.529471794960074 28.153216177106057 38.147070989677275 -22.662827436294446 54.10558537190503 81.11251631236499 19.913276323596563 -50.91000760114002 21.08259240055832 -107.13735349888682 -31.49306603782658 -77.02442906215947 9.806542249169944 -79.08910491734639 -129.11865611107913 -14.932153108168631 163.49095819181093 59.226948891591874 -40.840215391168826 47.203183581487245 44.669556029523946 20.085463848502656 -23.48407121474424 -82.29486040270653 -107.59163324202792 38.4180259591364 -70.48120746630433 -56.26238372875944 72.0320394397032 -14.646322795935184 -7.387536184495723 -61.848218703415434 -29.451347253601217 19.885738738002917 81.57658881519056 11.266638440562748 27.65861798032246 -33.6790878995632 11.242569469131547 -18.167182205430095 -26.06341965728272 90.78832902778224 3.6879894085218674 -82.65332528370006 54.16331706418475 65.68976971880338 -6.719903166578312 105.07809623435517 -70.24104133925498 3.6249296609261057 -1.859351626341803 22.681851042629997 -18.92992732532074 82.93234764273505 21.75041112916341 41.08983518733993 70.24499396493167 -69.37946236335355 11.845858297398998 36.789438187088855 -24.562437159642066 -29.696535796193608 -45.018994821452395 11.055641355643397 -14.579634831087104 -92.21109527939663
-0.46606569564601674 -1.7151323263800404 0.25924598932053966 1.0677352393157455 2.243579621685028 -0.3826042827715529 -0.9881503078965871 -0.05807503799890502 0.6622707522721936 0.8039688452739591 0.1633155538036385 -0.7605229012483502 -0.2972541201471291 -1.083844089516012 0.10179303264085274 -0.38509017390162636 0.5183155634990005 2.2048516921718067 2.6203020543328006 -1.820391354875553 -0.46820901007583765 -0.18538245594789632 0.060889851778335814 0.3742021506185516 -0.6562299261522463 0.0036884815380254544 0.0877995117037786 -0.3820754133530986 -0.27166455078674956 0.8757989818703872 -1.736066067336544 -0.6793378019995332 0.18997098191959982 -0.19180702976787575 0.9268662604915548 -0.017783419627783882 0.361050060873634 -1.6217982636930943 0.47968760679041356 0.04461966433241421 1.0099763325322229 1.309357614274601 -0.15089237026192132 3.1302952661344627 -1.220796750556238 0.41970772300867965 1.1559606459541707 3.19966821986539 -0.7931354316383878 0.8492759492868457 0.42987387198587723 0.4515666014457244 0.6901008169210507 0.6725921796138123 0.9265366515636348 -4.304824109720529 -1.1069466703524449 -0.4127093704047407 0.26981738626950175 0.300836519224153 0.482691950337407 -1.2101619707027687 -1.0590243521741165 -0.054751151087560186 1.1375612548995697 -0.8261018466205741 -0.5861170401904764 -0.15191241317300772 1.074784307511385 -2.9430988896473043 -0.7027630285659235 -0.020937990404754553 0.17551756548081085 -0.3107674480802233 -1.5867157086936015 -0.5512729124627216 0.1125419305014834 2.9722713531178977 0.2910355195357366 0.828635830162497 0.9994536937661114 -3.99386924923181 0.5883555757512564 -0.881452726579972 0.23674887655067506 1.5162858099040197 -0.08340486389588381 0.007393974573285967 -1.0235859015272561 -0.7931370370895197 1.2565477012723516 -1.568425462079865 0.3617911809542489 -0.3806020604351917 0.0297478191193375 -0.4548286197065062 -0.1633102824119576 -0.0057475775560290945 0.38603693351324675 -0.19023810361758306 -0.4071059063078493 -0.15572127662079313 0.15391844906220295 0.6231480016675417 0.25998084059867144 -0.7957498973235377 -1.208254422487559 -0.7717944398976044 0.8403042780821002 0.2639749084082655 -0.20365348577976322 0.26680720438802014 -0.09780818196953875 -1.6893407970081116 1.175315109075869 1.148322210238965 -2.7680791212069447 1.0517133289984533 0.5614790183203942 0.17867703856100892 1.3951326740934304 0.24548133118968132 1.1766108869662129 0.8024497397813825 0.3884976650698326 -1.2884440286535614 -1.2558460033262633 -1.4148716022239585 -0.48272057839907967 -0.9898255717616031 -0.7414295916918124 2.0282465997705432 0.3889538992045973 0.5913556878636479 1.468443988683156 0.7894372137552419 -0.34617944687045843 0.189882085929117 -1.426818070525032 -0.5486542927101412 0.2098125415616558 1.18938320020347 4.166955979685713 -0.9791635340055832 -0.07654957247656281 0.2560810843160779 0.23577367680609823 -0.9467079254007276 -2.4019166124818025 1.6710312036569508 0.586471783916455 0.32552886451344143 -0.38067185949254295 0.5775669767446195 0.6491035621123756 0.8586053786828781 0.9647585987712446 -3.246679343752538 1.5773265977509288 -0.18801717554084987 -0.9350582832346771 -0.7278882544451173 0.5406266781129317 0.6902460651588068 0.13007210574048192 0.8995698142489861 0.959810471532226 -0.6084768644472771 1.2165204415198627 0.5343426585802433 0.513472943232703 1.7055985778955365 1.6472227200135532 0.2071981576991451 -2.7450585632743914 0.4685041214311712 0.15251168914483762 -1.125640808828321 -1.5039997330027506 0.45001446687010477 0.2319567456209106 1.5471201228655098 1.024739952577753 -1.4793970786248416 -0.27062948030624046 -0.9299299821311692 -0.855489502287958 -1.2945744280884017 -2.5842585445759543 1.3363106333689987 2.9610197974147705 -0.4903346224624939 -0.2927957194602265 -0.5233798251287917 0.7238103430575529 -1.0614129327848485 -0.2599283105015831 -0.6967216138468618 0.31189293880731833 0.8152434530449124 -1.2582883422660023 0.8237164591885596 0.2595898965669866 0.9099291625510341 -0.8720848363436868 0.3971587257444364 1.6226390089019391 0.8054120930673705 0.14043928343295678 -1.3433317759201533 0.113852887885265 0.8842885090298535 -1.9712826170170756 -0.4314120492577722 -0.3326348687584564 -1.4180570893825863 0.07552925889552113 0.6792281797852979 -1.2966069280714732 -0.3325697348833075 0.13269627631300793 0.6412958484703053 1.1782868520492835 3.0674399708906646 0.4862554398315096
0.8063604341096381 -1.151189593228804 1.2401384150632753 0.8634181569118103 2.926199073880313 0.19055272877001436 1.536402093940419 0.4034134121233847 0.3690099583644373 0.007834110681573508 -0.2322564798253154 -0.6999428537186346 -0.8498246875512573 0.6878218289585191 0.38273290426154927 1.2894839532730593 1.140262790854157 0.27838390928023526 1.5832450176387636 -3.0451876356197114 1.2779255478293392 -1.0876729439608923 -0.5193860598796369 -1.6627191250998565 -0.46162023074140845 -1.603499969589322 -0.1472366713555412 -2.289113924664833 -0.5984023823241509 1.2165353629091142 -0.5093577926900276 1.736721971260039 0.5557077848577677 -1.1710487830784884 -0.22850471837348282 -0.7416515606455892 0.1902014592437407 -1.3556660908292435 -0.5105979453562667 -1.3151762721918243 0.6743415382482036 0.4266359979335315 -0.19992369580988867 -0.49942371502655164 1.2324672630155524 0.40262129437373595 0.8264706265003452 -0.43579528903282516 0.5412093177724611 0.8619872337231362 -1.8453647225171799 -0.6845473695276046 0.6858968071091958 -1.1328516188149693 -2.7714065574768503 0.36643160597584 -0.4536051777006365 -0.8999620001813633 -1.1971388677431831 2.267783835548794 -0.819138978959265 -1.7488961021097014 0.08237971343786255 -0.1758808964899534 2.331975878756993 -0.9592600937228019 0.8918976378934924 0.507017319711267 0.27234885338587445 0.11708214600346481 -1.1574026961987882 -0.050986494171912776 -0.41627524854606685 0.08307087437845273 -0.641628351188661 0.3829457744400625 0.2977019424673489 1.6225763808459985 2.5964830934866927 -0.15821764833825125 0.5034285742260167 -0.3192307956073349 0.596131246845624 0.27844716832210986 -0.4580131540909978 -1.1317081355481489 -0.08542246749025424 1.610428793601778 0.5843206498713698 1.177906704113625 0.011143786332145585 0.03704119688549634 -0.5368619070172638 0.6398184806468477 0.2630101888625738 -0.38732006713974565 -0.2669376595065051 -0.7061023689627451 -0.038875057348510496 -2.389799878874569 0.0054709052572071235 1.0544685167558663 0.41202831291107755 -0.14438664990765884 0.4026591651266477 -2.064637385121545 -0.36667266659926967 -0.139929361458625 -1.1276177775627216 -0.9552028119755819 -1.2873066183819932 0.10239651107403866 -0.18317379443424786 -0.3813859377457838 -0.7934099332339829 1.08646011134937 1.2846355803425011 0.9878170728385719 0.0024076037233028047 1.8351644148147341 -0.4080715762512859 -0.0369849579727211 -0.061722828972201514 0.5566642267325943 0.8268647332506042 0.16427640790886847 -3.2964081218160004 0.384935109202968 1.3084539868355523 -1.6053287373401564 -0.32949390358075814 -0.26000506346601804 0.7927164706497374 0.1825489481346804 -1.515553895461609 0.7403720236707637 0.3767522373465956 -0.04890998736152777 -0.2791250217782467 1.5803893616963185 -1.3090758666145204 1.4855379906226693 -1.003728703023575 1.8506542207876155 0.21040236599055648 1.0820714541230498 1.5704335997865717 1.3049949582101588 0.09820955055030912 -0.4948959959207596 -1.2665325678235937 0.6238104130845737 0.04322234491095701 0.777572046305014 2.0747515055019594 -0.5050592616949643 0.4100667930231372 -2.3132248946357032 0.43525076939099167 -0.2670546949818807 -0.5601163688752433 -0.5734464161563639 -0.8070286109847015 1.9659194494149712 1.0928757184955153 -2.3460236578798432 0.34020729103160957 -1.9925680707428 -1.2672583545305878 1.160666847107087 0.40151929159617517 0.06859876979428084 0.12734482715452983 0.12566638563208632 0.2693967817148499 -0.39361852136399716 -0.7712263158244123 0.11975254598692271 -0.7291039198233964 -0.6780323698271348 -0.6986464073552252 -0.2570042895986635 0.6098863285817047 -0.8985677060652645 0.41377003976387555 1.4382596874311624 -0.513409062963261 0.6617573092755162 0.011497811734328576 -0.5993964622582748 0.9041382997900003 -1.2242343735968289 -2.0023819213134657 -0.9912354644400649 -0.3610141653951805 0.8765097135611906 1.6879408122076534 -0.7874126730971582 -0.6587052154115604 2.7071027222330497 -0.026623287888158702 -1.1666192634692527 0.28404570578854554 -0.30502465626094377 -1.359811194417337 -0.9021371504224421 1.5639043185014179 -0.5726031104590237 2.0507907851033633 0.7041978698726262 -0.10162514167420339 0.9065216672671665 -1.6010758804809537 -1.8862509393704576 0.04819244830427852 0.44733863268357615 1.3526427735656223 1.208872263945694 0.06976969814130125 -1.596082907889836 -2.0773581039876405 1.0345466131785097 3.183928833037694 0.37934535372407313 1.3579034107827308
1.2402996672303561 -0.9119470388248558 0.2628616361020999 -0.02614013457543392 0.2668670679141701 0.6028818808354445 1.5799754072591046 -0.5320373327936878 1.1284134288395926 0.2653607337313696 -0.3648264450246471 -0.11109479828932702 -0.7705452540788718 -0.22353097526245652 -1.3023932807159229 1.3156275261045116 -0.66053876384721 1.2664425238795873 1.4960937053950354 -1.488475981857544 1.2281459388288116 0.004237434782538839 -0.4600968917584334 -1.793559122606167 0.6384887240437344 -0.582798833646537 0.5836965878069078 1.8113109477060665 -0.12273102547044575 0.8656672171786518 -1.385013329803048 -0.18782622282442432 -0.22353910193377627 -0.22501092037353554 -0.3339863140795366 -0.585753489445435 -0.3198587405244853 -2.3992444518812563 0.6365739495243077 0.0761482449517963 0.20505761065795597 0.23002321495105885 0.26761548107556316 1.713024957802124 0.9435325612599821 -0.08398503652927854 -0.10548025197162691 1.411562775010796 0.07559697201494325 0.14357814796886303 0.6034654166174584 -0.5074166902227875 -0.4707188447060463 0.7469045947418466 -0.10700742749839316 -0.28791692681163206 -0.23058995234066726 -0.2980849235939894 -1.557445620307663 -0.9675030948253368 -0.445703713433345 -0.013393884656967975 0.3123285160250361 1.826331293694345 1.2605794213322423 0.1662715623191815 1.2525209551944623 -0.8814902631094894 0.6415785604304616 0.16140268908619168 -0.7483841799558077 -0.07193228649822252 -1.0248308687371936 -0.5476002177183913 0.49861943159700817 0.105427468209555 1.1608090010553969 -0.5019232755796371 0.43623674509460464 -1.2799844267063292 0.9859964275476681 -1.641207220589238 0.20396176168896996 -0.23711696449633296 -0.03820963791082872 0.18319401254070933 0.2765327006703054 -0.28370802712758997 -0.6579325279839706 -0.786599792026845 0.994075918773698 -0.7490112827323413 2.2689094017837914 0.5638809765456498 -0.6296926612387969 -0.9072451706752345 0.5127269786741395 -0.7140322481835828 1.278376875329626 -1.7532646425934568 0.8573618662697646 1.3611282842100016 0.9052362785305105 1.1640033199332207 -0.9205077991637173 -0.9787440246426276 0.29022722416775565 -0.06084125427261476 0.9260297193768391 0.03843762421330543 0.49887203816922887 -0.13092425175984587 -1.6450994936609247 -0.6365487766384537 0.7078273684101617 1.7619309656704798 -0.6423987637388897 0.2824585865160107 1.3430747728317125 0.01636630102850442 1.6218252318017523 0.5282559565686553 0.29509352938317135 -1.034987131157859 0.5398636591882593 0.008635585800437212 0.23012563781973738 -1.0049760327783848 -1.0263352665211507 -0.5498903787395423 0.01572372065007582 1.1730335724162684 1.5832560344335727 -0.33113736813651484 -0.04248227733544219 -0.6975074553961537 0.3076971334572321 -0.45431881032099614 -0.6261776030523283 -0.8674595980550341 0.4300916519224704 0.141306025774117 -0.8819304131747451 0.43116827395745827 -0.03222147930501097 0.1283568478082429 0.6257017941474582 -0.13823433376061697 -0.7456993145916582 1.3965541425439394 0.2771330715023687 -0.1557303960138151 0.9277482604242451 1.850896559144994 0.4722744989161681 0.45916432982776256 1.5043468569950826 -0.30359282842789587 0.6342224871723836 0.23585980112717866 -0.06954279291576733 -0.2497792250442574 0.7548246938971946 -0.42356047666664903 -0.6659643456065251 0.6014565111722221 -1.1581289097053806 -0.3591513701328064 -0.5866421861480989 -0.9613816947627909 -0.4865609687724818 -1.2486488027088303 -0.22818365659330386 0.01428275325549332 2.3433006845542774 -0.187370769696732 -1.003042240125852 -1.0797270877738274 -0.9933468875702829 -1.1588756053150833 -0.8867130694024382 0.3538154986564376 0.21424118065959724 -0.6190252755286738 -0.7705767208119378 1.2919427659975082 -1.311798832868715 0.128350407264618 0.5017232934636989 0.09357860574347678 1.9166183864482085 0.11537877142488061 -0.9621828132812583 0.597982395971525 1.2701950465255436 -0.5946143726557226 0.1539585665964027 -0.5051858598760589 0.05938186852764565 -1.0640012062071094 -1.5941661845577464 -1.6467298026151 0.5480439363272391 0.8013429365512048 0.2707564976179097 0.27145748797509733 1.9992738272710453 1.128814606611585 -0.36604072221855233 0.3407437848267714 0.06685136127422951 -0.0305898159382173 0.09438207587828736 -1.6365258037079213 -0.1371962017603664 -0.22576128154582095 0.1833292651856872 0.15373290189199412 -1.2809680815681086 0.14169780075159144 0.4380051667837266 0.5474955697153753 -0.5427006460624795 1.4369032290588635 0.13806917684736242
0.3157762148249609 -1.320797267048004 1.2069080369883929 0.5109840789047068 2.1081793768948147 -1.3080787659996724 1.0723866979022751 0.44083613636531416 1.117207457109354 0.49948190502662343 -0.5875728962984121 0.5568619051142758 0.425888186463984 -1.0328908483823886 0.24129107329410746 0.8596661450024904 -0.5328691759476986 1.5281272176178016 0.9894200483297572 -0.4844887010438058 -1.0332341321734102 -0.14908468474876377 -0.22696366027793663 -0.29796330067329196 0.7136197118641681 -0.9074340713455056 -0.8715706058803694 -1.507880781659734 -1.762909834639695 -0.03742746354770036 -0.3224290958082101 -0.16657801202402794 0.058582992203946534 0.6683357840924959 0.3681171065228396 -1.0013151270585385 -0.45390250989568076 -1.5088016870866232 -0.7883739225307079 -0.6164884221714677 1.0215853897946316 1.1337686600618944 1.2202544141719602 -0.13494402068765052 1.164693769089026 0.04935660745513341 -2.0717798980912794 0.22779664498240765 -0.5836373820041451 0.8927975241297682 0.8166927155346039 -0.6028379287315787 1.3720455509997296 0.12498426459606374 -2.372095712618107 -1.6314902644934615 0.9655578592207604 -0.14735633617503874 -0.8165265929735176 0.4324469117965 0.6419465517896839 0.0802041395988082 1.938594984162299 -0.7089657076822746 0.8946843774709936 -0.2109837538000708 -0.19193049476928348 0.49031700515217297 1.5176385896250353 -0.13378456426802987 0.6981591172687065 0.046018029268650285 1.0307046579323722 -0.1300450600056763 -0.5455815963196158 0.5219056274211757 1.6284818719159215 2.211396973562646 -1.291239986421987 0.15476551429476199 0.4528680358780238 -0.7630997813392563 -0.7842266551789363 -0.40926230731961394 -0.11753398887280454 0.9007530357825654 -0.024864688381324523 -0.9861381954067876 -1.5524770636414218 2.3725568682603155 0.3084436171289537 -0.5781637064118578 1.830029630522648 -0.09396034905884527 0.04496094201766026 -0.6393656761261074 0.3587514654218304 0.4603786054747692 -1.908654561162671 -0.2771989377126748 0.8281782724338911 -0.7075709916923104 -1.2190981634972191 -1.2102335060084422 -1.8828121263858246 -1.4588118902257228 0.054189200685075954 0.467680289047685 0.46226236032027324 -0.6821974920083971 0.782674181022849 -0.40157303761694585 -1.3334265268962286 -1.2703441116076284 1.2271219135480986 0.7285686928736902 -1.478144602213015 1.0206590214996665 -0.20440715563516879 -0.5363743044796038 0.44172212234380454 0.4729915507250014 1.3973126255654351 0.07846505712117757 -1.111327745776945 0.8868357880044881 0.5151527075136183 -1.2393488412699603 1.7333009371449635 1.1431865796575136 -0.3291086031210899 1.1725199870334453 0.2906341257571208 -0.5858137880974136 -1.0911143827451464 -0.40703147738871304 0.17151398314369745 -1.053945973854241 -1.202598776141553 0.09292063238520215 -0.6395117016530667 1.0762302740872955 0.9138675960612999 0.5281291699434033 0.43529745322481256 0.3026537891343878 0.4264236071705263 -0.9639182143056505 -1.1589577207453678 0.2097574307286128 -1.132686022681647 0.4251788692052582 0.8758603460235529 1.9457903842855222 0.6770562877966481 -0.6216417627143134 3.115613009630608 -0.12635469168528465 0.5954715764391585 -0.5038047964022374 -0.9997255987721747 -0.8136060492057928 -0.9702528383285063 0.43263511732030296 0.808431359090832 -0.7242834505352759 -0.7990201034992415 -0.13874709725038942 1.5013132981194903 0.3934361242681661 -0.26842800699133434 0.772606390183124 0.8559027913832049 -0.6663840386293357 0.7233985198379996 0.46923784871619173 -0.056746630080873696 -0.09166134794306369 -0.3464021323615317 2.194759737313197 0.4784540631767506 0.12569959816541665 -0.13924050930891943 -2.222068212343933 2.142167856314549 1.7339508762306017 0.27985928748710104 -0.8572708843223921 1.865350280186198 1.1977018102364967 1.142811956616779 1.3485939018387687 -0.8994412779927912 0.11152300699341729 2.3405663665842456 -0.3531654734318782 0.705902823830434 -1.0999832015207092 -1.504213226226761 -0.9922470247609796 -1.0726549608632578 -2.731855795441528 -1.3349564115590318 -0.5779259336577509 -0.14437783776543694 -2.4353353058331955 0.33811095831621274 -0.2843870964674327 0.21960269113428005 0.26669671631309916 0.3533425259690795 -0.7467716155587175 -1.0787050998172494 -1.1084650837060048 -1.1189141187407137 1.7457469792835065 -0.4866697316861981 0.006267906893629296 0.8856931312340086 -1.9535843631456504 -0.8439506055925423 -0.004034091804975094 0.01899089189728644 -0.48106828571131427 -0.38431284410513344
0.550687428240244 -2.0481424818635507 3.9372701125395317 -0.35756755578463506 2.5914300547343014 6.509421548727405 -2.90711077262151 5.21998264514837 1.9018834317936197 3.1547878770403988 8.732979417198418 3.5842703022298994 6.931542336408105 -1.8068388227773577 -2.3962172367099708 -4.989733219053698 -0.563253339235687 0.42311709239954204 -3.842580146248068 1.364100612431911 5.58362794260117 -1.1480858867955126 8.712398844225552 0.5855719211329711 -0.7192789033507327 0.5100144439822578 -8.681479664675708 -0.09371031688080815 -3.4461783826286445 2.4358187241499496 -11.091049515892808 -1.1237427443123853 -9.656466065239611 -2.0776167218461152 1.6988126904469067 4.550613455360589 0.832167178559516 -1.5764585497424612 -0.04977131131855279 1.5299116973506068 -1.8744633848987169 -4.256908513528891 2.1688269240430915 -1.0487246944883566 -3.2147188684529397 -5.573340098449251 11.27670198091754 -1.0308844263911534 -0.09681962422126571 -1.1662281829339267 0.04412699200658614 3.9660189910367936 3.4140863948610045 -1.8223208131102029 5.036182836877009 4.1976528502706 -5.574368733566429 -0.6088665177874967 4.555400196349292 5.095838452452819 3.1893633873318 -7.1143368162925515 -0.6146766287327111 5.277684805748898 5.774522602758603 2.629692062586649 -1.5453215238447549 7.000496192300454 0.7678712377561476 -0.14443451813167507 9.808857953895616 -10.26041981411775 -1.1000373457332489 -1.0847484613291214 -6.000529899483255 0.05634746880300207 4.879602483938502 -9.554504696520672 -3.9023495242081756 0.06767067046769659 -2.272119264902446 -9.377725499108028 3.084020555825858 -5.405772736212303 7.292607476912793 -3.9125128926421824 -2.7848989848433945 0.20814132104350955 -1.484661554518064 1.332279132898048 -1.7714871307343956 5.237357354081099 0.6191804583664752 -1.2524762248071883 3.9165223631164596 -1.898315928764893 1.274582029060009 3.591635427004908 -0.7090481513725645 0.5721229130420986 2.4280332369909337 2.169949650811209 0.6263861207150476 -0.26484290794334575 4.539543858565125 1.89239875606715 -11.28030448131304 2.111774708681979 4.147391435151809 4.838345033924857 -11.402465755190844 -4.02606242960047 -4.131534750516842 2.2587177203435282 -3.424796926897755 -2.658003066871949 -2.1012035686446238 2.2133299128248978 -6.9815623104738345 1.2923655631069495 -2.6506668620494658 8.111927117108362 2.2122778026114327 4.098317725756807 -0.3567611991685562 0.37882896742304883 2.990885198090301 -1.0491346823110543 -0.6228103327531561 -3.931884021463917 6.377788949285853 0.32634051892924587 1.5257583246730864 0.2836578263649438 0.7832789042351795 -1.1795630262954584 1.7425659390030128 -4.716829895082847 0.3127925710719793 0.7995183751412107 -3.4367030242864423 7.397403929052577 0.13034054118594934 -4.155833180785215 -1.1334405435322594 0.24437079233408862 -0.7974527725896471 0.27541561666018893 0.7493406287193806 -8.109115800871336 -1.7968529175721668 10.085332577245955 9.496516664028974 1.1667142916302027 -0.27411499590048016 -0.2065542282774419 -0.05187477189059067 -10.819840568767349 -0.7781614654994368 0.2006195116330638 -5.767730478388851 -0.39685389233424534 -2.073854850797035 4.407872098620937 -1.09840266066872 1.1989810114764505 1.2248478005512295 8.171118020729827 2.6138756118535182 -0.05365647272766936 3.8693986145439165 2.331721415562619 1.8423274849311988 -2.5218727778326246 7.777388473188675 5.530406079455925 -4.6433148669247535 4.934984486921777 -3.156595866408656 0.7455879555861873 0.09433043433076116 2.678998092551758 -0.0411469132343773 -5.226247590529209 -2.803806465520827 -6.336752650700766 -10.550610882727023 -3.339019349274339 -10.385552151485625 1.1155397448021895 -8.666370925841713 1.0236862958614814 -0.06764694181893496 -0.96283505238009 0.4348814140913463 -0.8604046025306791 0.6841935895153528 -4.988040558314976 0.8476241770507205 -5.070021655878613 -6.921795591265083 -9.117396882941522 -1.1013330619506516 -12.129746407399503 3.0444656955921072 0.3992260896792834 5.905112459137433 -7.776314245680073 4.12488889522387 -3.454176002477209 0.32888492931648183 0.9679024171475079 -3.565192070039724 6.164954872080087 8.052840342820035 -4.627053722342504 8.173128629026317 4.9038954742197305 -12.766191236429885 -6.0860584971300185 0.28884496505344837 5.058703943618477 6.060881926973605 4.79002655712676 4.20532655933304
-0.45853162966130107 -0.5069813788594536 3.1977503784461345 0.3239455918137388 1.0877117552857392 6.677394033597173 6.807887377815503 1.7230258664000033 -0.35779515464084405 -0.4722714940264576 0.539192761512019 1.1763846133622229 -2.118096006981046 -0.7877884224089664 -0.37558665885050535 -1.8671824465228957 -1.277500177478082 0.2995517295606088 0.17511505797212296 -2.051235340300112 1.909744516527847 0.22838750741555777 -0.3786995763621233 -3.0589511306614123 -1.2679782713367802 -0.319886205832262 0.37196395431337814 1.1561017615858082 -0.6891408473545427 0.9392835317449882 -1.296131326113665 -0.28331175739981573 0.528306708489622 -0.6695279835145208 0.8708209710542844 0.3204172677792419 -1.31099226180901 -2.274918081246299 2.4423460782596313 -0.7336956721670091 0.8531828279780522 -1.3570908548381326 -0.4378479735998932 6.174653298783824 3.322999339457446 1.8035934807503413 -2.1117692761169318 1.5557381882133008 0.10065686909784734 -0.051396115990661975 0.5664698113555153 -0.9246815837770431 -2.2830152528048195 -3.5474391169129533 2.2741793389790605 -0.534256975601508 -1.2633752280367527 -0.022350926515197524 2.2294635893732786 0.2317808496924891 0.6858571014189608 0.048951013528224625 -1.7073367804729804 0.01696643884532703 1.3031324876174117 -0.5643796976285078 1.1804784750845152 -1.8380773445064 -0.4635083447924496 -1.0427678677319854 -0.1455349969775274 -1.4379392661522499 0.7941843181092494 -0.42394883195351385 -0.7825716581715684 -0.924034604334991 -1.969922080163181 2.965900934091302 3.661970060189412 -2.7968467929746175 -0.21692193752989575 -0.7929305137424113 -1.4715206735842041 -1.153766991735319 2.3259258711666417 -3.52225120088666 0.23047408282916473 -1.8743216848084856 -0.29642281250951846 0.997663533661856 0.9308413271101604 0.6668745518199354 1.406736313766799 1.106456749569642 -1.3167876692075198 -1.303552678488863 1.3814118375001792 1.236790347229257 -0.7404233160074056 0.3612509766993223 1.0578759287386374 -0.347339216660338 0.630123423836232 5.545757476697316 2.0721701067871012 -0.8144154696620406 -1.7430157447494201 1.1381335806668869 1.966773575459454 -1.0950993203313937 -3.042959035663367 0.19448855598056808 -0.9697014722171177 -1.183806476994137 1.9244084404433013 -0.5565066201226346 -2.35469897268116 -1.929665911788401 -0.33018672131456905 -1.5786442941053396 3.9963184738559088 0.08244174600123254 -0.5082661436254657 -0.8588728026068813 -0.5102871981474951 0.07878866651172049 -1.0346948503425923 -2.2314356123871586 0.7693047851890602 0.5003525477566375 0.335874778145181 -5.921933232008981 0.4499262642240112 0.42259749324230317 -0.11355899349755563 -0.1773499441231181 0.2715661119926579 -0.19354059862950196 -1.1312800623746404 0.7324575701223659 -2.1810409779426663 0.06701196017402561 3.476553802747723 -0.3029479783688223 -0.2844611857257634 -2.4923738698110838 0.7890366785791936 0.6556437152788206 -1.5433887418655317 -0.07197285697020368 1.1150527903695842 -1.7832030782416646 2.110155870428389 0.6017767596376888 0.6762741819792328 0.839819955946454 1.2611601197238314 0.3149242211106884 0.5976768306601823 0.935278861167615 -1.7034729221783276 -0.12814593998420498 0.9514311552305541 0.668111155015291 -2.233674158288232 0.7424339564409488 -0.1079721590278702 -0.22248585368181453 0.1647293028460886 2.1696575164436798 -3.516132287209133 0.8246521818724711 1.3254535175682667 -2.341338050952148 1.6078676707834179 0.9665589999614439 -1.3316975517772591 -1.8445815130042396 -1.256872563752087 -0.3112253370735865 0.106286557334186 -0.16395048955949573 0.4222434964462121 -2.4708907139022362 2.4717155340124193 -0.5555122258028783 0.028000056392674673 -0.33792774309552814 0.049404308344805144 1.5234180343645352 -0.3911298319380143 1.190634598230364 -0.9679326188687966 -2.6103060383282544 -2.729244974116847 -0.43006485697902486 0.038685117975708574 -3.4403650043352 1.3310598817158534 0.13885128526951354 1.7717567077644372 -0.09707849222037607 2.433171699943343 -0.26595555008727695 -0.38632130881137533 -2.0593549257814496 3.24804695819229 2.034353710672481 0.5696847537098396 -1.3058069907978311 -0.418483758158088 -1.5121496101212957 -3.3551719470258066 -2.085875567024626 -0.21973904396400315 2.411525677601899 0.9174077072757061 0.03624391472965633 0.3605116893122579 1.7552063301038394 0.324729266619957 2.565515065216735 -3.3129494416159924 -1.9188980321442517 -0.18954393119751609
1.0577021603284653 -0.705036331885997 0.8620898607735776 -0.5489728200794431 1.7147813580800548 -0.7295784021550926 0.5915220253757538 -0.17552818132096826 1.5066112976091526 -0.3362784406205805 1.34662680356149 0.19505722049924826 -0.354554267879274 -0.8276974907105945 -1.2069164091040254 1.7639799033240424 0.754236100604749 1.1335125732273221 1.1075231741308298 -1.4334052815290144 0.5615211139379902 -0.5522838976591814 -0.09012261220457111 1.4445323141851059 -0.1798598137590067 -1.5362598742837952 -0.286670101643026 0.25368576337461385 -0.5639747862566259 0.938721484530215 0.23183612057746053 -1.7269600669276595 1.362047226715954 -0.5898154847242291 1.9592317553280887 0.4681726476585925 0.10349442966457222 -0.913675656793685 -0.8600504670623991 -0.2681269850951986 1.2289612241498102 -1.5623574234799638 -0.44508222901049105 1.059951758668083 0.48038447908666615 -0.23453322326732967 -0.18759493738645505 0.23280756736959773 0.4957054827999741 -0.5914248302372855 -0.5031643283774043 0.3289328547295208 1.1254099870235406 0.6013348486584525 -0.06644942388029261 -1.5359395367029338 -0.40228779169197126 -0.5158488499101161 -1.2659314182744397 1.173055815984192 1.1378640196945664 0.13591035044377678 -1.9458621259213156 -0.620232907788317 1.053870611799786 0.4910661102256705 1.3703858982802475 -0.45390769798175545 -0.41738916005143234 -1.1804048785616956 0.5414601382075338 0.9623254160477692 -0.10828231343391466 -1.899164661672101 2.124530968149243 -0.040551039158001956 -0.16362015580052416 -1.0657011230885902 0.45353127944078503 0.9837627344934755 0.46295470401683436 -1.8564880070927108 0.4606270714001542 -1.369698971513088 0.22376070141077758 -0.19923789024468713 0.8943293263280272 0.15960868809510415 0.7579545233770529 0.6307075876253326 0.879705715228284 0.3374635501278636 2.1659848217838387 0.32720467128162345 -1.1176936144298582 -1.8218572786284575 -0.3955262215487253 -0.8645325076519671 0.3706832267002188 0.2771141774646713 -0.4137220137130084 -0.5957776327077744 -0.40148556112295347 0.07027494014554785 0.23545793134111093 -1.208104001800684 -0.6550401237710248 -0.6963278788581583 0.9009596610127389 0.006081082957137975 -0.663044382374214 0.752547147716102 -0.24393844872864134 -0.298899008548935 -0.7178881522883279 0.3313971381358347 -1.6378001980851045 0.3509493354162172 -1.323674303886629 0.2955853330941675 -1.3143347140481618 1.6276237780258955 0.9072366261417075 -0.1390526865698938 -0.3141240870629076 -0.373093326588451 -0.6585230163090078 -0.9911971568397504 0.07927939646075649 -0.09947438396435664 -1.6660207070341533 0.8892699130646772 0.48442344665603737 -0.2869752986914713 2.2423688690731494 1.3388355532865555 -0.09846192661386717 0.07462974423905398 -0.5651085097531623 -1.042228449957382 3.0987532836470675 -0.8635216398237187 1.4680293168923286 -1.315660468950364 -1.0695539133630614 -0.3995103077106669 1.0211634892374726 -0.39650665989244804 -2.5438130276479547 -1.5520458639893744 -0.22969010276730673 -1.6348389539719717 0.2351176897566307 -0.3509378212250208 1.5879019284371438 0.6277230497492275 0.8981677980829842 -0.8549772061933841 2.068897751995265 0.6377577822345707 -0.46550706001590514 0.16430118270880906 -0.868082718764457 -0.10322404457296354 -0.267451554955839 -0.8912562843735147 -0.9166025080889575 0.0006854565916274338 0.05377329630046574 1.9681992037349336 -0.9133699726750707 0.9328870203784295 2.010402906372711 0.20762762759268147 0.10578556795291381 -1.0994491429628765 -1.9037706432686379 -1.3480682460907198 -0.24663214151245644 0.5267325535169466 0.806157780942976 1.049957111272398 -0.6552039498781309 -1.1293384969261453 -1.2567029349151682 0.29097318138933903 0.20029478531597342 -0.932093493804476 -0.13170542121723855 -0.3892366220900011 -0.5024502801277558 1.574007810955431 -1.2916841776122263 0.5555805499007291 0.543528187335586 -0.13159064142332375 -1.0549823838171177 -1.4391707847122044 -0.8408864917806796 2.583102500246025 -0.897623197924853 0.5177161016862173 -0.8210371963272511 0.3707924005153108 0.738651440297333 0.518808616365382 -0.06285727435402806 1.4378491764813592 -0.4378454154985705 -0.4159675038474382 0.1319239145661604 0.1613822857801675 -0.9790808572219346 -2.7431937686787267 -0.49623714537452146 -1.113453929459705 -0.11002003042794539 0.2306609244654786 1.048334174063533 -1.2260325081337742 -0.6086077974756481 2.6443263225821303 0.13000928646217363 1.6214434542249927 1.7394977362843074
