0.6550431033116386 -0.8347287351534738 0.9589199793477015 -0.2299690160807295 -0.8525940587935266 -0.7385175684263039 0.994359372719253 0.7193979300071882 -0.07383207526450297 0.8523579185472754 -0.30951785973512913 0.7036475048845736 -0.7564835521505111 0.06313701637779001 -0.3872147170345721 0.6864750239744333 -0.42668319162525803 0.8168143697230248 -0.0017380096854946459 0.6228143301963438 -0.016549103963563905 -0.19803946697033914 -0.786877811479801 0.5050537894528131 0.48760163750706487 0.24599249515645005 -0.7105894205405745 0.7046316469126759 -0.409103782302471 0.08195759856289753 -0.8288440525999328 -0.7957422084506551 -0.5737678735384482 -0.9646160650302775 -0.06762961343933238 0.3708279717178826 -0.045645664963611 0.5440171603219366 -0.5167309539039702 0.4054653623434199 0.6313995438898861 -0.5721126263201313 -0.47280174364398864 0.8395729687214615 -0.3550438121228212 -0.23413007116642626 -0.9956166563667035 -0.02875028235409305 0.04387607968805818 -0.08099792178250054 0.8877238664122411 0.715223184576049 -0.9443114360577212 0.29364621576509764 -0.8243935793945742 -0.6425697411944997 0.05582580996131292 -0.567391263925108 -0.5855491894691889 0.024010669611613134 0.2639984917546294 0.1971867623449841 0.22678019612699618 0.16848271473630105 -0.581257748130338 -0.4854736217042839 0.10035779496355635 0.8888496493223317 -0.49545064176127696 -0.6672825911659641 -0.5191448360277164 -0.19888869836764855 0.2547196194635539 -0.1684597821437579 -0.13941531635664983 0.8501286619008004 0.913625241148144 0.9675565252134881 0.03600457680943481 0.8892861610497065 -0.8592010162118406 0.1808054600727158 -0.726632326793474 0.3149799690340833 0.3516564813295133 -0.3189903968626904 0.5472413051327514 0.8140364585649533 -0.9947257296045025 -0.5907300841513117 -0.5593466950869939 -0.5309431215453673 0.5473284908046097 0.21468024324485135 -0.1008153593829626 0.46940675537932264 0.4080764360795921 -0.21702836957165905 0.15255305946255393 -0.45263022084797 -0.6016094524355566 -0.0025277986426572863 -0.9344982135279398 0.36483013015979204 0.09501857597320873 0.5469450139091538 0.5989008058559933 0.6356468762458645 0.439388098262788 0.5320658367801443 -0.9948109995247363 0.9531232719316618 0.4481504631823352 -0.3868279336623486 0.7335751977067397 -0.7012808932630397 -0.5058149155820717 0.34612423446188023 0.02190327441154727 0.23554035530565698 0.355699837423453 -0.4295250265589319 -0.6323754876824048 -0.21411729704900417 0.7770241951413075 0.9977743089016915 0.27262134516487446 0.17516131913381994 0.25498025129863167 0.111776549884679 0.8871681124894404 -0.8334171873734559 -0.93362195395379 0.42587262441433893 -0.02882309582675946 -0.8577002559408866 -0.24214073522125945 0.5398512956366499 -0.47092595775452306 -0.26093498441671525 0.1397156973103535 0.9827434717072294 -0.48562608792571127 -0.5086648080219986 0.5760776372210561 -0.7859206359132447 0.17472575116987188 -0.6750170792553858 -0.6994906848893012 0.5215598217113879 -0.7315776583439324 -0.2175202144631343 0.8215292581126912 0.38701199885334137 -0.9607608901280529 -0.9218994785167425 -0.4670913732559028 0.26990479024528025 -0.7740285535311049 -0.19916318717286452 -0.8198967450772059 -0.6990720468956297 -0.7181148320265898 0.0900301510934296 -0.16103735096392802 -0.4032788432715009 0.9270296330188417 -0.08907382348779103 -0.7296648211512089 -0.9421234398780027 0.43898149654607677 0.22028653920094743 -0.29375200295068304 0.6645601530769947 -0.6190870126517483 -0.5758608060083097 -0.21853479554579058 0.7175693516372601 0.9572354515495669 0.199878648420591 0.008086982979415458 0.7558275812926534 -0.3891200809961266 0.4106546610312838 -0.9635501785168008 -0.4430531944544063 -0.6625939044080538 -0.6617064250906575 0.870034437456489 0.663526918245428 -0.044793101293215676 0.21596708337599724 -0.3498011687569522 -0.4162416367606214 -0.8125563128972522 -0.6603740851773692 -0.8321981363708166 0.6735189111135775 -0.5768237052633347 0.7958115495849702 -0.3016702821453603 0.20423932090280772 0.1349589934364821 -0.5364071884984565 0.21092342496178174 -0.8849013966187691 -0.8302866158096798 0.2646598863249183 0.3859006173887829 0.5811871892768623 -0.7590577993563672 0.5174201110270429 0.1659855534146517 0.11374280744444154 0.5138850765176068 -0.9235455465661022 -0.9129936250409327 0.8751739653894883 0.19340206147785732 0.16711025391210832 0.9224622220690226 -0.30688811692946505 -0.0585444316709014 -0.13096890793107985 -0.6920444413282634
-0.24827788282080143 0.9638951549671526 -0.31971361265159803 0.12838606816498777 0.0061757142962484135 0.8468163079124409 0.45466983331515 0.6664391349992971 -0.3196814728594586 0.25335522826413004 0.07440694265223025 -0.808913423512891 -0.7806070134154546 -0.45481063955616663 0.34540073608873967 0.9888491234599244 -0.946963496275012 -0.6145835613560202 -0.6102319409383625 0.582505276314909 -0.6887354180620131 0.45721943414586264 0.1389285495278838 -0.21846968534727718 0.38123665476634905 -0.8493868289024817 0.5071023453850907 0.4897672577464016 0.7941002930564083 0.736625441717808 -0.7215769212555836 0.24052739908403842 0.7086904590803145 -0.3345909741000719 -0.9889205019497622 -0.7867264682477284 -0.18563093916271112 -0.6093912317570618 0.8313966359218594 -0.46619547238682446 0.8510174815892344 -0.16272790307705454 -0.5986218684637197 -0.28751763283179566 -0.11885183112313302 -0.786905475377552 0.7096845214743503 0.4382228341993126 0.522452291704699 -0.5907644494026623 -0.39871707902733067 -0.19688194054958985 -0.4003778021566027 -0.12842056618129027 0.08488914316368557 -0.33242302271646595 0.9205839347939868 -0.03403600039457855 -0.9129608401348441 0.6395843847482656 0.6492351756941688 0.004093597449453812 -0.5726384591593212 -0.14756522428735175 -0.8081087662113831 0.9945066543415391 0.9472375350124125 0.09185391590672376 -0.7819486316261859 0.12368392115039151 -0.2135846147631444 -0.04720312085289624 0.15620361772926872 -0.6484426257479416 0.6792651645060828 -0.43168054860555727 0.9979642674644682 -0.06258194653696281 0.03324588302497755 0.6030328562649043 -0.5606041692524448 0.9006323034197445 -0.2583735789224142 -0.514807192066733 0.8773438477113962 -0.5718980371328495 -0.7419519012880444 0.020531442312446968 0.4995958522846067 0.5701956953877649 0.6555468213336182 0.6817749840044254 0.922910959780957 -0.48897491180692376 0.09922062745696425 0.9721080956346764 0.2248909174204563 -0.17284753021528698 -0.8804738273134587 -0.3581084000188588 0.9942584236341836 -0.27681305026834613 -0.7060187771357134 0.3991507937313781 0.7276094039011329 0.9909068371733463 -0.8039537420986134 -0.6270446858661349 0.19977119542565003 -0.1573679933439518 0.2193120255267269 -0.3279763891693206 0.3076736478855604 -0.06367529680549766 -0.9163748651920067 -0.373285362760404 0.049074292174655865 -0.9157315910542414 -0.047124641487821695 0.04836099581825848 0.17620970927556545 -0.42094874800880144 -0.22950232650196178 0.24699833319400977 0.18416435291918187 0.624443677307795 0.6834228286240238 0.3834021459469319 -0.019999461877968416 -0.9823221612620465 0.6595155673270829 0.25488625423123 -0.09570385129234249 -0.6581388102744388 0.9187987475006489 0.7837816378528055 0.9686864246766234 0.7342608689962855 -0.7205448717441241 0.3848287000202779 -0.2433675962423767 0.017418088949335164 0.4309778718516686 0.6596867185479243 -0.1375527412067532 0.9353513138903924 0.11998429715804426 0.9761464506992603 0.250838692826274 0.6335451598743898 0.4735728575934419 0.3798869313947799 -0.7903235775581212 0.3793769738102901 0.7180134739783395 0.24925360186790235 -0.6373624511693179 -0.9455563882112694 -0.3210127267970342 0.06808963278518476 -0.9861069247450378 -0.8945271266724071 0.944661639248213 -0.03291478603128506 0.48816790533103926 0.2273665661884714 -0.44638112284730624 0.7951296198155631 0.23636715894437121 -0.34926217803565907 0.36904267617282915 0.04024079223060362 0.7685159918231408 -0.0900010752680247 -0.6727430583971672 -0.880914786621577 -0.23443507839066635 -0.4881174066382936 -0.779005114759465 -0.11746109213786826 0.5105772331727394 -0.15154815065925908 0.04671784514749033 0.7204774905494813 0.5656728735264043 -0.1544565870734116 0.9151714119791756 0.8053181647713958 0.2181038381788034 -0.5012310943692058 -0.1674913117659662 -0.06501395462653936 0.24822210420140856 0.2779082071341097 0.2580099904159361 0.8662016341965648 -0.9610266691966465 0.48664534787083924 0.12968284698798738 0.1062429812027541 0.7458374562426671 -0.4996848652328616 -0.8181937973695841 -0.7140083237896921 -0.8080229450847027 -0.07873947149023186 0.23125701986937197 -0.35284840441981413 0.6447956268031654 -0.1333159117147713 0.056679031890027654 -0.7218167753162497 0.5616501038467658 0.06178397092204846 -0.4908039027880873 -0.21090159869694625 -0.8291423164874683 0.8204046798680591 0.2990975303517105 -0.6077384581637502 -0.10421059181959791 -0.8980283584393518 0.07997618036157772 -0.1044913393493272 -0.030500765105123895
-0.6310622374823496 0.6356349044071357 0.6356327353311326 0.7321388653399319 -0.2825736185119476 -0.14009980275485256 0.07825368444375691 -0.1949922403861779 -0.947295162912162 0.538355389329185 -0.008001201382644263 -0.7724573654122535 -0.028940170024052803 -0.9521009483182321 -0.48096309276507565 0.41442108128548627 -0.9699618407623334 0.9732202388673672 -0.44521766873217095 -0.22400502004676892 -0.9079892576136324 0.9877900938584163 -0.3588765273807655 -0.8816317616447615 0.39657161967953547 0.2853050859145867 0.9905621170213359 -0.5166662955441954 0.6086982391558318 0.40714167164407544 0.3227002206579832 0.9816259696048308 0.9878937037264517 0.28456319472906033 -0.9626122487420801 -0.8964162120972063 -0.1819299532609191 0.20534161228540504 -0.6558277233665306 0.5870403158957405 -0.3669899159987915 0.3848272151820038 -0.3263025706626099 0.8586629723460226 -0.22318471869114465 0.7038741941480693 -0.49882802120449776 -0.05745069042260642 0.7455203482250916 0.7667330571665907 -0.7229770076027078 -0.648116198014195 0.8272266884979333 -0.41666636966535164 0.21844082780268503 -0.2841907779288839 -0.8122305046651745 0.728760296497355 -0.6338831024080405 -0.9913423336882898 0.9971799732413458 0.3957819022165472 0.13014407523350302 -0.5257543247387275 -0.3179482925205672 -0.8279391415960842 0.8738499587369406 -0.6834208709047815 -0.5522627927299417 -0.6328098843571415 -0.4338921005542802 -0.05682455302982192 0.6382475297947463 -0.43478141783170754 -0.38084131917437825 0.8904569039734453 -0.17112855016566764 0.028749981321411155 -0.15115017442761647 0.1421802045106222 0.45461518681327595 0.4055878134013542 0.8645387975300729 0.9435181751958217 0.5712332172908716 -0.3803862638546318 0.15553627560862626 -0.7975099983147831 -0.6240335931631045 -0.975739587194812 -0.4847800573268377 -0.7694347345305106 0.5365725868333437 -0.6360416543005551 -0.8030803701811562 -0.4997011006656369 -0.6769628963098362 -0.10187710074235334 0.08590368803565984 -0.8341908590810352 0.20563867552300108 -0.9025759518667777 -0.9738854587035801 -0.28695247115887 -0.3502870371273781 0.5088907127128639 -0.07482337638620873 0.6866581317007496 -0.014832907715405907 -0.993530585967594 0.45273475306391164 -0.3893349133666797 -0.37643647430286387 -0.9772497087062144 -0.4231402612282198 0.24475844009428327 -0.1607844086199861 -0.24718045044621895 -0.2934560252103795 -0.5297884811263927 0.3044084839267669 0.4783845659893389 0.046722719408920366 -0.9111691766741199 0.6463531725281735 -0.2770237955706405 0.7587305714312356 -0.9126550300303247 -0.48655394744246383 0.23681462338469594 -0.563646705689687 -0.7027422932791705 0.6962062352245306 0.449664363886922 0.17917073814106965 -0.10598185290407747 -0.17535375231398453 0.2347746817865668 -0.7983940266670269 0.43984066967664615 -0.383644596251429 -0.7704799269291582 -0.8627815163506629 -0.9654707992708167 -0.8279591494770744 0.6351448265235413 -0.20366775961723382 -0.3887048556702002 -0.5841979533259978 -0.15757663815501655 -0.5943635069730651 0.6498852802545627 -0.8846731189895289 0.9122400587476898 0.7090592811911927 0.015141735269939227 -0.7418440490008364 -0.48828766853632044 -0.7614941347305164 0.24583239731973006 0.3445446964318801 0.006823832714364153 -0.06857874428960242 0.7126578978979285 -0.9065380298542054 0.3911616637719537 -0.044990602764485965 -0.5519620616927416 -0.7024840861615023 0.3565589347906757 -0.8150988127515684 0.019354475203965604 -0.13193350132853343 0.5121023027698128 -0.2395418189902292 0.22148372780663506 -0.41917288454438073 0.663377722334324 0.2572447691105664 0.051442606311293604 0.34476117329236233 -0.6860074332647312 -0.8581101619173888 0.9400734703630504 0.6030046886592284 -0.1759030972970239 0.7494587822999159 -0.5509120281788091 0.7173472176439235 -0.755615104016133 -0.39357003406678537 -0.8575378562120688 0.7014867968042307 -0.8853181256505651 -0.0962386946649525 -0.6231157933639428 -0.1342326713692028 -0.9247906791720044 -0.09484181408436765 -0.7950108386831491 0.5064588046957612 -0.9143247864633044 -0.12301496341200346 -0.9251826291699126 0.33839527036718486 -0.6339026486543604 0.5042606907905638 0.8971863429582954 0.014214518765157225 0.25993996341117187 -0.38416789352101355 -0.3502228260612783 -0.26652902774010556 -0.6557928604095433 -0.0025701492869201203 -0.17702088350188205 -0.6268960197316094 0.6140651283117569 -0.1466242785940819 0.42457346036655896 -0.2802497734749865 -0.11568186869070374 0.9652605272715957 -0.3502417892211087 -0.6051477667571141
0.2990525754986231 -0.4544276203541904 -0.6089322895294531 -0.43198326854446445 0.2956215802095934 -0.4378384946414562 0.4516491164031269 0.8849920361024255 0.9023681609353527 -0.7304184350706899 0.6166054246910642 0.06086635793853268 0.019133319997702625 -0.6076190700160882 -0.5044245201330395 0.8092135114078145 0.8570295875203764 -0.47400528882642146 0.6760743955439548 -0.6599452543117812 -0.8033916654045146 0.4938835256494658 0.9636725876506063 0.3801180250535272 0.6109848414042742 -0.0964583471309397 -0.23486846726692812 -0.594036837305975 -0.9050939427087361 0.33673609444857466 -0.26791999703753633 -0.2638899457416355 0.5633466572117536 0.4389471754517331 0.7571651294852211 0.5824545321494885 0.05022523006963753 -0.4862045721264898 -0.17355771325618896 0.03359201922612187 -0.08814321848113571 0.7547691843669799 0.8525727882514695 0.8924611296293421 -0.8920176846220165 0.27353375194350904 0.32668855188001 -0.8080236885487053 -0.49060164659115446 0.9937391605814618 0.19461638615287002 -0.49337544176501136 0.22983235680415337 0.12673741335190436 0.6375025545001287 -0.24446647409641598 0.16589132999775225 0.3423664704853475 0.6444607132138755 0.16160283681699994 -0.6529975838218811 0.25287991842040536 0.8121148627778789 -0.9160000460894173 -0.22480993570262142 -0.654101567080215 -0.3417796547757166 0.4132965028193072 0.9835424641536794 0.4238010148992497 -0.14669813746476779 -0.44590878058336014 0.06765591361560963 0.11252895826094744 -0.8841130107760478 -0.3877572351777885 0.3061345937807056 -0.3351669400405868 0.6127133655425827 0.3760907166393739 0.5805508074876107 0.3857993250615923 0.8536528123587013 -0.2950715903646126 -0.3078183107286825 -0.018222485214875572 0.7117270531156876 -0.0902951584554963 -0.6352333444801388 -0.7252110273998893 -0.5800866452569826 -0.3919637209309912 -0.5075264002983266 -0.8577092725747992 -0.615171059272656 0.42538655117351265 0.412858096387426 0.5962260473542229 -0.8664411786982789 0.4868342292565331 0.9287059314253479 -0.9585854843315293 0.274479189130757 0.9489621261332721 -0.7732793055846281 0.26313237594814454 0.8706896804465414 0.5458571206901632 0.1989557648243434 -0.3369535820789633 0.5932305864151415 0.023194709785578027 -0.8903094308340955 0.9777642530379658 0.6286147666183055 0.6308553003322981 -0.7288172424649924 -0.18105211906643004 -0.6674021909044752 -0.7847156517481944 0.3716187161273632 -0.17729235432938695 -0.9977926246060098 -0.8350969212565931 -0.5236682827447012 -0.659214085212243 -0.9359131290716136 0.7595207595686342 0.6897409815527318 -0.4644426181040888 0.5999511455207605 -0.6971104101846233 0.4737628288874949 0.5551276999067349 0.9274084341650441 -0.6053717642359893 -0.30642206056077703 -0.00905629078267478 0.5678993969604322 0.7129178828558851 -0.9721348039269591 0.9904571113149649 0.8422412179510337 0.17695342288296523 0.2925712107150318 0.04528486263716913 -0.43216648013655035 -0.6508836093477841 -0.12501436431098734 0.6061364282300534 0.8023452062227447 0.01656793505598486 -0.8357062729355575 0.24392741805520624 -0.31246626746593953 0.0428625641487177 -0.33588318325806643 0.8714878529987884 -0.45276639213261594 -0.11163582250358384 -0.15695611420077404 -0.9300149373949282 -0.160198335101863 -0.7508709062056071 0.4775815659847378 0.020238983103255448 0.8811868381747678 -0.013462774090376328 -0.7916516324721765 -0.4133259130991105 -0.9989880216347011 0.7001765263956112 0.6315361261634 0.9810769247007372 -0.5754630951203887 0.4530099073850553 -0.3035485221568974 -0.2988471020774348 0.1078171341979457 -0.12941711400335176 0.6120383583850355 0.31284479193000125 0.009941646953413041 -0.6516190993755151 -0.9181349519156317 0.16817735316235294 0.5495571926145499 -0.2492421323592937 -0.4764156510161457 0.8229589471570484 -0.07242637328097423 0.37161398431796866 -0.14073688014718644 0.49006520415023447 -0.7969067649961481 0.691545258397404 -0.15701639414704482 0.9270359033528226 0.04825199129040203 -0.30628188946186286 0.7845362656626873 -0.26915425233478296 0.5626471464686276 0.7860266313388364 -0.4489456872226798 0.009152120281933573 0.49397531025489916 0.4889946441555031 -0.14208939398300457 0.22320933333004356 0.8887261467481278 0.5389474369852878 -0.5234384479679604 0.03215195977072072 -0.5932963100772162 0.30183717937639165 0.027933642462795394 0.9604437060635924 0.19373653418360526 0.08960210983593053 -0.3204551262706419 -0.16067722922287908 -0.11573081713766942 -0.4139206057603231 -0.7610794686123852
-0.0816247146035538 -0.8734909922672736 -0.7960876261010899 0.3989630534433255 -0.07355060891709053 -0.12144598594998457 -0.5142651176128614 -0.5918345639542302 -0.8567171686296831 -0.27638197937503195 0.012443048292289038 0.9166914272852313 -0.651940703786501 0.2701898185727365 0.7350054133750441 -0.629664568813531 -0.19865380249449194 0.8637670812895988 -0.6195567637589809 -0.2498774223993645 0.1855490508046791 -0.3345623842444565 0.704478410652742 0.2541259468515402 0.21390536780076008 0.26614772080434657 0.46174874818991385 0.8563983503737995 -0.9394907764450171 0.9212275621942967 0.45455714629367017 0.6156191229242607 0.21604302902225392 -0.8596261282231554 -0.16663555409449193 -0.3732165618548575 0.23453463048873413 0.5241319642879458 -0.7253763709564018 -0.8289538525643754 0.7222169838202004 -0.1450106222771239 0.5545580831109678 0.5419939267955673 -0.4991841632519287 -0.573910486161004 -0.3356956825665296 0.9585284688537732 0.18334992972496167 0.0839338420393061 0.4696989780280665 -0.013300618364786798 0.7645384005216358 -0.9365665304014115 -0.92433606408061 0.7243456270931756 0.9847303970726138 -0.5913974913627897 -0.5665634587336474 0.49187811867273323 -0.8119457068510421 -0.26848597440329636 -0.16764534763137662 0.7325593926311416 0.5115331877748259 -0.41769921948355604 0.11489104944411244 -0.575400377385884 -0.8017719027141137 0.37924823030100563 -0.7255512406100475 -0.6176583217952076 -0.293156651557692 0.16145278782467654 0.1203229717679648 -0.03842378498748311 0.7838892054406252 0.12295863576257449 -0.4024332253578371 -0.9900591166449861 0.7571658038347839 -0.5979964500600938 -0.021543133776575685 0.4146341387417105 0.2194238479218371 -0.8367383989042054 -0.22576519385323035 -0.15249784592011206 -0.16404866599979662 0.1794181376029751 -0.2821749787732657 -0.3162554151152803 -0.5747580165331148 -0.4313317219048338 -0.36349648021764214 -0.5003931293450965 0.33790224586693274 -0.20021867222142542 -0.07797252990327785 -0.9415734228819965 0.24442774414745982 -0.83921117272895 0.9476076360157855 -0.296067420942286 -0.07066699561243972 0.24464666573315563 -0.6821855639863261 0.2579061472335784 0.582688307556974 -0.11653622131974206 -0.33916075469858464 -0.35633956027844205 -0.9390627504838533 -0.4601764584638899 0.6394199749168938 0.1702609168391287 0.9049112929426866 0.4915265952986163 -0.7660323625424217 0.18261878261170206 -0.6195459575317126 -0.4238863077198698 0.10880324471865266 -0.9951731270860644 0.8094620410616589 -0.862599274737248 -0.31102685157851173 -0.9564874348008365 -0.5235808179074801 0.4569892897708483 0.5449145521529666 0.004340743107756451 -0.2964507114796511 0.5039004136604872 0.37614460675119465 -0.5929359876500511 0.1852459545499241 0.3065377616717111 0.9997077301719197 0.9089405787028229 -0.22612084716497027 -0.47511721699159604 0.9422734650049633 0.663472531542431 -0.5289689104889177 0.6984149885976301 -0.7565915374481325 0.06335069760877943 -0.4515692701244831 0.46710155597709413 -0.1430652064840996 -0.8061978458214645 -0.7325904364856968 0.43263260371060497 0.4870920358069746 0.9811832391940214 -0.9425281229671563 -0.23528899434239992 0.2368231750166132 0.35245846910509715 -0.5023800754654839 0.7298183648914571 -0.7860019441363544 0.6243729710490109 -0.38294492895847765 0.6682227769513791 -0.678062910096608 0.3738439153794053 0.12309217278263729 -0.897017728427232 -0.08527015741043975 0.5331050468319487 0.6046675291414341 -0.06973125474598585 0.6609776355464163 0.7429936553393484 -0.09278809940843558 -0.25204823290391887 0.23710601006101983 -0.30011930266453146 -0.4647368293094507 0.7493251928281073 0.7797382883274935 0.8841306286465598 -0.3668097932666894 -0.487728832188536 -0.020866462389666163 -0.5111962362235416 -0.17498395245843934 0.09601407281507002 -0.41075529934222055 -0.18922155318882727 0.5463143855112633 0.016671274901579825 0.6278257700418843 -0.833784537482658 0.7127592725489595 -0.6505787219633601 -0.5462229413191935 0.6873312776745848 -0.7083177215140697 -0.48559725838417656 0.723904744934472 -0.017033327259255993 0.17712905966351933 -0.04689792927355518 -0.07036456228086285 -0.22342529324024718 -0.9706885122606876 -0.13827763311647878 -0.7845460782001281 0.5664877522121803 -0.2581429695604216 -0.957098589130241 0.41878647262683444 0.44734638429620643 0.4837358938972338 -0.05850798242646471 -0.2802578520418424 0.5054491861891006 -0.7895440786179506 -0.365769382341675 -0.3485616570868526 0.6112154529433274 -0.9127802593376042
-0.2783257044326153 0.3870531938870301 -0.9193146250110436 0.4884711870806573 -0.21160136200739355 -0.977635784512616 -0.2835742544934625 -0.014515519553380152 -0.76293525474017 -0.29013441307259824 -0.1588142149857632 0.5419459241475908 -0.4620722733878495 -0.27595303240573665 -0.26607004244509214 0.06534479132898574 -0.03504834564255388 0.9665072090516076 -0.3400401788511227 0.8018742463067126 0.17645258699557753 0.4016874881582142 -0.11288333103112835 -0.8834139267794359 -0.6865564454853745 -0.7223794881689054 0.24304471607207545 -0.4787099657177363 0.7769896192424546 -0.5063982821928306 0.2823466520113129 0.1861738186379298 -0.3256053027950867 0.6609184855774246 0.31841204436004245 0.5407773437406269 0.3050882863439708 0.953358508503144 -0.7612460562194387 0.5512883737470025 -0.8069141250983582 0.6792643468372657 -0.41798104382070744 -0.44287165363549286 -0.49762008875661756 0.14316302702172967 -0.49167435799300985 -0.773708492191949 0.8862003431495269 -0.9803645135222172 0.8515991263245746 0.021500107065060226 0.006046331085470813 -0.5272923204237607 0.5690685778325462 0.9978838204351812 -0.13980227093538833 0.800230349867088 0.3709999051643551 0.7568855750326415 -0.6126268699047659 0.21080251537816652 -0.7175139604450138 -0.2895570497112512 -0.9735630784180567 0.9141695426380709 -0.3731904372651229 -0.2488405233397719 -0.25643220601285055 0.9299337220818409 0.009999357978508261 0.8588879355205752 0.8505157396630656 0.24360590135790505 -0.3350337286170533 -0.8461959634279577 0.257395345870828 -0.10230845920283715 0.7234186356613057 0.08895515054312719 -0.4262144736563678 -0.4120377948950633 -0.1219515758976415 -0.8203116597369704 -0.3242792913377288 0.19448689170620548 0.10039640525467197 0.3596898212979285 -0.30127623626481204 0.49964871019514745 -0.5162513602809853 -0.15391240151293206 0.10852254480814127 0.9491348836995066 -0.39841969973335845 0.25663285197059715 0.6359109439841126 -0.3913516207019272 0.709956709116818 -0.8450112669610761 0.5780115136815314 -0.32668155328157633 0.4406875286091294 -0.36430656193474253 -0.45786853631544266 0.6148434321294145 -0.19088295438378977 -0.3976672973087605 0.09266096135555402 0.16159020552371928 0.20935631549035905 0.914610496295647 0.6088713049373276 0.5601857091168607 -0.18053535566787793 0.6476233670782858 0.6988616411338302 -0.9600663223535038 0.0958334206449114 -0.6048234955297545 0.13941700208623642 0.6811281705865522 -0.6623151711027506 -0.2578684542763874 -0.9983972701453603 0.9187995752907432 -0.11803971704024319 0.42470020913607054 0.6876726577121732 0.15924358352410506 0.370910073128621 -0.0746210180679141 0.7435000475474425 -0.6017910392668562 -0.6205373475954488 -0.47631555756494337 0.5285908404485611 -0.8932287426561523 0.9286643299771635 -0.7772292936227847 -0.154744822100241 -0.24631593042906896 0.17847779579225298 0.2423263976411456 -0.40590583405608816 -0.7098050064205423 -0.6909271869138416 0.4350779944654213 0.24331131607201462 0.7153437428779945 -0.6139235350553849 0.7023488149547985 -0.513652767303538 -0.7426876657395214 0.28078983004462654 -0.6114368517865385 0.6680121250919429 -0.6734882857062305 -0.5611563946407234 -0.08777820339069242 -0.5101466632472211 -0.9088424412436713 0.4437665233216692 -0.4832115897566631 -0.8802042713427916 -0.7948456394918229 0.7296911456850139 -0.8866218856040429 -0.10817631254132576 -0.3607889456792379 -0.9501891646205578 0.22395119512041983 -0.8060840861225025 -0.5817890132407493 0.4904541200729602 -0.46660865101246185 0.23361468483421977 0.8794108163101455 0.49556939034913294 -0.0732768244440336 -0.26052089966145076 0.4902414730109257 -0.2916526483244861 -0.09714788013014286 0.7748865426336591 -0.20897049380638633 -0.7080982331179795 -0.4907809009504809 -0.05423868576023971 -0.18415026059559336 0.7932244133792352 -0.8704224852519391 -0.5903707962971039 0.7466794052920962 0.9108432875602503 -0.5654728334527788 0.8182812993516568 -0.1866313140692737 -0.3498451590450855 0.30744281925691874 0.0752734636042629 -0.6411393301650234 -0.8427554004620852 -0.5465603231678975 0.09798590751221625 -0.060631357849894485 0.5153175245053525 -0.9405191111763913 0.5076023339679165 -0.9890018210388505 0.4092797311411531 -0.025524241182872665 -0.9238496475606848 0.3446136480568953 -0.2758811538103041 0.5589877645322454 -0.1398397747348219 -0.23971185623158386 0.4346803309970919 -0.3060703750472218 -0.946505130436508 -0.0999420611936479 -0.156935996202052 0.9478180655750614 0.36693530924282713
0.14966830277219323 0.5289480598080876 -0.9566215574625254 -0.6000481518214473 -0.9452408462527142 0.32572316022127246 0.9819401495331497 0.9159751947837036 -0.5732986445265476 -0.32974727354461564 -0.8673804650339065 0.8651113919863105 -0.003983737426049627 -0.9329415211709942 0.5487602112185082 0.18362803768951674 0.9874842959074608 0.5677609657103273 -0.8688002659350924 -0.6260847858874219 0.2564177921938957 0.5459020301848192 0.04643898232323651 0.8384715233652278 0.6353810526477257 0.8323267981377895 0.8434247776847552 0.7260520151393206 0.5169025453724387 -0.050956184144995476 0.9327772523281543 0.48263932218669203 0.09918164123928142 0.3319921138070754 -0.11459491969271451 0.22243373696039792 0.6950253019416011 0.10305620934598303 0.42045034860670905 -0.04559225514884968 -0.6615092969426939 0.6076166960517673 0.3912717718949319 0.2768475640799375 -0.6240476435908457 -0.550989245669421 0.16046146812527717 -0.31063174549503936 0.8365433220944736 -0.20893518997879745 -0.16278240127126598 -0.8186989292873781 -0.3626679520461473 -0.2544735504765272 -0.70154930569772 0.4719616467344423 0.4843418979531795 -0.876412896830612 -0.12904923944195024 -0.9586226456611373 -0.007087314577718384 -0.5083814151575399 -0.5602581728375859 -0.4091935340714612 -0.8724817701043919 -0.6091273730012055 -0.37963419262751175 -0.34041173661425495 0.0712169435976362 0.6123299969599805 -0.7482330790211151 -0.2905019344408646 0.7376228825299365 -0.23079552676289716 0.4996365407625645 -0.899835096340069 -0.29964862871306486 0.908377664013901 0.14716652570940125 -0.015341690987531464 -0.28683461951497313 -0.8845109991362345 0.7811811373697719 -0.23233023825007248 0.8718966509422335 -0.4215620899989241 -0.1423049309314326 -0.32075638419437213 0.6455842006211643 -0.33654967929582 0.427979774891007 -0.21241520672451886 0.6623986172860874 0.02146204173716626 0.6845686436219895 0.622364497917111 -0.2784510782750038 0.43253014702339754 -0.42378430685183743 0.3788434347379348 -0.9430209708526922 -0.28291577481893926 -0.3141121100690263 0.9337465008458181 -0.5851930223382231 -0.6181297661875584 0.6884493256692366 0.2773362655653735 0.8368294991803733 0.29515265855965334 0.8350434114455443 -0.07714033843922863 0.6051235005575304 -0.23055077845537175 0.885019444347771 0.44798356507058323 0.46614215938363013 0.27082103813447667 0.8219540339433256 0.4925427642069973 -0.0675584815728294 -0.9791937375671449 -0.6514276977706639 0.6647382803384032 0.311820874696072 -0.8473129852269179 -0.8012929773568835 -0.32208168922821745 -0.3209598461046286 0.9432097374708301 0.06963399944368054 0.48459320219483604 0.5179978271207379 -0.7111521139125707 0.3284834402042698 -0.3542513589716727 -0.4916139629616745 -0.4408885224977892 0.7003069600899556 0.6859519734611061 0.3220186452093381 -0.9095146244376884 -0.9733081770037273 -0.9257322266829366 0.028615220732662205 -0.44603882870359524 0.7929272547467827 0.8317186797833958 0.44826983634257656 0.9864863411987148 -0.9505154383620886 0.9936393973788287 0.42116354842874393 0.12876710598327334 0.33942264315565795 -0.5387614842822865 -0.08187698062066895 -0.3262113637178068 -0.8712340051601537 -0.9933550324805247 -0.5633482368998513 -0.6750021119700287 0.6185239451743554 0.9725667781480725 -0.5311967043198083 -0.7394486075035678 -0.9288432998849254 0.42651665322330734 0.6444043584124322 -0.9518424185478083 0.19163044126256978 0.28807615379174156 -0.09820335966115379 -0.2550782431004146 -0.9851397140985467 0.7175814765858601 0.618766355984214 0.8757084725537381 0.7400979228209432 -0.8789350129935283 -0.31834895831462706 -0.8983300384595247 0.19766524393447749 -0.7142293289963446 0.6866323165186408 -0.8829750511864114 0.7473086346791034 0.9448915705519962 -0.31496366424174305 -0.42862732847958496 -0.37008582659439804 0.5489470537596131 -0.7005843885956775 0.1659254687959255 0.28739491377512305 -0.8792329693737031 -0.0059383499984067 -0.3421529127888745 0.7713443512060056 0.34982885398055963 0.5937252389049141 -0.18856448384303137 -0.7530945660510469 -0.3076439294770068 0.27065410572911364 0.9952901410493376 0.5958368193335837 0.8223921188270231 0.7132239096512578 -0.5959915287133224 0.5938939847570583 0.10784781664662724 0.7686283026281697 -0.6674738076946396 -0.04649845486271231 0.17102551974018265 -0.946765645991241 0.06002897700020626 0.10581333336224197 -0.9477324211017581 0.12889299391674913 -0.7676655710484919 -0.7182406309837699 0.4811374912547455 -0.7407835259986479
0.3188276111622983 -0.6406803156323173 -0.1661622286619151 0.8692964504593563 0.7771894767929413 -0.027477498139244272 0.44772346432072574 -0.5281129210947972 -0.21481021141612655 -0.1973460985803719 -0.09736332741569953 -0.30584859386057883 -0.13142305951286892 -0.2714845042701519 -0.24987026425284364 -0.34100086420243936 -0.9796738119155854 -0.8112272159574694 0.5827861627291067 0.6279384014146572 0.9222253173684549 0.09237781535696366 0.4719918356794648 0.7227296392870604 0.9046288222160743 -0.737865192665474 0.14909234615717182 0.8468728486867467 -0.9081101531376681 -0.9823419509234563 -0.514606127613747 0.4427342662464706 -0.0797799134106778 -0.27428618836600815 -0.9642377689820585 0.11156076173877527 -0.7212559021322049 0.5131509008458448 -0.050198355436622766 -0.1349565605912566 0.18094176812060958 0.708151620921305 0.17510040705727858 -0.9938414506202082 0.8552693757164112 0.6813276483370914 0.16624882536533825 0.20013161778529076 -0.6189902121847091 0.9085449458805288 -0.8672593342911785 -0.7969510016651771 0.6328994789827345 0.7471345122318198 0.6991315480910691 -0.1332502209597055 -0.2810965285231739 -0.6457133181399777 0.2503249035810091 0.8424324092167044 0.17802499573259922 0.8199095777154646 0.5236689998038704 0.9246107280300682 -0.14598351123914122 0.46919845185578146 -0.03604944094542106 -0.6798212386429907 0.5529984855241397 -0.8514789965357146 0.4868458465610477 0.3755494833009434 -0.08663390817727645 -0.5461703914546798 0.32172915060763274 0.5961778876378223 -0.9697814690942081 -0.09032244431382574 0.35553867211774937 0.32304997651760026 -0.31284787334185293 0.2355807869763582 -0.29426837555513585 0.03742301253144853 -0.9178675627323463 -0.1373158571611277 0.3138742145516267 0.10156151093425403 0.637039856728093 0.643237888042512 -0.07349434253422027 -0.3772728461647712 0.24031769593610597 0.8473774672880985 0.08553118063692478 0.10887056218062652 -0.17468590889720126 0.4829954145818445 0.5038165484384576 -0.021356626747555563 0.9209843336388723 0.6808803807671986 0.7936765752833781 -0.2520021033622373 0.08057704853959446 0.7886227275441049 -0.9244022538108925 -0.8343789513007525 -0.438700286279738 -0.020346094650053548 0.659374919187165 0.6523620262515435 0.2536956819403735 0.5916734173586422 -0.5103130135525913 0.5815710492442963 -0.910258843133039 0.22157979419399076 -0.49008566824010313 -0.29627071899471 0.5098014954256362 -0.26190033637878973 -0.16980426823516748 0.798284773256831 0.9406433333150319 0.5542470075073544 0.5278152944469223 0.33103124952616225 0.6155700324910021 0.2573190380404302 0.43249897171762886 0.36081256523891647 0.1996010392133556 -0.0301260601245541 0.1774148274580749 0.36425395474823974 -0.1911285159256959 -0.3463309911336807 0.008544622903019716 -0.23013242979731574 -0.044756788583236284 0.18188621822202444 -0.025874968160805478 -0.2676572964588462 -0.4082400963806321 0.5856562619504926 0.4934904856294986 -0.31099248126692736 -0.23128624862340197 -0.47458308422331874 -0.11336734239073243 0.792031866771927 0.13242856570665862 -0.969421748343265 0.2645998083464205 -0.13116676362767832 0.0985014855394084 0.9134000659584129 0.30505570892941414 -0.19769147686138533 0.2683880847041862 0.7178795666376159 -0.5842485879812089 -0.6241476703482431 0.014063142436618437 0.9263609960387429 -0.18980244708027305 0.7734368604933555 -0.8118981476399039 -0.5534916815730877 0.1334259453079223 -0.5568055718987082 -0.3991431363286513 -0.9071585157761859 -0.5252616889769071 0.14579126490248173 -0.4345269938119365 0.7364775812216566 0.964409921548055 -0.717927569251501 -0.8826153082109596 -0.08477613149656715 -0.9733811899012044 0.5567197716409897 -0.8837671750218197 -0.47469860985307966 -0.10990878913982338 0.9549127609199937 0.1591747004079913 0.7859958913865319 -0.18889910019345746 -0.35292792200754475 -0.18982741973497208 -0.29400214125785706 -0.029455354385375943 0.23905507072787735 0.8771222129790721 0.6927271421933667 0.4304767743217719 -0.24426842554501338 0.7395790429316804 -0.9400005868443269 0.9009752066275274 -0.21258894953348473 -0.5206107968195521 0.3079682813886293 -0.49464388542915594 -0.4880255944406404 -0.4962142563176557 -0.19714160938510839 -0.8729355424013547 -0.3556863988241945 0.9504810343494294 -0.00973442737501462 0.8696865628250345 -0.5541117116878338 -0.24141234343449947 -0.7676722098743891 -0.3244664823003631 -0.14762617237232467 -0.1472025023631729 0.559876641454905 0.3242301664448195 -0.7287914425998647 0.446400354138734
-0.7646771073066134 0.3843568786011997 0.08809118987158637 0.3214160228574159 -0.5291648226832102 -0.49194083732781624 -0.6978177302657516 0.06569731853403926 0.3180709953047147 0.7344297178839843 0.7652848338687634 -0.7131304788637318 -0.5334699280983295 0.4804911220164336 -0.46199791028178394 -0.8713893985092733 -0.21947263582129506 -0.2650514103504362 0.15122423978281407 0.9349544267943375 -0.5396583824898582 -0.11095782654740449 0.6562971888126368 -0.0002209874131380296 -0.6939744434079358 0.23631646101634263 -0.8058656553445056 -0.32909077280380905 -0.06242579589010533 -0.7033268349130779 0.16828535754853347 0.0858277208794469 -0.4808512800936766 -0.673751459761019 0.8191148462598883 -0.9428948574678828 0.42645307170109215 -0.0652783242950763 0.05926058324298422 -0.7237492747959475 0.047361632067908666 0.5418201016098345 0.09070416394083458 -0.6004324732876485 -0.7726992303053088 -0.42428272706423154 0.3398067765952064 0.8205568857595602 -0.5237403075992746 0.5569455915540027 0.004692383509728337 -0.24779426316326103 -0.6824091875887233 -0.9260981892409617 0.7545030939843207 0.6431363589859684 0.5739102407574219 -0.1515634940220567 0.4146716615839532 -0.7416111062431354 -0.8278197678579886 0.16413979716332028 0.34400189025294114 0.7612254394094551 0.7060488621831633 -0.09475869463863251 0.5111023439675264 -0.19991045191473544 0.934329822885771 -0.38675592829649763 -0.9944447901029079 -0.37292592182211437 0.46178447475137485 0.4616931276715086 -0.4925726913811419 -0.9255535814883127 -0.3613282798077133 0.6076206319603421 -0.007018605581302406 -0.4349170990466773 0.1887825931134266 -0.11367185540755598 0.44424296735969526 -0.24244865793948422 0.09641865145279671 -0.06908301364954905 -0.5059556004698671 -0.72896534940828 0.4986301316560371 0.6636082858016537 0.8910392577453992 -0.14223918938510982 0.7945419676150103 -0.5979656490766954 -0.4695088532228018 -0.844754133955268 -0.11397023130974993 0.7655313794535192 0.9703822141913614 0.33154731480489086 0.5818858174267274 -0.7716203549516611 -0.6916402733368565 0.6201968249538483 0.17449756327047972 0.21204510504766616 0.6484300923277351 0.361236535425735 -0.7560158937685884 0.9560910413916259 -0.20856793008852192 0.8756312360932912 -0.8889617304458821 0.9366716564398676 0.593779578724871 0.3474196829433711 0.9900350345263038 0.4516680437446434 0.6899823672422853 -0.06793752503987927 0.8347308053496851 0.1994798268171265 0.0065898658066918525 -0.9653745352181438 0.5464854373478276 0.4168941749912516 0.5198186406812852 -0.13992732084942228 0.024623899444085717 0.9701205281214214 -0.7472980498353854 0.21220931177934776 -0.3211723347080868 0.080995018051508 0.9667697422657531 0.30620346128926523 -0.8298388976412734 -0.3411762381655943 0.8584178378629237 -0.518888240076917 0.09735343357898718 -0.9057292173275147 0.7569087519771258 0.5328186537224939 0.288959044033265 -0.8672499475058615 0.11425430003635961 -0.28211570028961486 0.23830028695658778 -0.07956962956099578 -0.07478834812737523 -0.4455456843694221 0.1519304691010146 -0.09688036104325692 0.27914649334206154 -0.15759510361948492 -0.04774181563745117 -0.6456468939570059 -0.5762613782524448 0.5763012775798209 0.7688009676145142 -0.6062358014247688 0.3774702947909192 -0.2665363018180129 -0.5751902622878358 -0.09624027366194476 -0.26814128032510776 -0.5668874202158833 0.4682176917925618 0.7352973562227458 -0.572682760158407 0.6827251593508574 0.17407813992620658 -0.7675993372397145 0.869613151156152 0.30618480628653044 0.7904859406729612 0.2816884259907144 0.177797533430317 0.8800166702401966 -0.43148023530502555 0.7707085060532914 0.6796095319605588 -0.8406005112368788 -0.4415581389435055 -0.326304413099493 0.12410300902956428 -0.3053922214659295 -0.71869656266126 0.6844603419217465 -0.8961741476018283 0.3135025142488055 -0.08281856318361491 0.24021106614628263 -0.741465477457385 0.7087995746146323 0.35356777309250287 0.6003122687285507 -0.6000331783341988 -0.39091721740598895 -0.8304459832243529 -0.5341438573462232 -0.9507142490572693 0.970939166191624 -0.3886834357922129 0.6418447171888537 -0.3053936798982382 -0.7615933657146787 -0.6879907302573076 0.11781973336475171 0.49227366225484626 -0.3393171121744951 0.7721439344823153 0.32119829863330795 0.30323108311454927 -0.2640066755373982 -0.13147758407950394 0.9590904804605256 -0.6622484841695742 -0.7310875383828197 -0.731873576390345 -0.6753495847340159 -0.6111035952111943 0.9554341646986324 -0.2564526756477743
0.4374503684112776 0.634305778018998 0.9553625787549156 0.5643935596440268 0.011098625521299477 0.5037038858517326 0.5567678142885641 0.4368534993272959 -0.22973469847072514 -0.7910930389719095 0.6845042903174421 -0.04643671111980452 -0.48764422086702175 -0.909546478596416 -0.0022570980642118155 -0.2586199635574853 0.25168621954158876 0.7238248149827231 0.4515189203477017 -0.7893615305661263 0.717921724963807 -0.2898283809828661 -0.4517150520122073 0.7786947121821433 0.6909597393440639 0.5931868863904268 -0.3415498524704963 0.4096758883637601 -0.9733994453313206 0.8829480242568883 -0.44418778130860437 -0.13127949516293524 -0.3730788818333899 0.060040417363567355 0.019582091724741346 -0.713079753451503 0.7688744866367339 0.5218630424904918 -0.3181550302456073 0.3137032459136513 0.7347875512542101 -0.6265295158880577 0.3192390912526426 -0.40479771329068126 -0.20289680405580812 -0.36436858321441523 -0.4131505466332632 0.8724751866442138 -0.06922243314313903 0.1630120449787562 0.039282318096622415 0.7227596842219057 -0.6360414990391461 -0.6435065758587788 0.7604812467604509 -0.029267697333371645 -0.8030945352484582 -0.24297317027065968 0.5813452609667893 -0.9147470028772633 0.668763417171778 0.05676631481073868 0.09963048019576459 -0.0695544022271406 0.5699077780497959 -0.6551132829301267 0.8974344541318562 0.16727291983723336 0.8623760727329317 0.9328034920981279 -0.5089436701828289 0.21459826083816758 0.3493582975544087 -0.3803118452592653 -0.29505247024438797 0.19808502310257015 -0.6899029558409604 -0.9278444351321076 0.0005643229300764663 -0.5118136295230016 0.32293780030034713 -0.7683452050530255 -0.9840386246601789 0.14224634120349444 -0.9201374943899796 -0.7558031927277584 0.3464366945630113 -0.015934889174259448 -0.5614044609213988 -0.28805946522645054 -0.2522567108626379 -0.05663241163623933 0.47517196659942584 0.564670935736364 -0.6643800308086765 0.22513654429711294 0.8490715042693653 -0.8946426927756652 0.25021986415004926 0.9799973019898587 0.3759095362391498 0.6429132275871507 0.8245435850181495 0.5094182320364316 -0.5461016546728723 -0.06231396595814842 0.603003770297889 0.11458480340966459 -0.9966452806963915 0.9896869944880484 -0.6436932047620554 -0.12742533834461667 0.7876097630730705 -0.9262024033815135 -0.7234531457838924 -0.033943670652734514 -0.31565427095670384 0.9684142700268858 -0.256260952290718 0.6746361242435877 -0.9296756632685976 -0.36222942447219 0.9297501526972138 -0.9127008802664931 0.5180829481344964 -0.07815328899562402 0.4404620479475543 0.39814841662890466 -0.59453213272264 -0.19993862459715328 0.6749407600667965 0.14387460768424098 0.8392904862493697 -0.3654972674585082 0.4318724728354666 -0.219836072567132 0.5758385238426762 0.6125510864253889 -0.4618601416309982 -0.020342810176895654 0.8220109360965382 0.8925916488575132 0.6963150709235553 -0.39277424624972723 -0.69053318298629 -0.39894822921650763 -0.40137777037901845 -0.22902152167888246 -0.6238784764600782 -0.7601549896037387 -0.41390070418148306 -0.35160964813350715 0.5525132593706799 -0.11998939251177343 0.043907043105588794 0.07977323219390375 0.52712826782529 0.7909755435778763 0.3537295101104305 0.5156401549438099 0.39696173934182233 0.21840417221292752 0.5174291769095767 0.541227116777315 -0.1737584335739144 -0.42928455862339043 -0.2192867094159332 -0.3190741332288085 -0.8655021846144875 -0.10381372678350465 0.6901465883715114 -0.7160072278096827 0.8719753004708077 -0.30557443702633535 0.6214054536535825 -0.5161880017056357 -0.867895600310375 0.6359604946350932 -0.6655278633202126 -0.8882325790452998 0.09481769834413534 0.2318794353222775 0.671895541285856 -0.028004533602004722 0.615511718144899 -0.6552481098965826 0.4903136630751652 -0.5915552368332366 -0.5803156061482049 -0.775133235655233 0.4939508551707936 0.5516462683251746 0.20413288166439214 0.5410475595126047 0.6367588511928899 0.3588233084861454 0.6304347511588531 -0.11526826881981544 -0.7503356971010404 -0.18576136534686372 0.6290052881861707 -0.7001362045903285 0.007605064994482769 0.2411215602639798 0.3468598397456186 -0.4538120416673579 0.19219130503154425 -0.6140601801856149 -0.34031683001880064 -0.6061263613812375 0.6196364039673181 -0.4535196257994074 -0.7449865082194287 -0.3616391784496358 0.6963024304142678 0.26408813867729 -0.1806084891428399 -0.4415879361076227 -0.18971151109445805 -0.4305351463464486 -0.6526550413628156 -0.7945300929087367 0.09742083726597328 -0.07228557515346656 0.19005813740743038
-0.021095326829901007 -0.5654428161078999 0.6145971552921037 -0.05208833402557844 0.07227554015108928 0.1957266428637756 0.6747454313969996 0.9007614121733445 0.41137930224227315 0.05151786173971562 0.42672168763182206 -0.6854086222583471 0.08383226521084275 0.07093141274060222 -0.04300757240200137 -0.8743877805266216 -0.5196475296662195 0.9444532889914645 -0.48687470008276046 0.6900050247804608 0.0995367300303105 -0.8991169135387775 -0.42487535315049696 -0.5732845584105093 0.5441243129368534 -0.513291626358366 -0.23582782199921937 0.7342219094063089 -0.8357648940512596 -0.3195558632867572 -0.5857854606670505 0.6191073891188812 0.08664533645931605 0.15777887489717002 0.22933246971223076 -0.8100211905091455 0.6631887198750683 -0.27911596634859004 -0.5636077165698692 0.3201324932455327 0.3553067675855388 0.5671108698886638 0.29941474812119506 -0.008431473047114224 0.8203862911874256 -0.8532047965956822 -0.5021079630501739 0.8791103146648318 0.7305807710228687 0.8693341606918117 -0.872071015529678 0.6966738513530524 -0.8632791327239866 -0.35509678806895506 0.4968893032947421 0.9535669666178401 -0.3556537258651993 -0.8444095767358251 -0.676035766418732 0.6739208736421547 -0.9105472601323876 -0.9030774184335073 -0.5651417287836786 -0.9878763947219225 0.1785530395549597 0.4883301981711181 -0.38806202212082486 0.3732346273326965 0.452221188168797 0.059768563840894906 0.06916800712523696 -0.8155858465469676 -0.653209066647318 0.12066927854739062 -0.30099634498989913 -0.8158527234052833 -0.45409139573081814 0.3617016136454425 -0.18925397332410143 -0.3807151102267332 0.9137150738690074 -0.45823572017513947 -0.30401548194006156 0.6320211899317312 0.37231339147002096 0.8755249310048951 0.8471948692785864 -0.8871508383520588 0.25480206761092994 -0.6817131416678113 -0.8751858751999804 -0.6834465899331224 0.9653790484897873 0.711185109519787 0.4621898839161138 -0.5339873378454392 0.5736432878405024 0.13619775141426693 0.7225633964471558 0.9894387706294059 -0.16240413633405115 -0.8357981511716168 0.8106635429261451 0.5684680551752961 0.2730262550476721 0.23523759557148605 -0.5163711889205578 -0.31345081595052227 0.6014104816950201 -0.6548674967732884 -0.9477271194293895 0.8057242946969343 -0.25409659405994334 -0.943660270543389 -0.2108786817771522 0.2524690023860987 -0.20782272759789566 -0.761734287613189 -0.8555472739500194 -0.39146493286045203 -0.518984577278105 0.6782677619780686 0.3956300161183244 -0.3327726357365062 0.8069233431741902 0.9873889345519584 0.22837733760778978 0.5858769222137368 -0.7228417176301876 -0.23683984454572338 -0.24177452765436036 0.08874170883536259 -0.5238579290578815 0.6911212081037248 -0.5092755440873551 -0.5306690261633995 0.0619324053684398 -0.45011877010337487 0.027231845188296466 -0.6862259124833716 0.18950801674529916 -0.7732548286169978 0.2713715617076671 0.6230384010947063 -0.4421504053611329 -0.8286496146851026 -0.6081333771181552 0.6129853756182662 0.9154482588516009 -0.14693809059644192 -0.43554445302527367 0.6776250354166349 -0.33098720519892844 -0.586485687195067 0.4032558408204483 0.06000879980012819 -0.3837803114574698 -0.8549044181086929 -0.5624187813452728 0.7334527066307 -0.3697915903313591 0.2483361492319216 0.06747575871794709 -0.058398046735818276 -0.7029366039787308 0.9409870983011324 -0.9388974981111946 -0.5709375381749433 -0.9207537414028175 -0.8180302242615796 0.35041878302228624 0.6357640988922981 -0.49241048788118347 -0.765178422114166 -0.9884656026940342 -0.8291361121980918 0.36903327333394387 0.9317305466988985 0.6102046606628142 0.6077988313420608 -0.28710738245403844 0.3860994667508588 0.7327732515373007 -0.8609096701703898 -0.0015716410970154637 -0.8356606590457134 0.6523963586028785 0.04377736912644781 -0.1861115238262463 0.938706821292639 -0.8882747277159979 -0.5773885889279278 0.25851200957558107 -0.15560351489364943 0.7382509690405774 0.8134373186177384 -0.23344808733097833 -0.3909869939648718 0.4737286036692603 0.9611306243645328 0.6271003880886672 0.15610805592860788 -0.004606370685510619 -0.7890810351282143 0.998098827798308 -0.5481451623255136 0.7089721918785616 0.7936615561566798 0.7560018118170997 -0.8863909701231811 0.3554042786210212 0.9086197608803206 -0.9117419024524014 -0.3913759721249377 -0.41137593919128923 -0.4068801814962377 -0.8442816471746535 -0.5001976186545576 -0.7470976135053911 0.19916630425877724 -0.7745128006668636 0.8752311873656105 0.9751682950062783 -0.3904133672869181 0.8441704462285289
0.6680074706266601 0.11315118202754926 0.1585157006403164 -0.0706233326262855 -0.2700956731135802 -0.4552121006062775 -0.9704355611504838 -0.8514991124674358 0.40905304590652114 0.32284784875107975 0.2084122378658695 -0.25509106561289685 0.27692986875279413 -0.17978760465427546 0.4248415703303621 -0.3013644404893039 0.7509630725116461 -0.5044813240027635 -0.6253301164791094 -0.21884040630647683 0.19179058838100405 0.28598615459248156 0.5924998093129699 -0.5612982708638743 0.8530483498167603 0.31569910284782776 -0.05555094563465035 -0.4866933160158231 -0.18063443240973776 -0.7956386842831409 0.5843095790937396 -0.5402368780208453 0.9320003692982448 0.5978604990250569 -0.8120979916983779 0.39659909976471797 -0.7025400915214395 -0.25432637105510403 -0.9924237999002608 0.7186990502516506 0.8276732609593065 -0.0018735987280784627 -0.8472481168875918 0.35638806486957364 -0.6545541181724623 -0.991886270209648 -0.23532829561750712 0.46299034440573905 -0.38420274088996353 -0.9673324989922449 0.8749298349639643 -0.4720506552239663 0.41373348047742753 0.9767948274045282 0.03754514179749924 0.8627226055537549 0.30996649055801373 0.6503978066733158 0.3463047190026125 0.10099742664393818 -0.6729571784397144 -0.6192440624608913 -0.9771170752116634 -0.03148745360751892 -0.7594700799744574 0.6666625566881261 0.5987796803435703 0.41417693671698674 0.4931963199971052 -0.32439732959586287 0.13961217649355606 0.011148378435785089 -0.645931967648095 0.10136845069202716 -0.069521456105883 0.3510022134045441 0.5009964684452068 0.5033763008494887 -0.8350386214171568 0.7800678449217491 -0.3452766882167757 0.9601706383636044 -0.6263831544080181 0.919198369925124 -0.15359054238873093 0.9987575049577719 0.7864994447628468 -0.5060641152255136 -0.07001414689832886 0.398846296069844 0.9268357660478781 -0.47835407660279117 0.21916122523136017 -0.2799606397533567 0.3680101464034695 0.07858778827051749 0.523085120303989 -0.2410301193777593 -0.017048648963395863 0.7498769073565656 0.8870997793797986 -0.6359012804125512 0.8654087900237242 0.34790053913905106 -0.7278571036080721 -0.6052741741336365 -0.78811702713858 -0.9329866627054384 -0.6950506880715113 -0.6786516041237065 -0.7597620355951658 -0.9746224408324495 -0.5317002725596283 0.2730003994461614 -0.21553294176004556 -0.46729283490176954 0.18991714807823068 -0.9798934190778246 0.1630238309441463 -0.4291512779300586 -0.5665168572584223 -0.6725184188792472 -0.6194477168617523 0.4853201296708196 -0.4388929396598036 0.6687416126508159 0.49299650095940195 -0.20562775032806058 0.047192546573809 -0.29964891777392966 0.8564544549996125 -0.045909226291386274 -0.5453993524719065 -0.8651149742066511 0.7558736105424824 -0.5541389601532407 0.35777449261179695 0.17217037791684864 0.26574525746688704 0.5145831286952824 -0.20588110226384804 -0.9555154405178485 -0.6150968501987584 0.18782687649154362 0.9169968425238542 -0.42815099975088633 0.8535895189835163 0.24867987306510497 -0.5063290077806946 -0.4147200698051572 -0.30291288386330706 0.21703796543128884 0.7567222825841049 -0.47990706265711713 0.3436854837304313 -0.9441343006491403 0.7568669061948459 0.9261779527550178 0.21535755388850064 0.7334750825619287 0.626173851748866 -0.6951780450339131 -0.17257933526053781 -0.5261531957131564 -0.7128744753074607 0.07094033141581724 -0.39221975501688844 -0.8856727496161665 0.09950866009667392 0.44952287990778683 0.42022902442095367 0.9126757458740751 -0.4489256753124631 0.561261751291459 0.38040727631918214 0.736832344624772 -0.13633164271787757 -0.5772633711207553 -0.11118814273091382 -0.46847286726585335 0.7553735709727212 -0.43281823999620994 -0.08804215520269176 -0.5004208401681156 0.020786053411527616 -0.5002641686018812 -0.4787385293597659 -0.7139707347616999 -0.6961986908167948 0.7524236992625941 -0.4321594925670156 0.00029346287296383444 0.9739455977371825 -0.23072771334721298 0.9690656212731537 -0.7234658248862698 0.18042178129086084 0.41152893528369616 0.08018866510980427 0.968673950584666 -0.082915469043497 -0.3166486467046292 -0.716301264773423 -0.7289315266796383 -0.3038098886583076 -0.7361352982009464 0.6356505981946063 -0.17007150468840382 0.13242248307106563 0.11977170435965445 -0.9664044218037899 0.25975559377472757 -0.7955821517609201 -0.6901198567269977 -0.03820857295682201 -0.5788187688532658 -0.8660997728054278 0.6661578838805193 -0.7145213290983314 0.06298850848898985 -0.06822107983953551 0.8193584954367157 -0.9381817575851616 0.6899573819330731 -0.8513870981880156
-0.996768334798084 -0.8425043385424653 -0.9227394325984855 -0.08513725422970997 0.8079033252946304 0.7329449169505544 -0.9453210522877638 0.7565468311096499 -0.1683772345889143 0.5519000292269844 0.01260338881350287 -0.079154029903024 -0.13925088460063417 -0.1404378620916218 0.16230687487260242 -0.7737919514967073 -0.41698853810108183 0.2756581177769102 0.32319598520571446 -0.22407468783870232 0.3711527152137475 0.7199577486833477 0.5805562173894214 0.004474479541838328 0.7848150323678109 0.12556583138306143 0.9229653241785962 0.242850106348516 0.42008489357021883 0.46896601633451196 0.5592532888694617 -0.5591941244852094 0.20215807884501236 0.6787983160888071 -0.965899238740952 -0.677903084684913 0.5521584468898877 -0.9693734027369547 0.61145937182508 0.5813531352943018 -0.58653936707264 0.15918732527043233 0.7475298537706916 0.069341061030336 -0.5745834552807936 -0.7845322362459053 0.2946450219235641 -0.008724074390319192 0.22476335697171956 -0.8616245143897088 -0.5252738906132599 -0.033634600413131155 0.49514594201162687 -0.3886923230146837 -0.3459763110122467 0.6184291833937681 0.9238879476983601 -0.5558523722503246 0.34307061052431265 0.03994292043874115 0.780270897093795 0.15914733391046187 -0.5075567733311273 -0.2953121151525151 -0.6083023799006235 0.705436205786119 0.9019009476146236 -0.16600630873851108 -0.9990255602950859 -0.7499007651693208 -0.692370463567318 0.07459818772347737 0.716818188595592 -0.5434651768380976 -0.7584524573163649 0.3883303982420965 0.9780817839057541 0.6703178119733086 0.11190554561371147 -0.948865858658575 0.6002412506937267 -0.5486848909735635 -0.676619833789778 0.7134252206444611 0.32571611984773297 -0.003937272563541594 -0.2910677524806722 0.4836692322664826 0.16171180880527936 -0.9028592698603692 -0.6644473056455504 -0.7389536287187197 0.051540634722749834 0.20365887845440533 -0.3224515085491384 0.5198222148234004 0.40294669224876745 0.9561121814251416 0.1852304830836058 0.19115498642967066 0.05771937270422445 0.3263918766660423 0.1367289926611701 0.015858923062800123 -0.5628357081851243 -0.08563141679459818 0.41808266334925004 0.4872294845075533 0.3157266898724549 -0.49394067456430535 0.16251858157954513 0.8373939316871042 -0.1119972008633443 -0.5832340123713688 0.9214254017637618 0.23971090558070962 -0.8463598204846934 -0.09490579858930936 0.7908871184986832 -0.7058734308164147 0.9469456498784108 -0.8812060191261044 -0.9965231824511016 -0.8356843474084483 -0.6909162542692633 0.14373570310070338 0.6565504548676357 -0.1794829423310933 -0.15966627848919202 -0.2428142915567253 0.7854564885716648 -0.3968352128391124 -0.5762811969569939 0.8614111013583827 0.4206720482491817 0.21024794008665904 -0.4372981256670587 0.695123475582252 -0.31406808290718713 0.6770372471609793 -0.009785214689254307 0.8774802700403774 0.5014042083672785 -0.6740456835180941 0.41154933651279046 -0.6654666031155929 0.47167328922585305 -0.6075771985384026 -0.9582191111444123 -0.1375512814456723 -0.808897667025422 -0.8796551045751619 -0.12549555924126055 -0.3740535604491517 -0.22871903068390909 -0.03236589376815724 0.2757936645127488 -0.09607692225149567 -0.8239771975494785 -0.8677180234097677 0.6904527828212479 0.2724056689447061 0.3090706254808555 -0.0028817545065862316 -0.758792924978013 -0.699279636799681 -0.17078559352311617 -0.8978827941146237 -0.7943325663161829 0.3844413369446671 -0.9614551464646048 0.7786240575027978 0.0615440520463888 -0.49396939217039026 -0.32241919456456025 0.08219056111631584 0.8760285205802729 -0.5100263708018415 0.5292357591202179 -0.19282749243610997 -0.40610149583299626 -0.15700461232712537 0.5086832543086819 0.07722221131015439 0.49508219819243204 0.20171657041407443 -0.758042146599504 0.42953867073459584 -0.9718562590797373 -0.22850671576907344 -0.5859819500535546 -0.816349795016319 0.9373960260308087 -0.3028635308404384 -0.38446061820620336 -0.4397965208049641 -0.2746260582143849 -0.21275728542943373 0.9212287033625601 0.4894255079746348 -0.9961289656512162 -0.1971953128381767 0.7046313058352478 -0.36483034737559494 -0.3498045739590616 0.434406803147775 0.0023094235266263308 -0.9369130419350553 -0.7879162538427011 0.596267431975511 0.9256064483488415 -0.5762824218900815 0.319385912439228 0.33961028493867684 -0.6551649602711371 0.6678731163367038 0.6039810020666176 -0.9962668905981249 -0.6170045656895295 -0.8292777306059882 0.9965616406771032 -0.8142700015824007 -0.5776035652705445 -0.6492159155174382 -0.30769065549146424
-0.0817972222894301 0.5390948563408835 -0.027192150795662284 -0.6076410700043045 -0.9156848843099583 -0.15916691219167545 -0.7535638997702487 0.8079506608123559 -0.9865296387759221 -0.3204397052946337 0.0989506393105759 0.09942612923613892 0.44150585340438164 -0.6188441215365319 0.5534311380523087 0.4309416188342212 0.4797428363432812 -0.7479638860551627 -0.530135966619419 0.27359550090702633 0.7612862171584567 -0.5242440618511419 0.012682169769354878 -0.7237353233291746 0.695776333381037 0.9063435136164446 0.4998460780789482 0.5263038688359953 0.8557612436600195 -0.24365339891614157 -0.4179845990862088 -0.9146989258457718 0.9627050245894355 -0.5976323514911384 0.6671817601838859 -0.701780537474805 0.9318327465304195 -0.01811785546693412 0.747005145805784 -0.4322760422871903 0.29234191331560244 0.49253170988139017 0.1275685214323683 0.50748654800908 -0.15407887977492973 0.43415846935300917 0.23539972363011463 -0.9630707365734121 -0.7411491867815891 -0.40017334821735795 0.944936205105191 0.9294363123987053 -0.8201778511574043 -0.4588463753020582 0.4664953303715782 0.6770507283472826 -0.21998409508415295 0.24984417853884744 0.9851332613258714 -0.6957792527365527 -0.3398519153934674 -0.9779070737209539 0.5817371345199913 0.5991974054758809 0.10832229588552744 0.35741718021049396 0.4536992337026946 0.04257769594154137 0.1032578652574696 -0.20020088170118044 0.5019555491203751 -0.16343896965589555 0.818828431991901 -0.7548923648185988 -0.15523165621070945 -0.5163535606460641 0.45888842591148093 -0.3492304942150324 0.36468396619513443 -0.8709722191669671 0.7817596681902494 -0.7787890220054088 -0.1097532517562676 0.2329867855319796 0.5357570624352435 0.6694247137115668 0.03825478444845287 -0.45242795087662513 0.4892460665739202 -0.5409439227567412 0.7138492595246815 -0.17846000886599955 -0.47315160881885565 0.06540482154807004 0.5576887782909479 0.9537472647558072 -0.9328339190583008 -0.0628458052953047 -0.9029477485625157 0.9332394230242229 0.6947458637710542 -0.3276175462010602 0.1305910319289565 -0.5077560441750435 -0.5633266101995222 0.735944708041822 0.5560196173143033 0.6624611092952137 0.4077089731617036 0.5924242256069843 0.05032006098181352 -0.09412293530745619 0.7071376949052122 -0.2225412084953502 -0.20895901825966834 0.46756267986165945 -0.07261448270500503 0.8294512012072208 -0.005598950843098027 -0.048826276091843646 -0.3882041653588715 0.13884394760418162 -0.008956243899820748 -0.12926141801682656 -0.9588813490082773 0.8176735821095908 -0.6845361005460646 0.6790450043730376 -0.33068964182756644 -0.8974823178007223 -0.4694015377085927 0.3927958738639932 -0.8796440995773236 0.7980570406889724 -0.24951061259070717 -0.4729746899447158 0.4556519166382236 -0.6762269584330507 -0.8013043096628607 -0.5378344511227404 -0.6204243636041789 -0.1116712880973254 -0.2981249677504574 0.37524285350372 -0.5929266484078606 -0.9538724312029185 -0.7338301755075394 -0.7209343919800637 0.7943542969619717 -0.13860463051579464 -0.017829101507747636 0.8246325211725076 -0.6364975033148355 0.08577150142135359 -0.07836496677799665 -0.6922840867429112 -0.2620345441644847 0.47453883534176633 0.3546546912114463 0.12472862029356713 0.27845901765242176 0.913504451849859 -0.5154359165734799 0.5310189189551884 -0.7719423136496921 0.720537806498402 -0.9176383349562134 -0.3655756525920919 0.4100641878154414 -0.3283757879667746 -0.6935803639019746 0.4845728358665351 0.8579026554151448 -0.7591074831404798 -0.8378787688412157 0.4741944888030636 -0.41719569986431493 -0.9994004207715186 -0.15137853027343273 0.5031728406596057 0.8138961730887126 0.22420299322431103 -0.15142788372883098 -0.4690700672720254 0.3695092067428656 0.6948318307175871 0.873382355483916 0.36643309992554984 0.3202496338978267 -0.16747077399308252 0.9577958625066498 -0.722097962420116 0.5617190921913873 0.40627336559589966 0.2350701174490839 -0.11324763573399377 0.6089944741844753 -0.7893196234329523 0.3627040788510911 -0.9845692078725785 0.9559655995805838 -0.5010013508216711 -0.9247153113101769 -0.6108965453551032 -0.964985417737056 -0.9197280023734913 -0.4621735952178583 -0.17147550448219362 -0.3242971526960816 0.646396455264671 0.030234524403984997 0.6660992741847 -0.5348686640606908 0.7599974823078226 -0.6436703167741344 0.0806737108267439 0.5578145626663182 -0.4507957712340007 0.640313894181137 0.29136941485133927 -0.14140612427456056 0.8114491159865835 -0.9730925520314999 -0.8595832315793619 -0.1483781380845186
0.858360942549915 0.8432171909963251 -0.9043676915190839 -0.7211582215942889 0.6919613984778143 -0.5611337995187353 -0.6903872861718969 0.19380475978130285 0.04604782204967783 0.4253333360066234 0.19629461176776486 -0.5449257285432936 0.37772376926007367 0.6236789483155536 0.5007918076671947 0.4971662002178183 -0.951088560548478 -0.9336325370978116 0.8321308345308627 -0.049257358244775507 0.15926141094524437 -0.26115665121566867 0.13600881439014145 -0.17698931923134298 0.3174330893715882 -0.41287190658240247 -0.6597422295332664 0.07915689054420039 -0.25105397848440214 -0.5750990618609639 -0.7580464240176785 0.6255652638279408 0.23867066665287973 -0.72237653582229 -0.7558175753295073 0.13867178046049022 -0.18239786823073012 0.8242225933364933 -0.38039167059878043 -0.39818446579011435 -0.6216983785171395 -0.39534144007755656 0.6049121075262125 0.4080892237438365 0.07726803746331745 -0.21742662242590893 0.013818673685186633 -0.6986898938139852 0.9034125414928083 -0.7468648590798435 -0.9583393862317593 -0.8987862721418978 0.3960609295668682 0.030543360505125294 0.2457034560652367 -0.09443699782913706 0.7041540957432739 -0.418477338171817 -0.5409761756191995 0.2824656265762562 0.6717550160558599 0.19678899929545213 -0.5274735105264636 -0.33536504026244884 -0.8562731807922612 0.7244336702689171 0.025686900949783542 0.595649025406594 -0.01332213158511264 0.6177755872335866 0.21799188738870678 0.02487525635539689 -0.4792742140947024 -0.1838934274895303 -0.8200521859288579 0.27401682907504266 0.07074528329247487 -0.07618871771544877 -0.6087672221473361 0.5184674229566166 -0.2980784628577655 -0.8316646224118307 -0.4067223261207067 0.8807976341470731 -0.995868378243824 0.8543595190840614 0.05406523222607218 -0.8738736273422203 0.3167699604861196 0.4284694798127817 0.6077019470427845 -0.8459939195368593 0.8593790945278659 0.43624221780810046 -0.05323457166641554 -0.2582576190981627 -0.8065147534703665 -0.7912428085168068 0.6260079249153554 -0.8684663731510389 0.8115552629762255 0.7565346102324906 -0.44997605524022166 0.0812964105580034 0.6536452154412293 -0.5238421283353791 0.2559174844394727 -0.6902415761367271 0.040235849761778075 0.2808394985326632 -0.9961228518011909 -0.3704095624628354 0.1997855218242297 0.3324134454907841 -0.6393587881792966 -0.8446418259461013 -0.2871730997159758 0.9912235100115989 -0.5111895749472368 0.47327601181742707 -0.5951573251709634 0.8115126620578579 -0.5633360697342096 -0.2330400173844538 0.6442057992067252 -0.7536236631282454 0.5842437518924379 -0.5065871649716387 0.5894916961146741 -0.8110175595721434 0.9378067651543212 0.527027962501017 -0.5024272025815242 -0.7279106700078479 0.873392887637332 -0.5714420949710421 0.7728683525269344 -0.5615667001620612 0.7979408117903342 0.009120982445858017 -0.9626066229930281 0.4037682089875314 -0.026781037611572023 -0.890027430395703 -0.005049275270123665 -0.2507944558995423 0.6763283275781198 -0.028826633613670216 -0.875188921164447 0.06770696718422275 -0.698699601804039 0.6536942906118239 -0.7512665200609601 -0.45687250465843343 -0.9526353353181458 0.18540412352648494 0.656868327772911 -0.5072627713394042 0.400868769234658 0.24031088013970336 -0.9020237971077372 0.7573632459437742 0.8951793027473514 0.6231992362479233 -0.06028673235931725 -0.08920541103946777 0.8536147100875551 0.006135442581121309 -0.6420150393522552 0.4260201452044752 0.3372272522082038 -0.4759925374749532 -0.9208025311389714 -0.15094818508519148 -0.0564020527102409 -0.20186115984957897 0.4263412293601172 0.13052295540259573 -0.6682640269766045 0.5996693706641183 -0.3574674196240062 0.2750396805670121 0.9208181661537369 -0.8463096454773704 0.552337268862811 0.6721702250240562 0.9161692684992111 -0.7768323103276911 0.11448369499075572 -0.8506930177426868 -0.5947957129880868 -0.5783733510019053 -0.4971227726249716 0.47731094636466276 0.7156773856723431 0.508946422341263 -0.38894547255549794 0.5446626421194594 0.8592662870723635 -0.8843787852441027 0.5194599758731056 0.3325532754283145 -0.29468869359960737 0.690368095402238 -0.10440827438052924 -0.5538340505955566 0.9353038549212485 -0.8578472098033203 0.7832807608467218 0.7070356123439181 -0.21689376972254193 -0.8075511464530221 -0.44824565862025856 -0.7481667540944599 -0.5292291155662123 -0.8571106703881943 -0.7352558043561104 0.9701951459890241 0.8227677911500033 0.705178676796159 0.9859108889453954 0.8442948872196698 0.4434298085746988 0.04604778350608041 -0.2419413829725714
0.3308388683962744 0.46134220724023955 0.811991812549087 0.1020487724998389 0.4286164161809982 0.553859185296377 -0.5126813431058872 0.48361379090202616 -0.41486035496253426 0.26360980732134753 -0.522055754923684 -0.9089987272332563 -0.48898840692790313 0.7619192347228472 -0.6553074672352284 -0.2404088165436058 -0.8588289175412234 -0.8453105094392912 0.05424053665404038 0.654765655726836 0.8797907966538245 0.4672673209235716 0.6378985162148623 -0.7473739022579113 -0.28671307350737885 -0.0855095227733329 0.8713162580160305 0.8989880351212303 0.3872680934817412 0.9123831538358833 0.29963371115876103 -0.24119369735087726 -0.6679363443532587 0.3700626393237818 0.29546615632729734 -0.9236670611613329 -0.7472488743633168 0.1795464931617614 -0.6582732482291729 -0.008065500427790306 0.5785550731166424 -0.7820094407726275 -0.9269232186071996 0.7811549248442888 0.8935981892279445 -0.7922639556959152 -0.362329152234264 0.5598606604136187 0.24659257122467704 -0.6857660802878525 -0.5088060544834543 -0.7019781073519282 0.976210121733377 -0.48057365400977115 -0.1437988029247701 -0.4867992478189751 0.4493638150287811 -0.24015587718786247 -0.5377337446257442 -0.20112765501707397 0.2725514021012858 -0.1964263907547712 0.9822934082041774 -0.11901356643846595 -0.0877023445533367 0.45596077624683606 0.3224306297573838 0.993378167527496 -0.3234581584964502 -0.04023265476364313 -0.04762772543582128 0.4790301668781043 -0.5197293627523607 -0.10131605297098978 0.3270311658404339 0.45840931442473076 0.18637029410942407 0.766782268556053 0.18367345645585975 -0.5852028143870214 -0.1033043841745318 0.29908997974362883 -0.7809301706954526 0.9900945271972932 -0.6893184812938418 -0.9020115433389504 -0.9469967384711868 0.5936355039678332 -0.8815785137286165 0.22863044860326664 0.4316167185696802 -0.6839883959033342 -0.3900637707299148 -0.27849568182894635 0.17029006385821144 -0.8880595767919186 -0.937269132050597 0.9925611918234281 0.8090960292282514 -0.8180201475272717 0.06644262828239689 0.1464811109827293 0.4444909737078766 0.19777602107169456 -0.9796913409631842 -0.7725329884815486 0.5917818970148772 0.319294836395704 0.4259346535282227 -0.7229572181608237 -0.12123999878208624 -0.9930306611311348 0.3166365654977321 -0.01206289437869712 -0.8520401074098882 -0.3721193929670683 -0.9571702369894128 0.7566372279311537 0.08938949467113932 -0.8247079321712953 0.5187397882023328 0.5421039198903044 -0.7830697797448489 0.26932498853226616 0.55049204862111 -0.864413051891777 -0.9395183457845013 0.4053616389747736 0.28470766970764205 -0.3563875243609629 0.9223280207678146 0.3859677712600591 -0.6585902495070155 0.7160577505396575 -0.22542138996903027 -0.3339381286108587 0.7004498881171817 0.14862374811762025 0.20519082672109756 0.06058043705340488 0.38148707794392456 -0.6043712231619047 0.6206063977822904 0.06440182940476347 -0.06187570375553597 -0.06393118298774669 0.21627279760218943 -0.40760975773641683 -0.2528926204948898 -0.6942064642978822 0.6605811183683146 -0.48644575625100805 -0.7132605479098857 -0.9857085934747134 0.3658193553324882 -0.4752901892250443 -0.5645091520619512 0.9456734881758242 0.23294387517178938 0.03983834743669146 -0.7895749172871549 0.33680863330018607 0.2816694764719945 -0.22084454413369747 0.283948924580431 0.47394421542583665 0.07702971830457583 0.29393828138451705 -0.8907075273019966 0.7038739050287814 0.0076545128806893015 0.1335914644229672 -0.2675157124065024 0.963498672321385 0.5112481709168111 0.48810369370660345 -0.9888250792325264 -0.7921190718282076 0.49008317573377824 0.5506861527411899 0.7772776479012313 -0.19268438631256402 -0.8071602598606356 0.20722395736874843 -0.8972829654342163 -0.6383624727855857 -0.17994069343559982 -0.44583912541835424 -0.4856058680193822 -0.9728771554162978 -0.7486281246981676 -0.3997868376952325 0.5228686586225282 -0.14002486554931992 0.8171162721216418 0.27575546154804265 0.25254522387207023 0.7167271935484067 -0.941747455878676 0.6101981110179389 -0.021890789941058086 0.2774498019983014 0.01781485831400631 0.579689106841424 0.44838979020107916 -0.8500916520058179 0.6463392044255556 -0.33495536861282793 0.18908295519048646 0.5167535165672503 -0.51455808378771 0.805444875222882 -0.49819655875338253 -0.6176930484199576 -0.4872064483920586 0.5860043688125771 -0.8312333935557126 0.7733097032957394 0.43886990483942934 -0.6460553651892735 -0.4852658359205686 -0.9015607662359284 -0.5964985754667502 0.07739708888604224 -0.037338197374148896
-0.03462804445731438 0.037233094437520764 -0.7958206528324507 -0.949352460166657 0.2443302301616992 0.5862685512408539 0.5816807731695901 -0.41891459341152504 0.689457550742409 0.18545451587206863 -0.8440296829411078 -0.7383965572128457 0.5832298985547106 -0.04432491788343751 0.9679354660103301 -0.5490739202537411 0.09367245984153172 0.630092056371397 0.6372082606508498 -0.5852931140865789 -0.40334584619923186 -0.8432681464612084 -0.9685278913787985 -0.4530091739490638 0.4856367667431458 -0.8322213481141454 -0.9987987537566263 -0.7459041562993662 -0.036587438263647076 -0.7063644015175294 0.8641572371609232 -0.2939551953149977 -0.4689111770254353 -0.06099047497212551 0.6825182645815362 0.2885547709759253 0.9633932899529163 -0.5569438781751777 0.8499301554742924 0.5356260445099161 -0.779578625284965 -0.019580688304292382 0.7673498293501113 -0.6819371684897622 -0.6252621906885352 -0.9731454273871356 -0.05012185773112665 0.4283051406412923 -0.10654649244060876 0.3299932768051277 0.20774977871361933 0.5657751712801651 0.9584191253325398 -0.3561089990754207 -0.09928897812299065 0.9444385517929013 -0.06839170138433692 -0.5562823204612337 0.13725055125791963 -0.9384950553960447 -0.058576119456864584 0.05724800524563678 -0.2182574952393177 -0.7369362174927454 0.2305953655421933 0.5922258455923521 -0.7683866492085234 0.7929196790530462 0.7483594980592756 -0.8121935833600038 -0.4510091290760956 0.7454243409852286 -0.7043532065275306 -0.6441998964013997 0.8480496413088554 0.10138902195404254 0.4356108430180696 -0.9816266198724424 0.3744232545891457 0.29945281535994694 -0.6263940909419834 0.030374564073857302 0.028216790701005356 -0.15361416818359608 0.08084620396461073 0.08714860361975862 0.053961775567769266 -0.32707301842418457 0.028124997166766086 0.7606690530304789 0.5794252349423015 -0.8423675543758891 -0.6219574659698479 0.12628224973382918 0.020230505840958868 0.6451487049117901 0.7454531884748348 0.7404060586841137 -0.10314286406511775 -0.15466537585252738 -0.054157517967039714 -0.4163519894335381 -0.37490771866191475 0.3746003727279008 -0.5330862182468552 0.9893058304518669 0.7360848290182904 -0.532426545758792 -0.35354425675620904 -0.4893828313118278 0.7033039477872338 0.69371237422447 -0.9447399530239933 -0.29536552606684285 0.23777535028735364 0.9024196141702945 0.8494207476186084 -0.9867074273321419 -0.47616357666132925 -0.1246916685635826 -0.6944647508153041 0.6377756475500873 -0.035453962505932024 0.3884730978848556 0.7150189930593087 -0.6864025505500528 0.8021080573276129 0.46021226300202 -0.170366107463352 0.8560028101849657 -0.37178940143492656 -0.593693655514602 -0.6343929435396503 -0.014152097374509731 -0.263559207981263 -0.6041198015169915 0.667828925862141 0.7071195430185564 -0.723504852017471 -0.11276409569630208 0.5151946324530383 0.3693679584023035 0.8549088508942198 0.024180472514619078 -0.009166912188282472 0.01758993553822541 0.6985892522638841 0.13661427456810848 -0.37283354044327144 -0.9778837133182834 -0.9612395962169751 -0.15096564066287277 0.31302395310990616 0.20120354499232396 0.5938213439073345 -0.015880833318680176 0.5650995126471439 0.6488059589451685 0.5981417055142018 -0.79859768691495 -0.9196198402547113 0.34523155146739537 -0.3257232838053796 -0.034589787392449 0.9772787370381038 0.6717355671203389 -0.7857977516224366 -0.7597889099687496 -0.8597885007302943 -0.274532601835938 0.7361232892757337 -0.9209678723385626 0.19524020288462318 -0.4644751228941342 -0.2745922236977274 0.9792262377645624 -0.428027561557788 -0.1494809492175586 -0.8950638812168112 0.44546336632043615 -0.8690243107758073 -0.11075069706574747 -0.3774118641281494 0.6084802689472679 0.16017812218408323 0.4211962549998849 -0.9003701054293503 0.09995694159487245 -0.6152824106900288 0.37523596472879683 -0.37673718301855863 -0.8738934294999927 -0.07549172114191305 -0.058655136216273496 -0.1641402433918533 -0.7592294927578918 -0.2928626563990864 0.9129515462821876 0.13439564514768376 -0.6744930962302713 -0.5261697213115573 0.06919080127869881 0.9080999790420787 -0.0049588700041265366 -0.8020076120911699 0.018844210281314 0.4223427760755689 -0.9293527187367603 0.2528788436693412 -0.5566349283607963 -0.07529784266563722 0.6614824461135469 0.8380435168522951 -0.5609009118159818 0.15125903359392012 -0.23021363061772693 -0.34965561374411025 -0.6628667213704798 0.5973437548493576 -0.7122258944976758 -0.9537403509223084 -0.08384532443570203 0.21042949247871312 0.2598684945110621 0.8859230058128003
0.22421968991571073 0.5385472911351137 -0.9220960644405087 -0.7198120496815399 0.73276863232978 0.9049832003702916 0.8178979776637478 0.3219653300559593 -0.07187810739884393 0.9353682709757436 -0.9318239409755358 -0.25059682620804336 -0.04555842065991622 -0.6590443682677123 -0.3313509518586104 -0.26400676122358613 -0.14264930435404377 -0.4850793631555401 -0.1928939041081581 -0.1293196539605148 -0.055520074177317635 0.5062769399727878 -0.4841731089014649 0.7857531888522336 0.230458954318133 -0.3439378057086322 0.8552455813289086 0.735754063481622 -0.4193730730276106 -0.13890230578269858 -0.8521730763638471 0.7863874007243483 0.07690088406943452 0.0026534851645689805 -0.3952307092474032 -0.968535040872238 0.8910127468501317 0.049629387787837764 -0.864017672674797 0.6290092805264222 0.8632667221777259 0.3449182782300406 -0.6767226655741172 -0.3582619065175965 0.5026268937824878 0.9878867261886 -0.5916466506016049 -0.4704444328905282 -0.8186156297602065 -0.8829326973157776 -0.4496480612804128 -0.7960001273379702 -0.32391009654818737 -0.002376564838649564 0.12274348947665614 0.4100105991659535 -0.5886631298052252 -0.8219357183242175 -0.2423871866831333 -0.6174566977988203 -0.1588999254530079 0.011091027907258022 -0.3161052013135328 0.831361765279822 -0.5555931994904131 -0.6215802868911684 -0.5760709362736285 0.12893923337846536 0.7359706120129119 -0.3228626657048934 -0.11184709517454494 0.41507860279443465 -0.43192777644228797 -0.47208586487031656 -0.5455228759243071 -0.10614704832530641 0.38161888612208905 0.21478258085852864 0.8094575241321447 0.906219546959534 0.23504777990543713 0.7523839815376605 -0.9467759059613814 0.43962038541827053 0.4017047731347809 0.21124390280438488 -0.43319304263295644 -0.9600923779718793 -0.4105758287744783 0.5553787332104876 -0.2650237046148527 -0.23935362675628413 -0.12076960455557195 -0.09230855581463282 -0.16520571828206188 -0.014545411551484255 -0.5556570485487904 0.5368967848337163 0.40661188254925773 0.9816049542680574 -0.1252538354238113 -0.7881865421189813 -0.21658164592275253 0.598305355304636 -0.46575063396365746 0.6647097704732023 0.916283981015692 0.664785565601109 -0.5058616497871236 -0.14722524990053887 -0.6622152386686828 -0.7720854814491136 -0.7263771218088992 -0.7087089055026237 -0.16827238023878643 0.9888101237843692 -0.4452509368681825 0.7626285646484079 0.2596692120024984 0.005602301551192124 0.510158971480438 0.5762959432976058 -0.2568617761797254 0.35868742824502586 0.09695512373686421 0.591288264003635 0.01895859118289933 -0.8242403587090312 0.11770098157818953 -0.9056279529067377 0.3614061070297372 0.8299139293331677 -0.09551736777465725 -0.21827198587384644 -0.06070326405543369 0.5836597573045523 0.811096628794532 -0.5059088065865511 0.555153305035299 -0.7362756934890877 -0.9673549498084657 0.9823981949026881 0.27734102566510965 0.20518919638482558 -0.6852864893368675 0.5851109498144234 -0.12757670848693792 -0.48994819939204715 0.9847625649344682 0.834719595277053 -0.596579095560877 -0.9954582113047927 -0.4348607173256811 0.7379131206437697 -0.6647028309592271 -0.10579901442066153 -0.5741706878091026 -0.7550122908891241 -0.29862430140742346 -0.7203921849806352 -0.839014525996961 -0.3133084828198289 0.22721342211600093 0.015084376658621723 0.6046687788307608 0.273191128101574 0.6539130863823577 0.4306316944229245 0.729129618734502 0.08231284447126708 -0.3338643205479106 0.5779896330491543 -0.3882381479407624 -0.9204471822314686 -0.09878511947359203 -0.10651116997378418 -0.3397646179709979 -0.09814129980356223 -0.38905103724116863 0.019376758565530006 0.9391845776635468 -0.9983068952922125 -0.08791482375623372 0.7272727336870644 0.254186386084315 0.3043989859138134 0.8411423360188586 0.12776760587865965 0.4606414381638717 0.7051801634703627 -0.7071724713064014 -0.7349675186726563 -0.13954606276747517 -0.5801709316145569 -0.3462564593618951 0.7902801847129683 -0.9837878012736359 0.2203849091726311 0.18377179153094625 0.40766174194153093 0.27264059687774234 0.4308702469290224 0.37366107134032833 0.6162460794101736 0.11131934683192624 -0.8428877998923017 0.7461292652373999 -0.6777133075928821 -0.21930304638146492 0.6122741710747595 0.10786765001418241 0.7497385893629702 0.3057067272043026 -0.9262002299802403 0.9302615946104016 0.507839944880845 -0.15044404637640119 0.4361466991086147 -0.11051958638592918 -0.49542531219231467 -0.9526879781986952 -0.9274181540391748 -0.8964343338432419 0.18060281360845876 0.5751464008641924
0.4129648549063165 0.10925383405666067 0.0007896516282208665 0.36975024137118084 -0.09200526913563345 0.22552989744357244 -0.907506880424477 -0.9310746188374901 -0.5645619285569154 0.31139553175034496 -0.4925970873434109 -0.4143745954230744 0.5986510835173393 0.22148879587682657 -0.22348818666729153 0.6494762454326843 -0.7877429955708402 0.5233092712853298 0.17955364962275588 0.7916714689695326 -0.2782477471892808 0.8798148938383683 -0.3183312637113964 0.8577102770097977 -0.956009388101164 0.9410444943425056 -0.9270176333440541 -0.486195339630928 0.38637113741031603 -0.29204606114616327 -0.4190011851614719 -0.4001931373295269 -0.5930717178300959 0.791485192633099 -0.2631787420016225 0.0162703469635892 -0.7800351681121815 -0.7950449482755513 -0.6105161683779528 0.8533729169813846 -0.7487088255398762 -0.8415872732565599 0.6311581629727188 0.8005467386737366 -0.6444294176559784 -0.029283339422468968 -0.5188691418998403 -0.39589907049840445 0.1750107330074815 -0.4870354683437663 0.8544678378354706 0.9184418864892636 -0.10161775680832563 0.7670059187128171 -0.4115233082764347 -0.40793127399458884 0.9750686157135113 0.8679243523535645 -0.06356257188638614 -0.4900100093008113 0.1362293190692485 0.27947762466751414 0.2964419229878581 0.24681629148902529 0.4366824703632948 0.7193168458370038 -0.09962164700123322 0.8807606405897181 0.5790396348380984 -0.7245613567333744 -0.2523134830020204 -0.24729172823646017 0.9479340375039347 -0.1071773578682389 0.2961835293089421 -0.4278015655892635 0.5167435192712266 -0.5039992750700077 -0.20408079062123186 0.2870003696484118 0.7590130992696107 -0.6327858287034736 -0.33307161346760283 -0.26505709977882796 0.4701349914303872 0.16393736814045123 0.1623907103219877 -0.05523857959642031 0.8170149832072287 0.6858805602256506 0.1829749900213864 -0.009580839023690668 -0.8796576054504672 -0.995718914016041 0.015842291018757892 -0.5748596997994482 -0.22140232516761937 -0.33547372391052943 0.9436186119371281 0.900980324517785 -0.4472696210262239 -0.31671097808302995 -0.843850787741445 -0.7921667537412123 -0.2761682129487497 0.27331974439385553 0.7901447216225406 -0.26624173541587015 0.28660654678134345 0.9449025023596402 0.9648936692650247 0.6081338218980592 0.27100364153418366 -0.924903774915697 0.9976094589737245 0.3804497826001765 0.7835754120721707 -0.6040934963643882 0.7410679157966891 -0.9363758997291891 -0.310074538131472 0.7534073323551593 -0.16906329099341244 -0.6990614024276967 0.9044197280282054 -0.8014153764679557 0.41227274372951705 0.47779558884943674 -0.47114166317752737 -0.9519727477828808 -0.7853129394408571 0.7627433119738627 -0.7828212020929828 -0.9876795325429748 0.19072840808471936 -0.2842605523490138 0.6700796392721904 0.13316743751783533 -0.7592772427126329 -0.21658074391493431 0.27935043820736216 -0.9129678367995795 -0.06553705883231098 -0.013520127400529436 -0.6063211609414558 0.1776352869121196 0.4294738901699051 0.5318543260619366 -0.20855227379979246 -0.6852736048443608 0.8470081419987301 -0.7438976778286119 -0.013339022663856337 0.15798836285854367 -0.2777499190650685 -0.6527459532312176 -0.324295366126097 -0.900091518275105 -0.852731254242963 -0.04740982723958087 -0.5910575301247434 0.47662395626023435 0.6294201875826109 0.2503022385414704 -0.6752273567484586 -0.7208398225456498 -0.9162501074196849 -0.04724082995930701 0.5398886736514623 0.9769677666723058 -0.8498305635737358 -0.6776637859922967 -0.13837991319917586 0.0044723620405862086 0.9933110577008097 0.3056123376721087 -0.6307480514301098 0.07539905253507295 0.3832354288878612 0.418550803271458 0.48684396549125486 -0.900037011443773 0.5683374178062544 -0.25740007718101765 0.7601798519644289 -0.9980019583737518 0.6265044776840685 0.5160859670390967 -0.47061899529724416 -0.8046000969066065 0.741712401313573 0.5573216093039637 -0.9461198465433447 0.08782185863839764 -0.609430844989338 0.6231551412715963 0.5757752645867207 -0.6794348995541786 -0.27216789492820737 0.08971595541791344 -0.3430666486674283 0.9286126295228871 0.7354544882776701 -0.42848840664247057 0.4666084366906673 -0.4991620472012519 -0.7357234003191722 -0.9759940791339088 -0.06332819855007665 0.7705798615132116 -0.7356829834161582 0.5076054526365021 0.16404824760803138 0.9258601303947531 -0.563659122509701 -0.7782983210543011 0.8811817339843553 0.2820510026128469 0.8097359661472134 0.5324417761965721 -0.3583505261425659 0.21732040599432856 0.4483773724543034 -0.8422332318442904 0.6008411367460833
-0.3689464575539687 0.82794011707539 -0.3710497093920302 0.18771610570570596 0.20656191029851478 -0.3785131499904626 0.0635999721694438 0.6517299914789392 0.9008818404842875 0.9635725759401874 0.5983055793680583 0.6408937059925166 -0.9718058822204592 -0.06518421601793944 0.6905034360100872 -0.4877221547877073 0.8601170409600456 -0.5798668893271277 -0.09290654718986335 -0.43350551833084006 -0.12622487927449288 0.4714758748186023 -0.17410094076258886 -0.3643126724037591 0.8184391288848072 0.4678769219634289 0.15622923803577882 0.4466683803661269 -0.48054725871475745 -0.591351192712549 -0.312278015807979 -0.06675254670770281 0.7637202359414959 -0.7703857187655934 -0.8340321764032488 0.742153506265222 -0.0761718414384076 -0.1798335776976654 0.2742166666945891 0.9725811653672345 0.9240202729398559 0.6839171494639045 0.14103043607843535 0.46947132618345977 0.7153554865829252 0.7424447819751423 -0.3249182638482566 0.15336551566670908 -0.6975732205868079 0.5807104787309028 0.05203533742832711 0.2364276541619892 -0.860765659312662 -0.791570500866493 0.3704236754565575 -0.7149805737640003 0.26784591957433923 0.6285144932529203 0.44375452958940165 -0.707557872769824 -0.9087879529138412 0.974363265235701 0.5305693382148304 0.04760534797222182 -0.36690303402899294 0.22927191396325597 0.4194253215952555 0.20534030140163972 0.7094751063704221 0.8074700755119881 0.7537601852893057 -0.8777998124112458 0.5068807479001229 0.2519908062159111 -0.43024877906891645 -0.8479146344485271 -0.14131182813740595 -0.49458408341180715 0.7578182763212076 -0.21206323930111326 0.33593858274115673 -0.5236626055666607 -0.7195561516919291 0.04827509484118275 -0.9079835179317228 -0.43695233189028615 -0.2580612569538667 -0.8647561287541796 0.818100716853521 0.5719383786836161 0.6570077979174296 0.15727928001057823 -0.2556562304697716 0.09220045671825039 0.46042649155314197 0.8030173777364422 0.18594302580080768 0.7252169597338973 -0.8316861201912296 0.09184500676121021 -0.0029895903091305964 0.08136953022151183 0.4629722915748029 -0.6219045011379709 0.08837350780717412 0.36476850075254386 0.786012139753159 0.28009997950241283 0.6303582870441817 0.8310045053304493 0.5374506120763685 -0.5785822023312475 0.6817010902927696 -0.9054033679205873 -0.2003787773865897 -0.3493395949368603 0.8878618309686965 0.6637063363391122 0.8803074846164023 -0.17490687893055412 -0.5868950971900235 0.9808560972217151 -0.5872435185277052 0.8665073218142472 -0.90254452166463 -0.6569650448263955 0.5042848896922549 -0.21566394325131077 -0.24896663299037658 -0.06598085186960612 0.06958462086914619 -0.8956606883131517 0.7562049285885357 0.9077516572200368 -0.5386667994520276 0.31765752121772617 0.47133026758672236 -0.8253197548288314 -0.35309462994686003 0.19412821842123296 -0.9227894667439969 -0.8905597662665627 -0.6870739008621616 -0.32818663541085913 -0.7547856833827351 0.8414880787422823 -0.7352983604389802 0.8618275612147093 -0.7659236088571193 -0.6716874034395941 0.896442963095343 -0.9350203197252902 0.7997932698731129 0.14263961326342223 -0.6468593979436104 -0.050758690745074775 -0.3430488328663981 0.025335749722349643 0.5828698195471245 0.40808682456139045 -0.2950063099314917 -0.38130243980805 -0.9610157479400936 0.5283462315498355 0.11140759483116569 -0.38943233319415005 0.56155944376862 0.16604942241193177 -0.9219768427705772 -0.9244651759960487 -0.5057083443280597 -0.6595951302821816 0.24959746217326373 0.22117546386411524 -0.3261996593430614 0.5910226485757817 0.8938307306343067 0.11635731481348044 -0.5874574973254925 -0.17680417870392828 -0.8864779490188897 0.3356382872840571 -0.3422669670936802 -0.1756531983578946 0.9101874999269723 0.9300360115373623 0.6904844468870719 0.7963288730409961 -0.5861526720286925 0.9386728206872823 0.3738179778740509 -0.5600049341110263 0.3490265994512509 0.5631936878492916 -0.18111480750951436 0.48700166009625945 0.1660730426424737 0.24325485105036226 0.07411856776992742 0.7549983801101281 -0.6029021961307841 -0.07292833591855574 -0.20502637580168637 0.4350647080248802 0.7589882054390635 -0.3724824782222129 0.9112758313836802 0.4834832321406244 0.7491907763193764 -0.34144580698550797 -0.3859931870567921 -0.5107767712256102 -0.9621813885502091 0.9500292519596454 -0.6644624610801455 0.2248418202153737 0.7141767452199832 -0.9883050497146932 -0.025935800112065976 -0.458567769726987 -0.7737570682979511 0.881948686942591 0.11394213043903245 -0.9919742555848037 0.6039124725654659
0.6896059171341216 0.2187277800512133 -0.8132606261971833 -0.7567050141260447 0.6376381453841506 -0.05331051159618183 0.5852056191531416 -0.45581299267011777 -0.7302565128337382 -0.5138301281203506 0.6323604302180288 0.29849504531740645 -0.21202201897977302 0.48258474725492406 0.6524270320451964 -0.4113825757801681 -0.6992335010636652 -0.7869160703106377 -0.2885781832616998 0.165888942039204 0.8379807086797038 -0.49851676574154835 -0.4233469448391223 0.08443892001130848 0.786035594905798 0.6520824549975084 -0.7706316740803454 0.18845273561498943 -0.9049328238548517 0.5710184088968924 -0.5351488762607308 0.48170890639436514 0.8966045675085346 0.981683561556157 -0.5953078112388186 0.8906051651581313 -0.749025793176449 -0.2524285560052435 0.8407153990165865 -0.3282434156862757 -0.3800254082670227 0.31575172535608753 -0.07546065249196032 0.09002773831509936 -0.4305205857817995 -0.030446637185371328 0.8656670763595884 -0.3612652339273317 -0.15309220588057615 0.6381552702502082 -0.8231590657598036 0.16552726620642022 -0.5522016393859042 -0.7877512091881329 -0.11015127248978063 0.1678938245460313 0.7342368655440421 -0.16930423239833914 -0.5784656135137538 -0.545798824434107 -0.6419282287546224 0.7249788231026304 -0.5088419693041744 0.4945966284503456 -0.6602985202420562 -0.9811639603878026 0.5055578439851278 -0.9744307151164127 -0.2851723048480421 0.721049271298422 0.30200250287307107 0.7391581413571784 0.8548479992403339 -0.12324183486152007 -0.289532317410365 0.45873864411451826 0.37669701588374416 -0.022132293820547932 -0.9432049238913509 -0.8579156535653287 -0.17453565530591697 -0.2360105507461676 -0.47721599249555213 -0.7270709475487793 -0.5074984471669339 0.7762063621590416 -0.9010093060707363 -0.34018385419734254 0.432855603358397 0.2014478942451745 -0.8035091832373475 -0.3060593192760064 -0.4450508696799891 -0.8096701510428039 0.9057519488909831 0.015608261880107221 -0.04815548880592768 0.7870181456259788 0.046439555553344336 0.1575244346413449 -0.3310235290794219 0.23245798016438934 -0.10670854369654048 -0.6760799121734782 0.793260021520336 -0.8227661364493777 -0.09906503664899313 0.8584723027126204 0.7978014531210458 0.504485168390187 -0.2350878681292521 0.29139296709185136 0.16524711118833402 0.6681242640708518 -0.8435098112114021 0.8411007647864515 -0.8120910249887887 -0.59656470905596 -0.52748466172276 0.351729437535929 -0.8514828808554256 0.22810331557979335 0.9108349988670039 0.6596305954842012 0.35201006218218867 -0.5111667007077458 0.4665274280663827 -0.2789721686007358 -0.8204933192930504 0.6310035582359823 -0.17152214185941594 0.9121095741076162 -0.6808377109298929 -0.12419046025274705 0.7812163128008727 0.8759724389693626 0.05308096922178307 0.5592147229745206 0.7546769147471846 0.9135360117835487 0.7763409472725555 0.31768297280103597 -0.878853884311293 -0.23886841226340327 0.9580865425870984 0.23145767512646231 0.5093901297327041 0.5084886242943403 -0.7722441687302373 -0.405105510233273 0.37868102124089664 0.9196270962432334 -0.7133060647653342 -0.1544076189364647 -0.458456238524086 0.1511072231451085 -0.4827036183797875 -0.7003189989303256 0.2634811379712947 0.518476146257558 -0.7298725149482264 0.9009063285014494 0.11165580069433023 0.6246395085736123 -0.03337231125851603 -0.04663561534759708 -0.4946383644107044 -0.1746375310004158 -0.45465695132494366 0.6092937872510356 0.761968346910068 -0.19834637941651567 -0.8066108702618058 -0.6422832043777187 0.17040475240496789 0.613663451074435 -0.2988533720884281 -0.7285000270735944 0.7251840687979874 -0.9726781902297239 -0.5206820469457369 -0.9564295758007302 -0.03342300201028636 -0.17025189165277577 -0.21887409264512359 0.5328567911185269 -0.6140201256584361 0.5840480759754714 0.6996620081778908 0.1892018914756577 0.19858374402451884 -0.7346989639348371 -0.3331392821688135 0.7580456740900039 -0.4027723622646726 0.7477890185648348 -0.6609534234341272 -0.21934090604933076 0.6336421547101805 0.4344307355395485 0.7805073483010982 -0.5667777382768227 0.2616235970774001 0.1429137823483786 0.6021906917414785 0.3783796680856659 -0.33015728985701953 0.7800769959640088 0.47554592924015804 -0.3912316061081529 0.2528638287013725 0.5282139651916591 0.8352259163595848 -0.2662731840290955 0.5999568115383012 -0.465697673986176 0.3954105373755219 -0.3579184853321793 -0.5050113350616647 0.5472319915401946 -0.5753582961982973 0.9663970649175564 -0.3462701326711426 0.15606385736417705 0.6134952767522812
0.6274963688597461 -0.04149206488410773 -0.6542685185920516 -0.8152593942482411 -0.5083970645987486 0.8686813039864663 -0.7252251923912401 0.7425365836248714 0.5941968995838838 0.1815408054152392 0.5409370466833554 0.8180104691001464 0.43906889920692205 0.27339920888822977 -0.1857345697202646 -0.23984386136723335 -0.39887324293724125 0.46692892558690935 0.41101828209390434 -0.1226762586799306 -0.373721404141359 0.8060014961278406 -0.5710368673304822 -0.7363530000251421 -0.8247001661878328 0.7106729935950618 -0.042996807677728954 -0.9627888311670871 0.6353559579216053 -0.22870918663990714 0.7944480373310352 -0.5747315971398144 -0.7610259497448861 0.518220569417712 -0.7571691515742307 0.4910630617546745 0.16597404645284608 0.2966881795897982 0.408926599293183 0.7879821919963597 -0.9056559308467549 0.9574033059782898 0.36964376780367547 0.338660900441353 0.013092026589226036 -0.9197254374575621 0.02180685503849933 0.1655928634318633 -0.5447725577773388 -0.12712484753420394 -0.5581410293074298 -0.34328549534803554 0.24587859415022129 -0.0900713698238853 0.13459286826342032 0.33714713300236676 0.4187643238573069 0.14175208087948166 -0.7188758224385172 -0.07802676841917955 0.9271050341011551 0.35174566959807674 -0.5045399542423883 0.4269313261645866 -0.649205665040187 0.11015239714722669 0.5001870369183217 -0.18207364432535744 -0.9845435311101942 -0.6656821317742736 0.699618633940789 -0.5128569803967706 0.5516837925977973 -0.0616372703231729 0.40555334227420103 0.6486892311085439 -0.13219672305342844 -0.6670639832973282 0.8012901132961938 0.3504792213261798 -0.5531776486207212 0.3180554291911215 -0.42173085908677743 -0.12295861816862352 0.592290172652977 -0.9706454212295472 0.8155349319005973 -0.32314043285843597 0.08936858306124051 0.024012932235276008 0.41958011225349834 -0.9191265481004178 -0.45863948090447315 0.13675142522663264 0.3586160246180021 -0.7048942196112433 0.2041512506563341 0.6839142236216389 -0.9592850460359168 -0.5518558541265104 0.2447970464336766 -0.9326698670101385 -0.21850180928936358 -0.7697301340218177 0.0047496185282187575 -0.5268463046750766 -0.9909272361397226 0.10078884528360987 0.7060313273171868 -0.8830613760397887 -0.7377603600895295 -0.3220221494482951 -0.9717059282017226 0.0762701726658892 -0.9490911250474945 0.7397254116151082 0.5644510484657821 -0.5616269918654233 -0.8797597061197713 -0.5811068680847125 -0.6870325569775464 -0.22779151064726189 -0.08634561851665135 0.40681405070826004 0.4829340607583936 0.438063032499042 -0.40438220266534386 -0.9827192528916842 0.027308174409146124 0.7005522928721266 -0.3701463187376899 0.35041975028298333 0.7251592071259354 0.37617677721694953 -0.9927426340387637 0.20444149628723873 -0.9118591588793559 -0.6019332193095359 -0.04636573211286099 0.5654605149964103 -0.0009144453593241675 0.4722912533346393 0.31987407386301636 0.8684752060014787 -0.722819307103707 0.5203442007197046 -0.6017127886373721 -0.13437096143295424 -0.4414572614767398 0.21458586806301283 0.5507104733898307 -0.651160932872958 0.4869679302495855 -0.6523142233917456 0.08003993822856392 0.8161548806442649 -0.28846181810731064 -0.8505016244840482 -0.4026923045355404 0.9397466007705344 0.2043078669609213 -0.23612565097757798 -0.5011871129574605 -0.48072984582702993 0.2076504556692509 0.0027276637618955935 -0.0979879010886191 -0.3313502945776472 -0.3600436827236857 -0.25537447149930914 -0.5312170858482226 -0.1781582162847304 0.31417571201186023 0.7288712911707802 -0.4401537331237244 -0.7750350019764403 0.2410515841797507 0.9012266717915538 0.164076540400796 0.8309695817018885 -0.15270746305350835 -0.11787220860842762 0.6541106556373468 -0.5201674262545786 -0.9043733346303817 -0.08073367760089045 -0.478198557128771 -0.3217680734008379 0.3995857352792693 -0.5598145052347496 -0.3717464682858209 -0.4233538961806649 -0.33535242523486364 -0.5053708059473414 -0.9633976374371229 0.02413801531229387 0.8820074636210948 0.21920576573434203 0.8407001480457643 -0.4369594335402345 -0.06194750138546645 0.8595564730764924 0.9178777818250945 -0.04163810156640757 0.33648193600385734 0.9609934629021151 0.8572629984690094 -0.859288293025257 -0.22870516025131638 0.13519338036359652 -0.12431987550243151 0.48487205743103745 0.6289489091875868 -0.8270279249623345 0.840228702789702 -0.9887524949854647 -0.8988291992234723 0.3365961047160413 0.2674498449480398 0.8928919567110878 -0.574855872413246 -0.06769714027778373 0.013630891068103779 0.17508446400256505 -0.8188565313072418
