-0.10690829770244026 0.2706446765184216 -0.3422750645970172 0.3370909320594244 -0.9289195844480338 -0.18718381489092284 0.4644481306561188 -0.10719691983053403 0.512505386467758 -0.6273160601960432 0.7277386126628624 -0.9761406461684101 -0.9439967790535064 -0.49961982839849584 0.3302306854525263 -0.11035443637535658 0.7699919856756288 -0.7600225922599193 0.5514347923134739 -0.5626392390320754 -0.6144854726950961 0.13157464635659477 0.6946325915804741 0.19140332331228538 -0.5461591454951407 0.37274797100259605 0.8191658845933598 0.7746506963160154 0.652447691502255 0.8460563611507379 -0.7457016173110698 0.6643708534134138 0.9276686103262592 0.7825491788933718 0.8922183545912368 0.6314976060444937 -0.9539246459520674 0.11486799763986988 -0.2952676740174902 -0.019517419196624086 0.34151376914257847 -0.40569769098058384 -0.510428276561605 -0.3375720134313971 -0.5311254301780495 -0.61465406897856 0.09430157451669707 0.2838391997666969 -0.7065440316136637 0.8305394199538445 0.008422630989804336 0.5044981204915089 -0.8238634853160671 -0.6548745257208779 0.4994434673642787 0.9986918739399562 -0.6618050679147462 -0.4377170777930155 -0.9747801018562106 -0.7815708000320722 0.08684181890178899 -0.2178770796013314 0.03217595698418374 0.1703588801669722 -0.03580403185240466 0.5833077080500306 -0.9721936474498301 0.021410152863136966 -0.2329303834163443 0.3565810326941603 -0.7692537936373074 0.3453587422977029 0.9948792957526971 0.011763226268825422 0.9052573947098488 -0.6730228423571947 0.5665498160096154 0.20619406722789435 0.15872773988516253 0.2326423623174616 0.6638869010256374 -0.8192374534333817 0.9185014965431337 0.2543338833362594 0.3132728616808458 0.8493811585278312 0.47214524185910633 -0.9662275814178403 -0.5695188304457968 0.1878901562114519 -0.8814713551684799 0.7064088888239315 0.2303191727823426 -0.7308299805073035 0.712137563167933 0.2582874310239942 -0.376632760304209 0.8313057566246358 -0.7730560902134591 -0.5489422923542207 0.6799339518663186 -0.4877620138475709 0.706846914306007 0.6166439200217013 0.7615620839390091 -0.5307681096271861 -0.3033685319628294 0.14137733305136546 -0.01510975066436604 -0.5722377671116543 0.9285534302631993 -0.23459222590328355 0.5023815409403465 0.39650939814082165 0.15544412035028654 0.3450539469644702 0.32517299687464796 -0.6855752079783048 -0.2702678895531818 0.9257617450254982 -0.4865811701749927 -0.6789547888332528 0.4313960015092073 -0.6880932159928812 -0.3790623149014094 0.9523351455461246 0.6086582102025477 0.42929024189293186 0.6864476797980599 -0.22578099248581673 0.7639058788057032 -0.05412846143712824 -0.548670382874471 -0.8349146492936794 -0.05026137613241355 0.9501690863271415 -0.9666575180493375 0.22442028262892832 -0.8011743073954769 -0.15791487721593822 -0.630593635299654 -0.1159776292797221 0.33025860997834355 -0.5354315059174006 0.9595269338176997 0.02286811856417592 -0.8657125642079759 0.7741228410970389 -0.7807983066072579 -0.215926702142474 -0.9958023975808472 0.29312292384984406 0.6884805304066373 0.05645384688415822 0.6094871991546762 0.22268203162934852 0.8369133035876926 -0.1937263147374766 0.9264758445570531 0.10700274684940148 -0.30255010397342286 -0.3932812231270266 -0.9527025279621717 -0.014052696416549715 -0.5426822102624018 0.5433427995901663 0.7573664549148498 -0.1452110597818832 0.6473163626399574 0.4256607707107096 0.13778959774077104 -0.7401550115757869 0.030031262006531723 -0.6615066090242843 0.9196182063557965 -0.351680480477774 -0.14215472039843324 -0.46106616033288716 0.12116114986542392 -0.13845533780797914 0.1378799576305767 0.6153651031412759 -0.5154012850749339 0.43499854639261515 0.11376183983688337 0.9454293878979827 0.9596103444287236 -0.681667840322663 -0.5281284234056929 -0.6248730416466239 -0.13742240048691934 -0.7081958862524889 0.46822226864620564 -0.35168594174034973 0.9455954249930685 0.9242319059905792 -0.9321622156533249 0.07891220460062698 -0.12700347731712958 0.7688506483823945 0.6044819217613053 0.8484497873070385 -0.30346239702998457 0.6988112549506649 0.1668458814200875 -0.9278106399799528 -0.7209318307603929 0.6209298546675257 0.9617710705289049 0.20532001762338803 -0.49754590982840474 0.3417863657403921 -0.00790358080019149 0.20034565177624808 0.03242619903634236 0.2903442373500573 0.38187360987024777 0.655174790558259 0.5206017254582429 -0.7309522007406988 -0.942435039230916 -0.6361937970572329 -0.07805290944983234 0.7356091292581399 -0.8126903139622788
0.004107089265062967 -0.16286645240018793 0.9889703583375544 0.3437860870266798 0.8530240295473164 -0.6337817433581752 0.0400613532130536 0.837120669366249 -0.28098249720348023 -0.5965818929465851 0.7620439864291499 0.34764498100363617 0.5479963523141285 0.4324072838186306 -0.2832805031201122 -0.3531162310489111 0.8465623641421258 -0.9705264962429632 -0.26149397961555465 0.3496881796236595 -0.6476794552267267 0.6141580420547865 -0.42371994528835333 -0.20361950323431577 0.33458084049740355 -0.4079566802593608 0.4856732377449513 0.4934329040837173 0.6236067772484999 0.6887064418303863 -0.9848659993979554 0.488168993957381 0.592370980438444 -0.6300906980928196 -0.3162945216460318 0.3169950855927721 -0.8982413414211918 -0.5762761718068918 -0.13548357779435372 -0.2081138893485066 0.6954208873546457 0.5170931205260436 0.07404705727675576 -0.5317078255103491 -0.1283421954665338 -0.06007416091513229 0.5984635223400774 -0.37867259820315935 -0.6604637144176628 0.21608689562661465 0.9225503669940875 0.42727424504046874 0.8755085200162647 -0.40420630965439175 0.7951598732273686 0.9385628352985698 -0.9660480000645526 -0.9767467700402186 -0.63611845667227 -0.8554477912127738 -0.7243255000086424 0.6314798331559783 -0.048359994274534746 0.6300541557071992 -0.9799407013755408 0.8822396331069418 -0.7769664110388097 0.8525107726128327 -0.12653187835678747 0.005340301834329653 -0.7524462835201962 -0.551650078827064 -0.45376929306476077 -0.709489319474786 -0.4668670545269744 -0.5675782226651518 0.6054519509288812 0.4179990676636134 0.954436327842124 0.4261335489622833 -0.27244938865659574 -0.05966461216250507 0.7800870841015395 0.9502184635784519 0.6383561888093949 -0.270226075429882 -0.07905303727244384 -0.27766775407901845 0.01907458192632472 -0.6850383312863357 -0.5287381907765041 0.4991058738602665 -0.1662479026362953 -0.606634095341738 -0.9524249725406051 -0.40960840428020884 -0.8877739614215834 0.0300089264753598 -0.035207661132529156 -0.7533639847301346 0.9377381759961394 0.932833818739425 -0.6309110194633494 0.07540861631933571 -0.5623607637360244 0.2955806699109613 0.39542199673891476 -0.42768880607914705 0.26722815156442126 -0.4165638043742328 -0.8003941550335323 0.9228780401999872 0.10986250348598414 -0.8682203132415813 0.9940492094753632 0.019482965223386328 -0.49413896377135713 -0.9618756184307737 0.12064604018171554 0.606976637124403 -0.2728011902638956 -0.15675031717138554 0.07535789730293163 0.3970462929989438 -0.2587920835521005 -0.04719334759743843 -0.18864100580645715 -0.9583626280995226 0.5226165282147341 0.1662471963537231 -0.17990907452221405 0.028467802377630136 -0.5898223905876214 0.3960391181124896 0.023200292776973663 -0.07153373240736971 0.19700968265873553 -0.333959784290746 0.31536810439266016 -0.6929102054465832 -0.8929931598529408 0.04803739553510966 0.9563570647955002 -0.1201285974320152 0.9151385872807547 0.038502768292863365 0.7586869666984897 -0.3522798057376071 0.429647926694918 -0.3913749588970219 -0.9646517982573115 -0.22844910173280608 0.0569424310121891 0.8797039937408266 -0.4210759180274064 0.5642041707474346 -0.9774373314006524 0.9458084779609766 -0.7912017350166065 -0.8627416633816516 -0.648743908456384 0.4016148840756544 -0.8823359021016619 -0.18152054121515993 0.469286376024026 0.2947768822844339 -0.8623776689135778 -0.9532631838720147 -0.17906125858248778 -0.6742016632165087 -0.409049304947783 -0.7803531180636496 -0.43792884868528814 0.9165158969529095 0.4090259738754112 0.47215749771860605 -0.6187447012825564 -0.6715935423599493 -0.1752415172467472 -0.03582494725216234 0.41592021439660143 -0.0683173950107614 0.7511871529127221 0.18217781436010183 0.15641935797873718 0.6064954317382827 -0.5890601230477246 -0.5657481870375025 -0.32729675271520686 -0.15113771028907763 -0.5712024945549157 0.6768877714845445 -0.6069116951238838 0.6010980066570071 -0.7501961279876741 0.26629431108304735 0.7369975349102249 -0.593523310767621 0.32367664775747773 0.3245934763375091 0.5903898825336285 -0.6816322093936937 -0.7291962285832716 -0.9531996457914862 -0.6106806048761011 0.44745737512942907 -0.8250195909999214 0.4515261898657228 0.4037333355486532 -0.14412796463168487 -0.03416117703873511 0.25036942455783184 0.9799369471637214 0.5475350595137227 0.35244781847466267 0.9555654373759794 -0.9747014943968562 -0.3211701946199459 -0.010965775106502873 -0.09534997311817528 -0.681142220287102 -0.2905088313994688 -0.45845180933525964 0.770835830777669 -0.4072069411657442
0.7784692343208183 -0.981878191046136 0.6181482236663647 0.5648397731187473 -0.6730337563602211 -0.4517927101496655 0.1968508721813863 0.9629263274599986 -0.09286033394728788 -0.05613060714260276 -0.5686154552529215 0.7774246639106306 0.7327313572076586 0.0512290002311937 0.7017928647151763 0.25640299247093723 0.020715955895368898 -0.954174948524281 0.05545124778828736 0.19962153981233932 -0.2491524443432256 0.5589552669517168 -0.8196963319800188 -0.3797426386363063 0.076379582414972 -0.396066081344997 -0.840445529282315 0.4614027715945712 0.8054933270456321 0.4892394928398933 0.5312089640603985 -0.003680656013385075 0.6540410399676868 -0.4270554105058699 -0.5104824996159096 -0.40425985145816057 -0.1715524926117442 -0.6694571609112505 -0.5708936389623807 0.4833097540635958 -0.17152099852117098 -0.9012698512117057 -0.7871191390057397 -0.4015488274613377 0.02832938961205711 -0.10995098418620697 0.27455923159121975 -0.9491556624301705 -0.2950356258645279 -0.35205202507633704 0.3380375841239074 -0.5244641258230958 0.669743835054954 0.8667081025209822 0.7234696211617739 0.9563278403216873 0.8831937374063397 0.1504496095248058 0.9640975402296432 0.587847866805886 -0.7966759223841309 0.35291659566807465 -0.9663667422336057 -0.5845584602294269 -0.4592378283018168 -0.18132923123770772 0.5455700031251116 0.01569906784426567 -0.47443688858298483 0.13318776347541106 0.4071599340572174 -0.40081113152416714 -0.9468926101736059 0.9976727204541966 0.14252896642703683 -0.6975029788683733 0.7463239805438115 -0.01801869108617593 0.8730230033284667 -0.37599714337885426 -0.6700903326726113 0.14344340116236176 -0.31211842605855167 -0.12842903162288688 0.8618525454723223 -0.48323041887115115 -0.034324597370256615 -0.7757916015748993 -0.21575744603383784 0.4562657967129735 -0.7135771262799127 -0.7567805004242243 0.7684107011795946 0.6850246017340049 -0.7105194695788206 0.9246499910161927 0.4233805496513121 0.5994409821921796 0.4458096581805766 -0.8449985010449208 0.33894887113359573 -0.17357198004606733 -0.9090663578481675 0.3030910293065634 -0.15176595373769253 -0.11746091614515786 0.1552994283623066 0.013959106515322173 -0.37616668268578546 -0.6784803643600767 0.7968276007618864 0.4084312416507101 0.7594292364643385 0.136664022104787 -0.9533346249712065 0.5198058172098574 0.998799701673271 0.3327231963261821 0.0266567847858441 -0.7259427055593994 0.6921895334441883 -0.11317465733341203 0.0940779526443809 0.39696381220594357 0.4849798256273645 0.8461551321383589 0.025216196430216442 -0.23466995678718172 0.9313836682886902 -0.9361799561684714 -0.18357296874286688 -0.5131638367329636 0.731670103238738 0.9144591459795253 -0.4213508829207173 0.4634263804220182 -0.1432590866714527 -0.4524000929350458 -0.9248404100200374 -0.12281642210995658 0.9667685160826034 -0.35703541789248283 -0.4649350821370075 0.21900919675173136 -0.37330303196052084 -0.5819920862091872 0.7419997688469333 -0.05312297503850649 0.3957951904081578 0.1524433180100282 -0.5051809162803584 -0.7632060585134142 0.36234860617395825 -0.2951053443401339 -0.6839280644393861 -0.04341386227035282 -0.04489680472056201 0.4600919564891539 0.36895568508649457 0.6801268869424171 -0.08782429089682764 -0.058116125908952876 -0.29609784147090146 -0.20764179145094386 0.9267303571876015 -0.30223523221772886 -0.5062461298741934 -0.8441111788884021 -0.1818151369086618 0.7147235812706594 -0.7146433881793424 0.28783728503181805 -0.6510481287467969 -0.10559620181528873 0.8908091668091231 0.29280740320751564 -0.24772088390393776 0.9561966697442323 0.6231943947996708 -0.650658040849756 0.4542317486842151 -0.703186306070813 0.24493485206511356 0.22634669751957404 0.32985068126294026 -0.7422288916597033 0.8388297243757559 0.8857674286829982 0.7096463517344698 0.7930138085040417 0.866658588853966 -0.6539434904122132 -0.005773372778364427 0.5152020868701959 0.677515881399102 0.9608737957901727 -0.31708699067631807 0.848189308909268 0.14514085198870808 -0.04682162644314003 0.700931406947892 0.9818048042538674 -0.0732901685027143 0.5917059823762669 0.1138401343778237 0.8086871005378315 -0.34427404418609475 -0.15752427283240977 0.4076268503531686 -0.5348739057160292 0.27856077176491256 -0.884390090772778 0.46285711016528275 -0.8715120622543007 0.18513842157645977 0.1361205188206931 -0.7765361647753637 -0.14866357729848678 0.7766519353760037 0.872897980030864 -0.004467129484680532 -0.9990801218604703 -0.6374734153352533 0.5965673464916934 -0.9077619568559294
-0.20476104190814992 -0.3309889535893198 0.8487451461756452 0.8591833299490319 -0.7675527367315957 0.5065491687379846 -0.6034240059359715 0.2607526863008971 -0.35675293217420173 0.5474020147045373 -0.08169142406894347 0.8943523873315438 0.2678001073829883 0.0453300309489042 -0.6551425945336176 -0.30898380637245726 -0.3224108144647697 -0.9762897868669096 -0.3688667627778608 -0.47344583800067164 -0.12090438807589243 0.44382333782750694 0.7460928474730191 0.548434306264115 -0.2544757019984216 0.07719639869926165 0.012348089201103418 -0.7866472087287388 -0.01985035484764519 -0.5552715773693733 -0.6054051203455384 -0.3265363797959715 -0.24580014988742716 -0.4172249688658294 0.8632361345468147 0.25997857999926666 0.41816654955162735 0.1850854176044643 0.28577762944039997 -0.5605139006184021 -0.20767558425231103 0.1695269567538562 0.2791333963923388 -0.8729829186413043 0.9775103981760973 -0.42367238228552706 -0.20384483305620438 -0.42637186965715457 0.01102728886229043 -0.8107353140914715 0.19682534652342576 0.7388793111900254 -0.5925125622619198 -0.8517688436066813 -0.6986199544751628 -0.257139151436232 0.8557983626254886 -0.751435863333642 0.43521293936488803 0.6993335711345254 0.007517144502154016 -0.24557453830896736 0.05148601462796054 -0.22514879742144234 0.8379647820949383 -0.44554466450550034 -0.14808575030389148 -0.9843152787333322 -0.1916508531156189 -0.16690665480433364 0.30053703610894367 0.3863565163296827 0.9244446073616301 0.840996109836937 -0.4452045238903377 0.5289928252378067 -0.17180936327985874 0.9487359263042248 0.27194055689948904 -0.8075560123537477 -0.9316323883728672 0.4182085774157336 0.07456215200998328 -0.9527547532712826 -0.2583337124920786 0.05426717762474298 -0.11698896103064271 0.16181085309737475 -0.00570766900166686 -0.5454732388367929 -0.24150354880206315 0.6566163068467621 -0.15306227589626809 -0.6460011977836049 0.6815146176010352 0.3711465529464315 -0.07413984703634013 -0.26673470116251474 0.8914945827917968 0.16651878177766077 0.7950844844038945 0.07169370791976393 0.040782434472471873 0.2412566375507923 -0.8454712955532628 0.4244952767396166 -0.5585609374436415 -0.5869262923899246 0.3424310185009769 -0.7104884007495498 -0.2369408026299873 -0.3579870719179816 -0.08386690770193783 -0.48119183660216036 0.9724728697565137 0.8987434893069048 0.18629002552088503 0.6541900345412242 -0.7213581238904259 -0.9444129897141991 0.38884709361550307 0.45563520756027454 0.6647320760725643 0.06985790832989824 0.07110156404687307 0.08090248026944247 -0.25699986394329266 0.5244174423172892 -0.03884924226709496 0.5340175090038211 -0.17905428649372124 -0.8520859559527243 -0.7231442618445205 0.060429362514897944 0.4200115377192135 0.08301396861126342 -0.281937857965082 0.7779857531427212 0.7340066919386583 0.2362841016809396 0.6561771400528185 0.5509444061516793 0.13765140843980728 0.6588143590538413 -0.6265217640266381 -0.027245037444877607 0.776402949148731 0.1688569609454984 0.2037560443505495 0.6816014193330999 -0.14846591167361822 0.5295155118202628 0.15276375771028072 0.11042106448765665 0.7747676434912083 -0.5080028254414575 0.5261685522352642 0.05500521365145561 -0.5064141674362825 0.020912013203841617 -0.13139288215191391 0.2409613200109446 0.7793787484500225 -0.6408226084129713 0.3333844674414479 0.15352322536162166 -0.4415360551238625 0.5416147078077396 0.6564526198677725 -0.8298059695757509 0.7574349092926005 0.3049724633693547 0.3687165172395166 0.15122083264748687 0.630343057692019 -0.253191648690424 -0.2518473200596656 0.9666697742394916 0.46428930140932434 -0.35743138491341386 0.058943284288618836 0.1962480786217342 0.13969690046171834 -0.23297037723316216 -0.8769194972744325 -0.31592824076244463 -0.7171256666746926 -0.24751411213349694 -0.1197609340591097 0.5724641583119878 -0.45088223480703693 0.2802925255772768 0.5942477059176188 0.3268159205596617 -0.7977832896335852 -0.8853938515250495 0.40658447046997837 0.8806323866823385 0.04224448914835377 -0.08533607383963004 0.46839230265952203 -0.690843336240234 0.01405181082864515 0.26334990814579595 0.8887061603627673 -0.3107213503033297 -0.6433645722211454 0.9540070629523756 -0.926412391259817 0.10799773522081679 0.3123167879212625 0.05892103334172183 -0.627871237168752 -0.8065827725938559 0.9084011237071548 -0.20316862684843828 -0.33476194835199635 0.048575031338770946 -0.4991173721112918 0.9541003094629372 0.8968251328633674 -0.7545696824145629 -0.4126748775701643 -0.9016506452834694 0.22417015240946725
-0.965918142723174 -0.1440784473811607 -0.5370551253304541 0.30369982337458157 0.2704808354649113 -0.6596626323260129 -0.3364955795348825 -0.6385765740587099 0.9701973473327574 0.018709561966678168 -0.1196551398369956 0.32604023615640587 -0.641008075036003 -0.6436658702830367 0.1371007615051929 0.7101764536876649 -0.5421178026530356 -0.45700488785635196 0.8052496878844522 -0.8126139195918554 0.18193728628875894 0.5038465999993269 0.5770110068164787 0.2104724833973013 -0.4451050385401121 -0.005996358837285776 0.5557353220973078 -0.40351635741924285 -0.6656282417730803 0.566939706217767 -0.3827008675207546 0.7793302050286399 0.559787043546198 -0.8517805467812274 -0.3765750068180571 0.7000106139350462 -0.4704156909764463 -0.5665775140196674 0.9013505013877059 -0.9115763451184786 0.019672176945105146 0.27488783927841265 -0.13212977148364002 -0.8685201122781401 -0.34614558321826916 0.42600889203234993 0.6734114078779563 -0.5213112482042204 0.9295410529037469 -0.16313321023028915 -0.6888969849276261 -0.16734686336010585 -0.7536751852076082 -0.5678708810539665 -0.7778372722322238 0.6414646453537871 -0.9202211231249444 -0.9241834979323078 0.5456000355516601 0.38466527475607615 -0.905058003520596 -0.7811212779497034 -0.6712454398825431 -0.6647763554925714 -0.8226187921041643 -0.3629272042856748 -0.2563776803289155 0.5513621588259796 0.738671863245068 -0.5981121649881451 0.6411852009780079 -0.6778395043237857 0.6698172611998852 0.01800824547198987 -0.6338974876000203 0.1413812475637417 -0.8561985750861885 -0.6955150600415791 0.9182052398086757 -0.014930746224757208 -0.42144036789012684 0.3022306836344262 0.5466584657494677 0.022260506079823106 0.14739975771450853 0.01466795464975279 -0.2914621035658156 0.18583786758365695 -0.617933200811464 0.29259295865272805 0.26666035147621825 0.24984738365858927 0.4921433801119308 -0.03551137161851314 -0.20588307693850183 0.7051769351752588 -0.39076661716575 0.721770387223958 0.3920265373098357 -0.5912495570014695 0.12662528819414387 -0.3067618785270878 0.6836351622270493 0.8884701829418575 0.4924799705890275 0.8840308548082536 0.8505258750088245 -0.3701841263542671 0.4192912925583101 0.5382814472557707 -0.5207483432904789 0.7318536389689902 0.699605864111227 -0.21403024829270834 -0.8727521565852472 -0.761748247950081 0.042880991983595074 -0.5753469848597625 0.7925883899659087 -0.2032693789205473 -0.0690637607409279 0.34935046464121067 0.7525353288790693 0.049437709785836725 0.012985273162994693 -0.2527198077163537 -0.6412164769137043 0.767329180482683 -0.8441083727783973 0.4097456419765888 -0.9901502590556712 -0.27336271353149066 -0.7600931145189882 -0.5788444008852567 -0.7065447411505306 -0.42125243692404424 0.48435699237803154 -0.1799021817724462 0.5200192451026662 0.21032175577289758 -0.258606585990391 -0.8789656043297289 0.3692975689058131 -0.23088593918505507 -0.3768462331579463 -0.41637617165826857 -0.535631353543345 -0.15163527182802405 0.3811374432615302 -0.8601002075828363 -0.40421630301115097 -0.3766025731424494 0.2005517037047786 0.5961288649238159 0.06515121633830345 0.3473552664055499 0.8341873453706514 0.9146998380042841 0.20467426989071003 0.22110619684361787 0.4920069775685876 -0.38495652247604295 0.753119646516005 0.8992287516210558 -0.6042114271806986 0.5600156379278336 0.4134878641026407 -0.33398814822769696 -0.03463283790115135 0.7899564773079002 -0.3598843646480454 -0.4818103931303219 -0.9943702620334196 0.5496271870424334 0.36913716007276176 -0.24418154941017733 0.6378704658991432 0.43519711787618154 0.22982488005114865 0.7946331426464996 -0.34038051468503583 0.839045832598764 0.8581385012980118 0.8053675838781791 0.9313398675955162 -0.9733030507698104 0.6561914300246461 -0.5926928068028661 -0.02583258082841411 0.825276594808785 0.5809602210050779 -0.5047855435022652 0.22434506631099205 -0.38067236475266664 0.6508481751065238 0.506263876407379 0.4283044943720755 0.5376934422690007 -0.4393651818291957 -0.13140321747196482 -0.8807788009452377 0.6300285387964146 0.7899271189970509 0.818554781376768 -0.5667492858819463 0.7780924858938998 -0.3609040940627679 -0.3788691574607095 0.8904517840916122 0.8256763551278588 0.7725902320822899 0.24906008914578726 -0.19683806145642957 0.2231402894450869 0.764628302670795 -0.0447508962590355 0.04022199989103581 -0.951442919596259 -0.8817509466914615 0.5876473238689504 0.5162055510609411 0.7360736940886103 0.9674466364130454 -0.6498209189100614 0.6562736656860595
0.013832900232200912 -0.6540775211610028 0.34281372350537165 -0.18187866577186784 -0.277381676960915 -0.0318179045435949 0.17292505420921978 0.1455664016879139 0.3503873345377564 -0.21963452172014208 0.5369414773313956 -0.7158438852610101 0.24770092484871387 0.5870938714932772 0.21364968456363043 -0.42109319525751454 -0.029317813540835846 0.056521616616296955 -0.4633330138656413 0.025480406989786486 0.8215848375964614 0.7020065510024125 0.2904478075023509 0.12816674508513604 0.17209719697055537 0.6874821632026074 -0.6698659371262863 -0.2835586183018144 0.1134110032132547 -0.6347869006746623 0.24131637982500065 -0.20426430048024913 0.9258912681937734 -0.21740369351673716 0.7760655128588361 0.5592423131687849 0.5334951753486588 0.885272737463451 0.11167090818164604 0.8224985990099691 0.3227584895201976 -0.3407866974603273 0.7200901401326252 -0.689846506060632 0.5762237842005806 -0.3766597122386979 -0.9908265393603979 0.18369080290416706 -0.22131022609828888 -0.18467222452212972 -0.16266063256077623 -0.8418729771284774 -0.024703149720312956 0.6521689298920827 -0.24723844067458467 0.5094521432840462 0.1842440117704749 0.4238957131214993 0.7739969063530494 0.740644248953978 -0.8667402044196573 -0.5638871842613156 0.7123931371523753 0.3828114091515702 0.4292794728370566 0.619735875393103 -0.05243894213507483 -0.48148833673389535 0.9749457125830323 -0.8899342131944774 -0.6490768361730601 -0.199035802335916 0.8630648832003582 0.44872301084448085 0.3178329873313781 -0.983619797323805 0.9388492657255214 0.4991401317154771 -0.07744722275390226 0.5982439927782461 0.24784519063384058 0.149945948277588 -0.5124227618952604 -0.5458478387188659 -0.10435016610624004 -0.370127032344967 -0.9028938143383776 0.38465248156029896 -0.2828961510248904 -0.840658072053051 -0.29917867331376047 0.4059418062132305 0.1653291012304159 -0.46694696679905 0.6566738188561503 0.027838295049195105 -0.7269734665393759 0.9374289846304162 0.9855625149018188 -0.394291663079261 0.6443468857195354 0.9071499523265687 0.8967082058002982 -0.24150568202211686 -0.7276227004936204 0.7921271363244833 -0.5721280614430964 -0.9888449530180239 0.9760164649285876 0.9725503893881291 0.7707763391708069 -0.4090301463011621 0.8486765237907679 0.11660496888035388 -0.0917421803022187 0.8549222426090208 0.9720315755331217 0.9239804539604957 -0.3601589734597499 0.962474380685566 -0.13231850432571668 -0.19110216254048074 0.834079089660229 -0.4770274720673542 0.640782188377067 -0.310664022255593 -0.06508271134263688 -0.03437348921853722 0.8687806496845187 -0.07118691398568133 0.9775616563642799 0.15794120303775916 -0.16176130695396318 -0.42524505085159414 0.4185264809879723 0.9295475181434474 0.4664042110377917 -0.8755645968765966 0.7975724029788316 0.8852608446565999 0.5712992219862374 0.17178534816793478 0.29389929385156477 -0.6657962148705594 0.5278641375082678 -0.19391558835130396 -0.9456345045690506 -0.9077423703019962 -0.8956454519345063 -0.24806920239447106 0.21036637247795342 0.7077280034058426 0.4573541689424936 0.338677647373578 0.8856467823795757 -0.8278502897284841 -0.8223079453990916 0.7052218701698989 -0.7532974138606405 -0.31589179061831696 0.7721235631960144 0.7405766304339501 0.2193433329807759 0.7561742167206347 0.6807399650266241 0.5905640762789024 -0.223800855299904 -0.23445964237195782 -0.4893681297824184 0.43026066812514885 -0.8381824561035449 0.8733833313148411 -0.6158820150849214 0.18673066596359433 -0.7426711346541828 -0.11963496364170001 0.8862717185094295 0.8127957581295562 -0.16517698035313 -0.01666787279376214 -0.5619344237026467 -0.5443650751314244 -0.9786815981645938 -0.7933291197402799 0.12031221620647847 -0.1595943533209223 -0.031056666117380338 -0.20710692765307437 -0.0724192246869122 -0.5936820709475215 0.270981363805066 -0.012615183516382134 -0.7841913997472039 -0.8211606171627515 -0.616311344745246 -0.008582264270956985 0.48216106989140517 -0.10703582634435849 0.2778951803572196 0.5968020957666851 -0.6419015699099433 -0.13879950884439474 -0.9299061725354931 -0.7673900712790989 0.3684391468962229 -0.2756058620360333 -0.9098730128047725 0.43903306009459375 -0.9593014356311831 0.18295569202024775 -0.9532146002450819 0.6311223335683731 0.8922255908135359 -0.22418385538580066 0.6142487876873277 0.07585684408745963 -0.5397747330017801 -0.13689216124172088 -0.4181044970372749 0.6298972691548725 0.9457808251783022 0.25197024817248415 0.050780716155828465 -0.698784403739676 0.21544309925585647
-0.4904062677855608 -0.5975977210527401 -0.31213516355730037 0.7092366215229526 -0.35426257068033506 -0.3928947956392961 0.19261718988493737 0.47282153905246216 -0.6479037855675489 -0.26460634707400876 0.9986311962748375 0.45647845596599335 -0.01196241140222698 0.5667431750606835 -0.07627466544167283 -0.46691274254019466 0.9916900272812741 -0.4866959204125958 -0.19860443385312831 0.1692360107694777 0.9615389523646869 -0.19276006601982254 -0.9370290786044049 -0.025613739921290124 0.9554947520167145 -0.5525083257492185 0.43018006190998404 0.6609478729150369 -0.7357018903855843 0.9640521196807461 -0.9077472688781589 -0.9160366518829113 -0.23872594479566156 -0.057589546322489804 -0.36836701054031007 0.9586911509669307 0.886878466336668 0.1880021865854311 -0.4136135978795832 0.19552820006628702 -0.5392576689275672 0.20960449762016298 0.5316947139237633 0.41687974148288465 -0.9637176824676474 -0.7485306818465782 0.9318518938938591 -0.6896277305213652 -0.4146311601955768 -0.8688950338535717 0.6790691484058433 -0.2630937599741878 0.19849031909319637 -0.7428924383602111 -0.8203168994716967 -0.8773726434561728 -0.08062453627976551 -0.2999828927240753 0.13189667891860446 0.1999637157865155 -0.057889945019728106 -0.8596948974467113 0.19850069855253527 -0.6400907349271414 0.5116559920591202 0.2238915529827783 0.7695785361688934 -0.923234339171886 0.9849973237280494 0.49877648287383103 -0.7226606464815095 0.005012943954884497 -0.8510146365649662 -0.0749078828389873 0.7940762414028033 -0.7472697762995091 0.7215395566317608 0.7896005231795382 -0.6554591379664565 0.8510207762802979 -0.6911786526800587 0.9421722713030785 -0.16376631173138612 -0.9099805127467602 -0.2594305531309211 -0.26380327394196046 -0.7521033879114971 0.8334425522927698 -0.09965331349172013 0.7151141644694012 -0.7603536586360318 0.4202795815975662 -0.4571504192231979 0.8504554850902482 0.11563260061807212 -0.12572370094640561 -0.38282164378132233 0.9263949439669514 0.12171846924310104 0.6557658620017046 -0.22853294403429536 -0.5486284999019004 0.6506764338872151 0.5606716802268541 0.5567052086662934 0.35782486697082594 0.4969109347924172 -0.1342536508476082 0.6462793768565889 0.13610135709846705 0.6428262980717392 -0.06850291068194791 -0.10285241516731669 0.7673176959608081 0.914797673495142 -0.7424777539382981 0.8009601526686163 -0.466823625735155 -0.22914797339393633 -0.6943712931818895 0.2968640386148269 -0.028763447199540826 -0.4487859508213985 -0.43567013601459137 0.9612982934884837 0.41834496137490396 0.499384538047978 0.10710844296702637 0.21057611156058043 0.6238299559967166 0.6208516221484521 -0.07841386316041343 0.9612495145372746 0.2837547355381276 -0.10039572943563413 0.9109558652328971 0.6789014078144664 -0.4255246462373048 -0.6953015128879954 -0.480184845296304 -0.6513527422877246 -0.8909051492670899 -0.7494058986676451 0.23858145898898075 -0.6625777533798984 -0.14204984599642745 -0.7604404100664706 0.15524369055559673 -0.08684142582734666 0.4308671087594531 -0.009059645562507157 0.8821710219761683 0.8056645840333552 0.6180044413079657 -0.4812497838732186 0.9846939938248322 -0.7684558636776022 0.5288031762667598 0.8020479756485039 -0.8529212402198674 0.5997589960032301 0.9354285194680347 -0.12097804406834078 0.6941478610333849 0.47810418996986104 -0.9380467800521952 0.41154009079101184 -0.25660461059785256 -0.8677167273983073 0.9932581146130994 0.04670301572038049 0.9525442622444618 -0.30352560806494466 -0.41762423640532664 0.2344978215533604 -0.2761066230462965 -0.18578797054115315 -0.7122268440443662 -0.17297486311271326 -0.5066993793162637 0.2368102747212446 -0.48169517434877585 0.6787703891947106 0.8284565137627486 -0.3170202547606138 -0.5732986262098276 0.3200136963463953 -0.734351009352384 -0.4769110523406026 0.031589094548950536 -0.7811649677884778 0.8422273030840703 -0.26074533655481225 -0.684241565873454 -0.47545427143249275 -0.12400209631617387 -0.7445426715341297 0.7985472947337564 0.710938143635919 0.701744291891504 -0.9167981433983119 -0.5462711606586783 0.24488837417196496 0.12390260285948052 0.549376679861745 -0.2899351238545007 0.9593647990304006 -0.8956548575130245 0.8564838169609501 0.07513195363177072 -0.13493762339561144 0.1539165046326656 0.16377763323525318 0.5158914663135363 -0.5217470820707439 0.3480309399157584 -0.7185788734433294 -0.4045429914260916 -0.6929662445633777 -0.4986386983456528 -0.8983481290197928 0.06765693918125049 -0.3069485974692032 0.26516242852942606 -0.5884470915961217
0.27259489532785997 -0.031056254259550498 -0.8330988645769486 0.32103366322127846 0.07447457825209791 0.97571659254163 0.34363879304187706 -0.4008809143743106 -1.04938653253283 -0.0555680577986114 -0.34964082841368227 0.7568848091300886 -0.7901446445628961 -0.9062432744701714 0.9213755394914596 -0.8110733216545574 -0.11846098547583028 -0.8909624987294591 -0.878799186923545 -0.18997782533475238 -0.7178770085202579 -0.8657863553221392 -0.6085633802448964 0.7080653482150034 0.8360248102893366 -0.5048088789440031 -0.4194287805299295 -0.8861053487316006 0.6182827064723009 0.22900950508436368 -0.3439886516390951 0.5102628010061454 -0.5455137983400729 -0.9646795420752614 0.7507177642117422 0.438583251423567 0.2726993109276725 -0.7544040576863575 -0.13723338629601312 -0.6239953410882189 0.8870005757691641 0.5897674954743377 0.4214035094388202 0.7640485040855278 0.2715557147467358 -0.44942096638335904 0.7681803503057727 -0.6458728033916656 0.401829911315815 0.6356939831917949 0.774298388245106 -0.49063862664593727 0.0005652877331363548 -0.10761087996860397 0.07189697435608622 0.4281211487665626 0.4860826874283437 -0.5947003864136686 -0.4594255943627872 -0.24218297434038827 -0.06737887340466897 0.14421454771753206 0.25588360275100697 -0.9324340770637167 -0.2587320565365028 -0.6451107294656893 -0.800224688443729 -0.5608507849248405 -0.01914171162479361 0.09122183704804598 -0.08222678595930955 0.4880993794595814 -0.8026752380372149 -0.016760164695191815 0.4566785545685652 -0.8468239047498534 -0.0807978602767403 -0.49571799103299874 0.7768251439876563 -0.6853295136983262 -0.686961981540297 -0.02279628575625514 0.41462622993722653 0.7560353123072894 -0.02461480383094261 0.41427654030016736 0.9609521699492565 0.12480720297802161 -0.5858954819626152 -0.497176952079746 0.5023184657943003 0.5335477114929483 -0.13181898352884658 -0.7478770442765854 0.5313562126791085 0.7867788494297139 0.09620920642982567 -0.965994523772689 0.6761387555986407 0.6725769609874523 0.6262453220324333 0.9768250366387274 -0.04653918762534026 0.6921444937639378 0.2548138763071419 -0.3123438102406113 -0.00023428465025898682 -0.3007122609104562 -0.3664706181863411 -0.8870325545428415 -0.9257983862055754 -0.6904977824527812 0.6066054711548239 -0.44434577468526504 -0.6280387033176977 -0.6201815124450216 0.30578626727463765 0.0444266198384613 -0.002214647771462852 0.19970619338293383 -0.899693092855796 -0.3665525425782037 -0.8533640931461042 0.16000282600294158 -0.7738478017680874 0.46485077235359906 0.9388850025604865 -0.05831132277563489 -0.2025713254601491 0.3354360557152405 -0.03610977992800457 0.0036667935287548747 -0.47183293364330403 -0.20911414106892368 -0.9206435206706471 0.4249777262558747 -0.42352240106573347 -0.3579208732229495 0.66250198330406 -0.9125764329666439 -0.33296839654440014 -0.39950273890979426 0.40212178608688576 0.41928795931028184 0.9239084533307869 0.5173353373909182 0.06304637733740792 -0.15010559383001687 0.2655837064618678 -0.021368283191171455 -0.5733517744595269 -0.48651735292819076 0.6269369503309246 -0.11435308043062453 -0.6563086749176688 0.7144479177863687 0.6833831561350274 0.6565207028716316 -0.7241775721626671 0.3602220158823002 0.424775501676002 -0.4619967087945658 -0.7350900385705395 -0.7234183857717273 0.019709556308799447 -0.30195932390796143 -0.28654327026096293 -0.8877915888244825 0.3668989803550917 0.7365134291110249 0.3627260102345877 -0.735106719395549 -0.2809497137287913 0.3954921504741675 0.07996853673203175 -0.18183533078727776 0.7235348022890378 -0.7682595041350333 0.02397621052379595 -0.27914920707346313 0.3434185532889993 0.5488524050941046 -0.9349981162367393 0.601760104987112 -0.9992960393870522 0.3892865461459507 -0.9460278575510099 -0.40215172854351056 0.23896199630249337 -0.16004827722935144 0.24513926014349097 0.587811833429674 0.27513190271662435 0.16843125912498635 -0.8677833555032823 0.7688200489286594 0.596477248660298 -0.6691004883719516 0.18239322924468349 0.5693179981461478 -0.41690334745099644 -0.39867582086592734 0.8563460157270562 0.8746867783133021 -0.5795510097121563 0.8105385900640052 0.5963187522320406 0.4082895778289246 0.6725368340497324 0.8906617284200165 -0.9005397247559612 0.6186820564108395 -0.1421363445280781 -0.3989129375185052 0.5464368833549254 -0.8465521549061852 0.03862797854465194 -0.05133754355655462 -0.3192982661773174 -0.38426905920837706 -0.1229559816784338 -0.6298800483554408 0.19688848770181844 0.09757467466138992 -0.02278641763056455
0.815345566095522 0.012847385579655812 -0.42637458897605324 0.5018387629066092 0.4266381927287495 -0.04954320357880482 0.7171578338678872 -0.6638512936453862 -1.0493072130866417 1.3705252301215771 -0.43037764873534945 0.3069767649396449 -0.05865368997734288 -0.23589848439263328 -0.01846340528822621 0.23444817628600823 0.9256569448380416 0.060287231638450844 -0.4684057913951041 -0.0047194764786937515 0.03534992523788838 -0.2632077597258782 0.8395481504609144 0.04025838835212592 -0.32185100544121226 0.07110704137684354 0.6633911628632296 -0.8383419495090361 0.5472795316375298 -0.05274035344214423 -0.29397830913074774 -0.12747242314679919 -0.14284203877813328 0.8103537997256163 -0.6802603629989399 -0.22390341511869227 0.813585025546173 -0.6430950279901451 -0.8019548956065043 -0.5195833405145049 0.25540051059002034 -0.745929686948944 -0.13215248805727087 -0.723542706305699 0.07501110367627373 -0.3429694305393147 0.5695233000052558 -0.018245350604658928 -0.333224605954924 0.06475816870697826 -0.6898327790508278 -0.1090074412767863 -0.6950145459156387 -0.5001138834089502 -0.7560629356177444 0.5076015676714041 0.9484540411718776 0.7613862822165922 0.7201647899164336 0.6093218109196048 0.8279640890501079 0.1979112579576534 0.3733358460690803 -0.655467985697749 -0.8607400776625889 -0.17776009437767937 0.6305922539278233 -0.01605817427585654 -0.040832953056425536 -0.8794955966318367 -0.7056482953146253 0.2453400681937481 0.03472778173830893 -0.7499858847440894 -0.2592167054109129 -0.09488804537420692 -0.7876813286085746 -0.7194642699020439 0.8554806063542544 0.781676954323252 0.4651037952627244 0.5151604288857272 0.16087384977268004 0.9912623019318663 0.4852426473208915 -0.7089316878456557 -0.13557203508137117 -0.4503330090793618 0.443402397525513 -0.23031390684390218 0.9817218922709128 -0.8563990924012466 -0.46761278906155335 -0.13630657874380425 -0.21127200982883054 0.04926767903678919 0.10535325126196327 -0.6459320469361107 0.32962871652048564 -0.3379623677802308 -0.4525697279098433 0.9063182257813258 -0.11470693527025921 -0.95548260447277 0.17572248721020967 -0.05196478451191955 -0.6561468172281992 -0.5811696774895123 0.5504332528235756 0.45441099362638915 0.3845541757290827 -0.7642772361650672 -0.10537999315002633 -0.10848313444760538 -0.8503473274095217 -0.6931628563362384 -0.5306712661616759 0.5975785664924869 0.30568170718202015 -0.24161084784925402 0.31260662850274135 0.319476090094974 0.9001593886873185 -0.7658643664026885 -0.03318079369028948 -0.8998974307931034 -0.7168577151017872 0.4793585550681021 0.7559467952019794 -0.6988277647004788 0.5931820350336525 -0.22509237607775812 0.595710289212366 0.7264686513508944 0.8308668097108689 -0.9403579165004867 -0.08555625894276186 -0.8537582526746044 0.8182255294709369 0.17731374097910835 0.7910208885840966 -0.006317858456344361 -0.9039491619516371 0.11257995179306612 -0.2411394235004356 0.4690872899528238 -0.27412833815440907 0.5435189935420282 -0.060278812824612116 0.34917720887358006 0.4187713458691804 0.38334594051743376 0.7254718367211568 0.5427274527339925 -0.8458401959923916 -0.4755052025295776 0.31701823948876906 0.0649503067011965 -0.1905014051844114 -0.829649937773117 0.47177225512457066 -0.9963955743072443 0.20802733623880876 0.8389384608539479 0.46684341208110136 -0.7897917898115339 0.6730037373369868 0.9242719995253268 0.67824467270142 -0.050540581295170695 0.8848546489939655 -0.9793725248545948 -0.28680213370395147 0.30693587916264553 -0.3375876810842289 -0.37057473214661174 -0.11487367221449629 -0.6299242644574248 -0.48699708086970195 -0.6196802561123596 0.4685038580396683 -0.9486641882923661 0.8471596409188229 -0.974045107710668 0.5106874167706963 -0.7068673945575632 0.04847423379285076 0.28543413858137945 -0.04594253375826596 -0.32862918577996925 0.5460351784527651 -0.3969254199568595 0.27213662921991943 0.7556177768851049 0.3590911991968455 -0.1762057997922104 0.9375212867803095 -0.29547993983078213 -0.3776503114128984 0.5094237301346518 -0.6945577228889934 0.7918194388135951 -0.5374156549557663 0.8513630419047435 0.3259807109572139 -0.2083631039036653 -0.6498818747311901 0.3637139559640945 0.6017952480552271 -0.5008276289231848 -0.2585370977294381 0.23532990419782984 0.254156828241038 -0.9078916339720167 0.29372680809260165 0.4212385289898115 0.9859292134846469 -0.22145723304870057 0.18464166025534867 -0.4672881836751215 -0.29555124068381033 0.09264868426191897 0.07421161506334806 -0.7690678162101081 -0.12733578606304508
0.5662630557980322 -0.6211243327361493 -0.6640653979815845 -0.7437863379951146 -0.6624643395896597 -0.11434258993649205 0.028913211704337805 0.03104118459590932 0.20226815130190579 -0.6786781822960708 0.9252876023157726 0.49135789268880337 0.4629426981624356 0.7087792348337112 0.04475705298244459 -0.34533585038273085 -0.7020206190711329 0.7775748373893205 0.43943919256760955 0.8644482485517595 -0.5297193360432215 -0.7768159888288331 0.20261704515750512 -0.1389099852336937 -0.29930919423673474 0.5812992965108315 0.9962468229763863 -0.23175296672310286 -0.21524221303365554 0.2351923255765358 0.901968098847624 -0.8589709018357428 0.6390288486138738 -0.6125695074827981 0.981167065619063 -0.652640760934001 -0.2543763459771138 -0.9805498424997361 0.4445792752216615 0.5905462807779163 0.9223607774176115 -0.25767556691314564 0.08137278294771666 0.6256493717491607 -0.4538329202348026 0.5902574297134551 0.18096643501316656 0.9857251433853422 -0.7244530796857118 -0.8986263205453389 -0.5211672523255901 0.3421225151596097 -0.7354951843616737 0.7758986143906872 -0.9748702837085617 0.7060940972599166 0.6170093396460867 0.14036956135928658 -0.3401634983364654 -0.5384374713288753 0.4319052888074435 0.11332991612167431 0.43517745188898505 0.9630854214596232 -0.8049323823212329 0.820842677814922 -0.045345345507612045 0.2481529140820926 -0.4452218291736607 0.8292436092260711 -0.13473633280316677 -0.8382643081238432 0.5810558807731181 0.08964690874784709 0.5787280122866332 -0.5469027258842634 0.9076998030687236 0.4846183191012088 -0.8586185335059815 -0.5951625528940658 0.585492184680902 0.5534430312801253 -0.43670656616959813 -0.6953048801078305 0.45058582934850144 -0.38377167907244125 0.8857388857239348 -0.335833280322938 0.6342383543892918 -0.9795222610590812 0.6683418780381638 0.7776110664621123 0.5138984802419444 -0.011395514032155774 0.33758548609932193 -0.7316877405541993 0.75398897294283 -0.07625921094987809 -0.8361120496088448 0.5870977835569575 -0.8411958642510573 -0.7743364962157289 0.4340917575545937 -0.8314967997611391 0.9652556180021019 0.8836482219620432 0.31927156453044914 0.1664893636613296 0.07633034082627277 0.6438992075844641 -0.39387498794410636 -0.3054973553892957 0.6339334256820064 -0.390602593343937 -0.7906126911512408 0.456234664261433 -0.07407749380480078 -0.6026864904944835 -0.26954963780982655 0.7110598384545035 0.055962722856651936 -0.5940123747910468 -0.0990037666647996 0.6845454939224187 0.43405876664088416 0.6186509306115828 -0.34820416926729814 -0.7976000977973674 0.6715797630455422 0.7600465587834127 -0.5992329354568724 -0.6792307342112802 0.13941567872340865 0.17985787604003867 0.07386604356542836 0.27335547286875617 -0.2972764766368299 0.794059237398502 0.27574851178635074 -0.16803465357649072 -0.26989594039512976 0.9765481942423819 0.5519937692497252 -0.7249187446241778 -0.5971795473982073 -0.8020824740455172 -0.5868375547235611 0.8062565054023714 0.7584660424903302 -0.9635891299829378 -0.5883578716773301 0.39395297659020456 -0.7869397591082239 0.8784906429565671 -0.557460186048119 0.4436220180671755 -0.7049918458485815 0.8395611001330223 -0.5635538826346629 -0.5673049602549018 -0.3046711680371399 0.31419473605041537 -0.04214699986261139 0.7893726998979711 0.9064421237434224 0.16474570225168783 -0.6390456183709063 0.1618069001298834 0.5729857973156878 0.9291441023952656 0.3777861574349577 0.7010184085105269 0.3529145282285606 -0.47668228598250884 0.46071484363440596 -0.5731779777171371 -0.13946372089816284 0.05066363705449106 -0.7249751730303007 0.7058149136746317 0.39206202492779996 0.38686972728718816 0.06008381324015799 -0.8536035242175777 -0.7912402791974866 -0.7255918128320284 -0.3576776136795732 -0.9843995213695271 0.14841468290789273 -0.318720400820373 -0.889115795257996 0.6219023834630588 0.9844910737003825 0.5940024167042921 -0.36843726674620214 -0.14398603212004413 0.7549364867748816 0.38051786362077156 -0.733112340320561 -0.8756657261334997 0.21588313033337858 -0.13167396372049422 -0.8554777354374461 0.2751475443056146 -0.4308493028056457 -0.6542074201043433 0.9843200971874755 -0.29441914832367466 0.6600137700418454 0.45376692119814277 -0.6142838284558942 -0.939942561665992 -0.7468973071641118 0.6000608972684915 0.0052742515944161905 0.12515966967791914 -0.8348626927376397 -0.8490363890899282 0.0011209749927725277 -0.42139637169181454 -0.3064058498223623 -0.08800747037493473 -0.2005714305880959 -0.9992195145277161 0.6904272998412531
-0.09877108231109412 0.006614006793641769 -0.7522912458769404 -0.31912760883760005 -0.23576849340951855 0.6705341734298753 0.4804873802652619 0.42119688216276985 -0.02198605638213308 0.06011557042846022 0.3512453518500229 0.013357752302378012 -0.6199938332720898 -0.0051290887844610555 0.2997482944722354 0.5025420220604424 0.17597707274616803 -0.8482561116314646 0.09495972969254862 -0.7907565254209894 -0.06178058864211966 -0.3978514165634448 0.2149200792637873 -0.01603538921096348 0.20399610693027492 0.3287681982500792 0.4691944811706146 -0.8076578481390735 0.42215724129420207 0.9743658771023322 0.35218074486476225 -0.10661837909099714 -0.8067977016059589 -0.15399475140935448 0.0715753649121258 0.3555770023748266 0.2566430279228977 0.10817326897001278 -0.216508616570662 0.47084539284692317 -0.09328538503200323 -0.6443529997045021 -0.03267353814849039 0.3329639467435961 0.1413149923659045 -0.7761323455107474 -0.29345236286948895 -0.5397963934781906 0.9879854399498902 0.7370236929702683 0.8104398078478099 0.25221964293017773 0.6361673060966484 0.5222316185356095 0.9210195205809077 -0.6533201326002538 -0.10060969053108315 0.8007033445158749 0.6971128832470666 0.13413595025014646 -0.7840933703290938 0.08363104853619086 0.6611138390680478 -0.2078778482636856 0.3977336267494558 -0.24611850318388395 0.43342637558584496 0.7332440242972234 0.1465321244850728 0.01753316133830296 -0.6751924156948161 0.5654682521289698 0.8184013583869458 -0.914532296938666 0.1653081373687284 0.4168878381384631 -0.04389305921050424 -0.6626619289417126 -0.14016514198259244 0.7490453502018675 -0.5996422761209617 0.30972819221866543 0.24211861029505566 0.42396151161076157 0.8848681074806068 0.08568501635587666 0.790702351538098 -0.06294434430401918 -0.9218720101401428 -0.5632200962083795 -0.17146572113429204 -0.5875925545623377 0.6337087423910086 0.5730323705123426 0.7568757761751337 0.4833742030016588 0.13175096081951398 -0.18602247074249068 -0.34113790491624285 -0.4033094751934818 -0.3071886907403254 0.7098294242125731 -0.3621905604509861 0.3784310758333336 -0.2858285958151232 -0.6802302707705641 -0.8200208775413449 -0.5372927290563481 0.5242975423036429 0.05790976329884567 0.4161330683899531 -0.06753876692051497 0.7708511938919733 0.7665644553463917 0.055926951584292395 -0.6296667565476581 -0.044124625463197065 -0.9767440455024157 -0.9474397777141577 -0.04425106718533334 0.1890011472791484 0.7184252219679803 -0.9780538964235657 -0.9529245243025601 0.609773759477747 -0.038048590184142084 0.9695374852702301 0.7712177819826822 0.3437997644276991 -0.1289042376534708 0.2742457588478311 -0.5363213271504419 -0.9927358930518035 -0.25985200988232826 0.3683820969925298 -0.09666574044374188 0.649754877728616 0.9054701283034112 0.8851273183940656 -0.569158886565537 0.14812691833989122 -0.8592888740596218 -0.23405982801816982 -0.4216760039661944 -0.10139314585869519 -0.9683185011789037 0.25491354448380954 -0.39455803923466437 -0.9634201075460715 0.8165491033749712 -0.2982407019010256 0.5105605247870999 0.1110858746758443 -0.6996757604242092 -0.3538176488725533 -0.28620231422549214 0.7043877566473378 -0.6040364726824463 -0.5796029015506259 0.7699458482757322 -0.9841940239743687 -0.42902817672953986 0.041758173092095285 0.40432875204342733 0.35810777324756704 -0.892335472824225 -0.04908043538583251 0.6233043167899577 -0.5879465839746818 -0.7952289534537551 -0.1913949761095992 -0.9249489174982164 -0.46643071758659094 -0.8233503593267373 0.6567610322062787 0.6342778361766714 -0.7539570197704737 0.2759547524431867 -0.954889497361447 0.039144550895072516 0.5740386704990137 0.012683122673317948 -0.7149399825049474 0.8464258309232144 0.7330428196845882 0.8475771437645039 0.7413493029890299 0.35991202685183366 -0.37218994678559625 -0.37742433264528885 0.717225249594226 0.7733091539807104 -0.9972691490564849 -0.43827522228011473 -0.8135086346534914 0.9065419387886888 -0.049338596122970424 0.5758008340767022 -0.16636184544255506 0.4324893057201138 0.21178163872692002 0.3528161422306033 0.5806947449949427 -0.5007405217421679 0.8462276572750802 0.4567040365920121 0.8400568143567502 0.7914817696526932 0.05615932693697134 -0.6027265116705003 -0.27952175682153824 0.6188569684504199 0.1563832409200958 0.5416088503010128 -0.480919156082936 -0.11582708869966307 0.2080277791282874 0.2680538583767573 0.4615841069799611 0.209966425406116 0.9371615553836081 0.24945578655109646 -0.8323666661935765 -0.07217216300595042 0.9529448162006657
0.6238181137757919 -0.44832505895182995 0.5805693369514264 -0.6995312445833775 -0.9022394342175075 -0.8293892050219103 0.14069573725306758 -0.08728820352428279 -0.6869497340461538 -0.3449701921621834 -0.6383273183521356 0.0722328159703709 0.5073095411355857 -0.7734826892481168 -0.06067388456170275 -0.9935063059400802 -0.28049065978135235 0.050779637893735075 -0.9100079763530136 -0.0293180494185028 0.036692911207484746 -0.15163670711280952 0.12158494801176678 0.444486233201419 -0.9097068524316845 0.36134481033414967 -0.12035404318500498 0.9185173490467149 0.3753333368107197 0.12911138701190294 0.19112471578215096 0.704107692423743 -0.05639661960207132 -0.9164689494557978 -0.36725649383733083 -0.5535997238587969 -0.3987934365438297 0.5121637262697447 -0.5423932696084786 0.7874040026650535 0.9790679282760002 -0.44908291756395946 -0.2895531372868041 -0.926320544633672 0.8948513392326289 -0.0831463230158036 -0.599473278780464 -0.760352314397426 0.4310685605700426 -0.6080270925353513 0.09417810580553443 0.20671792489266427 -0.49338514797463073 0.5987150771104939 -0.8973145453836697 -0.05394650165225667 0.6644215130754827 -0.42525317866197 -0.9721861296328516 0.4551582694911489 0.7406792744218686 -0.26455254727005295 0.46594337956701204 0.7938610021362358 -0.4103035894136846 -0.8532482729316375 -0.34586709315458886 -0.9947553229893753 -0.5235005783245898 -0.3092822973689149 0.006416447240167322 0.372376380218034 -0.4377401241172161 -0.8635131612133666 -0.9123379901827817 -0.46712754667776846 -0.8403232031692103 0.19206137741019247 -0.5329928345439667 0.2696385612270831 0.008489651606860216 0.7870745082591011 0.19027555024763787 -0.9202630599865933 -0.6020405275321881 -0.49560634634341816 0.5543490388616663 -0.8623046140361266 0.49782959124874515 0.20868532126939865 0.030797732965306635 -0.6152213276456882 -0.6252011315444499 -0.7622521734253207 0.47605167205436816 -0.058619204524790414 0.11720976069503997 0.6088359113066408 -0.32714794752146603 0.6113994676770365 0.5018373022575724 0.7151926097244949 0.8461546005272849 -0.9431322643446913 -0.16980874941679658 -0.8740303276524757 0.5257846432827886 0.700235816440494 -0.6523198724031334 -0.912189162429806 0.40971480213377287 0.2928197128682961 -0.037602374293566054 -0.2386207234061759 0.3476312439950322 -0.07959500401806574 -0.09455615320205224 0.7340344097529758 0.9315894730323742 0.5646840438315375 0.0036681353662260108 0.7120030870404555 -0.26111010611014795 0.2571825754439667 0.7415996579393553 0.8320954481009393 -0.08313163957882419 -0.9328312536170154 0.7524912790589589 -0.42353120325208016 0.5332199644553117 0.4425880266109703 -0.5883023588692564 -0.2857020763795426 -0.3405888937758417 0.2694353979777544 0.4094029123334568 0.7688393075489568 0.24994487017403988 -0.6903875945274278 -0.6803541471167154 0.15390707764113065 0.6545835706062522 0.41878316663206094 -0.48969337382132294 0.32270231988268616 -0.5817544380721662 -0.46186540552259614 -0.9581363612750602 -0.7199139321835439 -0.469016185060948 -0.8779514603003491 0.3855859098027541 0.7379077349755652 0.2782341848861911 0.9772319813981234 0.5104373201082828 0.1401734139263422 -0.9169446454800037 -0.8700816099748487 0.06745059763725925 -0.44609403530093195 -0.40624691600619833 0.7968045172438538 0.3229799803454907 -0.9364930913821725 0.14786222457204734 -0.37554725899349806 0.7216141061467374 -0.7402969907751558 -0.5775062073738593 -0.037232618532763384 -0.9374671519217324 0.9472470509018482 0.3093072484249817 0.8022292558400483 -0.6749344439076872 0.639016251612845 0.48940203062617704 -0.7044116016794981 0.14662295592113295 0.8628391965578852 -0.38721021091161045 -0.4151375307777727 -0.678048916853369 0.7519338930720489 -0.4872471660525366 -0.9154666772559263 -0.5979558158538967 0.4990638412509827 -0.3444154577578009 -0.8111452149557676 -0.05607689337196442 -0.7627259880112618 -0.9096917427289151 -0.8413989736013083 0.4899925974450998 0.6582197582694922 0.6512950703441966 -0.7919171405500725 -0.8702129042705233 -0.12105491293616066 -0.07412905394345737 -0.584858199833072 0.9567010634465862 -0.11817909162621465 -0.7104030069535925 0.41884305632531027 0.7578550182462982 0.8078368013163646 -0.05449579348874556 0.04500870539431556 -0.23880842260644686 0.10253984413661632 0.4328325462088951 -0.1994302534393224 0.9971648806502642 0.7476427259024665 0.765497864171794 -0.33743880301253326 0.03996231881635337 -0.018963259609980465 0.6704715282530929 -0.9221937234044555 -0.45017362904103275
0.333253156466531 -0.7730766924709693 -0.07970353224135243 0.4387865585769144 0.8607772228961672 -0.9789001507262913 -0.5980794725951619 -0.2953705889716087 -0.9946385026434528 -0.0400070964149882 0.05408789048523177 -0.20532397820027648 -0.2828233008446359 -0.5056737016984951 0.817759324507543 0.4715486579650674 0.9288941421617947 0.03544663265710124 0.38140665453892386 0.033050766748821125 -0.22967233282929445 -0.7154184328444355 -0.8921652864084031 0.8477655072489061 -0.33333403216971713 -0.6631014668433384 0.17744382018717708 0.3521927253822974 0.12768026404022725 -0.5782207332073652 0.8247835795342968 0.4836319426852014 -0.10971616044023613 -0.46613414836027633 -0.29315168778009704 -0.6110542406259505 0.5222081009714712 0.25962241640272343 -0.5254502588824701 -0.40989636539830365 -0.00888472931181794 -0.422813932992375 -0.22201915946464545 -0.07233592727180094 -0.011165671923114795 -0.033665083486192016 0.2504010025655605 -0.20833739250039174 0.9879989103813589 0.6057672716325031 -0.8545414018297861 0.638898210947644 -0.44219217703058855 0.8989296074356503 -0.2864642922822407 0.7586757327325819 -0.695599456563148 -0.17416043962292305 -0.5362535987237689 -0.47616311741486905 0.15380481612605768 0.271049960672638 -0.1835799016203894 -0.05394677318134389 -0.35623582343732973 -0.6672940080529179 0.25626743396434737 0.09721205843679925 -0.42147483731998303 -0.3794010391166387 0.3136433670237031 0.9895359391962988 -0.9346927761333759 0.1666607577996042 -0.09025894450223193 -0.03595128024385397 0.2826892806167707 0.5530887723133604 0.038479046556618046 0.4913026671624501 -0.8705537313909155 0.9624708142526373 0.8085834314953559 0.19042314103802527 0.7910542542224606 -0.9640507338170796 -0.8367472080738882 0.21923026804264523 -0.4707385853046828 0.8527549091963953 -0.06090089434281287 0.04076700864085048 0.5789798759249838 0.16129511757833326 0.44072373779573537 0.5334287596104696 -0.7313869959032966 0.8436209506149674 0.9164210944819859 -0.08006531528988559 0.8484049682282881 -0.260973748783496 -0.3750753829968545 -0.8190616801433392 -0.5053247802408924 -0.5474220908097174 0.9095486578249525 0.1859535808788697 -0.38130259526084953 0.996609523654546 0.8462529966011265 -0.20057711066711814 -0.7922992210867719 0.519495674726911 0.18483205392505164 -0.11851830635914862 -0.8290203131940461 0.8605848627401607 -0.9256196183786041 0.04024263949820317 -0.5797003499943028 0.9884066910377589 -0.3968814010277275 -0.9035770590197014 -0.011683053312720793 -0.05665640030172647 -0.06594811266695033 0.4032987869788103 -0.4468616763646722 -0.23569364130884773 0.7276006770384833 -0.7062165525343915 -0.471350383024558 -0.019791841166532986 0.3510601594811531 0.7858320312077256 0.36518702072845843 0.2713701961051884 0.8142272627515608 -0.6641033541929433 -0.16965815540531182 0.15852459222984305 0.6976799052136011 0.5531395850385794 -0.09002719359876377 -0.36226229891606043 -0.7707908156932461 -0.2159886811841487 0.8018703455008611 0.08214237198839336 -0.7625159811761446 -0.6062736766624244 0.9652271067002371 -0.65021882388085 -0.12473159080615659 -0.008273053687759546 -0.9582253340288118 0.6186256810163102 0.5082660386585782 -0.8187598961758153 0.41796952150064426 0.77369422917962 0.6255505921099724 0.31812432402096524 0.9721490650249216 -0.9551261296459859 0.6790397323697797 0.9283589780441872 -0.767853758728654 -0.9047597742997555 -0.6126752477610313 -0.27605839577994606 0.7227056505241283 -0.564708843852695 -0.0184403394274808 0.784396859292599 -0.9699255493754237 -0.09582381525131534 -0.40249215538550165 0.7890243732067337 0.17415854139619147 -0.3343770076650272 0.6810829730291574 0.04952027538039516 -0.48943802543553816 -0.9857452829095268 -0.8351716059519332 0.9288867767377051 -0.04304770437618166 -0.16797864746007218 -0.07839491430638645 -0.4926122561257247 0.33356551928271694 -0.058063642531235526 -0.9794730944542702 0.0857818456554944 -0.29024294967673936 -0.7290883954376075 -0.055496994225717966 0.14352205143468488 0.4874822386999682 0.8997214655984402 -0.20201571947280095 -0.8273305172302403 0.9283627456689763 -0.406632204698242 -0.10475947839342759 -0.41675491618962934 -0.49872118678660105 -0.9104869403993272 0.8260358054631556 0.05853873778041474 0.3829896229341614 0.7228811831137141 -0.6145451785499323 -0.9596647414083883 0.5668079384268923 -0.26619111796651973 -0.6206017882489143 0.29201108624659944 -0.06616040157465819 0.11076959623589233 0.9710242727953937 -0.8972311248515232 0.2193582796299849
-0.2046053510159339 0.7581267571596744 0.391631359115406 0.8544533791266169 0.3359923124908284 -0.4259925320001652 0.3609859116326528 0.2651527741091684 0.9276763904691112 0.6076188688592985 0.13615506164639268 -0.9111909021879465 0.0356873161455713 -0.32204563261285957 -0.6732628129931113 0.28879714827544456 0.4856866227568428 0.38989469007654964 -0.9000785022692881 0.27455290271344834 0.32420164632992865 0.16943761944214186 -0.812610472744818 0.6117551310123595 -0.7706789345220948 -0.1032466320866332 0.6289483510554663 -0.12715590941664345 0.5316638653929617 0.8185328567338395 -0.03274505264841099 0.21572074439787547 -0.994553289468276 -0.27998415917461106 -0.4160845617118405 0.9310228667579488 -0.7953458998674128 -0.9372572031550668 0.9911329176507828 -0.07971824894411617 0.640095429137258 -0.3293728122514783 -0.01418015456401256 -0.26087416654303386 0.4365115343162469 0.11909714015413919 -0.7202942410418769 0.4772029177818631 -0.2696135151133743 -0.21875396207765396 0.7478875314529709 -0.4239142993137104 -0.8972006446389802 0.10976131008571222 -0.4174414357114853 0.04143763021011915 0.42595026436616523 -0.9854013236209047 -0.3510826166906591 0.8302110415296471 0.9931866217104675 -0.845918185159759 0.3339538732715259 0.04814475055262912 0.3210563601444292 0.24390884180130357 -0.09850177347348033 0.8477327353109034 -0.8554311260988938 -0.8355693990398831 -0.8873972143498334 0.987655667996824 0.8993959566025851 -0.5549273063697673 -0.6482752874195743 0.08487332833482442 -0.8345009735464282 0.2863931440547407 -0.6955151375692143 0.8915633073835216 -0.7495630214463509 0.15285847329198177 0.14791324689110708 0.8567328853626845 -0.32048493924736965 -0.5723499719359815 0.21498662540721902 -0.07959642346796048 0.49216861882448915 0.9885642175202294 -0.1340927838559498 0.5773453479187725 -0.8353621837061769 0.42445608805484314 -0.630678678189748 0.1409383351224751 -0.34899184112834414 -0.7465614598535821 0.10905528577601431 -0.8415165727857938 -0.6701286759887755 0.6116111701510796 -0.278597504314372 -0.6806694145697632 -0.47329371856762625 -0.7180137938343827 0.9184684125976312 0.6682591277090537 0.6069556673085132 -0.5021634658334628 0.3116092918058353 -0.06281132727203209 0.9184664138482881 -0.2625121395032235 0.6087716397092018 0.8256094135501879 0.8807835257705092 -0.9361715549779259 -0.3253587300449703 0.2831328839020717 -0.39920412903626334 0.5498168698889578 0.8747319451476154 -0.07556448169363983 0.9780310609721545 -0.05056662896250108 -0.0980688230671718 -0.04708022113310717 -0.7369374948909855 0.3914236940998761 -0.5685727810821226 0.8397296869010724 0.5997624029588335 -0.012736625758421827 -0.42420528411627956 -0.9216294808230039 0.9255253756549358 0.5572364977418203 0.44310684007793943 0.5760954400006402 0.5472962622533586 0.06186310138222417 -0.9069886017787878 -0.006787703047086424 -0.15630621574170545 0.5618815651312574 -0.22823018073479173 -0.0804332818784399 0.3300315534966547 0.03911118525745505 -0.9575575720418268 0.3394800424129014 -0.003375742082153854 -0.3759201905370322 -0.5159121975421772 -0.07307720865276113 -0.04695566820408059 -0.641309329459145 -0.18023855870608863 -0.4983693635825215 -0.39205520514524594 -0.7995241981417855 -0.20953505631737968 -0.6550235830528433 0.6146989559212295 -0.22180864311263027 -0.26704255432253365 -0.18041293547512716 -0.6617582262026391 0.9796352377067845 0.8076414514293058 0.8785536752500003 0.01874275092878297 0.8635385697998177 -0.16163680051438 0.7596418421081121 -0.762846374391148 0.5741835747555935 -0.5725547708518361 0.8121867410246071 -0.211339195085801 -0.3338577681251871 -0.7893360668982503 -0.36019453070150287 -0.40825086782270925 0.8499847646145366 -0.3373950874090357 0.7855998967135251 0.13940799168353046 0.21365322296762823 -0.560857917740085 -0.22539334086981277 -0.029725921579169645 0.4767601463925284 0.44345110166234236 0.8403665598466661 0.06452026270127043 0.29706740796796427 -0.6766590291718255 -0.44726582872054665 0.42123978629940795 0.16705518597321345 0.817716532007781 -0.41335710203200837 0.9035323759756946 -0.3182002723414472 0.7831590262019898 -0.28259994256050747 0.2872385017590098 0.14335583777745664 0.02274160009253645 -0.466847392259661 0.6156894298177575 -0.0669931007851634 -0.31158545336021826 0.8340736543679408 0.008345674702166184 -0.87647487682351 -0.0934053470083902 0.06309058034038006 -0.13449167049525257 0.5045429211024661 0.5232136087078199 0.9304934107397409 0.6104014799086421
0.804305974346784 -0.454874286296135 -0.9392587856255696 -0.2956119956959906 0.7950030759525806 -0.08860671540733112 0.586706398570471 0.17369901555187517 -0.41435991403563427 0.04845842362580084 -0.8495200757204102 -0.8833434051984177 0.04408502742958342 0.9441178415981493 -0.9361194854142316 0.0846001264245424 -0.5881584836463529 0.7605154058267847 -0.6716906635844937 -0.9698270418457577 0.2208974158568744 -0.49077837857159357 -0.09349858390482879 -0.5967906263272664 0.6540923119158353 0.5522893113343124 0.6412113964123778 0.8507786227152374 0.599134415168219 -0.05058599284470322 -0.6798095055191644 -0.40526738816789565 -0.04620028537586518 0.9839118711169883 0.11541620491975269 -0.9867870762535427 0.38630645577771117 -0.49566185938764784 -0.07474245628798482 -0.23001922042217116 -0.7652880535116051 -0.9381203395936899 0.5367725078784322 0.7369916233388052 -0.722842512267627 0.049043411361419986 -0.2516182985405033 -0.17690458486130423 -0.6681547114141866 -0.10931076532228357 -0.9582318957738938 0.5230544075304118 0.02310050508262096 -0.9588818653921309 -0.3094483936786476 0.4204604556131546 0.1275866113974249 0.25883531625905576 0.688678957948262 0.5828314711133542 0.1606562418950659 0.6517988685041887 0.8601648634067911 -0.03547652590392669 -0.8034971908174287 0.8048136907658359 0.05953460583230341 -0.7962148785159717 0.34055962472873325 -0.6714774332109479 -0.2688440547172102 0.049506232796150185 -0.24538730908054518 -0.10999488648217914 0.40930972067644733 -0.5196532876549822 -0.6272135247246573 0.22339803281005977 0.44217857980691044 -0.9582895133638989 0.8106310484913506 -0.614262602572637 0.4261124938037195 -0.40942053400922984 -0.41692430690040294 0.10740465950362776 0.8616849150554831 0.1943286975671883 -0.5932982941881983 0.909328521240494 0.141944706445974 0.22900831716014314 -0.9891664674223302 -0.7872229965738178 -0.277532615494712 0.24831048902173625 -0.9691841927536591 -0.7733819998983538 -0.7472248250219011 0.940522575062056 0.40978118071818215 0.8191889628262441 -0.20839206195117366 0.34453528485704243 0.382280551739721 0.16534981272477411 0.7108325435719829 0.8744021045960697 0.6223553755881135 0.7457451248640403 0.9220177751234953 -0.14024437490179165 -0.4825779002718673 0.8264938612975599 -0.46139615450479754 -0.21981488845653763 0.31466975836134936 -0.5351939935508185 0.6652628981220121 0.9317423562630318 -0.8526872261660154 -0.30016802796097886 -0.5410178029733819 -0.005581429297254692 0.20625658015022896 -0.9000258599826345 0.6872534487046824 0.045946034875469 -0.9953582039469786 -0.5513797286686557 -0.5302840829001207 0.2516124361778804 0.7372835506047501 -0.054382536474222753 0.6705316901024245 0.6846670325676014 0.09601735226801567 -0.1486416543495035 -0.8614126069423482 0.8460339079263646 -0.6706533412444489 -0.29620550097201637 -0.6290827188999353 0.04689446002430886 0.1063830665569514 -0.247537463004609 0.056807895724121815 -0.2369908836594503 -0.1593179697317122 -0.03333987512554226 0.32850181321295224 -0.041850226282760694 0.05913354641734858 0.9680074485271326 -0.5950054995349512 -0.3660661300962522 0.813741489956836 -0.21527197165217493 -0.770286236628239 -0.40701639898320074 -0.62614077089779 -0.0015743403675470002 -0.6917649189956081 0.8728358408298196 0.7674061974927373 0.6947770859108269 0.04629598138449209 0.8857044069480202 0.17125396230519163 -0.1770778941372877 0.769102515165879 -0.9087786629918988 0.9114058097719253 -0.9162302741623947 0.42324155631825344 0.0217089583944452 0.28517309447577643 0.24700256727978576 -0.7390746744556524 -0.11361123243848414 -0.6538817657375773 0.7015117091583105 0.4597604982127119 -0.411509513392071 -0.06392218847136188 0.6080644317233594 0.4234087675787539 -0.7331650871536572 -0.6922976423211162 -0.16577314431765955 -0.5622600224223417 0.3844107130106591 0.06633439823236342 -0.8235239211042331 0.48052325627863834 0.15425225534142717 -0.7076539224528531 0.09332196789130442 0.8326304059896743 0.7352772608086986 0.3909889767534662 0.786100736849787 -0.09222434169068561 -0.1559064289488934 -0.1742361818670135 0.4700185123443499 0.5589294577755837 0.3180879249361026 0.5209865072284083 0.7322162069326548 0.4416170325625386 0.804710196379258 0.8090393274002232 -0.7027312188077344 0.7328257677590417 -0.7860206898117776 0.9954897119094088 0.22047889325225856 -0.0186864141022538 0.49501086587355303 0.9522923834639645 0.4350805755655174 -0.1531363386619229 0.6267486382057079 -0.9502153698667444
-0.2761927146822808 0.47930569429550496 0.728032658432576 0.13958087526789464 -0.12240852413300507 0.5692686289817035 0.7485752865858103 -0.17806747359168096 -0.6883119825835246 -0.1868064575374691 0.1604303283969184 0.1180902901091836 0.027530995245481193 0.2489844198817357 0.2545626932841303 0.27083756027277084 0.9844364797478049 -0.14677784054575183 0.3859968597104493 -0.22739026264784656 -0.03374067722235807 -0.46113903490981123 -0.3688688721078244 0.47567455808016 0.33697111225029763 -0.5448020067880848 0.15203747626060737 0.7018354023554458 0.12767911058477432 -0.3000059285497494 0.27198255692626727 0.08134226216203277 -0.8515845498479764 0.7963918680690727 0.8289529529765698 0.14465975800177922 -0.27794832286367055 0.442157712363376 0.3530469289037461 -0.05706482165661919 -0.995976990118151 0.7512905433051378 0.5146977257912968 0.19997612357484829 0.6870000097868385 -0.6480273799733136 0.14482377268114788 -0.025142620921391634 0.45783771615896773 0.6722121423259473 0.32212742143089734 -0.6750641052374009 0.5352090472136024 0.8048986566250624 -0.4369578786377164 -0.0238416209767911 -0.571627379337152 0.44292545865344657 -0.20270540733956044 0.7554017104792743 -0.8894504801445664 0.11313684311251393 0.09030973201373382 -0.5795589084483994 0.4065804300013274 0.9525639460276274 0.10663542499649203 0.015002137969122975 -0.0776543898646429 0.07430431031322327 -0.979400978981749 -0.6887245031644496 0.2968055066906261 0.9311522798462606 0.264108774637676 -0.100680186196771 -0.1858019404672444 0.41859478315281917 -0.0032509505831312957 -0.050558401581652035 -0.24506957571499965 0.2637086525182599 0.3655230569305943 0.02181211779823511 -0.9669132306234727 -0.0524038777936533 -0.34937801479663366 0.8814014093948364 -0.9548674183043186 -0.8047931138645597 0.37639722792015307 0.08379993106661998 -0.3723845311489631 0.7912825348614825 -0.8801691722561007 -0.5356979147087224 0.500735279482454 -0.16462885674049232 -0.7094049505123821 0.7192924194828763 0.6654186662276225 0.03159917962436709 -0.24602647923951326 0.6560307412584279 0.7524464311295769 0.2263331415618579 0.02181000428397395 -0.24018123078294407 0.6048228559467745 -0.30489737457176647 -0.12243868762364873 -0.051622621400702506 0.7072600779030116 -0.4805604770630396 -0.7240181810102932 -0.36593914861251364 -0.3437560946315057 0.3798551084999915 0.4850827249091494 0.8927381948491948 0.6847350293016667 0.40485942658162855 0.3169290525404731 -0.5347435196206172 -0.7843716201112689 -0.7351436400112177 0.8026452368802763 0.9171218168281086 0.8755972454411811 -0.723505955916137 0.44673328287554925 -0.25485193589632926 0.719445341410629 0.36358868676670664 0.7499166982778369 -0.9635764307154171 0.8377271518359037 -0.09675801407496443 0.9380738930471915 -0.1209987289368486 -0.29525791963114445 0.6071496596823374 0.9387083111407288 -0.2512479266896588 -0.6543760240634269 -0.30167967160073794 0.7374033764435177 -0.10763172931539611 0.3112109934833718 0.7317712123389379 0.46782765752908095 -0.850209944553868 0.3659816767697288 0.9717197586963451 0.696135291671123 0.009651260788877902 -0.8121952457403889 0.40165253732542894 0.44420799338649286 0.7052955327013151 -0.7273213463898827 0.4178960274825503 0.5766096799269738 -0.06272531212990162 -0.9828339323063926 -0.491821538169146 -0.8631240556585507 -0.6167867167597338 0.166682957134338 0.3468700166432239 -0.20930055035199158 -0.4369461264013863 -0.9118458690389946 -0.9754414912653973 0.40013618805097373 0.6567796096593219 -0.8082090501199246 0.6411709547237114 0.49090956206263625 -0.4547491457381425 0.5830092322000195 0.3580653557578375 0.936728713953185 -0.8312309573700887 -0.82206700784783 -0.25332803507091706 -0.3951133778102882 -0.17634522356445714 -0.13087081255340327 -0.09683036368607367 0.14041111277234108 -0.008538380545177526 0.7521289614874835 -0.028618691489974202 0.1439582249521283 -0.044577458011912485 0.683323159516908 0.2308507637595547 -0.6944658169225573 -0.290112199765741 0.35483454665339886 0.9326616875534983 0.9117308328883367 0.7688195163084097 0.41000179341555776 0.5126945182717486 0.9507763092152521 -0.5536878768451872 0.16190322648727973 0.41152981895191276 -0.80801719251384 -0.025363723917482872 0.6141605221976489 0.02758815827503902 -0.6338457651664502 -0.25283366508653793 0.9750063874488821 -0.23631712524177684 -0.30828899005322086 -0.5222989555051096 0.41655573538917623 -0.16063242703611436 0.91347720054315 0.6107868893974386 0.7789809538158605
0.021130739124473146 0.7652908194751924 -0.5015965848659228 0.6188981411160155 -0.1282933059561917 -0.8113351322079114 1.544990005170246 -0.753627118795126 -1.0409568911948788 0.5577594959471641 -0.6721232692079537 -0.33254618154990423 -0.20457435588782724 -0.07906483710794454 0.8894318756705037 -0.06263800400313402 -0.5095245511992677 0.41721678667007533 0.3286113834791662 0.8226435643583154 0.9377603910123662 0.9302459802167393 -0.3456132565508274 0.0025735774785393684 -0.9656928087654488 -0.727321050386587 -0.23585565788149898 -0.14385182235540328 -0.5190240963482025 -0.8388293169003713 -0.3845122336917217 -0.4404928343827248 0.7830147296338268 0.9288540655296427 -0.8725083394279041 -0.5651963607782113 -0.49736606330317823 0.4826930021815363 0.5384847728489752 0.37284300581756313 -0.6177911313519382 0.921424867756331 0.8195579091281211 0.0702757737637949 0.3444523329758227 -0.02887459878612142 -0.12505324080260505 -0.9678295525399132 0.02337715372630056 -0.29054360370797583 -0.9200061205946355 -0.9375365881125945 -0.3287318561439394 0.868600983612565 -0.13453444953774185 -0.5312601101770509 -0.43995003024105483 0.28685592385712533 0.584729628104032 0.8477704683325882 -0.6607210928818346 0.38762715169077677 -0.5497529219884019 -0.06590182593463889 0.39205005238308077 0.012484982556898894 0.858974938424168 0.04594256482573922 -0.34884800065709154 0.7407227132779011 -0.7828536402808497 0.26974119409745656 0.9951719557003349 -0.567324025397808 -0.861248893888672 -0.8470754024275005 -0.4524870408683175 -0.14365496102857245 -0.1885713882771698 -0.016968842963991815 -0.22607739455219988 -0.8612447990647021 0.8667322617220747 -0.1449945467062259 -0.5719617599510365 0.8076939937113328 -0.8621190074395144 0.5795331019550041 0.06507321077305828 0.7886463497539389 0.7213959970733486 -0.6985171269368031 -0.7220164801002102 0.6210516947878528 -0.23119681208058096 -0.4244371730254777 -0.467207361517346 -0.9554759578214014 -0.5097400370680056 -0.12737312093627784 -0.862925559569981 -0.14201866628570725 0.09704593739416967 -0.43215853865021847 0.8654111873584165 -0.13416046357385936 -0.7979850722997504 -0.1929514088191775 -0.9008156969662804 -0.04602950040274334 -0.4763180322906406 -0.03769307173817493 0.9396678555425992 0.11805688155875305 -0.2557028588557697 0.6081493314683017 0.25015620336839706 -0.46584188282880734 0.42785858198248405 -0.7793307628740853 0.29829281686281073 0.577254848496848 -0.8255355150366248 0.28826181901813386 -0.8857539274885953 0.46525153282757237 0.6460621179468573 -0.6637666246400753 0.9605167856739358 -0.5285794891121731 -0.08026282084944691 -0.4861324208748279 0.9275155816069054 0.04624692259923946 0.9066504230808867 -0.205700822582916 -0.40529867785534823 0.7036383413842768 0.005439855084093281 0.9980346176959942 -0.9012887228418953 0.9332105794016716 0.4523340394913169 0.5830495199430543 -0.05834471137630581 0.6685617526876666 0.8045749374700375 0.07260415717216051 0.11106651513368693 -0.33934640237858216 0.10045607171315818 -0.614668274269121 -0.8009166326598378 0.7166036103961717 -0.36557961053471 -0.6395610151866324 0.18543890647631844 0.2346203915458993 -0.8497785783379137 0.3388018112878879 0.6299120775369933 0.6505407069580851 0.9950933094326855 -0.1909374031280595 -0.05842048285929846 0.7257495095373301 0.23886285274507912 -0.4900367230866154 0.5341567983150994 -0.6387599753787474 0.5037651576466649 -0.36379693886508235 -0.6783442919641851 0.923707916900943 -0.9641950075617265 -0.020811306751237657 -0.513343726408874 0.7450468252376583 0.802996578729742 0.930558703966093 0.6940075372947265 -0.7825627710785246 0.48191257618267547 -0.8533612577574776 0.9956679056281343 0.28316124790977404 -0.692629149917289 -0.1300738494706173 -0.31297326261002967 -0.18463065374740406 -0.6201364179645692 -0.11281376611747307 -0.7278930330289681 0.4809114039073228 0.5519420007455609 -0.2554038093788009 -0.38360427154869114 0.11337261966858869 0.2899755794158805 -0.3517020494520364 -0.6210746330100658 -0.42973714246991346 0.25236199481780974 -0.8711698612802168 0.2652521144514264 -0.6619608924725913 0.3088459262069032 0.5572528092113023 0.49693749224050965 -0.09262731331237162 -0.22685966846858396 -0.9580119944861791 -0.2481133776554465 -0.6628590895756228 0.9862416594358621 0.9967568684607988 -0.2784855496362728 0.47999269575061754 -0.9140175446464232 0.33565682436182454 0.5117201306341199 0.2163641854449505 -0.6838742683189531 -0.2648440838193631 -0.35408282129521984
-0.44745915194595587 0.04974117443170378 0.5106864210386124 0.914364461128534 0.255450711842202 0.652014742434518 -0.7023880315220241 0.4494327703599448 -0.9012120508688259 -0.3702646721752274 -0.8354320985755515 0.2781416928432634 -0.7865284788300189 -0.8123640047181666 -0.26339121197379955 -0.32894649905411 -0.6349086465160991 -0.29500913086038083 -0.924552579133215 0.9745261298475125 -0.04597855526022632 0.1978022432583535 -0.706734155951386 0.27769481489634273 0.38754286762958556 0.07630320640702482 -0.8882147551808468 0.5441958550420722 0.39925091832858306 -0.05921193053349816 -0.008300810157301886 0.2833950695431935 -0.1394344856941805 0.5427345465527802 -0.10333072029799206 0.08193375564276484 0.06723602790577599 -0.8806649261456507 -0.25959734828687364 -0.8373936973717635 -0.050160089326065194 -0.6187772064588841 -0.9164105323443754 0.43549102501935444 -0.345939221347336 -0.5689228393928636 0.4417328587256457 -0.012038893213204727 -0.34195121542445683 -0.8394335779124613 0.8219912446164508 0.5178965873571368 -0.6821727782086735 -0.039877720122161175 0.23217010910775393 0.1602634089413757 0.954326693703218 -0.4269159783028127 -0.9107586594342625 -0.08187768613071755 -0.3329941586542189 0.16602646714668134 -0.6088852484054352 0.8878099399308568 -0.5884347256651234 0.7903677013292567 -0.38672460331118486 0.27645486135618036 0.12714067767390014 0.7399798352694451 -0.4143812062019896 0.17353883141737714 -0.1706133687540452 0.7165011006645741 -0.7565818161681048 0.4985807369150439 0.2675981730430763 0.5962675751034177 -0.7695743257798644 0.10171939161970056 -0.9157752299394526 -0.8990625035567077 -0.9403150688870912 -0.43839569686520496 0.35427940982756767 -0.9010813481628648 0.6254457861404443 -0.04765291312722475 -0.32253171724679097 0.8034008314999621 -0.5764541978661253 -0.2674165911553088 -0.41138647012356633 -0.6131122245552256 0.7258008424298079 0.7683108425356124 0.5269650638520584 0.6332955007706107 0.36800194649941087 0.21442877036677732 0.7636571079576937 -0.9612930205476857 0.9935961017777997 -0.5081666854143165 0.4803771160564856 0.9448966281210001 0.7218413511233757 -0.8727972346749917 0.6065266948452992 0.5950060081640838 0.30620448858367366 0.39440440241921504 0.8187535749611263 0.26713454548476645 -0.018093011852414742 -0.9496851888568658 -0.8054727713172456 0.540609768444311 0.5761757653026791 0.5056436262273736 -0.7129810988298133 -0.7460164908499669 0.010354327100504213 -0.2584065023221118 0.5459311635393698 0.9664757224094658 -0.9214439701234771 -0.9152628998472436 -0.33740330752099457 0.5694225936816999 -0.6175077868223788 -0.27259280304425393 0.6820945461221679 -0.2027698011651482 0.2912325534382705 -0.25961394429563844 -0.9434805447734389 0.7623920353794997 -0.028861907051255242 -0.8005221744112794 0.09966992150402376 0.6494813105525494 0.3027604800078436 -0.9659809167128701 0.5924190972000056 -0.9993803537769619 -0.07485185906887892 -0.7929190139748272 0.7796979088083804 -0.8650563418162454 0.8624682425301988 0.2883655999868797 0.8063160806835927 0.8696841178249051 0.5335820118644785 -0.671455335213615 0.11845244322103454 0.6026903710565805 -0.5170386707705634 0.5924729213701254 -0.8628222457000136 0.5028209301332689 0.9133435700057555 0.18491424027361503 0.6916243257333659 0.06525638940878986 0.061627709954819254 0.8432759810015664 -0.8824425103757947 -0.8136433375011858 0.327848323338928 -0.9145193757650569 0.38438094746211937 -0.8821846828585402 -0.6248866331702483 0.699584875833591 -0.21406784527195444 0.8914054034606553 0.900278055241069 -0.763227687609592 0.47203997836054223 -0.6378307625332424 -0.0427558190875541 0.2541484075458238 -0.21629854407170201 0.299216571682587 -0.7235765438970152 0.44192524854303095 -0.18922067116411 -0.12447492872357091 0.493751929882452 0.3184788013170474 -0.10925322534897264 -0.7593899103075983 -0.40491545331611767 -0.9524226048913456 -0.7820737522919001 -0.5061228522977277 0.17617945036079652 0.916612615576254 -0.7694580133775921 -0.5999068969260684 0.8247167548599239 -0.6935471682788936 0.01878354075173383 -0.8507362934428968 -0.5618134058990198 0.1103040261443109 0.7186539114991841 0.07248102625870545 0.6384620195602082 0.21921756300614348 -0.6073896789332782 -0.9088517596800936 -0.5375643761928222 0.5605361860107043 0.1391222495388098 0.7291658322311811 -0.19958134759226276 -0.8920241615087678 0.023826902408235817 0.6134448781005668 0.07377768394982076 0.03316684091280431 -0.1822934779281551
-0.3227589388179146 0.07031702978192911 -0.7111864646423639 0.5343659507278471 0.7324060953097977 0.20064157129606985 0.1456774793942214 -0.37622480763728694 -0.737045719060274 0.6737692847211227 0.38333816256477715 -0.04626576941226124 -0.9927924221355329 -0.17518162123594605 0.09041570309774061 0.7821884024507664 0.19811469622377342 0.6593351379011549 0.6543439449457806 -0.29558363556348644 -0.17019665094117853 0.3083093470726155 0.047657876701489243 -0.3344327847798134 -0.39417834951568387 0.25381216071912105 -0.37363515810748993 -0.5702383474660013 0.8057297552138964 0.31016522620567333 -0.032483505021236425 -0.5999187776968058 0.8863094520431478 0.9766760703759916 -0.6914851107886524 -0.20892986170072914 -0.859055960873659 0.6950517902216822 0.02132028208627701 0.9196197418733958 0.4156821134209834 -0.38396716918574003 0.7903063138265469 0.5093775884546476 -0.7359144298214 -0.434064200873268 -0.3416721949125834 0.04815212487738485 -0.04852925379264206 -0.9595407009797512 0.22728088264644186 -0.3860235631822866 0.281855844655847 0.6665010650984473 -0.3720957201246624 -0.6892189318408348 0.21087556859827106 0.6437917193127378 0.715724244405024 -0.5437228649086439 -0.5505795058292253 -0.25525747711614555 -0.09191985276989967 0.17700023664587872 -0.6757508821635596 0.8586356548486218 0.8525498292261333 -0.8595160695762569 -0.5858449054546353 -0.1753953760681386 -0.11646984060336152 0.18753845051407958 -0.4657005567173218 0.8239864628412097 0.8059906859947563 -0.8864246623825656 -0.3792913437421659 -0.6036052753682848 0.02783573575953291 0.512906662459478 0.5137211611474513 -0.9391313949177189 -0.6234592095614719 -0.6463942297456349 0.609811709830997 0.0968411169041763 -0.29075412229866493 0.13700780415858294 0.40074815621508364 0.6019560832254118 -0.2794356129717115 0.12786464354725213 0.5896406455465819 0.4484559574514535 0.841630612698923 -0.20457345854701248 0.6010783976483858 -0.047523117690722705 0.4852748559121023 0.7992969315065119 0.624340776737655 -0.22991754890728555 -0.5327359148620643 0.09116750672064877 0.8568204501743353 0.13557027757224693 0.8722465692053216 -0.6410609297162282 0.9901459581234242 0.6656998445822775 0.6176587981703241 0.04594707177086699 0.27100043724779854 -0.37557780839516997 -0.1123115964081074 -0.07999801689746633 -0.07849654212238377 -0.306132508263522 -0.009012028942937622 0.3864177929789574 -0.04065235213565277 0.23974178200914653 0.5827497380697744 0.8689261401305342 -0.32352877427094984 0.5658752097923183 -0.366432959364694 -0.135813579676884 0.8113170844414317 0.06966529519599463 -0.786841312189908 -0.5370974301860421 0.7607056458346859 0.34275047831908667 0.9868440348846197 -0.12554828581700916 0.341063677187059 -0.3029897833874269 0.16502530183969655 -0.5691705034991059 -0.6458005577507706 -0.14296887262422353 0.1947290196200826 0.940907501447388 -0.9666302651166481 -0.499173724631776 -0.9254992208527886 -0.41794108845760936 0.7808589843418448 -0.054771789257047176 -0.7635270703161516 -0.00935691816867057 0.6071086638676944 -0.9705829265570247 0.890864267780999 0.0446671821415594 0.1711022319083726 -0.05976670143331053 -0.9818827184615959 0.4250199552836982 0.931737812828531 -0.8590695586751442 0.4434484156568663 -0.8644711782222287 0.45247277522727725 -0.06451536634332267 0.9746097008319834 0.0036410805086908304 0.42828520221754607 0.6223899970107589 0.8366813036728398 -0.00576489544606229 0.3112577078842347 -0.45891760044716 -0.009892368130744789 -0.2546990278695995 0.28368751680552795 0.40844706524430796 -0.7556567743556559 0.5361824598894243 0.7425845505894131 -0.45848701504199507 -0.1591525323804226 0.5429333078099945 0.5683915099126713 0.5056389689197578 0.3869156450733402 -0.20930012602701353 0.27799887509813326 -0.9425184907245621 -0.17731983351875025 0.47423235863341295 -0.3146216791051226 0.22429714489671082 -0.30652038597129594 0.3156841851865473 0.6264749292785949 0.053250814994940665 0.8346076400953091 -0.3295351425563573 0.20411996049607684 0.18463868602042677 -0.04260564338709383 0.5185011287708265 -0.48295538498245394 -0.9536303955812331 0.2324780200704939 -0.16872655254909907 -0.4425164187910189 -0.009183129513405941 -0.18450840944427727 0.6852149895342758 0.4014530000056804 0.3521128363970454 0.0017852501034252288 0.06909499979196698 0.16811493926709087 -0.4422580576953221 0.2749984480328942 0.6211495263485176 -0.21308615797035846 0.018954245653101554 0.7677169083989732 0.0695207599019112 -0.372959606527016
0.17257301763712568 0.043272743485460285 0.5988982428755363 0.6700213547465568 -0.3604406964084703 -0.02915599662876045 -0.7590613784579876 -0.07315490617709153 -0.9591128298892948 -0.4931823705163578 0.39738877285590113 0.14401887520359247 -0.2154329241409927 0.875374219359645 0.7171441361712214 -0.7510641910241331 0.4976660943270472 -0.6627410348705054 -0.14769000803669274 -0.2840156849664748 0.30170895645537765 -0.7998604456780116 -0.16613757707784682 0.133330362617879 0.992586331823865 0.863953525460317 -0.8763813277797732 0.8679598439785918 -0.7178645571996445 0.10533849322673317 -0.40987057012195494 0.588540680529013 0.8265716270572601 -0.3398210540446762 0.6933672890083502 -0.4394900424478587 0.5959732644181961 0.5600733546905459 -0.07989480289017958 0.9032520981868561 0.5776873585604272 -0.3854588267382686 -0.21864463798756395 0.24897242262725805 0.7137884053415247 0.2060971243417391 -0.3491012283305859 -0.08024367721492087 -0.42303840934023773 0.4457036672736503 -0.9814522511611838 0.9317699668846084 -0.2761750346530989 -0.22679180365015728 0.34692100719012275 -0.46994660668388866 0.9187172543165532 -0.8757995074236995 0.3415741603894138 0.3175262698484844 -0.5232334944485697 0.8429470426095276 -0.9050958913415108 -0.17489584850857187 -0.8008282823637682 -0.646886685883548 -0.7292129822433688 0.13240477150729557 0.7176608200359194 0.5658896230637247 0.9231661171446557 -0.6497708281639829 -0.4136893306642948 -0.5258108808383599 0.1043423636950167 0.6907451895580203 0.026005975015952698 0.6516178878132972 -0.10564891857495495 0.4716996307365937 -0.07395011546649499 -0.6881311341968321 -0.4973844477033509 -0.8390460201927494 0.6243009919781293 -0.007452370763321836 -0.6404224760034487 -0.44719331940212514 0.8943883615424997 -0.46883055194501666 0.82230269715168 -0.5024487021439246 -0.9465113220261898 0.7286632607998917 0.39421359922877763 0.8295014632351516 0.976183852295958 0.8970254494904721 -0.027696289198124502 0.30808516383903695 -0.8047211443265045 -0.5649924020927644 -0.3786319924914605 0.8415399212192165 -0.4168840477916076 -0.16991339339433043 -0.11159841672751991 -0.8851459102054697 0.4188058221908417 -0.2612205837679362 -0.16570302249303337 -0.8159617489830777 -0.7381212499519547 -0.25700467314880315 0.5190942200513207 -0.8198160455491594 0.4484444788559976 -0.8438704993059016 -0.12962042898406678 -0.002251329041487393 0.8970600941211537 0.8658182351471309 -0.05243877020677079 -0.7055972816634781 -0.40610471525610414 -0.46943168402585056 -0.9785004106942057 -0.2380586701957168 0.9022988698569514 0.3965645147709964 -0.08879542592526124 0.13821566605193603 -0.3770509438646934 0.19425850909084486 -0.895919590715551 0.45257628050355536 -0.41523367901853914 -0.5295613900831055 0.7291002939994973 0.6412208684366889 -0.688377894557771 -0.5612227323853369 0.46360939209028906 0.5605617658994513 -0.16387903093160272 0.7724154167432684 0.5124503159840521 -0.40419738827411744 0.45772428859241954 0.7966574444369725 -0.257055843822811 -0.9939939846574741 0.30696852141939224 -0.9751328590991335 0.22200531389003153 -0.6270682410063722 0.5351322577850444 -0.2893464617713559 0.3694129287778658 0.5089421345319862 -0.6438587489636063 0.9737662872199901 -0.7518822908056493 0.453150239628449 -0.4396753164772558 0.5722089369069694 0.3016018089220325 0.2803716714501767 -0.5358825680670083 -0.09893026925905946 -0.8838096236573247 0.5428482295577377 0.7774127619039393 -0.02511143743046862 0.5881324761755986 -0.7273881268810387 0.0753439363963635 -0.14398990849902704 -0.0956665890728956 0.9700812243434429 0.6292650457288607 0.019029933801244958 0.27904428134369996 0.2538865039049494 0.5100045052387003 0.853526846965666 -0.4521575406459841 -0.3006242837383666 -0.04005283095869894 0.9899400283446642 -0.9581872033415018 0.9835932773227358 0.32574858151927377 -0.16867579458222992 0.7915638412127037 -0.20429708666673219 -0.6206739442712381 0.8096948490303832 -0.8980570332976641 -0.10455680253414057 0.700705269579819 0.4338846685452511 0.9452879540880073 -0.510712302109539 -0.16835853686628832 0.6807690883219839 0.8039896811944192 0.2691205974705688 -0.8194624157200419 0.6481400318929014 -0.49343754817182695 0.7648635384185585 -0.8418849298194677 -0.3938526929138684 -0.2850546769708091 -0.9644934743892848 -0.8996110980877228 0.6748277473638116 0.788779023396105 -0.3676615917858783 -0.2952120039601105 -0.8496681007099984 0.8479283500967167 0.7441955555230662 -0.9715154627422085
0.7166664502877673 0.9098574761155593 0.809330231260126 0.6969771338641504 -0.314178348742727 -0.903782102628915 0.01542626897032906 -0.7600680031596225 0.9998686367663714 -0.9451181227489245 0.22262518138702103 0.2599482150474286 0.2232951220118966 0.20133557322722595 0.20211414463993815 0.9416777112216677 -0.9474844663337196 0.20960217798554814 -0.9144882551323679 -0.8665941879469239 -0.3816379010023705 -0.2537610546704059 -0.5027129775707078 0.6286099329912895 0.5959554858818441 -0.13561227287298827 0.5366647839334615 0.19412531710003944 0.7079131878090179 0.7392261498085568 0.3951721638319383 0.3988675756825153 -0.15854294110976164 -0.11770098489312253 0.3331055840059678 -0.44866129840917535 -0.9563535458747985 -0.2619406649787417 0.6458562588708223 -0.09772220464410486 0.4114487382146492 -0.05686687001984336 0.4987707186266861 0.3783865217003375 0.09743270004679205 -0.6978349337765901 0.010409087796236838 -0.42432196002857125 0.6729783145694936 0.5231992218722017 -0.36860089309501953 0.19289710787591008 0.4338337878474601 0.18971741540273235 -0.14341578335125948 0.8391751768083284 0.05653440625630246 0.23731888932216472 -0.6952115741915965 0.3920453611610659 -0.38921541313468055 -0.3049673677416451 -0.909562137528366 0.7713254680443926 0.0015391592328286574 0.6563751615979116 -0.26002562995020573 -0.2883382918364443 0.18771579908503533 -0.7982516352477127 -0.11909046470890416 0.7413687530968005 -0.6969164144671525 0.12588977977257976 -0.5263554096191005 0.443066774939169 -0.05992665496354488 -0.9068220227144339 0.08279493651811709 -0.2621494350155591 0.28688833253067836 0.1271593531057349 -0.04053198747301856 0.5068992056564665 -0.9445832245421459 -0.8049430181859767 -0.7540067281949623 -0.5259065434119421 0.8506620535002951 0.2943011267570037 0.029461871514171234 0.4884672234230556 -0.0861017413261127 0.7373246336297288 0.4861846801722316 -0.31146888047346155 -0.9587799291571442 0.6994987186682495 -0.12242949745710474 0.5857447664094815 -0.5486089474604798 -0.12789137656132565 -0.07888965984566076 0.7035689025888978 -0.46137481953718695 -0.3979083964529522 0.16607963399085546 0.015425587794998696 -0.7344528376572037 -0.5956488626926144 -0.583503217575823 -0.2747310103300302 0.051301482171633994 -0.4556782791536511 0.09438684651134643 0.612429297867445 0.994290478882913 0.6823349667008791 -0.07396161974293514 0.6528851122722026 0.8867478379020035 0.7512040549873482 0.27073380652713963 -0.6544453959982279 0.3891084514059826 -0.19929928923708196 0.7745502851584165 -0.21256219553843225 -0.7424291888950221 -0.5839999655893893 -0.4648111505343384 0.1394451586272356 -0.9296721804401216 -0.8374774789238368 -0.3546911464111644 -0.7021752984872189 -0.9691185054109386 0.1605017338711383 0.13946510184004723 -0.01634274637590205 -0.46630220637336506 -0.09400455492678739 -0.4754906055575536 -0.47662263867168475 0.16145389830850743 -0.8635545309448243 -0.9690988865298282 -0.34667699221788517 -0.7791058137546789 -0.9073559912212286 0.5804732367862862 -0.5795953477282101 0.4794217719089342 -0.5265798516897435 -0.821454466762416 -0.3890115691208267 -0.12945607244084378 0.17233376786143628 -0.4640568289554383 0.9346794729736447 0.2727944756521681 0.7735484482970676 -0.5514197640089282 0.895049440419414 0.6078208209114713 -0.1532526045295095 0.8200772899922582 -0.677244328630149 -0.06376116787620312 0.3414439426598297 0.7328553523667467 -0.8486722456601004 -0.9663028268945346 0.20152020133388704 -0.5579016049623204 0.8316420576372723 0.5289963657093093 0.12288788809566209 0.23557927406175505 0.17545177612819285 -0.9075740595785868 -0.7418834769567793 -0.05721466729912272 -0.621422356642964 0.3762827345591022 0.012474504088481941 -0.026198233397535464 0.7691102631400124 0.29624009603040724 0.18319694763081906 0.4320971612426572 -0.6902923443118294 0.4047893352902192 -0.3189244182681743 0.04760113311579195 0.08993068803586457 0.030127837395004686 -0.05136401746177599 -0.13934345632426437 0.6554769390203898 -0.052027633518645366 -0.8115564941428894 -0.003752398984024019 -0.7681716807226013 0.9483654498402607 0.4174482592945392 -0.7328605997437778 -0.17635280737179193 -0.19438277603634524 0.670601524748772 0.3409926615478891 0.3232864983034598 0.23141408186595913 -0.4867556313342769 -0.03004990688408915 -0.435241410273947 0.493328853489331 0.9603550334408548 -0.730356593860702 0.945132934744038 0.9737650043268302 0.5767272106193051 0.3799585215994312 0.8125700242006371 -0.9834237455153325
-0.38892705696122215 -0.7411411849011706 0.8994340063291537 -0.5391425041269906 -0.5223790744943009 -0.27776952667416444 0.30275544958278766 0.3101549030162192 0.9763917409354226 0.9167615913608378 -0.04193898426048426 0.29902683153219933 -0.21019954689426812 0.5046473846674959 0.15117411310100848 0.3654646636126757 -0.6064492905681365 0.8699900701300263 -0.39587737462554107 0.8405824078036972 -0.4569266410792334 0.666017476134924 0.5541836640739657 -0.3177828740228179 0.9493526830972385 -0.21560918552593433 -0.701647595106148 0.4009097350149209 0.1009615567662614 -0.741940781943816 -0.20422190456199418 0.4795780593014227 0.9029725067736432 0.06925988591477705 0.9635263864743338 0.40358319216448524 -0.2233158932978685 -0.8934408827757132 0.2564245909532017 -0.7145582029737434 -0.015752171141781623 -0.5072932286244543 -0.5920229135607908 0.12572089038061107 0.34718103316078186 -0.39224259838248243 -0.13043068106653388 0.7239276076028047 -0.6075987015343873 -0.4359432971795374 -0.23069493412015163 -0.4426861689889514 -0.22068797900746362 0.13604838158887222 -0.5194060045343931 0.7302034561234312 0.9814113934386663 -0.9032722575241221 0.6352771441191942 -0.9609552072692473 0.37846891494506174 0.8552481194259591 0.13817431974574013 -0.4961729014736549 0.22984257188228696 -0.7615707212397298 -0.8763061348269838 -0.1975107722725682 -0.12750929879385242 0.5207271374561138 -0.6274481401716876 -0.7492441534125032 -0.5600248740212632 -0.7083667590158071 -0.2775414399525098 0.5413762144029146 0.5926245947586712 0.7951377000691049 0.5178469126239178 -0.9869660639968321 0.9740799361535257 0.3175762179217798 0.4614712889537267 -0.052706470910613756 -0.07608372370248873 -0.3838785321026672 0.8439089267229409 0.33310258858397224 -0.4106708756065227 0.7088132309490924 -0.6528651692674516 -0.2307312076317416 -0.23116918007698262 -0.47214677416965545 0.5132201918054269 0.7643990579926856 0.398929277162281 0.16900461507266162 -0.909301132557184 0.6959760044612047 0.5249292315025946 -0.6594560736057471 0.5710344669599958 0.5705437111398632 -0.6216704668708444 0.4290907495153651 0.24938749201547283 -0.18064603233903864 0.42926799291876927 0.9013642689820105 -0.1270284109688793 0.4771954971724308 0.03481646401653604 0.6898136696748287 0.19411549764937397 -0.5768106348437707 0.6202733772681557 0.9061666805771196 -0.9607159651659587 -0.8306605757414405 -0.6152985190523679 0.708350113647634 -0.22372639519952875 0.043095112319260886 -0.4028492729351014 -0.5636257441599537 -0.8840701899244394 0.3091670711582706 -0.7381114274637177 0.3880984010346158 -0.3748861170386639 0.48069591900069697 -0.8445194474154782 0.5655121755785391 -0.8948116653802922 0.28783482701310725 -0.19878608614152005 0.27523918723228036 0.8888981777190936 0.7812005081033768 0.41368486286263195 0.9915140377890945 -0.6480636328498821 -0.7321418152548516 -0.06075912957062313 0.36943080179662036 0.060252497431108276 -0.14900401441115774 -0.19548220480161715 0.5579583943934021 0.893860679800843 0.8754040172863093 -0.3595812209931113 -0.8069220798983385 -0.16641309418892525 -0.06957761951383468 0.828591265817447 -0.09692914980384915 0.8994395852388299 -0.6291313111233474 -0.7466458098572446 -0.22003979864682388 -0.028356953471115 0.9259017712646092 0.14910283213096287 0.7131930156021333 0.889810014659234 0.044452879950553026 0.4866378506160125 0.6099297565142268 0.7813629006597385 0.8838322173655875 -0.3343815025966814 -0.34709000890541253 -0.6688813665299833 -0.18318536955049702 -0.4548123646429687 0.9970689901390266 0.4024605777535737 0.6477080857274709 0.48793952913438554 -0.41263892268774516 -0.7088379997884555 0.056599213076582 0.0058302783299808425 -0.03028562993122952 -0.47695451213501117 -0.8578967166360754 -0.907071831176766 0.591715373631637 0.5999821511117633 -0.5452093195436067 -0.7542847971389488 -0.4864032876890738 0.30754713175707726 -0.7080627098111609 0.6266613346579952 -0.6111556594519358 0.3119659081937307 0.20846987903542402 0.4469150958616046 0.9119331525535388 -0.21167648232309766 -0.15239232221892118 -0.7624102932966366 0.5917101311923911 0.5592081715137645 -0.7486412250495211 -0.5695533036325728 0.06963489484408236 -0.9633181910894766 -0.5225407255602541 -0.7067116915830867 -0.27614076718317326 -0.3134073164976483 0.6218360217235943 0.030842347261349268 0.9313340654847617 0.7356863220147556 0.08016454933709127 0.05722552638431999 0.8524015736451807 0.6420202817298319 -0.27586640947727403 -0.16975073901851379
