-1.3164856530590288 20.96919554261418 5.117513667611061 -6.161514838119152 -6.726995823762368 5.356260941343865 -1.920596293031349 -1.1756318674156838 6.537400228781183 15.035023968411277 4.695290287618517 -5.330468991108682 -0.06252192720690279 -11.308968263906998 -12.66878347369097 -5.808897180528187 -1.8893398626242044 -0.2164604780033738 12.604817516933114 -9.511530007658969 25.264895175806096 19.729634886525957 9.965587212105389 -15.501716596170033 10.918341546404351 5.220315169464292 -8.28196742970974 15.719254149624268 -8.992795709415132 -6.968975780651097 -28.652681531379873 -3.020824983192813 33.52001570692894 -7.694599828784 9.8999930942665 11.143690191197566 -12.968650552380725 -13.035617323030996 -6.532559523328117 -1.0261813020526 -0.9552434480086889 26.281317837796312 -17.000692423296023 6.374647834400508 9.32329300178204 3.6825267309273784 -4.198897854891129 5.7083106309425045 8.648669110801638 -4.129496035649973 0.4976012117150266 -3.867072291949212 -12.427215235872017 -15.763849889098333 -1.5338189960458513 -15.919734905356181 -3.4595785649964323 5.987742545355712 4.4654811252448185 -3.7712182354957005 0.7016202838875518 -9.142160951325241 10.122671672739642 6.643419797439519 22.19431561256568 2.424726404904013 -9.735829485404787 6.8551655291281985 -8.908852618235933 3.2072313172964275 -18.564410552475604 -6.765029183969597 14.167051952870294 -11.431638291370696 -9.434574911154643 -8.493664302868257 -22.97945916160413 14.351183912740186 -8.932301794371721 25.653470415949972 -4.706496229774258 22.365489402635774 -1.4729325637764379 2.943589741498471 12.473092712584458 -23.641505785958003 5.643386859022084 -21.140204830022867 1.5003128849941043 -11.637417186028275 11.633888460922154 -1.6694657417593426 -7.338652541621859 7.937579586794281 22.353295359134254 -27.75955135899409 0.8577475175006007 0.591336835867802 -3.2631770545421555 0.35892474179549266 6.051576770240058 -8.073222716523182 9.408603606542654 -6.555680874643899 4.030928228006703 -4.332808063546101 -12.659988985325949 -3.409997696899521 0.26266192373371766 -15.349902876995966 -4.527989034697907 -16.471176711123235 -14.061478262882037 5.133011635706701 -5.817116175647794 -17.625722625941393 -1.3629172475942906 20.170972732941692 -1.472697099656796 16.282421374594584 13.14818108412821 -19.691753477048003 -7.294261894984219 8.073616927845977 7.944525117816024 -10.483358737840867 9.27910884628672 8.197231382891994 27.451800931375548 -10.134116870240982 13.543302379043809 -14.725654674550142 -3.4090920384728682 -8.754042868896349 10.122804147854408 -37.26323387287279 -15.124427545610162 -24.821274632641433 5.749309832895801 6.828057966545126 -3.370495846256571 4.380796869239276 16.741587856559438 -14.082344170853858 -15.247132673137811 10.203541851637745 -1.6534986478261025 1.9411828778750664 -8.504521177578694 2.957407672757218 11.449054422482664 -5.901738741439206 -2.0809261638794307 17.691807054876538 0.833734231997552 -19.719527965951198 2.735507718284958 2.7227204617760683 -4.870262978060827 -14.906080678299396 -19.416789907438126 3.1679639210825434 7.875451687747465 17.014640905761013 3.347713028388927 -1.918625032947792 -16.467342924580638 -11.525599141244077 8.744530112463565 8.20706873732607 1.272350309631006 -18.621600858463392 -11.849234869069539 8.510520095709893 -28.6872152685755 6.494719574643928 10.10537172496756 -11.455047268789626 -10.841322889164777 -4.035642985550338 16.36857075131655 12.980932100155982 5.196923716149891 19.593929553529325 13.904581451821704 20.981445423242125 3.4941926174381996 6.0521562430934335 -5.469864176862142 1.398185859337921 21.25414000651435 15.179943001634744 -0.8084618148632189 6.574457497389504 3.9517205041755097 10.432080650726608 6.850587142287528 -7.311664178064948 21.023211203105486 -1.8485005216314634 6.41639704146903 -0.6642179847359548 -12.28415756122942 -18.74617083212166 17.90819538126751 9.564492760809841 -13.271724893816907 6.034008360840136 -1.693708513923347 -1.2184320258476247 2.5370823700727314 2.0451296979646285 -27.79041405150969 5.072239974599195 -12.762587500133105 0.9928783011052686 8.244961948799364 16.07164798376505 2.4690302382383194 -11.592094073107338 1.864140281687996 14.17562359594748 -6.596698883736073 24.54766093240913 0.5025895367371096
-0.7302218188217134 0.9190732679813471 2.532860585133086 0.5115273640035107 -2.0426563864572227 0.2499219550914441 0.1090941147592914 -0.1578786431381145 -0.6982025819217423 0.6956961115764609 0.3932216092834476 -2.5842127217089446 -0.5485330291044462 1.5352548796324266 0.1482337739728695 0.7061656964369278 5.462630195571412 0.19304037506315985 -1.5715567993794413 2.3912095998461615 -1.1793402251148957 2.0743295703900033 -0.46407458950398484 -1.4569904897117802 -0.13993267560645645 0.6113859625530618 0.5889903149064865 0.6269779536985032 1.527142923010037 -1.4693767380857292 -0.5747737956489504 1.7790334861049169 -0.23757220941982582 2.0364104916425014 0.2541741644458298 -0.3127813140335201 -0.18885514837848774 3.0736407401045134 0.47337640531186964 -0.16964954532722462 0.926873316085421 0.12129696660329603 -1.970403743054137 -1.9660108499046312 0.0671657765854995 -2.6858762164501893 0.3686444418054714 1.9114181731683089 2.765519269283993 -1.4010963688094216 -2.4683526556161444 0.7790864379702177 2.718416347293535 -0.5641121932663247 -0.2763552667213135 0.6088292269603917 0.7467711297330203 0.9876422617500529 0.11517456319699095 -2.3121885692801945 -0.46938662087253474 0.3081410748413886 1.0501030985415083 2.2024923970303947 -1.1731771282309151 -2.4381058599856935 -1.145361486898384 1.2893632881525199 1.6073991852495566 1.2652791548229536 0.5480371639040882 0.4202945251514621 -0.46780846938796505 -1.5341051287450849 -0.8040518294472792 1.442221872612004 -1.1487098938340454 1.6363692695417595 -1.6246049779155913 -0.08721895666173986 -2.9855640934048355 4.822741192410502 -0.7106992449231431 0.35847832543668706 -1.2713212911535703 0.15811168133076905 -1.3872597114168101 1.5577688163066892 0.7703808432240663 -0.47944289220998926 -1.592533398773609 3.2362179475703106 0.522498739745815 4.38119165238057 1.1047096962311855 1.2109470131176736 0.2803777877973889 -0.7141028429097854 2.356119457819574 0.38724697830731186 0.5629770488386399 0.3500170073828518 2.2256390944698765 0.05570598355263174 -0.7806308132851554 0.2758457373174619 1.4446882878000464 -1.3408263829990013 -0.29982779426191686 1.7890866232511626 2.0411974863668534 3.84701812466227 -2.3187288090212173 -0.7234502534719502 0.9970365828524781 -1.9782294932665185 0.7320107746278248 -1.714274674901712 0.7451345574760783 3.2830147019409597 -0.47976451007868437 0.706908395123369 -2.7544950183672077 0.42286363888918344 2.777726545459475 -4.87867381001344 -1.1966920085700121 0.5675559711188974 -1.054335032720661 0.3418541759287429 -3.7966850771510594 -2.385126844877735 0.8858746946969281 -3.427981767029321 -2.0338081841449545 2.249116480647911 -0.7303827210626607 -0.2215784020099708 -0.5152631835482447 1.1300716874295136 0.42744000650686625 -2.50062178133835 -1.594977324530606 0.9510666852623549 0.6333552124926312 -2.4549345806502205 1.1741013885887737 0.08783308174213604 0.31165358974169566 0.3458774119582545 -2.3754809181990852 -1.2770943242487962 -0.579068138210334 -4.2453059890454306 -1.0843517373263012 -0.16185358343984227 -0.4840443007283015 0.6245180527684796 -0.9605305656451694 -3.936151481824044 1.0485117622531719 3.560269546430921 -0.5588530704440097 0.5034097463611078 -0.18069949367161392 -1.1686832667135 0.910562646722361 -0.8258540743514764 -2.534313790257166 -0.9151926668298741 1.881655285431144 -0.6037375914141594 1.76111962495026 -2.652645354143099 0.5713080619795243 -0.815105707520367 0.29373872084711317 -0.04678808200366159 0.8943377671686836 -0.8844754475706667 -2.005565004976661 0.8101476764022111 -3.430955723053649 -1.7013756863694645 -1.1348126628792412 -0.03156586226428856 1.4014947853353426 0.3199751572546734 -0.7325564820726307 -0.7945566328896868 -1.2224193347380445 -0.10883807747885736 -0.5275473794867832 4.2411252400054735 0.09741461992225588 -2.9580052934996273 0.6267995883275219 -0.7302145139695116 -0.6591170020650982 0.8414958815198533 0.37976008185538995 0.6582177693133145 1.869866904318566 0.5267977936628545 -4.470268802880798 -1.9289338284949868 0.9745217633024101 -0.5201967253976642 2.225771857750908 2.638536973897028 0.7373190534447602 2.9078717183204534 1.0870343848026136 -0.011112396142208223 2.4972509692063816 0.15714675524324026 -1.8126839483364288 5.097584348493052 -0.783460805054506 -3.074376484011381 2.38803725096056 3.5530764591043997 -0.8494307740133701 -0.39131874125826616 0.8398706563501859
-1.331195376874117 0.2681146610784503 -1.7394420526948515 0.291832346452247 -0.6624389373639331 -0.2920430395670001 0.2806039541040142 1.5940634581524544 -0.9707887577298804 0.09945535343525778 0.3004067029981305 0.8472443343635384 0.7331664483827213 0.15247260674659652 1.214475005138602 0.5038692982674732 1.428365753552382 -0.8398348692273542 -0.7337087704492886 0.26728471057350817 0.4590998636917107 1.3842186485230596 -1.2919430398480545 0.5128722598786 0.36214925664498165 -0.8937686145148962 0.804261662070027 -0.9541710669328165 0.08608775737995959 -1.1182043448433685 0.34329459026911596 1.3821012512533963 -0.741667330684958 0.3703176349357423 -0.4519672133628812 1.7570673598656896 -0.17284908067383395 0.360666206913695 -1.1608080978591526 0.4518321145522551 1.405069576667224 -0.3093576901082076 0.1376191873554832 0.09355197083720145 -1.2592906213776887 1.2924811102365537 -0.9803023725890179 0.15641057292244012 -0.4384636377219747 0.453639689744533 -0.5455865978532006 -0.8673486015546387 -0.9089467656077254 -0.7867662666036472 -1.0833274470903638 1.6946702872797323 -0.048435019867962746 -0.5497481917387549 0.24421330804612726 0.4786365877125001 -1.3941333661615722 1.240556338200937 -0.714824862614807 1.4038287897207944 0.2294614679157995 0.8727055320679089 -1.88133957704682 0.41822067297284427 0.3048387066887103 -0.1387841387835443 0.6978767633581329 0.26871336260583584 -0.388204631129335 -0.37651556356374566 0.4869456518729254 0.053170080021552026 -0.10184337234396094 0.15989047924740968 0.22960877626998555 -0.17572484183967113 -0.15983335095237422 0.08206529578530204 -0.008648836748026873 -0.5017223542274492 -0.7570349149774932 -0.6932357098425165 -0.8008945196151354 0.3086421661325116 -0.25686458432329884 1.621787058697534 -0.8755117180763271 1.341475705092002 -0.44380943322042865 -0.5209563427250941 -0.501248767044065 0.1327026820384128 -0.740314882998542 1.0411602694472086 0.016789013485648093 -0.7868985576772239 1.5330820714943096 0.6203945733388134 0.8766643209454467 -0.8914724752204206 -0.670037106073001 -0.6307220239052559 0.6737755512076663 0.295814507973644 -0.18200216017640916 -0.19113474019928875 0.9208267782789495 -0.9517611182638965 0.2836528174364967 1.7813696177954985 0.6200591475096376 -0.15591585771100958 -1.2715965870264734 0.35307498044729413 -0.3482679840492961 -0.1580686199839481 0.002286568073688317 -0.6497297166272413 -0.9793621097627484 1.0176572110255915 -0.9676024288888035 -1.3395524226129865 0.605031883920578 -1.595828687686762 -1.4157591621624115 0.7236683509948503 2.3128965265243355 -1.6829174237072595 0.43232867191524527 -0.2878491368941803 -0.35034852927829746 -0.9010560752695765 0.41681210197674823 -0.5680339366854703 0.5984981452349859 0.7046939463688312 -0.4068743624002437 -0.9090798655003588 -2.1981422922777507 -0.756879443841629 1.555171948655852 -2.3855336235580222 0.303049925198911 0.11668703417930164 -0.1185884435102021 1.2801258956411665 -0.618203921803686 0.3265189558112276 -1.2329845373156454 -0.13252372740695398 -0.07683574374375832 -1.0627708669630307 -1.6064462480382733 1.2316812570288673 -0.6579999388489473 0.2577971104496663 0.7241903831901796 -0.6211812317462819 0.002948647962446418 0.39376665938606337 0.15078353725203716 1.3625233073639424 0.9522896090044245 -2.4288857997648376 -0.42950419148697633 0.05404549283895353 0.7936918106737259 -0.6070804863631174 0.002497307338934123 0.9874821082474313 0.868791057290965 0.6739354402914833 -1.1697086051582715 0.23852465047493093 0.44267048113951607 1.2010327340447216 -0.5064349490332989 0.6772556318901229 -0.7142177644313701 0.6211196213042844 0.6481970884511667 -0.995178938119138 -0.2683141608888753 -0.3625150960900335 -0.40512224770123223 -1.5216373458016013 -0.022738253988212834 -0.7561698011778021 -0.15854079786770964 0.3304178887172105 -0.6240504565387072 -0.9585708943550743 -0.2052837822741072 0.28906769229636575 -0.552644328889658 0.06266774281583494 0.557296086202653 -0.5543512840385103 0.8247321149691135 1.2678685582397444 0.5508223959079817 0.060723615326263164 -0.5832929340874331 0.2631845961922639 1.2935666514948265 -1.6672855891470342 1.63472564597821 -0.044366169663582616 1.3170982816573051 0.901952509019142 -0.649131704826564 0.28382734204234594 -0.8658676254690536 0.03227630608262722 0.3622839401058739 0.9970081207307643 0.238874036244198 -0.40134654892137045 -0.023370861041019018 -1.9421712294532654 -0.6124490229854018
3.815754693719471 -0.4720093694838774 -2.468473092872357 -3.0912801576901376 -1.313211536107816 4.5713849204389465 -5.636451726754874 3.5424367082285175 -1.6201698146594317 0.207740917110948 -3.2441970355107834 5.486465319919781 5.740942584807675 -0.18215827437102794 -4.690288974960725 -1.8161730910874474 -1.7832006017631936 -1.0854564987363753 5.346241544053172 1.4944178841213067 -4.298355059757297 0.5960757335237624 -5.933346050019241 -1.063794242841102 0.8625415505209886 0.8605013285810239 2.857870331412652 -0.37124847702531516 -0.02694868534138034 -3.468963800463167 0.17768674465169465 0.26419440195400856 -6.277020701497756 0.951603655724642 -0.2017001652849318 -1.9579700823477486 -8.32433295254798 -4.5764417241548925 5.110970617139391 -3.1888589711578725 1.3067394719494905 -2.318318656147051 1.201085898436178 5.742333627477228 0.4408294963970282 -5.847782280912835 -0.9515312637483451 -1.0146429976696905 -0.5788164350463592 10.581216234687458 -6.330720563246097 -4.110320839095069 2.157404927030198 -5.156445151020514 2.269716863914165 -0.9901863818861705 -0.7437029564884287 -0.4867554634699381 -5.2925879320411635 -1.5502430879174145 -8.40579513976306 -5.261232180440309 5.163395893490313 -0.35412110511948414 -1.3006699517472937 4.027466416987956 7.428057075289759 3.9079318716621776 -0.2142403514136395 8.379414578894217 -0.022033313365128926 -0.5223429876758151 -2.147898990040654 -3.112031991638 1.466766115006849 -1.3566979172833997 3.294180606150498 0.25718446796610855 2.5223442914731113 -1.5656732664510364 -7.165654839156604 5.077051849747582 3.429392136666792 8.121127083551222 1.637157974514554 -0.5733750324633834 2.9074444397585046 -0.19203210290190167 -2.0289630681648845 8.93655640678552 0.4837197494383044 2.833829841989557 -0.23732279385968558 -2.8955792915472864 -0.40335429388224947 0.3842319367305147 2.483755701582415 1.5948898539158305 -1.3137310234888648 3.464292994909545 4.913876866749273 0.6103555676170517 2.509246222249723 -3.6809474925015655 -3.376834603779466 -3.381830911167151 1.3989835997349118 -4.248881780932901 -1.9437708892431262 3.4587462791117436 -2.6028683345793655 0.6069949822454593 1.4999017636634124 -0.44591011189731045 0.4781427865006239 -3.0487792059926404 5.714300819265138 8.44392582644317 1.9700446522483996 0.667332010721727 -9.885112894895736 5.3299600941226535 -2.1155421308885907 3.046379963844496 2.590113428665056 -0.2702100900259978 -2.18700987494077 5.665650657035394 -3.4580837291434063 1.2800796245764006 -3.008220973452408 8.958621830642619 8.287489003678557 0.45521075491507845 -1.9557048419523293 -0.8445241826834388 -7.40287864039138 2.1599451796578437 -1.614843901562839 7.292845333028539 2.1427547085403904 3.70443861505707 -4.9456877772961425 0.7800975903902042 1.3723932101929108 -4.711051987542967 -0.6679433987969359 3.070876618455123 -7.07597869396161 -0.6926591658708721 1.4422205203652323 11.501719968873813 1.2667254824345338 -1.476312036139181 -1.2086769384264155 3.9398506446627253 2.8009828289704064 -2.1318348654051413 -3.3455791614329438 -0.6248867519907547 0.03173829073095571 5.380431808299791 -2.963465335868747 2.099320463424557 4.783284272666449 -4.645921542530572 9.689317524235179 -0.9077386649740263 1.2074047581227094 5.703424115525026 11.025070308603977 0.2934928179357234 0.45972784390341265 -1.0848784145840495 -3.3749713790977807 3.9742082844624984 -3.3769135468675993 -1.3649328763620574 -10.702645505242632 1.2793135213898053 1.9251770947342697 -2.3202509727285534 5.225422044858274 -0.6792412000368077 -0.09558880855828357 4.358644777082182 4.555559504697283 -9.293948619656009 -0.9195285321907636 1.8329193778580202 0.3020808503831963 0.8263127764077671 -11.90959829111027 -4.040345779236847 0.48885529610923606 1.7510612054882682 -0.7915358066781084 -0.03582438374818096 -6.499949787344958 -0.7133836517566842 -3.3749110855049294 4.622693420035264 -1.6724528505459861 0.02649171711959643 -2.1700611986056453 1.6637159855616332 -3.26242615970717 1.0927923930867582 2.2247699163157755 0.7247190912372528 -0.5301551118239006 0.5925299930646746 4.698298568498939 -4.782027515388228 0.6473827971412861 4.816744762788285 2.659478344545228 0.36696135797798235 -1.3464418124350375 0.8467215707594022 -0.9139076848392614 -0.11569340777398109 -5.110173469260678 -8.877724796785554 -7.872097700020353
110.05575522336991 -122.28413946767236 112.73345227331822 48.60613526397098 69.77408135995492 115.78198587549406 9.827389319769747 33.252408820140566 -12.404020122337718 -12.524200033032422 48.451957780625506 4.030878318387739 -165.28738302780758 -80.5258791745327 36.309555340085154 146.82688119199162 -53.69207224752796 -8.49952060008768 175.5607891810476 -102.85396291454978 20.650693450866 -87.42107292200407 25.380712925547652 -66.39237368482401 -76.3376706560209 -78.07344784339631 61.29828654097643 -11.606692862057365 -3.878343841540744 86.92969699485151 -98.82582231232199 -7.962279256235078 142.62162343946318 6.1845341265132046 -41.68448450259398 -1.1927157712478358 -96.01408604352103 -89.91695986120659 36.55602283895384 -1.9109208271239537 -112.86579124930617 87.50729779705021 -68.04850930293776 -22.52864747137329 53.68044597677053 -100.01399669992105 28.402208112875808 23.422062698931853 96.44147007373645 72.545814998015 10.471637693238991 20.302878376562386 29.846279744521503 76.0806056461811 27.827267644380054 -116.98656694958112 -39.28680744436524 26.184709043653932 -74.5300156502503 -25.494849179852558 117.19830303463682 60.00590019411835 109.16310258240023 69.11189745797716 33.43526364812375 17.223014980398997 3.6637569654086968 -115.37435156028408 15.038916990698068 -34.61849190977407 -88.47408157472142 -150.55583896299007 132.59519176670872 41.98693499729512 39.15720644900218 -74.57639755518055 42.35764832823131 55.38382180431548 95.20967830256433 83.38128233774279 14.147951032450495 13.34545848860534 193.89101077535858 -63.56227897760568 -154.307163520718 64.71256417431552 114.32401258939923 -48.76730436570985 17.460217460443015 -28.228996020901533 92.56847060276837 -168.22424857994739 -23.437437837805028 -26.849676954648626 25.255643107147428 -133.9577753835492 40.541246586798934 -102.88378232685884 -65.25131442712846 -17.51001787446315 -59.589291164707355 -69.58527376179839 -46.51666867615403 -40.43329210728378 57.53449186866059 -49.335872713234295 138.48216111592282 -39.86889441272741 -39.19707312305641 -12.400323227687345 -16.686245839799263 -105.64593457748845 -74.02484874403049 -44.6720403847908 45.258467461837135 -88.41442511569888 159.68629807244582 -40.638631586065884 -179.90279721681011 -39.68692496046902 50.703321357135906 -100.04375057005254 -36.842918276883005 0.42956293251172584 87.95440352520339 88.99624485810688 -16.29762558802662 -17.00696538822011 27.718575097761818 -146.60713266970453 46.7960802501172 119.02882186511567 -168.7092865111673 -52.9361307000489 76.23881625750155 -153.29206415407637 -91.29256745086903 176.9889654525824 30.397246817111565 -145.77891853550236 89.00780867005682 65.06758269582221 22.635133905257746 -66.95393677769208 -117.82383585759247 150.54587163020085 -190.598494505363 70.4382686485268 -27.493754496019818 -80.22596385851028 68.57182179176334 -59.26577710916551 101.35507424433342 33.85263987393623 35.383207668231634 50.16287296379644 60.137999746158265 6.874253597540944 -13.595084894824971 -7.750117664289485 -4.29246185276862 33.149051937212704 118.16257334984935 -63.53910448843333 98.70872163456086 59.19633000511707 118.07538322441007 -71.67820249395129 86.05384964459803 -19.085434972562744 30.80556414952708 -33.15370019606673 -167.67818697115453 -132.27185912264707 -67.29230579427717 -172.82739631155923 32.73508588796859 54.575161712271104 86.38856523304733 -28.817789956004773 73.17215783122542 -78.11411200994303 61.653195200071806 108.94233455003909 54.16131755184198 37.51114313781037 17.007542844571145 -102.62643117504508 50.16519197866797 74.93095581102558 -28.55911008365761 -83.77213860665617 -81.38616314654458 71.81801568663018 102.15529423733642 -70.29785864444483 43.60057581465426 -20.190273307076136 -76.14007132285576 -3.1258925469429726 -109.27902003169275 116.8998889999169 61.52666195579613 -71.78958524065578 -164.3951616782036 -29.397012269724982 -63.4324984564968 115.45260406681058 33.30842773807706 -0.4021859367790588 -50.38120910788155 114.3478982862421 -128.81345570086336 -112.0361726210659 -16.653870494684337 56.12218850463772 99.50911790679835 40.82869893247552 -87.7706447397517 109.04294427505226 -42.57936959961141 136.8125606742228 131.9664890412288 -16.671276428622246 67.75176176463236
-1.168829387677522 -3.591614115601224 1.1620940820260712 -10.551545840243628 1.2586923337716067 2.3085332528714697 5.291732732832225 -4.648686152135973 -7.251970881934011 4.269070890857442 -3.1117702704073067 0.6521856466059583 3.6105422293713056 -7.928220928332813 -1.0108694835076462 -13.379686106613994 -7.226490752493214 1.1420671920653354 6.404009020745195 -5.049803444059499 -3.161795002726348 0.7232319510909458 2.9058165144882904 -0.6380875576946102 -0.7562900486428735 6.143078442379622 -2.4076503370090716 -11.712694959938279 -2.3824913143730098 11.701534975218664 -9.712385901527794 5.80061489525335 -0.19046690204128439 8.57809487869587 8.141065679187355 2.762693012943634 1.2127094917506205 -2.955273246547582 -2.5152500823577757 0.007607127263044261 6.986443517053909 5.461242548791321 -1.9026936539455013 -8.228310584848465 -5.4716299326581925 2.5656595842478893 8.333561586425777 4.337622652643677 19.444078454760813 4.9278672635280785 0.001398316151587595 7.789579422379951 3.5545848557275774 -0.1362082607635786 2.385566498172581 5.193800684413321 2.753584488397059 -0.8255298259487837 -5.9628297265787795 7.8991928335354515 8.325369590706012 -3.224189425208912 11.725149888701766 -1.199193766012973 9.817585248693138 -3.5410203868196755 3.3114220095988856 0.508567377385194 -1.644979624884611 -7.006130290225134 0.15494012806369648 -5.933443228932123 -0.16713216488189542 -4.173715980798475 0.7018920910989691 -1.9852555648177084 4.537589099034347 -21.80480745203356 -5.320968787921006 10.650562812849072 -9.120970899764918 4.711193440000892 1.2215511927906406 -1.999050035276708 2.140384102855195 -3.5060041421461543 5.591343955540248 -4.323617217416036 -2.5917790221797934 2.344897663406792 -3.8730747053159504 -0.9105875361992903 9.876484252379807 -1.5618307128719813 2.844367546223418 -5.508546906614407 -3.1472791225906467 -4.056996976622309 -2.8260039139081 2.3133805579020668 0.42717123336942986 -0.43482237269176477 3.0102140460194433 0.36610245521517615 10.300549180151878 -1.9578857499032132 -0.740708851994643 0.475660002451234 0.07682351846035167 -9.65529428883226 -1.447362741328968 -12.140377303614718 -7.601565762345867 4.3409017547051585 3.813584435543231 -7.249306354918156 -1.0377974801785756 0.5581448184019303 22.557380629318192 -1.6921997341210522 9.763607846409146 -1.2585455699439996 -9.786869232029037 -1.8899573825882916 -0.4815249793029482 7.899761513340629 -3.5609234616161616 3.93169998766752 3.9195870790877123 -3.3653163820186305 -3.0302985181862567 1.4052951837964056 0.30981734582581855 -0.263757914989514 -4.448831195548785 -1.191361716861469 0.3395077572372826 1.8673906228733121 1.0030355023112962 4.46610879038104 6.882335761086766 -0.26598249252601036 -2.3307930105476866 24.47327418339827 -3.7741187473285627 -4.880489082315171 25.3074373870187 -0.8413499173242686 -2.8934481555674427 -4.03713088494493 -3.576616055696181 -4.206133636178138 5.616430154197335 -9.067671932769436 -5.606240419934923 9.056603295961132 -6.781009126810716 4.4397165104120235 -6.029716225674308 0.7775659848736561 4.614238736371924 -6.144596889317041 -5.956131249625569 0.013687998781553376 -7.319177489719126 -0.001200261444376871 4.587174014970556 1.5447933178332085 7.649280816826342 -1.617397558504452 6.299159864031063 -2.7173486207262405 -6.427478114209489 -0.6220017865926277 -9.191766823421508 -0.43832655682280686 -5.655140498692757 -1.6301168766932026 -9.777994828141772 -4.094219890119467 8.00741289545823 -2.176991182611454 2.1626888801806867 -1.3804958654325927 0.952193694726314 2.275248694439692 11.402896162716502 -2.030864757882883 7.467051369610563 -9.137177784329849 5.422816776742977 -2.4340628455878743 1.906719273223527 -1.7428023388072493 -6.213753418101612 -3.706425297858104 1.4555305466139674 -3.572302181093163 1.65202167899276 -2.7600270540751866 -7.062368616335277 3.3675559186147077 -2.3577292387474285 3.0799443394081893 -4.6946045175954865 1.2520000627489927 4.117024492438694 -4.048144239301524 4.69416692329729 1.3223704120675577 -2.2004657773814387 1.3050927771613001 2.6806202381545274 2.1375888205975415 13.877633150343916 -20.550224266409 -2.45955458379493 2.0970578633053734 -4.60706306986295 -10.335420269561261 11.368227034009418 -2.706352741276803 -3.695360162904282 4.125307000849638 -1.6788047495284764
9.821613621130197 0.4757810995934601 4.765634216036093 -5.879972625367394 2.432532732412656 -9.819003462278456 3.9119815397404794 4.172650006780467 -5.975838394347656 1.6558949001621166 2.6137611254805067 2.538087431939314 18.933194520683447 -4.836445292242124 2.3034666042720757 -7.4864861348887795 -4.093757285471349 2.5252921791361485 -1.3195943223333342 -4.737755685735143 -0.11780120481523418 11.717715030082754 -11.59934702251912 11.218683628854338 0.8425702936606136 7.998876408923877 -9.122505285186625 4.8566809880144985 -4.965937180792984 -6.7545662509504245 -16.733787896524692 -8.174506069673695 -4.47577582107473 -8.352937162874618 24.239844304879313 3.7679469543548825 2.291397490015919 -3.4030594727763868 -0.760804614636214 6.351664379233418 13.988895640692837 0.32007773387519356 13.411139349870329 -0.32339466450847876 3.903533753294889 2.174839879959431 -17.21660050838245 -5.875597361699742 7.9124883534614625 13.135482395823555 -8.482119921301297 6.600104183688907 1.6553835251035312 -12.70940761407885 0.42260197728104415 5.866303484102277 -5.757908585796595 -1.5568198980088246 -1.3346163368219197 -0.3385138887627877 21.991325180318196 -10.468414567730102 -1.496353227638698 8.611221198068659 9.264724835029796 -19.229547902913694 1.3457496424631314 -10.000558255747867 -0.6400396754490794 5.860389494000239 -6.34564355818728 4.838031501703039 2.761743986779329 -8.499074811281485 -15.646648110456512 -1.904252428852051 16.30653441170353 -23.56915681327468 -2.9631095881077827 14.451357546188214 10.931477209498835 -4.720823840887645 -4.781366506525314 6.156477077233303 22.04964461811364 4.361272733933416 32.89635362345917 -11.572414531436783 -4.273595539808432 5.290291357036829 11.154003526606436 -7.096621569856625 -4.639620623690329 -4.0952798547093 -18.476094371483516 -1.8810021370534156 11.335271988097686 -0.17113096899495428 5.91575792782102 8.94882334215742 1.7429317211557451 6.896494381473688 -2.913146163646155 3.3820582866179976 9.864969113159935 -7.207099514292668 2.952903889120533 -0.6519837208130065 -17.774036129900363 -2.7181760913111908 2.2056594526418967 -10.24571366744467 -10.03513798624299 4.342736715490231 -2.187811600174038 -9.374110118821358 -1.2483105183483756 8.688652526850579 2.828950157348901 2.1978167310385355 1.2217379828444708 -4.3711267627696655 0.7869241230619904 15.117666290169913 -8.266333498310273 8.552080659538587 1.692940079152525 -1.8269758375014928 1.8677483465952467 -19.14784534403592 -7.225692120404885 -11.456835416266179 5.653736048134018 3.5959349984622584 -5.541292653434597 -17.203758754799242 2.2392905091704516 -4.276851348117266 -4.379175031661237 1.7023950496639944 2.492345896147247 0.843037729155341 -8.057397840781393 10.340096599288616 -12.58901625200372 0.7970924838942552 8.552443905499652 0.24780735404860743 -14.622642494301013 -4.291594402505121 -0.5275050163009415 -5.215856189438548 9.338815246975098 6.614801485684888 -16.641229577479166 8.028253292143294 5.593744156804358 -6.904121354919424 -8.500566080753865 -9.484627939443966 2.407248694532856 11.744793977956093 -1.9478546866268325 -5.316000827094535 -14.265503406700814 2.8291870471164224 -6.17299296552118 13.91616625659458 7.916046767530306 0.3599107874477282 -19.077973713597586 8.931694130906616 8.033325711261513 0.05276666273451031 -3.446498491463236 1.1100278737553815 -27.136203718901402 -0.7157549506727277 -4.217810772278508 -14.940675780730325 3.30851346364636 -0.04705277979231107 -5.064403740816735 -9.724563304536849 -1.381617749837608 16.777614355952533 8.267963008806822 0.40414884934773027 17.364063897715702 2.0063871203460275 2.924786623249128 2.097212036065565 2.216067161430673 -1.900866994143997 0.9040091481946778 2.2363562990511463 0.9619931455864784 2.4608545451223085 -11.006796340998612 14.397994228045935 -9.496919889396613 3.6448443274616493 0.6475836222426196 -4.638638096804463 15.806191702478237 -0.5114011140102482 0.9464472252571532 16.693908951440708 -9.83671480289334 8.154660585858021 -5.040859611330991 -17.06981412504739 -2.855876618525473 3.822269615467811 -10.620083534249867 -3.50657057689022 -8.853811212810914 19.10176137417792 1.6304454265748456 -11.460007456954365 6.252955997193903 4.435327572461351 -9.137338538724622 13.016406617511581 8.217115691588111
-4.3485641474334376 0.23514996535927393 -0.8825127289613629 0.5324804005624132 -1.0853676409156485 1.0687464420849089 -0.27274536168277214 -1.5766715907278261 -0.42341448960719624 -1.6538860334464518 4.265495005192826 0.5608326261554891 0.7871647911690525 0.9082370824067924 4.052588505283426 0.2802248841263716 1.7061444508854386 0.5853160951509101 -3.3561532168490866 2.1685667328226175 -1.1267505114302694 0.7133942208961996 -0.2740842238948796 0.21895757849050893 2.5655212337777744 -0.27635497061367725 1.1639110730379711 -1.982203136637379 0.08286757452453476 0.09739629660975989 -0.5717118197960052 0.0435895527769003 2.984121344847782 0.9786845151676365 -1.4445236300463429 3.928431034657299 2.0859461147768306 1.4931805378243979 -1.3195145265991572 -0.014492165836886669 -0.1826381897842292 0.9374126599340333 -2.8747212682304957 0.7793664759861528 0.5736309602671059 0.07234901103754453 0.5396583603911183 0.9048011281322285 -0.07378358246365986 0.2849722417978265 -3.76788565213274 -1.0662293344627116 -0.7875053241716639 -3.6090784582157944 -0.8529017274370303 -0.34278581934447167 0.5954570205600017 -0.9996364955163598 -2.2214945889337008 -0.3167465769839661 2.74920658916961 -0.11660063432879345 0.6596497386321416 2.1545277198599804 1.4882073544884509 0.9179749825103259 0.8479407068874762 1.1094394230865896 -1.0562497200019547 1.531830031949991 0.18869689025557512 3.049229036489542 -2.3730132422728056 -1.5934160416721976 -2.5618650149051723 0.47754087723431393 7.650723761222347 0.9265325256890201 2.711309598062653 0.7248058170116609 0.015125658966230105 -2.2158996637723183 8.411604009868892 2.183772333312531 -1.0519436603792007 -0.6470486573425975 1.3341610622306102 -0.12084396927691779 0.4183560536898804 0.8969235046881187 -2.1424777225405447 4.04319217912071 -1.5670508046024696 -0.318539197041694 -2.0274679394659008 -0.4174922613162722 -0.4563017119869922 1.104220312887972 -3.054442988705777 -1.0930146015492177 -0.6717596892790485 0.2608622702988762 -1.5050465503136632 0.2224952699870025 -0.3098990067673187 0.2973749658516432 -0.26203748542171645 1.500414131660889 -4.203308812791017 0.6971718411615543 1.8309186038585032 -0.0012533970252908335 -1.987061697058227 2.674283935211898 -2.2917984667486855 -3.533163514339112 1.9847672530655474 0.6910435727006763 4.300529088233206 -3.0034512204643056 -4.824975097374926 -4.633065338922347 -0.40075916842724607 2.2281693341062354 -3.15926519783974 1.0245529924577452 -0.2863441112684856 -3.4226664190771783 0.5264160411258517 -3.25975415369017 0.4576880804608109 -1.7376626412662288 -0.9567007666890434 -0.06619853234306962 -0.5875285015647912 -4.822670490227929 0.48250806866622914 1.212110309631077 -0.23967923515226042 1.4920729065799467 -1.7702473977915034 -1.0278867870823796 -1.4647908368937044 0.003708073252913535 1.31471684357567 -0.6567587910416518 -2.5109677875034775 -0.6112141323921622 1.5095269992082636 5.219365258043091 -2.008942678813092 0.6280574169106059 1.8834492902450006 -0.5235887569805924 -1.7701705583324447 0.7681979470757317 -3.328808595621126 1.5426759545054485 -0.6867081098259824 -0.6111726279515238 1.4974581154708346 1.704168264201418 -3.0824515050641557 -0.13468540062175657 -1.8365375934114647 -0.695444031791419 1.238532008338973 -2.35303822322688 -1.4286841029311252 -1.9950052513447598 -1.4542694241256702 -0.24155153232097493 0.4635313075101141 1.4636689848503293 2.075488134847551 1.3172781936100804 -2.595578380311884 -0.7210748482297151 -4.6809945981012415 0.2766987213143277 -1.1193386673569143 0.43780812865249163 0.6773497832231601 1.051327619180288 0.6524169385252432 3.4649056826831997 -1.280215827991306 -0.24519742043469495 1.3883589922267972 -0.39814273191296895 -0.09540334982942546 3.477031080065145 -0.37948336403664007 -2.1242185848428936 -0.9128163557327941 -1.2082765767410308 -4.023082238543827 1.2296889716493693 -1.7543083485121174 -2.4127780961274956 -0.7175902277379427 -2.952885440228562 -0.12977547315928292 -4.354592384579926 0.9130575270910247 3.051864507510857 1.3138791623425905 1.4612715119953994 5.198555473019164 2.069355180439577 -0.37485373851484616 1.1291044275292472 1.7617796575804692 0.2111949053933539 -0.11689387003970383 -0.6015747105433175 2.246866688302559 -1.032835776413849 -1.1760562300884116 0.2758761107860108 3.193349617976946 0.6028124885127921 -3.7960303126314128 3.464965052908284 -0.26560728045032
-4.049839652598043 -2.504800680670619 -2.6520928581888947 -0.3835238344922834 -2.9108776791460884 -2.4439522944189904 -1.9518781966048115 -0.021503201125193334 3.45278394577377 3.9213649990015615 -1.5346319552019698 -0.3714563289878627 0.4323838157830267 2.126814737733302 2.067848307880369 -1.299585957290248 2.3603478492358967 -0.760973441554835 -0.017034024545554367 0.029368572070653146 -1.6967912135270333 2.3155496259860486 -0.5641333272989306 0.03710270253267871 1.0530181533163154 1.4411836183798232 5.336003291143761 -1.8143295506242947 1.2828812492160573 0.3652470832094174 -3.2439985058331726 1.7410539063510757 -1.6080737813584527 2.7076397222863355 -2.1359700565565363 -3.7932249932417843 -0.610806980126977 -3.6149764449532698 -2.897980217404063 -0.5427627884898264 0.38992783306486983 2.2098423026652125 -1.9341856728332714 -0.7332563375130569 -0.8239696269886511 2.001777807282727 -0.9526344991167458 0.35887194579532516 0.36339335333059414 1.8623779672036382 -0.11029039695545338 -2.525715499816619 0.07966119533004162 -2.032349896069407 -1.0244256407808119 -0.7017580187838577 1.1867607828282492 -0.9584896610645302 -3.4937322263050072 -3.6126851129163042 2.695216005903017 0.44079845251790434 -0.9307732742196544 1.3483307923440704 4.349158021667387 2.222266055950895 2.297582363081942 1.5603088429851588 -2.3651924421407235 1.6909344835253008 3.0703211636514003 -2.3316847737624067 -1.012448663457452 0.7325690149432496 -0.26900200417185605 2.6060709047177557 4.73606649148545 -0.5498879867844384 -0.30091451618891873 1.3496364531980507 -1.9035052939084085 -2.4781525099222126 1.5074308563553669 2.542974743631348 -0.10987477415409831 -0.21504599048270273 -0.3016402240510133 -3.8965905766593365 3.91659482726116 2.239074695230972 -0.5270806032322986 0.7981896550492099 1.1130905197345167 -0.6352945515009297 2.82184087296906 -1.5871171593227666 -3.809021113202383 0.5905656389799936 -3.971977932371231 1.9912433980075377 1.170566172197536 1.4429424474429526 -0.9495835047150603 -0.46741612138306604 -3.2892104213382183 1.4176971286314104 0.7313529518538925 1.3334101865780938 -1.2295367271784565 -2.577836719603409 1.1707402566847271 1.3798366386145038 -3.3941379747294493 0.4382613913851195 4.008023903334177 -1.836631942251924 0.449974835888117 2.381423226102816 5.6328293528357065 0.19666054244138065 -2.2717372872913786 -3.365978068444034 -1.6145672494064653 1.7189363016545094 -2.3873280057041906 -2.1348171028907856 -4.614081815743937 0.40165734870885883 1.3811918318199596 -0.17462772158932754 -2.1205081097613214 -0.7741628767358224 3.433454711147853 -0.23066062278021798 3.3593548163734734 1.029270925398527 -0.34038748278879505 1.7357898296600722 0.8151379195378177 3.8552133705326006 2.317414634119744 -0.8277804178276283 -5.593292083448734 -1.2945238494983449 0.5706621294224897 0.5825608791851355 0.7919924374201787 -2.2221419147495163 0.17559842396478506 0.40067610612338617 0.6227288201708236 -2.380187476725623 0.4121034490477703 -2.458963837888985 -2.184968285278683 -0.7937687725322659 -0.46625673536069184 1.4964923471010203 -0.9389628317087897 -3.2147248991782136 2.376979335477364 -0.7984592948304288 -3.6185288728728375 2.8805949042462906 -0.1769227631105311 -2.0613145600363656 4.735086367691206 -1.6037487451482286 -3.3834376933257047 0.3590479872232376 -1.1848487033207784 1.6330526744846103 1.8965008552621692 -0.15190868862189194 -1.9830058929623524 2.970090218344355 -0.18044222391294137 0.8343609436516399 -4.652822945564693 2.654939511879081 0.14216013496285695 0.5814009453563384 -0.3522294086993947 4.040486417817577 -2.218365568796056 1.0536595252755632 -1.838105351470528 0.23576039783852082 -0.03931857435321239 -0.015231318682019377 -0.10030317025581773 3.6439387803307364 -1.5116603673705777 1.215185598801663 0.2626597187224669 0.3621862217902674 0.5111210634595513 1.9632439726078803 -1.0965160146746689 -1.633008196924217 -2.055399883368975 1.283435879466627 -1.2731489695425535 2.382531595115535 -2.059832691642711 1.1888762770758585 3.229021814904243 0.6340533155070563 2.4697084730522385 0.7519625781477436 1.8595886267910557 0.4854130991803164 -1.816378642945326 0.15889908210815568 3.206537126117849 -2.2928417102358045 2.3268101050699466 0.6288197091390905 -2.1917782704491295 0.6821662939974831 4.028919967099428 -0.0909880166122839 -4.842974479319277 0.15893437990683512 2.149289840329507
0.7793589842703477 1.0163636892503916 -1.190804830230048 0.26001115346546977 -1.232847972876279 -0.1905917251893902 0.40242572271540755 1.2033604629821255 1.0213829244060275 -0.6200408431899588 1.439842628935073 1.1641522898741388 0.20543829529945656 2.126569151805243 -0.7325961974828199 -0.7107026838200298 2.945413857201411 -0.4349047355822943 -2.1546292267755085 2.1377196322957097 -0.8794141885398773 0.3016468717471113 0.5031585588394876 1.6234971799781184 0.8300616090504869 0.26424119271796054 0.4787341031213548 -0.9116160172504746 0.25077535496789133 -0.7983497040443048 -0.8207588271586593 0.9766145490677477 1.9725452985372665 0.050430980104143985 -0.24291880930663495 1.2908151076409582 1.107683892243988 0.840598458569806 0.16592040197711277 0.38884245698138187 0.3852182155213016 0.06650043114222158 -2.13329860166142 -1.4283206403648339 0.29189549883733895 -0.9459587849446565 -1.018655439436649 0.37650036002435083 0.4643422231822994 -0.09586035945250945 -0.6057873592201874 -0.7633877121276571 -1.879221839516879 -0.7704146062336269 -0.41958124102574645 1.0521399828529159 -0.6197678822049808 -1.0708237274410815 -1.9896484398027563 -0.7784967309158989 -0.3479105789987883 0.4268095519659852 -0.7852770065920415 -0.233508263551214 -0.7613162023562683 1.7262937360476698 -0.5474050941621013 0.8902882909066463 -0.8316959648335683 -0.2609621884422474 0.7515378006718976 2.8461895174418084 0.023118061612789488 -1.194451847209946 -1.424081005778613 -0.16705586272068432 0.7844971557932526 0.05114021130847686 -0.17251893125613962 -0.0216829851849574 0.04587230138060715 -0.43933768361335407 0.32856070055146863 1.414351936788 -0.18593272286138196 -1.037725101220841 1.1635020570677994 0.13318401861120485 1.6538990258002706 1.418607606774152 -0.5721270174597095 1.3454919496778215 -2.668042920498105 0.7500578321611053 -0.28508909022022616 1.39686977455718 -0.8798995233016894 1.13745432332454 0.3612568349450989 -0.8161832767906563 0.7740293629433197 0.7589045512545838 0.1840447269217819 1.5738477683732894 0.7255915590838963 0.20280865563424083 -0.40146455963383176 -0.7531940593330031 0.12361040419567962 -0.19650668561272824 0.914128626594982 0.24839873382492972 -0.2630871396791952 0.21136401349072026 -1.9888687597666057 -1.5097151121079708 1.1304812833180364 0.8125061424403223 2.3818837543754627 0.422923310238167 -0.6108117764443398 0.1172411255703311 -0.34865508612172913 0.9435892314090868 0.8177785001288645 0.7269448153072049 0.2921222536837722 -1.580624848751471 0.1760321716001252 0.09668691073430423 0.7465138424473424 -1.5792353947001554 -0.04046768973456058 -0.7077210450829254 -0.35893490587163523 -2.4356972703342503 1.1712051462169626 0.1107488854581039 -0.24308023930271863 1.2000543939229462 -0.5003216356653503 -0.5070950551496757 -0.6247108232972685 1.362264941520171 0.7015814747929373 0.4633513594032211 1.1670762275405657 -0.17274564170478648 1.1207179824539117 1.2484416366530284 -0.27496880232530896 -0.12510752936769148 0.8322549067553139 0.5460537985188174 -1.0951240696519304 0.24602334558083355 -1.4338710368806407 1.4153146858592232 -1.0950523854800367 -0.1311277343566829 0.6829279988153123 1.0659212701154825 -0.9003644306875316 1.0832500099783295 1.122959267052788 0.35193781957474335 -0.6660800122324317 0.8686063584510448 1.348325660240002 1.7353186674765626 -2.8444041463326184 -0.09985230436746793 -0.3767324724479952 0.37864913217561647 0.8003138915295153 0.9285454951156736 -1.7166677828588357 0.30053107211993263 -0.07839642840965183 -0.8814334423410937 2.142761264888787 -1.1473485555022813 -0.2530741670640875 -2.8092956264872857 1.0766211159298382 1.149028389327744 0.030826528998391854 0.673549154433399 0.4677770092460154 -0.3168307765079319 -0.07239378311715798 2.0430921348396973 -0.3711666416014852 0.028943468529481813 -0.9062841667634619 -1.6236967678633052 -2.301206283491091 -1.748317989002092 -1.0103899213376815 -0.472854161324755 0.4233656717960234 0.332379109020745 -0.3775729674256496 -0.5101537715592529 -0.3931791041308741 1.820508754453019 0.7451020330232339 0.3069797346104963 -0.6119655567764424 -2.0425183743280595 0.429641437436015 -0.05865040508165068 1.1464013021707244 0.6068699835365101 -1.8495081811084477 -0.3537249977137384 -0.5815295231589732 -0.31679957771766065 -0.46423739861755253 -0.6245188860006429 -0.20326487183918862 -1.2310232991164303 -2.482095564503886 0.7140971398715925 0.21121475329123335
11.5695493640791 -63.86028899668247 -68.81074627269196 -66.71159827083908 60.05974635912046 -11.843158508694767 30.44692157877821 -5.3824881753680325 38.80683018248735 91.86995780982141 -15.748790216341492 -12.669224211000557 3.3104148340836925 -10.914456618417224 -13.327130138547457 48.68503591202254 -27.19672119138262 17.063507350284517 94.6669901981756 -23.013270117639152 16.589045646520194 -28.682449778434098 12.074797212899956 -29.5917931595008 -20.84542819315576 -5.444266383542401 29.074555489072914 -27.23312990364752 61.10365499445696 28.87887101892058 -41.1119361663696 -40.265663397581086 81.8680101583543 -53.788586363574964 30.229922379613193 -16.28003331111655 -10.603911487059271 66.52056681204499 -36.553887536309794 -1.2330817675340062 8.108725967364729 -46.71768335516318 26.67242431007829 -15.164421346657177 -11.333215192660308 83.31426010026264 -32.89403385829699 27.123763223195738 18.062264029630995 17.357170574120133 20.645641434914758 -12.418581048519298 90.76719304191923 -38.575538024817966 -5.630598337809115 58.38150623176863 -31.93569986107577 69.87206074743396 -40.40227447543013 -43.56523055668142 63.03520332697814 -1.244746111817646 3.825814996891007 -12.536426277004633 6.512294647384768 -3.103879554785615 2.7069728704533014 -36.40166123720549 8.385673106676434 -37.409741098625766 23.69781733942469 48.752541466563336 -3.8555315384217876 -24.191026211595602 63.26596179125934 -45.19640925445481 -49.84260153663611 13.845133723667729 3.6948881132668037 -12.324816986019455 -96.22798569326491 19.392411191723482 -25.482245409171284 35.40001028959257 30.001610360213018 -35.21111822578993 -29.563450339723396 -34.878132980727585 16.85257772352692 -10.888992303923754 1.3756455491401263 -57.89043815875714 10.65303415828767 -13.269404142520749 -12.247162986365849 15.40438115054106 -0.7981965536435429 -29.64330100875782 82.39357125012194 -43.31933044514202 -43.91106187488623 -13.924388657534742 -61.51214696599341 71.52459049740696 -11.550317568030657 37.16827105010855 10.917027781513392 21.36660874092779 71.89158766474533 22.153950711348802 -26.271199842642318 25.212574526031595 -75.28627434957156 -10.820108254575086 42.27753432353455 19.374093936622295 60.2493597330861 -48.25963171146041 69.48979177556554 18.792799512792918 -2.6221113801025973 -23.987909242123187 6.358572237269084 -1.8084501007302167 41.20785056351756 53.216962868851844 -16.376415777455982 -0.4022018563022567 65.82239388036533 -75.11963360792036 -66.95526995581575 17.07011399730481 -25.90768303714685 10.336919116351316 -50.016593964684375 5.9544805070009685 -13.377283478757688 -1.0478099901943128 -37.77492854239801 -54.85051865067959 -65.5468560502566 -23.60411492192845 27.60851965512052 25.033129226303377 -87.77482724336558 15.472905625116647 7.868561151527416 29.07864532615338 -7.747515902270305 3.147973495905559 -36.77186756377408 -14.437139851512061 -27.043059412913593 9.230917735464747 18.869882194677956 60.628676382178654 -94.17621785386886 -66.44805815076641 9.36378698598664 -38.90883316297447 35.18749836437495 -31.12692384042182 -36.20617262719358 -15.553423151127456 -75.7178517780312 18.03062040521076 -0.613025396857206 -91.19521467942074 15.439143094637126 11.487051359781223 46.67502226625127 -91.82404898388734 45.30437601069759 -42.592341384675024 76.50913445204235 36.14834026033718 -0.2049562776568945 29.225905761754273 -91.005681488127 -45.614428653828604 48.29990148928577 -16.493355070628326 -35.34263134181068 49.56679334401631 -42.71913270147926 90.05828416164809 -13.322725911649613 -72.00908120869028 54.2699980081838 -9.244354748479536 94.59850339961966 26.901305829473536 -47.65990125876993 -22.650690192354393 10.336650522385572 -13.430464762006224 14.305571145892591 36.03529819070215 35.9257629329033 40.85944157232226 -67.18879333896788 59.046072696901035 9.451981328424758 6.316572661164633 -0.5165103094077841 21.955248223885732 -32.081214751505435 47.32464865417847 -26.537360873239557 3.4687473615249 -24.43411637349966 60.10507918029296 -30.432363153121074 2.933766696055211 13.13091056693669 -45.31318339223267 11.210937686397902 42.23598378443632 -23.35566296810333 62.42143655631181 22.462464735176077 22.10881349129828 33.647418125476456 -18.107959842834283 55.81827103009928
-1.9745885120434485 1.5505608942859117 -0.037016379667336285 0.3435241383141412 -1.3160367421156045 0.6405706358196926 0.8760893633635688 0.685111157828962 -0.4354285755993053 0.22841981776398262 -0.40590674957415795 -0.1454671692419461 -0.7332724282637385 0.9229127287731821 0.530820782511582 -0.14252327353857122 0.6010828546411201 -0.6306424467606163 -0.3000102352853544 1.5493577410435757 -0.025620390516499725 0.1658186591317393 -0.01278159666614438 1.1356652341174134 0.040294307126764344 -0.6251286040001564 0.9717975511146201 0.7495036481403679 0.2915593768736452 -0.5541606106187976 -0.42000462796688814 0.6178547878942422 -0.429317828604332 0.3832970813658981 -1.3744816123756132 1.9644124218033399 0.02336441043631699 1.2461670014972035 -1.538455340886599 -0.5918315092613768 0.5335155706635604 -0.970444629390536 0.5266520121512492 -0.25234609258443513 -0.4443490850346652 1.442281930035178 -0.2509241847969929 -0.7339147632254513 -0.24879417572375784 -0.02459689332026982 -1.3180206168582551 -1.0228779218290098 1.9358226441160535 0.6091692017411938 -1.1572488424237657 0.648256921432721 -0.31006479366001277 -0.1675039585459401 0.10730395481190932 -0.7307319544038454 -0.38979870425594887 0.6002872016658671 0.05220010430125582 -0.6052183822426402 -0.6650220422831242 -0.3308527948218193 0.2035304009445289 1.0089522221952374 -0.7560646293205412 -0.33198591892450446 -0.7098837809227891 -0.23046387525861728 -1.080798666436773 -1.064604236862943 0.13454796929922888 0.602130691830885 0.31306944185558866 -0.0074431419788305395 0.31940636450932686 -0.8859556498425311 0.6055060330283526 -0.9833035904290042 0.7368520383116287 0.512512718753979 -0.928379985000175 1.1591857590490566 0.3931734393255558 0.14987744239673684 0.4193302373209155 0.207903385234619 -0.23508103292950394 2.2416142738837412 -0.36593327386682545 0.3640604923863664 -1.0060071963887744 0.9537497228392258 -0.2505933993095853 0.2073973315275337 0.6110353139277956 0.8608481569479773 1.1858167671524973 1.1154423622881782 -0.2305912644655165 0.5464620127573415 0.26424781734574077 -0.9268371287189006 -0.21838122933607695 1.4189100765314546 0.8096983806573576 -1.519489530949011 1.3302139304380862 1.6054746001072984 0.4345766411073105 -0.5566361004409726 1.1682192163963536 -2.0599832669049847 -0.5005055471022744 0.05646524327573442 1.6981722411345885 0.2818027971187493 -0.15816883778781246 0.2754913029537037 -0.3814036888387043 0.9274235705491406 -1.3495100021412265 -0.6522274187988215 0.8213965884654644 -1.8108374045591886 0.3920197832971135 1.5715623178791862 0.02445964321664828 -0.8463175352927232 0.4029784457252585 -0.3301997261395962 -0.7321691485813908 -0.9423839454752702 -0.7816302063396652 -0.6220065992079633 1.0301929173091826 0.37946204734903427 1.8011652702826944 0.8837727542471576 -0.7117725188329348 -0.08130090074285636 1.2785510486764773 -2.16866128004811 -0.42036265606178047 -1.3006795789012235 1.6587250911453635 0.9967404984439516 0.889631859905372 1.3239244991002694 -0.8946465092721271 -1.4486932523571434 -0.3233086331674435 0.38944724586130125 -1.8248983890797272 0.6310379770836559 -1.0409213711331922 -0.6920384984670506 -0.7156976673267652 -0.7085261084959484 -0.03350857591296693 -0.602487764381043 -0.13356813674915233 0.028964374341077584 1.1409348517613147 -0.17653811637351344 -1.5831558848689706 -0.4682336936226994 -1.3728336267363375 -0.21625415077541843 0.49027297558104765 0.1744395907607362 -0.7129352287646943 1.010093303461678 -0.1474424925116014 -0.34683269477885337 0.3726352538167174 1.1530021979856688 -0.86639169874394 -0.9444701164571742 -1.7714280413699088 -1.1862903687136708 0.4350869380563655 -0.35996824051764736 -0.5040846495839489 0.33244253635083765 -0.2406228787623184 -0.5138277292200462 -0.8378168519192591 1.5503159404781006 1.7079934460697748 0.13603888970894365 0.15813318963164555 -0.17285549958100305 -0.39200601166194143 -1.0430338499293368 -0.1697616510167711 -0.020149434279125848 0.7185067184287968 -0.39291241990833603 0.9393041845620788 -2.6382971920293525 -0.13051800250398107 0.8918878464729799 0.3663116419968977 0.786938147701364 -0.022996534331159793 0.3986317019673415 0.21723712600723033 -1.7132680324913194 0.2882492754657374 -0.3052282635234901 0.2130096609345711 -0.2997689845556417 0.3286166422954331 1.3423974922733728 0.5933410077333455 -1.3646544260268034 0.6499932619925857 -1.2303146005580818 -1.1279225235661663 -0.376646370056091 -0.15091238764640857
-0.2502345867225042 0.15709725629783763 -0.46840694296628616 -1.5354799287843603 -2.207356869416265 1.0290028561059337 -0.07596286153556482 0.46894760127138724 0.7069300551713322 -0.5119163031056162 1.0758544591390573 0.12415520232603101 -0.47909750732632433 0.7045543340536032 0.13215336754459472 1.6898691365109277 0.7865690888298351 -0.725926065952272 2.173317243066313 1.01221109093055 -1.5445651608221347 -0.08329190378710197 0.450672188676871 -0.80008770548422 0.137153883972152 -0.8642261268450522 0.8786631910992072 -0.4187388303690769 0.8212234451174965 -1.7931268945394097 -1.8171578407520934 0.48597321732015 1.4695889138281997 0.0793181334711141 0.3417778405363852 -1.3211897673754682 -1.8647100908609229 -0.2746389749254647 -0.35940501626142957 -0.1106591817370446 1.4458439769211855 -0.06037924000041783 -1.4335604632916112 -1.0208451406744226 -1.5703136327758334 0.39146909998648144 -1.4490335920316588 1.2011380836849763 1.8757242495099917 0.53401179114969 1.412029302551421 -2.722683838272063 -1.676661796546323 -0.3540188412026424 -0.5011846532332758 0.1658293348110279 0.3658200521003163 -0.5661578930369898 -1.9751343573236153 0.4633828712880451 1.0627693509280078 1.4394678858005885 0.7935919558116675 -0.289110921051092 -1.8541330366978477 2.0678227049021114 -1.505206263221928 0.5812468254875465 -0.6060879366569784 -0.3193085289872144 -0.24476768316454273 0.499701750166386 -0.7687495430222602 0.585619804268955 1.173211732069878 3.030929846549911 1.5117832978139167 -0.5563008763004642 0.22015119949095277 1.111554555885466 0.9017648549415176 1.7955419356484277 0.14937538017351149 2.0097663959826506 0.9690541380832586 -0.4063438351521634 -1.3226590065135322 0.7625313846489487 0.5263267528862723 1.0110930816911365 -0.5796716979332144 1.452139361253152 -0.7817514198074467 1.9807408524001593 1.2056755324141937 0.4414840558518082 -0.9262223597155328 0.7363399580395747 -0.5696521359022905 1.6485760703423489 -0.1384841519479297 -0.4260303901376271 0.5432877258579459 -0.5345353259119265 0.7744256249081631 -0.4599565616340769 0.2104816296791198 -0.6247722893711507 -0.1337718604056976 -1.4680838793364748 -0.25007974182628145 2.1809897248303756 -1.5420291009691847 -1.6074315739126699 1.4231992375006524 0.9491569044587398 -0.9242997834191311 1.905367254357149 1.3863993981441933 1.9167226184002408 -0.039842408258178204 0.421412542823734 -1.1135685892347955 0.2179072195462099 -0.8539765731925452 -2.4847211386976094 -1.7488849385799026 -0.255193988577494 0.2648707970756308 1.2392141739229372 -0.9487184122642405 -1.7574612885050644 2.352777563221048 -1.5408730835404285 0.24622676065322907 0.011110089915066325 0.6503365428094491 -0.2720986733527188 0.17025818965205095 0.9828938207878309 -0.7824836860188751 -1.2829699317483139 -0.5808358033700574 1.5950123150598168 0.6809569818617496 -1.7731360042954056 0.6817746281782731 -0.4088441905025669 0.8294528195911114 0.5895335838726957 -1.479270919149 1.5663310891557298 -1.2380183432628395 -1.751454428687589 0.3888095499770584 0.40056987024008067 -0.6729411471500857 0.8631574525397252 0.7969695646911352 -0.4070398874114591 -1.4206189237149787 -0.4660429245628452 -0.6583999462087936 0.7919452182022771 -0.3179340132465556 -0.6472426497832624 -0.12211724365028628 -0.5931134749311155 -0.922178766044426 -1.911525499402956 0.19184834004215276 -0.435221846039996 0.9869605231005926 0.053992777098076934 1.1152184633817146 0.49811939279112416 -0.007108527662796448 0.28141421807530065 0.008816257147219127 -0.05299561188260458 -0.6515194684741614 -3.0351332180222412 -1.2762670672004495 -0.7102368080282232 0.033086616531989084 0.6774546663439612 0.42803000410288045 0.5750250374041155 0.23225877959417698 0.3742022597929794 -0.526368990303479 -0.9228068951873023 -2.005402908973884 -0.9444678620840286 -0.016348113376025437 -1.487047880088543 -1.0705729166862437 0.8836034357141914 0.18931197861976104 0.9497979638871675 -0.06377574052829144 -1.0764876684447728 0.5944109344088622 -0.18883944860052262 0.8961707236601004 -0.06616732517546932 0.389448043161837 0.0527277683787193 0.12190777704698348 1.6481321354797445 0.6137853568610818 -0.8450098889502501 0.662604323826638 -0.43171593388996005 1.1232755503689873 -0.8316441286674635 -0.1399297786380101 1.4515890011150707 0.008481002652045343 -0.8706870318595138 1.0961637838489364 -0.3829276130080755 -1.7345712865899052 0.011528186310633824 -0.64345998342851
1.3868994806689534 -2.9788228014682985 -7.76261894559472 -8.051467362660766 -2.102893264153051 -7.163525485727644 5.043206443284249 -0.7868019697902776 1.8890822229636222 0.4419595935872211 -0.08693784644870621 2.9955945317402444 1.0916393668485347 0.9368938847588777 -1.7547839791105955 3.200925424977187 2.802501353762347 -1.0621261074070143 -3.4104260784176574 -1.922512935584164 -0.29607183031369405 5.9674885111801785 -0.5359048014383984 2.1841155384903086 0.9273564916407856 1.766338131595253 1.4539108318267533 1.6866423217127813 -1.641021510513332 1.9461983969705274 1.0147958203057663 1.4616606811725308 -2.223373810228384 -0.7819116812727344 -0.41946071722222494 2.9655726710378567 0.22246721640294068 -0.42412350187639025 -1.7127945067826957 0.45622711436424207 -3.9294337145308638 0.22909793919030133 -1.4508552678142412 0.021597425806338163 8.026093110350955 -0.011502111545097263 -2.0129490916337094 -4.545709866285392 -6.722746963305938 6.606569778058779 0.28616614169468535 -3.815292363759823 1.7531093427492799 -7.470356095863681 2.563452636476034 2.156752446023361 -6.570261951448786 1.9098539455272154 -2.0018004639176725 0.28416872056672937 6.474451428515268 -2.7206354234779564 -4.528389616173 -3.877361203006815 1.4151656586440005 -8.814138142895883 0.8107825191078722 1.129627897304514 -0.1354541518897557 -5.926911743230123 1.9465933718974415 0.5905334681144688 1.6176881125852187 -0.3406654628222103 -6.836587251527477 1.513918911220712 2.639626311635176 3.2361314284706224 -1.2810817318849839 4.530656224266189 1.5654299217315628 -1.4844188939554164 -3.856008640133439 -0.27964184749700527 -1.6397206754647888 -3.1918184139625394 5.352703430389304 -1.7380493429921284 -0.14268096315830592 1.8335867120620175 0.23905098174436168 -1.1758747458882441 -3.136903432058101 -6.713307125797705 -1.375062553728487 3.7115669375965696 2.870267851778879 2.8709826504385827 1.3840844936321606 -6.403573265328421 0.6371962424286073 -1.9801078935915737 -4.7074101904960735 1.963216224010935 0.36165544384890913 7.392935837621518 -2.262072871864467 -1.8898851825005043 -3.157261696751357 -0.7525877626383656 -0.09027372171900187 0.13812549993345424 -5.60968720363662 -0.0024229151417037315 1.2642460427452733 -0.7853286617615435 -9.63982870032688 7.923841207788102 0.4014768798628124 -0.14788186884644067 -1.38913813019462 -0.2993327413242406 -5.373050525664011 0.7234723643223067 3.095600775442455 -2.300402769191396 -6.262861319784414 -5.6295769423238085 0.8853220575246394 -5.243479972732786 0.5114314349290744 -2.0737482207227393 -1.2331205172171407 1.5977166754099672 3.47350840113663 -3.9089380210752536 2.557814095551132 -0.1556729816703864 1.1940774742210776 1.0917848197467956 -0.009076893519767726 0.5115342689590755 -3.240350111029751 -3.6062356368035706 1.5571203426984004 -0.10407044545694433 9.952269086768633 -3.128249841066377 -6.724302813914556 3.821170324458142 -0.9147962066287489 -0.9171994464246969 8.36097015151629 -2.8483543063237384 -4.717047854691737 7.9582878463438345 -3.9883769219154965 -2.6256279428435123 -0.44464735805097977 3.3460791505392424 -0.3370368481704172 2.370179582151224 1.6920008191207412 1.7660809198266352 0.1208921407353256 6.340139893491763 0.03301785438596005 2.113099158962836 -3.3565999940270466 -1.7955793816551457 -0.35002581496465096 1.1421102537259131 -0.5543700000820699 0.901416023921677 0.45197255535866715 5.07628501098192 -5.715851110810287 0.14395766181070874 11.24039385384899 0.2992630666552908 -1.1534480677696777 3.7517644943300317 -0.46672877358986437 3.049796080759901 -2.9351500584752954 9.608395982207876 -1.7426372198918632 -4.243248031163874 9.6884159663481 -0.5038255144593417 0.38270731454312995 1.6972955045060638 0.18524747406468928 4.09259090769119 -3.352114136516698 0.8275388476025696 0.6150755692745082 1.0331004627670024 5.032190118127061 10.238963317586377 -3.228561869867907 0.9346498441588544 1.16640834200576 0.8960198974392071 -0.7212278848733605 1.065754007442298 -1.150001677685617 -7.658375921348379 -2.051346176429775 -2.6842417887688397 9.146683636368987 1.910306038653267 -0.2924161579905653 -6.96788135722702 -0.19758407400778527 2.9814326484906033 -2.6746031539719475 6.240119860159904 -1.9469510838834005 -1.0329274778470572 8.37161872291492 0.10797936303288988 -3.855071620399088 -0.7496832913216053 4.576625573521168
-0.026686546679782954 2.0361327182935463 -1.2486300452548111 0.10071137324591074 -1.0072212004256045 -0.43272850822692654 -0.01568392594010013 -0.6301709938234488 -0.5884953597677425 0.6955774565527749 -1.2418548947750585 0.6707747959171286 1.1150926614911556 -0.8080127430258381 0.6564412803716596 -1.1498344955319626 -1.3536124095304223 -1.1853833050501348 -0.5837033961770545 1.651859848944712 0.07715419115044048 -0.5078669699347605 -1.1935466449142211 -1.3141602119241584 -1.3272640126104758 -1.0863801990929698 0.47412611569080654 -0.4856481313955003 -0.6255963447973072 0.12175487974671355 -0.7750792163802117 1.2055083066498793 -0.2954903856711987 1.9257122057946816 -0.2284416552003053 1.1379764894986257 1.1268738760962702 0.6758054022439559 -1.2194466283735488 0.1409659128634936 -0.45849996033546925 0.5108317263229346 -0.20404023983872716 -0.6963717767893192 0.2940092658480258 -0.6770857224817066 -1.5652105526610347 -1.1623708118986744 0.25186392282284537 0.7155004372817408 0.36799411941934324 -0.45589719636809223 -0.5559387783999187 0.018024783208841426 -1.3064870041938679 0.19688254665151422 0.502615318740764 -0.6751522323874763 0.6873408375982283 0.4090322042350861 0.05624733672276875 -0.017315098154877657 -0.2029171830777394 -0.36078709038658463 -1.3779747757630323 -0.7349581026007812 -0.5047925616364075 -0.14848729724287218 -1.46605268756523 -0.6285590145810972 0.7008220758699157 1.5794037055069672 0.923778986547921 1.765129932460134 -0.6083734108360923 1.2472328215322768 0.06759846122646936 0.7931575623464329 0.5141193649676304 0.8513406843984952 0.9201341082005603 -0.052036855566631915 -0.1985233644501405 0.6674770910225443 -0.06090566136395337 -0.8885989711441316 -0.7056556398639506 -0.5997359288111711 -0.17774985214992883 1.0696438437390225 0.6313849501838781 0.26210589639427384 -0.6047758053140191 0.49965313692718116 0.4559989010003113 0.3953353809380005 0.6943843953680572 0.6101107942604534 0.2744227560329463 -0.5424643177756947 0.9852695543361503 -1.4312091096185764 -0.47051725288349516 1.130316325833112 0.7595384805537924 0.9552432286694391 0.36796642482208625 -0.9785282995382009 1.0384938036731255 0.030991139446139026 0.9444647949114937 0.9099848181981139 -0.2691022516170767 -0.24657913543010526 0.00528115317916277 0.5933721316269303 -1.1236280131205194 0.5772335989685767 1.51298331020432 1.571800950681584 -1.1506402352934277 1.198892310950856 0.6370407319797227 0.8026586524070792 -2.0239901552388204 -1.8467149114016037 0.9403742853824232 0.8528815280086057 -1.446894741011319 0.7715952555500206 0.47038639489684936 -1.1924075574174842 0.9223195037483891 0.9314291651590276 -0.6537483991374305 -0.010229626245544724 -1.0309657885503005 -0.4282001454431204 1.704707170648839 0.9154400545847835 -0.00013164156707124244 0.7332781716646671 -0.12764793685146095 -0.6031176583635737 0.5408028861218025 -1.5180644956194191 -0.7255748585936457 -0.36031903590598596 1.69664980441231 0.7928482068212162 -0.25291258399427363 0.9123916485484566 -2.152043647381958 -1.317506632089533 0.1848031143071706 1.3804831253389098 -0.9735866052904767 0.9386685077509783 -1.2553607897069459 0.46067611207990866 -1.4982631067197594 0.36278816669299635 -0.537734385768622 0.39687375874867087 -0.24370394109359445 -0.28431763906421614 0.6829225384833337 -0.6388936320418088 0.5709779573473108 0.10108803393104193 0.8538334665720799 -0.9567477320001783 -0.3289481331026824 -1.0528253058969108 0.025317602961896304 -0.6622499101223146 -0.3876471600177813 -1.6277842572852168 1.5431784248582863 0.38132858474599235 -0.07219239106643728 -0.15042797038652553 -0.11321515735185395 -1.9265123527081618 -0.458444579315928 -1.2571785813574627 1.2180372588853614 1.4860762477287925 -1.9638274246924659 -0.291722869154165 0.1908998647930471 -0.23324858615807614 -0.20813163187958791 0.7023746906141058 0.4661461480838559 -0.09367384283675122 0.028088564850673348 0.4429927106151307 -0.18456396733349614 -0.10061340306496888 1.8043548709793549 0.6122832849962988 1.1243138308332303 -1.3731439591505505 -1.0840597287480664 1.1249884449845269 -0.5972524235224979 1.0203615075405943 0.19680177013495712 0.1308921072693684 0.5946191607221469 0.21138168384661635 0.6524610898846737 -0.28637826839259084 0.7852504260758135 0.3024586756665344 -0.949311611600081 -1.3712242937673118 0.5305462894669138 -1.1463322996971728 -0.034360744858759 -0.8265041926638685 0.08506124988423731 -1.1731336057633281 -1.271074228852586
-0.1228637048397535 1.1828545714757193 0.2818421489801079 -0.6320198790400928 -1.9442211417090647 -0.2934249343511135 0.7088213107850915 -1.1199897566902397 0.2654208941235558 0.9136631464123776 0.10028035553225359 1.3285917068195832 1.0573299838947783 -0.14614620366452316 0.8120579369557855 -1.2055445761232824 0.5753857871002389 0.3528912911829211 -0.6460598899265403 2.4496375480916694 -0.3373912493203258 0.3371652922552114 -1.6967291359696 0.5366067708123994 -0.11460983762566156 -0.6741075520264739 1.0075110751743415 0.2755650729649196 -0.43470737474788634 0.5258319400199829 -1.410407241665469 0.856665715238387 -0.18264406179958506 0.5292020242647318 0.25709392580239016 -0.4449472588018751 -0.22374258747354198 0.0911776947602065 -1.1927382190891376 -1.1762244208526984 -0.07455735915710773 0.026041271699708816 0.08633225389223752 -0.5333403959292535 0.05339180230231503 -0.5767603303854548 0.29436433658430533 -0.14306748511877226 0.6971212244672464 1.3925525125877352 0.6601877079400009 -1.1536507372166573 -2.638777246553334 -1.0268056279782505 0.028127832964604756 -0.3393280641525121 1.8869730818489359 1.0641603920397815 -1.3897449824402606 -1.247173142545848 -0.7354368133577376 -0.08130368237787826 -0.2794345230198531 0.1818332652754981 -0.9784384194714365 2.711675398464574 -1.1211006624909372 1.3013567323014388 0.3571665520466285 0.5336716867755675 0.37558093012621196 2.250732299811417 -1.1113175512099311 0.551902840593757 -1.395157675584776 0.07167750506413373 1.2258418862116216 1.1301876058730773 -0.23096120281853302 0.44599699579088464 -0.6180775504359267 -0.26509450660407524 -2.661090617447631 0.32211587550106385 -0.7011344181782161 -0.8245800128967596 -0.8214859929362632 1.6236626132134806 1.0366631396841075 0.4866352115196597 0.15793601485930694 0.8692770044307855 0.5273770833582108 -0.9235075846067449 0.35273495577026714 -0.3538699900983089 -0.9402248161048131 1.0012012974926623 -0.4127448014689493 0.810272454098481 1.0362282733828367 -0.4055516740391317 0.1905179654764947 1.1326415839713881 0.30869646333655576 1.04172527430158 0.6453098220113247 0.16851876547737885 0.5594457530341469 -0.08110227232178058 1.055014300543216 0.06274025719521724 -0.40487317046065247 -0.8740680859759719 -0.2497915370667174 -0.03543776125812165 -1.1009788523655712 2.374965263563936 -0.4519924241336984 -0.4652636184708747 -0.8144054565424682 0.8617637171731798 0.8713936968660998 0.3629187716307979 0.7957784624206076 -1.9674281367543018 -1.327884153864369 0.8406121316923393 0.7895046516174088 -0.1906871046308243 -0.0246226799716283 -0.2533163704913941 0.6144852844953775 -0.9785494635182999 0.19375140460107895 -0.3674553379012291 1.1318501064071331 0.872386096997309 0.4041254894937657 2.594323632072766 0.2702988900141309 -0.4869617067220589 -1.0932659090835026 0.0988418394135235 0.33072935194248265 -0.6025659269336485 -0.03670646856243893 -0.45723921446774807 -0.28620370922499694 -0.7806388701429644 -0.4351194859604102 -0.6848603550775008 0.3868722591143555 -1.435327995033093 -1.2635056188687317 -0.15639175407369096 -0.9164076348312703 0.7048579659431354 -0.3426145332343855 0.3051216296128903 0.008776174276641801 0.9324976032066953 -0.5026113045241575 -0.7962927977542239 1.4991612418875768 -1.0027041043920133 0.19792549954577954 0.004189033178000271 -1.6289230589258195 -0.3189053770044492 -0.0226575399350509 -0.4077910653760196 -0.5375903604573233 -0.27779989119768533 1.5332867919415092 1.9071441832703584 0.18251674602184387 -0.08398735079984727 0.004543736780078349 0.1429410682536732 -0.5570123468840259 -0.5414764776163309 0.6470744061623709 0.48592283558139027 -0.389574885376071 0.30828829333485935 -1.8105399746572108 1.1931934893127387 0.7390580962396501 0.3142900691918417 -1.2818116229244148 -0.07933544366636362 -0.3627512334034104 -0.8619827303825742 0.09591915954052084 -0.7165921924513871 0.7358689147539774 -0.8327740536154917 -0.08807544099505768 -0.7192430024720488 0.8079881261682812 -1.4953363767350756 -1.019225257129073 0.8388131244961888 -0.10491377615374071 -1.1800676882673473 1.9078468011143404 -0.4325961889825813 0.007047031677242516 0.49609900305799903 0.6774247480598918 -0.5094458275546048 0.2280921643714755 2.054890388414309 0.8953642334334326 0.04597605134704571 1.038824245919264 -1.8960272491551873 1.2720812182166243 -0.22904373494997088 0.40565922895789713 -0.19946511917562199 -0.9606464734607936 -0.5692971851366602 0.4025320076116726
-0.3917191190069076 -0.19941114494935902 -0.9932024947905564 0.2311432049615271 -0.10098013442097742 -1.2111735846735956 0.8630569728325472 0.9025316010869651 -0.8967386905692064 -0.3740649296639082 0.008653367655807046 1.2647289629142713 -0.5981871390756928 0.9148244422552627 1.5892639900494714 -0.20506996461670407 0.9569456076330113 0.1725830921052619 0.667518832259807 0.0018610286479624396 -0.2945266003178405 0.3649802008118789 -0.6976861494334871 1.98714644628236 1.3474390526695694 0.7074951287280301 1.321180194450353 -0.28016271981816 0.7053538773237148 0.6014715182030115 -0.19182806716639364 0.9042475097995452 -1.2486399449038947 1.399143190272027 0.13589944142661947 0.6340256840135703 0.28919284350380475 1.2319268035180584 -0.6711818962085253 0.21358949794669568 1.6281564458332909 0.22210083974414024 1.0108683324417913 -0.15802504059320677 -0.7542613195149331 0.9187775089746228 -0.3001733394498524 -1.2821379700232556 -0.04913786716087068 -0.942603557192357 0.105519461601021 1.3360374662255914 -1.619654437797466 -0.38352287760253095 0.4946649189831116 1.2298030172830139 -0.9069460570684852 0.6550281593092645 -0.14170513094822673 -0.014985944914646498 -0.2513483812138823 -0.8403314516800242 -0.1922118634398395 1.381743701307394 -0.2985986424844234 0.867216267437467 -1.5985091887554728 1.006181546942544 -1.4933406861694274 0.21402419694577116 1.5247218826383317 1.9993655588817454 -1.1818899278657011 0.13903547776296277 0.8323224687642466 3.005902111586824 -0.6284765692689167 0.817607328158185 -0.3785769677674838 -0.7245964538545975 -0.6892346008550336 0.6315000580999511 0.08009825126817276 -0.9039264691192989 -1.8312204584727672 -0.8168368441982835 1.0000784969971743 0.7298597029892364 0.3152664878438978 1.1568810359896948 -0.9848614162400798 1.4039384956738925 0.24061947435209238 -1.1806718801995102 -0.6000225523204813 0.4454367605960444 0.6887326902795922 -0.6161851917561827 -1.2670831115701011 0.5694877754208048 0.5385393971667789 0.7848122293001609 0.33660101923190133 0.053642167760984606 0.3582526571756389 -0.6247443922360993 0.06418234482718964 -0.43840022161022396 0.5388107087949824 -1.3102429117198917 1.9679813364495093 0.24461680723687124 -0.0647759007793589 0.40896074437672325 -1.054504175874065 -0.17183589741471925 -0.9808986609538205 0.9215006027522599 -1.0510622018418336 -0.6106263373361139 -0.11429917774115135 1.1944058450305404 -0.8374502145640572 0.2366118924873778 -0.19785527646623552 -1.4286519924248506 1.1060078131591575 -1.2903641819206413 0.36210680389507294 0.9821415131175988 0.26497939887239497 0.585047444726674 0.2937200616474684 -1.687218121529734 -0.09604007703652408 -0.3826027452996097 -0.4369560216719162 0.5679152369449123 1.0941340762525624 1.1786899576218623 -0.41679367615665425 -0.8997421552423224 -1.5563045281628798 0.3646266409947387 0.3701354736026252 -1.0085456826183676 1.0540666427265841 -0.91575725635582 -1.4384649118512112 0.5616795150142866 -0.14397076659408448 -1.492524727876226 -2.071382522753352 -1.2789639711313134 -0.9602383553237227 -0.6402480835535419 -0.0036965057803877086 -0.06090083262861288 -0.04268984528260944 -0.13120519682320525 0.6884813872861637 0.9169064005671818 -0.1003778100395775 -0.193169620559649 -0.09079458361110544 -0.08986562444977868 -0.4156147725075126 -0.054151150506943205 0.12543468544939426 -1.2779193286505444 -1.0760550312439394 -0.33546563877476127 0.03573996872957679 0.005855128682424196 0.8368391681671765 0.1526271916998795 0.586125947212493 -0.9957237628413422 0.8235013055121412 0.9063169411401398 -0.5803883883368969 -1.0356567490255826 0.4475531437318355 0.4778465090469828 -0.8541313127971057 -0.15531103777298863 -0.4484787054429842 1.3733631310248553 -0.5402509555756777 -0.711693897570532 -0.29528567992346944 -0.03680695611155684 0.41182149377714267 -1.0466360211272665 0.18465926350784181 -1.9551340651023261 0.5440962537020377 -0.9506186841970898 0.28348464234856247 -1.4357660893087512 0.4903753151147525 -0.7862642132193528 1.7065998028924594 0.7484373765713136 -0.3570830593546533 -0.3003902648144367 0.29867188250539384 -0.09597824856875779 0.6919393871756205 0.5798493525022131 0.5394730016197498 0.8994105180068277 0.8576868937082276 1.1262659803591408 -0.22440780295206733 0.18254350529370267 -0.6333830564729522 0.8094635882934575 0.7377661669944187 -0.1767921884024532 -1.2733323719369454 -0.17702105572231114 -1.8434974428797615 -1.1735505475705919 -0.30931151241821325
0.4393115484649933 1.514745575493818 -0.2969644744532627 -0.4296095893445315 -0.18792526195008022 -0.4081056206860674 0.11549062188917254 0.30648039375303593 0.11097872087468803 -2.9310170090195498 0.30101198787065914 -0.4970280784425627 0.9176827636738162 -0.8980340012610719 2.538197123474104 -2.0323883924505357 2.615068241301259 0.35240428278222785 -1.3154753794710652 1.063677295890251 -0.47810927463456726 1.5142677422483608 -0.8074904078391806 0.7587454492507022 0.5429770521361091 -1.1818649328244808 0.7488199944523903 -1.2792998165886273 -0.39848457400568366 -0.39492083689686724 0.37584524336560654 1.2499111037329835 -2.038853322757963 1.599181751796792 0.4372300685344942 1.1234555240081678 0.1100290148678889 -1.8438513369391443 -0.24410559538194843 0.8173666490638225 0.6604261978911529 0.9011643254208825 -0.1731047973708596 0.42799460900687647 1.7669332094118455 3.2728266634753935 -0.29354638985040216 -1.2805851403693282 -1.2101796162357794 -0.10591564929814014 -0.8998736102521628 -0.05288829555176096 -1.488753546052604 -1.340859236274327 -0.5708823046385019 0.6102776719761395 0.23619973583367657 -1.134131764017598 -0.430209420464952 0.47948047218562745 -0.24931524030181676 -0.5636558046699691 -1.437526301688589 1.0725263995650103 0.3601916353285287 0.09408501884376745 -0.9615407132387503 -0.19772574541129798 0.948249056627619 -0.5047390566666455 -1.8473319868738005 1.2606291293127496 -0.7185681363825335 0.9289707172731375 -2.598514870660285 1.2468802459215849 1.026253080759049 1.5796458429779792 -0.2840014291714647 0.22487678774906866 0.5836258893084281 1.261174302884366 0.6285569797261108 1.6205360688988057 -0.06669772929613725 -0.7858272980119556 0.44796707008640374 1.4412796480656278 0.26102545574387837 -0.3370236176872728 0.3450568799674509 0.9670633039122941 -0.8700843646182188 0.44243027380772065 -0.8367364309452587 1.3962226652771315 -0.9164730359051595 0.8309118186328286 1.3184632592254089 -0.7848970695190822 1.5662264250835682 -0.3801681668944063 0.3262376876420582 0.7476568500646781 0.8568968275169598 -0.1664892539516253 0.19096930825216543 0.4413968524164239 -0.6705138711460394 -0.6537608532469174 -0.39187805419421917 -0.5420013856097795 -0.1463442599673665 -0.9765004762178081 1.4106140932376918 -0.37962337089090925 0.1282306905348673 0.2857794045269954 0.4996515211725718 0.6754732218411144 -0.6158128638535015 0.8805787003294367 0.08129426592826731 1.4952673455015897 -0.18658762092398146 -0.9890178884739175 0.47836149790940036 0.33194941413804585 1.5101868940964882 0.5634243232609111 0.18620129360988563 -0.32867586681133315 0.7761151796983818 -1.2663913493400047 -1.2322242928457658 -0.5899392009591878 0.21044666870394532 -0.41926803506959054 1.0240238950603944 -0.40004879171140556 0.03885107548518784 0.5507721759199843 -1.287452637770047 -1.197383680399666 1.738188335852506 -0.44148110261909845 1.580500709807236 -0.7161684430512435 -0.14180306661932718 0.17931148057595447 0.9240492244147165 1.1054468790427083 -0.40840896412113015 -1.3727826268930785 0.6357608505346327 0.42821182279547565 -0.38866887445179255 -0.3675403011595357 -1.5858938002483938 -0.03149599201805481 -1.6611777445855453 2.587880302737612 0.3475755237952996 -0.20574179930708236 -1.4969977865921247 0.04187196959780776 0.3613435870691164 -0.6832158853059679 -0.3659010275071396 -0.5326785784759346 -0.4600368173273303 -0.7842746803212748 0.17411762815469697 0.8227176888000097 -0.03631404480582602 -0.30397027737646304 -0.9679822164708859 -2.322399110325695 -1.4779046030016336 -0.5522965696077234 -0.987381437840738 -0.2984404900196093 0.35069011440061704 -1.0393307288624016 0.8291593002057605 0.1252819251353952 -0.962622560065329 1.6943991082837149 0.49676886486731453 0.28849440011666816 -1.3630754437759895 -0.3763853127956621 0.18050864643872916 -0.5615826042827036 -1.313091112040316 0.23588975849794197 -0.033455836812077866 -2.6745968628198766 -0.7216916097187762 -0.1101340127491507 0.07900659110535609 -0.46972798136701527 0.8763257428139956 -0.15397547930166522 -0.8512158366705661 -0.7933397460003326 0.5190426617192252 3.6372278750424223 -0.5838264647791619 4.537154002210573 0.4435626225054685 -0.7402711822258328 0.23063957147276162 -0.1258600741934143 1.4681587520628887 -0.813036341982542 0.933761466188135 -0.6464934248302082 0.6548110237645872 -0.539924781505122 -1.2976525525179634 -0.15090756572027886 -1.434611907708958 0.06048057849274544 -0.5719564845411041
0.15317322939625 2.2150264187612785 -0.30295509126109205 0.2263149857373828 0.19031572700587562 -0.5593108203815029 1.4238291802388165 -0.33827854828127696 -0.7833428920349355 0.7562973762081046 -1.093970447715661 1.1377324880064046 1.2635248581588652 0.35123989031980146 -0.2424770367362617 -0.5586647249024111 -0.5603479219976905 0.028113345382823243 -1.6470288782211209 2.4137436891728443 -0.49176400809263177 0.3377610915508959 -1.2920922712941934 -0.7177286742334117 -0.6526006126023368 -1.5904331970567593 -0.605523981492796 -0.992909546884047 -0.6302549315985551 -1.5929410030131073 1.2154377372928862 0.39045975712278924 0.04652310918574781 -0.061250206113422224 1.0623653552287 0.8185803815225304 0.6010558103762976 0.3661376835516731 -0.6709474432231165 0.13843244523082301 0.6473673623067652 0.0393566581543678 -0.5445745806363969 0.13409182254075505 -0.5693774199969883 0.3313322404424812 -0.5529782036166455 -0.3540100210044956 -0.20423064204838215 -0.7072083329193473 -0.998007914370314 0.678259073256299 -1.8972299649754591 0.7622341449330239 0.41427193083659813 1.5052480505580814 2.0517126504963796 0.8817331828216562 0.3686962716676724 -0.80881987263517 -0.47872121126267136 0.7890375281577947 -0.4127478639248083 -0.5490941254917269 -0.7356043641011074 1.1194242145678097 0.26405608322020213 -1.6294105862898252 -1.0014778369512558 0.8304284737535277 -0.11654134771502665 0.5317415898721166 0.24818643132134244 -0.0743649955069155 -0.41939694513708287 0.14260242984739688 -0.6420356121786678 0.4659456592859174 0.5449905980436197 -0.18373498676241143 -0.46623975660834516 0.32818779247824104 -1.7597530664510759 -0.6011353044424568 -0.6699083362312174 -1.0249171198523417 -0.3247139986618643 0.6552182107797487 0.7273578330449959 0.9881073760489898 0.8655739844032297 1.715059460964889 -0.2592952555625654 -0.056359737304990554 -0.49851155547339276 0.46730109852739554 0.6805067470020785 0.7838794536966041 -0.37750237855578345 0.39702606604905655 1.3474381779023918 -0.6939573461252057 0.7975286608062968 0.3005938597809388 -0.5772665875948547 1.2862540722615394 -0.23518999756533465 -0.2686633314326563 0.09106867183743661 -0.10662510716486845 1.2933685646921076 0.03761215857105805 0.1541571669400342 0.6799189980113529 -0.7851657389855907 -0.4479196748115153 -1.0603957370146693 0.9153610323237931 -0.022556655970900938 0.44170322723596617 -0.3049055660776251 -0.31771959778760755 1.5803562125578576 1.101083264084959 0.016953974252594563 0.4627152087877467 0.5256251206552723 -0.0031025866609250847 -1.8308939883492734 0.31852008942288984 2.8606612469192374 -0.5623026321836657 -0.09673519653019472 0.6165988048082132 -0.4574186630179456 0.7511615800002867 1.412483894537559 -0.6658756583375384 0.6457513166461463 0.1545533688164301 0.12163606564838413 0.2085687632944265 -1.449095103594794 0.48165769601335284 0.35725464992180966 -0.5609313512232055 -1.092587164456283 0.686771905941547 0.27717042715867907 0.5192593220862514 -0.7464077140139203 -0.5252104418700991 -0.03009675769827217 -2.1084615878635735 -0.18410500297353266 -0.8903970595524215 -1.2844176561368041 1.717683970506622 -0.18453368043832188 -0.09279249729335136 -0.6852539116610081 0.3322506783494276 -0.20850092517120022 -0.5145468925135014 -0.46431293297860887 -0.39649754732194503 1.1805145122670513 -1.4962517195126959 0.4461714666152936 0.1855199937390583 0.16847345695434726 -0.09720962889846288 0.9362381631045292 0.45899692867591 0.7381291426824753 -0.42989978214353464 -0.6551366910830966 0.41772071857330706 0.09933497557282168 0.04964172648788184 -1.2402923529677161 -0.18899771636963958 -0.09192017933531989 1.0581270551112674 -0.2102353625622368 -2.010568291487019 -2.9664578424972348 0.5471154149455667 -0.4893433518261001 -0.4596875392145414 0.7580945471530163 -0.8386131741377826 -0.3028903175221611 -0.3024142385255184 0.14869177625915275 0.01415972565456676 -1.193243324184804 -0.13278439899552846 -1.4127591075501353 0.07553224901605263 -0.6848964842489423 -0.5856026280227056 1.132400019812914 0.4022974124971477 -1.7511649380346688 -0.6753924013643443 0.0746468457134498 -0.36510783564939964 0.2722594300038492 -0.6547052946504522 1.4908948379376734 0.09347477616344954 1.599388452363776 0.42611063543367433 -0.3387156319288843 -0.8310928088972146 -0.38346643051990614 -2.5305174623388247 0.13337726825018603 -0.1648432920960425 0.5102828311734107 -0.05331181148786441 -0.8392863581424033 -0.07124734264245502 0.2600618571346475
32.808546718573446 -36.73940962048743 -10.671607622534419 -67.6535445204548 44.72077528247686 -21.999373225393892 -24.6437624165107 11.834896809149262 41.09233177855318 -26.68745869815138 48.94958117541796 -4.98383630651408 4.47997914599911 -3.012398889698691 -61.413263795978644 -4.399489393812088 6.826927465876748 12.258864975273392 84.64991843062128 -34.461566768603824 17.65558115895751 -3.69546877494614 5.696618892795709 62.79114453140851 -11.177045142671368 -14.614045281439573 -3.0402001201633717 8.770825367650394 -46.46408554037515 -17.000092371961422 31.743688197709112 -49.00151255977288 67.67909914037412 -2.162833097451765 -7.652078534648591 34.59139742071594 -9.924163666804445 7.380330590187292 -57.74099041911869 -17.24577565118529 -17.81806127112316 -21.8093085236831 -4.898136708296666 -1.3337292373746694 12.907918986949447 -50.784712840520214 14.233931736653338 27.452962436969468 -39.84516663810929 35.39524657811866 22.241915972345012 -14.83992294200067 36.90489830109117 10.003118965077975 -41.26983551184544 28.569863100030663 -13.634072940132377 61.98990994946425 -15.553709687498937 29.06893811679005 43.6093056874343 -29.35382397607677 1.4164302814028484 13.606367776391899 14.688153179530293 7.161600688485497 -4.210773207461974 -38.83840987267203 10.903466870999878 -7.185705951944728 -38.22566136213797 4.540037984717885 24.38112707646776 -3.824983937829695 15.604744906305987 -45.09076876862277 36.68375987923528 -0.37972808161939264 -21.83993379600357 14.954765958902133 -2.270247155627683 35.20241512043218 5.883005704595799 22.735403382097154 10.784196442970652 -2.801823215439863 36.55305237415447 -30.432445797134445 -20.775248874319306 -12.561295185812558 -24.62277563807045 -10.926863827730376 -53.83661383403647 -26.181986209735086 -26.652442461085208 10.941997412890144 14.984873292341021 -13.3707271557099 -34.72380517081865 3.9626034434079944 6.891127631832626 -31.376138536110975 -31.032753270849636 7.886155490759759 -13.50683918444029 24.25439212349281 -41.828397128835086 -16.35931334393078 -21.386798404259963 -44.30440355042413 0.3735920936785592 -9.76812187725935 -9.861796369597982 10.867412507579752 17.353231168516107 13.055732849810447 -28.154121206479136 36.22381570081682 5.9882292057854265 50.00464967155945 -20.65464353870894 -24.069552658108357 1.6536727894078005 15.503247555271251 -39.21636638332081 28.969276269164883 -10.5336190079719 -48.47115251589822 4.039125640779906 -17.724086050932776 -33.510216057674164 6.6829567115303306 13.012257544560368 19.171514638965444 24.937981058515476 -38.6188488503031 19.524648639467326 27.796920000310447 -13.196896172428652 -7.806965336833176 7.253585112765242 25.750930513025757 14.728482353386774 31.103834648390336 14.571842176322159 -16.117672429373076 -12.452793296526673 4.9898475369683215 -17.317616473091626 3.7013885087893326 -37.09916137539928 23.220303068777085 0.48316121655158206 13.211426765461052 32.688192514677965 8.55471831364558 58.57771176701475 9.245567704558107 6.269033316385224 12.621356407837895 -3.9824290789181465 -50.67320266013727 9.06585864644072 -16.56968833066754 -36.266464447984 -73.36944185233928 -1.5350051873893877 13.497523250825925 23.2347109784097 31.41975876058483 38.131064338709784 26.045926441882028 -0.8034642307596804 12.299295905399791 0.15308842691466334 -21.932663522254973 2.5743468156169262 -29.28918214696186 -32.36552419511233 -13.620889060294653 -7.794212410622477 79.69135649007517 -14.341230373678453 9.684731049064197 -27.502007621244715 -0.567226840672771 22.33823528047346 13.875900958784989 10.67413590544774 60.44367568638695 -36.58044357614713 28.003059899515 -42.63910805144566 22.68661055642639 2.9069441492621397 -11.048742965169847 11.73794209592928 -36.153281225456105 17.0555735375871 3.513412991673907 1.1014549980872734 26.033012108462373 8.715934654904096 41.489749538640474 -10.160763192505874 85.49579142603203 6.062457075411049 -8.162851279505908 25.818597182696614 5.740227962020222 41.5191047231476 27.515462693988937 -29.726589034444384 -41.8563811924056 -30.59651955298937 -46.77240234778749 10.67537887244091 11.985525315150234 -31.141413657558477 34.327556838394145 10.437755845546018 30.751407768544883 -14.069329367337794 40.74076044577641 22.57641153071635
-5.935345515445627 -22.304277757465538 -32.750726797652554 4.2168386399992 81.66161228701934 67.0520555962475 118.92608682915065 -100.46677880878046 71.53838500119514 64.93863036612632 70.55829285411568 36.395539746595105 -4.041775898557529 -102.1886718081263 -66.39045399881911 2.0275498608855664 -48.211078748391806 8.547323539527069 66.19899897982638 -17.379580851452697 -28.730479265645435 79.41273062248847 32.8457725822675 -25.844364075635205 38.62383726342659 31.19564113398418 12.778366369356922 -74.99403927932954 5.0564401052089725 15.061314497249011 -102.35778158142601 -58.75369549057035 51.87831627946111 -22.180793933302894 -1.16235215547005 5.72366541675384 24.33290395808153 -51.493677311172654 -3.100847802024155 42.2884993126334 50.78204176446149 65.61433029766411 -61.99808697304545 -32.998461204996694 -40.447954016694034 -26.96376174082594 15.694578460031105 28.830234211543072 37.895576984964656 -28.350503859013827 10.617469156248704 70.07359587142352 139.890673104027 19.85238612545269 3.9880009224998028 -40.540910453502654 -24.660795159864584 -98.59353757196179 -61.691578942454875 0.4495876495257167 15.315695546261113 -57.56475172339681 7.138779531117405 65.18823057029164 83.05397297015533 -14.992560418305413 31.2348216797813 25.826561792345966 10.185375600533577 -87.64277193016441 -21.0214116219095 -83.1345506680904 -25.54891874371711 28.403551379461053 -22.527108384074154 -50.23748664191474 -56.498294216351034 -60.83729609544957 1.8875930877615366 -11.800323962723864 -46.32151826085973 10.270907847109546 2.9331275559888357 -90.06791202709742 -15.96402883465964 28.85131618363617 -3.4422180463466936 45.98677046315055 -37.24770507400007 99.89076307974632 79.3008969617966 -0.3907426300631917 -3.9185323542428505 -20.236236102251134 26.6802444430221 -41.81740522512389 0.44853706868594373 8.74004067970302 57.0689467708306 54.46748970121418 8.685038288556102 -44.825177568066174 -61.273859379604964 -92.53752113981726 -8.517775893231322 14.50808412575582 -22.568964879698488 9.115142311870402 24.456526768933184 -46.67372514689576 -31.409769387922008 -0.5244014263598574 54.20914810432491 56.299043086686666 37.5091920998994 80.76767110723864 -122.71304333617393 -73.09080820079834 -1.8957734416165548 1.3871478248067013 -79.77841341566902 -62.17592074091757 -48.13606304233346 -46.96982061159781 -19.44639804790844 32.7038333404864 -4.743801725813711 40.723665448203555 81.12066379870897 -46.14106639802865 -0.7681638314979612 17.177660692632518 70.87420261155002 35.88974613929395 -40.535481735695384 -58.52995499794688 -34.024727378715475 -45.884447698543184 -61.610897177776586 -21.637544364628145 48.36167521644138 8.417175680500577 20.42438138400039 52.65052298533398 75.91662216310812 0.22145012968691535 10.235893115322394 2.718019967455242 -30.497884271893653 28.953647072638425 26.91182756075132 -65.51934878473526 76.93331444647875 46.55075139212089 14.104550438577006 45.738226140887974 2.984543685801108 30.55842438331039 113.74152074539779 -28.15614868889888 17.367861375202807 2.7791837686196135 -40.439890562951284 -38.99386939196091 59.12119649736106 14.348576698557482 -84.23080169335634 -18.957419270561015 89.17242721562315 65.47904536182207 1.990545578073671 18.15644565163871 41.522212650479105 -9.36123751725257 -95.41090387409487 19.795368293506257 9.342266739009553 -10.687434490639117 -59.02334899125756 -41.89068125923407 70.87000529255438 -3.535842234945539 134.63987436450242 32.69439865617751 33.328869973004835 9.037087310623235 -1.715487137557115 -75.46796089773083 56.96998645440757 19.13383552300651 4.962797999749853 -42.45811780787543 9.872523331824155 32.72642040232313 -14.90889703779582 57.21122822276152 45.87484048678185 34.194693726889376 -93.79771130600527 -0.9601908481378527 22.206890913523626 -8.466140766461555 8.517890471816369 19.078218669654504 34.763477059348695 -3.0748913057308886 -92.93723962271852 -59.07705159842973 0.8148208060112302 -53.79951281368932 19.0141863541371 79.51146065374388 -85.98942898357551 -91.66638664252882 -2.7945065019898223 -1.2935135024455582 91.57310858524532 -14.07045058951464 34.074692172272016 -26.32442453730333 -71.82764750568766 7.431758917361422 9.229922922464203 43.552347277417304 -0.2703985046307903
0.9157985130567833 0.008404406012924843 -0.3513087253865034 0.03527007654022765 1.104360453107811 1.3068275578275121 1.2884959757352945 -1.4335103943094323 0.605816303655852 -0.8506280854467366 4.013315585744047 -0.3691161404281879 -0.3467753486066192 -0.0788427630556763 1.3769308041283106 0.6196576622880382 0.4861592729386402 2.0629987117282163 -1.8927490870915338 0.16616330638507476 -0.2204328177483672 1.5079741822801513 -0.30669375706556035 -0.7449405569667679 -4.95598290816519 1.0437552361532108 -1.1703982932817216 0.5820037800881648 -0.7153846102716035 -0.981404120846813 -0.14384071093271647 -1.5065889696468995 2.3981085666316675 1.178540781732048 -0.9185926436756356 2.396069598562714 2.1634769383342 0.5947658965710418 0.8488339447023592 -0.9512117749548392 1.390145211048364 -0.19282306923610837 -0.444902148339021 0.2231002044317798 0.0629357785638334 1.1185241562775998 0.8648196365673817 0.9203092995108222 0.47801065758814687 4.639117230648428 5.6637700088527145 0.12778220004667756 0.2474533407703456 -4.891310774422458 -0.543288370783296 2.0518944617861306 0.8852036774207935 0.306881706782229 0.012863964939558152 1.2275694209799657 1.42075219176871 0.5224227366467304 4.931058960208276 -0.3344736152733154 -1.4273623218436247 0.23888683158084234 4.6333506788298475 -0.6134285235518001 0.9135665958984525 4.38421597941774 0.09573836981546253 1.9459396068967576 -6.024289149146181 2.0497358375824555 0.2226075631017472 -0.10273568955967945 0.6376520717589539 1.662103080775869 -2.402713736464338 3.154926210131034 0.4061801853636691 -0.547945892282693 1.955175895803796 0.35617433575628143 -4.882423766474742 0.8821403669526533 0.22145524792808177 -0.5265233137734405 1.011228300943678 -0.5921442418289401 0.14342656250326513 1.8711775765826093 -2.7886906507696003 -0.0391569072312569 -0.911032968473835 -0.29435113480968744 3.2176294955382727 1.158791626221655 0.9244835738279372 -0.4730779095539552 0.12676775332636442 0.9345090780150479 0.5855966407372183 -0.738342191390607 -0.28805784787730226 -0.4764553391316371 -0.608820814743708 -0.06233050883557057 -0.08014032475806089 -1.8231944527740371 3.589680744754778 1.3804766035177447 -1.501067335020815 1.3855720909635405 -2.38547175260752 -2.4524823004408427 -0.507743690550716 -0.6823478390740633 3.6474609139068868 -0.3816631530978233 1.0343157341426665 -0.026541999974678397 -4.454522787943383 4.696992488012343 0.4087727238073985 -0.9009081322711108 -1.5950999765121125 0.8955585008241579 2.9625682878354773 0.9806517251506423 -0.19918173824648774 -1.000934328950968 -0.5682567368008172 -1.727071165717562 -1.2490075711000186 -7.382841519896854 -1.5508279879616973 -5.327149451400104 3.6282440601516326 0.01429643832817497 1.6358512497076716 0.08919867687720712 0.6177717213562192 -0.4578158018052455 0.9236177580105601 3.2178933891096344 1.4070881610508776 -1.4211807648359405 -1.1924931939140522 -3.418666416513915 -2.1627915771908404 -0.27683995006555934 1.915143728885134 -0.3514015630648827 -0.016501346507540936 -1.1381149353129274 -0.4367014272933378 0.4837026709099517 -4.449868624775683 -0.3283505927699601 -0.6122349810829811 4.336995538940371 -1.809349507735642 3.0110007095877163 -5.328793319582709 -0.06530247891959622 -3.3324498250484265 -1.8950687190906366 -1.6223061575300701 -2.5082115074980424 -2.1067891914942356 1.5743026618398726 1.639358563792407 2.1044766943024635 -3.631700186034464 -0.9697186829587778 -1.5567203865043204 -0.0016604959963044865 -2.2470394476735915 -1.1323446184410086 0.8298186656726791 -0.6768474398984557 -1.0824293803733087 6.24809534835386 -1.7203290530915005 1.4394464686671964 -1.7942783790672163 1.1634162299062396 2.2115178752689184 -0.8165012718153399 1.4939413155191381 3.6540777113396414 0.37524166717565716 -4.849659082119945 -0.09753454992085869 -0.5666448404822598 3.7720477590154657 -2.5244302751976213 -3.366471557519192 -0.777999216334042 0.5218767135763978 -1.2550527064235357 0.5677969047131222 0.7662732024797062 1.0491328330407848 -2.1409260969420503 -1.2007055744874358 0.7512030376524204 0.3257718826099704 -1.1800637714122284 0.7879405602214338 0.8540672288479753 0.3009681095423271 0.7284917092261837 1.0948606453097345 -0.3684050379355011 0.4318133836401046 2.040362109530118 -0.967203767638387 1.7159596565677804 -1.4980446117653914 -1.0255095816629163 -3.0279213955876734 2.0103616964225917 1.5305837850620256
-40.53610827463055 -5.614752896687254 -12.159255134310982 -4.194931489850632 4.925395513721854 -10.609259347607983 24.493908510340653 5.796640267478254 15.834802499465573 -3.7041008125870865 -2.2304056132949923 -5.92710259935221 22.676259834107157 -2.8360086953101935 -8.809464551467508 9.330734061390718 20.756751724909016 -44.25450561295756 -4.519314348319932 -28.539072777346224 28.989935275617533 -9.382752496680942 27.181150268387107 -8.316465063699232 21.57371109411374 -33.70745851900474 -1.7420357638288886 -39.948632659658486 21.91792603181173 -11.845521833526979 -16.290821473133146 -11.954463476933498 9.435880575536421 23.299678019624263 31.845038711698837 13.54923895394474 15.149868304107823 4.2560334468562 -4.909247527189741 -29.134751641520907 13.663438885522682 -7.360844830353017 0.6218184923596839 -8.245218910004478 -12.028763327339217 -2.7428889200215854 -11.630333907552583 32.91052840505229 16.788111056748942 -11.843630039463445 -1.473949027678823 -16.173795709395083 -3.110718568003347 -17.9808462493312 -19.273808878854787 -8.658677984176867 13.094599330667021 8.765240491440048 -23.44385704883408 23.61199010467447 18.03379870927452 -0.11482440014329344 34.8290779181274 -15.079422729243591 -13.601351029528615 13.220199240738035 30.262832938905742 -28.775447077772828 11.135133946398918 6.3182955228728215 -2.1190021631074236 -14.62194104358631 -12.613890041215411 -13.618641409708594 24.053267812315635 -9.080835180470787 -35.635985497644725 0.528373096229536 -1.8306794658171244 32.905666365704256 -27.48979883555488 9.711100521215558 18.905509629957884 6.6305983501887775 -36.392174776335644 -22.54369573895971 37.23563390011375 5.227048299653513 -14.090542147723598 0.5414882918636001 -13.225879302900463 -38.668396812646506 -24.31103579161878 -12.463496535714526 8.369455065195117 23.88343760148002 13.56215438693144 -25.303072649535316 -4.588834322269671 -19.107128892005456 -16.022187330180188 11.618156461056099 15.775609440375641 -20.629310703338394 -20.847729521971157 -12.278360941644568 17.309596436320074 19.49732066191596 -11.24753966189145 0.9500315264170917 -14.934387603789606 -4.631263514949415 -23.40168231019621 4.31021667649633 16.757635456726803 33.700543895220974 18.21804566354546 -6.159135617449122 34.02501276865127 -26.6395430312689 3.13122602805798 -16.67529664346504 -40.95186824971278 32.75343585794245 -42.38554073791826 20.698036197898727 -18.69752682296922 -34.969360253988164 26.493666376480036 -11.282344775546987 10.00969630074662 13.315157340587149 -39.73654366949855 37.33153553565887 4.81119449296428 -25.805349482661534 -2.782396162771996 36.4880658461388 -14.983663668379224 -20.405102313232277 10.48612920302892 -0.44433471296405874 36.6929685318773 -11.170287818296003 -3.484668960272003 27.757868818639615 -17.487206813490847 -11.076516202961354 -33.53387002115682 1.7145028179950326 -1.8666457387756021 -24.325087262646594 -7.258096143852784 19.762336991313706 2.566467900910687 15.913279230224033 -0.5084172190060604 -23.752463798516324 4.690952287018211 -5.957841109601346 4.906512853761624 -20.963114333268642 -21.015041893249453 31.886692888886564 -29.79195097324429 25.850216333223177 -9.670746092891122 -0.5343442679405995 30.13402790977206 11.438853119391787 -6.204238617731872 -14.639775530982048 -24.118436347036678 -25.171413077200555 33.096635213532494 2.157780010123153 -23.034521109312045 52.035751815587496 18.67102204959381 -34.564215836514414 4.54520580383849 48.099672136335116 21.227068567571912 8.897823091516754 -36.05915321688641 33.20220966100453 -4.459369293057834 -10.185629432624363 27.16946134940654 -34.38998845985595 2.652419804088278 -4.949907087134526 -7.487274874179955 -11.522068450404548 6.1967880595033495 36.332284247737185 -12.66653723838325 11.725042871814912 22.06026634575583 -6.835119014264258 15.974060546723909 31.912860937582497 13.465838664137872 4.3766391643221905 -1.1461287512556808 -0.17683719610866688 -2.1130996630908494 1.903771627320839 -11.233779175464772 14.671904411710912 3.9238565272445327 14.650049215502149 17.66882791765235 -48.031808584453145 -23.55187393924556 -23.646118390396833 3.1771464125402917 44.527132391865564 -18.630829466930386 -23.64964816451996 21.169333272144435 28.3984299520398 -13.391031157474627 8.42853981349223 21.391476373944776
