-0.3975301742980135 0.5120146254957001 0.7159770370011724 0.08125470415681768 0.7961518144673565 -0.9936534657261353 -0.7933106409006774 0.3872761578271604 0.560278432051541 -0.19943815808739007 -0.8330070745203304 -0.8877413669013927 0.8421617325354083 -0.03365804802830974 0.6636625002293823 0.842833577523024 -0.291826453166137 -0.42363631131818646 -0.32194956989598733 -0.23584712125646945 0.2284383136657271 -0.798799307454015 -0.9855276964780286 -0.8746147557464761 -0.9858351544764559 -0.10154586285871026 0.13761151502804925 0.9077334377316002 0.6788402670546938 -0.27649773045571724 -0.7093876833688886 -0.723840339670446 -0.25095918151650953 -0.48524920161836005 0.5910629904289786 0.6128259218519556 -0.30913883624203375 0.3717399077457948 -0.6866327949524205 0.1400236724263786 -0.49669605098636826 0.04211261613186812 -0.01631374575092548 0.9927451578517579 -0.6225058131335095 -0.45839048883840317 -0.0841676037740482 -0.0825533010925441 -0.5730093946590644 0.7395763005875631 0.2528507387897503 0.21403787499298788 0.7265531739084894 -0.7320997275764758 -0.6992358968435091 -0.2524780157500719 -0.20475235902837485 -0.20030923111346466 0.33708358753542056 -0.8601252073652172 0.2526532376508741 0.30230390578670163 0.3089106538378035 0.5360629491219242 0.31140660832719935 -0.6361862753675198 0.9079942202346056 -0.63711962023672 -0.7794114367470204 -0.04099168895544314 0.24194879943338332 -0.7290793762228125 0.11241784416549061 0.4270365345599234 -0.2266038256577052 0.8965564350980211 -0.0055284649104632155 -0.9843292028998587 -0.493921992565967 -0.3183410545105956 -0.9400087374284305 0.19735901006093948 -0.900172039892772 0.5513122406634725 0.504345591406417 -0.8463344494331526 0.06939372599777971 0.22435723422510168 0.04783606884042846 -0.6302605086798534 -0.30566226533779184 -0.6131138581000042 -0.5173085616140229 0.46553576281406195 -0.9812260692942971 -0.8288910990125686 0.2121049130038648 -0.12214101707994529 0.10169209428141257 0.48490108569860535 0.1338990933131039 0.8946706854183206 -0.010016593194816847 -0.01929297255169149 -0.4603699709109619 -0.2033245655001712 -0.12435642004055625 -0.23454136812917303 0.2496701215833108 -0.31763831225993244 -0.9149187405017545 -0.6287185625558616 0.21004808801522312 0.30170313807632665 -0.8359503519962896 0.11807307573142434 -0.10651005741743313 -0.063762690792317 0.006888237498148264 0.14566500786692171 0.5831029705076105 0.9394124194066857 -0.42413851914044387 -0.9062669826544976 0.2770478332452877 -0.34627835385864136 -0.6635782449628764 0.20193673828049574 0.09645767542334949 -0.16132931890289393 -0.866797061976706 0.8693176546312513 -0.7102427709867798 -0.9684260730217162 0.6834571262409916 -0.10928085988814362 -0.09190839289674213 0.9037153956593187 -0.14507790362086692 0.15996038735068208 0.4385613219228188 -0.9518744308070821 0.3859719770196546 0.6699544825809545 -0.6968236710709597 0.8969404859528542 0.00514030688663758 0.5075014423136885 -0.5975374309918993 0.1555094713393128 -0.48533968198939936 0.2813129201098348 -0.3597343231112027 0.7204573935734613 0.6402384888147166 0.8245490843784467 0.1613962380395364 0.06486310051848965 0.9492676259594919 0.6678614808749228 -0.8885100868274516 -0.3454853799873423 0.4653525670286862 0.7778243304218053 -0.06474752260302297 0.9918955953939517 0.22263702147592435 -0.4844919075039671 -0.09938793349736819 -0.10588941315011047 0.061209890411100476 0.7807585121252829 -0.25178049940837255 -0.6186319176751411 -0.3997782986801224 0.8617873269378378 0.023587887016810027 -0.6935669954831427 -0.5915331308795937 0.058993120567319535 0.17534528628367152 0.5954390081231731 0.35805999003108546 -0.72057712443736 -0.16074916732831035 0.71467013375677 0.5578510295333325 -0.456616530253662 -0.8202721394811656 -0.57944743020871 0.17822297387798924 0.6578122413066856 0.7451498901473803 0.3043583630054896 0.14563994824673276 -0.4979030503475772 0.8655563961871482 0.20658617120230294 -0.19076066460647367 -0.8535865344882689 0.41644760517900137 0.3480027982756051 -0.04473039348783847 -0.6548935275514403 -0.8941172073024908 -0.5612250002166501 -0.3138471377866894 -0.3286174995854858 -0.9832748038439847 0.13776487563186834 -0.33155629524792585 0.7027614670976068 0.7203775507093193 0.19655517657046273 -0.5076121344624815 -0.6636207287444951 0.6105023767135784 0.810892476690215 -0.6455835775318886 -0.7003273921105531 -0.0018626371510654938 -0.8890738872180075 -0.7002430063452025 0.7583175972682252 0.7172923132423659 -0.378337290392019
7.248348850488443e+17 -0.7870792196063197 0.4925500002364027 -0.7565072781750843 -0.1788323218060257 -0.18767162765232226 0.475924379590271 0.9123730167651469 -0.7297268663626211 0.4187415619704855 -0.925091545838306 -0.03772289720468214 -0.05528761847939001 -0.4371210131624683 0.19012466940800388 -0.9025584303656331 -0.9191112933058256 -0.8768672305310441 -0.41074837741285575 0.10259971909128329 -0.847622311806252 -0.8786142846337237 0.29249590882042953 0.06065265609431747 0.36262037736813846 0.7512064380690844 -0.9908343684422478 -0.21687330887548706 -0.3092546523957651 -0.44664690107090577 -0.9193746932803117 -0.544926755747952 0.8996827761516852 -0.8765699186089022 -0.7025110053078942 0.35945030426581037 0.8590510455054374 0.3721674799891588 -0.5778167788551449 0.6659326049249401 0.3824399523355848 -0.7604060524910405 0.2681047553400633 -0.5359525707163948 0.709815456645609 -0.5294262098107734 0.5095258117133501 -0.37455782785800773 0.9189863762430361 -0.28800137060795206 0.6411754690505587 0.7090483976902375 0.45979374244583404 0.29722995177222744 0.10417212753134053 -0.9253720032240476 0.020646134544048955 -0.8071953374179095 0.5172320846067886 -0.6572493309639857 -0.4645497249315753 0.6716238104710084 0.8427676232433525 -0.22164141200495524 -0.27691030721587007 -0.39685689631496057 0.6731890609165678 -0.17440853804303247 0.8434835297206034 -0.5538441141619859 0.8026288331420692 -0.9470506128718934 0.781278861547126 0.016753056013044887 0.291143466756663 0.2393477720790742 0.5519474113773337 0.10038683924191827 -0.13416153518877416 -0.04198218139315313 0.3956761974544203 0.6916451739889535 -0.5619660611073498 -0.2735449928762581 -0.9709169964115354 0.7620534489064481 0.026109173879123704 -0.7725353849186032 0.9283747577042949 -0.5867187232805611 0.10407564131340918 0.5719198497340805 -0.9894330060020962 -0.6653013347304573 0.9865608921888238 0.34588383190623695 0.5833429672244177 -0.09424797340337832 0.43094622007421646 0.9352746269468613 -0.5696123651517273 -0.25804633392618737 -0.6549194253337007 -0.6867410134321237 0.5716374775041382 -0.6739727103218118 -0.9937725534701716 -0.5178703795152226 -0.8153642201562181 0.11365076714101496 -0.33959387164410515 0.6592264568907462 0.46693475726375255 -0.7749767336747053 -0.3626845588661807 -0.6371151884932207 -0.39592459696542615 0.33851227416438157 0.3613183853008495 0.11232536439055218 -0.05090422615251722 0.36673039599321955 0.0038401917958013065 -0.46512867246148204 -0.7029351183224937 -0.607076569214549 0.7826406337324365 -0.27210435705543445 -0.5446019311354875 -0.6693600057111435 0.2799725873796137 -0.17886474183429946 -0.863946806347277 -0.6901036598784864 0.03298032210196955 -0.11702452240624095 0.30327005769120174 -0.5217223844341805 -0.8943981339061453 -0.2018173420843279 -0.627383939818231 0.9033084915028442 0.8047123989253819 -0.2839063413973948 -0.5868262399182416 0.9975826743246787 -0.30925342641470155 0.8785271173370346 -0.5723467406609435 0.6920411166091642 0.6371996510529276 0.9397722055378508 -0.7158762909520535 0.3021107805885934 0.18029224389067022 -0.325168560788927 -0.2797030485641985 0.8686101084870641 0.8545469143762114 0.020683894691228 0.8245468474077333 -0.2243661800325334 0.388082750748763 0.7813978654133615 -0.614534585341171 -0.980191726920717 7.248348850488443e+17 -0.06467545414764042 0.4198800697048377 -0.3508013021649212 0.14607399150889466 0.2801563344556435 0.36057251514653843 0.927991981117051 0.28329597185874955 0.12829294877389597 0.3709861054078374 0.04644273997686943 0.6996785914072583 -0.752101637833452 -0.44188177347251845 0.9192875774576104 -7.248348850488443e+17 -0.013793000461969962 -0.4008374058242794 -0.4730159631339119 0.31067426762345285 0.11274225359176326 0.5707748983380583 -0.6285325277310359 0.0809641461710684 -0.10793187496037926 -0.2995802293062586 -0.12324506488185438 -0.7406463471788238 0.8645551100855497 -0.5813472152213168 0.7353284276366225 -0.16667777540164375 -0.5514201819271529 -0.8121075405450551 0.9586883156889798 -0.0069914965442579025 -0.20028721985353837 -0.05936419926499292 0.6736095621429132 0.9290515594047917 0.16140159235062645 0.6738114960878716 -0.984708879005149 0.7062552926360781 -0.9946895976909027 0.1838469666266631 -0.5870341478019545 -0.6856963585357985 0.5687010973669357 0.9074949181517922 -0.8822383709546384 -0.6328302940946882 -0.7953665226509732 -0.9283297933767416 -0.16750735349968648 -0.7104083599205495 -0.09325362254606939 0.2862992246521612 0.2735525615099468
-0.10648380781793532 -0.752911408510454 0.04916649315772004 0.7835861956763546 -0.938260547590241 -0.1904197109567023 -0.928141559602734 0.79235015504671 -0.3100752407986913 0.9349308298795787 -0.23179101204247443 0.41007902319676415 -0.31162912033099843 0.8480966090849782 -0.08691906381826575 -0.3718642057754107 -0.2886145816638479 0.02331020482024937 -0.4952054633186722 0.749435782852429 -0.6760516143797335 -0.2733928754780601 -0.6317168989607798 0.8286809658145111 0.692270079986191 -0.26241284275405574 0.6494544368821515 -0.37654051210570794 -0.7475193277461951 0.6570435530466499 0.9357064862734323 0.5137765556893594 0.8829231174409429 0.703968001935168 -0.053914486362681924 -0.05872002326338599 -0.8720547473817917 -0.9544678848871664 -0.2828364266082737 0.7595547410525529 0.011513435032987518 0.7940882363438753 -0.03274780351741846 -0.8324206454387761 0.9903305826612323 0.29102701812736 0.9853009162401614 0.4764315432159638 0.020025888486795207 0.6111197248448628 -0.8844601483955097 -0.44075475178648227 0.5130675537350045 -0.11899294104433555 -0.1793174109398441 -0.9798061549490888 0.2509550416778963 0.8038555216000536 0.20677754397109038 0.19123389923587308 -0.48855797973447856 -0.5035945694630202 0.003456780750567434 0.18531188599252513 0.2782942485972204 0.2288155424881133 -0.6841788956165262 -0.6691997864500512 0.3672428673757506 -0.6937689411225907 0.40515252860902407 0.28300116176735557 -0.6298641964914684 0.5539536528934232 -0.5452280063209869 -0.9211311537045797 0.2855089202556751 0.30395302057618245 0.24913501646828662 0.5621112131387029 0.2823325486013264 0.2525133817599776 -0.5432271250145622 -0.6562316072483054 0.20593290499301786 -0.9761406519221882 -0.4829522591636015 -0.37864540941167135 -0.5734768363696348 -0.4810639730909665 -0.5465877899638469 0.7021298561664364 -0.10295890015125453 -0.5902562632505319 0.5197266176699031 -0.25619373963071546 -0.1837741707931002 0.13367593098767694 0.025504255662653685 0.4981361281514063 -0.05904287479361492 -0.4453693833059389 0.43335388824996257 0.02913154665764761 0.5148873280733031 0.6533293713250488 0.321759901487523 0.33015344104709876 -0.7634104562302269 0.2710770821295341 -0.3984510638326162 0.07365844187952986 0.23295759336294175 0.5718021745724682 -0.9814173644599657 0.12101047627172368 0.20025693836666525 0.2558870538719997 0.4506984553400477 -0.2484726975819267 -0.7964524905172459 -0.6253546558943073 0.5552055876079458 -0.4788660038137478 -0.584627757222066 0.23661117502699236 -0.45179225678318446 -0.10028389181297848 -0.2254597900662858 -0.4766254014891147 0.5163344212805565 -0.5382011628355752 -0.24160906978753283 -0.683630014509564 -0.3128068234776338 0.4334549096070739 -0.06530661763925916 0.8539783456061123 -0.2567853027970375 -0.10236297904617819 -0.2114798125367814 -0.7803975909418694 -0.938133379117283 -0.7890823870827195 0.6473560568475623 -0.9997194526863158 -0.4042076846292699 0.3486838188953192 0.885238083240462 0.8323986131602832 -0.2020225454668343 0.8595818965060174 -0.4430676161378313 0.49207855308893733 -0.5489935406980275 -0.24191866644944104 -0.48973991699412833 0.9427644502973123 -0.12460899379716484 -0.4488272234900976 0.7320210377990017 -0.26109911298096233 0.3643507856428918 -0.10450967595505856 -0.5247179237026351 -0.4820217686176098 -0.8136444051928791 -0.3845439657396055 -0.29656819913432897 -0.7083120699163266 0.6011130552161481 0.6472460468935912 -0.16562265662462217 0.397184714119605 0.559608476065085 -0.7967615260198793 0.07906555639478752 -0.7148314806431522 0.769853116039235 -0.4778005869665565 0.913716828448653 0.5132909806607633 0.7783501699447382 -0.8624025850135437 0.22478216021084285 -0.8823127156697581 0.3050446127011761 0.6556362061910546 -0.12432407824844649 0.8450695567998949 -0.1836596772500816 -0.4210138697590464 -0.28946169678263756 0.7993613031618294 -0.030764988460395326 -0.1579127722537006 -0.8502964295583297 -0.936335147394932 0.05856510606255605 -0.6006469124076494 0.4108154481413542 0.95379819676502 -0.2967787888166329 0.24478723975035588 -0.1936049435646583 -0.0048701464684219875 0.9374417137171271 -0.7016872756525641 0.37415470891693925 0.8170756941105077 0.4533372566620242 -0.2934646672434531 0.3484123671177828 0.963059183158929 0.5975241605907222 -0.3516633717256723 0.4983424790815427 0.9837385228820621 -0.9322592233614297 0.9021357772864249 0.6919568305039026 0.4318117411372806 -0.2387033545677939 -0.1393231915944868 0.4369541622949995 0.710226195459466
-0.9576262686107384 0.5324233165156773 0.38611584169092517 -0.1657703188220414 0.37545059624587607 0.5517308435834678 -0.05564120116342841 -0.14911988241866037 -0.7477294070437663 0.12255872409946544 0.26125579201530713 0.3388392305254755 0.40348340819304207 -0.4537580752762591 0.010927843401519421 -0.8178098274395498 0.47960985137917755 -0.6480236531758641 -0.02933789690029287 -0.9121936494079104 -0.5737874028518519 -0.08217354857659065 0.7866585508630513 -0.22790125915290793 -0.6943131350250868 0.12895749553415503 -0.2474101126256405 -0.4607726935340761 0.8615480758180771 0.6590615700640665 0.07152084553786797 -0.6572904563559427 0.22749390346818288 -0.34176777327522245 -0.16462462323006166 0.6948609537115162 0.9648798452103715 0.07619562204826669 -0.11523403108020647 -0.36668858599901033 -0.34492240417060094 0.47467384367989873 0.08342770363629981 0.9496705690416765 0.6368954376820375 0.2508404385133851 -0.40115864819714386 0.40105948335771036 -0.5135075429587623 0.5174656299296863 0.9844421453207062 -0.016898247375430442 -0.4093186194121856 -0.8445876360497091 0.6239039295321012 0.0429518402883049 0.9901290792796338 0.06667832780595351 -0.6687537006274693 0.5404669798541129 -0.599358833731044 -0.9469449034991475 0.6830437561534846 -0.2632491318163581 -0.5612275679665633 0.6413236061073002 0.984190715739792 0.7695241261088295 -0.298942677237229 -0.8096315765341218 -0.20239039959412075 0.7601225124465547 0.9473611011407661 -0.2935819691579691 -0.8458052659274462 -0.29026445874648865 0.2888579149407835 -0.07629171496915332 0.5729101887501373 -0.12681190898538786 0.09135662071430906 -0.5544858801043206 -0.4199285861742106 0.5181240445294639 0.582208220199905 -0.3769297612418967 -0.31191371629400133 0.9156131194923232 -0.9081775933294172 0.4123608127149323 0.7445498919439886 -0.862336010899377 0.0935391099794276 0.7163224945753877 -0.9333472887827297 0.8550337990220276 0.9867462194484125 0.9920036119581179 0.8167234452165004 -0.08884815585013683 0.6604478476644711 0.6129698065126952 0.7753085675527729 0.9036119698475205 0.15291084988304515 0.3110002135404646 0.7172961883711655 -0.31532298064018827 0.3661364180207314 -0.8220952358389997 -0.581043947466461 0.4530540899967379 -0.4324328705066325 -0.056506991661671835 -0.6897057427108748 0.6033247296363682 0.30918789634444344 -0.45338216889413796 -0.6802923344841059 0.18183820007975848 -0.1651039829536345 0.762255949429528 0.7681599810269095 -0.7260834427940999 -0.613552995477354 -0.5414793602836503 0.796403765676488 -0.03802246008513466 -0.7732275254360415 0.1529066045551004 -0.17173335957013025 0.13434130416765488 0.31499313619377745 0.6204000605290321 0.9341670326650484 -0.9692237835382358 -0.25476743976547334 0.33090162077033125 -0.1660824264131373 0.05057052861575406 -0.4950956800576829 0.7939188993973505 -0.9422097074809925 0.07447148897014211 0.5453500253624903 0.7469656379659728 0.49652141469811184 -0.15177460141613008 0.4617520993289457 -0.06440003022862406 0.9891255591592039 0.09079425847563427 0.12667799173075833 -0.7573238786504066 -0.34728738481928345 0.558765040453282 0.3909221049947269 -0.3441580248531939 0.37228978708322313 -0.4904192551870219 -0.1982865266708227 -0.5709735349275431 -0.8471444577344003 0.38010334389428646 -0.5274719746133456 -0.053475835326678434 -0.8171341612364975 -0.864941350921324 -0.33256008871324627 -0.49046723259935665 -0.49731609466856486 0.09695193560177895 0.17380040716643852 -0.5130747668842783 -0.6695962305012686 -0.5259563238596481 0.5404442247896473 -0.8074148265590191 0.4384810041826326 -0.7524590380244727 0.7378313194543733 0.655962613463301 -0.601184921208376 0.7278335101135811 0.4019543033510393 0.2596260205145011 -0.8511857658153503 0.6699373550390209 0.3492061075231867 0.5063701831389145 -0.5556058011057812 0.27076604533044524 0.7940865816627092 0.747107073353104 -0.09394626588309896 0.5578641463145315 0.05478051535885653 0.7488788284755994 -0.4085651270332349 0.21428934408928058 0.28764922669021353 -0.7839014099320061 0.7538284377259599 -0.007123730443423293 0.03531140231249741 0.061913308687018276 -0.6309740376385056 0.8057593959703966 0.6096316577347407 0.4451857365806313 0.6768263246604518 -0.8867514436188924 0.8468800109910939 0.5448618316964442 -0.7018348683618951 -0.3358976849845794 0.37799701366932914 -0.07431526764430108 -0.7987280220718636 0.630044739818655 0.4374779593147111 0.21355614625712138 -0.2521697271518304 -0.5531970404099171 -0.6498550654444273 0.12520333538881
1.7363630593708279e+25 0.8131507612152582 0.6159244878775347 -0.12621501481408215 -0.7282159492627907 0.139866622293791 -0.5152796486169133 0.41624304701348436 0.06096937519582335 -0.4170324256277813 0.5846908585899573 -0.7309505206598919 0.0405425290627035 -0.42245716248931875 0.8712945724005299 -0.14017168695260573 0.11155369592581366 0.794102311357274 0.5240808482860904 0.31939105280822244 -0.5548242633002884 -0.09034770192997943 -0.2955818937306687 -0.6891953511441882 0.8116642312585076 0.13555007484883452 0.5472948286186843 0.47939164635203424 -0.5205191222862726 0.4737023122576969 0.661446834050291 0.9779351748728609 -0.5030568870568235 -0.8875101429491534 0.18960187987114585 0.5890926672962873 -0.10425694303531685 0.08618819848078929 0.6061198272819435 0.0301622772665473 -0.16728219602144612 -0.7997001353484179 0.6457795492329228 -0.8995845786524759 0.8316269699298067 -0.1983535521671993 -0.12307873835228267 -0.28257893150807845 -0.6911549608503165 0.7112658578535236 -0.6289936672456853 0.9962601528020716 -0.8283121298137943 0.3917165920660446 -0.7487766275714878 0.4892197168792014 -0.22791575470365788 -0.7015803431346312 -0.664909956760533 0.3516620379355626 -0.052285891203435186 -0.47723767490680546 0.5301033280987786 -0.8149365009762641 0.1815728453066372 0.5276148211096567 0.4500467082078261 0.28335803932861037 -0.0005998500628681125 -0.9866867549917053 0.981691650593336 0.16021088114846305 0.2754541280710354 -0.6128232292988913 -0.189149565205585 0.8591160054279747 -0.36441294660887835 0.9865833358731457 -0.8838960455385343 0.9775153074932876 -0.6899726795902803 0.6452142080157113 0.08551645640974015 -0.2895427741884593 0.5256522645191264 -0.20406241547131043 0.8307443599284445 -0.20839358620498794 0.29868234081761424 -0.9272314773273704 0.8666182145839061 -0.2623410465059899 0.5807007594307265 0.8646254922374292 0.9368516756726477 -0.22206468641415467 -0.09406907072320703 -0.8465702540819591 0.9437563169368628 0.37411697085260354 -0.0033124256849867972 0.8443283032223412 0.9571647994322607 0.20671466893017465 0.8678876015228822 -0.5719893754756238 -0.1696383438965161 -0.6784111429493787 0.12153473999788877 0.055219101714627516 -0.6495338039006857 0.1839716160290108 -0.899230986027652 0.7992326791823625 -0.9740337665640182 0.724898170634455 -0.09023192265977942 -0.25136409812542504 -0.5914072590863302 0.8726276330902252 -0.2629935997431574 0.6918163370586179 0.7257506427903777 -0.627876628870528 0.5874713367224087 0.3055183548156508 0.06380327700401822 0.001179787202154614 -0.9428835508013715 0.323398306202465 -0.6085503023034298 -0.08179581891532517 0.6166930040588126 -0.682827911584724 0.9393039932191509 -0.40409433842495024 0.5885323459221399 -0.15905611456009283 0.6696197576615355 0.3732322851210321 0.2706039834666858 -0.6232100935496001 0.41470898911966736 0.8393048676759984 0.13779043351409737 -0.34835668404519904 0.4873455888639171 -0.2466497683108988 -0.5553964514349461 0.3236162794727899 -0.959683050775475 0.5637566468122119 -0.817879243653016 0.8547027428480805 -0.08937058031998113 -0.7678160425349458 -0.7884536295928688 -0.7468552353390441 -0.2225677993396844 -0.9440221868928762 0.5543846908227184 -0.37730001094371146 0.9949513036272657 -0.6518442518450847 -0.5489164217400242 -0.37704973443490997 -1.0641409464459894e+22 0.986428008313921 0.05746199972638699 0.7376189215103022 -0.9979191608165576 -0.5344811186995011 0.7769793856291043 0.9522501472031595 0.9955087149342179 -0.586189364080665 0.5885865178631651 0.9075510827875928 -0.4618277022502226 0.27397074796898213 0.7389419336263992 0.1231374030063419 1.0641409464459894e+22 0.7706622820874522 0.9862330634704217 0.8681429159006959 -0.2622623105482955 -0.07193371069864352 -0.8134206953378658 0.5127066438044328 -0.39521036999883674 -0.20109154828913134 -0.9646420204570101 0.5932182036039075 0.3474164394223189 -0.5968208638401786 0.18804416461808215 -0.9318503828386451 0.5661310511340247 0.20234771936755824 0.8733008502662818 -0.5788168664711928 0.43417299920110763 -0.5849250767931582 -0.13894972246262305 -0.1337611749070442 -0.919812356307782 0.0042108157814388925 0.60626033759883 0.3246364034768743 0.16974923847043377 0.24995848704928703 -0.8389892135740307 0.6682563920273736 -0.27787248632745976 -0.8166397350248278 -0.02992202349915063 -0.7567958321333919 0.32213060231835633 0.5998116668979698 -0.2167082621450891 -0.5545121303681824 -0.09348605226447981 0.09855711708740644 -0.2623612611593429 0.2964382124977347
1.3037729276047544e+19 0.20171994520495073 -0.17437623352128062 -0.3012059675575858 0.44407883258559444 0.49298458059386396 -0.48544088039184485 -0.8576184518730676 0.32407000013208864 0.20924597990343274 0.5551677592467641 -0.6077199741118948 -0.3356917865541067 -0.18899119573886702 -0.08375329977803592 0.5643024149063172 0.9054788001260954 -0.2372062024381434 -0.4683155959396781 -0.12092398762391765 -0.9476396835847349 0.7613682540200453 0.26169979449976233 -0.41390326662676147 0.024805283890161345 0.09279749182088182 -0.3349135178264022 -0.5724911279470732 0.31385824311548416 0.44202560029614024 -0.07341524156463297 -0.6119590023098183 -0.8490909976720449 0.2455971305879907 -0.17861124222147473 0.9172157978335129 -0.22281291184769625 -0.8015979797093213 0.7350134529319945 0.6069718866330991 0.9535020718211011 -0.8187721251020414 0.31871287738848353 -0.07311520858773002 -0.24258268309869813 -0.21236753704460676 0.019382903196148327 -0.17808100905168023 0.45794561706678283 0.983031287462669 0.37673304188826173 -0.9770069902241778 0.07505440439859923 0.7878516629650563 0.7577576219993392 -0.09831519086282814 0.9811843389924644 -0.7309255019961911 0.5621908238464737 0.0007675449787019062 0.4049934614320636 -0.20031277296676064 0.7279273723570039 -0.6821035062191001 0.16446070062209595 -0.5970747791672573 0.9797433663190547 0.029572457220049087 0.39965632612848623 0.2541048960486987 0.894183521546134 0.2732591140613705 0.31651236712470876 0.14409787361175086 -0.22921131692789687 0.3151703476751262 -0.22687865438305233 -0.49277168850432207 -0.34628990091351364 0.3493171923921572 -0.846173458617901 -0.8934057730815488 -0.4350478809619376 0.44620690261575 -0.6435119910377274 -0.7140285260708563 0.4311315999807621 0.6951448914285203 -0.5046138787683327 0.41199651807538484 -0.4488770428132851 0.13371960385697124 -0.47644983395175755 0.11241891277175609 0.3424109637615995 -0.9371675604917722 0.6722379198760282 0.15579392363236888 0.46006570321329154 0.13025634701688338 -0.1830593595369927 0.47253588308708117 -0.5292743990287272 0.13694785272770083 -0.6467388152237465 -0.07187784375499162 -0.9005658337349463 0.13217628179503738 0.00895405319871112 0.5393274204043195 -0.35766242322000075 -0.23610056816688196 -0.11702557788101942 -0.6105001972558641 -0.6074227406904782 0.01716525881595965 -0.994438476702266 0.09038600073745484 -0.6955962731674583 -0.5721789413434761 -0.06501433998877304 -0.9957467042139811 0.024770928686129068 -0.6791391653532974 0.09986312447435686 -0.6423104026036301 0.027269383970433658 -0.22607687953616962 0.09159128121272886 0.8260523633733019 -0.3334739962311184 -0.9141105978300201 -0.37809740457729535 -0.5854986480436353 0.06671121718995954 0.8872202078226976 -0.09868873491010888 -0.6371121534077093 0.8141016995980066 -0.23109296654649025 -0.6034511593901666 -0.5177285845353636 -0.02012056222063574 0.7402696042171899 -0.7086868429611286 -0.6541420217328602 -0.6874607110452364 -0.4079616437240947 0.6643590503827632 0.9202728698990081 0.44326288698928895 -0.3685359156504897 0.840657906023107 0.3548907671127366 0.6416572721402152 -0.3666562180713111 0.22749945837433194 -0.5800993721020165 0.5765179427409066 0.048003622201705065 -0.8189468568649911 0.5011730494833839 -0.33815052551076463 -0.8748999108064193 0.7993898724881305 -0.5800600675874887 1.3037729276047544e+19 0.7220394928715739 0.09631913769294931 -0.7640837095661575 -0.8074689291820891 0.7352208116590335 0.4996314812229876 0.23014069783077806 -0.886865828680304 0.24784651990572648 -0.10884876372391705 -0.4593391864167675 -0.6581912666346135 -0.8410383927101288 0.21588106074490665 0.1872564414530895 -1.3037729276047544e+19 0.11565478042515887 -0.3690880648498802 -0.19399804020076727 -0.965807233481534 -0.1837583582652802 0.9682529407112734 -0.8954339678835805 -0.20017441967650806 0.9028269048814073 -0.012276347497519824 0.2857126507445551 0.9724907026401239 -0.9756490529037705 -0.885492252302003 -0.7781122956068227 -0.6486140921108401 0.8554885160538324 -0.05642040466940612 -0.7025298868023993 0.7690524045247411 -0.20257103739622462 0.3453802035604405 -0.20259760301875662 -0.5575284355018615 0.7037415454989056 -0.26476416053857776 -0.09303728630494601 -0.38634885159459853 -0.5764612542293548 -0.625905339509998 0.4611608639111888 -0.3834776685273831 0.6560563738453684 -0.8446735912677596 0.37012092082008996 0.07679038972309526 -0.7149355317797299 0.6443451170410015 0.5978880040023442 -0.2979531365218484 0.6102149462601398 0.2017403986863604 -0.7655438654300726
-0.7142230457642313 -0.8262764645924974 0.5051507590165141 0.854016787770175 0.21185007463115269 -0.6795994288713971 -0.11579852177950878 -0.15715344174326962 -0.008729840428842506 0.615701313562558 -0.13669409581376035 -0.4521952318458682 -0.555156800837237 0.20559344844028193 -0.03836786689777716 0.17349735215447626 0.3408549117938824 0.34976684856417695 -0.24595539871657213 -0.24490160893908341 -0.13595198669219166 -0.5198238507634731 -0.6682841503350083 0.3673091163947986 -0.18170830119527626 -0.516841901082413 -0.5364811515409817 -0.25328926666470974 0.3222680775252451 0.9866088920275948 -0.44588425069303717 0.26731592008102645 -0.6734038747293307 0.6393547305864014 -0.8346000715216491 -0.9897271867326676 -0.4530835501253323 0.705479201842345 -0.44176586579717525 0.7282320215374991 -0.8225293906131552 0.12898175999671668 -0.876378320416431 -0.3365963051802421 0.060063861799446006 -0.24346541955217327 0.7396359661563716 0.17721357108922198 -0.11426276095158583 -0.7186434696548814 -0.4256006623465991 0.27606974125356976 0.16391077544543298 -0.9814939609976596 -0.20639519360021152 0.5731187876255788 -0.974821405634613 -0.9656946932286465 0.32001275247564 -0.020992453463047234 0.7249548312153331 -0.12297271706381419 -0.2937813919390264 -0.3789962464771648 0.684080281101803 -0.5219928996310572 0.1868745923464148 -0.361272991307545 0.5126635318871855 0.38053694991123166 0.6886812994501532 0.023693938579541385 0.08454557613233349 -0.7133732815203557 -0.9109906210518939 -0.031973520240257125 0.48417720056106694 -0.862889481763421 0.8426347411143229 -0.7453187561202392 0.1900007857908219 0.5523027655457535 0.6408220461596725 -0.504611251653198 -0.6564102202805739 0.9689474426311548 0.2513358615487846 -0.318104691839868 -0.1654901736647103 0.7909998033551511 0.7460989092773085 -0.44947252040406704 -0.27056418215570965 -0.29978893762261727 0.84663391809218 -0.9708915885615939 0.2897363848857899 -0.2910692715900063 -0.9526011868382465 -0.40294284198170605 0.3839349323929173 0.7809089807641396 -0.7134836485839025 -0.6109946947861347 0.4723048706711803 0.6305589595066903 -0.07722853467494573 0.6458593470416638 -0.12215858745738051 -0.48668911872903964 -0.6106732728891133 -0.2900364231278707 -0.549984380394265 -0.6247041781415565 0.8312338253678873 -0.3036268827682749 -0.9178192590524259 0.15897399491980146 0.09226613168593323 -0.2620763355373261 0.4129316886344254 0.5361549170170203 0.9634870358040741 0.9377727109168814 0.05487398873633986 0.3798781548718968 -0.32827768451194705 0.4223569313536193 0.9171738245663743 0.9196350189684752 0.11566540069482967 -0.020225922335754154 -0.7871364255239099 0.5210755768989903 -0.7234030005957062 -0.9508012096804832 0.7591930643112013 0.8748141518024075 -0.6673035213890808 0.38170971461073555 0.7559715695831133 -0.13425401654128422 0.25024173596480437 -0.960175161729643 0.9729331701291883 -0.45551028165317997 0.8490267523880433 0.6319630106317142 -0.5539854817237244 0.39266863294063303 0.965734177490523 0.6065175959572213 0.10926620886481353 -0.41249504972741935 -0.7580402422468404 0.18924193980587356 -0.17261423479886684 0.13858955700891196 -0.7012702986483097 -0.1951254835694365 0.9585619282086169 -0.9621978134515479 -0.252670677870692 0.6737923445434504 -0.8696897231011973 -0.27938001847010474 -0.3553015952499805 0.830336518456225 -0.0633619039642066 0.6278155281843159 0.10130429510607653 0.26715943347639404 0.16580695706920157 -0.8717230144324917 0.7685021947569901 -0.04488320207551566 0.6922132543269832 0.12482486704704243 0.4239769782065619 0.4963191722470337 0.06874982835675136 0.743619147253535 -0.36609711159623504 -0.9183573767591546 -0.828144332639811 -0.4629487339818015 0.7192170513349831 -0.34916862807076865 -0.21593418435777578 0.428466238339239 0.6595747900605833 -0.3685211040805745 -0.29196940887996714 -0.8733086960704257 0.4220418038330003 0.2602668020045862 -0.026112756562616246 -0.11355222359269335 0.5858093624205338 0.8005105346118875 -0.3977554593519681 -0.15522106826513538 0.6593799546125267 0.03345382326103441 0.013222030481812475 0.5867098250611367 -0.5145560738521311 -0.7699489147257945 -0.24703679579018267 -0.3482219928490191 0.4944521990700368 -0.9863201154539782 -0.8837169586270481 0.23172288916364958 0.16978739198876802 -0.0858369036195652 -0.6880793422087244 0.874486591489555 -0.6317673650493829 0.8408745762420677 0.09290825017491211 -0.19419854600668995 -0.6881512249034243 -0.05900573622367222 -0.4020363226778376 -0.13448939462774656
2.928439127189179e+24 -0.24760442103566116 0.89944787884256 0.4207944968799864 -0.7614045638049018 -0.7723021023706051 0.19737099324607787 0.019911278334592053 -0.07944741810794786 -0.9984574030786797 -0.33921677969100905 -0.6930916813212202 0.3396151905973246 0.030887725135627875 0.5915899030318201 0.5436445274641908 0.8083065948075978 0.1673191593393275 -0.4191809097786654 -0.8263023256096707 -0.5919522899376983 -0.15334723608589873 0.7613992776312146 0.05388215824070319 -0.5886888965915995 -0.960313894820948 0.9714866396749631 0.16539556899229657 -0.12622263995342942 -0.9643452954560259 -0.6121671277439473 0.9769669704611734 0.6890789987987247 0.8831056837648137 -0.36829800385055145 -0.13923480852361414 0.6366690229469776 -0.3051646751529311 0.3453959180954873 -0.46756695965933415 -0.4632002750524675 0.30209709843699195 -0.21835400456952025 -0.8691978715771989 0.8990190898691042 -0.5502291284792595 0.4318450152527591 -0.530760378109093 -0.976382025315069 -0.4277675698943133 -0.9428672782021827 -0.34659656743208145 0.11228778246468463 0.1326023003828194 -0.35188398529735854 0.9733484033625515 0.9734708534180276 -0.29675561110184234 -0.5928482111385049 -0.17598001099618732 0.885036759613991 -0.7699009934990291 0.38016742194690223 0.4858951103583775 -0.361485122017595 -0.33098354044719236 0.25845112619573385 0.6120319326828105 -0.09416369726595963 -0.9120388536123312 -0.531675185114066 0.05920002850841155 0.013047358660245978 0.18297594154299923 0.534448589970459 -0.6459080107780428 0.7038890410967364 -0.027790235773889282 -0.43416234230895867 0.7945914111170045 0.8923109605121016 -0.2216780154309843 -0.897630922397036 -0.5247384724508357 0.9853302289132277 0.18451828591707797 -0.6290285616411992 0.413613930715532 -0.8856579060079597 0.22451215688209913 -0.9204320780685424 -0.8375588248613834 -0.2510752264444782 -0.1734976671776718 -0.9849743411001683 0.9260881630950517 0.14152503473944433 -0.9386944459804005 -0.42672460144942126 0.4997782170050098 -0.06445966943244263 -0.8774183894377363 -0.19512340348646262 -0.35385430632467507 0.36196318144661976 -0.5662967875639491 0.26842028984328814 -0.6226247747523681 0.542739993310251 -0.20188713900217325 -0.16194072947078175 0.8477813955282496 0.3209748712119702 0.2359551806403548 0.3620922700236251 -0.32452730625907233 0.9800011315499295 -0.010051285049387682 -0.9772342553013034 0.08382602840231401 -0.18783571287762757 0.321740236532164 0.1975184584671008 -0.32704818972945593 0.8896548863760965 -0.8750123878835254 0.07347011261881575 -0.4999715084595058 0.6175999611059286 -0.1482503694365156 0.9773288966983842 0.15399221323283108 -0.6361052338800322 0.9774255408369366 0.8129433422370196 0.8542515342524934 -0.04977117292140654 -0.6615248455328597 0.876002898597612 0.7344332267423153 -0.7608954068122351 0.04987684063805409 0.7854306631935348 0.2658410703236531 0.6734387341321231 0.4803644735782211 -0.7884063270219639 0.6149691649394371 -0.035071506704059674 -0.05738938638260094 -0.23956590549628776 -0.2446845067176897 0.9600662540581397 -0.10415864626616034 0.7683947047560349 -0.7521943022463249 0.11709587651614606 -0.58109676355084 -0.06492840352874651 0.8369243489615126 -0.28156382285493264 0.1963595452538356 -0.5018489760385538 0.8240559254710278 -0.832121859993187 0.15717383058595158 0.07664694572483577 0.33111308719761445 0.9087390628988694 -0.4538289371497324 0.7543249745109399 -0.13052868874105794 0.15029581548220983 0.49192019867092274 -0.057724640097036595 -0.5642386270998256 0.08858260253442185 0.717634658126773 -0.5254871407316437 -0.07054673974522219 -0.6698869260809301 -0.9709693879681376 0.4370026443946651 0.2391285407962198 -0.7052751452744148 0.004188842692826045 0.352788755308892 0.5946026571347647 0.787097303811876 -0.7841485690631631 0.6161354047521648 -0.6168001013133209 -0.15769301053316265 0.6219670915763276 -0.8217627402885708 0.5709565055254904 0.7111217277607447 -0.33117745422520195 0.04713817614738214 0.07652916635010087 0.6713833748432387 0.26462248302283764 -0.8988151164685507 0.027770979164867704 -0.561709392419387 -0.20468227753003787 0.5657884668836841 -0.9035498815284779 0.2572402048286173 0.7459359865254156 0.15270999254771334 0.7027956639299839 -0.7261630613770391 0.7293707067208393 -0.7245430254473246 0.7501222041717168 -0.7171978284752762 0.26670693771785126 0.21932422871345247 0.15823856021011062 -0.1631977698659619 0.15142357920843597 0.7411999023581777 0.38209768062131855 -0.7759145819417084 0.39976371563146573
1.77178178062444e+18 0.21307319906430155 0.661682940653912 -0.3660104083381641 0.7464631609305388 -0.23919100192802278 -0.00694654204372247 0.9532175781820453 0.9964324537779168 -0.5133696745236431 0.329932953621181 0.9410152391822071 -0.8831171943793645 0.7880459067212611 -0.09242334890030302 0.8652725429931907 0.2223967292729525 0.194206957137824 -0.5914855231865914 0.8363923870310386 0.3106150968328403 0.3143135317436785 -0.4987184766972881 -0.21686958467046358 -0.7336656509018948 -0.9270808535944863 -0.5299361191285397 -0.8051216101678187 -0.4078649966958414 -0.4981767817904814 -0.5639736130357578 -0.4709533638195933 0.7275768285059194 0.6345399210654004 0.6336675743448774 0.1851482545601555 -0.6744928048232797 0.6067640462581274 0.29234521029166594 0.9941856659410715 -0.7186155245689712 0.2307892714810007 0.915062232890927 -0.8557304579331944 -0.37416633061521765 0.7301080880347648 -0.40527302009973254 0.6898379894505338 -0.014724800390086834 -0.17748779395339964 0.6528447850660954 -0.02324001850523527 0.5111562753971857 -0.0915123097406425 0.008590489075886332 0.8508638149069381 -0.6347553842973954 -0.24620011408642872 -0.7212548347848351 0.8830278016505217 0.5807905896840968 -0.09621937076003806 0.7980406640968394 0.8125531088206184 0.8275338994203532 0.6662474168395491 -0.41531149888737384 0.7556842278952933 -0.6211544798905304 -0.12656714816476078 0.9559724040855739 0.6447926119199481 -0.5325375147800744 -0.6053797082163757 -0.11729000084379937 0.12928760266380568 0.62391046588173 -0.8041894578107773 -0.5784045732820624 -0.6269099404472696 0.5511385812125307 -0.5130752400455234 0.4473927968650786 -0.6658285592770068 0.3127402603278353 -0.12436983800042589 -0.800884120048774 -0.8092343577174581 0.755616589553683 0.06632251388340427 0.29056030668129784 0.22627978361989642 -0.29406215066419383 -0.5981677904015272 -0.18170225184007394 -0.9856450077278196 0.49691721786219945 -0.21647034691030753 -0.34818755513735145 0.36958626816931694 -0.49979110139298877 0.9160036953800275 0.29781246097601266 0.5510041473368257 -0.017155753546963304 0.2852923157595031 0.7340299124886711 -0.9048019081475143 0.06799923543085251 0.6622320787026739 0.9512972667829553 -0.460071649615996 0.6519987137537377 0.24873896818714103 0.8048897389730691 0.626212503801487 -0.991248704447016 0.6825485788291965 -0.02468236224044218 0.0708800323382679 0.17872924334051832 0.4151108480893939 0.17765307123234053 0.6446307127763748 -0.08758681013839986 0.18828734870534625 0.24793662940884187 -0.9225862694174463 0.5316231231629982 -0.2422621719315159 -0.8201166506104027 0.19015113914927761 -0.8119028145440987 0.8847223132416677 -0.09459247932630488 -0.9985491768187582 -0.9204234898662194 -0.15828039014882922 -0.8895493825100145 -0.5804892132468429 0.39629706737923964 -0.20202162162049242 -0.25797080748730217 0.09506061924999343 0.13249165794229434 -0.2816054651649682 0.24071956512578563 -0.11176214033825715 0.218173200981709 -0.10898444019498021 0.5013383402433094 -0.5502771554703263 0.7637576491929938 0.7275436332072687 -0.13262273452871254 0.6176715612224464 0.8903765649485049 -0.609546673062612 -0.6339791797356193 0.9659291138388442 -0.2626398347817087 0.7495490884103508 -0.10640028648279376 -0.22302553081094056 0.15716133455572012 0.0028306660526478122 1.77178178062444e+18 -0.07326222668982996 0.639200065571224 -0.684356579167561 -0.024715650609475892 0.9760026785806453 0.5695068631438418 0.0035567178763511453 -0.7387081116591916 -0.1660686940682936 -0.7925223809252042 -0.26244666514627957 -0.015363315945428946 -0.5366463111163333 -0.8500261088806378 0.7628702336724651 -1.77178178062444e+18 0.5172817659963826 0.9401244322975912 0.3900911761659065 -0.15831822935172046 -0.7881820347822166 -0.44733217091510613 -0.3384156825375315 0.4026323444740867 -0.750862389766138 -0.581286172018856 -0.18702501518242798 0.9293032960356282 0.12085565661274877 -0.6325253890163405 -0.24590888232387975 -0.6617925034378345 0.850664412742228 0.5981955489544335 0.1941448295689443 -0.22925501688610184 0.028004081800678815 -0.3201347194679678 -0.07667251463606384 0.4369872041094387 0.05359160895384263 -0.034241591708582764 -0.673245390664742 -0.558731074896246 -0.9018114527729009 -0.05783632684792628 -0.3739573345992748 0.22710611847554119 -0.17684954634065053 0.7802683348245985 0.9554487607686648 0.8698905720469545 0.4887449889682669 -0.8894953112698456 0.8790834118640833 -0.5892351692573641 0.007313676632389354 0.1239784467381948 0.33652639246944394
-0.18697688273901192 -0.8520963321452446 -0.7866861083043692 0.47551023841250806 0.46882356214597376 0.4416001718675171 0.37655193257777575 -0.9742669797830814 0.6325631097625282 -0.800566845601864 0.25017797805478725 0.022678278998861767 -0.5040208200376042 0.5643393984577585 -0.8877941946041468 -0.44992669897933535 -0.9335130461343011 0.4133039314423701 -0.7750509888759951 -0.13107045950978247 -0.5700214580331044 0.2935058599694522 -0.5760218714176137 0.5028635825074261 -0.6142387698022465 0.5006101541772101 0.6543698543032832 0.5735974191354387 -0.9364481497015948 0.785599410970234 0.8900698909272637 -0.9109568598294302 -0.4387858408844678 -0.3472747293594969 -0.38204387102733195 -0.2516026907754605 0.9146887104086527 0.16167010955516647 0.7935804602503527 -0.41782936641536184 0.9933042882915641 -0.429368765670036 0.143207544605908 -0.12074610018994081 0.20245430231600436 0.09155392982265886 -0.8477889520177408 -0.542116251818316 0.3240475183443077 -0.13834520863934863 -0.6843395836101345 -0.9142056368600557 0.14257452894845812 0.5289709337054913 -0.6271264798524712 -0.8090266661359049 -0.6679406547335549 -0.759009762993059 -0.5118656867271398 0.4896005399254104 0.5196130204333302 -0.012825005719537375 -0.782551636580813 -0.8716928492954883 0.5654336603945718 0.9912045765365596 -0.9969922254410271 -0.6019066454695252 0.9300365956718446 -0.09690745973856751 -0.1790666035898758 -0.7351226040326586 0.9536096593639913 0.10665986058369259 -0.4535028750810062 -0.3741162634698334 0.0037228277906549145 0.39672362235895564 0.6303595793888794 0.8629939154267949 -0.6570672196318799 0.38251933697172946 0.9994898324516772 -0.1922416350109022 0.7999872256446003 -0.10694871916463455 0.7844379179000931 -0.7684304724163946 -0.5771954882284558 -0.5692695252399989 0.977225457559252 -0.26982783612597583 -0.15362931827694082 -0.7492376167189445 -0.9621942492583371 0.5494995269481429 0.34492862209000696 -0.19811642758104875 0.13719249221989993 0.5453805307022139 0.6323659919703037 0.49428780115608184 0.18020929147950815 -0.21184650787513126 -0.41206443305784846 -0.9762114607126502 0.51772626280124 -0.3780339218729085 0.6305136214061124 -0.041149690166196295 -0.021823440004036465 -0.13274555652559372 -0.4735550260359691 -0.5576417713574762 0.5022245539302055 0.7961918351728783 0.6214796537336256 0.13820498999226039 -0.6137260085058234 0.2494527548183585 0.6454395555506147 0.8753010600148103 -0.6939333051015595 -0.09925462913225758 0.29769940274390727 -0.11412796863132701 -0.7155653284732246 -0.9370047867184583 -0.6569370250498952 0.6840794105996011 -0.003621819723417463 -0.5738619887568046 -0.47433489820185426 0.6855073189792065 0.4921630618010695 0.1322517908574814 -0.4754686966825159 0.7394517950485935 -0.3754518739334485 0.1701387087673949 0.9268308266207623 0.846413097087553 -0.6923940815635117 0.7823425440887344 -0.6722850009287715 -0.46696947985462334 0.4199086821269382 0.756439369082631 -0.2780674752712493 0.4058570459026989 0.2725724393231026 0.4873357092236925 0.7358930107138169 -0.2422193907415473 0.8125897292354953 0.4240363022680227 0.5171228602004942 0.2073762687322136 -0.928380876981804 0.25220597993307736 0.6635517438600065 -0.6449963531542531 -0.40780361322981884 -0.1686966422393128 0.26186107267594805 -0.08124624144125181 -0.9714332132193575 -0.5090811432667739 -0.10036709683651246 0.6396437668850881 0.5195813465919701 -0.6533208671205075 0.6602311188329077 -0.045367123030681356 -0.34951643670438637 -0.9294951747016003 -0.4490038694511096 -0.40093311574279844 -0.4903448189312929 -0.3801528467283497 0.43025112482852923 0.7517197757375125 0.40902006082549036 -0.900765632483316 -0.5458256210332759 0.6001332996623328 0.16252142091815758 0.9867163913459069 -0.2823572174199047 -0.3392308460082043 0.5597105436045533 -0.2722104661583886 0.7903925555562754 0.3530337207380567 -0.9375628709221082 0.10917915537629264 0.6553775543250722 -0.31524556951359206 -0.8936243743358279 0.9960004057256118 0.002663991401123056 0.4387222980231569 0.7422699719935273 0.009255499694531766 -0.7399149614541778 0.3454766646901315 0.050653375095742526 0.9910112716085289 -0.04574920716487729 -0.45826517539714207 -0.22542084132718143 -0.747577340345885 -0.3144837132547469 0.5300849889618573 0.2165257471168336 0.9809504769119559 -0.8256319132667616 -0.3018317414949254 0.06527505310140458 0.12263971885404912 -0.04934174193537988 -0.232533287379592 -0.5286075593659634 0.2895738057088464 0.4044416684203971 -0.022850629244747678
7.434198308107044e+23 0.8351803324589584 0.20578976156061968 0.22249684758001198 0.25554207911512794 0.021812963711472344 0.8370737598219553 0.2991281309975542 -0.04679027536924907 -0.09908078564513434 -0.9867006398360916 -0.13429084257362156 -0.45579749731650043 0.15192745809153796 0.6468830163059147 0.5477588575940429 0.25729487426718634 -0.2305219773582916 0.26472474194600015 -0.7977287689009507 -0.02202939618085864 -0.9888372929269538 -0.17287528599095614 0.9348028253985783 -0.7274337300404423 -0.08427396984475188 0.21545061377459818 -0.733031961747463 0.7539440364373955 -0.22706625744970688 0.35219595686591076 -0.7839957673260816 -0.015914266795464815 0.6793323256441053 -0.2302873214471779 -0.4858427684417259 -0.0657085322993427 -0.36841290765984347 0.5228544350383368 0.280166679661245 0.17619823750458585 -0.587924020707856 0.9932539038042514 0.5026955129850457 -0.661991822230281 0.9203001692424086 -0.6988657951497868 0.6829843510524118 0.6074119823027979 0.1192891187839602 0.25295906096014087 -0.9950593755431221 -0.4343064534393104 -0.4729864681456635 0.3780895469801293 0.5645767703729436 0.2515556107807979 -0.9308995004040062 -0.3602530683242038 0.21998128802064532 -0.6182281709287998 -0.19934907659073353 -0.5229812341990856 -0.9279042207721842 -0.2933079158702998 -0.5088606697455809 0.6833408811743829 0.20099325650828348 -0.07329872436799234 -0.35686487681141865 -0.9787842319967575 0.7531090691881246 -0.3425453980327715 0.5164123786207631 0.9960354343947921 -0.7999415755225228 0.12684918883826835 -0.06789298815243261 -0.9385636305319189 0.8866795225764055 0.9954862924935484 -0.8306447040897533 -0.5985916656304722 0.260824506766445 0.19980476778956868 0.8474523506606177 0.4006938146458532 0.3315080630570071 0.6226090008277816 0.7947773437666652 0.6937853036698618 -0.2639265888248905 -0.6196732161210712 -0.1541169305109289 0.016740824023141698 0.7902022278810803 -0.3153395925457225 0.359367649785294 -0.6707628235805705 0.2015293607105253 0.24269109923617171 -0.38646392458952494 -0.8404811917966497 -0.8631668725629837 0.42646048230857736 0.3823311069179627 -0.17094242281889116 -0.6174883369667927 0.5832609182832353 -0.10094417947593537 -0.9144657682352828 0.7983153201208639 -0.07019589796312764 -0.3970269572267018 -0.030590504816084163 0.4137193106614985 0.30362399257964845 -0.27981066420427525 0.2932319752445678 -0.32979057035474946 -0.4531177883205617 0.665883846680928 0.07676812719397397 0.753818795244831 0.7248151751133252 -0.8077344935305277 0.0927037906956436 0.9564549576480337 0.39577127343195295 0.7107987773735422 0.8408200153561503 0.4299979279563264 -0.41639653388380804 0.20511406014826106 0.7240959396031164 -0.2512389647548705 -0.6707709798134842 0.1572121852967021 -0.650153833079768 0.48517218808573426 0.4626634367443647 -0.3107040070633058 0.3707552695508791 -0.9227205560533966 -0.25046191253485417 -0.7687468709911209 0.5643363913853199 0.4042195891161009 0.3305484692036369 -0.494997202405034 0.46090383478903907 0.8386315547104308 0.4399048957244909 -0.7878777264915156 0.9492773753409063 -0.8836340553412001 0.1328531444406913 0.1370565798668526 0.26134793716364624 -0.1032093838102619 0.65133144043627 0.6794258936388575 -0.3675677901849419 -0.1936375250933613 0.774094183986419 0.6862615453594032 -0.618230324139162 0.6002895729580262 -0.9386884781003964 0.934689696867226 0.7902405698976147 -0.1900077496826602 0.023762319575870716 -0.6120362143151714 0.7420465100158848 0.7846286261274278 -0.017806685743792405 0.7994125603492823 -0.5708634199592302 -0.05982460098333586 0.164671010027313 0.10229480875018782 -0.10243426328729677 -0.8702642738301132 -0.8816884069187263 -0.21060540158921803 -0.15115219721176554 -0.45761173011745004 -0.5724740217240081 -0.14697322210796315 0.3678826354819833 0.8662670193160771 -0.7835197165800096 -0.28426122502811246 0.6074907830611487 0.011131933961904261 -0.005966300934082014 0.12750913000662334 0.003032084818350933 -0.8367159283132617 0.45074679405252405 0.19981317159544054 0.38653364866410067 -0.16188688023365172 -0.8387735687596505 0.21655428451751257 -0.5994989781923954 -0.20290570430011945 -0.9203319573002722 -0.9067219041641399 0.9033716918105339 -0.24651361646856063 0.5137451077956716 -0.1198801064083892 0.0969801849307419 -0.27466882790562397 -0.6889202279862803 -0.404992013448217 0.14871356488631604 0.6996835996786586 0.5516270119231137 -0.00844862763570653 0.5363449817165589 0.6466923899984847 0.6567257826475652 0.860052199815613
2.293847529875363e+25 0.6670730953022594 0.5885784085836934 -0.3042651152696658 -0.2916804021250825 -0.7021726152223919 -0.3546854493385301 0.887868939829006 -0.11850717642812181 -0.4478182949730949 0.6194329846130202 0.5733100285682107 -0.0770412546070307 -0.3295851386016926 -0.743870666841491 0.3166207287695062 -0.2908208720123082 0.9178150980772852 -0.11013941749788514 0.571471298362032 -0.7221655893647418 0.06776507429959833 -0.4762164819160264 -0.8991285629647323 -0.720924666879752 -0.8940403684919744 -0.61912787129745 -0.40721583250398385 -0.6054962030015982 -0.3865916484067353 0.075619729446879 0.7529823071032173 -0.635665268531701 0.5300521759539065 -0.9758019634630815 0.916980079308751 0.029332088374728116 0.9603028221940209 -0.16259621157161552 -0.12671781264663307 0.9386765011040068 0.5055196572632703 -0.8761122132960679 -0.8884603850557924 0.12920049733970584 -0.08623680275021162 0.8983703857930907 0.7742712941129912 0.6847795215725319 -0.7964341462374336 -0.6789955428584848 0.9726289528305867 -0.5296791455863483 -0.1325761180327647 -0.63042535112808 0.914754307134225 -0.9961506004298193 0.4984090244271069 -0.7391164415662543 -0.39902451391675364 -0.8999166682198587 -0.06861066126519932 0.17066608633265168 0.9715664053526001 -0.829708286737546 0.6768633369952581 -0.8103945674640984 0.4593653959248265 -0.9163957006076107 0.9980313458440742 -0.6256591472471218 -0.03981315848124001 0.03332050570534628 0.6554048509531094 -0.06324550382260252 -0.11095513629376863 0.8681121858579861 0.5214000040217921 0.4088688788051782 0.6968946972275676 -0.5464190397065167 0.007605663094973458 0.1434864955982602 -0.24001788310562233 -0.017557107897456126 -0.34378367439127167 0.11239074428155948 -0.6751119740470191 0.43425718094764876 0.47707231521893334 -0.24751425930683135 -0.41011136106905166 0.3359597528127549 -0.35427810438480356 -0.6011407448184691 -0.11672973577267665 -0.7376162709038119 0.7605418050194819 -0.37271353994684575 -0.8289731346529221 -0.6402014791121684 -0.6376643737801333 -0.23625891189295634 -0.7287534824849631 0.364422054833782 0.15890158039232483 0.866339990897518 0.1694457568971386 -0.7187029685017843 0.015530534134064355 -0.8032417097832054 0.2035274726642291 -0.6724373078781909 0.8661877612844711 -0.5531336811136589 0.8125299611756887 -0.6141563369562786 0.24728637651280305 0.006786661149069673 0.10388618083313883 0.5614187826100172 0.5652674098343644 0.1344648000270252 -0.9214388748620779 -0.1592318777239876 -0.1835917131333522 0.10938812732722747 -0.0989406516458522 0.2758944961120595 0.30648279288645175 0.27214345988000166 0.6125181871390197 -0.17898166888240086 -0.9813555770820288 0.6578711375473456 -0.46460675589268075 -0.6342466629331598 -0.7571959316297525 -0.2487472845166785 0.7215343731395807 0.05292686927921353 -0.17361527532303866 0.21983965350734502 0.7829784482499389 0.32869155037654063 0.7738054951749596 0.7803010126274508 -0.5397211838291374 0.4305498637263485 0.27199576925266666 -0.368429062450605 -0.9266735023442048 0.014749021835989806 0.2871459765998703 -0.9104439945808176 -0.8995305515124572 -0.008511690282349882 -0.12962853322195533 0.5945751852533987 0.9962918302491319 0.43633301437153293 -0.5196201825875435 -0.5196139169837195 -0.7777573093681331 -0.7861960526610292 0.6242906777154171 -1.4057987863027049e+22 -0.21258065019563088 0.5488479299190725 -0.2857995294553086 0.8904464143880251 0.7751801008859949 -0.04635825921400882 -0.971285979583836 0.6843882946719966 -0.8624311926106294 0.4226451512662277 -0.8398530481794584 -0.697506828554348 0.08260156245516348 0.2776984150513482 -0.9919448607906884 1.4057987863027049e+22 -0.057558130577083144 0.775073081784607 -0.8026438720969069 0.20767944470155242 -0.6982669332380136 -0.6796224278374834 0.35586898596998173 -0.29899811679398525 0.5096334173349202 0.6042530885640602 0.8566106403124247 -0.2184103043428518 -0.2077696604262229 -0.4384498942572752 0.24182993795106644 0.5522862691428954 0.4576654571307457 0.48927166338382744 -0.5552571626764202 0.8465806278746708 -0.8846690186088233 0.0753330628630442 -0.28729246896086047 0.12742009403441878 0.05729811402472884 -0.537274012504076 -0.24223291061434393 -0.7533378323871276 -0.45546132172633524 0.8892543377617474 -0.8737131706869434 0.47292139193371563 -0.07932653383136534 0.9911433419535369 0.3062108240605175 -0.44135044051677785 -0.8422109964580571 0.9480084242714995 0.5070819848306347 -0.4660360222440525 -0.30803190379899337 -0.01104173326798863 0.15497183254001112
1.940822745266481e+25 -0.5461254266015334 -0.35694943749585817 -0.5497232230827922 0.11188207874808898 -0.204221569293076 -0.4969761436761788 0.9246156113068802 0.732419716588147 -0.4974053454232492 0.9436615070644447 -0.7680790020404935 0.5661243755992866 0.1085351493006308 -0.5650860800917559 0.5259599335213843 0.21347028151425018 0.2600148525095385 -0.8344401875759095 -0.9900327748067566 0.20520283578190424 0.43244419005705526 -0.9327544045090792 -0.060733204595136536 -0.3143030228528598 -0.5838645397600357 -0.5957555387708542 0.6393513437382639 -0.6497353488923103 -0.9677302763697235 0.9330664584932391 0.6798548090880008 -0.5383670084601386 0.3571771112473734 -0.44194637970528605 0.41315303791467084 -0.9514344759256381 -0.6144422903383187 0.38192802595405895 -0.43599972653033325 -0.6539706364196534 0.964583568894883 -0.2669639037018776 0.5836348589240474 0.5221046853935178 -0.9588149892946918 0.595602003038187 0.22664186843087908 -0.014094463530726298 -0.4141177882301814 -0.8607521818732713 0.03246016070034741 -0.06928005688843597 -0.6050331858525038 -0.16221241202646852 0.8669337443970104 0.58077040268341 0.4031342849021944 0.20872035990002735 0.5009897372992418 -0.5254911202844874 0.5755927924346123 -0.2820282421683542 -0.20008508571264505 0.15863235027770828 -0.493874494653763 -0.8807180144606599 -0.38412742015897394 -0.918375825830676 0.0066872301215961105 0.9640563848023138 -0.17222066559302873 0.45640087227020865 -0.17279982802814065 -0.9998520436252896 -0.19187694743939931 0.10362092387613342 0.8638292737692654 -0.9341911293353502 -0.36583903435023335 -0.5798002851454487 0.31037112772183884 0.3311522781394698 0.8915653652961322 -0.042026795759069424 0.9348919588360456 -0.0877640138658109 0.1290586355399428 0.4740504673020516 -0.7588831998201775 0.214513457902616 -0.8316472790864959 0.9693300665276527 -0.10460382576471727 -0.4149544542627912 0.3884361766554294 0.13664202389417368 -0.9963949946769513 0.9249596439218244 0.8943385810676738 0.47864183512504344 -0.5288632473718446 0.8715331925259646 -0.24096719463995098 0.18396038500462697 -0.474944352530575 -0.6351269787603677 0.5307691282830882 0.6555977499619496 0.3359564946517444 0.498660415891091 -0.55950358806491 -0.8752806237705086 0.5060270168230796 -0.449158577441481 0.7466501403370045 -0.19096659916203818 -0.2865726418185084 0.7290359839887823 0.679397154221103 -0.5370936551884218 0.6046142694472079 0.6596209182846857 0.2149347747467547 0.7798306338169088 -0.2702006345048251 0.49892405853183575 0.23915468299261144 -0.5514220963585883 0.32696095702565886 -0.8943958623886337 -0.00150690694761213 0.495798863320734 0.793386745615829 0.9682696044713481 -0.19063328256947054 -0.9297771327784408 -0.7208813183382206 -0.5715187923689111 0.5040987189867867 -0.13796491435212732 -0.8590958740546257 -0.12777114021185154 -0.2661160459935119 0.4124382408894849 0.6582057183504275 -0.5565211769776988 0.2961221673262975 0.15135501084324376 -0.2697235305027341 0.8851993587137952 -0.7801456560514335 -0.7962462940636379 -0.46103532526897273 -0.8822821247162602 0.35562751555460337 -0.21614948215176621 0.48666501795651707 0.8506115480862739 -0.43177343639765486 0.7047812839224159 -0.6757789879540039 0.07504289226753635 -0.9240734978571803 0.6818292693979979 0.7526328379922835 -1.1894453420243479e+22 0.5918709186930222 -0.4867068905135077 -0.9483132966362726 0.9381139687490936 0.4516073933877518 -0.594376201938144 0.8031411648397466 0.9412208397954782 -0.19606706315595845 -0.837932391694256 0.4510769852737173 0.3602806666363978 -0.1547398395095656 -0.08436986079200914 -0.3762708526616063 1.1894453420243479e+22 -0.6748575252728428 -0.27982472661310687 -0.9395474995980793 -0.029111475809471488 0.9324861455440514 0.10712622440649855 -0.6819295135165255 0.6794435401142249 -0.6503703625471218 0.7830295952834521 -0.20340536643781348 -0.3473745750634918 -0.790766068361862 0.574282447702956 -0.5596696348931198 -0.7073685478915088 0.9439489947918509 -0.594111299376713 -0.6615768476896402 -0.8817058342315773 0.8110859274868165 -0.3778556678171514 -0.7648913446230738 0.1722884947507659 -0.7102730910266881 0.3776158911688092 0.2706854854494609 -0.1692986849581286 0.2450601136104864 0.7765188539611063 -0.25295862633825394 -0.8533415823992496 -0.029766031565338746 0.6621712844896466 -0.7278591021180831 -0.7850319297759676 -0.1092987167220334 -0.126515549633877 0.852836162354847 0.14669608085725816 0.7434205168193924 -0.9308501409672565 -0.4295987571807176
2.331115214204675e+25 -0.9408078078498283 0.15280011454786013 0.7622007356810285 0.06119074502647859 -0.07326614677774113 0.06330377978168866 -0.5408040729433174 -0.5261400383171302 0.4082738698211128 -0.18092636078021207 0.27418714200748684 0.390189835411918 0.2324309803352873 0.5415859598486212 0.21279735073603345 -0.5866323674080789 -0.6840128082211661 -0.24765934995374073 0.34067964184962385 -0.2748041416016349 -0.6482287813306364 0.988871069176644 -0.6082653123072428 -0.42477831178088077 -0.5496604067287327 0.4559250328745994 -0.16021596501360347 0.39368286456969726 0.292316078423563 0.0614401359312009 -0.5037570212317113 -0.0533698198316237 0.25696919481426894 -0.5850280757936976 0.6228726909299147 -0.983108895396559 -0.8630419227061903 0.9043771745574132 0.06799024327965197 -0.814897075380187 -0.057293166175826915 -0.3683933480848427 0.5513232431139494 -0.399694393385696 0.3676291614171967 -0.19139513849053325 0.9430741997960117 -0.6794047459985912 0.24048832129001663 -0.743211023641144 0.2146393023959723 -0.8490893401938941 -0.42392670927305987 -0.43456016716952184 -0.04223790648506576 0.9215772427992468 -0.7965417193371198 0.17162776258581247 0.055332920593816004 0.9503735800336812 0.7509258201397313 -0.1630207782632893 -0.6949434115726141 -0.5343069350626668 0.5531464583715631 0.03741381115522979 0.9974658649039054 -0.5477007709258388 0.012067949185472937 0.0764818853485949 -0.4750937641928987 0.07858366401916017 -0.5460249519419274 -0.1786764284928799 0.06938299676264448 -0.17387772394753398 -0.6887235470559301 -0.5294615499952278 -0.35551745443016247 0.8937558547003068 0.05169361211918777 -0.37346838462492804 0.3096407665249896 0.6738689363230268 -0.16208030801874607 0.12193772488934629 0.41389918104029677 -0.7192761206588916 -0.6843676686502895 -0.35434537366524665 0.9763379467143376 -0.2851246276919104 0.13832926709832405 0.6173711173934764 0.5410875156404822 0.18920232411403193 -0.2949545766727093 0.5968765790793049 0.6591088897744626 0.5842421424635573 0.8769054350486691 -0.37346984637332103 0.9269432873607077 -0.45630827714414046 0.09174158236946717 0.49137057371015613 -0.4056980231668361 -0.44122427085115357 -0.48051019618368596 0.6547852389850579 -0.7977260807838318 -0.7741886617861222 -0.8534893707447435 0.36930142367867225 -0.25389676703727626 -0.6222259556157701 -0.595669145607113 0.0676352720951443 -0.8107012293141163 -0.9967043965663687 -0.5099795915737138 0.8339708018519314 -0.04295450982208138 -0.8504345877376069 0.349719523909084 0.8944780515795221 0.3081327181651261 0.3238605723580217 -0.09302014826659466 -0.09679345346379686 -0.5587107811845267 0.8875820490101793 -0.4561468775964186 -0.13542452477710198 -0.8320897878435454 -0.8530427680237449 0.9569722898503115 0.15880153537141428 -0.43421530900337 -0.650526414298618 -0.5055571525556717 0.04799782652868845 0.6255368989317398 0.1645621005710003 -0.9303771716120457 0.49370094826641164 0.4596322063700162 0.9991396300153974 -0.3103797077942305 0.6564790587459166 -0.31485948614972026 0.5444047212749059 0.7639021764354177 0.08996831653302606 0.3381409791772838 0.015874332579101758 -0.10573735545025387 0.617140862507269 0.8304046852236426 0.17222325626808077 0.6195233116243195 -0.9779106537720166 -0.5587619349176409 0.531519286601265 0.3306231999317959 -1.4286385194218941e+22 0.5790002205539544 0.81868200004548 0.7851352172155988 0.16015667196710437 -0.8005235168174238 0.18151061709437788 -0.4212863847813475 0.8375751801892104 -0.01892733556724413 -0.7587630881739402 -0.058163454018619554 -0.033013076272663255 0.2547789443092259 -0.2697889943471756 0.8016293751583083 1.4286385194218941e+22 -0.30778687256892456 0.22843003627973513 -0.36122890921123885 -0.6003605676766774 -0.6897120587942789 0.4074954019253194 0.4902638699701727 -0.05704073790213893 0.47554841279110294 -0.017239194236363664 -0.4165525546159641 -0.7733593907407526 0.09380751398600329 0.3042762141792805 -0.42090206345713876 0.2882575614921097 0.09566627982647025 0.47448777485999893 -0.1698833189671607 -0.7358164006523717 -0.9055060010715787 0.9049637791151506 -0.15201212925281005 0.3243579009621529 -0.42687367156056477 -0.6790378535143742 -0.20685513832860547 0.38456690446664954 -0.6668012113767816 0.17587548466156733 0.17214289605638777 -0.7727893544534215 0.6808615166275995 -0.03212137887989819 0.03183395263448974 0.3859938404960521 0.48930652689359055 0.025635947878255294 -0.7641532892051912 0.19237245040315742 -0.013433025527717746 0.24495893795574264 0.2645126760895633
1.33234245284354e+25 0.2761335234849531 -0.2349658092482494 0.45746798319555726 0.8985482918545158 -0.5457959190881776 0.5109087595026482 0.9072370409947814 0.4733129478263278 -0.3845323693313698 -0.2294240798406899 0.6151105098313256 -0.05011991828900775 0.28180987073761266 -0.4105407166770605 -0.19231112588126065 0.03403223265238853 0.38893101441149724 -0.9328591701827427 0.18642061840164081 -0.9699066798548521 0.09220352780144814 0.6966290967537472 0.4214982487178274 0.344637486773147 0.5962081046508729 -0.08107342102608972 -0.5810468594494849 0.9953527400105344 -0.8768240067204638 -0.1370218673753545 -0.2779208720884243 -0.3998012176326855 -0.7520577749227222 -0.78999778950876 0.00018848352115141687 0.8569519385912867 0.1986843363439199 -0.0411567894210787 -0.01159779653906945 -0.8625178275357399 -0.7332351869075191 0.2511492481810882 -0.5621688808334719 0.7494135967082891 0.01715885625723068 -0.6429109173474838 -0.3282524440033514 -0.550344479089059 -0.8591806187353583 0.26444771752339324 0.14268025759330438 -0.9706281937780863 -0.5649803296821421 0.012200767034538984 0.6256102098278333 -0.08474842815326578 0.3031786313301492 0.9559423203017448 0.8998513211258272 -0.7758117308662111 -0.5982848023940246 -0.38636268157229847 -0.8094571531125194 0.2785777742100717 -0.02935166866730765 -0.7757381366406517 0.7030907963694961 0.09116892432439583 -0.026528522008408828 -0.2828134023144606 -0.3167402444938423 0.8649102391903467 0.027785442129051763 0.8026891539407879 0.8725715866962767 0.5743709245389981 0.5544039054507492 0.7451767876063253 -0.16313100386688406 0.8194258307685642 -0.6372488662692266 -0.2898066358236946 -0.24955832882865447 -0.7485770052902676 0.041032317018834696 -0.7961729509887734 0.2379317241073704 -0.7920700174584479 -0.24327248562746617 0.16512324033355585 0.997262965446899 0.6599877851290932 0.8238978446079757 0.026648884050488597 -0.07821719519835901 0.17111708103483814 -0.47435159613857913 -0.6647887199163165 0.5553774571792265 0.6106543899331327 0.6933278495672821 -0.33574370907981965 0.6608379252288057 -0.8123785537538442 0.31605199147855645 0.7975440987155065 -0.04723169756386203 -0.48106778301320685 0.9125432700774294 -0.6886341733803361 0.46198245259625303 -0.14292718123173498 -0.682355761922742 -0.8169645906321803 -0.11090229507521898 0.12499228458345635 -0.22244728694552252 -0.8563023824551406 0.5173801887858176 0.433095856191134 0.06385952719137289 0.11798668535382517 -0.9895275472881222 0.17365750745137354 0.43755028500591875 0.5724255166955494 -0.11366317002499904 -0.8956696614987052 -0.4178751105891674 -0.756796021983533 -0.2180546307690232 -0.4853842135015609 0.7783669860920881 -0.9872539411262788 0.6382244602905314 -0.04252878271924865 0.2166245712350059 -0.8235271809106961 0.03641734557074083 0.5422418548121846 -0.10987270986922804 -0.6864941498856447 0.14569873790097687 0.139655614652602 0.5778599610891746 0.9065048846503911 -0.003463291991826045 0.6951651262300855 0.7624731834272294 -0.5347383700595687 0.8201309159074479 0.45443574064668435 -0.6927530815756584 0.22599005582526344 0.5998527580601583 -0.7131548839770125 0.7483712628531536 0.5360517843245336 0.41766367388272463 0.9880932223347447 -0.6764700273706468 -0.2349230567528966 0.8855537147038584 0.8287831849796083 0.21711180719210743 -0.2519774326380173 -0.6941201038668809 -0.5102281610022086 0.6464956352360829 -0.865328330438538 0.6326582393513853 -0.5933224097025718 -0.6772911850574646 0.12041069984103392 -0.6556381895085348 -0.2031526252117959 -0.25752804774009164 -0.7853778281444452 -0.5582113263320136 -0.699633993454444 0.08207187198322274 0.6104111287521936 0.7333604607453643 -0.01096566087236317 0.8111163442653513 0.8869859228077419 -0.11401923408178405 -0.13619103015238032 -0.5480607061457681 0.06456190502117387 -0.46188474460256757 0.6244591119093699 0.5912813840023685 0.0933822103854165 -0.1851285455876528 0.3118293191129373 -0.36384739181168446 0.0246126257249768 -0.40283541166628334 -0.9762727831718105 -0.9048512580473347 0.6763043639541018 -0.8647621228727904 0.9446539240774472 -0.017189775734129054 -0.00037916050131747703 -0.44160652271330103 -0.532873344980622 0.23259538537327806 -0.7608638715930169 0.24389691274186354 -0.48225974627269563 0.665497775219037 0.11209751901574538 0.1894467147508614 -0.17821850483838197 0.40331992078867507 -0.28969188662026246 0.5132349865508754 -0.20510383087230788 -0.9413209748267619 -0.77284090336741 0.25479393184649557 0.1868248428542194 -0.7759085413481506
-0.1972259749553149 0.8553568033432031 -0.38320061672031347 0.6429451304043534 -0.5572598950331553 -0.7267337846261932 0.5524669389064554 0.25305557384626653 0.786878669641085 -0.9336195460493686 0.6765195686069587 -0.7727101123848672 -0.655353476906585 -0.9393975180551468 -0.8515646655741165 -0.5048689756335984 0.6415133080875881 0.16253651185523244 -0.012614261592312603 0.8569983431626595 0.6371709577664884 -0.09423739000765052 0.2637249437548619 0.9554420594864363 -0.3046623110218796 -0.9602772409330915 0.5937890417181462 0.8199258838800374 0.43515337069041493 0.07503784030312088 -0.3706106773477895 -0.03861200375037743 0.9766705461789986 -0.8695553779409773 0.4113567953452597 0.8625991140424338 -0.30590099222991785 -0.978900902376731 0.9693441596895052 0.5799429727110494 0.4299260255016666 -0.466909390601175 -0.9902188418500566 -0.671742584531656 0.6207688221843526 0.7514529929792839 -0.6750719122444391 -0.5008458200996573 0.3398314504788198 0.5996823170998942 0.17230874440029487 0.8151920467434799 -0.09364388932253465 0.7381254153754904 0.12887264239918572 0.5007961318263614 0.389670564950648 -0.2657293350425993 0.6612181896298599 -0.26196276373844074 -0.26281040679499146 0.8214591334599091 -0.3248742884152589 0.1736852303045504 0.4097322434445545 -0.2617067231846424 0.8442777291347059 -0.21873378548152522 0.635188313734427 0.33165678655045605 -0.4558509259586552 -0.27672697950303937 0.2200326520424103 0.4295264403520629 -0.39348952877693466 0.054505360187899754 0.0902713023953734 -0.13877494377748745 0.582002411704098 0.42521433977681355 -0.48083381412110215 -0.912937985744811 -0.859026575992774 -0.22722320314439126 -0.43103167133886067 -0.8526630772020003 -0.30872609774373916 -0.11861953295313321 0.5616968622917535 -0.305600309553399 -0.41199804162725395 -0.4039150665999536 0.8562733607221968 0.5407570092143084 0.9880787707313556 0.8961838374801587 -0.4906031191109783 0.6300285396479623 0.19994075455369797 0.5171601165468203 -0.08764839109841094 -0.21675601440106473 -0.6907470255706767 0.513207585781583 0.9418460465623724 0.944644707467925 0.4905594361187735 0.05464901706121594 0.7146098887717778 -0.4478146135278238 -0.4887215308928794 -0.967527277388353 -0.5688442966450122 0.5722601482044498 -0.947335856779391 0.3705008432260468 -0.392274199443849 0.6994059579313934 -0.261662940180851 -0.79286654136726 -0.49089144208127733 0.5512637376459444 -0.04436982921667054 -0.9845842805466214 -0.8956544898984244 -0.23309096203159063 -0.19667626556880324 -0.7797300393649269 -0.009201616429302284 0.45500078911483555 -0.8341171892365722 0.8524602199449172 0.848262671965188 -0.19835836946969154 -0.18798448413262436 -0.8336267617023745 -0.4861740812217854 -0.6250245739252129 0.9789862185734786 -0.10547232548513241 -0.20084458653685333 0.6931131657707292 0.06665722101885652 -0.5159603901639176 0.34687048175504165 -0.545559202323932 0.830147936399191 -0.5101962878059128 -0.10904112246161679 -0.11122672557493796 0.30736993795723944 0.9961825655396694 0.3935444685419711 0.13968234596441742 0.2275038394947253 0.7010395576743487 0.8460753136218044 0.35437377182407626 -0.8930857709180873 0.719060219021024 0.5995761793853491 0.32007613385126255 -0.39942885329011757 0.06432276589452224 -0.7214991078842095 0.19537732738806302 -0.9989912320428238 -0.9771477513475744 0.47436147480369595 -0.7224526622644176 0.6321403483886308 0.9800848202585375 0.16870338866588597 0.516673829748725 0.5423281691229522 0.968950772177875 -0.9147084959681828 -0.0722856685330302 -0.20295205150614715 0.2613771484208316 -0.05963084356691151 0.9911285394755005 0.771536557496864 -0.6118713706122751 0.0642092595747481 -0.24989887586033 0.5620753544486459 0.5380251197504997 -0.2270181903941828 -0.0493266545206561 -0.8623231471825128 0.899400964789612 -0.9826114325285431 -0.6978560884979168 0.028659421886185976 0.14065668000626785 -0.7679040295077224 0.5027982902689352 -0.4835847451564488 0.9531816429580511 -0.4989063696116409 -0.08551096943220116 0.2000083291274326 -0.5846315822215895 0.4787082557304416 0.21252475218845301 0.31854481110193844 0.004996925509417105 -0.706181672220465 -0.24189999410427188 0.8973706468810714 0.8452980362918703 0.9564272579619215 -0.7498536886653513 -0.1417537532102684 0.7192387636192219 0.29844041328975357 0.43618228869081377 0.4220152732173892 0.4232745587369444 0.9456543713360928 0.06494473275309187 -0.08490452730684139 -0.7427265403164724 0.5390056948825066 -0.7709786764315574
4.995246876124032e+24 0.8704570049534126 0.666044806868701 0.9121957139259362 0.6742574227866345 0.4339960231802129 -0.27645888382133843 -0.5606521225858125 0.4169578650788748 -0.4336188828577541 -0.762153510747074 0.0677451421095101 -0.49057791455224664 0.5300443343903172 -0.8099804794898915 0.7052545842750146 0.07071081321923978 0.5074023608011491 0.8255641885489677 0.08546465622575483 -0.13403914050230137 0.5142064339138257 0.0682479263331377 -0.010620594311273601 0.06214059945237205 0.09834565818744534 -0.3330134198354544 0.7828227302056707 0.7985154859857038 0.4350587116853637 0.7346615095609637 -0.837863049727454 -0.8337667848379748 0.19784463885258008 0.7581150204495231 -0.8667809151138235 0.8783591806824116 -0.22437492035394246 -0.9818776903313595 -0.5632239514684299 0.4350384137058583 -0.6901685697382731 0.8855438937873517 -0.9231558891589173 -0.08236716966315294 0.40539084360617017 -0.8075186087945427 0.772819910540931 -0.35632304195467346 0.7038717903423017 -0.6233110091531573 -0.8207669235635777 -0.8179085831052078 -0.16016944100874864 -0.5235689573525393 0.28502401424500956 -0.3961491310574261 -0.6030425833266353 -0.04801430550159069 -0.7783141710248593 0.984059100871614 -0.89329359112885 -0.5364314242425745 0.22557726692171842 -0.1451075293559696 -0.16699139968880172 0.7649272675254444 -0.9405351535547835 -0.5716163139460393 -0.37482845008313403 0.7425468187543938 0.4747880774060509 -0.9643442529509207 0.31494341987940855 0.10051160802955983 -0.1719388097367236 -0.9752536675008159 -0.27375962459968783 0.9633881187730984 -0.5804465803717094 0.7648817504034484 0.5027459966344465 0.44989516238856364 -0.9667173565799754 0.3356574995721058 0.2741360524926677 -0.14392630058648304 0.0590801885655825 -0.6677878538773614 0.9413269856157591 -0.15904221528658535 -0.6840278800788193 -0.40651588706258956 0.90902448074203 -0.5056415697080701 -0.7138356854120989 0.8226641093407059 0.8548523069744323 -0.7240522855959541 -0.11897828669118549 0.8573535799374885 0.45562897528062596 -0.9274739595413946 -0.037848494372151764 0.0023704986119976734 -0.6627928221588102 -0.38244277144502026 0.3693237688190887 0.9219204071307301 0.4519616414368126 -0.5436180186005055 -0.3791647601284449 0.33084986728910737 0.20396556967993584 0.09608587078967123 -0.2516120653182967 0.7004330360953337 -0.6473963484231 0.4396265712550267 -0.7323322461940973 0.9269281898267359 -0.38521317314258896 -0.6105898167082786 0.5902095089068025 0.8088667388187851 -0.8251565039181226 0.893474193833268 -0.8160415038552873 -0.6396771604317895 -0.8690429157552111 0.3472809369078278 -0.05094174229420578 -0.30357602565795605 -0.6597516479768752 0.8171537143681915 0.9382335858528563 0.657017345957509 0.5485368072338879 -0.5481202893837049 0.6334482191167412 0.12970545855761006 0.21525962405416466 0.3503141029566723 -0.45398730485212924 0.6132441204568202 -0.5275205928229745 -0.8290860651573531 0.04044763659586903 -0.04049097528738255 0.9058654948196347 -0.44346074009967107 0.6909876626544229 -0.031109923452193433 0.9782761164133351 -0.4050181818810754 -0.05036536749795806 0.8768765770794718 0.7414135954197645 0.8358452755885579 -0.4059903204419484 -0.3816746839182761 0.521368027790936 0.6497151893886359 0.72986227129423 0.9049464881184142 -0.0430091356841511 -3.0613682488823204e+21 0.8632540494406655 0.764338531139424 -0.16835311299635647 -0.8730681775007663 0.47850347625537193 0.4157612347501147 -0.948239443057886 0.6821992011474929 -0.13045465746506268 -0.31196627495695584 0.48363471600868135 0.9409553516867926 0.35490879129534547 -0.08106982995503942 -0.6552275251584807 3.0613682488823204e+21 -0.3112445964450612 0.21885879004218256 0.32876619578887145 0.5309339888510873 -0.35869128853676324 0.6494635186542999 -0.8242701853624987 -0.24525162905897768 -0.5736110564108192 0.3902853608177881 -0.15704040747635029 0.18130463063759183 0.15495449570539965 -0.8383921458887231 -0.14041708854860224 -0.6378527929212048 -0.9687408945227827 0.5745010413796028 0.048651015657643626 -0.07591327148873894 0.26201942728944183 0.06612417157864026 -0.16748249499239942 -0.16061729324773255 -0.7203344908818763 -0.28254328651968086 -0.19514897722653024 0.41872919947780507 0.989372731999268 0.3083162348329551 0.34040858513299344 -0.4796220069608359 -0.4743131153164699 -0.2503462263945997 0.657290994070604 0.9184847482876446 0.16482570276390462 0.3948843616651383 0.36688778234606634 -0.5313722746132632 0.8445550560526915 -0.5465111891493706 0.6715934366748484
2.0495998721126497e+25 -0.6334680635284535 -0.5411074137021077 -0.43767166775040756 0.7812458510732003 0.6378565525458142 0.42070407416581745 0.7844821014162324 0.4358931565896391 -0.02373976430389879 0.7053781748000583 0.05957811762004561 -0.7083860449011357 0.29181958220367465 0.9448727476340444 -0.9978970312685 0.7761485520944664 0.6109885218058584 -0.3585070553585601 0.2669806183082042 0.6803772586529129 -0.11886169053458007 -0.8576028464749943 -0.04816423157329486 0.05090749336882028 -0.11013228066000691 0.3164486782804248 0.9591601037627075 -0.650581879810165 0.8247115842646622 0.7365780845325289 0.4808020732524494 -0.15145667775896232 -0.01889038160067158 0.2516092780200072 -0.5091425115075647 -0.19152664895654303 -0.574128662668745 0.06563038778519226 0.4244764101684577 0.7739416677250501 -0.007888919955817864 -0.8280561600023995 0.6198606831564233 0.13089355379183099 0.8807369186465619 0.28329896677256694 -0.9661192644449981 -0.3320179509003398 -0.10324431349043484 0.46703915756350445 0.6399537480256006 0.8347376257342329 0.6682342219949837 0.2798045838385319 0.7625470597760937 0.0052846461340112505 0.22123582857171398 -0.6646665571511075 0.021878864652155494 -0.4238472052420026 0.8007825962984112 -0.5864664678080385 -0.7972764204129041 0.8375584667802634 0.6158525790205225 0.657199188558691 -0.2697884107285755 0.4814517939003762 0.7494500451035546 0.15318465654661706 0.591081175287651 0.41413304568434106 0.42736919437222975 0.7842281410016676 0.7562806919834384 0.4376187655440025 -0.9830147015332893 0.37237315946994953 -0.9793059415374472 -0.28708758639487675 -0.09305441332370945 0.91788988552876 -0.6526355584775585 -0.18670570255992502 -0.7290671778547875 0.5414434926907015 -0.8311692747559964 0.19795920166683545 0.8197040197481971 -0.19406722375261176 0.5531067404226448 0.5674770858451745 -0.9850824042991917 -0.02959486111971521 -0.4357888510403545 -0.8588603650132594 0.6289129456383162 0.2581250180944805 -0.11461434626943912 0.6902120279790696 -0.40108005220810794 0.6828965425648459 0.241514926962189 0.7852299690735025 -0.8865696778671788 0.4329044130585815 0.058676227116197355 -0.2458397184184764 0.4776852572785668 0.9338052808424979 0.27413440307521975 0.39506998176648356 -0.19361714472717373 0.2165779789752429 -0.8056105173435912 0.4425047009106502 0.6466635772384579 0.44690973010111645 0.5134375530908557 0.9876588716766421 0.5379214108157286 -0.7458947056185847 -0.8409484539713314 0.2370536773027141 0.8692597159711937 0.20602317148603166 0.8422135339974963 0.07980828016147923 -0.4622432436997095 -0.8362348319551902 -0.5113176175521112 -0.8913780613930031 0.5119051778870021 -0.05798107324171076 0.009151424059941293 -0.40569231052135524 -0.6382060050058631 -0.4109550102529622 0.38702856231873506 0.0607046740277728 -0.04038057363384495 -0.9187738456264685 -0.4016991677798427 -0.5284641496091125 -0.4499991076564962 0.885006667433986 -0.6387232073625144 -0.38124528390463297 0.8213761239136532 0.8208935894537712 -0.25978746672963093 0.9742986577365518 -0.9367152763335163 0.24081480448079917 0.41165850835905693 0.6934357862538252 -0.9845416118476507 0.5268696756076792 0.5326732234596938 0.30061622153902 0.4628519416464192 0.5749087439245792 0.6120236400346437 -0.7925351320566398 0.14892049363789384 -0.0711966280892169 -0.1176048251151387 -0.5824851162116114 -0.33399890609076355 0.523742720584703 -0.7417576989449317 0.8692325465521487 -0.005680910884114709 -0.24994474296503788 0.07382830994297795 0.7176705259178024 -0.9191608374905649 -0.5157589901308548 -0.8626292914940863 -0.5182100660651223 0.9583934835967425 0.8372967141688854 0.3874659200957862 -0.8537813716274572 0.29878680298780314 0.08503748447520332 0.537061231706266 -0.9610277624181698 -0.1334595824557081 0.21247519075825494 0.7426101973240227 0.39361617322339293 -0.2824529017910855 0.6742119791318653 0.290904219113989 0.22673475287484823 -0.11121357779640473 -0.23020820196157832 -0.5223456127046602 -0.40834279731857825 -0.04868745231072058 0.36123701085128346 0.9351187937634391 0.2833193065486652 0.8168721264164092 -0.6021793106684423 -0.9468776449724168 -0.7225006802482024 0.1444898052692929 -0.9181923882871912 0.22146202428249095 -0.9417220662358854 0.9863287412434762 -0.9609637174900547 0.0232103359791751 -0.0202550959343486 0.2721879641014495 0.17837607004539113 -0.545238305991294 -0.8519679411149834 -0.6989163055746528 -0.6421659474698775 0.43411628539870173 0.11870100748108903 0.23960862354540802
4.5680462835014377e+24 -0.34125994504180257 -0.41500099037111315 0.4615164762608297 -0.35280516228151204 -0.5830929832454059 0.9039215993680261 0.6425104525223266 0.6261203654994494 0.11257452493828302 -0.34140764385956013 -0.7865685208288455 -0.5076513201257964 -0.9110214139929842 0.11308689787155202 -0.60027238164501 0.3534940699457636 0.8262820650425535 0.22662238345222274 0.8128299799545051 0.0033848352587098063 -0.7365971034293546 0.6698516923951026 -0.19172365527889101 -0.012508727849219081 0.6497467069576022 -0.7561917354661423 0.9051322977621108 0.6575875637477662 -0.3897602335370447 -0.599366721471019 -0.3292032920060539 0.37376243864801895 0.03634066326461238 -0.4989194909930492 -0.496483421274043 0.18197363663906319 -0.9693731709787707 -0.6072912193306359 -0.831835225869219 -0.8018711188948038 0.6861718129585603 -0.8602726302098691 0.2862323473698385 0.9596640787307913 -0.8684885344200746 0.19035147452678736 -0.8310928602685708 0.7012379740938102 -0.6649782213220718 0.3795779428133239 0.9270570188952045 -0.10341453699714664 -0.5315217897609121 0.7094918103684018 0.7528391401357031 0.27244536534666697 -0.9364849105702204 -0.550010787729557 -0.2771980031790622 -0.6443576332834755 -0.04617471301498033 0.45890200171809004 0.2904343060011907 0.8149840184663852 0.5450974379984501 -0.35243944420169804 0.23521800298566098 -0.7203258784577429 0.9719603421310288 0.4967996197811324 0.8680747558122355 -0.3776897025722741 0.025980698473472952 -0.23202678598858606 0.48807373303808066 0.9570401741297057 0.995112516606085 -0.7396448858462215 0.3908003525423178 -0.9307668035198133 0.6530708050989351 -0.9655834130827732 0.6245702699804401 -0.031217701989189717 0.709299777180628 0.20697643447582648 -0.02875568533245798 0.7708840460799204 0.17056814472259552 0.9366855305721753 -0.9894091665967162 0.19731273295383667 0.9657573327736375 -0.35070485248275873 -0.8723827530674055 -0.2880330440894827 -0.42486744373093854 -0.8218512599281951 0.35219128794636867 0.45347816400801144 -0.21393611813712532 0.37379565964034045 -0.6536913180206045 0.026954006916728446 -0.19131641518928078 -0.36416993811181086 -0.938988249013162 -0.07081846062839503 0.8507711553323312 0.9818373350833054 -0.6053610698671612 0.38041497764506005 0.6631425756678786 0.48729823778801795 0.46866432061498364 0.8997920029144257 0.0986834738887783 0.6711210901850142 -0.08173519256967432 0.03154713795624153 0.623396462827501 -0.3599433034818016 -0.9473821558822773 0.5295184053282922 -0.4169791644912333 0.4637360843538154 0.7634158686886117 -0.042363281958104126 0.3424895728378401 0.8002883775929117 0.5143786523727352 0.061402681121399016 -0.5748207913846066 0.04589696216139849 0.001224598283102285 -0.3075010888658438 0.8602940795073022 0.5710453360042909 0.4532387424971247 0.21159976699305094 -0.7707187152692585 0.0680630326167544 -0.3644810810513226 -0.751931948868688 0.4433241834734636 -0.02979780219901551 0.5334490506364804 -0.08329364781920434 0.9866527507304164 0.39992720828962325 -0.5536502188564587 -0.3718528137156254 0.6382103763355162 0.31653633984820173 -0.775355235602843 0.8751929603831843 0.9319632176412926 -0.4357774093482494 -0.266044406131813 -0.7114471292535185 -0.5991440729908355 -0.5320985110310903 0.24326928724591723 0.6166360143119749 0.45091307176747586 -2.799555697352669e+21 -0.04165092837332507 -0.5117841273473918 -0.5044406322264836 -0.98266659384899 0.44486391492906896 -0.9807659140675329 -0.9892798104670499 -0.5062207526144802 0.8697414564063899 0.754705245464977 0.07472515677437452 0.7318938329230753 -0.21696595419939002 0.2761282023310643 0.86336557274954 2.799555697352669e+21 0.15186023965036033 -0.0755231343101248 0.9951640567440658 -0.2517486950872172 0.2798094980417829 0.022088486556504527 0.3660253873140855 -0.9653189217540483 -0.4225715091303901 0.7091792603546321 -0.5641128316211517 0.5024579436117367 0.25926385630415316 -0.9652245099297736 0.6346675293519854 0.003845909170740791 0.7867380478769608 -0.568067041542498 -0.39001698605588686 -0.3857120059457688 0.30011980001739835 -0.49223548547295226 -0.6324064333526984 0.2948762009317907 0.6267985859339786 0.9395648263339065 0.20069166498592628 0.8706800064326359 0.7760332043265756 -0.5763211482150843 -0.40362245370257455 -0.42266379041976454 -0.9301127906649718 -0.9468676326034589 -0.19579157657109447 0.3415433952151119 -0.26365943112623524 -0.37398553871881735 -0.5235002353321854 0.2500864522708257 -0.3314842292167459 0.8691390156001453 0.5869413227823865
9.68559949168759e+24 0.5259674459016406 0.5179533678823933 -0.17887713186656273 0.7982920655225618 -0.07393035126905478 0.8033412819921706 -0.11790991313579835 0.4649561475020947 -0.5830885277211739 -0.7550006222047121 0.3035562588380609 0.08680548393278054 0.9518414399582582 0.21226127303408604 0.8415928845580087 0.17141173394634257 -0.9193519615376564 -0.2961452694992408 -0.5348666281921572 0.6621974222560767 -0.922045296514526 -0.7413505417870949 0.451750481241846 -0.32316681504482925 -0.46078838061324556 -0.6768355504520964 0.29867356427815817 -0.5898442366061301 -0.14605348124456974 0.5417820047734669 -0.9322173157847824 0.24438141138464786 -0.780853698787549 -0.48448437037393055 0.4375748109319333 -0.16843233419721293 -0.5894136232397236 0.5922629652559586 0.689693852040344 0.05620955842934228 0.029990534442580374 0.10595931216053689 -0.40820074686231833 0.19931375222307923 -0.018475569823757088 -0.37483135894966724 -0.8336724667036228 -0.8347544526719415 -0.8292701078589066 -0.6236031961416935 -0.559297969543944 0.9305366285137651 0.7414072065845538 0.37765866432897055 -0.4779310417233038 -0.7946360979778124 -0.6779469426037945 0.7908725857417775 0.7911506827101675 0.2564201784425708 -0.9545496609065862 0.053501075174196666 0.006435834465185586 -0.20930067226685933 -0.9424169275614971 0.49769606244269604 0.836301337125646 -0.2431475767583815 0.013261971955357055 0.13442634115239782 0.15205074470308455 0.87532017670503 0.58881367227433 0.2799159266379274 -0.010313031725501798 0.6953683317846511 0.6277169998957781 0.6443728469481103 -0.566344156933619 -0.6039788672314441 -0.02664408237827054 0.7701114959077375 0.8536821350714445 -0.21365404336167293 0.6626640867381917 -0.5623992685167833 0.8103605812397394 -0.1594436842784761 0.25014259342041467 -0.15147351865380876 0.8339587577979521 -0.5424927771340959 -0.4624962400962087 -0.4384990460863547 -0.6134806859022639 -0.746199446854876 0.5923141516833674 0.3187435146657611 -0.7485552747973039 0.49920385436602466 0.4411730213834193 0.5624133587771769 -0.10548257072822209 0.790339183881591 -0.2565064255334255 -0.15048405171735002 0.9761785532648797 -0.6868537210934691 0.32031288558462445 0.58670460053613 0.9559041874155356 -0.27521199101503213 0.269976315229999 0.8788086664357384 0.3229937961070799 -0.6532234349030022 0.3065491860364755 -0.37965201938031456 0.17038860328851468 -0.3334538699961562 0.21776470900499345 0.4527758836169833 -0.4709642393950366 -0.07286746701911229 -0.03593870588184589 0.579799792106479 0.5934790044782519 -0.7026145442926743 0.08870171707860064 -0.026931315913820253 -0.759015272282821 0.16283225901684606 0.048435664481248475 0.15072403015989888 0.041199551728972494 -0.6196017477779858 -0.8133858034988324 -0.474961164275683 0.43380462284039245 0.6372996311550758 -0.7204853463629415 -0.11054413943020203 -0.5637808029379909 0.28865051688425414 0.5523096230304858 -0.3008830680595882 -0.7459792873224562 -0.39645931644959975 -0.12851513229469602 -0.5616389348355291 0.7479691730249212 -0.009178413050943135 0.08269121319518025 0.6758085120030517 -0.46948145713252654 0.24487865105537443 0.24124853595978846 -0.6558150696642953 0.5072383765038639 -0.5702896571093639 -0.2215579113699251 -0.10825669015371231 0.8118942072902242 0.07558414459385343 -0.6218135940256577 -5.935880145777765e+21 -0.659779761188068 0.02272844337726987 0.8634523692391352 0.4118159241114767 0.8188884007512709 -0.0791682094153725 -0.7202313787049042 0.8866424247230675 0.1647637376957709 0.054090456510780704 -0.6349519323428507 0.8865786339407737 -0.30019222946170054 0.6378889340300145 0.6259093308649877 5.935880145777765e+21 -0.24506280234052324 -0.7098996459396163 -0.06404270033869675 0.376822320137538 0.10628961445194918 0.38066855371789443 -0.6096300293885588 -0.15095157254850156 -0.7605558096302336 -0.8746957839220224 0.9284553642081519 -0.1520528754156285 0.29951061652379884 0.6334264544754582 0.5519866882520337 -0.6273029266410699 -0.29422560139175435 -0.3553795906111734 0.4403894829967032 0.37663184253578885 -0.5166417646921244 -0.0704110115525538 -0.26888744464025693 0.8181365498691788 -0.8622237857605741 0.47338214141809076 0.7519177475747143 -0.220871586736336 -0.017281230225182576 -0.8134640366702874 -0.21405578598895336 0.27676450456696533 -0.7247879147580996 0.5027349901063407 -0.6668547372878659 0.4719977564984794 -0.9783090047965781 0.031683495778970006 -0.495452432600066 -0.4618717603411566 0.6212888324429184 -0.7295678971807107 0.6464481412147822
-0.007278074067346596 0.6526339379283628 0.17747496528821016 -0.8342911593804849 0.30612201987206444 -0.9851747502874981 0.8915792902428699 0.5343414380094453 -0.9203807877361363 -0.15168695214132732 0.2692860196011946 -0.0550792838242089 -0.43521452506573155 -0.23830913120977093 -0.9037491066130623 0.6233084898254815 -0.36673523580464296 0.8365889083237807 -0.5321916997631273 0.3409927039911935 -0.08672756680557181 0.12334789765642085 -0.28343680794749226 -0.3130108660125053 0.25713995335044104 0.6932281181052067 0.8767537702414046 0.6114082066947186 -0.323797391694588 -0.30997758524271535 0.05781651281326483 0.7789257602942556 -0.7720865553651381 0.7304765194819298 -0.6960325912286165 0.874617855268514 -0.8768516392616501 0.45582577511368316 -0.9667623654671862 -0.058663766653286986 -0.3529028068532907 -0.14420089751070586 -0.19365670523457768 -0.05245357268496598 0.9299816019218321 -0.13166525170716814 0.7327793914595233 0.0029512698863676246 -0.54794970999906 -0.4282601044900125 0.29753667870343126 -0.059238816508374814 0.23353489695101515 0.57811300299994 0.8898855726775543 0.15646752289007115 -0.9124291531044604 -0.6495309123164985 -0.8052162828452121 0.3866111382663666 0.25012251945871555 0.9063515905658694 -0.48928413656037506 -0.9443212673352706 -0.5514066091122358 0.6180613130098422 -0.3363382044027179 0.08830162670345643 -0.12886217572978031 0.7569142795685175 -0.08006904866774023 -0.22884667615442678 0.6979926666760381 -0.7311059594162237 0.9390862235877933 -0.835961815125382 -0.3781809945540655 -0.5008551392954557 0.6029455293740678 0.47817252149451717 0.5127877153685334 -0.32728225729723803 -0.02608675757912904 -0.2811702899460444 0.44487381314916385 0.44524543375222625 0.947847406574448 -0.61274265749955 -0.2724495490055192 0.8902349513860792 0.7697818097060736 -0.1445187269387498 -0.3740960862292828 0.5019221201870665 0.15793382367189235 0.10632138171894256 0.26359928680725075 0.8300349891387475 0.8909009151657885 0.5047414635287493 0.683347697531997 -0.60389231808525 0.07121694384486377 -0.2946994374012686 0.0909135899261646 -0.6772604532878543 0.9261857395866719 0.8061437108402623 0.17394561155543098 -0.5528054940306943 0.6540887135243516 -0.8044577050001369 0.854503196515606 0.23016140906280436 -0.16937008413520416 -0.8999586684827683 0.3293854764169126 0.0712850888189811 0.6791573352397267 -0.2842950638676853 -0.627076588569047 -0.8274657958085936 -0.6340060021111114 0.3262993778234533 -0.5074408646336543 0.15897912021292626 0.2028278814658251 0.6295560941129952 0.5765326298128333 -0.33054560379503783 0.6955308123483048 0.533738151305428 0.9300515926895307 0.07561471719259716 0.15759392302415964 -0.8424287991187644 0.5168816545103403 0.4654576240211463 0.9339591720199667 0.10570399870722658 0.3054475277727817 -0.2837351168493474 0.4604082500550051 -0.2323829572436098 -0.6828179449981444 0.42866799202549655 0.09062019125164711 0.8703995684054684 0.6185086458188811 -0.5421252949563757 -0.5325758390176567 0.6489775224911984 0.7009219046550226 -0.7121234274037105 -0.5176478515802374 -0.2372984296237639 -0.33457977203536116 0.11280228369062106 -0.7883881239153991 0.8026266915220452 -0.44237538147487165 -0.5694656552993784 0.27392692126048157 0.9468030860572016 0.8402583713859082 -0.23082920191837952 -0.39046471302254315 0.27971287374955667 -0.941001071311828 0.13100063435289266 -0.8450318740947329 0.937730866575502 0.3446408398116114 -0.21997750475086408 0.5096423495790954 -0.41776184493734614 0.4550323110946275 0.6512774772591983 0.25333028740931707 0.3419668839487042 -0.5237991892111842 -0.44388962191976433 0.16753105442684868 0.7069343261570786 -0.8237841576521532 0.05177401504629797 -0.6443591678988243 -0.22066318511968297 0.7928193782343251 0.676674996008606 0.7863994951028737 -0.6333722802616313 0.231130648551799 -0.30907298335524613 0.6950388795523388 0.6051308304553313 0.15904049759691463 0.8324616551326531 -0.3556335477383259 -0.4878494791180339 0.5954269555581118 0.42851784222384426 0.487803838387908 0.16162065906279954 0.16040503015283725 0.453161670025908 0.15573026441662075 0.4076257911656245 -0.09068001283659233 0.12413338077097102 -0.7480927336777601 0.5968490236296433 -0.6657031173144552 -0.007100280419808813 0.2570333587430693 -0.8525565138819144 0.8033846835866072 0.8740322581436895 0.23848210427170602 -0.32760409624507014 -0.18447935261268933 -0.06348872796885652 -0.970505437708195 -0.5783557025181942 -0.40530115647052867 0.4848517976540223
1.1901406883206209e+25 0.6278428312642159 0.03261150464349449 -0.2353055479775994 -0.5457519286104038 -0.22592066134836308 0.2642441708282883 -0.07083931041483504 -0.9087261134996745 -0.4187868217099089 0.8188632999447683 0.7605100483905085 -0.6486424724938209 0.7212003545008483 0.5288008338119141 -0.811372824740122 0.5528292271294037 -0.12816049213610348 0.3651461497650965 0.6808364177932829 0.7223111847279613 -0.7935100768429684 -0.46665926225544085 -0.9100568302146683 -0.9086940572286939 0.31794044259674425 0.6605688194037047 0.1723872198148355 0.24943213190629576 0.3818189220152943 -0.30492558559664373 0.4438797033176185 -0.1663889423063456 0.22542546599317093 -0.5572366837433205 0.7743858686611902 0.04107325381787397 0.4600938390067708 0.8206960856827246 -0.4966355129793647 -0.8159479598403119 -0.7064093314524387 0.9668354955378973 -0.11230678970442098 0.30393188980921715 -0.4267155314396225 0.8028431106732081 -0.36677082204016864 0.9455371264010428 -0.6043529551580842 0.0887556236173519 0.7829541265600195 -0.25390360540298085 0.7206408251602583 0.44352266803764606 0.9041975079368803 0.24528024992381714 0.879629910539429 -0.11099158371435047 -0.07571120493482764 -0.5586616918804661 0.3882078839427465 -0.16831740393788563 0.4631753526889604 -0.8206684851649695 -0.15893858210293144 -0.6574624446900643 0.8432533848833703 0.9934825741284727 0.11938728725129555 -0.4666926411581944 -0.5735257983435722 -0.2774351426827819 -0.27531122980877343 -0.8046072546459495 0.8633444200008724 -0.8223511494965097 0.7807146518360077 0.043290211618215446 0.13164508031968847 -0.12524794000670747 -0.619849915634648 0.8407205946459069 -0.05236073500975591 0.13621874206122797 0.583711217196959 0.17187645579083277 0.10332005988480386 -0.41789844102021667 -0.07060611138919115 -0.6245127991763952 -0.7152207121438947 0.3451566310427385 0.47546445343588184 -0.6157696368756786 0.167168238268383 0.025156945240115247 -0.6636536391109771 -0.8716806789400562 -0.4487027472341538 0.051334352292674135 0.9793533412140434 -0.08294299881458755 -0.7690239990622372 -0.7375242435004361 0.6979099498080494 -0.8368416051592227 0.6421303038895576 0.11969640898487977 0.5727835688459619 -0.25582738923991233 -0.4743658738930663 0.18183626289941324 -0.021771466522543248 -0.5762373593091148 -0.5062501522268961 0.15829754924121153 -0.9417962411534309 0.31991692043180486 -0.6597033493124211 0.4494158183337329 -0.4955472820041875 0.5667586741919033 -0.8590587306750748 0.45375672632768227 0.7437515419183871 0.46964540052836323 0.5902783035261605 0.18049951639153639 -0.7805208175661777 0.2065707503330696 0.6775765546421968 0.16898956355921468 0.6869059334185079 -0.757904218778924 0.31444691196541164 -0.8386525613045781 0.3474726530213037 -0.013267527544243762 0.11517407693075654 0.9751772235001803 -0.08717601453281842 0.8193618341331974 0.3497892200181312 0.4740543663303092 -0.9954904736211427 -0.3332208486463819 -0.36674790700969817 -0.9391403622764336 -0.8349768404673041 0.3439356779070424 0.180209164414334 -0.3198193994737939 0.16792829019306632 0.6046936895458368 0.46205359203328467 0.014307558571852175 0.5465187254896926 -0.07809717868671706 -0.014007244921090845 0.4623167088519282 0.33970228649210976 0.9393492013307871 0.7961629046597269 -0.4549044004134828 0.4486546830643836 -7.293851545841419e+21 -0.4832691083712246 0.6544967045577561 0.5761890772676743 -0.8917878391059852 0.3860275694995243 0.3951253493721769 0.29219621201785206 -0.6439975225599919 -0.12546187583120516 0.13519271690700507 0.5105761522525829 -0.090485228082819 -0.58130900713161 -0.3299414686709681 0.1321645780315197 7.293851545841419e+21 -0.6841648748350113 0.5308575740689145 0.6663216585273246 0.9167802541389234 0.621558894368452 -0.45865709602611826 -0.18794036571520478 -0.9821189475153804 0.9537660896978617 -0.052256454905255545 0.7071270247042543 0.0018095036395056052 0.7611195725838442 0.8290801191791295 -0.8553816275634287 -0.054014324031674166 -0.3453921006932559 0.5853660520312467 -0.4143492335680199 -0.7151309879144512 -0.5042106124278678 -0.9016891809266354 -0.9057289632784593 -0.9268546214945697 0.6598609891868021 -0.05627533543166385 -0.16639382230657263 -0.8826976299987941 -0.5747032525850155 -0.7216926790234144 0.7596385761186806 0.48518204095756734 0.7360887597398731 -0.5070333072031137 0.12058864468697128 0.18621382019730426 -0.2484497691017129 0.8075855270098966 0.25216325426864916 0.576090697743078 0.9671766033347782 0.7296994400473547 -0.36050198077913964
