6.537584955643538 9.136390134942527 26.631012969632913 12.96744492650675 -0.42233905190517723 0.2328150582168581 18.874170237695843 -5.148404729804435 5.2591989743397125 20.654750666426782 4.688818794974211 -4.288215795506579 3.6272928067033425 -9.109125742978458 -6.948238571861072 -3.1116263537663023 -14.501712331675044 -4.473932836588678 -24.877927478653252 4.895529143904714 -8.087171562828168 0.5977780510872778 -2.510552029884195 -11.671478477343502 8.657601959195585 -3.135438030832421 2.613695856880923 5.855717236484403 -7.6144468650052355 -0.763708984326332 -17.357451198916525 -2.0675565657072066 1.7323447094753122 -4.545727283981958 14.402093674761058 -1.0550384349485806 -0.16249888421905084 10.158909617660067 -9.138274597831623 -14.283481770290948 -8.03197130889419 5.5162365013186 2.346058773167576 4.947914564110103 16.204384061805392 4.73873154670115 -6.697294447665174 -16.232428518647527 12.500351551108702 0.07458410973037163 -13.167914135076735 -11.428882522852398 9.155155355743407 -8.071877028905622 -10.601415735962458 12.838555254593143 -2.5541376532932567 12.868730231874748 20.150758082300435 2.3717046984538785 -5.656247712888676 -3.0694707555822167 5.564657928198296 -3.2561941144279705 -4.150278473851723 -4.757178404239218 -11.869620567001407 19.15713921752483 4.135571477506171 17.878231584784068 -8.042625545196783 -5.662199080362114 -3.5820007129355655 0.40791880683925735 -9.35769141764318 32.097152714522025 -3.017170732545094 -14.057189920228682 6.202786295705537 -11.263675308699996 3.1068429908715576 -10.849784283897163 -7.01577504334052 -4.67994454256314 -11.610314399747208 12.838220220597812 -10.416666866950699 11.998098932628599 -7.0956401819830734 -7.752871056139672 -8.079386115365365 22.643052991825552 9.499184187823808 -11.258092000943638 -12.661716150000178 -25.25086746422213 -6.216025720529665 -14.550895745591625 5.784545254279209 -13.54090050218634 -40.43793019750594 -5.877635103734847 3.1604837816183693 -26.496582059187944 -4.375849960292886 7.481001871835451 -10.822157303681582 12.754657994999091 1.422831637367446 10.211214556706642 0.020776543552826095 3.123016907266558 -10.028897973223371 -4.11988870483322 14.18083644511283 24.07799817704723 7.300082392728299 -2.7389522060332827 3.106866456240563 -5.243454751048871 16.12859881520121 -2.2432089205803107 11.064492627837389 -7.877104643622173 10.12962462543189 0.4574327215523525 -2.29401541227992 -1.9099317176896828 -2.936006961205831 0.7870753859128887 2.691539437639679 -16.707456022146882 10.382521027337337 14.81577852483297 -7.782088817865904 -34.82262865040081 6.3721293861241595 15.055626253840348 3.628590455072583 3.0776849761080496 7.876200677991001 -7.369465858052889 -18.607354866469702 2.089901994950165 5.631496123775207 14.84565957505734 -0.7949943376648511 1.3255520706100536 -8.76719884106228 -1.6199660356218366 6.847796899133723 -1.64776096597606 8.089291078414888 -10.312329028032808 16.16448665098606 14.832266095971413 -3.8932338322638533 -13.266407564292923 14.771703494905106 10.051438002566005 -7.7624041533672266 -6.789553884373134 -12.61383127668872 -13.929934283881868 7.108761655267793 2.7169327959859007 14.550983035389017 8.031814545671228 -32.00786522420309 7.659921535605335 -1.72279606583004 -2.5409000594037625 14.5955290860671 -0.449145317847171 -4.366772663215043 19.72798635382056 15.080568072854296 6.019048604920887 16.637218219378518 2.317030931452576 6.803481654501592 1.2620036940070567 6.129060475469379 5.209597771228006 -2.036025806569096 -7.974934090534214 -13.136817832191158 8.84610463905442 16.57444803950931 -5.014271236642801 4.072839032603329 10.516972014799666 -9.002361233389857 -12.06593437540196 5.941961942307739 -12.300989273427215 16.228476108230126 26.428643842270343 -2.311938197088296 12.973251261823416 -5.720771061728392 -5.127694625411787 -11.120392526601737 -4.683457001363644 13.576670691630387 5.0472499044293695 -0.3435678248741845 -23.302908870501273 -3.1268509040413526 -31.610310700077182 1.1867567355256496 0.5700623330316359 10.367524533152373 8.004071648696709 14.027107454520918 -0.026103875213868373 7.486352433864645 -21.774029932985584 12.828733458583399 -4.473364291447931 9.971735724576558 -3.851891186276503 12.49775615197264 -13.468301786706741 2.416440701917868
0.9166323074818257 -1.7789549836265335 -2.709257763796131 -6.583069125850333 0.13459707678851965 7.548436259238882 7.207790975258708 4.972709602390773 1.4941419857790423 0.21397332887184045 -9.332919630364202 -4.873817934117981 -4.3625430719037315 -6.357998330287552 -2.7763033426623487 -3.037022606781698 11.209420832450325 -5.1892957828586335 5.384841104064117 -9.07743724044851 -1.7790322550440172 -0.4233492691919087 -6.5727364842945475 9.353231827258146 -3.20516010483907 -0.5478033751428755 -0.4200821880505013 -2.0047489906181983 -5.315442829554467 -0.1369440999239884 0.32697435472775915 4.089204822179215 26.256800684135968 2.2827487280390004 5.144017738759531 1.4461417618050247 -0.8227565721394018 1.4027331878210796 0.24214541493368905 1.2808071893518493 1.0219460782392682 -4.188771443798376 -6.910201243728384 -5.657088708261454 -0.8020413021654571 -3.030015974909786 8.850541511028538 5.731858576264866 -5.346423254956841 9.931029554929747 2.515341878526017 -12.73647764598863 -7.133963474839093 -6.436290986666826 -5.858493223028301 2.5315951353389092 3.2470771050227967 -0.9418311903117278 6.620182727523408 -2.265661757412899 8.563355776305833 6.946575726791943 1.6925540021568033 1.842782050648047 8.873918432886741 -6.064217364440628 -6.601134835750846 -4.833024809815132 0.941570492273134 5.307826017719721 -0.9385302257886078 -4.392178733914526 -3.8332331119357512 -3.480611228448806 0.7275159535351674 -4.756064727329931 -0.23569362223730256 -7.083179744665513 3.3345059842617015 4.558847339810529 -5.6856582935316125 6.93295596022727 0.05330181487816614 -6.188952308398999 -3.009032177004952 2.839246478778496 2.6319156043229452 -0.05666073100534295 2.117718470801197 -2.557656812677623 -5.949080343488237 -1.0038186300772984 -7.8312850132132 0.10049208244670442 -6.847753679708196 1.7695539630601707 5.169479433454447 -4.1510330229730314 10.73822516934049 -4.897907461294837 -5.999411231755927 -5.259576372445717 12.049884323460825 -6.864249097932964 -2.6814691220322606 0.07384346176431549 2.3882681145041023 3.5551389860393128 2.93247589816551 2.068161698321496 -14.316591558987726 4.969209667966239 0.17448219948851645 -5.010663897898438 -1.4592949046114416 3.2075425459126112 4.875284400185746 0.4135706424048908 -7.865750597144565 -0.36613170774188414 0.9436926498293923 13.487885303251392 -2.2134249150815655 -4.596609517915973 5.87205905815256 -3.192598221516369 -9.704431186564719 3.132326664238164 -1.4748146704746867 -0.11588244982743112 -6.695175800207671 -5.4566234573090755 2.9088732904078918 -1.783177332146798 4.458185004528892 1.2526647699914242 6.04523432341614 7.13901700585718 -6.4094726046908495 15.01093852593466 -0.030141680004531067 3.3932852891644147 9.593319967189464 1.7174659993916543 -5.969298301621654 -5.966247524319903 7.051854478504718 4.225372976679105 7.137587575919635 -3.624438261518647 -5.7386317984428175 -0.7755645253744271 -5.251173639269385 -0.3346861323809282 4.066987067439229 6.145619124196314 6.6836156868836705 6.539687993315618 5.467478141153146 -0.6735764427152978 5.5089124798899 11.999683434652983 2.1807225291521712 1.2943916144142642 -4.259168879094302 -5.694288659221281 -2.0878897863805643 3.007223723604504 -4.38937054389307 3.8911756197011176 -5.034231718345789 1.5800076227815034 -1.3838079001758314 3.5469004571447975 -2.293330757087164 5.882889132299104 6.239192537702066 2.4147216254665924 -1.1378587370173205 -3.288473359728882 -5.725949818711997 5.746521957463027 -4.497522749607073 -10.001965192919341 -5.364873494291016 -4.681823111137132 6.733445536839768 8.873614011549726 7.223645316548775 0.5257340654066199 2.3466504925617597 4.9921677860493885 -3.1134034958463404 3.746731097810036 -1.4501377332737222 0.38194914942117864 -0.143516592563568 0.2093107969637714 -5.564188146323623 -4.953233257620551 -2.337324012390493 -4.112253821712095 1.4345058273049514 -3.0100473804003087 -3.6322968733013665 -11.469452901734712 -0.40171872894958743 10.505125553083941 2.599134268175068 -3.2121974797231285 -0.7805000613426809 9.272303045222802 -3.591235085099751 1.8496220249545787 -2.3691943656287737 1.046013086697803 -9.00294759372624 -1.4604937518136076 2.3687145090271495 -2.952931514291798 4.367172354347895 -0.5654748839666067 -6.049685671858924 -0.9750507137332507 0.9862388156693578
170.34622328878325 36.125582509607106 281.63102713150596 115.11087160201143 -111.63085480760307 -405.6823221112554 320.9728283717501 458.8532549798468 56.60715160776243 203.83601377981762 36.72156364520278 802.1452102313539 458.1152478198804 -362.0367165165651 308.09633300492726 -68.00842491148435 35.37732293333065 463.56074860914333 127.10993141118946 -6.866689495946069 -74.83372718110886 -186.55321357462495 -17.998274354039246 -174.38985644226568 -107.32155509149446 633.5233747424966 253.1007402414672 -64.72415830996172 171.28587632656007 69.87202909108898 737.139867330175 478.6857182485239 -678.8098611206024 -142.44564819530794 -636.7739591610568 441.30908433247515 -45.8659960214194 -132.50609681835672 80.3379644336942 -171.30208994200726 145.31518412900027 -406.41606161255896 423.10620842779235 411.35985642677315 77.83710679320079 214.98064220785966 -94.77986304349312 -443.3507449754157 181.43340671226852 -356.4293428552122 333.4821133264561 123.90000199445927 105.80104204765001 -293.81170483494026 43.52542994199105 -554.9815041727128 -658.6054377830341 -468.8310052315883 502.4005620542618 -538.9966457275035 -206.0691535923282 -456.7567877297283 -129.14487432990498 8.3664310355093 -128.99263078420844 0.7287480148247076 323.30685874395994 522.6814811401437 -289.3683371585886 -184.7192675510876 343.08964601585234 182.70905725864347 -111.03257542543102 442.9135218728884 275.06174657476 149.0851961173711 -209.72595768597859 -251.88948207874128 68.9787124321964 -148.11822696935124 671.4414530629674 102.40963385084109 -184.89336900252718 -412.94970518466414 -385.246974171035 75.83385734087366 47.27665449671302 314.834956421134 -167.4868609050198 145.7805707775018 -53.35466781875449 160.22626094709267 0.10700845680462452 -332.68040500996335 -691.445983520368 -556.1852720546615 -551.3306322547287 52.89543552496761 -445.7370925305877 375.6091976273789 303.5256858541206 -204.7751108415931 -624.1349636737252 -645.7844291548092 270.7315795026818 250.24392487677983 -79.63808293802296 -340.20760422480726 -174.98239715984064 399.430081126974 212.41199614278418 -228.64030076853027 -55.1177866353526 122.37723326259017 -117.20408532238068 219.79186329107873 -155.68834292708638 131.04168694790036 0.8995780482998276 -234.38604653175037 -152.9270542376659 -807.7973392381568 441.7564672320963 -74.63411886886776 253.73275484956122 172.44247941035954 57.802567939843314 -108.0445733044255 119.10973851394844 -36.421298903941356 533.0266903606414 507.364173553238 401.26700923135735 56.86488592880941 -359.60696260793094 398.85295037458906 -517.6958698513964 -559.5188239822525 336.01808006712844 -635.8850940889039 -98.47177614719584 -488.4018576428073 236.03987903725607 -121.49100786603475 188.72436005797064 470.11616598574636 -176.88590946884514 -939.8134347267336 462.73781976690856 -126.87504972108822 620.5568838272145 456.5505374740951 -278.08185663983875 -457.75460945453756 179.03286622069243 21.8966487955826 -119.24668103881926 429.880674695406 -88.94880140417894 -21.06545040993796 -706.5104035726812 89.03552557173106 -4.83678056887873 252.39997139501196 -360.88316132825213 250.37563770951976 264.62539953824984 229.56471561828522 483.58252676515986 -143.70823379222838 -165.49070980567225 -120.23380349071185 383.24347878614844 405.1505554365355 -2.0147674553954893 60.22219551865528 -526.6051280609089 -57.3816245255045 -307.49239380943925 188.05575520114925 -9.31155136968791 -223.28074489074902 358.38960322193816 419.93362236603457 -132.9492463808363 -39.32765941727574 24.45421246758449 -43.46119776498323 -162.86463540616086 697.6112020585704 -148.24774290440737 -22.407492094219215 -607.8596941283134 234.603903860807 163.45186768954943 60.18867150458868 11.141418403356877 169.37570484006386 -594.0073624470315 -186.2131263950884 36.581619958682836 73.81617928246108 -374.4700951345154 -309.29510200696467 197.93256865982892 130.24815707251244 59.68617084043179 -90.0223560597704 -391.2393188421383 340.32198927410826 -380.9374530424887 144.85615507564586 89.94280122709725 -115.87430135867697 255.21553677361817 343.18805265942035 172.8588237150895 -371.4836167996225 -70.3381763138228 -221.2395341501405 -64.58283395246494 434.88457500484276 -717.8181025120701 131.8726108667046 -53.56785041952187
-171.90299579550862 -141.94109170180323 6.974939103072683 20.89824029282381 203.58321142499278 -161.94537358496814 -60.93411984921266 285.8992420477472 33.19654275435845 181.26874512572564 184.70291494296808 -158.4711622721869 249.75411982976678 180.8894369317151 -140.55406565360167 -194.28401063520008 -262.6469744538113 19.288929213882327 -237.6784277106791 -33.750621556355725 57.56349998152795 -156.99563684923672 162.33430936724446 -332.123284532285 -98.4029020904167 -156.94159520173588 -157.3770881862709 60.65820912292079 278.1245699372525 -166.14805318823556 233.4549982840704 193.711722410517 13.644786953699873 97.1078810362128 -135.89505696016795 -24.946795546333778 233.02968254288433 -90.26142808384392 -49.87979383401529 54.15745112339991 181.03048660032482 -252.0386875319122 -77.15369474002301 120.52702487387556 -231.9882636613631 133.85228824462007 -27.968080521780873 102.39909418985006 -3.2312046370892467 -272.0224535255622 -112.4847156287042 120.91541970772279 94.09482790214439 297.2702298530422 111.6022615402072 116.91257583624717 177.70615638555748 -56.17992142578068 -226.89439462301638 251.50918839288263 -99.34251691481019 -186.31593736143049 -144.20136460560653 8.275376840823073 -141.427886107838 -100.62857030220911 36.61265806804418 87.55426834717512 -16.395053271756034 39.57862590066401 388.546279078203 148.50483445934438 60.80937101616549 -142.66821705646606 52.26071646083763 123.20435308383672 40.037001785570006 -52.67840649285386 -79.8054389598868 -71.09130338632363 361.61485796987324 13.93083802675417 -16.572133232831234 -1.5816241701957938 -309.38562176490746 -47.2773835240029 57.61103036586391 43.92360807985424 -158.006379209781 63.99447234430459 -124.40982601168263 169.8141069827657 233.46080911583752 190.10567050485324 -89.14066205771496 -191.84802683241256 -122.73216444437311 -61.19338677502292 49.85517405665989 78.7495151067271 -111.89046803116237 -71.47177142026261 -177.97333948690522 406.83672488352215 140.6163991103562 12.345929214916527 -239.14415673736443 62.08451937788847 -359.6733032393764 -112.73768107657108 125.59980253667617 98.65136733169669 10.711969655814167 -151.52397740249768 2.3312332809390366 -231.78709768954585 -90.33360771030294 -170.08547390133066 210.0612493401833 106.89750560921286 -101.6623440502203 -137.86489187408876 -10.01249225994811 87.47089905403745 -2.219480711004021 -74.44017648393984 151.02183324896802 -129.38953423375108 -2.822122844272135 -148.41411830031117 -40.10823381726932 -28.83345199038658 448.90465998546955 -209.00993754979356 -148.32287230871026 237.5835234446782 -133.40783100459933 -343.03179822874625 73.20150136501678 -336.5927543070652 -250.78556798335626 -64.82089102967885 -112.89265815531233 -20.711728549893408 231.18697135328662 81.91779471396165 87.73050750079074 -324.50479768211716 5.931233142760109 -6.965220463122091 57.83394466023955 -119.82211225039782 -245.62351166045977 96.17312975614605 -53.07752295392452 117.71390926465789 -246.38153129043818 -0.5454529682957682 59.38966337239459 -180.08879018700802 257.13053405234183 105.4673157601962 357.8010084969023 34.41509516365505 77.05115351771504 76.3686157489779 -233.29596582314346 -146.38594380114986 -1.840997668827877 134.3420677127447 -72.59977528715798 -140.46799716850083 -28.97252119178502 -12.57127366757094 -1.7534496629332936 -128.8922304059297 -191.55102158259655 -30.688691867941333 136.91029633715956 63.60100622757433 39.46868326476565 -1.795938765692158 119.1488720171518 -48.208355894573174 -55.553957722451344 64.87397202720923 -115.35776041211084 -113.38637747191707 289.8537626751376 199.18939744799346 81.77289390076086 196.22859636364203 185.5047081476037 -74.83894188456445 172.17562213081666 143.2099701558026 72.70636752689212 282.43321941077954 -61.921019100208056 122.57272967273539 163.49208447879454 133.93147430139067 71.9960252401181 177.99455034859906 182.1070957368656 -2.8022467523355563 169.1095439491473 -21.201381712373337 286.2552048736505 -6.943047780749506 -191.15280337351047 -455.53551143468127 -100.01633061354597 -123.77609646908029 -229.00499802278102 28.813398920362285 125.11187021316019 28.56004035843673 -208.36572653664965 159.78499022043655 99.76405973409172 43.17651683910419 101.6407917405895 -310.4335242426691 -252.9695736319443
-1.044640435822081 1.7144241394186714 -2.323429795110042 0.43200085956365464 1.4307652607013541 -3.141866147697057 -0.08662262452982916 3.916379272118996 3.8378850579715382 -4.580512440966766 -5.65740890851201 -4.867983121941836 -3.5678742877379515 -7.714102740814301 -10.292683643043993 3.084324155449652 0.13675135639017336 -0.877894438542262 -8.348356006241627 1.0346848173690164 -3.631417777469253 -3.7488880795122963 -5.478825061059461 1.286333506689364 2.042007449485153 0.4446096730369819 -2.105338162620811 -4.193630507007794 -2.8580821640563365 -1.9346072505270178 -4.629098854121509 2.3814692194072564 1.2377952519202249 -3.8743834773516594 8.263465825693753 -6.012910626786779 3.0828943781383282 0.39822642649096135 1.3101563339078373 2.3315516418467865 -0.7341000918453394 -4.201168992492348 -0.7788495319608655 1.7434996047102433 5.017706755623138 0.43628329621233536 1.3753822453590987 9.60963011019559 0.22650623640925122 9.191357126944476 1.1448464807254517 -5.030814184415889 -7.328941594504068 4.041220028573257 -4.087474066264562 4.464492347521002 0.2877918820299644 2.619257326992176 9.358333888943603 1.3958371189164995 -3.7952417970185612 -5.1220783538283765 -0.6597095692627983 -9.52609768081446 -4.931492912022346 -7.102254386434404 -1.0952703239889674 -2.7983404205352786 -1.727419680200887 4.486047846726119 -3.732014748271374 -4.0134592687992034 -2.5718048295673026 2.1271429142770626 -4.070328404274757 -0.24106942917048538 -4.653036044414935 0.1174736823647808 1.8583500502086667 4.787479913720317 1.1324946559894535 0.7698338779560183 -6.0263043588317355 1.4627358276895062 3.6905191036891103 -1.6670400473062543 -0.3173097038381216 -8.22638173053036 4.869169731285392 3.8788517949269234 3.007301953041634 -2.16804631010446 4.0568350439630105 -4.265389816010943 -0.6189426366283675 6.99755123425389 4.356384302978519 0.33761737469436826 4.540586199266931 -4.546393515176585 0.1703397522109603 -1.772164736693915 1.5626348076799461 -2.0559533449400638 -4.4759116547988205 -0.6619546602970863 3.268075331458234 3.4386566839430843 1.5082663456013155 -2.779651626483233 -2.8934400406116834 -4.348201672770733 0.7881049863092293 2.8007175895679746 0.003569785172105022 -2.38422358994546 -0.8649249785679067 7.9044477464047285 -1.4980858596325928 -1.51956299948814 -1.3741042515448825 6.317648599287583 -0.10155532654553683 -0.9820420136010608 -4.3317056292648735 -1.438928336531458 -5.364752373645971 4.0676976024070735 2.9599363961748857 1.5806234953254152 -2.165056735767282 8.201544024396744 -0.7823904591946856 -0.12303923823832928 4.322594702155135 3.568821113538102 7.709107163323738 10.880045097358877 -4.543577541172749 8.107812240093173 -7.544977982412656 0.08988324217382883 -2.1187429064582104 -1.100676984722283 1.8158018817746173 -9.809139339454678 0.6393902038947659 4.748304047867455 -3.5048781709377277 -5.886659961216636 1.4357560171817747 -8.621085911345688 -1.3251844200436533 3.6151070347054928 4.826235762984445 -3.1556228177623566 -2.0947222238291374 8.122306820931852 0.720580618590366 -5.461302378051776 5.655592862892513 0.47348672703902495 0.8742474876896448 1.1311360169245224 -1.7500484037474462 -4.783979600217497 0.40326457076790756 4.023287921062981 -4.013536386353042 4.848019618398854 -0.8606182884494078 -0.8346550798875991 -0.17487318574685443 -1.594436276341192 -0.29193382273321744 4.64854912186466 0.74721752693675 1.5130028967658948 -6.3255896990052465 1.0134041745251468 -3.072071478735513 5.505667431822643 -1.3895050226589953 -5.745305297611167 2.475199593198603 -2.234925879122312 -5.920351726328541 3.728921989298258 1.2175551979855674 -1.8022437002604075 0.3481659780646052 5.628113111404407 2.4610133893593495 1.704147916877792 2.029797986078136 -1.9786965511160213 -6.017709576375711 -1.474539840706659 5.511231160543804 -4.041574209494373 -2.9843546548302773 9.078073642400998 -3.052846607690358 -0.8053361440808611 0.986196556487607 3.2916145359011844 3.111348396510181 -1.45614124775522 3.7991989537246447 1.3849520515596043 9.379057353875613 2.5573477672882614 2.8273201849002088 5.502394726708988 1.0478360967517202 -0.14842914343080624 -0.4585090840135253 4.723201899178343 0.8792738389910272 -0.03818196818515512 1.8308491899831518 1.774776931331953 0.27334847917475014 8.454981750635786 4.401299771038718
20.118903323386334 -47.74262191630785 37.25960347730594 14.29900814171731 -24.75116164101745 45.45750692382472 17.645591466214803 -62.2776793777522 33.979747292787614 -6.864505098339084 5.5165743087807515 -44.34430463555365 24.82948305937516 -17.551034620275722 47.444347597110976 36.43519092563995 -19.907655779238578 94.00146666554758 4.693998350865225 27.393908108655832 -30.09165015301409 -0.3958729088262334 -17.909101795868217 -32.72864488389629 -56.24018372671405 -75.9975529293249 9.656738503126869 37.26227364975589 16.384427258586975 -16.97972102512033 -62.351319180770524 27.659078105521345 9.614322888650687 22.09429624987639 -74.42721644380033 19.557720282905848 30.214003884479123 -42.472473575107344 -72.27392246354154 -21.286021513985926 -63.68778905901287 44.58580257330048 28.94421334188016 -26.384303481774566 4.4089287990981605 -8.596908005573127 35.62650975022898 29.492306529632454 15.89146576895455 -11.198494564304443 -26.711923243150395 -96.1514268335718 12.97326477860153 -68.2159557835089 42.78206792852803 -40.905172965312175 -7.818860459164027 -6.554511332991658 0.17252542057183984 -28.590536634230475 -34.43871798876344 -42.186327533697906 23.989329642601685 78.54194219556707 -6.118207813188141 -19.304781315057816 -15.403417916216888 -51.31410045413665 -5.338267488352401 -94.08617177364931 -2.0819851406083907 30.258811432073475 -25.72485118902689 17.172490949526928 54.01972523852284 11.801145298879721 -102.85630555633406 -98.96363612477342 -2.580733333190713 -12.411653799933053 -11.88579305598577 50.69382891492756 0.9388270661452691 -18.22205993090435 -27.942638160416053 -48.39128295673343 26.983221355103787 -60.03691802492744 -52.420636045212724 5.8006601820241155 -62.3480043917256 27.980827677887547 -0.39745720987455624 -10.012690216166176 7.094204272992236 -21.43689036623652 10.248101455789715 -62.8529208491567 -5.818248664681224 18.08583261846537 -11.203842580006816 26.944950275428333 22.2942879768115 -42.18190405715969 12.13256182401716 -130.49917090753192 -46.81168705935331 12.710697653967653 128.54761869056037 -23.54734248588703 12.72779614375336 78.13031930700852 20.607894145585693 45.17131716057978 4.462962899582367 -17.403452815254436 -115.3457093606378 3.320212428490236 70.36532914294996 56.54593997951367 31.807494261304445 18.979324537111555 13.490115744134899 19.31258064311517 -61.10004311035015 60.9228410109529 -19.94282108420908 -63.58896325856703 67.26776211998687 10.197355023370264 -26.155849800655147 29.920889438087094 15.540343924430314 -17.4446745554343 17.746185927482845 -48.92011141788918 -61.71691396676516 -39.67847127623313 5.391622973068649 66.87770169265035 -37.47931340263005 -9.736701885830168 -17.522652648563064 18.121032554568767 22.10961420727408 1.5741386774194157 82.21290885177406 56.28472247404837 22.451675072469598 -1.5051186940937065 -27.05987299046738 70.34201716495913 53.461651252789075 -5.3969115558149365 -22.511898050261443 15.318571021909975 -42.88175390968715 -3.832891625982645 50.75230924905361 -16.450165248442868 87.4290807632324 59.96552203708118 -17.43342039195138 2.526148567351236 12.710358154643968 0.26159435003511095 51.887303638847 1.9989928275566908 -2.363385072276016 -35.62159595130515 51.782088007736824 -72.40906357199849 10.81189701443556 -3.665199495856328 -91.03035151488186 44.20966624842187 38.27076420907216 -12.756112120588798 -28.435047723254716 18.296753332087242 -22.546963457939675 44.89136783935442 -14.134600082018787 6.313971812569312 77.3596673457065 35.194787787006405 13.074369497934997 60.61125019806695 -56.18341176499133 -21.643138193324162 -23.308029360275743 45.39577957233822 -32.06814436217517 30.541503050293937 7.191857326507859 87.8114861212492 38.86905880636687 29.572643709960246 -19.609953147177063 -38.196453613853905 73.53050354417694 -7.3732878392736225 10.198465318938423 35.826265228271076 -6.74783244555725 17.629007229879203 -36.619743440361304 13.222794870966148 -84.51006132468584 -59.8150319589728 17.204015515810493 -19.246744189945897 -7.819230118381338 72.42016421084715 42.18557161304483 44.52706684033159 11.936438097246011 -58.295041876603534 -65.20991683347454 60.85647765685801 19.231648620961515 73.23014271590759 34.89484334994318 -69.75470632884185 96.3689355051231
2.3260169462746023 2.762171489215816 34.21445555374992 21.69085185901225 -34.87485025457612 -26.14162315033589 -12.835198515986505 39.72179780278946 -13.390681224208052 -21.882136490749776 60.82342844973642 20.612948604468464 0.3712109486541142 19.7990541035231 8.106357597962868 32.83118784263141 26.971888872177765 -43.89085221748865 12.84651321509304 34.67146394609955 -17.136261877527478 -15.060027948406765 -2.9860260981187223 -36.35017134091964 27.403082591515876 15.86371320898057 0.1749704874812314 3.3736999314517435 7.697366855799201 14.347599911611185 -3.1836123354987564 54.367377313442944 -51.94760267510272 21.79034199961645 2.0009242922940995 -8.520358054259251 28.053869166241064 37.17558838405523 0.45633072486302684 40.13175053994599 -17.537334736682535 -72.32168176356836 38.00911887894697 -32.39370098762617 11.9477759540328 78.75282800600858 -2.0669653122275764 -49.22386847672937 25.848298857735266 -36.66798070414372 3.0534946335192554 12.340721149033712 -69.95952236691116 -11.375641392434682 10.504918765341603 46.05593616483589 -32.186544770786334 -39.89252556049035 19.543122726348592 82.2184418041145 -28.776196393787043 15.038928933962211 -5.336787601280403 22.33796897464304 -3.233582870039726 -54.8847012254114 -42.482026547140286 -13.344215606802116 -33.63445576458111 14.372806730458288 56.19838952154525 32.087047719842175 -25.049816001338385 38.59776348181955 27.196147848780797 6.51035718727383 -32.38429651589137 49.95988811707541 -40.90477175042582 -17.398668481452262 42.68306427872576 -27.436378406392073 43.45859635774748 -8.081260236304827 -34.4212156727485 17.651997698445967 18.16052499013453 57.24341632370339 -1.0426646932788122 -35.55203157123638 -6.862707404453925 37.98848717042259 25.061807137012917 -29.045402014696638 8.783990801740675 -61.668075086945294 16.467035057488165 16.348830789244627 -29.91121216411702 25.42702723156923 61.37107072310954 -25.12019941373666 -45.35193429415318 19.02310868083514 3.171205015119599 10.898683378498365 -73.1747321714845 -62.58275113953115 -8.130680304198343 38.891085646399915 65.94811091188761 33.570252403607256 -12.026315386737366 35.631438303624094 2.8786460650997596 -11.661120147361492 -13.072925943324597 12.283871804112255 -11.723554451254547 -24.503540918403754 -0.46805529353043085 -6.096667844269538 18.971967449760495 14.479989233299001 -3.900742262003524 -41.11705769721214 47.93051879718704 -83.14475324268014 10.34487086756898 8.289088251823214 38.339303431361515 3.809116103705072 20.12197425683697 -3.1110773453957288 -80.02243121433484 38.34059287345526 -13.131276972280551 -14.190156267772144 9.62742731222229 24.209297244899975 -19.090151949538093 -13.254164038442624 -16.18725733552327 41.635659423005926 -13.026545769826566 16.707054967834996 6.591431766348469 -17.71818714822608 -72.14842923705098 23.210692178203868 -8.583708251741692 -8.457001056971679 -67.68453733155928 -11.197358451516491 -16.544484828627358 -46.02516860565325 4.970478586562302 26.23985896277081 35.65138028835492 31.802721233679378 9.62243505698318 66.03746145747515 -6.209512003927572 -24.004134146153806 -48.42952072850362 -25.15388622265965 17.711075047713596 -64.56161529593811 0.20671571706128442 -33.73441091489194 -14.819057982632035 -97.62869528876541 37.75284344241574 -10.73737933203951 42.19099967983474 8.990879833418305 62.59266991496876 18.18691953253643 17.45156622528247 8.427763962033902 34.183374118562824 -30.004110603385673 19.07220656138565 50.9194793627215 19.801067023845626 -41.037759835132526 49.742087259618344 -74.5379416879779 -6.707214261268687 15.610683278376912 1.2135378973701771 8.19266780576336 13.961945862737545 -72.6480758401852 -0.17206984702732153 18.08843254218635 27.636277783898564 24.692285856558787 -52.49348786261105 -51.60660353480597 -20.57427650546383 -18.7052550386665 -17.31441040079437 30.896391954573055 16.16506359782034 21.795935715006724 21.874890701491886 -34.56186824105594 26.218715558123517 50.90314368740535 55.11599997540211 -58.935525719883046 9.168798345712599 -7.610071112260917 39.05070896671662 -50.132995288084345 -29.801350913645575 -21.631745108045415 32.335626657315075 27.87830581973376 -39.106305403133305 -4.792988168537401 -16.025861584028824 -16.28951050430379 0.42550045249891444
72.30187055306837 15.055691904074216 59.75113484201248 -73.70168679943023 -37.81591676067434 0.6244939461009437 6.803330859073613 23.11319727222975 -2.251584288432518 60.610696556985054 148.67445432249357 -56.7973466289372 -70.92210212333767 -9.203515444432453 19.677689932521957 18.096541100104783 -151.92326543064036 -92.80323691222773 -2.7975552826664654 146.69024995173388 54.34277974138102 147.22661476207728 -211.22501872423734 -84.14805289582335 -59.73702681403577 -15.473426912344078 -134.2913763451083 -26.404956449409735 -64.8213810546665 -116.59667297948064 -51.38824607756725 -155.66560788952393 -120.70803354229973 -30.31859183729045 -97.55759475695652 37.90618437846057 80.56742786765045 102.59355427532616 -33.02582268522891 123.50274264894252 61.564263912478275 -35.75919535695112 54.69675188357871 -103.79979027626007 32.6740348735809 -34.93578712373961 -80.84533997916694 -29.862835217499384 38.5091268986267 -94.86425872711291 70.71227436974762 -25.043932503099875 47.99445162826144 44.94754596620724 33.266609033365505 -82.72464572566116 -21.605630166447753 17.071398313968523 12.487992292644778 45.63954112260521 16.100247625340025 3.6492284783654902 -3.199277242544498 11.58519771985004 125.2233161326637 25.884603686249907 57.450814810960985 -88.20540582426648 39.20729161654822 -12.074026909251963 -36.74451093141102 140.72735636430843 -143.5378830080343 6.165762238805455 -117.9573590408492 -31.76799258195691 -72.25194332228826 95.56215305494523 -90.15120821058117 -184.851214945028 -56.50812953119254 24.505318216072606 3.73014859191898 92.33631873087371 -7.246829800416196 28.409883243882685 39.46682966327961 54.91359272108371 6.49330824255478 7.888245026673956 28.140102791737636 -45.632974301938326 104.19337546868027 10.074490035212342 62.01193594234125 -0.36242322849818426 -117.02058505098107 -157.0874210999467 -116.54465342177399 -82.61575796216319 123.72160838553353 -13.870893469529552 -41.23208105333813 -50.78687967298046 -67.42994925746079 -49.5375449685451 -137.88170116567917 -82.71526182681956 31.820633941381107 91.0594351785394 11.779402404240408 147.09785148048076 -32.86851279764659 -47.13459805040762 -36.78449201465533 -79.28148172217315 -52.38410641398647 53.28517686938299 -53.29863494481296 70.52040955389855 17.17433638877969 45.57268999383612 71.18975501054544 -67.02177975139404 -119.40935286258647 -74.52375601222371 149.5463678876957 -26.34528292285039 5.418221941554847 -9.794051814474816 26.009816544581426 -2.41750904954551 25.863168358928082 7.928794788379983 -3.8283958283469963 52.56725903261416 -142.48921613186573 -66.45083181352936 -78.99780555993895 60.83303657485081 85.62297800585543 -92.70064737919154 -10.440514230711237 84.76116637383043 72.37553911020092 100.27869453283006 -46.001401152548176 -33.67137589537255 -51.96471435285037 62.64993774404344 107.5734495843585 -45.18111136988507 -123.36308780994258 6.3892181926605 3.5070499412498144 79.48348373975482 -30.304220597122306 26.879902408811677 58.04152354378685 93.17293245195106 41.95688737337719 -3.9588849848972325 -69.27876294351212 -20.011359210069838 -4.969067172523892 -70.0525050316538 -11.899066538465023 96.89358979965212 32.25300138228812 50.67576705666342 35.7085760527947 -48.53817779469359 61.194635918191494 -10.17138960794361 -32.18851582993243 -175.35686551905945 42.54288644831909 36.634045679440895 -25.40592834341708 25.288738894991898 -7.358337136195946 -40.19487239722865 74.83912313350321 -3.0595125073477374 46.292742382935906 65.45399899511806 217.95111327875557 70.6825262424802 44.44801474343267 -63.45749402111447 -13.079733642192 -24.254482884572074 55.48150685934996 -29.527962086208856 -294.3782858621645 161.19152804517174 15.540782748064062 -44.8775642417542 26.702003838541508 118.0815144774209 93.8791064875646 -41.894576078090566 88.27672373206373 13.247810882827626 -121.48604037364076 59.90759919970941 25.943855393475644 -71.69655775305365 91.40861319612503 65.9912042214235 -56.48134419459072 91.84848002226836 27.35819310310328 89.43728891142966 -52.07784465661503 122.99465232426762 -14.801424646533764 78.26229091392584 116.34671218959528 -26.399971990665957 89.02469973039283 1.4633270502805082 -10.83606666907848 -6.108551504074979 -19.512599826604173
-13.245419114114524 2.272012752539754 74.42832720917391 8.814176128429658 38.370705325834756 32.09798738099063 28.086586254672333 4.807854406591182 -16.087159360005263 -23.150681698889162 53.91491751171557 33.09610916524749 11.3438806519559 -16.124694965788265 -53.53368211569148 -7.17504078744691 -13.656022591138715 22.23386186211488 -29.0595474149103 2.3989438827534846 17.440847469684865 -75.2782092303759 22.320665820403917 -33.98328075129788 -2.7829912837156145 -18.22820131280402 29.64711857632458 -61.53120839544208 -24.738121234122904 -2.149234994167975 -12.282549093319997 -38.144241483084926 -37.62291818662544 43.7448843268087 -3.8309686173063318 -40.03544214854698 -3.5282473299211707 1.293289391408429 21.192246744446496 53.47811198280878 -36.047730463831705 61.26378841225056 7.856006715187305 -15.508812434374395 -11.5032372509123 -7.626544077969433 25.022025972824544 -36.242868306852905 -6.120475194158509 4.896728278170313 8.946912766242791 -49.60467662786317 26.785485717951303 -25.088539855703498 35.18600095311477 5.270802972020735 35.437848694225586 52.24474835939755 19.81871905318894 43.89920314549177 -19.320887010792962 -19.310069172931158 79.15337997687023 -32.77537249278798 22.867788643573533 -19.59844006286049 -22.564615628142022 -22.809802567990513 -11.655020085115694 -70.73432557621159 -35.435060631039306 -70.99533722564864 2.0248356560196585 21.808631713836494 -17.092698645961374 51.50090941117131 37.804196725292464 -25.849025056810927 -25.36877641470478 -13.044457022810597 -56.982400415910654 12.3413142798239 -23.900447089957037 -18.773848716579263 43.844966160657016 -22.209175421344383 -26.680510968587008 15.98482648969281 -45.04039554640324 4.404924981553331 10.526001848068164 -1.258460194598052 -63.97721221460566 19.204330781934463 2.5343909402273113 30.45345295903684 -36.07768971002482 -48.63991096052206 -31.050950763902733 -11.68343837679778 46.27003625640002 17.61081162406669 -60.778873012361366 89.52850678200062 4.671249006142049 1.4236304740904553 20.560879185092034 -27.15795383007841 66.06473479949472 4.951152527588394 60.28114311760395 17.69562992990228 50.2030025389912 -82.71910239219937 -27.495708010491967 -12.373841947442397 25.641268101332955 -10.365892237645753 51.309698608862405 -13.702896924113682 -12.42197202006992 -7.953477959743317 1.7630176854784545 19.86155143576053 10.909571250793185 21.864517927355305 -35.51936230035764 -46.5232280940083 40.469831642647854 48.67693864334714 -17.113574210732683 -6.1167044596093465 30.78011860593579 -4.457612186532008 -11.547878996303082 126.4518048533246 40.425586506208674 -30.691148013252263 -32.87270684436063 -9.814122337868268 44.347204737409385 -1.520474837992188 -58.245507022345215 -32.853629376752835 -87.16129441340881 21.066305399828025 -8.766635097635735 31.539086348085604 -23.31864277645128 -7.227446577700579 29.99408803073697 21.391487419521173 2.2982634874744083 -12.999159694189027 27.46849496850857 16.289250762071987 37.92867611937924 37.658643020951004 -10.219056465450473 61.187865939684585 30.438070597152958 8.85751838647902 -37.18127532315809 -17.073428917150043 34.53314701486124 -95.37061098419392 -2.2240662816291414 -17.89577784816992 37.4871526787897 -34.25984139938227 -46.114577964487715 32.46788848782455 48.42872262994491 -4.230050696494655 22.634827437047 40.79037845062507 -28.488060557374364 40.90108603085813 19.525614146827216 -31.571114070422578 1.8392375684948155 23.07698826314607 -15.48765646646307 52.55260656236666 24.699538844361385 26.58599373462456 -79.83899796656478 -75.3212115878199 106.55198477276794 -3.9131222529061795 -13.179304031852407 -22.7077749215217 -34.643477450407 0.7994725549581646 28.218132207341174 10.237288477439614 -37.90070103319373 -14.273209708056589 9.539241602547156 14.763717527935638 -16.556810194133803 31.198981930122322 -23.82494470342253 56.887519892889856 18.66001927452103 -11.310885503846771 -62.15276212098955 7.859559427186547 23.718664874502203 -65.73715294101721 -15.236739619077886 1.240640295204962 -52.3674591244275 -27.338549757229973 54.937079385611504 51.340025316113355 -14.813351259959608 -10.799402378803963 -86.62477709939336 0.4163251810485042 -23.554712882685653 -22.06879105865833 19.64575899528313 -3.1242127341640074 -24.491062253345376
0.2296262491924656 1.9890467745729425 -0.04331725947576604 -2.85870903045484 3.8829136209547936 3.6283377111399733 0.8246588201482459 -3.6311924721997615 -1.9439662293846067 -3.918629627188398 -3.7401180369499154 -4.453287585192941 -5.191284821822423 -3.0155472230349125 0.3777751984276019 4.367041878206524 1.3011332252088723 -1.6363468671052432 -0.6848977319788694 -1.420712357061554 -0.4328299997307063 1.1073072117901188 1.067627162527995 5.9516827460319615 2.2834325330745036 1.4257615267853578 0.31323723543100945 -2.4528567124090324 -4.288190907058684 1.6524960558518418 -0.7806677078633039 -1.0285619141995865 1.0723250303636105 -1.81777328624942 8.445832150762275 -2.839289278541526 -0.33068067580971156 -2.8955604100355243 2.835331206075844 2.7199568496149897 -4.116503715031153 2.440098456014955 -4.816354876623858 -0.7861877914122631 -1.8560343853283103 0.4465570976965775 2.9374920456157336 3.3399507240767874 -1.6817944529385784 3.9591126826356535 -0.7271290269218201 -1.555961216086677 -3.8579297930093954 2.7431275844957264 1.1445525618670476 -2.995465146038784 0.6769126893015538 -0.5757820938114201 5.569577635800673 3.2861787082131593 1.1510341453910078 2.4668811244444906 1.131933935786256 -4.452639275142225 0.8374335806342446 -3.7314955761402744 -1.5211321102882713 4.784956064969713 -0.07156409452087863 2.409196670980833 -6.66477953150033 -2.4346970484339696 -0.03679243724501361 0.6234343455408534 -2.3613284942253805 0.7078488657329522 -0.29004060971738194 -1.1815484054328507 4.329415351096509 3.0872454503255136 -5.649345762110903 -0.8059088025981969 -0.2854204076838231 0.728469158676659 5.461847932104691 0.1030204633932544 0.13521041875331213 -0.04317857666868254 4.787427806974768 -4.005656159463551 1.1409062138629735 -2.3592254550945624 1.4972535738809878 -0.8730384306811889 -1.9003108441162229 2.318362163871313 1.2491103861430177 0.3277073964940409 8.049214951761954 -0.11264992278299568 -1.3098973840332149 -1.6671505590228923 2.8921130351344995 -3.8416490675841395 1.2181129999119023 -0.05775516583322341 5.061806851950322 0.07990526699574328 1.5482243040038992 -2.5557607143436685 -3.168338466131537 -2.6369183327777317 0.04972321400448623 1.528241302195669 0.005281182506229684 0.28723027202503604 3.813709822081756 1.9787967928913603 -1.3565726890951855 -1.3938252120077461 1.2006424283653025 2.570860084497063 -1.9421979216534393 2.7417208568925444 3.0640627917498544 4.4473226675312025 -4.884423331071171 1.6344664922898255 2.143816458358019 0.027157612843043633 -1.4287652682933136 -3.947834198704198 -4.381295813292872 1.7845222036620287 3.267814945944322 0.20517987376491112 4.539806068454166 8.103774752600382 -3.3593378106472316 1.8374347424771145 -3.095662679311697 0.6326042965556533 -0.916106294144692 -1.125759463432559 0.22937286377348484 -3.907862807921694 -0.7795908884214915 7.234282711822566 0.21937663415259168 -2.584850644562436 -0.9155120722235225 -4.323519188261307 1.3019665084392533 1.278502529109042 2.2677790353037697 -1.8570023286294544 -1.4095137821247403 0.6434127528105592 -3.093467413498472 -4.45432180135502 0.4380674903831404 1.2524661860439705 -0.30745505375569937 2.8140794575171437 -1.1749495565107198 -0.9094293677991913 3.7080544372639332 1.6522046569350226 -0.8712375748252885 -3.153206937090337 -0.17855929768121676 3.8775208051030696 -0.4032844547625579 -2.348567604843025 -1.4657695276895244 -0.6791473588124539 3.1283415827893313 4.378086892325413 -0.29473133803319984 -0.8439892776841982 -3.1335678102895423 0.9576312986982776 -1.2600808897691902 -6.506402163886604 -0.7983638834221374 0.27523021339944237 -1.609016566984719 2.1184097113612133 5.424066592211605 -0.8698469530273725 1.352597285529689 7.430772460125519 0.6738118286225179 2.131075989796873 -2.2125366200741574 -0.9127520756943303 -3.248928280699187 0.7492458090270451 -0.9968757175958518 2.1260439340534596 -3.64905793816371 -0.16974835468389285 -1.215751213727533 -3.9863995195521826 0.9907627767188931 2.636645319233796 2.9261568834295737 6.4840485692399845 5.527652955569269 -0.8491834609532186 0.6168264666056504 1.8070744187571874 -4.909194900821508 -1.3228494019643282 -1.8164546467528215 -3.366580498212791 -0.560537752454874 0.25606297575839876 3.1144075768878734 0.16076600125818316 0.18640926741025582 -2.4528460668823584 -2.1081993198596725 4.123741105526492 -1.0759758025914152
-220.61703790696316 116.44618651625812 106.87928533218506 -97.13294101254873 -100.88476863562221 -2.270707619460366 141.83650872510773 145.20275368686552 127.9774922557443 -61.04523039112499 -73.6666129724549 -46.979440221444804 39.06781433242953 172.2603600366553 175.32161411005382 -108.51040688855902 72.24791454934733 94.98812376586284 142.93692766077342 286.1950883509077 46.04134124580486 87.41219844885045 78.13093443323658 -107.3157054882186 127.80453708245017 94.34727349565814 -103.61379690495785 46.3326115863466 108.13816030562595 -157.60014887822265 18.608271556471237 -55.81577295817628 -224.77917108783947 108.37187930140523 -182.8178867529487 136.31421978573704 125.22366600421368 87.92941514192901 -242.13416196878921 -110.28921498887422 -64.8242516684178 -185.31406317128298 -104.93198864672046 21.388644779673143 32.87675293169178 91.58876987932206 -37.385734446991364 93.77505062649182 -37.941941311201255 -15.547490410264297 -24.31587771904675 15.349143815277941 38.7252353160703 58.81835574070247 -253.5634712905108 10.576812461625027 -23.322102267044272 -48.06942364428487 28.578809799923594 87.01190870335196 -56.64276164285106 22.329955751426738 -46.75625527309785 33.97601428460681 108.94877047563305 164.7798264601353 -103.5387364336898 -335.86727563295386 210.50322285353485 56.47212896864176 75.33056024032003 -43.852382267186684 -20.12084255423706 40.22864068705942 -89.04160068415683 -169.84055302647894 -112.66185365488602 302.02081395850234 4.819695289100759 -192.20821537401764 -68.24893574749312 -27.8322513592449 -183.03367944318248 22.78978533298028 19.684429588709197 50.55426504263071 216.4300782769136 52.207165547940356 -2.3107285343699258 48.7365705533903 -162.983500652161 69.42186427102783 -88.55992539179641 -211.66423663095583 -52.90781502677289 -261.8405250736629 -175.71343008265126 99.21636460158464 14.19665138783002 11.292093537707366 116.53732554267351 73.26803246045259 -29.91130611558033 67.97937800746874 46.16259034783858 46.450533778628866 -145.56947207880842 128.71960138339657 102.48762178733683 0.02188578814195539 59.70229588925527 -35.99620626080442 -24.973843408269044 22.45977904587396 -102.63839115309688 7.737645897570407 124.83195986144253 28.186946487292577 103.51083683819269 -79.05805205172355 -132.38331817911978 -14.429495748780175 58.646694610273116 111.63225084251474 -169.4777192390467 16.846110583147038 124.06259350439394 -96.97128762375173 -275.88542069425637 -0.8037217561179777 258.11355941518946 4.455469188763734 143.675827999672 -20.098936725546007 -96.73257364897394 -55.81522768605186 -24.737074388467853 267.3784678224294 113.13319828131881 80.46284892447333 -7.908457511748493 24.747862569515277 -45.38057115714301 70.35735920990024 18.229618699672315 -65.87234176851737 188.83020521476774 -244.82444255117474 51.93574688018945 -46.790874497990075 20.09487608577714 58.633533809594624 -38.434049680454564 49.57100389290935 39.4159792190162 17.963971005183044 -261.8553984773955 -218.72896603864706 75.41819848742877 133.7855257437393 -226.6566417145108 -39.45353053526421 64.09904194317673 218.50041057967428 -232.54737662401317 -147.96199684691285 -134.70233469351632 -106.73598150785126 -59.24978096331255 -143.40738556500298 191.30209685389494 -58.54740012752947 147.05842505581515 -138.74530749050805 205.1816941927644 -14.314432172888685 -58.66348121350555 -152.2638819698087 -126.50704817834814 -75.95688016767703 17.260275415496 -123.84726281121291 155.2280160053769 144.63374047664382 -64.81289140094064 106.99583408047609 71.42839499723637 50.02496770562352 -139.89339274527302 57.59564318465468 -12.471390684359601 -91.3076568538832 130.61221265929035 -9.656009020329005 -167.92845427887318 -74.34738004380702 149.1144085718861 190.5046376680463 32.071593218179345 -2.520621735656932 43.2914963753256 128.75184467178633 228.21526441395915 -103.93861649666967 -171.30805409720654 92.80744603435458 -28.116506729278356 -143.6829312334244 42.5506710664074 85.98039095596107 -52.56718077357494 -108.87594351985702 73.6144259026462 61.785574536733904 74.85976741534257 99.69427562702111 -22.168091617272925 -171.45777128473168 -184.61380963007514 77.35412408892897 19.41611136957016 -125.40986327997474 116.96070631573438 -248.69501551659772 108.16981392605422
14.716510224315709 8.587832518223193 92.27549763133882 14.25708767917311 -131.08832005611188 -95.32644282863204 38.72712001188756 93.77294510906054 -181.0571617993669 -59.75049102377117 100.51059636070948 78.53584546131573 77.43082171167023 14.457628652747989 -30.449358766702375 -180.43718553144922 74.60469747707212 147.9292980505345 111.79980810823677 144.69982174687624 -9.791557092090763 46.33753222153572 33.45636507571911 -143.053781933394 21.74470625324956 36.33387214855397 -80.27741441859864 -107.3258476743177 1.16674556811132 -69.96228979871023 -33.24464131982705 30.160304468282774 -80.34805349097294 33.4592774320445 65.30760559312111 -98.11361724538199 61.15507358541138 133.23657430566087 -65.42675614319097 -135.01645748825305 113.50431511534188 28.866112504231385 13.199640902740262 45.27662430266423 -64.7435994599992 16.880380562721964 -200.9984744028012 -97.53908968741298 76.72899091715382 -43.212550682651255 47.33611105161482 -148.41536189929315 -87.1573942959262 -145.45867514521996 41.06674468444773 69.92648475693883 -66.39407694844265 7.778444876373134 -27.589234688113105 69.10068886671415 -7.205802608740644 -16.308884592891197 -102.7484278610028 125.72960788362872 138.5590022733709 126.45412391380015 -12.338179510772685 -99.77683140627768 147.62827199783766 -31.954382725572906 48.26027724325135 135.9269565634031 -96.92582564273063 102.97735768292928 52.061234680215264 -31.944301347609272 -1.6585710798971227 109.77303759935229 -44.20186842586901 -58.50500979050034 83.1648343336499 53.48054186028448 35.96140451474737 -20.252798353281214 -78.46363949612103 84.06926430541085 22.358419593422234 64.97034027773273 -167.04108782634995 -152.75562475949195 -208.09138209208137 62.40233422933738 -44.97773378501393 -5.099043043395717 127.93128099757052 -81.20101351214231 -47.98261783406533 48.45843717624764 -120.43382593032068 111.92502774181726 -190.81149351994378 102.7503204464047 30.37104294796336 -53.77260115849808 156.54772973543388 85.25838192233812 -58.89984220766215 -121.43506957474533 -11.888416457328608 30.078119094119142 -2.3774298356499095 -6.3706283787600455 -80.38858970298806 -28.88278883589856 114.05048827401177 68.75929092964464 -78.3841859210808 -54.78149198371922 58.10174935610617 218.39433086946266 -6.083159664563975 218.49542312572063 -66.22667798583703 282.3966724751404 19.619896623111366 50.95897569954782 47.757196165775724 43.50883299182295 -30.493027432300952 -159.07980059193468 -87.81594272459844 -30.24304185689313 -3.4015661007769755 51.08870390096104 -78.95034581393719 -114.1519972299467 -24.34793947841897 -50.66145414281933 -43.83352357665632 19.293240923543674 12.248981603988373 33.5705826726 -7.2598039299701655 30.097361827505193 -36.13630322447946 120.38054780610665 121.1174716491697 -120.44756787466144 -57.52848759668552 -98.32526801587062 58.78279838923672 -27.02271166198536 3.0111454048852297 -103.83397899310587 -48.200645656993935 -23.274786699624094 -86.71080286317422 31.28332516071994 103.85130416949595 98.54394324433123 -54.71625396431791 -105.63196893069265 -53.764146154483065 51.30243136061815 7.749789000904264 -65.66481760780626 -28.542142610502584 114.67023372120214 35.29217944410775 6.549088445624867 129.70113539378428 -55.671196875650175 -95.30459892215434 13.764779840402053 0.6303992798232201 -101.08765313367203 141.63559788058987 -69.21195621161644 28.86831419035376 30.47550220157597 28.578599916169026 4.98499858113782 173.2190748771825 123.68073882978068 71.2417463794919 -11.690926745495346 20.46784085994797 61.83078310183272 3.5164047625425403 113.07691004145468 -29.951907276983675 -51.55475161136642 128.54206928344436 35.211118118023066 57.09516406710928 -64.90715000061284 62.054956553372065 -75.67602541064251 123.82740425715474 46.79963767770891 -172.5923889937942 -120.8952757470827 20.533988291001783 86.98062064462702 85.71973472681184 -5.150523989408057 -16.003034832960886 -44.11240543887743 -19.299419341062492 -18.41887853084078 -44.55601524759467 50.34431301771781 -19.85962164894515 -14.745566107514584 75.10374696748067 46.565436683004556 -55.03098663391173 -88.45028520475466 31.256360238780633 -39.1127156642034 -93.38393129576806 -38.57186833634627 -51.23606864791809 -18.76039668156001 -76.56500564406113
33.709929471471156 -17.866537072024283 0.9907396184534039 19.106755371889882 -0.9998316716705165 15.996170239382614 -3.1048125709854992 -10.378919821004148 -13.80812942913166 -15.77904902283483 5.056676066085566 3.5026352919035175 -8.924221896965514 -1.780334970165854 -28.73234775486041 -5.471590011306072 5.845078254988266 -8.215346767756046 12.47912470735361 -0.323856861219631 -6.798015542903835 9.381789798084208 -24.534220157108194 9.055660116429566 -6.860902453776627 12.543161139605079 4.5597740804765 6.9601892359332 -26.988117176818832 -8.806106160388065 2.9737092398626364 -17.126548582459495 30.347022664559137 0.3316475101424367 17.95605525787044 0.7011608902112768 -10.02348916107965 -28.38248053432774 -7.176305294078824 16.72526394877222 5.395627032334017 -3.5591147412315762 -12.481306049135462 1.9070822117286184 7.787252365675747 15.482298531900245 2.080924070165643 29.164944310842284 5.076609135915918 4.650846149020467 0.08813295036022102 -10.746704105929195 5.691945298751588 -13.05019432754014 -9.521656238231506 1.2496101197568956 6.985026958134068 -2.14676598500192 11.194114959737336 -7.568147413721377 2.381826321621767 3.9691797756676648 9.05437953112397 -7.8011350034533224 -2.197142398180236 -2.049745859188049 -7.6853325232150835 13.730825924764094 5.56280986997052 -5.74732681719265 3.343745630467223 -24.404371463098876 -17.9821571940564 -6.6813465186936565 27.67070519135905 0.5425695118983057 9.202619817247882 8.007412308283884 33.02807167548235 0.271614435389345 22.640346700407736 5.772274616208194 9.003153971093116 -8.540371218300361 0.20264461162365124 -10.257376529451044 -15.077512402461634 -42.58092852975868 0.06132980847653883 8.727812491522508 -8.451281550752892 -1.7255724931105605 6.99234366249692 -14.070135472548518 7.736052248164332 -4.22385851170941 -18.607368218251736 3.812553902957084 -12.00918036901163 -15.683279206780835 -0.7472948704931275 -24.049104096455068 2.2500555369889206 -13.41722276724468 1.1077028596515646 13.117081449702187 -23.056422797969585 -5.486995999383768 2.4523430843033593 1.4339331219864306 2.3737280050843927 14.68841442404342 -7.384206080907238 -8.92477756831852 -5.88656171268844 -12.545632651339309 2.0482364525378807 6.5460447077064785 5.4363010233072195 -7.752738353008642 21.647991525651296 -6.5542014710190495 -6.035154842748559 1.576764479873756 -5.840749053569729 -8.631696276301671 7.279104759870943 8.631494027327388 -12.239247395654406 16.069619014473624 -23.279147221496963 8.879717844352456 -26.0784423022123 -10.669790306484144 -4.110588236038899 19.73709166837803 18.90439152754866 5.227506102128233 -16.704664846318238 4.294973315488729 6.168794210809406 -15.95081400393717 -27.94507722124144 -8.424987680520829 -25.97877832278054 -5.833487731663662 13.398509819828 26.923833651013485 -1.8685694656948388 -6.010829092763862 6.380082821573641 -15.097293772445884 8.726788594411847 1.794981862621586 17.545609538806236 -14.662533209097969 -21.470718233622513 -4.085597353271569 -4.635429052834542 1.6330596429612152 1.8133736550721122 6.0871628591853835 8.363523426913803 -8.575094602604214 -11.7939641235074 2.6209511363984417 4.29804517936659 -3.3060872857870764 12.650508956873036 -6.712835083685619 -0.17347638821245404 5.8851679261477505 15.022685225315248 21.904248049380687 14.130114486278643 8.770448770022458 -1.0504354471624875 -9.715712214771745 1.8984624926351974 -4.90692060519354 -16.563074380665736 9.097219421374165 3.2469628020297097 -7.715585437879456 -2.336770442087418 -14.034295313667105 0.8417785122462725 24.291749310440636 8.5025530910036 11.69115735444423 11.675964955744876 18.98733643449615 16.721705008026817 -21.822639720125906 33.94451939577198 21.66059162941324 7.6315566977209155 -31.733971862556647 8.574396646691307 16.124575906625076 -12.622091369070525 -7.420131741078142 -14.219592891175186 11.78309259049033 -1.4498522973440977 6.639242005026157 -10.230181153755307 1.5307208877729694 7.949728667016973 9.220168888909313 3.8087319851892825 -13.521584407187197 23.525000585645987 5.2424462055113095 8.832100867335626 -5.054267278875832 9.104606904296155 17.025600851676696 -1.3744694615934279 -10.697685016545929 4.4470984025401945 -20.367429770278676 14.142575627343774 4.171092327558301 -8.652201142337995
1.9838818406307093 -2.04759578134515 -2.844600237215757 -0.12756518697806743 -1.691739924225851 3.0032591004910905 -1.4090282379572359 1.6198211056128644 -0.17239992819988892 -2.551162198468143 4.335769475744402 -1.3260429575226886 -3.9757608259478445 -2.0080633006429203 1.2429585241647403 8.284557171698935 -0.850436658355703 2.0021877744767775 5.450731947472169 -3.4594860544120953 -4.801309329731639 1.906751899658657 3.658464913047009 9.392120021205269 1.4431856379104635 -3.4570056717221864 3.4806803972616636 -0.5918913307395097 -2.2662610762061326 -1.6207734919120198 -6.103537895908951 -1.5283849633039477 -3.2625167054306328 -2.469686278770999 5.635904810160314 -0.9700508793596606 -2.7604742709035057 -2.672060693838701 -1.041318191022502 2.5961428277823235 -1.7380100542307653 5.021122163079452 -3.3005296563004984 0.2127496957156307 0.552079033724717 -0.5125050103771809 2.3992740070456793 8.356532275298555 0.9769757056276819 2.5634258064458084 1.9439652223338162 -2.446412098106453 -4.382898545239352 -5.516753729873203 0.1698743208911227 -4.029684497765283 -0.5215866441195237 -5.460636460215694 7.823155467789351 -0.5015821544515691 -0.33850707043193445 5.959572101218981 -1.2769264307063175 -1.1726803101338763 1.193418171164754 4.838940543814349 -2.517224068652948 0.266569561120889 -0.7038212920553067 0.4349885027932718 -4.3833242059896635 -3.990527557226237 0.13735599169912208 -2.8316476672954516 -1.4550501343734494 -3.752434246060269 3.450282775315652 -2.8754499559330116 -0.8726448851762735 0.0936957110873491 -7.086764492987651 -2.3408791060078022 0.8283984719679778 -2.7165579084923515 8.07140715278368 -0.06015000486629741 2.33812538671075 -2.6028314461485462 5.834022864535997 -2.806536727901637 2.6871017161512687 -3.1594230902822913 -0.3475725427560434 0.7578523501116848 -4.957839882067412 1.0417811793606182 2.307298326201351 1.1897109459691857 5.91966028725379 2.7381449459156655 -1.1086053889379057 -0.5203309816098639 4.726523346472786 -0.07068600859400073 1.375970229598832 -4.623440904962259 2.327696601739549 -2.9819192917771304 1.1670371787721987 0.12570283164340862 1.096097313036395 -1.2381953053158994 -2.782155002785327 -1.2346191910795423 -1.6016913697645614 1.0984906315177987 0.5089212856418012 1.9739793396731025 2.2675139028779627 -2.051144303163127 2.081023569612714 9.110362817986596 -1.1796102592477464 2.212697443060588 1.7970917371017674 -2.5332476223795797 -8.400486429486248 2.5328693912493487 0.10212112935872139 1.0300775306359906 -1.865559663811326 -4.58007058989001 -3.0829577589438535 -1.1065493689906258 1.731067407573026 2.6404084110150814 2.4406007340855904 4.539709997248238 0.03426535922221424 4.492309377505943 -3.5234888839754035 1.5745416629824764 -0.027091756716231055 -0.3950256661380895 -2.454220460352429 -0.619065082908932 1.672315165486721 6.268025783384042 0.8239279765925808 -0.780455175434307 -6.020360406642053 -0.9583433451798962 -0.6281274989273009 1.3623669773820448 4.642833188307287 0.6633220350842431 8.298882254102843 -1.4887028370966293 -2.290630902373862 -5.887060771913794 -2.571960138275781 3.6095362786605354 6.284141116664317 -3.8923622286044752 -2.703016383741062 -1.929016486419175 -2.9431812942465228 1.6097683199938497 -5.622207302908005 -3.2987835966697583 -3.553237283749915 -0.7818073980254809 -1.2119687519351396 -1.5164284671834722 0.5996712802879126 3.8184098239031705 -5.235237776219772 2.5782725804778126 -1.6196496887432785 2.951250857035883 -6.436238381205436 2.8259334757417145 -3.6995784802827343 -5.366631543787767 -0.9489562765845023 0.2119436028317481 -0.2753666364260148 5.801931340222935 -3.9167890867986075 0.3787167227332318 4.632428637256106 1.8688899510301942 2.8270730854984154 3.751180208335283 0.36677301172278126 -0.6405790438338468 -2.4319298960877944 0.7299092799937038 0.36662643030493236 -1.8899365403532742 -3.7894578626179802 -3.8053217626818365 -4.40494750458457 2.079080802455635 1.8935699111909483 -0.9261630972080486 1.9454027667240215 6.606018603929542 2.0282203186252765 1.1223260281293101 2.082044120535217 0.8499306993252708 -4.0479895571116575 0.4511418828374586 -5.448996462366262 -4.523565608485137 -1.7001426798375927 1.4088992560978826 4.1501782643706235 0.4662913691099862 1.8193213594578006 -2.0130463945102695 0.07674921438354164 6.464052652057669 -0.019907840429933092
182.65273353339154 19.11469642764037 -177.47397250911325 69.04302241646654 -92.73775844426297 -523.5447755959924 -67.22899010861462 265.5794733883835 169.29770922903785 79.68537130449963 2.800557391279735 318.84184034776536 81.54195245851899 32.05750859518921 11.821591004110338 -131.87764949301422 396.8784658639581 -264.61232256351076 -277.5475228814919 -30.41099093015006 263.63846275963147 -282.6819035146477 282.26331920291346 -454.66368967493247 33.522691420491206 84.31354260537512 -414.9016978322077 254.2114063745916 47.06532915549766 -280.43928913429426 526.5001257954133 231.72806318274675 12.398605239361258 380.0962402919368 -204.45349970630377 37.72329236750519 446.16511441027336 83.62442360197228 98.23620537516148 96.54450369011896 -394.5383715237998 -304.29355118262504 -65.51567160574096 -35.32998030798169 -283.18470760750944 -218.09990871719344 -107.7515118935089 -192.58342890480324 -110.15400442989277 -289.97707199391675 404.8371895566644 650.9310103656891 121.43303830215793 -183.61084603460696 -16.4804175704584 206.294054115997 -204.36650908388515 7.305764239564487 -410.2120731760643 -459.77203963926735 -26.80696131014865 -57.18109756048678 96.27573863207911 256.6021844652138 246.3176952160688 290.2212364751918 9.065280969662306 15.113248478809249 87.65544825227977 -290.83863927153385 269.5737232800886 587.3348491793041 -230.9337364244124 163.9119039530858 52.49480251242137 -191.2081908165968 -131.56715539654655 -370.81403128455776 -451.6523629057489 -144.7944980873093 90.85288918229291 -49.23986361920251 -199.48361080377614 -48.554584844622646 319.31831062934066 -102.25855734203458 103.87899199911548 -148.03571514024716 -661.4976489922718 132.3313473635901 -197.36519424068192 43.00969788940135 471.3424709423859 185.99127118303306 189.32555631338982 -163.68079192198527 81.34998474833905 -80.97567960852827 -11.811685874845725 139.4203049667722 193.79615090320388 154.77494757947176 -97.01734138877539 56.162725085010166 28.162514034233716 79.3857677206331 -139.2647511372851 -110.1317470904512 -355.9174229497338 0.8967444786058114 295.2715667788597 55.64576289453345 402.6709366728433 -71.14375125956835 -144.22595932468417 -413.2245127227386 -115.17234099103865 277.1413395267971 60.546250407188765 50.61671159992921 70.14885455892795 -81.78134310419392 -288.66538057858105 144.70551560472907 73.95039726374492 -92.94711820483424 101.11253481697705 222.02294331267547 185.67154742718913 515.9217053869922 157.88053217370967 10.405277652016018 92.7383993117342 383.6497526892289 88.86801072905064 -253.24328885625752 -96.27808754256323 -474.5071298574086 -321.9608662408924 -464.7541693149191 369.59339569987054 -451.8544385172482 268.71773639418325 378.4635514977307 -45.937658323158836 102.6444043974318 -98.60732074804861 47.862672727992745 -208.93079202399187 97.39392718041482 -122.75888573726861 -213.71079754594734 -9.253106747103319 -233.99155478226322 -148.94486330561688 77.50767391991232 -144.46921291090385 -311.2110283835818 -173.38153193741977 -165.89769456970978 -372.12125920864753 -197.2569856126424 -146.98796851793853 76.20996384922766 189.0475822882521 184.85648108674184 -59.89985528919843 135.47277935436 -209.6113094562053 350.62109020929734 -206.97240391559686 -67.51387632186506 116.69641230056615 203.27998859990856 -489.54804945880767 296.40540908253314 -14.245929819840608 -402.3134843612204 359.3106440516213 304.55120355100667 319.81766352439723 -276.75713310699985 -6.09144802209936 410.0771024386643 201.65712037755839 -144.58420082395978 5.934475779763424 -204.26835232068194 58.79257788106066 14.875390500811179 135.46337811637608 -189.87469985917858 -75.01518821908633 -210.06730446088258 -99.13476301602749 127.04266199411386 273.20350105929816 115.22634108235442 118.65504855720764 297.95604017838326 328.27461806049985 227.23659704717736 130.80941171411754 -198.28310297800525 -98.81517954445584 -315.1472798236392 65.6636246575207 -594.2135742231739 -140.4948780349168 84.2253644796402 -124.46056311824077 -92.96928212639126 16.632783168242163 -142.99762703219614 -111.91619345170302 345.7379101978919 249.32632502816827 -183.95764865184455 -80.8553442560048 -189.58762662997015 -278.290079421404 148.4661146135413 553.4128753311874 -377.83774323212845 54.55272068026393
-11.89879374609405 -3.4373643276021992 -10.282985006776606 -8.53892646661867 -3.429059433668625 8.337485545635184 -9.55046316986534 -1.8050351351581606 -9.025235984924592 -5.678052931108374 -0.05611403073725144 0.029666026875335143 10.562913581309978 -13.000677625206924 -4.937042387942688 5.154058573414755 13.516436137859111 1.313983910956113 -9.724205379890577 -1.5372175402183075 -3.281001354393785 25.431801342075588 -11.430408203315237 10.083305732828185 0.9330330252915389 -14.881364574120694 9.886947865196065 -1.2592747912924624 -12.288828723550491 14.350413645302469 10.246404322776444 -13.49998178475282 7.702602540126294 8.126654317146297 6.111247746183518 -5.133008424874027 -7.672099330026655 3.4444021662352506 7.988097124187925 12.481699312807555 -2.869569816386569 7.622583379747229 0.5464111773148311 4.939373490097553 -2.79304173131639 11.342884224347333 -0.32599330074213606 20.23062341241838 -8.064159507982241 9.666796970768152 -12.236023131987 6.582623902598702 7.099553079072085 11.35867790796196 -5.138820918746979 13.709435241100305 -0.25356382605450883 -1.4409117981606399 35.14648035156214 16.94606918408159 11.512598705829035 11.572031117059128 -4.424027268111884 0.9055399187559007 12.30649968740549 -4.960159992774737 5.1002621960796795 -0.1667674591088085 28.949029213072443 -7.5363475069094275 10.918496748048758 -22.356055077704102 -10.925368203833123 -0.7782132219192736 -5.1540962575085585 -24.18412094617439 4.403499688911152 8.462943198942677 4.8294277742601635 2.9353043445956386 -8.457000338412247 -3.397697563419866 9.773431443074754 2.321916099057745 1.1874987948991576 -2.8926527934734443 -5.033289935418391 -11.041517183341657 -2.871277153584685 5.682733313105336 33.89737431548659 -16.8323195210625 -9.767715378163079 -7.64590355056814 16.203502542163335 4.4661030142264915 -0.09321672989260012 -8.076404400756127 13.694976722160606 -11.138954372087333 14.553659278888501 -21.89131999010567 -5.142421713890871 -1.8419291610673634 -3.3528059413856015 -2.285961331253141 19.116311458721597 1.6865110784582802 -3.8685206910926597 -5.9936087234002615 12.385957536569087 -4.161043324719311 8.384047203696866 3.6136924097793544 -4.620849175243522 9.467245541989689 -1.6839297314522848 -17.8745509939798 3.279631845595788 -0.4587757731681327 14.55640300266227 11.953056461198587 8.077697699138305 -1.030021222642099 0.21564761935123233 -5.467608384081003 -26.35622328962539 -5.918533830160939 0.7332847586979124 -3.0641534996471145 -1.8315692138595328 2.2060573624064936 -6.629982913604101 0.3672691164153811 17.868155124165956 7.05959553924292 2.1903484166591247 1.3796324408099399 -14.086354360041073 -2.741672272764182 -24.432071874708942 -5.439798937736833 -19.920564053091162 3.616264220527392 -1.9672362626602946 -11.736293444181866 1.6383702697491744 3.246155232059303 -0.6719412474282354 14.259632446998468 3.939739237471803 3.7872921583373147 14.16817358647416 -8.564234706852558 -16.670383005229738 12.665169504914338 -0.30195685192816574 -13.976039686908143 -13.537458457497307 -10.467913305081478 9.431493921942739 -4.228143472491441 -0.15474272531439315 9.499851102532556 0.17182831688142727 -5.802495104694491 1.4847176907488653 9.113294981410581 1.0766902822639715 -10.43636787346021 -0.34885373120299157 8.957898973991476 11.286885133462278 -9.08916733686664 -5.934331530557559 -12.243800056107414 -3.931865778356102 2.5395289092095776 -2.4489916767142774 13.698990585205928 -7.771826121427956 26.12962153135427 -0.6711963212457424 -28.95953873443639 14.793931382480562 -8.079051093765832 -34.241354890431644 7.64143428743373 -20.917403467645862 3.7185904033226813 15.089586591077783 2.9434859410459073 -10.514786752784564 6.619006513179139 -8.557119066731959 -12.790014917243372 -9.744329408718226 0.3388752309812867 -5.923483121480602 2.005446260167922 -5.146474774221765 0.2931502331738216 -1.659875171130184 -18.58214089819365 8.992735859944938 -1.4959082179211065 -0.1878592003623551 -19.84001016282996 2.454767817691251 10.559195996702025 2.6486735338002463 2.154954627953612 1.926686811273275 0.9428460910845584 2.0327155854644783 -9.270388591283869 5.127705263981604 0.7305451042804414 14.361428339992148 -2.0360670628047215 2.7859097716588876 7.05171088093741 -0.298773042698056 6.305833594789921 3.7315329927371117
-1.7419857179847245 2.5297620200859225 3.7987656862910852 10.471557959230381 -10.360499720759504 -18.487451662031525 25.44746198118425 7.0747189518614375 -15.536987532249974 13.05974631168864 -24.53735016610765 3.5731778175685984 -22.926964062483595 -34.35185871129457 -5.378999820253314 9.22933190923794 18.683508690313122 4.834963037289754 -3.7322499498791593 12.081421155188954 27.646034541688504 -28.150028280635397 -22.574014458332424 46.55566857229564 14.791290852279545 -28.26935343722029 19.279408535230118 5.4932523966294164 11.18891424734182 13.289629635323776 21.580880160858165 27.877901929412737 13.661221037526298 20.02663323389331 36.47124254465413 20.6558825441283 0.5326875378796915 -1.7310100358874898 -9.542229090602143 -8.13150292141618 27.891715145239637 -13.914989346231275 -9.63143019826287 18.628457410140484 13.678879532439499 0.9961784163560594 28.717945316040414 -25.626142712852886 14.656512925533756 6.749445115583659 19.6802224631367 49.47512888156371 21.68203462037483 21.527152282704307 -16.92120072738005 -2.8170235724901964 -24.26832745021387 -16.679727599470088 -18.187416251171552 8.3692362897172 -17.9623821731761 -10.703878280469779 -6.143238329798439 18.147709119533257 13.014112953544513 -10.65792820452224 -11.841217184427634 12.024126268817355 -3.8708577357810183 1.7298318805114787 23.18208073510893 -1.0152153309583467 1.930266413103773 4.730932353683237 -8.831568121111617 12.971457783921986 -20.434172984030553 -1.9917736762106981 -16.26467586716376 36.565695916222076 36.01551656409488 3.59010453544764 -24.208248448266975 11.557409920722124 7.527139177766896 19.130839523629568 12.725543852605805 0.8383455505560674 -5.443505378373715 15.979971567394108 -14.296496135818908 -23.336875185500507 23.208358275597885 1.5251385593898081 18.240305684301543 -15.902677542966378 6.967261808914709 -25.3440607319779 1.1733999389609078 -12.177168151080817 -21.41021581903656 -8.058879517630608 -29.89293909200115 22.68776618827297 -13.501509101971504 -3.7612973414995805 6.931984665347329 -14.710072023965006 -34.700017093623416 11.776632214563092 -18.797239628504503 -7.22001837344302 -18.88479788908624 0.8823176650448584 -3.7816892820315267 8.362766260928636 36.909416057154566 -3.063272023610019 17.9893752380992 -32.945674282119604 1.0912256881524285 -33.89585419628411 10.94417469522069 10.23130799968747 10.565398238727465 -32.007016651469726 -29.50692768108681 -3.582965516133324 2.493165176773842 -4.955214284348843 -7.097477152812064 22.067918227441226 -19.813803381598177 -33.24855198869281 -21.991794500648567 -9.712640745862343 -21.052978812592993 -5.107512436310463 26.975077244341882 37.44067586972256 21.684372859613227 21.179774719216397 -4.2684501520359746 10.015800522874224 -8.50942892431548 -2.498001416863041 -6.579586544330613 35.29773270875549 -12.689627050110037 -43.02845640378201 8.424644401569664 2.064757239856864 -9.062730339562695 -10.219013898593214 27.237983113366074 -3.6617401461664087 -23.02032521489462 17.832203685420325 6.4122203105893165 -5.293595834761684 10.68524070958374 -10.007646833698294 20.47209124536973 -37.38202215671454 -34.28053253881292 -21.175348763842994 -8.772659574138496 7.92725215924535 -5.263315890515452 5.362050706458785 -12.163192643864106 32.209167838775265 42.42454611188908 33.312154404029656 10.54098733192259 8.136311604920301 16.730639302240387 3.083695029077438 6.966372938736696 -9.67030708198216 20.32738773127102 -14.321599383040539 -11.334802738455522 -9.53018695394259 -13.539425215346792 30.37579200966562 0.3574958233291481 22.67816334700309 -36.43351994638888 -12.129366561137239 -0.230377992550664 -20.594176562679973 -8.045947209510683 -9.294271246295393 -26.018492651700075 -7.446637365022086 -1.8503604870824149 -65.52018072807809 15.923279479172765 12.406247971798468 9.240620271880083 -26.446945760022505 38.19042976013268 -11.559036411646632 6.173183753410771 30.03188111216904 -15.357538247513796 79.95664746927072 -35.65267466448963 -10.499973250405553 -4.897451903808931 8.342097753114148 -18.245601221534166 -53.74714864633755 -27.16528287807474 4.256020074060162 -27.318663564826416 -7.484370219802578 -15.048337296090878 -15.242500972478151 -15.039330110367583 -11.04861733415712 25.287273365018518 17.370445245039697 -14.093725651303297
3.711527995967923 3.037450378800784 -8.590370363121956 0.577312125522287 -1.6038686247994702 6.789491898239382 1.9980134501587268 -4.553943715275605 -3.177621837243289 -15.843111551742995 -16.507311088081256 -2.5005620336294414 -1.875315429311879 3.5846932521309225 1.4400966045005166 -0.1935608426779994 4.582425347658904 0.7756716143059337 1.3518192796454076 -4.821883646534166 6.183553653991627 -0.38239803539984457 -2.7508174365099203 4.018633367596577 8.36691631362654 -0.4270717207999312 2.822117054148367 -5.917708438493427 3.8328204363999516 0.8251821748512276 3.457487177104731 12.184522410891155 -3.269671440369156 -9.581814459517283 2.927598914585722 1.718086823031674 4.435531559690312 -20.391542442999572 6.585701310357643 -1.8093218783254954 -10.4256846649605 -0.8768592171249117 0.6723615234706984 4.8234871621026905 1.1688655819277887 2.8369318328238 -0.8068809638461423 10.883767676420431 -11.679028254349417 3.3637620128982477 8.063361985172236 -8.819637845125374 -0.5379543239430219 12.101179209985393 -11.5725886024438 -8.117272864061361 13.101527978788964 0.8855253963166227 7.450555148342668 -12.28649851722662 5.395236630585821 -1.2786150765172084 -6.142134923411135 -6.996567417922026 3.577080491938021 -8.538231266500805 -6.652434619611554 -5.2739950977772265 10.548725463135604 9.397383444542388 -9.094363972214513 0.49415802266816594 -0.10453916453804683 0.5169777308065319 1.7647893425113872 -2.474804483301759 -4.955555152084072 7.828255566825508 2.0750323482173054 9.400106399192323 -4.546613320813749 -3.0813200194941435 2.1393837683338384 -3.7085669182964387 1.166528499824377 0.8324758410755115 -0.623361629900302 -1.5216087828592018 12.02011369966903 -3.6537496923983466 1.286207937189673 -2.4534193210207933 -3.124933063016243 6.975743602381138 -2.6986570513772965 25.8267008777456 -1.9990474497509643 0.14853461423296097 2.1595764535584157 -9.675168912933819 -11.632146292388668 0.2566498550632832 -5.832213402365009 8.388911073006824 -2.7033467036780183 2.3290626709841935 9.677545855577975 1.5143812630588243 1.1152695618386093 -0.6626862250603673 -14.967774205986645 5.053738002414115 5.754098272068965 0.8987073087885907 -1.0442931094351229 2.7969167043015437 -3.0342855618031623 7.087623181315553 -1.005005985460428 -1.9835152691769218 -5.093545119914751 7.071258349045815 1.7193493275968292 0.6172805500128428 -0.018166571937656563 10.19412102150014 -0.7739321104970744 0.3293537897625022 -1.8777003814970812 0.6504838372535694 1.4807381596054143 1.0170536544431612 -5.870577813246982 2.2548958287206298 2.2967739814987156 -21.356755481476945 9.203931709961347 8.059341005431842 -4.44846669455285 -1.8550998148681386 -3.7293547083490353 5.431168376287842 -1.5512378085813177 1.1169497664600387 -1.6163476939432206 0.10408446851381568 -8.98173309273385 0.27630147243772885 -3.804335712872121 4.800158130241034 1.7769473413775065 -8.737779165756388 1.3815215071265647 6.625322510629137 1.0439559723955436 1.9256115553057254 -2.094727420451993 -4.86730082962691 -20.68960148392101 1.275236852633441 5.45064141321688 1.9749923410964503 0.282215530078455 3.6150704666762845 -1.1304922825647934 7.556328997633665 0.044000466587585815 2.195802493853541 1.0002132639634886 0.21620923760357574 0.6593837874224252 -3.557951240711394 -2.910144827215927 0.2154927660320027 -0.390071548725901 -2.065211261281004 -0.8976370908898428 7.984784755409937 -4.4196981060017855 8.56424271821966 -2.520900650027303 1.399894266929553 1.2187115986848724 -1.4129989611265805 -1.659334604312684 -2.4103874975589656 -6.108054874820832 2.457955256145623 2.1931891851156915 2.7403195992431226 3.0756746959341696 -4.449767076921436 5.152987587862034 1.0233494767570714 -5.420097858489946 7.791783008427712 3.0383164525861868 1.9239293867327554 7.1309458236678 -20.286105225432145 1.3717448935112317 3.478895721860008 -8.69460593808772 1.5126481067235307 -8.379299297313292 7.084006952260211 7.304541492704939 10.89560494619444 1.4441779268982664 -1.8159176961109116 -12.066892088587343 -2.1989338194755517 -5.598557942076629 1.9547641253936003 -2.829218561511949 -4.930718385439146 9.871320440245476 -0.944032165808347 7.288577777229568 3.308922598640877 2.4107125905520896 7.1809075916975 -4.752606676675346 13.413723535391808 7.578411126465849
2.584416463983328 2.4579857857172795 1.1958175671722386 -1.0513794783974204 4.6780856691284285 0.6337076133686391 -0.39889381712301913 -3.4978000722305906 -0.5052370864500286 -2.7757452305164088 -3.2897405754207965 -4.166727499186105 -5.326847080043081 0.5924623756120989 0.33817696205179626 1.3964564181897132 -2.930770745884089 4.965471226172719 0.27192113121114947 -2.780681017026601 -2.7039064536321376 -1.0037468890026726 0.19162081841268072 8.076853810348739 1.4695779014954893 0.31876258502738825 1.3279858511408704 -2.9736105897464253 -4.801548318988289 1.611666318796703 -2.3428601559534625 -1.2074799310069182 3.0872181013661475 -1.5250921566034346 4.062100713553193 -4.418452271965879 -2.1722782056555667 -3.346182050218993 1.3634051319430658 3.8902219131635416 -0.30746741170302355 5.85758622236883 0.14527898233774644 0.8425046678053183 3.026672212872362 2.5507828318741805 -1.4814804930195884 5.721238234086584 -2.4973823008984475 3.4222454506338935 1.8137738351498065 -4.429574551063269 -1.3479879545742255 2.034448567378915 -5.7626170194014605 -4.936334632319478 3.3563608042604316 0.4532639535862662 4.448734799474627 2.29694042026567 2.1190531484275024 2.042567702152887 -3.4913292376618776 -2.362992663958024 0.13289083940252389 0.6260030476013563 -3.413919723310119 -0.48965506609722975 2.823082438309788 3.3411985597564295 -1.5228457794008128 -3.881514408863835 0.7372751319875014 0.345688873750804 -2.7264788934954014 3.074892828296178 6.135948984519864 3.31222482681875 -0.8726563511136004 5.477549812963 -7.198635435260662 -3.0990991199208517 1.1002748307527714 -0.9182611176718972 1.0869889037893548 0.848230611000511 -1.942768551330431 -1.0514648644508842 3.9691285379045325 3.7098055108593466 3.709887874595845 -3.831898017803684 -0.47702327914381265 -0.9150504951687762 3.5985869886515114 4.684285052002823 2.276713890241219 1.6608651449917946 3.906148765885972 -1.9840612713207295 0.09082785881810497 -2.1755721481674684 3.901556107727392 -0.9817875799399595 -5.990742519018425 -1.901767673415419 4.118728713775863 -0.6954316753971029 1.9418111359444228 -1.207308230392617 -1.232257656527492 -3.76034741458182 -2.1100045205171885 -1.7253215103578015 -0.019394275492387602 1.8948059811125708 1.653017550409978 3.8593523963201424 -3.301273680160207 -0.8257672048421032 1.4890574462473751 6.677824716331073 2.5580770177321535 2.667531161675683 -0.5364643555970624 -0.6102921950922143 0.21320894946507177 0.29323076457699176 1.6188202396675533 -0.6068978342936593 -1.2920772383702375 -0.7992712363899245 -6.2994294266525035 1.4775408503118368 2.8426421123823693 0.7135910206466529 6.134051211740588 1.9447856397689518 -5.983472365824738 0.021666177529933286 -6.119727287945491 1.4300433106131167 -1.6922298263055346 -1.4481660751686862 -1.0080253927295408 -3.3582576001178177 0.16406340748224973 7.156353236647386 -2.2207121845341686 1.39239684070122 -2.475513031434183 -0.819641098268269 1.4420908376646475 4.655832386483681 -0.42347239278472737 -1.4147718617996128 9.97658729430016 -1.7363265288698468 -1.7909215442171427 -4.741051537985477 0.5882744586028879 -0.32382493391461625 -3.215274307582221 -1.8644633708694895 1.0885328717932705 1.056521250866068 -2.0707406081497672 0.5675850690755351 -0.08683670135664215 0.19957973627254527 1.1687728445109662 0.8784044955543414 -1.9136415617924547 0.2777753804035807 0.70789751890163 -0.2823954833203914 0.9097149817378755 3.70177102815928 2.2091188787331504 1.4426681165561015 -0.2816902445094347 1.6371556917824026 -6.515035161634016 -6.7274138930460525 4.711916455319941 -0.8415205368264943 -0.7009283964487091 1.2189925268293256 2.012516775329031 -3.2738005935783927 3.0126112577477318 -0.8338229899738745 -2.9007396324658314 1.1520604562747632 3.1615647766998407 0.9250562376913936 -1.9943754317482445 -1.0903563650235586 -3.586815872973462 0.6574371805917133 -3.0507054664669337 -3.954849641530625 -3.2930831368436615 -2.354693600185255 -0.348330182859351 -3.7919336931182794 2.379413560591875 -0.6796714021773236 2.8459290830933024 -0.03229698305920616 2.3614802493238702 -1.6554484832369865 -5.418773680251105 0.9124104163126417 -3.5104088096665826 -0.42900465373864344 1.7659587491780626 1.7387578265395232 6.604129006768951 -3.704780698803372 1.1955030916921148 -0.827709155587809 -3.72226509364805 -0.1853060499458904 -2.271434727176173
-17.486038550518508 -10.786837712034119 -11.326000382734168 -10.436191667390004 8.46934456175656 5.405504163345061 13.46627469368858 20.696166468285185 4.908880188528562 -1.2923384219366745 11.029365246679031 -18.208242336355593 15.015699211453901 -39.07117681066712 -3.5821557174101053 -14.528868231983774 6.742738675464215 25.582440353094775 -10.352048744998843 9.95922593303325 11.911460030681116 -4.449773457321011 -7.941007314129459 -25.013363646816398 27.054444494399448 19.334355992727335 0.7697970515364134 -7.528290498661437 7.116639715503146 -23.176223365173485 -16.10418025632607 7.444303386791474 9.733239414935397 11.955343062004378 -15.301433643838534 1.0010474021411275 11.438356026977294 14.041661668613378 -6.173361919429085 1.0500334976483574 27.26701067564904 -13.222927855903244 -4.164270478784651 11.735135227278036 18.11170455643189 7.355129440359736 3.565951724913464 -15.318816252945162 11.852311383694603 20.133715891860653 -41.04854766658369 17.884088897846507 33.20417840804997 -28.135566540940818 -1.7982385913095293 38.61374281389553 -11.946305099550866 0.20377203455112214 -4.081542465629536 -1.5355352734161063 1.4898570523787444 -8.041829758569886 14.688197463228406 -1.3293107034467972 2.4212003452506914 -2.16325249113905 13.286414918608072 14.40620761172285 -6.894691215177311 -15.281387242832928 3.948698264417031 22.260068889383174 -22.350762777721876 1.3195183003623896 13.913110459234154 -3.2170243063161164 -10.71812915904593 16.453333222770098 8.308083125407192 -8.464011887096829 -14.675016955673676 4.87814676947056 5.669030238823593 5.313159789575573 -7.117890172648697 6.387999156305148 -24.3404839046667 17.10475872176516 10.051769535086388 -6.036580893462748 -10.466934658693248 33.86493632920841 -3.447190161175017 -61.311490666155194 10.031625591511013 -5.392984263665342 -4.500073542408193 3.834953025797086 -8.505715189323254 0.7388865621621792 25.971724743165712 2.383835545263261 -10.87658659765457 -8.464271431209982 -7.247015644058957 -6.542871670149212 -5.455561191237557 -6.965700301697892 0.3714951907379096 4.579877506306321 -4.42101178447234 -3.5012675686622843 -50.31609225221996 -23.45848589603104 -6.8264663476186564 30.51727862974983 -6.2777797515624565 -11.21879167470357 -9.770150366810078 -3.9103169343471924 -12.96255758479797 16.774275199567835 1.1155830137175977 -22.21393574016558 14.029720149930498 14.22572681348281 -3.8450490387954988 3.7218356965786414 4.59602384843299 -32.55219047844268 -1.318718437786509 -10.300992561519674 -2.296422931883231 11.517155147826312 -9.64147034766199 10.506100361199612 -7.256497002572882 16.777475415664536 6.098097234307832 7.609515934213957 -0.7488844319994533 26.084018885631746 8.150487809055686 -5.063528087635466 -2.7117930819214124 -13.96097390767198 -0.3168060580782486 -9.898975645780896 20.72532064684504 -9.964122755458995 -8.305170509485642 -0.6372757848295083 -9.888004102657716 -16.76043423743182 -6.8094862893209 7.9176510286903055 -10.411502165042593 -12.201661463195547 -4.443794881070439 9.220783794623497 4.808586206517074 -9.568179242176035 -20.290349965822305 0.5091368497135027 0.5136449197443655 5.263992843540508 8.612288833076176 4.242327740282689 18.064620845332602 3.046918354137134 27.874236177606885 -10.918552276348253 13.447797681114471 -15.453082722766686 8.935241197981634 34.97057188872514 1.2468847324452728 -12.08035520066965 -12.056450141158376 -3.175430103996813 12.867673050128388 -19.421517689426285 32.977911544966354 20.146248868747698 -5.080050736734042 5.039596740022379 -5.891988750873547 -17.797997197430202 -33.05591144435848 1.9483417903974258 -32.38878683897813 23.249012621884347 15.811821360341915 -9.361679060835053 23.156560190903637 -2.285275339612744 -5.825031618145337 2.3816512894145565 3.16672267524153 -54.915614469914544 -1.1340347020498085 -34.97945308745348 -16.137090371573997 -13.312548082189727 12.003117063834699 3.6499637322073992 -1.9261871753166844 10.719075410697236 -16.411037469602793 -19.876778146125012 41.48564266282406 21.35689330583687 20.2808121871963 9.041969031246936 0.8235199825581436 -17.143345490453218 0.3109076848792413 1.472720755672407 -12.46112976983549 20.853061087128342 12.804704914549035 -6.794508392781781 16.424417324774602 4.461210762227684 1.270592842847291
-16.387917649723047 11.707614400288314 5.252032328481904 -10.234993507708868 -4.382078073696189 3.907264805161474 5.080237884550246 -5.909610075766603 0.4407940491880084 4.203633098632446 2.0510790327314137 -3.968346676084577 -1.7923085344745422 -8.555702118691215 12.141191981669877 -5.246257391133999 -4.734217779857648 -7.889709868573698 -15.646772726163809 -6.58524762401645 -7.667297872364373 -7.271538034165974 -12.874235775453952 17.138963269364197 6.155670409483778 -5.3283515441215545 -4.310141842350027 8.523061905934593 13.158149406741071 3.82135111589371 -7.008119291104552 1.0230697179030073 -22.339626230756206 -22.637788808430287 15.400054111554848 -7.108872674296081 -11.114486994028942 5.503637008737892 -5.145922295698765 -3.3479115727919857 3.9081346716603655 2.4075136368108043 4.2692902167337925 26.229715286535747 -0.6431080701477327 11.486837656117284 -5.8907795601141615 19.119521537873993 -5.8000288890183995 7.020365645489969 9.030648849092904 6.426967113064397 -19.588886732189916 -21.466884176108433 0.5236545115010359 5.029105282258365 -5.415571166420877 7.528858664310999 9.888847915828713 9.813000465035463 2.4053376505863016 7.324349045103491 -14.814735017740512 -6.146431362644582 -0.5770717924675812 -22.77590054606318 -4.5927748416536405 3.127741998581632 5.4571324459107995 2.369673547218555 -4.896223797187301 -12.936020525832031 15.101823130927642 7.475807267541715 -12.56205407372717 7.561403037558661 13.81529303505528 9.388168363503668 -12.051019799444193 1.4949988257894284 -19.304560639813317 -4.132990664469075 3.4333255314628257 -18.85222345371886 6.763313961116473 18.416774600904024 -8.547017071269341 -2.980830330170093 12.824475326277621 -12.098925375457942 -4.463319859909248 11.1417210028204 -0.5947832084631239 12.344542382031412 -12.703700458893652 14.09356274006085 -2.7577812411600355 -17.3740849950788 -19.917788227067195 -5.345326818911274 1.127147726189866 -5.308859352561466 0.772540837988239 6.186583816995086 -4.18903826086951 -2.4478626201318745 -2.316693790009781 -10.50093746256775 -1.9933829454486802 -13.969613370795212 -6.519642619830503 15.0731491934888 -14.657879564707937 11.639541260347972 -4.72599110655591 16.43187814250077 4.156208075833067 -7.03944709726883 -2.9549219141468677 -3.7217526967917633 3.5856075140744923 6.0308673295997455 3.525327136177214 6.540824078246526 -11.835036022972353 -2.962540294725429 10.06984833653701 -6.688229531007333 -28.752766194024453 -0.9803974983708575 -4.554621158476207 -2.601951438640379 -2.6102696110125496 26.982115912077628 12.059741860060482 -5.4527399543516255 -7.657543221516288 12.275167122746826 9.294348246139577 8.425490404184538 -5.507429673200419 3.3499404831341217 -22.431975069489024 -4.055068888731114 -4.213253094628635 8.553244063023378 -3.664851545209383 0.8234172865981678 -9.751951682728558 12.774472169543367 15.16577833186269 8.715557807251631 0.4412507705494456 16.094671281844025 2.9379527756593053 -0.06758977514179253 32.68401905896678 -3.106541096006495 4.569578391119436 1.2689994135701563 16.620791195721832 5.866042254586386 -0.5586892165032205 -23.98645791241108 -3.605875958224337 -15.91253435838874 3.0002461552683184 0.3668245052953689 3.5462390067018963 -9.895699641932143 -6.105972788717588 -10.194653979793745 11.198120069769136 -2.3007167009683616 -8.255029729262118 4.6999158689485805 3.8084981946002148 -3.8897212671494885 -0.5084546817474465 10.951667443704057 1.5891644663646933 -13.934288514488342 1.849111313544468 3.344117587734991 -4.041748244132965 -3.532895085169212 1.613094329614629 24.45582354434023 6.688097200969676 0.8912008914546001 -2.6043480894621314 14.098272438642187 5.707981877433519 0.104678539193393 -23.670999348067046 -3.4105684723556116 -16.108749511870908 7.495904540092152 0.9903673321818152 -7.0747845822798965 1.31804747667377 -13.938125728410558 5.698512519579949 14.131306942652216 13.744502499540896 -16.62371440657808 -6.989209242010608 8.562526430870347 7.484178072288759 -17.285898466418136 -6.99503175839557 1.008249486120256 8.633605884371342 -0.9546142102677136 -0.4751608824360382 -12.111061907723348 -0.8216985410077926 26.82865170388769 5.968533314765789 10.54018635659847 -13.933297261346322 2.339270305130074 0.636210739110364 6.61526311554605 6.077004350877335
-0.046981997121660804 -0.7362451690679955 2.253003959373444 -6.028332236210772 2.5586820776125903 2.8068534554508915 7.250480724919722 -6.2548516809872705 3.1224581471120842 -4.887577980898897 -0.7766941550319583 -4.378187204341017 -1.578187585266922 -4.004595001190372 -5.688851870801504 3.1924684023294034 0.09438309493077454 -1.6791988968873757 2.2816273916930507 -10.598203517696916 -1.370532815474579 -1.5235121326920442 0.9772146617975325 7.6650907328560365 -0.2792060455254057 -3.5084271425930926 1.7590805796769826 -3.2223369833386037 -4.280857625315145 0.5969385198650179 0.22563100621352597 0.3481959299517813 8.496248130378463 -1.243891569920513 0.7950686128478046 0.06128672126685522 0.21848031836132384 2.3466979932600562 -0.35889604323921065 -3.8389531815687716 -1.0758977038065105 3.4667390037437973 -3.095277830870001 -0.3581251424500841 2.5118408517374764 -0.09567822668452107 5.715460283861671 10.674910097051932 6.938851749601453 -1.9842506449756614 -0.6010650725807428 0.6085040166701784 -0.8900550267724464 3.072650528860938 -5.139501107589644 1.7408728627621426 0.6554932646202148 3.36936118124374 6.4885692736705005 2.9786423337665227 1.6037574963357573 1.4663677623378586 -3.8538321026616775 0.8047763233735176 3.409806995131167 -5.513838214102161 3.0198074365672616 3.7216907321057375 4.289501114219974 1.6127624483786211 -5.062921681863035 -3.006899910184647 -3.2832354961914807 -1.714158024088217 -0.32847021965814155 -0.5397268445386622 3.052203761434756 -2.971204885293821 11.217172927898151 0.8013880175718114 -4.997726944748064 -5.55232931423845 -4.8092087282320035 0.20853615827325742 4.760787440669901 -1.6373459767490837 -7.126722710879487 0.7011189352292455 4.146283946009449 -2.04579259617483 1.5446655866933061 -5.8262474137916165 -6.633099597186403 0.4342831589509737 2.3954000444356165 4.981244962753887 1.9152806236604913 3.0677017317238824 5.533368702485539 -3.802655908254898 0.08028196059182638 0.7887388982180285 -0.3250636649453407 -0.19321983716264501 -5.211443041739709 1.0630071334144706 1.032860575645025 -2.2631146016577186 -1.5587241411658581 -1.4161061136532715 -4.415829804784121 0.24401407635381883 -3.318786119520755 2.395957162175763 -2.3525260706204283 -3.3343468434447763 0.26622150109614817 4.377617577171555 -5.875498826555038 2.403589983809452 -3.6476394646844206 7.297220178096088 2.1565860076569328 0.7981910966041056 1.4815224684963244 -2.015796243556225 -7.518154108501818 4.358078570742731 -1.5614739060155443 -10.667028285745646 -5.606399736926165 -1.920401295379403 -3.6065317616177355 -0.40179569061890136 1.5738036792979009 1.794174497896459 6.5208139374239895 0.22883166979616879 -5.8231054821217265 -0.1446187894544845 2.4156218418164555 -1.022638961668512 4.723984707078564 4.416415759374192 -2.613484385854104 -4.935211739082275 3.815988162399211 5.676591437086769 0.05225116994882534 -3.462639536446466 2.0116258237706477 -5.102909093401716 4.910167177099852 -3.2972787464951403 3.812566968036659 -1.1927563238620962 3.933697318553942 -2.3354433156787526 3.901328829567777 -1.6678733730237278 3.840818166440106 2.6365878234711073 -1.3734628593315314 -0.29152566285970877 -1.3141049810689234 -4.414519903820113 -0.15900702608988782 3.9802795741605044 -7.330297737178135 5.320263432556418 -0.289144540212103 5.765946037485724 -1.2959859869482382 0.9235776384109213 0.7636140666167582 2.181976066622871 -1.1932720302291053 2.8280435590202533 -1.9437166468915617 -0.12745416611719843 -3.044122875153169 3.3673406809335784 -5.742583948463435 -7.590667459245717 -0.19980390687912214 -4.210522442801544 0.9238359368577976 6.192354184030668 1.5266888983849058 0.3258881966586113 2.682950105842926 -0.6821498762284296 -1.9485645116284431 4.380704332597425 1.1550305068093127 1.5665200153098355 -1.0451038355079287 -3.2080677201728176 -3.4208164416181557 0.9582372110544416 -6.187516172382178 -3.6329720741610907 -3.8742520747841 -2.1125098066165666 1.6015549037392145 1.6589819167060307 -2.669962982142069 7.833403500758226 4.588723421843034 3.111168776889013 1.8876406809444486 2.318771195842213 -2.228427652297259 3.165020037955494 0.5459048335072154 -4.329262819261015 -1.30240054656988 2.428244891411345 6.108367142715953 -0.8335967216452587 -1.155263028227134 5.511201812182563 -6.529399851950484 5.111027646945674 0.15705462409286383
-1.4525970255341383 8.144370799499164 9.775413770787859 -2.3273582108569597 8.574047635798014 -7.263036476298648 4.060066999915691 10.601023400180289 1.4790689015054799 -5.271595324087056 5.800036873661896 7.322846130435193 6.401941094107727 -4.9975445677633745 2.3537097423373705 8.996164940870955 -13.593377792173374 4.605431393469607 11.030785414658679 3.5398706742416812 -5.981059246099881 23.95355495123072 -10.92416352072011 -6.333830978501118 4.744444866347507 -13.056200469705507 -2.5821688831365157 9.257117384415345 -7.854561889638746 5.645345945868773 5.985413507998909 14.493111566144183 -3.4765652070074102 -26.904777750983484 -4.594572594753231 -8.44707601087245 5.421763167972515 -4.836584569455288 -19.68218171329698 1.1862642030613813 -7.562976367214375 -0.22253709178333791 4.004982974951849 5.953256161894734 -3.4037536372211954 -18.430279776993093 7.298750927224575 -2.3708228334649393 1.9230207311133853 -3.4282352001939453 4.50641331701758 -9.54005739359598 -1.278491084936537 -1.6198279758284155 -5.335326405089354 21.716420320258727 -18.506961169701633 -3.849926756645703 -10.078972016765604 3.528694705705902 17.497120596663333 -5.310986875244974 -5.056019075277862 -3.3852788214962732 14.550875971548843 -0.9979510892770659 16.790765615507595 1.2642680069923162 11.48952440148286 10.330548368237675 -14.162212511770631 -7.211913046850998 0.18132863342512145 -5.208177911568496 -2.5894940288480104 -14.238842013577118 -3.4963402465800923 -11.926094920034748 5.559158245292554 -6.249004751599693 -9.427687123979531 -24.448585364028926 -16.149026231020542 6.755131926040257 2.4212985314851503 -3.840547749685308 15.239113427545883 6.778626967186111 -1.995813046338417 16.753118726264066 2.304590784541896 -0.5323867841999357 9.53868122874201 9.032827542959556 -6.6954978523049835 -0.7537685391471365 -10.986520350954773 2.728611745064829 9.468487238300657 -15.610428072210913 -5.369444293653139 1.1099896305737775 5.089549764067398 4.910287355741517 -7.422588484688917 -4.979563797098625 -9.89720241247369 5.130529587213275 3.7691777332559555 -0.8688492173695302 18.84211554099867 5.3335420212910645 -8.180671631400905 3.474637889293168 6.110610864658732 -21.311195131252223 1.6240384531417327 8.951039418217599 -13.857448216955985 -6.875746349530328 -12.380021315543123 -1.7060937444149074 -3.4623783679761355 5.370699484573483 -6.866641696513789 4.93389371596317 -2.447092855489096 4.617648445156966 -5.932420868217174 3.2709213496665317 2.994110545765202 -4.66963975838905 12.071910897161551 22.132260625730503 12.549323347141955 4.578150855002765 5.666825660181794 -1.56321641516254 3.7918766556098236 4.590211311356428 4.9912200314612365 -9.159304658672124 2.7189084873663893 -5.084921388026319 2.7572143172517474 -17.064211513442803 8.614787534210981 -0.002289365074553318 7.906229105185795 -5.065134245077895 7.122103064460699 1.5705294844133555 -10.786245255113792 -2.7076359038377635 10.58424551647256 -9.113641551900239 7.453119077395755 -2.7387556230555776 -0.1081250841714483 -8.80680347086 -4.3362437609405085 2.0848882484890803 3.627321777523199 -2.9002230594528604 -1.1247989648802847 12.77289197418187 -3.311490735463533 25.53578531852935 10.959925156255906 1.8851151552996113 -21.207159459217788 -1.3340781263588235 -7.509502299471628 -8.127385423661375 -4.47224160195976 0.5464383070727228 -9.574011728806093 -6.212352722625371 -0.19773958422842128 16.623158004582567 -0.8658652722971578 -1.653271337907328 0.3015056233160793 -7.317124976792278 -1.9885553642878417 8.234764200528076 -18.685160245522674 7.911908360550729 -1.0563927183542134 -3.2361651494931603 -14.74028459388474 -11.704614720588959 -12.314618107880708 -14.890703771018812 -11.257538344448118 -5.28738985556281 8.818339981296369 1.0404032517361312 13.095502455107782 -0.15769948890067526 -12.999777630240489 -9.926571673483032 -5.282081531738921 6.554138515681091 -7.911061159777089 23.241654451393316 28.72761537961234 34.00420475788593 6.172309866351528 -10.448803863055346 15.867732039730674 3.9168769188033803 -0.2458071379564174 -15.846162558612935 -1.6252784032950145 3.313577405507683 0.3584267239815549 8.317733982477368 21.999747926780767 6.8241217027152 -5.161010430729478 -4.8104549756996 -2.9016876206541493 10.881364570769367 11.743367628766265
