227278.17345424145 -9672.926396060271 42793.55769994074 -147158.2183920378 209087.94590605758 343615.2162101002 -4367.278992504249 803149.6144213328 -15629.361814456823 118085.8943351775 373152.9617954152 -336032.74910393474 -14336.591065724917 14.22503197523888 -376545.0953552357 369446.7686460741 -18009.450045060836 -299254.5028797661 -24559.332346295323 204819.49838754255 -515873.6022271097 115298.72882321017 6411.142514923798 -77625.37537287388 7786.161800399074 -8553.68647224896 304404.76186303893 -98100.75387471699 57103.47170021252 -23351.45825689312 82350.72413704738 -39138.19096138294 -31821.191683249464 28651.103856932674 619054.770204057 5556.935886099596 -261583.12085038063 -33180.524176083054 122688.01790125087 -17963.995794725302 169741.7357582528 -516674.66467338556 195580.00967607918 -161467.49503660342 59088.43364588383 172421.59414227153 -8567.399457249709 -56974.634573776704 15919.309302904916 31733.557452485515 63691.57233021068 -99744.64175508264 -198511.81350214098 -146864.99327771214 -9257.027211285009 1049.6010430639203 -18188.763083704584 -182693.15396285825 -6671.525742537882 -351480.8251770483 -420872.5722576522 226866.03311316643 -84080.36934051044 352145.05223634763 -321604.7877588541 4711.45017994178 11198.26934548906 49185.156673286285 -12256.77249473758 -137785.27183482356 54365.68468198921 270161.9827347685 423.20502968966116 -395932.50121919013 104694.87656247549 -347871.5188752097 -90685.27583361407 14501.612262814897 -45086.598650194166 35860.628828454894 -8614.702231151485 -286375.2480964409 117487.13705842009 70637.45812975916 40388.18734326647 -124242.9050203902 -318085.70864382986 9961.69873153582 -21016.553853597317 -31250.456876145236 111009.32504330912 -332738.8350859298 -15123.00558889312 -163762.60466599767 -18513.070275205417 349304.69301959925 421213.3013381243 -105295.33133031607 -418012.80061948084 237107.443295407 143179.84389705432 61787.315370944016 -340201.2292232848 -3648.5695624006476 127219.6930564362 163041.93090316953 -86308.54955424184 380634.733546297 325520.74270864925 92861.40072221367 12172.19231089076 -700767.3125750155 59069.11357853704 765.7953558555196 -2223.3320476812087 561002.4224457581 7725.081096573776 3981.6067185546785 173076.6115208891 -17989.629669650632 179097.15330923017 331735.29601140507 -313963.25484289683 59594.64492838867 46401.68324059542 415068.1339213537 -3506.7191657168037 -215124.28791405098 -33149.33009714211 -91031.63297279178 -275207.48898983677 -283466.0241526811 322478.23375891126 -105733.72588413167 -4758.871587534402 3696.7177485154853 19698.795899400586 98384.97990254304 -326427.80959893076 83239.4496046473 -12376.796774821201 -4718.039522831883 12311.027473127719 91732.54127408772 -113375.21863470909 81312.55154741075 -267402.88090011507 -339533.38140920823 541593.0514578236 1807.7127676062478 12741.018678764505 438067.28838936595 285064.79885641474 -394368.831857342 -3869.6607752576583 -122530.2306505194 -7418.895098518703 -77519.12393753312 13528.888931256408 540990.9769471599 -295349.13898284786 339557.49674875074 261426.45932554352 -82845.69524190454 -293847.6563059295 129849.7368961813 -49831.05822053412 -29239.956222930825 -22242.803464071283 26707.253350917137 95553.62345277035 -91888.88221888331 -351529.1969483839 362997.1514314923 198032.0382544131 -127020.98761960946 -312610.83542342845 216494.0856425519 -70556.54874632886 341996.4175944177 -2804.5755412380267 281851.2009012154 -7506.381510322827 1041.0029026117031 -87382.30160595493 -336463.2195127435 -75461.17473353211 3212.7001076683387 50733.60332934109 14724.219633349141 -34314.35347879138 33045.344062625394 -5914.489969290413 -10516.346142139102 9191.06614081609 -20508.9592539065 26225.38121352851 13610.063816856195 -268574.40563157474 -191006.09997651895 -1140.2656413674588 301104.2056789301 -433344.32224230247 -314881.48785202595 -17803.56351597816 92756.34497054658 -265294.01915566524 4742.956047919977 -892899.761545539 30502.356483678766 7609.437057268646 373649.5906442135 373969.7593670549 329519.5691939269 -374139.1200127428 -37078.34087881994 -12254.892656718981 -14917.620206167714 111170.12615569489 5737.35894055662 24866.846161898357 -66231.90245391327 -3912.925309745904 -11448.147493331888 177155.31356852382
79156.6520145182 -3546.5488177085326 -83528.90951239255 -342.7228890076585 10883.766968237602 -9392.794231030908 2583.194675531871 -14436.77165838437 -3985.410072813927 16853.972651197804 -82484.13046618902 5793.05841129246 -101957.53081441713 7589.966148765358 92616.96313055833 25090.011407472553 -5719.881214954839 16263.430597762013 -92235.69028797255 -12195.809213430251 -170506.28896032658 -5273.454464772191 8884.053572927876 74218.26354186246 103250.04930920278 -3699.571335334063 -28393.471149047156 23543.612040239725 -73119.85323830381 -21607.036851621557 -13943.629338789666 10218.568244525994 -180676.17610949793 -8629.796641360468 3928.3917072656136 2662.506768241665 7364.017573402057 198881.7845167166 8294.902669588477 -9235.228280029807 15526.038218330637 -8171.9716777989615 -81127.4034707317 14311.843417098196 -6201.023141770575 -26187.527227474926 165781.6491040698 -12460.302645456193 7961.864215130045 -5439.692703441871 15188.660078089672 89863.49520474783 -74286.07891909657 9485.79457258472 177643.78223203658 14906.694710690947 -95646.41915866692 -182331.09532956686 -7801.900708573306 25373.133955055106 13066.541068032277 -368.3607151446756 -8928.6968452062 77216.1118344369 -5811.586744538428 3659.8040538127193 -14922.39257913613 -172595.54539569782 -14923.284532466325 512.3892539403253 7635.272844305765 116954.07471800836 186.95373686991306 19821.62657021295 -16180.660348904728 2988.4485043732557 3618.112453752472 7898.102903239647 -4149.576325377075 -2647.739125346591 -8142.072470507905 11343.077360849205 4555.26509540605 -84027.15959155165 116106.26820270531 -6233.880082896906 -174216.59721859233 -175423.49103071273 -25430.07132518972 2620.871023677123 92006.43588072596 -83608.60801114528 -6567.826809743411 90094.75974741262 -6609.137876533864 166212.2019678951 172793.0231467451 1986.0158705169242 110252.5590916783 -130771.01835647858 14910.929391230295 -12599.870654427763 1912.578012952665 179823.64640385698 -5648.03610833317 -14845.33768703867 -4185.137470079392 -190419.22505367204 1335.0481785259028 -89961.06580142344 113312.7357715232 -78929.50732401699 14925.435842135832 -4147.152632682242 -99857.61509139552 -21594.8598872806 -106285.10549850317 182089.32120998728 183846.32158244058 20070.261974138943 165873.22824350107 85177.94270316906 -105618.1897788754 -185802.53527656454 695.4239791777454 -34869.83150476608 -10703.703964741504 187623.81241498713 6483.720175061231 -177819.380753965 5650.765597759235 -14380.308788702798 -14976.969327345882 7154.947961365565 -15628.778574771857 -94828.24871805307 5583.846539718937 2985.5327382370865 19725.18842191885 434.2924798725037 79971.41444601274 -173191.55356793752 509.6960460921905 5494.102568474121 -7601.677036373471 -103815.6497277236 15514.269096195016 -87448.92140764125 8661.833767002 -16722.00111030824 1381.7816261329062 -23477.931441943398 1384.178724924466 23477.263610879916 -7750.719579456257 77003.24585538446 1781.3964145042428 183730.25729039128 12925.583604305748 65667.57729240991 -9624.21636433324 8627.941827160967 -101186.42113192922 10448.254267025433 15984.192236625135 6745.553445475003 82013.64423834164 -173126.840052894 -7897.113874661358 8586.392331992074 179625.09089608485 181858.64082922688 14368.237886672807 69829.32640387752 170509.02381879266 2968.729541902223 -180849.52228095836 103660.33313665263 7258.265904242144 172637.59218717768 -84968.42639742016 -1955.4523839672215 157888.982014713 6923.999429059934 2444.997052977686 93929.24430866791 12129.825208903876 4702.402107883246 -97819.27133710972 -186935.982668228 -9195.569099330076 7318.138981351205 175434.0585453082 -181244.4928232188 7367.030835520737 -102109.955815321 -2319.498567862927 4224.735162696452 -1572.869685551204 4435.227650230328 8445.073258620416 -31.893639716857535 -69604.78890787212 192760.6181134252 -1281.1887907083901 6163.3931341504085 94679.79707049798 -172359.2799139942 -15708.771143943603 10027.300978213689 -160494.26159265614 7184.254788893933 8992.01809883689 -4903.115979932085 -81892.29956489617 87905.43435527771 -4202.0838003593235 -25170.874479947364 257182.9292147244 3104.319525962358 13723.468701745955 -180419.81721403648 -4558.64342673438 5881.418605408808 -197945.59513563194
-15709.633237925664 -1900.8453780793711 10475.99018505515 2774.4519770269135 4336.708764326733 -17068.619862491945 -1788.4752530482485 -797.5173735446119 -5525.617794704931 -225.19711434136568 5784.365747043003 8867.492584602449 -3490.576159720763 -2686.8401451347704 -13685.20384225917 27330.819597862403 1009.1819734839354 11932.764448466003 -8098.2750188229165 -5265.946043303153 1302.0031214353523 -6494.920435018572 -422.3707620289245 -23720.727510698463 -1658.9197864735863 -10071.301897618026 -17556.266903951582 17879.05507963779 29862.513563519646 -18413.7302375243 -11947.698945529051 2507.176703309539 9132.273268925366 -17182.822743087767 -6623.3552890818555 6264.929448626976 8357.759035304356 4277.333826355416 -3103.533060391812 -1900.3110848031715 27815.01802309163 -6424.701253623353 -4856.18322536808 17909.39123869089 -8381.174576553485 -13665.258247615582 -13755.512158279476 -12997.197806667516 20461.964512403614 -14322.238630946737 11650.034875965674 -10695.643028209523 13525.264841981307 8658.729920900949 -9898.113203000363 12377.740638313171 -3799.668418752536 3197.173724233313 -4020.014798526822 22839.71571397036 12803.870576255678 -5494.806062980226 -11300.586953903763 -7981.737290574069 -6430.393783102505 3080.751389699716 -12772.52649261873 -4566.2467870586 -11851.449063641801 3974.6345973214366 -2547.2873298946884 388.3418432622109 6991.364100395172 16524.989541692044 -10386.33969788274 6694.8025854637 442.55284426392154 12390.070096798898 -244.02918790148982 -11895.161094580139 -11816.736702900598 16902.498061575116 7102.20301682275 19707.937659676987 4293.199494815904 -8333.84140826457 18068.57827902144 21261.30482919518 -17207.632263959193 8922.380501417649 2475.993412616951 11288.577019373704 -10398.989327151981 8869.167183707506 -16254.506423582645 -1143.6798716427716 -9951.802911587793 1651.0205862563537 855.0527272229167 -20001.750534564897 15365.860722606954 -5400.934012931677 -4856.090624163733 -5374.144015159742 9874.946564556827 -3201.65245344703 3626.4457245994854 10413.01675963139 492.89679492199065 3793.2765991236065 2906.4169575639303 15115.182197097189 7305.433548883997 -2629.609628603018 7902.137819793615 -13779.747592598476 5956.153096856523 1641.9008025028002 294.98874859703596 16031.194544457849 -18741.191844589175 -9678.849078109008 196.8582690158616 3409.4020175056166 8245.34924182255 -26069.26896217121 -5568.521747846935 10715.137694320078 17116.94489121964 -8653.617695664012 5536.71210474068 -10716.20063670398 -8880.03786366511 3377.6714268605615 -1119.9959872041604 12114.618057185597 8305.89147678205 170.82073339056876 9961.614242598587 -1353.19591582018 -6913.966582491316 -1760.6895535140939 -5261.535920371225 2998.4725974801913 -9805.438679996954 -4795.502934591979 10357.411822416438 5188.959585500583 3831.4343982586506 -7006.5414561992275 7277.5687263288855 -18540.479330659837 -7106.410994434941 7438.223851807891 3440.428707904405 -7511.173471647502 -4553.533332498158 -6224.190148467651 4298.390811898016 -21493.76276590696 -7453.742742998598 743.7161159859313 -24262.12634685938 7923.543447241726 8238.669950062023 -1148.1725505492643 -2455.897027761718 22974.994364121892 1407.1232668968332 1680.5450542835792 -14448.573438569356 -4171.17249510237 8025.6844593980495 -19608.35433032348 -12565.281071636266 3974.9195510007075 9112.655499322655 480.2188538537075 -5542.048418232713 -4055.407478709232 6849.134922750559 3010.870090571468 -16272.306393572388 -10711.997812913056 -10782.658624233345 -13904.04091970326 12412.02194019717 3366.4947388463775 10719.396847931012 -124.60208726000246 -4137.989591745206 -2291.4076855120784 6211.960575433323 -3666.0756854931424 5425.7476415654 -6611.018343970508 -66.6895160730345 608.010653187559 -11061.25040011166 3475.121984341623 8428.106379699815 -7471.243870174808 24883.03794923025 6351.868499996869 7723.2407511180045 -1199.3728878900433 11748.759728974159 11285.407841869903 -11786.811269847545 5557.464081669015 14836.68406551101 9422.629572456002 3958.824448758298 -2336.822754009203 4699.679398376182 -4163.288384731729 -6924.103956596948 -5811.679440881275 -12832.13894674661 6517.0022774766485 14406.818915818492 8032.191376751809 -6894.845985419419 3959.919952147326 -5300.246822127186
69374.38706187972 735.2840209235368 -81075.24782382084 577.3471211015028 -58648.58549413139 -13275.932034981288 -107571.18680572056 281.7032200446638 -10349.527147418377 4103.516686905421 -71939.97125130518 -85658.29842478 -93511.20123032338 13390.976252364117 80903.85715312764 21379.549160758568 -11574.1615931331 17489.67193076508 -102607.93343519 -4461.6488076065125 43119.497357964414 -3000.638745055455 -61754.66828815318 63536.695237672786 89103.12741577289 -3887.284833221399 -17142.265691731405 7408.981483309381 -65238.71469820679 -3939.4428261477815 -6853.517585879032 -5589.572045557825 -4628.599010747613 714.5218235037084 -3744.830220155367 5603.71561425899 3834.4117650801763 13482.770027953891 66906.61242590068 -7032.131866064096 17181.180976604504 64483.64043259436 10525.425961613731 10645.513294928554 2322.9538539399996 -31252.629698946523 -9598.049076296935 -12955.85679573622 -185.4538432816414 5747.599652744054 1606.1936000014034 89412.35190177146 -65503.56736879771 7983.493430070656 974.1806441294594 9905.663419775434 -85718.76470128719 -728.6631548482028 -3406.1933055927725 21598.901869115864 2521.6672193488616 -68749.22350417735 -7359.611898813706 69052.18370711325 1291.8634336507364 3316.357352683624 -8059.000372702874 -1961.4756210161604 -9278.48763282332 5671.7901644579115 -1455.2233848199994 10441.938904922936 -107.02847980620572 12711.22651471735 55692.9138100957 3110.9643194431537 1179.0902039569246 22079.314456899596 5442.020178287694 2322.1817286815995 -13573.26300989561 12933.671944680706 68513.90971221054 -77432.12741117498 -5883.440829645602 3764.1355617854197 3182.346142759939 -84011.27406334807 -20219.376129836102 -51.22071341641788 77477.54374580747 -77524.37746880646 -8140.2901631226 78215.45310266192 -26274.27836921983 -6948.437643886102 -11343.813401618576 -4912.209103473918 -7023.541872612703 -8553.249611946676 10138.327156412568 -11353.011380967217 -7140.898653259025 2401.362694606378 -5418.402886924839 -1979.1268881795693 5117.039372637217 -2537.4655235346563 7465.5034509042825 93073.61421659683 4926.50719645727 -67407.87883139362 105171.83016688164 -99241.48491340573 3926.1725254973812 -10922.682150368277 -119.99161654723093 7116.763057441059 4696.060125816298 14965.994701541616 -7066.073436798786 76993.08566446899 -8203.989578329001 1339.6005518747477 9781.365565689626 -13264.183038229714 -414.7522096558795 17206.77022642592 10598.87545260753 -9222.143474495617 3581.990099240209 -20408.439485756477 -16434.40161756353 -5718.066648988794 -6291.143391944463 5648.4700279446915 3533.5977395107993 -4913.90718166322 8673.373365221245 -63874.15865467211 74999.01867465538 4834.386710463852 -2921.041096229994 231.6472165223788 -18060.472465145423 -91064.80391277444 489.0201258160986 -69387.36679987184 2008.1976038379612 2670.7303071625824 7928.643648606808 -13575.784021952548 -2890.492116775805 2234.314752437889 -10383.644692141723 8774.220260466645 245.08216395104546 -1769.569827400469 18631.97454954111 58853.681688590514 -8114.5536958657085 8549.472408430815 -105885.82520357207 1698.3958576483105 22172.12228398101 12186.957747722085 4667.931276416327 4295.8002518617395 1679.7616216864421 1393.7619541299937 1603.8781123571248 -338.4473085628464 4441.603291378129 73704.41159808294 -10262.615183031145 -3421.342070896619 -1082.1677707168442 -3365.2428354437743 6081.256834430049 -10755.200054403342 -74271.82863853844 -4232.889917681704 -1709.8282113402036 1061.901976928139 -6311.1995056557835 85154.17892812131 16144.400236306947 1710.2231031421063 -86082.47774472163 -2480.210188012896 94665.31247176518 1719.6655707688435 69309.14009667994 -4409.873528831792 11798.114608175294 71382.36850219248 -4877.367580213132 -5677.224731321271 -3620.2301102532356 -774.0225918783501 6566.943324919201 -2207.860696597646 -169412.87220088005 20650.09699287011 -88698.99227285391 8839.22900376307 83593.99062762014 2427.825501492466 -13534.934763064397 8864.13286345332 120149.75726571577 4779.028918184657 18303.193707440198 -9215.885239034586 -82065.94282871539 78833.7725443812 -11756.631934981513 -106625.46950952732 78967.11568682462 -579.4136873867296 16475.393562056615 10180.080076081857 -2772.1249077017355 63622.55276478916 93737.3520898368
-3222.8785340909963 -3147.1631419367677 10470.318293530538 -85446.75867409265 7807.616617816551 -14763.980954266324 77467.66591048517 64259.95771415458 71380.49729508847 -531.9822449933235 -2456.080003726738 9169.224130943492 55553.17817572301 62331.34753272225 -156532.5296836275 11702.63124815953 -3969.2848510058197 21134.346116136086 83977.61899922458 -72450.23197107424 7806.268842261698 -738.2493090137574 7001.773488241891 -27557.35579019522 62498.565705829205 -13263.41581486434 -30856.730393579885 13594.768343028374 88505.62812429678 -17982.07525988674 -9153.843341935515 12555.971808698796 -52094.33041655888 15850.312353663685 -22899.554283111418 8056.4546178937535 20051.315301828872 80306.08415093986 20169.62962236024 -4459.167943122748 18806.14109575007 2496.2093105667827 -6933.579147479546 25560.70700508104 83446.24019575001 -29580.47773673087 -83840.47161867896 -77617.59756990569 -51477.36596450605 -79230.90572207076 72494.54542807913 18787.679925768873 1396.3306591767814 5438.9861713153605 -13630.596846627604 -42945.498555752085 -6462.240052513822 -51275.50121178463 -92263.53494736721 29233.179970270787 20517.26584294846 65844.09162747487 49039.028971330365 -77551.60698528173 336.38609639215395 15855.920022395154 -11284.475543294644 -14691.128346650097 -6717.83243803668 -43456.1201653965 -7349.363852830558 72014.35414795145 -4580.173558134917 11710.874447406404 6032.025360222717 -1055.6461481627884 -3025.5938882409578 93166.68689758175 90424.13809523678 7064.014014518688 2837.386861090794 14959.338385891186 55873.0167752609 652.5469072097443 8210.653535842941 -8271.310612405245 -84218.18629595125 -7322.6616734974705 -17230.566712520063 10152.848289344978 1843.1940424551135 5565.214449037436 -89980.34898071553 -87066.52731770562 -17861.87488625996 -81017.43094375276 76652.70467684967 82027.70263213723 -1286.073000918824 -9749.71783956883 375.48656644458265 -85605.34536804496 3495.749915111273 -8055.738690305837 -88236.53371483985 -5788.351225522432 3790.463301744036 5441.0560375188015 -37643.7573495706 40686.11554978157 7600.17281402044 21253.69725716425 -83546.86920842006 -42872.6582871108 1628.7847679979475 60909.45902602209 -85795.39858509833 7777.223478023801 6026.345081534885 19823.00784438488 51731.63771473137 -16974.39784416273 -10800.170794913718 -12500.943767075314 9499.92338666433 -12835.711198679008 18728.91485822935 13392.904861602801 8736.373033843025 84479.70094491744 3963.0990178506763 48406.53346613808 32625.558352083823 -273.578581672108 -5696.894024446427 3947.2979476899654 7226.119869010695 44988.248253099955 69565.8021271743 -1794.6062607692327 -3852.221648993822 15510.231496687802 899.0133404038374 84800.99599188108 115190.28315224909 -5620.214190043068 66618.34687974199 -76388.89094056311 11709.622402134633 -92014.86993948091 -3215.551654473564 -16883.363016029383 -3779.0108710497907 -3188.5591778817566 71141.33521341803 -91145.46855104867 9131.231799589144 6478.193617074238 12995.554733231407 -18932.992946328766 -13482.318259126156 -2750.313219440335 -12061.106741373014 1970.7895593362462 106143.92542345721 3094.7713116181158 -10049.14591126915 8222.206798062776 -79325.86882548642 4022.207920659188 2139.493150849449 -2827.9263888680557 4407.052121260876 -11764.330355207969 -88402.33452473578 10787.183938818236 -61158.254384758926 -5522.322456864301 -77283.90457738185 2459.731756029767 -4586.531747609077 -46893.967440188106 -4719.315150857185 -1414.302008255189 -46946.197567843774 1461.0133980529445 11061.46767816106 2454.8568327163007 -26605.06031804784 -74907.4974708833 74180.77434908634 3431.1569438071074 -4315.60219114241 -7324.173591985822 -5784.606318571588 -814.9645964123547 -47443.25480325874 4286.261651706284 -10629.538095978407 17826.604341884155 13432.908832015157 -1567.8407408944504 21637.317668317624 11881.303661324991 3153.5706760311323 9583.442639722254 2776.29643981966 5322.117528224571 42250.85916263404 13155.746217578704 4658.039990089524 -20591.151353439895 5448.165385879833 2595.7593847473145 14878.716329371944 -82851.25897120754 -18047.865201066474 -89207.43236926045 64652.69180182976 10889.641990598746 10491.114790287726 48255.24540663129 -22789.332903470942 75625.92960295125 -2912.1520036425677
-10900.998551478784 380.46988609024515 9270.37966392143 -36634.97563557992 -72142.98207070913 -9147.493308872761 7658.324003359869 180982.50727694784 -6046.702982352154 -8653.900430482157 12882.05047163237 4042.954416405088 -17342.36566866814 -393.4389807239062 5825.02267007194 18143.76271257807 -11167.892338894182 11088.175644418376 62310.8489264782 -29456.456525003403 -105634.09015954279 -1300.8340349218965 -105294.28389307702 -19041.80775165765 -3811.266680538643 -7464.613890201524 -20058.70769019672 12969.9320309688 17584.85336415072 -10144.778901243359 -5366.925521423766 12775.07817744251 -8228.583570710536 -15648.256016973191 26583.46564113064 6397.883431305861 5551.103272174884 9524.561831868374 113444.9571957232 61702.58847620051 172988.02769382583 -81822.83004716232 -16429.771263203667 -17699.411882408476 -3780.2436600417664 -13576.679399324372 -4380.645421839922 -13100.29770012838 14073.21675978005 -6742.704529584074 -2939.6764611988215 -6571.305450340173 25290.052649667192 8965.306090089063 2214.643408180431 20252.569863676104 9484.319974699707 3201.24939538105 -9920.873252286154 32737.742425590746 10264.171010393713 -83176.14237975593 -10007.641920707929 -17989.669910998644 -199385.19110302968 7216.240274996521 -15478.393738003306 -22706.286435509282 -1954.3494103717685 -151532.77384359657 -3540.8913126799835 5066.694006800329 3801.714860795339 -27355.7852549059 105944.67154083606 10606.940219504015 -5628.548404532456 14889.543988347627 6209.697620404682 4529.296555738345 -8161.714715974947 7644.2164916275 116649.93300586514 16753.40297499016 12355.394910942243 -8461.854884022972 -27378.795481734316 16875.868906574906 -21408.690760485555 7936.097483829547 56328.94270196971 6567.6316474512905 -9810.044987439398 10318.417922021063 -13204.216983108066 121460.38078162009 -7432.174765493033 1881.661932526971 -62918.22662061156 -4848.64749427729 10321.031557164071 -6389.994371400339 -39400.27517260573 -5478.2186368339135 194127.3854965714 5149.189874098007 -6384.116843672628 -6446.123241731394 5959.9837259487595 -34938.610466185746 -154.1497596941725 25893.590597965052 2205.7102432444626 3215.3805191686542 3797.6936406639466 29763.468722320715 5876.207698792187 4101.076824982828 43622.63059040109 17722.03462345277 -4618.284918223119 175204.44662251952 -196049.2576075207 -42577.1286337514 1560.974429659585 -20921.00847714025 1602.1470997917115 18978.711333163134 -24435.98697370738 -5345.3350350265155 -35154.4958696282 -19605.266437210375 54823.058707595614 -11727.096398978885 -6991.895375373403 -2463.323445354463 4510.237947198538 -7317.074140365273 -176522.11108501945 -101682.2886677752 -4361.315930302135 -6493.914118703467 -5583.535692632928 16272.427069057016 -16248.781331553093 56476.77497108767 6198.680897978017 -186544.18137665698 37712.45331614417 -4174.343872502402 135031.51614232012 39671.749889849576 35846.62043606129 -37062.45026265372 -13142.00183941251 -127698.08348931876 -435.9603755133759 -68728.17843698527 12664.543943654644 7657.324018686973 -39453.226225265826 189639.1983614367 171187.40063642527 6352.203831282684 19188.49214324126 6847.238597057254 -4792.9428327762 9361.272207273007 8337.982595776743 -62630.15366884727 454.32012581144477 5248.4477311656065 4776.074403474664 28415.580269560724 -6472.190604095588 -1690.900936246246 15893.113058068177 36340.05358550255 -346.372427608145 -2418.9287244797656 2414.2938183060555 40111.61422162776 -18410.221799299983 2146.460108997917 1987.8179466076417 -193947.1251476467 13875.022520342536 -254.68353978971285 -6702.847796877333 -7206.062382009583 -4852.045773832782 1001.0620470308777 112084.31790362783 -2360.9158983355096 -3425.357786340555 1748.501748094703 986.302008855697 -846.1016614781188 -13670.7131404793 5502.207357796598 1612.347260161416 -3366.1302084471768 22176.183623456785 -179629.75696649955 7851.912220528542 545.4391254910151 2245.1012063851786 5530.967907937436 -204934.04536103414 10834.857633652045 14209.550623975189 1593.932364351647 13460.41324668116 186508.444799472 -3234.7415118666504 -8887.621197686774 -15261.035153753277 -6970.3600466835405 -5224.826798380433 12367.031039283655 15576.10429464966 -2721.366626038393 4536.389218800357 114391.28963416391 -47219.49656181648
-7911.588007152556 -7744.714869586447 8450.919101671632 -195.5472285157789 8402.214916603181 -14953.34008396828 7836.875633190033 2712.5596659834127 -3565.3830287119827 322.7401845986399 -7068.151425677641 17328.001139861633 -5830.366511025134 1032.6698546064267 1241.1058103113978 19649.293620077562 -4354.537741868162 12483.626888102204 -8435.721888354941 4102.411631533732 -2746.7911545387706 -14272.18508184704 2713.610424311498 -23964.320554399037 6167.084228832568 -16221.328134061005 -21824.16735929673 21993.401452941584 15144.61302369638 -8393.865139585496 -9187.265545240367 -1009.6192713345181 246.03600703249575 -5130.548955720697 -10756.106750776056 6183.67781043967 10667.46481867341 15028.850492249861 10323.486650534795 -5300.317648935205 20772.493647123014 5288.927471876757 7690.049603226898 8656.578005359384 3202.384107867505 -22016.078967186495 -5092.265280214646 -15516.086051317772 9873.519471159922 5173.053621438029 2787.8784002183575 -6545.287462043841 20522.759552266918 -2345.5632211665907 -2642.212848788714 13722.355031050967 1751.9874195568698 -6272.51666020342 -11566.04548735819 26602.399627784613 12960.157593382686 1197.0314261532253 -5457.632816275449 -3748.4797760838783 1581.850846951849 8782.134447949742 -8404.553293171984 -2195.2883456333116 -6276.137332451441 6540.890366157405 1298.0568267727183 -158.08660509968269 2569.7108939694463 1945.8942528365 -6079.9313743046905 -695.4484050626162 4378.229318404366 5511.132159366161 4169.91675350619 -2065.7596209613607 -4650.262353380154 10515.084512345658 5309.619160047932 7304.268186941647 5766.174162884558 -8098.13692246393 1185.7274198897821 3301.834484776892 -22867.948824921576 7088.32176153134 -3956.8082488477157 11518.312230410982 -10660.747031989109 3285.4145920407555 -12952.686808002298 -5495.59896519965 -4886.602934756866 6667.177971343289 10116.756064029723 -6287.461620983727 9958.940650000854 -15876.260757445123 -4286.663655282481 -8474.592878544096 -2678.944886476909 -4780.136029025616 1265.4535938540757 4971.701474163473 8508.475005909808 -7869.8908750447035 4828.4172122069085 15658.00457285922 3116.525331875697 9940.434263822033 126.88253797946243 -21697.88584680975 -716.901944300037 1119.6178459477132 12501.85052535957 15894.29761421876 -13860.894403589633 -10154.690703574908 4559.572965634262 -1407.106013131699 4969.590474032131 -23352.9018749965 -9725.45033799367 11875.482820985184 14202.582943689298 -10257.565756484584 -5250.819812247363 -21462.256866307216 -808.9201875528779 8736.48985871591 -3101.3511892397205 6356.157681477975 9181.355031222784 -2438.9826810866953 8641.433875845323 -6540.645317269826 -264.0309308596461 -5719.901440096915 -1271.3253026652988 9859.289695194986 -8595.251407457677 -2939.5255198641034 16801.403413398155 9265.40475005691 6456.659709036016 -3696.3447911458875 6385.9146394193385 -12570.06641015146 -2494.8036508180744 730.2003144072677 -2943.7195165304447 -6903.611020227133 -1214.4663731037729 -1525.6335431596094 -1175.9808961427007 -21398.190995969784 -7926.40011039184 3677.093197742028 -7823.937451486156 -1171.0719151746357 21435.38581464919 12061.383658558394 -10125.1346873019 1016.9543412740335 -4919.392213280645 5587.350386208862 -3488.6843974963863 1265.144759269317 867.0967493678422 -13090.615289599244 -16673.575802756965 -1260.4960544125424 5728.6432609336225 -4150.343704907399 3999.513524691589 -2660.3400599537445 10828.48865094269 -252.5146070649948 -8034.654315765386 1544.057283385716 710.7970593979248 -10726.730292535098 10601.75057087886 1664.0667011436299 -860.2338967805731 -2430.2891494928 -9745.863517910095 42.27562885585303 4323.840300408516 -9586.643648959422 2895.0624277399756 -10473.9673706012 2588.1101190411136 5111.036472085356 -11892.072538511675 -6068.359771229903 8220.318736186335 -457.55375138469606 27742.422134226505 9716.236453017947 2938.4446748565224 11544.675443911772 314.10602954669434 8454.20215801262 -13053.49493439863 14418.276874742283 16326.800911544626 -2323.3283097687586 9519.158195317568 1328.0453336929295 1790.0786147887002 -8397.747939913306 -16755.761335223404 -7083.1187646760145 -3322.540683773699 -8075.037863713522 13694.696522071643 1064.1659464421161 -5462.234291625318 8704.39603023086 -20098.26178970517
72957.13953821876 -1817.7052510676324 5947.673435735185 66318.91603697873 4567.7546072266105 -29914.545036058047 -32905.16303306729 -15052.998331827064 -33673.2518441437 -124562.9671542637 3558.6099859367355 349.4275987101244 -10316.472189656519 14542.409851527162 32975.707413379016 5757.907834870336 124671.82974141909 3551.276040555037 -14469.96129870001 -18110.871615092234 -69678.33567149137 114297.77572805862 10156.205323926322 -36908.066704591896 16681.465825772128 -5949.640087754973 -33692.08347869279 -13664.644009529506 18272.352322180617 -17422.29938687816 -7831.757091226169 -122789.71824941984 881.7287727595151 -1959.863765481444 4600.510294673015 2856.7730734926818 -55611.06693039195 49524.51951838461 40768.45324184079 -15313.254976278515 26016.210171845265 -41591.12826360232 123325.72086215354 6239.351153251747 59531.935173234124 -27876.419036676245 -6364.0651805137395 -17406.29453769961 20620.58693842922 -21098.139361829035 -68460.90480765227 38018.760367320625 -12226.20911509916 -11284.620813908707 -716.8074466872635 -37418.24091584405 -21888.89698782436 -84796.46892508688 -3089.8418644081726 9443.755126007063 51042.50042233729 -11800.270690354195 54580.40882259379 24214.473796163333 -361.8652689529165 5856.852327704363 -11288.92045840751 -17920.633157822984 -25451.813779271433 -7914.321823264503 42349.25779477963 128390.00024670776 12199.968077629475 13302.363973518606 127349.97030554045 29485.144100664427 -17368.805906549762 20878.7349907122 -52474.828415785196 4090.833351754579 -106409.57558437166 23039.998046542416 1901.197906383127 47070.518337126545 97395.26398316862 20602.986798360293 -752.418845796428 13211.382089941912 -19102.948714642593 -12477.282253328674 6395.631657043071 -44014.503119465946 -25268.22582579254 -51973.51942236534 25673.72340094639 116619.12770475683 -11519.00949141455 16784.87449924699 88815.4601629879 -125367.51294547005 26791.725347667532 81059.54589153649 106414.84655963036 -6701.173436473987 14418.78352933482 56178.95392424402 12605.23377735132 -9627.280193957395 -38394.94732000571 -2653.2532264643705 187575.25078525578 -102896.73486749438 -2647.5884215837264 15710.828183932448 -85588.71470128771 -8886.770545198227 -74278.68528623212 7844.525183001727 8273.029208761698 -14392.03809949055 50873.311516045964 -4250.487272007159 -96093.24623569199 -7384.24515588619 67814.73454829995 -50678.82246159025 -1794.590648257883 -14662.397729727958 65382.764196987744 -9078.98165223859 46649.26751868509 -104504.64952470077 -2482.0782944608054 12470.630896223072 22042.117794673104 -79890.35745289618 13320.610474408246 -15904.830252575171 17658.074486918475 -8438.729009157185 -4050.346309449617 -112773.64212855638 -13976.031254411557 18421.700014316473 -13521.135633525566 -11376.131811382564 -14057.201737979476 -235.3290953896144 5426.649334877007 -34715.67262537175 20399.724901795813 -1539.0873230904624 -10223.089463415643 2340.528437498401 10786.843780877454 10730.896675363056 -31197.353111285913 -4613.643913395507 8953.239911290606 49509.04636027386 -7200.167120101687 7822.024510263855 -18256.536292923975 15835.481084280987 24581.79555155528 10981.116951302647 -6350.296080310958 2982.9192745592363 5214.332598902069 -10863.152123655467 -12994.695054542735 -29915.871279399376 7334.010270935166 5898.595480433816 -13225.95535103543 -22740.98450594611 -20042.850655548023 24620.740765785536 -45521.834138675615 -93957.23802675006 -4058.7693265633734 -9389.140298422144 -7049.051050013934 -3650.2087105578894 1925.3690658716978 1068.2101097944292 -26615.780761065642 -3442.1041750833488 158150.24025089052 -14415.56384038895 95938.65110864685 -8834.29552670182 -8723.18252222858 -11110.003037216311 -122285.69295419398 -8184.17173502604 -1736.7162583427512 5098.242170328693 -7759.1417721510115 -63181.2000590761 1955.6040989997418 -7780.476555952849 35091.283637073335 7882.686107945035 15839.468679432599 5765.496608252009 25853.054670909798 7030.0705727686645 -34517.89555166654 14306.544817837954 -10995.782727423311 6213.261139658312 20187.348985264183 -6721.510651899035 -119432.93844253097 6651.806060812827 119340.26175074813 -16109.410679185896 -9117.031743974878 -3191.286905241964 27130.719098506994 -27281.963813953742 -7472.763212926182 -45907.72442945745 -7722.064944082975
-63981.95965434648 -445035.5073589344 -3218.4256643691815 -12116.411543017533 -548176.7702641702 -32378.035841937228 -104353.51780159624 138132.21127423344 -424355.2092467381 -150245.6912330813 392619.7166816256 -1379.4391748036026 324687.165300203 -1471.458154281138 -3766.9487393461905 109066.1044382754 279961.3153809453 93746.33226200113 -101941.74205921454 -4570.042286791344 37261.674055161246 -89998.0342729672 353694.54897130723 -13400.122160227998 -143443.15126086248 210454.0723639551 -31803.382809246497 -298415.20549005043 -362810.6693090149 -285089.76476224844 -44979.04385688169 -599574.4133196682 138888.9887204681 -18909.983020526866 -549.8064091260458 -5022.502394146351 9524.40017089288 274955.3265698561 -303024.20884379535 -88118.55280727739 -33269.31191609861 -575740.2498703637 84379.85057423537 -275861.9753046987 39895.740032820264 -67749.41968052211 173074.99835121617 -10521.826604599688 -184513.54780096075 313296.78825114976 126509.21281326438 -84097.99579222917 -218415.78598400907 -187798.54550107603 -9607.949054141563 -232435.28634719359 52822.71902593805 -69646.99687249011 415265.85890287784 -507606.8747956625 145468.17999056622 -309027.27219454496 265720.7877258495 382048.431566799 95622.74960201327 5594.2014049672625 414866.37782369304 129208.2545832984 -4996.114721218384 216538.39442879212 107414.68456872656 3092.992899303264 -92963.50838883908 -50474.51455404677 189624.60242108937 -1579.1596354724352 -79140.89561570584 135097.52028475679 203487.07685593163 318644.64880567684 -94164.5662065943 593029.9100450964 630893.6463755986 -170885.71850916746 3640.3606533358975 -126327.21367513003 -538136.4830885975 9337.296121282137 -28381.537372258994 -310585.1981173222 -105374.70810993524 -26508.933857110274 268546.99991136405 -145308.00114497772 -38063.42828514087 305298.28479576885 56403.0695269721 -103805.99503653384 85535.80593242001 149584.91324390177 547513.2848451982 -243895.30308626968 172874.5948647362 11258.934110643106 -321626.89257690636 54922.06677829512 -45079.416859025216 290974.5444814919 417861.45505983604 106058.7352121291 219410.2116702747 -178283.2152632559 -21233.216180570646 6706.331029844855 14575.603842133696 -43036.56070286061 -124299.37009106862 -76646.9719488693 -74679.62596239473 161540.76744454762 500562.4503139631 -72408.6590598752 -4026.936471935558 -430160.7994467859 -306911.6370597741 250636.20494780046 -88457.95396233145 -142592.7990473588 9099.198845866931 316505.8643472977 -4866.843568082585 -349780.11697881366 50197.55371387537 336434.43330231437 -9668.384814575491 23732.61019980405 -269417.2605788117 164402.53440001956 53992.463914908025 -38641.8310718275 -6707.491449749809 -194208.58957176594 373024.65435515443 45989.44163003458 134799.74267356718 542167.2326242045 -200995.86811484527 -209239.83751185634 65702.18109801416 -11347.627183279208 480161.05195367057 -21210.245816458173 -181953.14096868705 -227386.89237759958 -112593.86261600803 -35588.41928547244 -79298.43590760704 130219.78741715486 8106.605431095173 63438.68452886967 418917.4200606972 -199944.18315631733 -88208.53723565089 277150.6394029891 88248.09561353846 382480.0582881602 -325210.4258302795 -399403.42075565207 -21922.307192792054 3804.492121918949 -64348.043076388116 -506305.8402371518 6297.012394947144 157684.77683850564 -1390.6403771823177 -23930.270142235775 -196058.74777816064 102559.85158911861 123706.17319177298 86924.11330694612 -3930.5254937825134 100415.20467978889 -15441.588295394178 -615.5396966768537 -539469.7705871349 531043.4260628866 482746.1091201045 -551601.0281146675 235521.00682961708 -547050.8071488633 227955.96390375803 207311.23485810246 134009.74647955503 -285996.5423936328 373533.289449051 377102.80916447006 -9963.786025110536 -545609.3874664918 590191.4559509858 -577623.2341955508 -334126.0941562595 78416.96961966368 -385989.0932613027 -71178.86993878828 122671.66222824514 68315.62197423566 198559.1887994064 -337224.8792016894 -330114.73904532683 416312.99859828345 -248269.59032837124 -100844.49899373266 -71391.9774664813 -9634.919289105881 -156286.3028683589 212078.87831147437 197793.04503376075 -462121.69531117636 349273.2978637695 -118522.81842095357 -183553.35434166508 74288.35070595038 -32807.86442578554 263331.45262034837 7600.550498692073
-7842.61956595606 2572.1509505434838 11494.60834700229 293.6999215546105 3103.1439452017103 -19050.859331646425 3762.863264840899 -8698.856602823415 -1851.6981781869458 1132.3348888280848 8245.547431976553 11714.780231614788 -8570.748898060396 12269.29256131207 -9002.803074230673 18799.362410142996 -14968.675564458255 8480.890179209922 3348.285799766423 -5277.9478191297 8944.4876536162 -12022.344821701576 -2154.55801478687 -21098.800060758604 5331.4259598404215 -7450.648000733112 -15866.72396239609 13836.384696967318 13302.401287816769 -15261.097333315542 -7250.0056658862995 2786.2711000301947 -1273.0910369003832 -10996.716157006158 -9784.536866208378 -5444.257151553573 12524.440336308226 5751.306306377629 9179.657969834463 803.5409111121564 22349.081455561896 -4398.241874717446 -3399.8047452025385 10159.928116506335 -7956.045864069242 -25288.848710039754 -6374.476296616361 -13049.320255109365 15373.821917196765 -273.0566780403811 12975.910754706014 -3427.5718937447455 27745.39880720313 1127.2094043377874 -7531.460826168372 13729.162336888834 -824.3454836570513 9692.161858473291 -13462.97007922267 15885.661410562065 7496.161194177666 -5058.956527409955 4552.123790848132 -10940.798669334039 -396.3793229615288 3676.185118447865 -540.1848522286406 2897.6691184095553 -2778.265308940759 1226.097609744712 -3910.595481769141 11378.486667821968 2653.5831465193714 4630.320146822778 -11841.171264036484 7034.21539261305 2984.9462394559328 9685.740674799927 12136.128581868925 2564.3201275770402 382.93375388707597 10457.545936082457 1181.762382722502 4841.104305794954 6962.7802393980655 -3857.637265026213 790.2400480906815 8144.270309771302 -27295.582971745403 -7173.395981133456 -2555.898147656705 11536.390557400846 -5319.598570475848 1095.765465953366 -8360.681568971599 -21982.20053921988 -1738.6658262198807 6536.345661178313 184.20690926697299 -10639.301705651198 15218.120840118787 -5718.9673742568775 -6815.0421533613235 -7182.804898809952 -898.2842122938489 2701.2264554698413 -8055.2512332637025 6098.175162388722 6093.340404023397 -2331.1101722021945 7445.414606914275 16060.64529442998 5689.648697287538 4019.8466874936857 3929.854042299748 -15752.398285711744 -864.5208696681716 -3403.718373043463 5804.932428293077 7142.919720362364 -22320.36734015455 -8605.455835130135 -14066.209519046535 -5835.001240378777 -2973.8888546816465 -18344.278008743637 -13883.602099212456 7654.535512877488 5405.727673645605 6604.568666062037 419.33567780714594 -7647.829166284461 -11222.878917728178 247.18371909562964 -4317.444047435863 10788.366891005542 12072.644284820337 356.96301448314455 13253.18494178739 -1193.30226565108 -7716.887159711271 6694.021357207491 -1547.6553230735433 10390.75584774445 -15897.5798457264 -7849.584637117987 5397.941028441148 9536.808432687976 -2534.094454109854 -11932.502352988633 6825.994537547758 -8519.657883316366 6550.331170534709 8369.744762140594 -6614.989322371856 -10073.724140803892 -71.84054126869702 -11611.162764627728 4320.66407957012 -20206.389995517024 -11211.97703377944 9899.868047541659 -18805.480079814934 2398.3026473531836 13068.93632170407 7359.066479346604 -16981.576119926674 11506.412493870885 1605.748976293737 975.045099763086 -8658.123575291429 -7894.226456904389 7667.565786807467 -4587.630998204312 -14923.396492351818 6756.627153956114 -2771.0852891646778 6368.628449852273 6138.2906104344365 -7952.586225297142 3420.1056494202476 -5935.491247860821 -9146.086305115059 3793.6256832787317 7750.051514055785 116.53016547403809 17570.211264377514 -7131.788152735096 256.8838094184366 464.65972775929396 -5817.925756540757 -1014.3871185153571 4648.970451289236 -536.8334937674445 10538.153094512181 280.9823681162213 -2997.4940585261215 5262.254975185752 -8400.191935985069 5479.7598436263115 -576.8683534841065 -2347.4928886551374 12261.017985443943 9054.731185759243 6536.431560687758 6150.647423543638 5899.903721564971 -3403.6802894502675 -11567.957909512937 9860.567267547322 16944.73647653122 -1790.114159474796 6990.96363278934 -1047.867289728199 10154.579318387247 -5313.117284234538 -7039.028074963918 -5169.149579445636 -15086.343445946204 13325.832185260646 10099.38051273429 9367.244658594353 2956.8911996474417 1363.3103733766595 -8106.3879325756625
1296.6728477121824 2507.3763148486423 8776.558796208335 6760.580817958059 955.9383041586477 -4352.501291504989 -2694.36319583148 -7042.992611692342 -13290.983623729802 13270.222625801327 671.2286684825679 9114.044611085621 -8693.072458152967 -2077.8784240733994 -9300.243732713378 11274.490305580628 -7370.8488754197315 9130.20823777727 -3883.0864452511305 2845.6898317929586 5934.408299215681 -13188.871148463964 762.2208550374702 -16751.85737351542 -3759.9395472995866 -9401.039323444826 -29324.60822523633 17710.20166692835 24030.02960753746 -16551.91159287526 -7609.774466060979 10636.221735537856 -1937.4173754791468 -12406.790341447473 -8973.362398169838 4378.689267496073 8279.080256442192 3958.1248062293143 9204.249563620757 -9569.04435854409 25023.16954348163 2722.0261186586604 893.1493558388365 15474.317293605356 -3844.25418600997 -20185.23402514847 -11228.841847681497 -13696.398002088847 7173.781640772838 -7179.0454361454495 4239.72640573533 -6107.891284210296 12631.609078684558 1784.563300484697 -9358.684954630928 12357.45840780187 -3533.0917919651993 -2421.916124867428 -15507.500064634542 23139.209915511667 16142.547297708288 -10709.812732589882 -12767.781919760111 -16085.231722402463 -5437.787849087311 60.315677955282354 -10843.797976296537 -3987.4976528236493 -14731.395656881627 3514.5401616687295 -5088.657793956696 7804.378883039028 6348.844218035321 23692.07319745511 -8303.135046836787 10790.122066350761 1106.1406015848029 13715.717021734958 14640.163896451415 -761.8358129661282 1203.456048215258 3051.2269772479012 9960.147687280449 13815.5818563678 5774.518125006346 486.29711387756424 16659.66810947534 9858.964136302573 -18846.64271634775 5302.304719412532 -6349.177567351281 10531.798466198883 -5908.377723939567 2776.4790217917025 -13116.438474396986 -10689.140780144551 -7877.296374412404 8412.327999607904 7480.519906248445 -16278.884926987192 4382.186821479894 -6666.976728190884 -1962.8542296681733 -4692.5882335978295 2800.193993917003 -9979.144988046111 -1349.349717455792 5693.368947628778 -7593.286643967023 -4283.343258833453 3875.1982680911597 10910.181785860246 10816.2841600879 -5365.638871239612 3950.2033371224475 -15703.505224529728 3612.6304501155387 3693.0878236424287 6596.416148489417 20384.12860772223 -11298.455231710514 -6868.875646438325 -12286.196841568428 6074.481841109625 6297.086519749565 -22150.154366534993 -13473.66947021864 3861.527615408342 10710.332947899411 -3010.3624236118585 3802.224814967646 -9508.687444732064 -9409.890085938068 -87.79652779359589 4704.76183826024 7763.87356400499 4382.334604726595 3346.454715131651 13250.899608409869 2499.5153591213966 -3386.9843620672054 9219.126619543516 -11359.8814688949 19416.4037517225 -12779.243022686565 -6613.076963523039 15824.3167036636 -2481.0252294976945 2008.4040414022797 -4060.949643595306 11456.436149636049 -8507.899522531054 -7581.277138517566 8151.319300812533 214.73587454540146 -15668.225328379092 6774.685292876248 -5138.681976452097 1475.2926646426195 -23310.982670322777 -12471.043194058631 6082.017078074669 -24452.796347591513 9690.896669948215 10382.911084124564 4025.2518025211502 -4466.23375274333 19512.4874361967 7305.058307925419 5157.499259793972 -14851.861330108299 -1492.8780616785832 3930.9413481674087 -15399.524451201973 -2952.270385540318 19298.892214383184 -387.83321123801306 -12507.108047275446 3530.349182339428 -10755.476021573482 2217.5399546123426 -8638.43888214639 -13164.149127488885 1050.396376657809 5911.947111567836 -7119.384544995182 2581.9365881193853 4390.25735608907 -1882.4848080777647 5370.069003851814 -2161.830157969046 4206.921782654427 1909.8573300774265 -6296.473452291219 -3052.8735143669687 -978.1692964412414 -9911.731113921222 6308.873373998556 -8772.367812584136 -2115.5475315506237 6678.150636129649 -4287.108832329924 25978.623262466896 10060.017695551296 10701.312581094733 8604.388655160366 6182.330877101179 4399.52233980896 -141.1246822120488 7545.0235033965155 20395.11166415911 10688.67439199004 10165.089530312986 -7183.850595524324 4449.554075427435 -3946.5778017409516 -3755.804299284039 -6157.1817479504925 -11141.097726807013 7408.113570927772 10961.592235263737 595.8473852754328 -2680.849745223551 3889.989623492456 -4934.565432182761
-6120.574396790367 -41421.837386446416 10819.576490063393 -18435.398742684112 14699.72682084062 -14408.271220019513 -4935.2816397036595 -3533.9648426343083 -46043.49979792128 -4947.671436350215 15683.217786273095 -723.3630862567112 30054.222173106264 6986.14402372943 -2757.6822001148685 10463.330251208321 -12510.166724381577 12490.077326759267 -5035.851792043751 -15205.469822251944 -7918.195758939316 38598.932751090615 42776.573217962425 -19344.8232534064 -32270.77954122778 -10953.363609346443 -3813.39466517636 24568.804734475256 -6898.687542737216 -5141.93246370309 -6192.845519620686 12569.484462387607 -10321.244222638541 -3275.172083042823 -4344.471969648854 16487.650941688065 11925.879878969083 15464.435562390874 -30621.962274115336 1801.6342064440616 19571.655709726725 -37915.50943927144 -5313.321773600802 11213.102856201109 -1042.5964059299122 -24090.43385455879 13718.481347083984 -15784.956985623034 5094.845914199884 -1435.7069083191075 12065.405719797367 11869.302661901456 -27162.67471327254 -48703.767826807336 -10263.645378525785 6926.475404647511 4147.2444645355 -6125.407091743651 -1572.9031952119926 21408.169219841497 24467.600344477232 -6713.0910544970775 -7136.492462260623 34914.897040781965 -7297.294821343302 16211.95116029312 -24546.099468122102 -3971.452896987717 -5056.167797545968 -10163.309704165824 30028.04050250768 4558.683199944362 10798.173739206042 17634.495174480464 6649.591140424526 3015.004321785163 -8006.547015561265 17326.794511935186 -8224.702931722612 -8680.17632356122 -52389.18939147481 55166.23800074276 48377.08549985692 11082.68424232236 39071.741354805636 -12521.641803142998 9003.188413652992 10845.384852467121 -24596.915412172995 -6779.394999162848 10929.707850623288 -7200.997619145108 -5554.977196599759 3158.6102751570043 -14487.883713360452 159.45287557764686 -1553.6966629807962 9406.967785218823 29928.502964536627 -11784.083223380601 -37522.406921330155 -5021.790319863029 -3775.0750077947428 9317.410505284217 -32650.118303339343 -24029.091906223228 5759.037639600306 -8080.711230477643 1866.200883142379 53522.041809874914 1345.3478084358921 2342.534640495543 -7841.798634761542 -19538.730611816773 -26133.2418876315 -18711.14915873271 43299.32586686868 2325.660319519425 -1773.1876794711739 101445.91389788272 7593.253308108516 -25323.889424548554 -9128.505222557593 -38892.417110183946 17452.28764159039 -13258.264248048023 1799.3709064775865 9823.399257662684 2973.313235878484 -1534.1199672666637 5899.561149275733 -47830.33858934652 -6414.36312713168 38166.715729531206 -9156.561489380923 22144.09815482091 16302.104160582347 -3358.965812800564 54611.120387179115 -23618.768103412334 -15670.355392792226 -33232.972938570274 -2484.0537370836173 579.1189760839607 -11998.456798082607 -15440.23017903075 10983.037942764251 13050.969446597333 13348.008069627602 371.3523622400608 9318.300271355429 -7984.072365759179 -5477.835393120941 12581.144049026816 -4188.105951332649 -2175.7213334801913 1684.050873532483 -4762.186382873667 5733.349395025989 -26087.77573918978 882.8553070199782 174.39396226557756 -9710.539256186332 57271.57512923668 -14788.160015371144 -1475.7951982735499 -4294.967641982822 13662.251889508045 4113.537188987969 -44.27573484302911 -5941.818661641825 37113.86642619223 -506.843204081296 -13153.357785013879 31798.81358154627 -4505.181650274537 -7500.981245813138 785.285490508169 -623.1309658317821 32711.538422478807 6575.052327262228 -745.2038344897737 -41746.78438633054 5169.879816724099 -12481.705327854454 -22015.164295307022 14142.351783979519 -1582.1430226898826 11951.692586698842 -19279.164408282726 -9203.479684384192 -11132.51756068888 -4689.598945900113 -3352.216105780563 2440.1802252768443 -27855.747716187052 -8221.439190345132 2748.302726730776 -56569.23818999434 13353.81952795972 -40387.252786845354 2692.9714261859535 33149.913668343084 -34443.95536550263 5999.766006200131 -2080.924525808181 23943.384293239604 -33400.47498479973 4621.71954657728 27539.86674575599 25072.308698114535 -8749.465083044855 11085.18805973497 -6400.969970854404 13456.538181376663 -7708.349033132625 -6543.324400122668 -36877.03823419798 -28815.011483461716 55771.2862020865 8229.310227503369 -6039.818449921553 -1551.0594688247622 54815.19608613738 -21249.502482951382
-254075.1567119778 -419825.3380030403 537628.6829557719 910097.8636779799 -96380.50498424817 1405081.5183297344 -28303.173018303864 1107826.093228456 279748.9611752236 -329555.9468038043 641669.2963927737 -988047.4038617258 98008.31944568265 -4122.065628712893 712456.1210306974 94853.8349225909 1124650.428616167 -1060648.392040165 1023509.36916177 799820.711303039 -698850.8394083886 548718.4305201045 112551.2924915502 846258.7397558254 1005631.4880814475 -3051.182452775595 901513.7039086258 -1516487.5571039114 -976582.3527091257 -14173.668359612546 -1313647.6711592516 761297.2402814475 -1168884.4681144133 -655737.3003192126 1284658.9399927994 841415.7479191615 -60844.84090611901 -905430.7313981699 999076.072991492 -201333.75263886043 686076.8136261479 -1653319.654292873 29297.509393930835 -300363.34318607324 771893.9037482906 1313306.8974724235 296449.8474374137 -198973.09977801886 122988.4104306311 -1262679.6263142207 964303.9518881873 45901.555379726604 -110089.14897226408 -1501772.264328659 629141.6708796229 -975872.9673039712 -268509.8240655898 146843.44187379914 -326327.9929832907 -1314224.7367578489 -664293.6804049321 -753037.9944330514 970965.228651121 1142769.5720679052 -1196611.9977499703 -407835.3895120278 1081627.8608940714 1556049.826142835 887456.0221034596 860344.5673467221 825251.450706619 -927154.4110582751 -324269.495391535 -1514763.5209806692 338354.5500763668 30561.46645071421 -481038.71861263167 96094.09795748357 186692.35828821338 5667.196229484116 1218327.3660782839 885184.3346481563 520549.34515710024 1430437.7625517491 -270857.0328387574 236383.7959803601 -511094.34315184935 -177834.30958190953 32100.83589732047 -498318.99113186303 168726.70612536278 -776490.6592110489 441056.274800921 -2280296.335586586 1169493.1963174082 -571396.4964212188 2771890.033639851 -796447.8360772729 834557.1415160138 -287847.67132427735 -1307564.654525296 254868.03048862997 -1365691.1218984632 -931011.0457498264 -1227507.435583914 840147.080050127 -1683945.444092553 1341723.4764412974 -113471.67484628348 853084.8125284218 730657.9909294207 -776601.8323960683 -33194.39777630869 -1015541.0354208801 -602311.7677215296 732198.9782733022 325132.4590693823 -1112685.9199006688 -784220.9675771296 238084.24317069902 1696881.6233026083 -926468.8838418482 75052.18082252749 -956872.814014686 -40753.641271971865 217071.1306704057 -337063.61695572396 -373286.39494174474 -658787.183912725 -512360.3228376176 491267.68027919915 343786.23858641635 -255275.5896822547 -521793.99259039876 932521.2018908685 408921.7038459148 22571.871872387073 789958.628424854 700903.3591970282 660751.224732724 466434.9583615074 -1497416.3218464768 -692852.4390328401 43547.27338950243 1228241.334448548 440035.04976923316 -226184.4022049487 -1122327.6436814903 -231178.03076350281 181098.33589198877 -489696.24701814854 1279679.7874747338 1705159.6472708664 -1642891.4236566056 1524498.8272828942 3033.9557517451526 -1466025.7023633295 451132.80402047484 -908229.5437816842 1459766.20878908 -377648.7555122806 -312477.9931700812 511637.91876327875 -844327.6803799774 221944.97225275892 996434.0473351596 498460.26178178424 -221999.29908753792 -274079.0832222178 124817.4198416451 -67644.995337728 292401.32858496613 -1465002.0173674757 2022029.864339212 322437.1921112249 -910715.6051682183 -519852.27742526564 1222763.9302177865 839131.5380502779 895414.9918250446 5762.314952671148 110875.31494181248 586580.8715857816 -51484.727295888704 -836145.2638614097 124582.06937818955 -1650500.5269204332 -181091.1250243747 1229381.5466330585 559547.4201162145 508306.48156409484 131851.43442452513 1105270.9576909984 -389793.40958493965 1319071.1825401043 135195.54072651436 328051.07435485104 944760.0570750687 446902.84844830097 -1336398.855037258 -1646273.58263683 462999.2792229834 -1024787.5379185312 -970008.0242737189 400506.16492428107 889219.2974332941 -1275807.2371726201 -623967.250806286 145637.05801354462 166255.28520992733 -1468647.4208202644 -318250.97966227314 275617.1165009774 -571060.5357440183 -996736.138630828 -384644.50698910706 919404.397361049 -1789819.5462653704 -208285.37515656877 -450008.92217483174 -1282209.9958078368 -758764.6680705091 -4830.587866560618 -476672.7099863099 668932.9919424265
-9691.623556313789 -1439.5935619759125 6224.9975758827995 -4474.548073556937 8631.273399089067 -11387.617359921953 1003.4718549353202 -13423.241980182445 -4006.207617072136 2383.7033698099804 3323.7708918294293 7093.874657199484 -13109.503597806906 2291.4887729077263 -2633.833289340256 12062.352107378068 -4751.435416296838 18111.68372156302 -5383.645233199775 -7153.3621186537885 12823.246037391367 -3821.9777428951443 4438.518363440864 -20904.908435039044 -8573.524654278872 -408.2873148165858 -23176.331546331367 14823.775822830588 22129.079019098823 -17209.71130056008 -3954.0419329458587 6925.371401135059 4984.387804709926 -2524.455040184949 -11357.342202776963 -895.5411650400072 9251.918677208236 9244.099541549074 10385.876608404586 -8903.808121914186 15465.630749526674 -1391.7308891448374 -13613.7161820102 19812.17662343923 4611.121009537824 -19099.098765125425 -6436.917252577921 -12181.025017247854 17725.000120621502 -7725.426936392314 11109.700505320412 -2869.4608069193796 12598.005328458139 2565.6328108775533 -6459.734796685721 16429.03848724819 4382.321396154114 -10763.57536396389 -177.70320576743686 31977.87446778717 11368.353790258265 -12475.508614753397 -4721.170567631049 -12358.407834196136 758.385631286934 -729.2755105630524 -6743.937115444896 -6198.681347876353 -19010.0382888535 1156.2441813835683 -4047.9090108518562 8464.147969409372 -4576.755308334376 11281.38361152567 -2414.366589338645 11688.456010595586 -570.5917178834443 20509.83862060689 3686.174161333078 -3213.621426833537 -12693.358442452052 10995.610895897555 3470.553779625047 4115.274426215859 4442.299294157229 -2326.907477705975 5987.7553894908915 20525.703469484873 -18146.891086593037 7277.167122573341 -1431.0052883316234 8842.59507427799 -1915.3989599803936 -951.8228946112808 -12419.950452879291 -5032.546758186625 -5394.37800384323 5812.202765745999 -1899.4232750946244 -16566.133919085925 5341.928160934893 -6695.456219789121 -6899.381448551493 3727.807097222356 -11626.257763329717 126.65499487638999 -4099.618915411156 -8253.917587899292 4293.430772133909 -5291.856628971307 2786.6990844529278 23821.492574523287 5349.558557149774 1122.6299185168675 8161.7388643022505 -8699.634876641805 956.6834462101697 958.7069250344261 13885.779386240254 18165.367831698924 -17878.658171936644 -7113.979563631121 -2688.399103514394 -3472.5892561131536 4037.333333996029 -24060.280903416482 -11287.953187189682 8936.023773508512 10779.730995048762 9196.418321677818 1611.823535278209 -9208.234385433801 -8813.521714324414 2083.7323829242277 -7246.158503080456 2069.069716070767 9074.275950308172 -2048.1001400461982 12585.7508288529 793.8177950983074 -7047.564155709946 2985.5076912659215 -16082.227560619334 7747.311488308708 -927.0499884592602 -2175.059850657589 11022.347247112713 3099.829049651309 7900.113623788591 -15335.92052260572 3695.0052572543054 -14362.887174967545 452.36384073448244 3905.835184197446 -678.3961790011859 -5291.739001899739 3372.1865448412555 -10257.495736584116 -948.941746499464 -14051.304158573435 -12694.249006956483 3916.9565304663206 -11668.271188687764 17451.83804742403 20074.441191748643 3914.0107879551615 780.9649656466838 4290.502386465483 -3682.466547551354 6181.6320230737765 -9943.685788454068 2685.328439054051 7702.25431888207 -12129.089494096685 -4202.006037769432 10308.006784394207 7539.949093009556 -5862.044860379854 1143.643130978232 1063.5505922683892 11893.961353308732 3097.3936871458745 -16909.564013475854 5150.465410145956 -3600.3105692714926 -1718.2827727184058 17263.64282056684 -602.0273980067258 -9526.397295394308 6849.878201287371 -9479.419192117888 1959.02344207858 -134.08471000701616 -339.9860054784333 4395.322038630744 -9808.00810895499 -1392.7085846456087 547.9855181799154 -11824.254897457495 4998.920588001752 401.7758450780935 -6254.509167761167 26071.44315577245 23674.788852216443 5030.418083760231 6840.486298450587 -4715.449344404338 342.14803896041485 -7730.240649996684 8809.916464054771 11556.275809591938 9314.557797306245 7840.966048957584 -12727.403666800137 8225.449492254418 -8770.429591292184 -4321.565014285013 -8227.341313856907 -9635.667528038479 13144.269032871327 18167.717055845536 -1402.049109168413 -2936.3862592979312 -5305.11161543004 -17978.288929113347
-31162.629798635706 -424.7849760077479 -207490.94487504952 -25418.11110767461 -276416.08241401 -16774.216150499917 322525.9181623711 -5603.22520241567 -56040.7628793313 12580.635059005497 21.82272776049146 10301.783535797575 -16921.71630356805 1023.8997772746677 -12938.675086540346 318227.99175175175 464.6799332428009 -295169.8657558737 33294.18108809679 -2698.476097440468 5978.048878134121 -141641.91826041994 1645.712151392832 -4027.756530511015 303371.35175911343 -9836.739203630346 -11223.686619730519 -1664.1652366761687 -103153.36731545802 -14204.798327580138 -10083.786691855817 -71562.10217410301 -112138.87493428687 3113.764522144454 -11784.512410651094 -627.2426744941207 7949.807746970847 -5620.617402064203 312644.7998430611 -5927.171910359324 245510.79314047447 -460927.8427181603 -32679.824393461626 -72124.40228822993 -306666.36755775055 -20057.74638801694 136589.04000837164 -34060.13344961074 48624.737390622686 68336.01423321964 12135.114477332392 171918.79858821884 24697.06610604398 -468866.91802685 -4464.725891731117 22844.140771906055 -17415.87333273217 291520.0298156653 -5522.143619641842 -683577.3851380276 -272090.7316628806 75380.90342937541 -1954.690538564632 491383.04938573774 72120.46086340224 -508571.74042555696 107779.50053929292 -175417.56003990502 -4488.929656833999 -2026.4536648147773 169163.35409318676 -11490.157176957766 3252.90950719594 -21652.47748231075 5038.294053369024 13838.132628568517 213465.01379406446 10611.537686763544 299201.96187827626 116203.49916770289 125601.00258102264 177353.25916066772 5517.033150733552 301598.47782527265 -399516.80553951114 4571.663670350041 -108612.72397340633 16321.694500346237 -14824.63895025257 -106551.84422268502 28286.235356812944 498261.5200737541 -32106.310032525864 2229.5574949833417 279.9269402135939 -1706.0101107534754 24225.13277884591 -264162.449047845 476812.1855503885 -12930.313109651392 542694.9356752558 5539.242997850188 -110746.54255169524 -288919.6361635446 -173069.17573483585 -6196.621678738561 1639.3294292996102 107877.7525989054 115251.12307878809 163580.5819629533 4199.735531298365 1678.9942783069532 -36766.39075307818 -1027.9844221738279 -157793.6941415645 24235.037860436594 189418.95411721652 210912.47792834428 -292248.08552060585 56390.77953357857 281614.2462095507 -307150.5031755497 21180.01558622124 338107.1125772317 -116135.58666088634 -207460.09542106173 206703.3824717679 1542.6491639218923 -32510.845024620045 805.992651451153 17342.871026294248 274318.5526180554 23647.21784715132 283567.9712290258 -314.68824781619657 6040.566209513213 -201353.5809917136 297155.4480750969 12159.222423603138 4239.649703371565 -10083.168721167425 -191445.9515492135 109793.94378451552 44339.49119458337 94553.16280316409 -195.60830237365124 2537.0124239411743 -25437.265337504494 8030.540422566337 -55014.270606562895 23481.721698772413 -7136.105674403323 -672.0344098641162 7926.931102541663 43190.03177395195 -25694.432496058853 -320591.2268934849 512515.5641181219 14047.077967702338 289718.4465508746 -9493.888104696822 -73733.529901697 9339.905257283343 279642.9046688843 43801.10352253724 121735.50463604442 -124178.47901767246 -108434.90896328186 33104.6059370071 294307.5316097987 -3214.8479621104516 47259.18081850107 10558.29917053217 -7597.5766869267545 -161083.42165035475 85.39578124867325 -262355.0417073717 -4700.822296661261 -37201.38126976864 -6354.846288774905 -508505.04555022775 -6402.939752656863 73411.19745658692 3791.9582662350394 -219895.71057755643 -6366.100764033268 -3766.402118635043 -3692.7647035708706 -38668.172400758485 21393.88455936947 1148.0775431695288 109253.95004226644 301032.7923383884 -9691.918669887895 1809.1121138503188 -1024.2137154477095 22245.182815440137 -11253.595001316806 -82736.26631839748 -111628.97146203967 5786.621277130155 -765.9205784103651 -93513.63500575071 -459522.0911872833 -25326.175398918276 7836.124813940614 132595.58180783616 -986.3088716025816 -114982.43983430504 128191.80845384204 -305778.34475828847 2342.4115250697464 -296824.25613809197 1179.080536212039 -5302.179423806957 46494.095034122605 -1407.5534867286049 5515.68613042235 -10547.833683448416 175057.55659845422 -288711.0792315366 -43133.10445985778 -6014.97322015332 -3510.2555435912172 -304099.0724068874
-7203.839067063533 -1232.0600950685555 17027.057866282357 3512.665916218243 2761.496012805593 -17208.25514534548 -6244.454368980246 -3055.081944644615 -3217.5220827648295 4278.658483371323 8715.923510128385 9726.052468784912 -10260.64539898055 6295.303567732088 -10610.35860336279 15833.668457227941 -10916.067983817607 11639.462606807801 -13141.72991216184 -4091.538170423667 22279.96347654866 -14407.70927635047 -253.83178192292308 -24277.833659548833 564.9163504674902 -14196.104929826186 -24619.142155120957 13781.825462211353 28972.496953355145 -15044.373952146636 -4315.410582935171 4087.377813685025 467.37161041085915 -13193.358661492182 -2840.217497307596 -1609.485546330343 4562.05920816961 7349.773204889644 7755.668363193093 -7641.464971696804 29645.290001536312 -2977.4167701913234 4791.279595222815 9172.271163381869 -3497.601205889622 -13389.971522273316 -7361.42675960175 -11344.447124276283 16209.486718121858 -4040.993763399622 10342.605941865488 -15985.434777856217 21713.61636028351 7531.018379094282 -7572.479272825943 19789.796253618744 -8316.082865341821 -1129.7009994282903 -1161.0920081414679 27396.42409550559 14698.943279641982 -4774.562276545893 -10383.77522685779 -13022.517614909868 -5859.063032041308 11922.91492296342 -11612.206905737912 -2783.3807601483377 -11067.68584667126 -2470.5482160402435 1259.6903069862328 4939.789022613519 12416.492692371514 7134.799450496326 -5424.661446521698 7169.831014888499 -1076.1227353131685 16564.894021363332 4705.774923135955 -1767.092147240326 -8552.964867114448 9720.63926934296 9822.268781631004 8798.023517449923 -652.894852926935 -2672.616648674554 15651.237791969459 17907.497288022896 -21056.451231542276 -8740.190183146515 -5922.949278698241 6884.230531537659 -2602.018437320018 1664.192039280781 -11856.159928653004 -7331.826349849143 -1616.673332322164 2507.2979923008697 5483.603034663533 -18231.317246926545 5115.709449584916 -4967.399334833102 -4131.964866881694 -4702.802673059646 3390.3075131585015 -3277.787102589024 1894.2403082720964 1282.2866243287115 567.9846448927987 18065.71702581258 4951.246496795104 15717.942575745166 8697.760056561903 364.4828698259013 8354.555579734873 -13499.672501167202 -6671.01313691111 -2118.1236738781154 9133.01591386552 13504.49669384901 -12340.28678002366 -17507.215225064785 -1870.1721544392228 -23.065686251415855 826.9475009226126 -27717.266741000825 -8302.636119320465 8603.566532372504 12491.001252323858 -7071.917191821899 2137.2592549372694 -10362.573695831512 -1933.4363708880442 3185.7654464616835 -5798.428908351785 7063.083101692227 5058.189746540499 -948.0823162832648 12857.506492692217 -5784.729048082088 -11706.206515908765 9096.18052399257 -4375.747876321669 4547.578180386483 -10669.02693602606 3201.443269267126 12113.319983748328 3172.871103889808 6845.225882134307 -14014.648318238958 7612.575880959816 -20573.42978339255 -8481.531834308458 5513.073917918222 -6813.723679745454 -11765.312886953636 -4838.326163671598 -13032.58913171911 7339.580610991238 -25954.47450387027 -6301.266763469014 9155.42493464654 -20868.454076574923 7469.8686174319855 8130.477229849037 1597.572870643155 6394.604213366105 17284.967453640813 -3031.7433789879774 11718.391514119972 43.4106585098873 60.4895082786868 11783.71253339442 -10223.714887331347 -9230.826458694839 8719.043725925303 -1768.6435309248554 -34.68574496220026 -4641.272546481627 -12814.029093587222 2638.958355414702 -8563.402732486169 -26468.86666546034 8522.653135866463 -9028.854650149346 -1013.1901855103865 16747.08733106178 -8436.180634030981 -1763.5765004738541 3292.4057671652336 3790.3447206310398 11733.64383253793 978.4699974158061 -2302.218137246199 -909.7731338256947 -18225.67922489125 -2662.208527824842 578.2792384964658 -4281.904946390772 7650.201028402944 9524.902480626864 -15202.04701909065 21799.618065852945 14101.242610742012 2477.6741769406003 95.9143960304034 -2896.276070420078 5648.70463841626 -18255.650790435346 5041.946545295173 23391.64357048538 4730.0592854374145 12834.60133200108 -3909.5988180640534 2140.2181997240195 643.3752040630948 -8368.555965993779 -15570.23200137246 -8704.44271810535 4960.939752044304 16214.098258487586 7030.35013488343 -3918.1210865582175 9639.706010995083 -10889.742084649097
-14127.954692999374 -10062.018574233172 7611.260560946662 -6993.937192136709 16429.799283346703 -11148.898760871425 7468.833910300392 -8236.457451701193 37740.01630854256 1097.7553345262031 7140.908033064269 12913.212158119917 -3565.9767386808417 -4849.592007906439 3003.1367103036237 3532.489849086089 -1258.1939339562039 6338.745518327825 -2898.6557937216876 -1247.2583881621097 -96761.37080228266 -7503.402471179417 5544.187021856683 -23513.62536621631 58188.827220782085 -17935.9462785337 -28122.675429811967 14411.649195054333 -35822.42774753136 -19022.38104207968 -63266.19897692163 655.9476213124979 -113338.10744882905 14691.3210668135 4801.801271555984 -4322.009692629685 7535.993281712861 80274.40804290316 4920.093408368692 -3200.5585145750956 7809.8890250462955 -3477.676732325348 -2315.18160478194 10984.410512657258 -18062.198635646626 -29588.95972459263 111470.87461009623 -15513.25619647379 6831.060082190126 11467.305613335817 -218.94798362505162 -5375.681817218398 24272.049495205287 4261.649485152307 104001.73172137023 8009.717083129778 -5740.047123414451 -109555.86103295108 -8854.673807585128 22613.846492914894 19174.179215203603 -3298.799204860863 -4304.6019403447335 -5300.427722746582 -8693.856207771596 7435.942592006756 -8482.954625513788 -112342.0907091552 -17859.038614770994 10657.954303898065 -2921.240862347806 6324.934718698175 -42764.74127736891 7445.614005561374 -3008.551452677024 15574.92727345475 7106.476979264549 -2723.599486713191 -8418.047098064724 -875.0620784659775 -5923.670860427539 14670.895311509395 -2029.4718733168525 17592.191107322313 11899.718407810644 793.2480916249954 -158017.96714810113 -98403.30919476674 -21334.630824786207 -8373.052604897946 -2029.4254770595994 5355.761676184105 -8231.879287615211 -3420.8692730336506 -17674.310350673608 43938.64666649875 100822.20399966354 -6365.82444341302 6260.996085929431 -9751.684669637913 8494.566126475464 -342.93900018162356 -21911.97440342578 93534.74929854635 -5051.679534250116 -11889.732143971556 4276.964967877786 -107320.82576440091 55983.93185331223 -67418.65678417725 11906.296950145052 25896.00548455358 16774.633302621092 -7695.574332301218 9874.817773366647 -14419.28002222758 -7459.116148735082 108865.45620992147 113161.63876865644 56911.46735623279 95476.29851997577 -11433.601722313218 -8818.540205336321 -121114.49972561088 4259.668478348201 -13250.647204721843 1324.935753569074 143510.6489046449 9977.651975447714 -103228.42093059546 -3997.9855662516306 -21667.59476598632 13469.27748795157 -13309.065788411666 -3081.5987894748982 2172.631427821258 5245.701735063457 -13483.246127232142 10993.449970708054 -37413.158436015634 1903.0942293481376 -100749.27914166024 -3405.1297554558223 -8218.441849818846 -17315.67336345201 -2952.844605128881 3999.0212931811134 -1349.4290622509207 15192.89453808971 8747.486014158061 16351.52080886293 -14491.57579644281 44775.32080172321 -5374.683258162191 -57691.75837858304 -16487.541610822547 163.37626026980132 158566.95486997295 -9058.972871777853 -12718.65332396255 -7316.360308143889 -6226.10166913194 -8823.006067343324 4790.464595896222 15994.393295278418 5932.1358828933135 103925.08014238071 -143004.79618913712 9695.7167181791 3483.366207157347 106435.48885938906 118303.43727181945 3508.400580158011 -18005.739888332 110427.28265314338 -8524.552617272493 -116173.47345409449 48945.19047029535 15470.416321157463 110892.50898938667 10686.417756418381 8652.552493464247 102543.92176286128 2438.2966356804613 6629.785854532194 -8349.995439776709 10904.449054631259 -652.060175084505 4271.783718994771 -116610.84891153635 -12460.950406528822 3666.4728514216395 108851.62176303673 -112888.90720451952 25773.657544742116 -78303.56573429644 -7062.481281758804 -2858.233937545154 3247.3560112835785 -34948.52138369483 -551.9835101283668 -1664.4465473791547 24204.460623697483 116014.36387281008 14872.366798002 8625.081451004444 6760.63828022632 -96042.78609966964 -9423.806835941641 46942.46738079184 -78779.61727089641 -1477.6842210308841 7428.869319269181 -464.6803640703697 333.81534303978674 -6724.5949973422385 6226.8384584152445 -15918.609617737548 98121.54946603197 561.2849706183362 17106.4414549717 -114622.00484712512 -10594.296993396581 5291.66075262222 -121556.97364465073
-18541.67315574785 -4220.867661513408 7472.272406799257 4027.0869961833046 10481.57625672283 -8658.436512104674 2364.3997386468072 -2748.6441094926668 -5707.628495541132 2454.134161036623 1502.2111694208368 6480.262712173229 -5325.617102036783 -1263.7497477870222 -5728.656596962448 23472.736638168815 -7825.4027289998 13706.338492828298 -7397.53849613057 -3222.7383529953295 8683.913464872125 -7369.197722644562 10718.714788929221 -18245.897294007464 626.8591055976412 -12849.925940044357 -22482.718706532898 23613.37135264459 26911.585442609856 -19367.04367534568 -4027.7607216654533 -3106.04313454625 -5212.787527880854 -2565.3998783538123 -2466.206091967224 98.5950135089677 7278.4580409925 9857.91110152582 7682.344557508583 -8447.218415692796 27423.209081011122 -493.07659026380975 -617.5947366675782 6793.631028904555 -6998.2906153078875 -19816.756185937313 -12362.174232779851 -4663.676524153473 9563.08447496762 -345.4724997193809 10362.0021384697 -8234.882958061473 28352.64905862442 8490.347512141489 -9765.745267313385 13693.230259208267 -2587.0418011296115 660.6969928634815 -9088.097313846056 15434.345653452281 5126.598994846026 6660.8407660259645 -9481.20706762815 -11902.338292981476 -3814.7534340936 5686.043248713218 -3031.2787261813414 5653.372029741661 -4831.07628147172 -501.1971556262402 3237.971954977012 4469.665473919995 6774.430606999375 9236.591052192492 -10472.969367480384 475.6668634253997 -287.20071016044653 14324.87627275411 10117.696850548473 5967.1342713894755 255.56889844593593 9300.84607862975 6022.20644507068 15395.624052712146 6363.859224398329 -2095.741917233186 7503.698748239079 10999.792241617262 -12481.035346228802 -2067.097806138461 -3657.1481932938245 2981.112896389987 -6994.461166615342 2444.138965060307 -19869.760119292358 -7415.171099848523 -15960.201268553477 -3479.583429868663 -181.5594654609676 -11873.405330367817 16125.952676733561 -7271.144180178657 -1352.9832429152148 -6247.948806807235 3807.552985594557 -6201.119149097657 7085.576812732891 6271.704938605067 3254.3104319209315 7589.215378975476 1832.8620741496984 11112.401950682166 6370.636837014093 -2567.120647984462 -4685.734411376468 -18311.1873943764 343.726617181087 -7371.236622109559 5273.615375352304 19929.649357057453 -20931.117075226237 -10061.419352743173 2474.8695067092513 1813.7462980858106 5875.15104002716 -15716.588674858362 -10677.902574688367 7074.30214364212 11034.259647216137 -2372.982048182078 1382.5854111250535 -7864.966807172875 -4236.0750130066735 -3068.298609895487 -5545.744539015856 9970.338882572574 2670.8450111524744 3813.807123990073 12459.301607515528 7136.527481155265 -7312.765455601172 7692.573217549347 -5860.404220176747 3543.545600626847 -8492.203007798647 -9057.979871971576 13431.962096717967 14600.783633708921 870.2053406545124 -5356.262069736372 3327.9955525991513 -13112.25901186391 -3867.2124560597413 11715.864594789551 -3062.979619346002 -4023.8448641628556 -4414.831613686878 -6140.684419689754 8250.69161069267 -24870.60628537434 -11941.741656270357 10583.917378136886 -18471.732654584554 2294.082981481301 8587.618838862742 10249.176090178593 -18555.648021468183 13813.982507889781 -9241.314393766295 9310.574566957128 -7273.532472118671 -4671.413616029321 -1744.0678948383438 -9086.095909732696 -13628.038867414669 5894.483782202284 11733.14911829929 -10657.101300316412 -6979.978624622547 -11757.366461589343 829.0375308793391 -309.0732742781177 -17844.337536025443 -6107.937657882358 -2670.904322442566 2884.92740842058 9424.646441086226 -4697.2562465118235 3354.549921499413 -8069.61454882866 -4802.4239241845835 2063.685090378228 4557.630042879375 -5453.498956003978 1474.0017376550027 -13211.0450444104 -2194.765874478273 6854.446895949756 4771.801681041589 6171.595549236937 3567.176866955086 2345.3989278589925 17524.411932163413 2456.1665677273504 8380.487255047708 -1079.750721526911 4703.285060828908 3186.855827086817 -21330.69418911617 11125.411842259067 17798.998809896613 4006.646263088112 -1544.1551295172221 -9564.275852102102 -667.7051343646426 -2370.8561076005503 1879.2582107221367 -14937.78107882045 -7329.220209193093 8365.799339462908 13836.761104718737 13559.763760388409 -272.84452637092267 5205.5747543853795 -4604.093772380191
-12028.872074588837 -6207.7861027115205 9094.276686837136 -3689.7822529271125 7652.5084635115645 -15276.664318272315 -1115.8772304468316 354.2287497797968 -11020.847837802083 4269.616888279097 4632.219491720061 7985.444732365844 -33.50254375760437 -714.2076238748166 -7113.424829812257 24315.192445010933 -5074.9388325802665 7565.9485295140075 -7329.414421628948 -5824.34561323818 10457.927253262245 -8792.393844611202 -2701.361949852662 -17725.313250657357 936.7662328302363 -7250.722126215237 -20476.14051105563 16495.83260488311 20677.918430334048 -21837.092935089924 -7109.999802544345 -1338.2603017262393 201.25961125127583 -14773.924906939741 -7901.0043789719275 -460.2735827864268 11949.334946245603 11465.172156360377 1811.7841901849372 -5471.7914505564 26880.05651556172 -1444.339131288754 5572.7644543753795 8209.740812261729 -2249.7019013164613 -19357.42800729724 401.24075167110095 -13679.94571277057 13929.195146989987 -5788.484494923555 3264.236410235011 -2586.066823321063 10387.69454573358 1041.8336248521796 -5971.8978152729915 14818.696114426353 -3680.0295124915433 8651.412555517616 -9741.480077515334 22017.108397681433 8619.345234767608 -5938.834238124677 -7835.102009782442 -14774.04135455609 -4079.824900613766 7164.587275791661 -6592.542697092182 -932.1115008281336 -7457.989101245871 5371.597664998953 3198.0820095370113 3402.8224973821098 1830.7519040920354 12096.068599668919 -5985.942444638864 13196.706208320798 6426.686476488636 10589.09824510616 1307.040381405767 5886.438569169751 -1698.7048308767876 17832.542870601214 7918.676320475663 14250.171097377113 2069.2168170998266 -11077.824015074957 8571.094361741303 14466.544747981518 -22008.066506444626 -4531.297896440634 -7024.691212339879 15081.3463162707 -7831.547238251183 2825.676416297385 -19604.817217602747 -8433.852478396715 -7853.914856988581 6387.204483170159 1196.6284610533507 -22008.41052639082 14242.792732768663 -4569.140330469576 1179.1298868955046 -4612.795987941681 -163.19625838541037 4503.81146643585 -3617.4303029568746 12347.29920215437 6638.754290217435 -2961.3462284737525 2718.1981574208967 23145.010459233545 1868.291898631304 3074.6045040761246 6659.349703425029 -12269.466490616289 2564.1640570505465 2023.9422523530493 3276.4518555605437 11993.13542688533 -5836.607657506721 -11328.80425380795 11954.919259591663 -8628.119114154955 4551.933662357422 -12686.416800746438 -4058.2031335489437 9112.926479093201 10052.843910052003 -10725.998628084404 2977.3982669406396 -11024.753190315958 4838.938354436468 -4329.606489377018 -4270.052862100962 7987.339675311377 -1653.7862612696263 527.8091748876932 15150.139799621704 802.2924421053925 -11412.248809766992 6499.987582912701 -11383.732667297658 5227.837121292084 -11746.277005588987 -7360.4072560052355 11843.63503647634 5564.076187942579 5474.002128280923 -4741.987218504124 7858.96231904247 -21442.730909693328 -3962.7758846062557 10573.940854447073 -5458.477792486038 -10726.560165118766 -3388.914631981737 676.3941634858293 10438.498348366096 -22460.238380388666 -9639.827802463666 8869.674483603127 -20986.58859048259 8992.505198240537 17125.821551902274 13907.925228305545 -6503.647448799829 11984.260998838194 -1210.084247032908 5448.521502719745 -4858.967825029709 4001.9850197909263 6002.675220554254 -18606.94937951156 -4127.350180794991 8916.715644029046 -496.3975259955514 -349.4971919481493 -7436.958588557679 4515.196162750952 -2516.342442544934 5482.0154358404125 -20321.829061788823 -2837.012118554584 -6177.9245802592595 -2518.2713160995304 12171.817345456693 -6239.59670498513 -2000.6351101121272 -1805.1546035881618 -5603.596517280947 -7455.484375163529 4400.069301874924 -11616.251176147294 9064.126162754686 -12890.004714316772 -2635.9175852580574 3540.769212932624 -4639.455665285775 -1835.7300965978663 1879.8078794197136 -4636.1123503844055 19188.67391104748 8059.659403003283 5624.216287304298 2588.1452567296674 640.2081861678112 6296.128057959301 -22699.397821969535 16176.936078862622 11049.50759648773 3550.97282809743 4753.069645651225 3129.1845367539827 4880.965631478319 1176.8889752887412 -4005.666795856956 -12969.857209435082 -10838.408617128358 9717.732655987866 9850.820890024626 8281.860459331667 -2812.560313553063 8323.453569165224 -5820.482480200746
-9312.384915383866 -7819.105008007018 5588.568448269147 -1425.50609869662 10638.553669026236 -13073.722237509373 -2342.47113617868 -2417.788408342749 -2621.899006115562 -2579.2203465143016 5222.255970919681 12386.938441378883 -322.5483111680285 -1374.9920329156698 -6452.716396277078 14220.332220706374 -8764.479895418017 13786.342805239787 3522.2480154480295 -6284.3785685329685 3482.6267058478675 -8518.8103882283 -230.98602916372263 -23787.659611783693 1940.2632340060673 -15958.111730466091 -18197.5549582849 18904.48512360782 17861.3708063255 -2317.335422263199 -16602.623533725557 9874.3311018014 7308.921463225156 -9852.079546157871 -6214.146574450612 9500.765298675617 7128.182494993742 13746.508731036518 -2344.9581060830074 -7709.442785535435 23396.444181142764 424.16786790736404 -4023.3596445087915 19314.585500211502 -6909.802309806433 -35008.39701398272 -763.213832123239 -9225.873890914241 6684.870724126379 -4811.395312062679 3069.8984222883555 3024.798287098438 16922.030025837295 4545.168550661094 -10188.718059800472 11995.444128560533 4006.777206517419 -4440.324404237524 -6404.871665669816 29137.225641535395 19742.102917563632 -3158.166744044249 -11441.273182706867 -14226.531630956706 -13386.562809786565 4862.915096465421 -8762.726616553056 -3743.3634671007467 -11485.42150822452 7117.600311459442 -3526.7131333948046 5217.51538503072 3279.1278407946347 9053.087747683056 -8225.548978061213 -628.0665520745622 117.32244314208401 13759.149095227449 5104.3017544529075 2921.2687845847686 -9290.305435792481 21327.830832792006 10019.697130861381 18911.875843357335 3628.6891080376363 -5803.133706111662 13828.891130702832 10653.219501545611 -13176.558386366743 -4566.458414447703 -4625.17291445851 10508.864530956256 -4200.691065176091 620.988560809973 -17932.610660262217 -11430.436408219757 -13805.288745119953 5883.5433947098045 2586.3602371027673 -13776.39018967638 6799.826765720384 -6872.918310775242 -8032.41248037988 878.6199908232643 -6280.14329483603 -2069.9487886414618 9941.570321482026 -6116.085798022878 213.1953009874346 -492.57045589045697 2020.5392789773873 19082.65403142612 5233.612257455901 3276.239609549137 6908.872900629288 -18316.4984295985 9470.361257105567 -375.7914664386622 7841.320250835144 20129.536348185495 -20903.46100317923 -4361.05041098951 4867.354426339985 -2086.6881866240274 9973.100241182994 -16879.30674730724 1466.396944388576 7697.119865763736 12472.927558615353 -8203.923421132746 11342.562217908624 -7181.952738861069 121.8423879111906 2694.9176179477217 -8673.025708936893 715.2734992284638 4477.642895511364 -5143.519888507607 20717.060284863815 -6175.324981448883 -7882.7466976583755 -1987.200781364831 -4155.442610670427 538.4217143254828 -9884.33224109299 -5069.367879106988 8948.813843613352 4494.272108570141 3442.48984874585 -3385.31028934634 2561.973205158888 -7596.691402172981 -7470.798718315351 8566.464799149739 -5483.934828885875 -7464.598407881801 -454.1177513348464 -11752.611933017399 10781.791480978909 -25125.65440095148 -9625.949336613776 4793.53273155914 -16474.02809990221 6305.7145782591015 19449.561960890136 -3756.7434327854326 -775.2642021330944 13478.23800859332 -3801.4036378129804 -1357.2558283060068 -2404.4047875822926 -2258.579486983299 9543.491982751038 -29202.11356588447 -816.2735914105874 10145.262560838382 2206.9813159747864 -5199.812874367159 -12683.188792141687 -2912.008356720352 11491.919070457508 -1611.7331928236376 -21810.10907011775 -3536.7079877031 -7073.498050693698 666.6501647859391 11780.988516208172 -6292.732249681574 -4745.445442227 -3488.252559649948 -4849.199708554184 -4341.886391159295 2285.1643887840623 -3912.379450871792 -4181.120200296976 -11788.843854454455 -7053.269639116533 5305.126313679887 -9112.44803115255 16464.537973410454 9119.127981333057 -3543.6368962833017 28828.776501815464 12787.040264356272 10960.783920149725 -5794.5815274297 11541.066216394624 6369.9829569080275 -7631.016532105366 15706.958239650876 11430.017082604047 9603.830853123107 5673.6519966944725 -2824.734057429711 11330.376851847679 -8199.14187565295 -8133.914764935984 -7514.790454548843 -11403.244023362315 6985.53854584509 19186.86891974612 1866.6684277827267 -1699.7061548721817 5574.119778060107 -20582.04138151628
68734.76192463697 2057.6716863545344 -79907.72330670254 62323.95890614369 -52623.34663572203 -19322.046543790624 -7882.6846782394305 -5217.7066251143615 -6509.355964274938 57941.738950619685 2819.9109250110387 4935.9390173213615 -7471.579017276683 -4025.691968521175 4666.794663228338 13857.77496398752 -1.7814615125771525 15281.955562390034 -12153.990805753449 -2088.266093701427 7643.215596466867 70924.37051063187 3122.7063218026824 -16849.963641996357 2416.7703208867515 -7712.54161568389 -11558.491731726615 18992.646861807792 -77531.41887549096 -13090.934468857933 -14266.743634021617 7413.531149035572 4186.648345080595 -6850.852496422947 -12765.483485458752 4566.150444759647 4961.828711413848 13027.807460633674 -3729.319782683827 -8065.5058267866325 23080.956404805493 -86557.72750140994 -89.69948692766388 10026.546962572895 1742.277298846832 30993.15547666774 80469.04875808692 -6944.718517309553 10124.51617942532 846.1517278625176 72590.61713106184 13901.981649597281 12820.242981622174 -79129.91124246617 -6716.408503354983 18804.779208651817 -63577.49031441022 -16818.55086572982 -913.8199342242272 -50892.1350733279 16055.26796567559 -9430.188641610554 -6947.694318432145 83721.22016537782 -3068.0411396979052 -67880.19574897096 -8115.581410991298 -86125.42206074539 -7469.611842814703 5189.5265525521745 77310.71758093534 6052.116751741528 -194.7663695514634 9387.474079136513 1939.523246108025 5460.993954120674 182.1282471274892 3489.216595530238 -4212.696064306603 -2677.1525235194736 -94610.89125282672 95347.9204167592 61194.51167160398 2189.7729549772425 -64806.63432014194 -5603.928932470755 16672.22006716504 7584.165381766897 -15191.889958023428 8135.270415170552 833.8196945280099 80465.47059536741 -553.8644915940338 2472.8509259972475 -8718.262274449717 -265.34543090565643 -11270.047297563857 -2123.73326749174 77654.32741973 -74908.84961662971 62328.49623433543 -8221.653619382258 8547.322350693903 -3517.988435312205 -87778.8970356827 2806.540712848372 -4955.198728713908 -553.7477964661241 2928.936290098124 84407.8981373283 10593.340952727032 5626.9050516375855 9044.174508759197 -2757.3333149452183 -78164.17978063683 -13168.045611285366 5461.941737657748 82111.35767361501 13942.463941464222 105452.77009234011 -19302.81319641164 -76088.42732914355 -8096.663804839947 -6667.60453135516 5046.415776500826 -22939.61700737742 74791.42530693105 15964.41919394366 13264.870274451603 -10318.710654322687 -172.22551072445572 -22223.914855573643 -8862.364502671102 3875.241785447399 -11960.503855680457 4917.168403872404 6719.765422366693 -3529.7630023217957 8344.862565006355 1413.61782734001 -8785.149270693151 -75492.96862218861 -61061.07546850859 5673.437452353072 61416.888938475495 -7822.2234896560385 6580.481558319543 79233.7170329023 3658.792991071984 -5132.141570927192 20118.40678038421 824.5568245525635 4785.216842191629 8035.596666420119 -9706.922848361732 -4450.909250168726 -3608.2341001996692 75676.72123624546 12037.304356177796 -14657.131349690304 -10182.617392032069 7406.141084381122 47143.58295850699 3809.8029181513684 10611.009837131227 68136.10548768159 -8908.773159487926 -3034.2533061357567 10674.511782876274 60464.38638516922 -8896.051909802927 88175.01931382941 -4682.873702371176 -1850.5893833740101 -128.82687364094073 -2424.707502032009 -8284.406430958956 -9578.264216600666 684.6753832039435 -4296.646772444167 -71380.64658753194 -2727.4323805302024 -6687.109351776359 69920.30838665404 -75286.37736457495 -3694.4903270196774 7825.096110173722 -9695.815099951726 57531.71053082086 -69166.29671451882 -5495.593546975275 -3630.578521878452 -63175.20479937503 -98.3902546691077 3890.2330426216186 -8876.576995219613 -13371.943408102174 2732.820557495496 -83526.80021405772 -807.1420745371465 -69758.48241629623 -1948.8892124376828 16538.549705901325 -79085.99030504818 5282.716695008612 -50.92163214516677 -60435.70876248354 3260.89489365249 -67821.93099423993 11408.846635619506 -47671.436138342426 -45989.78198578714 14326.745478936991 -7637.533749656142 -6643.287162165701 6595.074742754217 -78334.16790880662 -3495.206327316779 55303.54982541025 80729.48463075134 10215.717750200805 5787.901003295843 -3741.943316373149 1863.7203535277222 -17802.44193501166
-12084.027383204617 9424.711388311413 2027.3450472223872 3572.865580132497 -2463.6756465298126 -18088.447400699773 2316.6610298264063 3261.4275329792863 -4064.714405684741 3788.572017007441 3407.0486105061555 9896.063958463186 -12797.807032848199 -823.141394634431 -9168.750627978738 17958.699929196886 -2311.7972063409775 8804.01407445263 -8339.394641871946 -12682.494339711504 3515.1501945506216 -9018.221765019436 -2279.4478618697176 -23538.11048417319 10257.861107851573 -10821.451650167786 -16933.838510507518 18057.085758534224 20231.4740431352 -13169.961207697754 -11583.948731935512 -2895.291571393865 352.4085648328803 -9265.426820224253 -9845.78967486092 3031.7410222487806 7115.984471077956 14005.518138603162 6753.221529055623 -16618.29961372564 32646.996626692322 -4288.2983391309 -1632.306528239366 12478.181363332595 1378.4901165464755 -17181.61975009265 -5443.450014498021 -9309.56006862108 11817.272503831224 220.32474847297695 11879.818493903422 -8554.404945464097 27957.17259611048 4190.9970684440805 -2389.240942594656 16819.5676876921 16.246503109802042 3622.369999617704 -7250.191035601756 25536.081509388652 6108.106835904839 -2679.2456863414864 -11915.575426512281 -9986.893918946036 -7738.410795791196 5478.309742789099 -6659.256616685967 4262.969258407452 -8476.66270881019 -74.02187128968126 -105.49042969390288 7271.91078424565 3228.561497365376 3442.80780792481 -6011.811689380238 3078.219829462352 2156.673008292442 14674.998032003497 5226.516081256273 4513.48894201922 -9473.570766107532 15734.16845465763 -1574.4337916588142 12134.151074645008 2077.646277938465 -6835.844497519693 8853.612074694745 14175.071594919504 -17047.71709167751 2304.378067432365 -4402.626191043619 5827.759679410266 -1522.9262271893253 5296.828836242707 -16738.355997727485 -8444.505040000982 -16517.23858276799 1594.202314190467 6167.842673335726 -16437.402189645014 14067.627041832044 -9238.306191969517 694.837587911104 523.1761116360422 -2634.55862691485 -1303.8694364625123 -2098.8971320984806 9758.207756598986 9301.03089989525 9589.157638005801 5212.724974514199 18151.86849516324 7194.846323423432 -1056.7921175888978 -3149.243721513425 -22138.12997886224 -5135.506010322338 -8532.517568532196 6862.83357085639 15618.64738630511 -23604.755162379195 -18201.580205459053 -158.17826452554326 -2351.4918197828742 9843.858207119843 -25082.934071142292 -8991.510926646197 13660.392384463425 13349.096627417579 -6995.192399540336 6388.597955392334 -3544.334631187613 -9416.186871004911 -5698.482695736053 -9882.584584604767 11369.178387727387 5435.409866954351 33.31801114495549 7380.941280085589 -1892.2852065835634 -8101.098568180559 -8776.559107654833 -4127.047200744239 2079.0624068291113 -19742.600403303786 1964.6571183564818 16834.00646991667 1775.7721096701555 7922.821053280737 1232.8844061361146 -4876.4339826476735 -4183.479941306396 7423.372168503919 8161.541507460112 413.5014505941221 -9084.195582843557 1312.4629297910578 -5815.582707733957 4849.035583943782 -17692.238643936747 -14327.736166793382 -1416.2785652438452 -17552.72748719237 2324.927610082672 19435.218439564236 15519.772717989272 -14062.484711527004 11271.532535259124 3211.9170070696955 3611.1457303252955 -9497.071119778135 -5575.5378848540295 7975.981375458431 -9837.916100121798 -8265.171992837746 275.98363828589345 5331.510425949679 -694.7388599912736 280.8523738413139 -13231.836156616575 4838.792709139583 -2663.661774952077 -10119.802020631456 -3360.9647805520362 -3980.6100385135956 -13261.419610862358 15141.054134153825 -5617.71076734736 2876.3128944339715 -928.3347997831199 -3168.20738811565 7673.470870779439 4051.8731239228737 9529.656450287152 9892.498582489401 -9029.791255067157 -7020.577333672313 244.42711226807603 -15064.56793727073 509.1352111535319 668.3215497668601 -12009.319224580391 23269.925446523233 2735.9201990465544 11238.842383611787 262.92389092086864 260.93599331644987 9710.766728975259 -13360.513653893213 12075.602360440804 17441.847873555358 -824.5058526345548 10417.738480230137 -3204.4004043800355 -1741.785582250894 257.3885809065757 -4170.644422512721 -5413.143941040561 -9916.910622672702 12269.941826430555 17197.222088425027 13782.907752654357 -1188.2923608188842 2046.2086198502886 -12765.158020763569
-11263.411913761454 -8075.634311416559 3722.708597507322 -11176.213154143703 14097.89448946576 1764.9885082969918 -455.7600065011002 -11092.282037896515 2839.457231779693 -2005.8123513092687 20930.535130954206 11205.868695225472 -5699.588953982843 -7115.782290809298 12033.96208720561 23698.37023748452 -17001.067075958308 13669.104287982816 3629.8966153668152 -14901.44257847793 2464.835066937381 1753.5135164600256 -132.7718856441865 -34209.81727651891 6583.157326566372 -7767.4207142296 -30667.82768586419 12840.6119184496 15057.001732583327 -16079.34418596161 -11496.585828657766 -1732.9735909304432 -2811.0583892296795 -7861.219533733218 -5056.780856012869 11445.780747408657 1958.6754254872171 12227.572986767922 14314.552535099794 -8555.862361806252 23945.32549622108 -1643.3835874308436 -9125.257245713483 16715.624792753177 -6018.074147811832 -20615.407696034148 -11404.063306546741 -14758.97351587222 16594.09053392716 -1194.4609123454647 -8448.79457019285 -6106.233218824412 24891.83645074117 15453.116369435114 -10852.078429750843 10512.802943243152 11526.60859180008 -8824.724818218703 -11314.181004481845 24994.033702279707 19922.775669552248 3711.278741740498 643.4653027960444 -13429.134801812736 -9529.571953626579 21873.683473174427 -18391.94217684026 2857.40338643041 -16428.33135415234 -373.15704432280666 -12305.437125957053 2988.779025384692 14531.443781583084 -1530.8457868914425 1355.338589378688 -4598.137132477264 -10632.079523345574 7234.614187790689 1031.5231795400223 9930.962546824388 -18854.69884622383 11430.36950860233 -2106.499180738937 22067.89415629634 11041.233498319652 2409.333103082561 -14506.926633435845 3951.423498388004 -19563.534682012294 -6081.920852476359 7161.03106865786 13650.091586641118 -13397.348429465354 1915.7053169867959 -17726.92355320257 -8006.505758399098 -6606.386925525764 7230.007965560804 16887.2293935528 -5252.873753373675 -2800.695104065367 4753.7916900963355 -3987.4134046689114 -1423.9426475980981 11114.90058566353 -3015.9772045045706 -5977.221372433784 -8662.092650977265 2576.273178128541 -499.2302112389182 4780.942348055314 18331.724179929115 -2793.4610596668354 -5203.431679095526 2422.447457666511 -11720.44440439956 3030.265930979628 1460.1864380310694 8951.763763846837 21335.27369680011 -10683.283222634644 -11048.151720836418 11480.031203025372 -10023.980349719239 10480.314698366548 -11595.575043458357 -2794.566213611974 10220.532090384613 -3656.1738957032912 -22627.889420873926 1071.456865726489 -10737.056979030804 4178.005605217915 -4469.825847454852 -16025.023584105324 2582.8521139034456 15524.614347647417 -7189.337006368139 27550.589985848543 -4708.122409738721 -18040.98099270677 6521.406321518744 5313.6349780448945 12953.969737485368 576.0612181967833 -5361.349230344924 17079.37720796091 734.5591845912643 15329.643202954725 -6683.736174465962 11834.226361599394 -19823.290735430764 -8753.339433834504 9390.061337429495 -10630.649905380122 -27399.380938000813 5376.035950903416 -6078.00778140488 11400.667275335181 -30239.440735287197 -7716.060136599108 -5750.115806043241 -13627.425583483828 8542.294314069075 16288.681592890323 18889.60480376398 4319.574975607529 9773.215113633834 -8835.528207508385 -2732.99744299135 -6534.632102946745 9129.856642920415 561.6152580777468 -11629.828667050915 -4253.66124476122 -6571.307823363893 -2145.5206327962123 -2290.624175210437 7480.408806862521 -12431.063130783803 13036.243577974892 -313.1600212936212 1733.0387363259933 11934.932920228288 7015.715289341793 -4466.335868383685 -2741.293581117111 5664.769211654892 499.6073122549726 6709.260646945506 -23702.181541580467 7520.257842843318 12268.493888904724 -15140.54250574379 -4054.874125683749 -20495.786320155912 -3072.7691477335256 6957.714096050876 4688.449141459539 6186.904519712395 9209.8369886011 826.1859864095212 25000.622989455787 8827.273626610198 3891.1858169638817 17424.31592055668 624.969634125946 2443.2555051040417 -6767.936318198658 19660.55842042449 31092.701755354654 6232.3666185897955 14584.662221848994 -2499.914860470026 11587.377298881174 -16738.253318189065 -2443.881258200585 -20813.87208791971 -24382.60088221933 15353.747386762096 -4926.004986706181 -15697.72223673877 -12594.448215104405 5562.608538627574 -20659.49290186475
